SVM-light Version V6.20
2 # kernel type
3 # kernel parameter -d 
0.4 # kernel parameter -g 
1 # kernel parameter -s 
1 # kernel parameter -r 
empty# kernel parameter -u 
16 # highest feature index 
28 # number of training documents 
1001 # number of support vectors plus 1 
0 # threshold b, each following line is a SV (starting with alpha*y)
-18.639097841907521058146812720224 1:0.94283932 2:0.39414561 3:1.1453239 4:0.8869881 5:-0.021017289 6:0.5979656 7:0.67457205 8:0.42753822 9:0.49428999 10:0.72875756 11:-0.1992787 12:0.85919333 13:0.67586404 14:0.46334717 15:0.54170763 16:0.48633745 #
-32.259249299426741686147579457611 1:0.43173537 2:0.53457749 3:0.38672164 4:0.4246887 5:0.60929298 6:0.46970925 7:0.26237375 8:0.58490425 9:0.50284392 10:0.47784081 11:0.59526575 12:0.42434853 13:0.46479544 14:0.5045886 15:0.48939037 16:0.50342035 #
-7.975935171169599158247365267016 1:0.59455347 2:0.35292876 3:0.67816573 4:0.67989177 5:0.28725064 6:0.44881895 7:1.2209287 8:0.22508383 9:0.50195062 10:0.40315297 11:0.40364024 12:0.42371866 13:0.65068877 14:0.53237844 15:0.45121256 16:0.48231405 #
20.532267933396372683318986673839 1:0.72568917 2:0.74954134 3:0.85897887 4:0.3925373 5:0.58117419 6:0.4073987 7:0.057528131 8:0.65676785 9:0.50520712 10:0.86750519 11:-0.2322046 12:0.69820797 13:0.40596542 14:0.45114347 15:0.51717758 16:0.51052421 #
-2.5271041808877869883076527912635 1:0.78313416 2:-0.085181482 3:0.76649976 4:1.1927611 5:-0.1695935 6:0.69038075 7:0.36833754 8:0.52969402 9:0.492935 10:0.038517486 11:0.71260381 12:0.1957688 13:0.40801516 14:0.54780549 15:0.48051569 16:0.50741315 #
6.1201480033111561596115279826336 1:1.0327708 2:0.489241 3:1.1511528 4:0.56291533 5:0.40225884 6:0.37526169 7:0.33757895 8:0.56425518 9:0.51011378 10:0.37740612 11:0.21150284 12:-0.0060848813 13:0.054362368 14:0.45519599 15:0.3989782 16:0.54367065 #
-0.88503445775187195021516117776628 1:0.34515819 2:0.29296139 3:0.39495805 4:0.9520337 5:0.21971138 6:0.76700312 7:0.09690617 8:0.62028217 9:0.48400208 10:0.67298299 11:0.35902971 12:1.3082992 13:1.0735835 14:0.60497522 15:0.67461866 16:0.44135493 #
21.30115339050848177748775924556 1:0.70308125 2:0.49547693 3:0.76947826 4:0.82275999 5:0.12154051 6:1.2545868 7:-0.082846835 8:0.62989646 9:0.49637592 10:0.40136915 11:0.062636383 12:0.37521812 13:0.6131323 14:0.42574844 15:0.60346252 16:0.48728779 #
12.065155624574044779251380532514 1:0.66865963 2:1.078263 3:0.54767269 4:-0.00013269063 5:0.69518244 6:0.76898146 7:0.86538744 8:0.34963408 9:0.48228863 10:1.0653237 11:0.2059948 12:0.99675924 13:0.80524689 14:0.26799908 15:0.57584429 16:0.48731631 #
2.6112552370490842434946898720227 1:0.31257883 2:0.15212089 3:0.7344358 4:0.94467133 5:-0.043207303 6:-0.37650442 7:0.050911397 8:0.76886994 9:0.53833961 10:0.5510844 11:0.059392136 12:0.56855857 13:0.37447733 14:0.6600976 15:0.33861494 16:0.47246704 #
-6.6614496936583345032545366848353 1:0.77456129 2:0.50958037 3:0.62162918 4:0.50765127 5:0.80923653 6:1.4381542 7:0.7888993 8:0.18882789 9:0.48257095 10:0.63965428 11:0.18512446 12:0.29905882 13:0.33817679 14:0.32748574 15:0.64361006 16:0.58254659 #
5.0036826304102213214264338603243 1:0.91033083 2:0.94530541 3:0.77339065 4:0.4161993 5:-0.31393176 6:-0.068928681 7:0.63785309 8:0.91594273 9:0.42385444 10:0.5820331 11:0.44487318 12:0.77014583 13:1.0585797 14:0.46097183 15:0.30353582 16:0.30256537 #
-12.310383674629715500259408145212 1:0.8857075 2:0.67137051 3:0.24062715 4:0.98097414 5:0.22538547 6:0.69391608 7:0.80969423 8:1.0511343 9:0.21336877 10:0.92113745 11:0.14747836 12:0.37170961 13:0.42775479 14:0.40312672 15:0.25101829 16:0.26378813 #
-0.5090738781053703032597468336462 1:0.35705432 2:-0.09339314 3:0.70137119 4:0.91378731 5:0.83053929 6:0.44456404 7:0.7219032 8:0.61600327 9:0.46116546 10:0.6309579 11:-0.164005 12:0.79265803 13:0.47071952 14:0.94418603 15:0.63673729 16:0.46580824 #
0.37789205279579030083425550401444 1:0.56716526 2:0.67969155 3:0.58266765 4:0.73329788 5:0.065325208 6:0.13385069 7:0.32678851 8:-0.26536432 9:0.6935218 10:0.69994313 11:0.22960819 12:0.65421283 13:0.62340754 14:-0.062153935 15:0.43477663 16:0.73635101 #
-1.5858683078107931319067347430973 1:0.055548117 2:-0.11802623 3:0.27204549 4:1.4403753 5:0.82727802 6:0.63297623 7:0.22693917 8:0.22068343 9:0.63573849 10:0.38967234 11:0.19663376 12:0.35235175 13:0.089380413 14:0.33673269 15:0.70923012 16:0.90377182 #
4.9475565670720671462845530186314 1:0.83148289 2:-0.038326167 3:0.78895855 4:0.15816794 5:0.78265792 6:0.28863892 7:0.20101941 8:-0.18348728 9:0.67056721 10:0.52104032 11:0.22838975 12:0.85841668 13:0.57021242 14:0.64470619 15:0.65554088 16:0.58234537 #
0.55230584070484933789657588931732 1:0.99992198 2:1.2625344 3:1.120803 4:0.82304502 5:0.22784187 6:0.63593489 7:-0.042161826 8:0.40251815 9:0.54073709 10:0.54356217 11:0.76299936 12:0.66177726 13:0.60725957 14:0.52558064 15:0.42342553 16:0.26804945 #
-0.0060849292297611712321270260872552 1:0.94832045 2:-0.17597179 3:0.51355034 4:-0.023148848 5:0.29952332 6:0.57142514 7:0.4506081 8:0.93759501 9:0.43093517 10:0.4360033 11:-0.0023464258 12:0.47940195 13:0.93255973 14:0.40641633 15:0.59359562 16:0.5775665 #
3.3260828485743436644384019018617 1:0.46403667 2:1.2742801 3:1.1173625 4:0.77980697 5:0.033752844 6:0.90173566 7:0.90795267 8:0.83606982 9:0.65611988 10:0.58894169 11:0.26245767 12:0.24803662 13:0.48348576 14:0.2662496 15:0.41663945 16:0.35795656 #
-1.9364452279228516751174993260065 1:0.89604014 2:0.31361416 3:0.30244821 4:0.79447186 5:0.48444739 6:-0.048425872 7:0.70634425 8:0.31064418 9:-0.29153949 10:0.72205377 11:0.31665504 12:0.9050526 13:0.68421924 14:0.56819546 15:0.46992862 16:0.8334046 #
0.96755653061466018183267578933737 1:0.55645525 2:0.55122501 3:0.81415206 4:0.70094717 5:0.31875888 6:0.5881592 7:0.50389242 8:0.44763938 9:1.5038114 10:0.68799108 11:0.19611268 12:0.69802815 13:0.48327708 14:0.76682436 15:0.51469707 16:0.010606018 #
-0.48323617044273298182233133957197 1:-0.034569182 2:0.60664082 3:1.0435438 4:0.7562499 5:0.4695884 6:0.51547468 7:0.49460587 8:0.34529856 9:-0.19010538 10:0.59168303 11:-0.012584945 12:0.5514527 13:0.68395668 14:0.11769172 15:0.50792223 16:0.72975147 #
0.53641558272896716630384617019445 1:1.0893087 2:0.72143298 3:0.42866147 4:0.42405644 5:0.73952687 6:-0.21893394 7:0.81074077 8:0.4065606 9:1.0567027 10:0.62419808 11:-0.032915074 12:0.6962117 13:0.60315001 14:0.81682396 15:0.24161924 16:0.54965854 #
1.9384118474775697826828491088236 1:0.52018785 2:0.16881651 3:1.0639266 4:0.47506788 5:0.10175691 6:0.72699368 7:0.50225186 8:0.48336607 9:0.012116393 10:0.78393447 11:0.5997262 12:0.7590785 13:0.47088766 14:0.58367413 15:0.90229899 16:-0.19430852 #
-1.6400631022242815326706022460712 1:1.1835717 2:0.66525209 3:0.57728428 4:0.62657696 5:0.59054518 6:0.4194333 7:0.51613963 8:0.47136647 9:0.20200792 10:0.25477442 11:0.061286315 12:0.43319145 13:0.62193865 14:0.85158974 15:0.95017469 16:-0.10717558 #
-2.9087213057525098669486851576949 1:0.38735363 2:0.55432242 3:0.46014792 4:0.58929724 5:0.21627885 6:0.18259642 7:0.65205812 8:0.30636731 9:0.50919789 10:0.88313109 11:-0.1021352 12:0.5653016 13:0.25505179 14:0.094973303 15:1.021265 16:-0.080134153 #
-0.92351070139447610785055076121353 1:0.50417215 2:0.48784924 3:0.9437784 4:0.27436835 5:0.40651202 6:0.51052517 7:0.49881664 8:0.24967712 9:0.23580617 10:0.94924325 11:0.043497108 12:0.52453744 13:0.9395892 14:1.0029634 15:-0.14459831 16:0.064661637 #
-4.4850009496826634958210888726171 1:0.87930292 2:0.20904841 3:0.36995277 4:0.61858499 5:0.16658638 6:0.72983867 7:0.17859031 8:0.2404411 9:0.5213927 10:0.60950094 11:0.25364709 12:0.43483523 13:0.72745627 14:0.32964593 15:-0.34537962 16:0.49586335 #
1.3947307769315431258405624248553 1:0.85349083 2:0.18027173 3:0.83559233 4:0.68611014 5:0.42083398 6:0.52576691 7:0.44868013 8:0.3573221 9:0.33600321 10:0.2300299 11:0.16155082 12:0.87085533 13:0.35784701 14:-0.28787962 15:0.19181129 16:-0.043764658 #
-2.8972612212004631437878288124921 1:0.75228709 2:0.35442698 3:0.99084711 4:0.64666319 5:0.93386698 6:0.79199582 7:0.28743482 8:1.1940143 9:0.53315496 10:0.19180267 11:0.31157959 12:0.75313842 13:0.77104515 14:0.48954788 15:0.18736573 16:0.13521855 #
2.5209107050828012397403199429391 1:0.31668529 2:0.15109882 3:0.99039876 4:0.67563921 5:0.52237028 6:0.16646521 7:1.0313952 8:1.1234881 9:0.76958758 10:0.89984369 11:0.23778909 12:0.77189124 13:0.71546328 14:0.009882573 15:0.26230574 16:0.63602918 #
-2.1517081867221263813405585096916 1:0.88338709 2:0.36570987 3:0.48865989 4:0.90955883 5:0.16782516 6:0.68027234 7:0.39535272 8:0.8071335 9:1.0158457 10:0.82628047 11:0.42616904 12:0.93377846 13:0.048297592 14:0.020011961 15:0.62354732 16:1.0101905 #
-4.7360089064775747758062607317697 1:0.44306552 2:0.40968618 3:0.92544526 4:0.99412018 5:0.44984213 6:0.47562999 7:0.50588322 8:0.23454869 9:0.48492807 10:1.0310407 11:-0.033438958 12:-0.22365917 13:0.44791764 14:0.37659734 15:0.2941291 16:0.072560266 #
-2.9315106384826208341110032051802 1:0.2826913 2:0.93930411 3:0.52264673 4:0.98277581 5:0.082743466 6:0.64798176 7:0.47975916 8:0.072743781 9:0.38989303 10:0.74902362 11:0.26683176 12:0.95769352 13:-0.17384376 14:0.84487486 15:0.40898448 16:0.19494441 #
-1.2504823652330725458625693136128 1:0.68938148 2:0.44465563 3:0.67661947 4:0.58466482 5:0.19729301 6:0.7114107 7:0.34025282 8:0.52759439 9:0.3135744 10:-0.14606044 11:0.34590617 12:0.70102352 13:0.48732689 14:1.3832797 15:0.24578023 16:0.63564497 #
-1.1243321443600802211904010619037 1:0.71844125 2:0.41360843 3:1.0188075 4:0.051208559 5:0.0080747521 6:0.36440426 7:0.50126755 8:0.2685824 9:0.44295457 10:1.3558036 11:0.39432985 12:0.44505677 13:0.32417965 14:-0.16432889 15:0.53161305 16:0.60071105 #
7.2905120452778993112019634281751 1:0.83096558 2:0.095307276 3:0.96108627 4:0.75592119 5:-0.042942982 6:0.57725948 7:0.64022672 8:0.67104238 9:0.74199212 10:0.88068205 11:1.0958197 12:0.7734428 13:0.61020106 14:0.95559841 15:0.1777177 16:0.75343764 #
-0.58829216325312483348852765629999 1:0.9069497 2:0.40462378 3:0.78767437 4:0.18167278 5:0.40314063 6:0.82009476 7:0.11810835 8:0.81828612 9:0.49904862 10:0.9414677 11:0.3911593 12:0.77270532 13:0.34308541 14:1.1271538 15:0.918432 16:0.93557525 #
0.27605356896977872871445924829459 1:0.25581446 2:0.87515461 3:0.65601701 4:0.27145419 5:0.093135022 6:0.25731099 7:0.96665555 8:0.84901154 9:0.5844788 10:0.83892316 11:-0.12447449 12:0.44597319 13:0.11973032 14:0.98034126 15:0.57492054 16:0.94544178 #
-2.6762977326922605669778931769542 1:0.85765803 2:0.10933162 3:0.81445366 4:0.85361558 5:0.60516036 6:0.058030579 7:0.45785478 8:0.29953286 9:0.67904198 10:0.7284804 11:0.44035932 12:0.65087926 13:1.4056009 14:0.12699962 15:0.63872474 16:0.016385347 #
0.82589590298560289216567298353766 1:0.43683147 2:0.64030248 3:0.51345283 4:0.12545744 5:-0.044726867 6:0.84925246 7:0.37351906 8:0.8110677 9:0.17234634 10:0.55506605 11:0.0072142887 12:1.0246037 13:0.11437429 14:0.31761858 15:-0.03174739 16:0.54554194 #
4.7839409529852634506141839665361 1:0.87907118 2:0.63283324 3:0.63194621 4:0.90832394 5:-0.2573348 6:0.054389022 7:0.7285623 8:0.16339059 9:0.73460585 10:0.4109841 11:0.60932517 12:-0.092187591 13:0.48919734 14:0.78533196 15:0.074994996 16:0.04706705 #
-16.03134675716011159352092363406 1:1.1133816 2:0.045439824 3:0.62893176 4:0.6504494 5:0.49084526 6:0.78639299 7:0.33895284 8:0.55914819 9:0.8981393 10:1.310421 11:0.10769399 12:0.802876 13:0.043500371 14:0.57614565 15:0.25527173 16:0.26850596 #
1.7330253643452899758869989454979 1:0.54798758 2:0.15581347 3:1.1175363 4:0.63011771 5:0.31115198 6:0.09959434 7:0.92728293 8:0.19174415 9:0.33102217 10:0.30578476 11:-0.061393611 12:0.77555156 13:0.049229544 14:0.38911849 15:-0.19968109 16:0.82414019 #
7.6990444299207574374577234266326 1:0.68370175 2:0.27850714 3:0.50786752 4:0.86258173 5:-0.1773573 6:0.88552392 7:0.5844034 8:0.44337744 9:0.41629672 10:1.1316066 11:0.72180104 12:0.20038876 13:0.97148699 14:0.41970584 15:0.99705076 16:0.62996614 #
-1.387020033964093013167939716368 1:0.81369907 2:0.35224614 3:0.90768999 4:0.76737672 5:0.62317228 6:0.42913833 7:0.41304663 8:0.25241345 9:0.74103779 10:0.81881064 11:0.08088927 12:0.052216019 13:0.94037831 14:0.81524628 15:0.57530445 16:1.3327911 #
-3.0891888183591658112447930761846 1:0.59042162 2:0.80095696 3:0.65517992 4:1.1561494 5:0.13456763 6:0.21378185 7:0.39586905 8:0.8496365 9:0.18450247 10:0.34876177 11:0.075433113 12:0.14781408 13:0.83651358 14:0.11595777 15:1.0938853 16:0.9007439 #
-9.7851906502500440865333075635135 1:0.65811837 2:1.1304114 3:1.0647525 4:-0.075929776 5:0.62873274 6:0.19048411 7:0.50533873 8:0.23951262 9:0.23779233 10:-0.0018384141 11:0.27652052 12:0.61228961 13:0.59732723 14:0.29115158 15:0.73302013 16:0.47461364 #
2.4677199576601385189178472501226 1:0.74757117 2:0.84481084 3:0.54222786 4:1.0975976 5:1.263057 6:0.48271266 7:0.19132927 8:-0.109845 9:0.33506069 10:0.66387069 11:0.044352852 12:0.66227525 13:0.74088967 14:0.3104125 15:0.49467105 16:0.15474702 #
-0.6495263781611524400716461968841 1:0.33720803 2:0.55954933 3:0.91788888 4:0.85850859 5:0.80282444 6:0.98583776 7:0.07014817 8:0.40912288 9:0.75640672 10:0.99989206 11:0.27286166 12:1.0094327 13:0.61047864 14:0.71091086 15:-0.13003114 16:1.0092592 #
-0.84626936142817887898104345367756 1:0.11351191 2:0.44176659 3:-0.17855629 4:0.22370218 5:0.31624115 6:0.17377435 7:0.45247915 8:0.30458009 9:0.23994362 10:0.87982345 11:-0.17364676 12:0.77165282 13:0.8562029 14:0.75929821 15:0.61234254 16:0.24902694 #
-1.4476830619773910502345870554564 1:1.1901191 2:1.1885045 3:0.81180322 4:0.45689797 5:-1.0336356 6:-0.43394476 7:0.81695229 8:1.1625998 9:0.3049823 10:0.59760922 11:0.76713002 12:0.85833889 13:1.259202 14:0.39227152 15:0.14434421 16:0.097396486 #
4.7677298305330353400677267927676 1:0.75876045 2:0.16240647 3:1.1001753 4:1.0914812 5:-0.048443947 6:-0.041272152 7:0.88957345 8:0.52402079 9:0.1398762 10:0.77410942 11:0.9502039 12:-0.064766698 13:0.37316942 14:0.49750236 15:0.5245012 16:0.79705882 #
-2.661863797073595883091456926195 1:0.52904534 2:0.42370284 3:0.81403422 4:0.31715918 5:-0.13080293 6:0.71860737 7:0.53289193 8:0.58348495 9:1.2633883 10:0.26577848 11:-0.086273618 12:0.56320131 13:0.68219543 14:0.46380487 15:0.32593131 16:0.94306523 #
-1.4486496341753543060093534222688 1:0.53016692 2:0.68932313 3:0.15952885 4:0.86516607 5:0.46488863 6:0.75030267 7:1.0833141 8:0.67926919 9:0.55676436 10:0.50794047 11:-0.16983639 12:1.303583 13:1.0308323 14:0.58938259 15:0.2569266 16:0.69940847 #
-0.049162609690123482142354305324261 1:1.1419203 2:0.44226319 3:0.25625962 4:0.81094104 5:0.55224222 6:0.6412707 7:0.27198005 8:0.44543257 9:0.78172451 10:-0.28090692 11:0.022319669 12:0.92706281 13:0.57502443 14:0.32941702 15:0.8634361 16:0.71719587 #
0.92138451558115896933287558567827 1:1.0538657 2:0.59540755 3:-0.34871072 4:0.72586328 5:0.02214786 6:0.92200375 7:0.72753549 8:1.2736956 9:0.090236694 10:1.1550359 11:-0.038349986 12:0.59112221 13:0.062001813 14:0.29923615 15:-0.76176393 16:0.10857416 #
0.98071005601714711374938815424684 1:0.99621302 2:0.8815881 3:1.2540036 4:0.90415806 5:1.0917516 6:0.34339163 7:0.87945867 8:0.88635105 9:0.38985825 10:1.0678146 11:0.29909685 12:0.58822262 13:0.26391873 14:0.49620861 15:0.87405884 16:0.38146436 #
0.54567090639448312394677031988977 1:0.43253499 2:0.92168945 3:0.98818058 4:0.47008511 5:0.74795216 6:-0.094151378 7:0.81806934 8:0.29891708 9:-0.089734629 10:1.1125758 11:0.066678844 12:1.1472963 13:0.63104171 14:0.40681016 15:0.72328252 16:0.24676318 #
0.41040635160710342566048325352313 1:-0.15109582 2:-0.093722552 3:1.0416712 4:0.56455684 5:-0.065744914 6:0.81483978 7:0.29426861 8:0.53094047 9:0.611507 10:1.2251855 11:0.06585671 12:0.86071849 13:0.41545379 14:0.34876537 15:0.52404779 16:0.73834926 #
-0.17700349722003086427868367991323 1:1.1126244 2:0.20300171 3:0.38574356 4:0.60268754 5:-0.014672939 6:0.18058997 7:-0.18403596 8:0.16593443 9:0.34463972 10:0.66260707 11:0.25384608 12:0.71174085 13:0.032465111 14:0.65227795 15:0.88982767 16:0.39447001 #
1.9921004960615571466320261606597 1:1.2092299 2:0.084018119 3:0.93133348 4:0.74632603 5:0.34365886 6:0.99718827 7:0.094243079 8:0.18130292 9:0.25391161 10:0.60322094 11:0.83539933 12:0.66472107 13:0.89049268 14:-0.083296172 15:0.77916145 16:0.66046864 #
0.58803574862080587593027303228155 1:0.82507312 2:0.57542062 3:0.74042231 4:0.38555226 5:-0.10557668 6:0.48836735 7:0.84809184 8:0.18601784 9:0.57191902 10:0.39392388 11:0.13395216 12:0.55083448 13:0.24014497 14:0.54079252 15:1.4795798 16:0.85537487 #
-0.78854480708030527669194498230354 1:1.0445366 2:0.90054405 3:0.31578302 4:0.97528565 5:-0.45040482 6:-0.26168215 7:1.0426513 8:-0.040782165 9:0.98122764 10:0.49301025 11:0.7929365 12:-0.60531789 13:0.48914874 14:1.1658429 15:-0.32933009 16:-0.30384636 #
1.9197628163287283609150790653075 1:0.58034605 2:0.40829298 3:0.67993855 4:0.35075051 5:0.68088037 6:0.68243945 7:0.7389524 8:1.1116654 9:0.028721601 10:0.53208899 11:0.10268962 12:1.118993 13:0.59418708 14:0.17099209 15:1.2408675 16:0.69208246 #
0.17362121806009123137215510723763 1:0.40099388 2:-0.10409621 3:0.25201419 4:0.95625013 5:-0.2967343 6:0.76576149 7:0.74467611 8:0.87947786 9:0.9569332 10:0.42517614 11:0.1205155 12:0.49843505 13:0.50581837 14:0.29111901 15:0.43501529 16:0.0079002706 #
6.6137423074474561701663333224133 1:1.0547671 2:0.20570514 3:1.2384548 4:0.062295429 5:0.76465291 6:0.52536941 7:0.80998093 8:0.54448617 9:-0.23799843 10:0.63521284 11:-0.064759538 12:0.44077498 13:0.7591967 14:0.44352198 15:0.28167751 16:0.84525561 #
1.2032879475055306972564039824647 1:0.21774529 2:1.2289476 3:0.24320853 4:0.88807791 5:0.12323549 6:0.76606685 7:0.096516959 8:0.095965222 9:0.56215775 10:0.9745689 11:0.093681931 12:0.48810291 13:0.55072033 14:0.89940131 15:0.86624652 16:0.86873293 #
0.67536801570179227915957653749501 1:0.24631253 2:0.52820277 3:0.94869483 4:1.0213821 5:-0.2173645 6:0.5940063 7:0.49967533 8:0.11924008 9:0.36431587 10:0.041247185 11:0.79979056 12:0.85705918 13:0.45268759 14:0.10938969 15:0.92554814 16:0.49086148 #
-1.3298686546281937026492414588574 1:0.16136311 2:0.59301746 3:0.21691786 4:1.1075941 5:0.25498846 6:0.88094163 7:0.1253791 8:0.40552723 9:1.054111 10:0.31833106 11:1.2615471 12:0.48908421 13:0.65214306 14:0.56730825 15:0.76327765 16:0.078659289 #
-0.89152001831089888739256821281742 1:0.84799665 2:-0.01899579 3:1.0882661 4:0.80685443 5:0.80490345 6:0.24145526 7:-0.10197902 8:0.80693698 9:0.030602746 10:0.074597217 11:0.25763893 12:0.21293695 13:0.72430986 14:0.40748394 15:0.43739533 16:0.49958923 #
-0.01533823432912932716032372582049 1:0.74698752 2:0.62835532 3:0.64108324 4:1.0256931 5:0.035044447 6:0.428572 7:0.40348831 8:0.78266037 9:0.10277078 10:0.00535812 11:-0.11875802 12:0.4612892 13:0.55826133 14:0.2390144 15:-0.025071295 16:1.1278536 #
-0.65351509166602939071566424900084 1:0.15036274 2:0.63463134 3:0.55385828 4:-0.043517821 5:1.2165996 6:0.61847526 7:0.50468951 8:0.55204135 9:0.55777651 10:0.59537917 11:-0.28596857 12:0.66543573 13:-0.098918952 14:0.75097561 15:0.35654888 16:0.20706773 #
1.3320133083410079510855439366424 1:0.47279826 2:0.74729419 3:0.91964096 4:0.90666598 5:0.0039694821 6:0.66688496 7:0.33338547 8:0.68508357 9:-0.32431152 10:0.59009123 11:-0.086734571 12:0.14569104 13:0.21084817 14:1.0904844 15:0.54242873 16:0.30919293 #
-0.83896484593468811929994899401208 1:0.91817069 2:0.56300062 3:0.92450547 4:0.68270105 5:0.63053674 6:0.9492988 7:0.53842306 8:0.38118029 9:-0.26456976 10:0.76556587 11:0.63195121 12:0.80986089 13:-0.028324362 14:0.56219196 15:0.48284808 16:0.93723577 #
-3.9204706368123121151825216657016 1:0.31493086 2:0.77856457 3:0.92529005 4:0.49927223 5:0.56956357 6:0.64777851 7:0.5755012 8:0.85109717 9:0.83586353 10:0.42370486 11:0.21117473 12:0.31427655 13:1.1994002 14:0.925605 15:1.1749669 16:0.34366128 #
3.0348311969261554388310742069734 1:0.52025306 2:1.2212886 3:0.3664974 4:0.42626601 5:0.68515146 6:0.090774827 7:0.81264615 8:0.47627005 9:0.20471068 10:0.80521101 11:0.0038878648 12:0.39009634 13:-0.051661666 14:-0.21873859 15:0.32413256 16:0.75383943 #
-2.4621583131575945913027680944651 1:1.2980765 2:0.17016064 3:0.41708478 4:0.90092129 5:-0.0069369958 6:0.30943099 7:1.009958 8:0.49456751 9:0.49762097 10:0.7739768 11:-0.52041221 12:0.095678337 13:0.46189585 14:-0.059953172 15:0.6712479 16:0.624569 #
-0.70817145780636414631459274460212 1:0.69804716 2:0.31509736 3:0.55262035 4:0.61470109 5:0.48156261 6:1.3116839 7:0.55666924 8:-0.037198942 9:0.53470737 10:0.49999496 11:0.21563573 12:1.1415967 13:0.73491287 14:0.81431198 15:0.076384783 16:-0.13248385 #
-1.5762538304007378542337391991168 1:0.91629094 2:0.25597516 3:0.93804532 4:0.40537867 5:0.17172112 6:-0.16897 7:0.54905522 8:0.80658078 9:0.82414514 10:0.5658949 11:0.15453449 12:0.94151551 13:0.80672264 14:1.0089796 15:0.96484959 16:0.4192017 #
0.7665149150187118287647081160685 1:0.57305133 2:0.56843704 3:0.73533082 4:0.76700211 5:0.81072873 6:0.80620694 7:0.15678523 8:0.99307513 9:0.55646229 10:1.3828236 11:0.099761955 12:0.70315135 13:1.0608121 14:0.20108792 15:0.92840767 16:0.24944305 #
-2.2737495724991036993856141634751 1:0.75474042 2:0.56378984 3:0.62068194 4:1.0613487 5:0.46628487 6:0.62361556 7:0.12056466 8:0.67914903 9:0.24370669 10:1.2422111 11:-0.29733706 12:0.93086189 13:0.62082428 14:-0.3123439 15:0.028426716 16:0.55913126 #
-2.7042421622376724421599192282883 1:0.048560679 2:0.82682198 3:0.5484401 4:0.6894148 5:0.77240652 6:0.88894302 7:0.56634927 8:0.39739969 9:0.87335145 10:0.39191025 11:0.15176831 12:0.73098958 13:0.74099982 14:-0.15177892 15:0.028441489 16:0.50860333 #
0.27124526541837573612170331216475 1:0.17351151 2:-0.36326981 3:-0.042067599 4:1.2109065 5:1.1668767 6:0.46150309 7:1.2845557 8:0.74611992 9:0.24391422 10:0.55099231 11:-0.56576318 12:1.4644942 13:0.70086175 14:1.129666 15:0.6111542 16:0.68100369 #
-1.562012446464566384207728333422 1:0.70040339 2:1.6162645 3:0.26929858 4:-0.30887723 5:0.82737041 6:1.0861648 7:1.0576363 8:0.16425881 9:-0.0030506745 10:1.3993217 11:0.24836129 12:1.1539792 13:0.84322345 14:0.071762837 15:0.68560898 16:0.60224938 #
-2.9431279597812052273297922511119 1:0.68828374 2:0.087805383 3:0.3325423 4:0.13682763 5:0.19609429 6:0.18490244 7:1.1277781 8:0.41846544 9:0.83102107 10:0.66580433 11:0.67771965 12:1.2922635 13:0.24253896 14:0.45576647 15:0.42821756 16:0.37462863 #
2.5268199346793860371462869807146 1:-0.37959343 2:0.73228818 3:0.89552563 4:1.1407763 5:-0.064975277 6:0.26003373 7:0.96964872 8:0.42480537 9:0.69586641 10:0.80260766 11:0.21765232 12:0.76408744 13:0.86154747 14:0.80472964 15:0.48190406 16:0.47886133 #
-3.4293190322053659357948163233232 1:0.10844357 2:0.49204117 3:1.1845924 4:0.30454242 5:0.74229544 6:0.44986096 7:-0.39337951 8:0.39792991 9:0.32259122 10:1.01783 11:0.49695396 12:0.64090037 13:0.15617548 14:0.70127857 15:0.86934859 16:0.37624201 #
-0.075174719506884049580186513139779 1:0.71511823 2:0.35726276 3:0.5185746 4:0.53870797 5:0.31260261 6:0.4683122 7:0.64687091 8:-0.38136405 9:0.44005519 10:1.0237985 11:0.26180351 12:0.74061304 13:0.9762702 14:1.1467395 15:0.93844074 16:0.63264811 #
-3.0999534178777174986407771939412 1:0.60375834 2:0.63277221 3:1.105255 4:0.91051263 5:0.47354108 6:0.027962293 7:0.31901187 8:0.50334913 9:0.89684731 10:0.11115026 11:0.71994323 12:0.99814945 13:0.35499486 14:0.55062395 15:0.27720183 16:0.75833029 #
0.41694021651143198248234966740711 1:0.85961998 2:0.60469282 3:0.67353398 4:0.33543038 5:0.43865752 6:0.31654543 7:0.095585905 8:0.74622351 9:0.448717 10:0.54524463 11:0.23248309 12:1.0980308 13:1.1281167 14:-0.0202691 15:0.55108023 16:1.3545109 #
1.1986057709980741936561798866023 1:0.89382821 2:0.63041037 3:0.36060372 4:-0.23839653 5:0.60350382 6:0.65710789 7:-0.3677229 8:0.74801302 9:1.2295777 10:0.8367883 11:0.25258949 12:0.67687178 13:0.89584506 14:0.37542278 15:0.57666773 16:0.38476059 #
0.20740339692220294276481240558496 1:0.48046905 2:-0.12907296 3:0.40286487 4:0.7907095 5:0.18070795 6:0.52335131 7:0.73143876 8:0.27008554 9:0.00098955922 10:-0.42726389 11:-0.14068037 12:0.16209306 13:0.27464166 14:0.44037434 15:0.41489568 16:0.29408771 #
-0.35334963573474026388154811684217 1:0.22395399 2:0.56663072 3:0.91454846 4:1.0260839 5:0.18721183 6:0.20445798 7:-0.23245196 8:0.43045461 9:1.0864469 10:0.14458029 11:-0.27677158 12:0.75181609 13:0.62417591 14:0.29763281 15:0.15725365 16:0.27744147 #
0.6521892928324627414227165900229 1:1.0423671 2:0.65552324 3:0.35054702 4:0.18477947 5:-0.23589276 6:0.84203684 7:0.4840593 8:0.048775282 9:-0.21189371 10:0.66003191 11:0.017821521 12:0.27674124 13:0.51198334 14:0.49529609 15:0.531537 16:0.4877378 #
-0.019124471675820362004394326049805 1:0.70259547 2:1.0389258 3:1.2088932 4:0.73523873 5:0.88690865 6:0.64891016 7:0.73010015 8:0.078893192 9:0.77673805 10:0.41913754 11:-0.046796437 12:0.8602494 13:0.48407978 14:0.74172175 15:0.74466574 16:1.1370714 #
4.8399331870053590165525747579522 1:1.2361112 2:0.42034468 3:0.92626035 4:0.48124576 5:0.80538821 6:0.83320904 7:0.99881947 8:0.7193737 9:0.82914191 10:0.60058051 11:-0.017080693 12:0.64686972 13:1.0132011 14:0.22682239 15:-0.077641718 16:0.61345673 #
1.6806302739746519225860765800462 1:1.0344018 2:-0.0066012782 3:1.0088508 4:0.90298897 5:0.37328839 6:1.2954459 7:-0.017715866 8:0.4911854 9:1.1289538 10:1.7538005 11:0.037980583 12:1.2022002 13:0.00047185601 14:0.69586998 15:0.062856011 16:-0.12048993 #
-1.3017908593570413078310821219929 1:0.36858743 2:0.55409604 3:0.74603242 4:0.86405677 5:0.18363219 6:0.51998347 7:0.23561184 8:1.2901955 9:0.63671094 10:0.66942 11:0.29484269 12:-0.016856197 13:1.0448605 14:0.93919772 15:0.02100789 16:0.62527955 #
-1.527819096073783633471521170577 1:0.15071559 2:0.23536927 3:0.40514985 4:0.57530814 5:0.86277711 6:-0.033895068 7:0.65497553 8:0.36647737 9:0.90691346 10:1.2255677 11:0.055360354 12:0.89096195 13:0.57206649 14:0.43465075 15:0.90492791 16:1.0374757 #
0.021037471876021590633243363299698 1:0.61452681 2:1.1956797 3:-0.14694379 4:0.46575519 5:0.20282254 6:0.61066788 7:0.27006316 8:0.83770782 9:0.95665741 10:0.73136652 11:-0.0096876491 12:0.96333939 13:0.49115118 14:0.32868353 15:0.71382743 16:0.31369284 #
-0.66773399907383423901308105996577 1:1.0367664 2:0.66801304 3:0.76279336 4:0.082919054 5:0.07748311 6:0.95126492 7:0.32214546 8:0.046667412 9:0.9548651 10:0.18440478 11:0.41859615 12:0.19243558 13:0.97878379 14:0.095064372 15:0.60272813 16:0.35719055 #
2.5571250792679944829899341129931 1:0.69197905 2:0.13402349 3:1.0968354 4:0.80529249 5:0.18235193 6:0.18133366 7:0.66945142 8:0.84255457 9:0.75699389 10:-0.012534403 11:0.17383857 12:0.77302986 13:0.088852249 14:0.21824512 15:1.0210035 16:0.32932752 #
-2.180705856180618518180835962994 1:0.8424381 2:0.61490196 3:0.95063007 4:0.2515212 5:0.30258927 6:1.0280142 7:0.18922348 8:-0.24485311 9:0.76416391 10:0.80801731 11:-0.0091705751 12:0.87996131 13:0.49354827 14:0.087452695 15:0.97493285 16:-0.14790852 #
1.8891733868184596989436840885901 1:0.63724476 2:0.58293051 3:0.97212517 4:0.26128995 5:0.012863514 6:0.19424081 7:0.23281388 8:0.85502064 9:0.1248053 10:1.0564351 11:0.22288802 12:0.28731802 13:0.83457434 14:0.49072424 15:0.85823572 16:0.55668306 #
0.66830154404722941219318954608752 1:0.71319199 2:-0.037748102 3:0.77697784 4:0.71108037 5:0.039414614 6:0.69578803 7:0.34272909 8:0.17769846 9:0.0088080624 10:0.2284541 11:-0.0013728816 12:0.90358871 13:0.099661864 14:0.52636993 15:0.6690309 16:1.0290786 #
-0.48987672077079391641518668620847 1:0.49225327 2:-0.31461668 3:0.22936662 4:0.75971174 5:0.40498894 6:0.31087399 7:1.0923133 8:0.7021277 9:0.74947464 10:0.45346904 11:0.59655136 12:0.64238757 13:1.0078782 14:0.82596856 15:0.019098328 16:1.1053587 #
0.4451713679033462156553468958009 1:0.9296326 2:1.1013497 3:0.83621335 4:0.51439089 5:0.38900733 6:0.3303231 7:0.80379993 8:0.87593371 9:0.56976795 10:0.17588542 11:0.01399256 12:0.81037325 13:-0.13544095 14:0.59342647 15:0.11357673 16:-0.088071048 #
1.6727386569882558564614782881108 1:0.6095404 2:1.1962216 3:0.39393702 4:0.55599892 5:0.85829294 6:0.39234346 7:0.17305559 8:0.95202947 9:0.0039089364 10:0.99452537 11:0.2806775 12:1.0340072 13:0.73279905 14:1.0861013 15:0.18328834 16:0.4936617 #
2.2014730566302871395123474940192 1:0.75618529 2:-0.018717619 3:0.84806597 4:1.209831 5:0.29910347 6:0.52254927 7:0.78918797 8:-0.31521708 9:0.58238149 10:0.82800734 11:0.50718951 12:0.45038432 13:-0.084271245 14:0.118281 15:0.97892845 16:0.0073819566 #
0.016542623796141478487164988564473 1:1.0797006 2:0.24923034 3:0.60557395 4:0.61842203 5:0.018057628 6:0.83090985 7:0.80375117 8:1.2258873 9:0.52747577 10:0.46223196 11:0.64803135 12:0.43722984 13:0.029411046 14:0.89908618 15:0.80737329 16:0.15436108 #
0.98164804099046509833215168328024 1:0.86174828 2:0.86384964 3:0.99768049 4:0.26081547 5:0.19378397 6:0.81815106 7:0.73730785 8:-0.24250005 9:0.82173395 10:0.71426797 11:-0.16353548 12:0.31832206 13:-0.049663618 14:0.59667641 15:0.18911327 16:0.33856651 #
-0.987580407317408592859919735929 1:0.18001907 2:0.29286894 3:0.76510978 4:0.023542408 5:0.4403725 6:1.0121623 7:1.095805 8:0.46909234 9:0.30648053 10:0.77160352 11:0.41286251 12:0.46500921 13:0.71004868 14:0.59503198 15:0.052474003 16:0.9763006 #
-3.8949002577685813974994744057767 1:0.40926543 2:0.4862065 3:1.0312277 4:0.23774889 5:0.41552365 6:1.0048858 7:0.41709751 8:0.25116321 9:0.25033289 10:0.78579539 11:0.072961472 12:1.0847293 13:1.1707668 14:0.80301613 15:0.91317719 16:0.87197709 #
4.1816466608994060649706625554245 1:0.85905623 2:0.78806221 3:0.82222229 4:0.90710711 5:0.33664241 6:0.94078183 7:0.62982035 8:0.44142419 9:0.094490059 10:-0.11852399 11:0.44139493 12:0.18641242 13:1.4161642 14:0.4685069 15:0.34200969 16:0.38631478 #
1.952863688422930010801792377606 1:0.73337573 2:0.27843991 3:1.2353756 4:0.63934284 5:0.13456136 6:-0.081424139 7:0.40845484 8:-0.14105214 9:0.68394172 10:0.072376169 11:-0.15793282 12:-0.04207449 13:0.73011702 14:0.57018363 15:0.96559179 16:0.12924765 #
-0.29333777589085507919719475466991 1:1.0619341 2:0.29873383 3:-0.055770736 4:0.84929556 5:-0.069700345 6:0.41998905 7:0.29744464 8:0.57031149 9:1.0442613 10:0.82210636 11:-0.14761159 12:0.54871559 13:0.79725999 14:1.0362092 15:0.53878266 16:0.68376529 #
0.031821727408111386004030407548271 1:0.89119941 2:0.69724381 3:0.20767432 4:0.85769272 5:0.69721407 6:-0.82498389 7:0.79196852 8:0.27059305 9:-0.88975579 10:1.229772 11:0.33156076 12:1.4946021 13:0.90907091 14:0.39518815 15:0.61427772 16:0.64181328 #
-0.64538275127305677614231171901338 1:0.51984006 2:0.92051804 3:0.81327069 4:0.93857634 5:-0.00072621653 6:0.48219749 7:0.7191928 8:0.68595803 9:0.24436623 10:0.87462652 11:0.50138485 12:0.86850089 13:0.61733329 14:0.57832485 15:0.72519606 16:1.1477499 #
0.3625430240851845731242519832449 1:0.83821619 2:1.3240571 3:0.78452331 4:0.18666211 5:0.61850363 6:0.6372593 7:-0.13498901 8:0.67686248 9:0.54898965 10:1.1301637 11:-0.24214579 12:0.54361087 13:0.38463244 14:0.49851394 15:-0.27541977 16:0.7012862 #
0.64325844274985244375386628234992 1:0.55165964 2:1.0576414 3:1.0081506 4:0.35763127 5:0.62700158 6:0.58675641 7:0.10302909 8:0.11825895 9:1.0513408 10:0.897789 11:0.22265252 12:-0.035920136 13:0.28557086 14:0.23694117 15:0.97627395 16:0.81791025 #
5.8824182900664565565307384531479 1:0.10063519 2:0.62223512 3:0.83394051 4:1.1245714 5:0.34772012 6:1.070807 7:0.68995029 8:1.1328642 9:0.35723487 10:0.22140481 11:0.087293163 12:0.72630239 13:0.06139091 14:0.52116847 15:0.53778052 16:0.57009655 #
-0.068618657175457412056296391256183 1:0.034361396 2:0.86706835 3:0.87855005 4:1.4701025 5:0.54622728 6:0.37495056 7:-0.38122964 8:0.45511991 9:1.3798414 10:0.026436815 11:-0.86070228 12:0.93898457 13:1.0379652 14:-0.20900787 15:0.027946187 16:0.40428129 #
2.9859705115114532070208497316344 1:0.87105888 2:0.45296386 3:0.87588835 4:0.73814726 5:-0.095041864 6:0.52285451 7:0.31386042 8:-0.20054169 9:0.6482808 10:0.51021504 11:0.44367748 12:0.91540408 13:0.62233788 14:0.92248291 15:0.12216294 16:0.84498328 #
2.0508029180655591439119689312065 1:0.98579675 2:0.16397253 3:1.0032773 4:0.16986403 5:0.98143828 6:0.91499484 7:0.13301389 8:0.52615011 9:0.86821508 10:0.45902857 11:-0.17027734 12:0.08571934 13:0.60380656 14:0.60289431 15:0.15590414 16:-0.29578942 #
1.3764728202613729646230922298855 1:0.47086444 2:0.51907068 3:0.27056816 4:0.70898455 5:0.53920907 6:0.49393493 7:0.19002372 8:0.97615236 9:1.065886 10:0.39888427 11:-0.05595221 12:-0.072388887 13:-0.098112531 14:0.41052189 15:0.70472759 16:0.47091296 #
-0.92865803476260444515588687863783 1:0.67676455 2:-0.20416898 3:0.60649246 4:0.40766636 5:0.0014781385 6:0.37106097 7:0.83549732 8:0.94717228 9:0.14488922 10:0.66276538 11:0.077052727 12:0.72428042 13:0.69285077 14:0.97633505 15:-0.052604865 16:0.13983607 #
2.6484490259976123383012236445211 1:0.31716633 2:0.83569002 3:0.66230863 4:1.0476217 5:-0.030574303 6:0.49419901 7:0.14350049 8:0.45874891 9:0.096694492 10:0.70003146 11:0.20275211 12:0.6278978 13:0.89549983 14:0.1953032 15:0.27475968 16:-0.26824114 #
-0.03110396509978701276577517376154 1:0.8726877 2:-0.16729294 3:1.0461402 4:0.85609424 5:0.15172574 6:0.25712061 7:0.41954279 8:0.083521217 9:0.15922856 10:0.012721494 11:-0.014640059 12:1.2021725 13:0.060703758 14:-0.95469487 15:0.05046019 16:-0.42186651 #
2.3238275078217762725785178190563 1:0.4560616 2:0.80548275 3:0.60044581 4:0.34507281 5:-0.108035 6:0.26799995 7:0.039307505 8:0.70750302 9:0.56507272 10:0.61108184 11:0.097817481 12:0.017719787 13:0.042069077 14:-0.29178819 15:0.17148067 16:0.048674256 #
-0.14307710114685062707806650905695 1:0.069090277 2:0.19053714 3:1.7111678 4:0.17388822 5:0.23037532 6:0.6883769 7:-0.10810132 8:0.33161303 9:-0.43096164 10:1.2034739 11:0.9265691 12:0.94435728 13:0.18391736 14:0.57669634 15:1.3213811 16:-0.38882971 #
0.020094564739207454451275225437712 1:0.11807191 2:0.98285079 3:0.85893589 4:0.58731902 5:0.070200399 6:0.38026771 7:0.046180155 8:1.203889 9:0.74266249 10:0.85679752 11:0.2054376 12:0.83979601 13:0.14260948 14:0.54203671 15:1.1290252 16:0.27626592 #
-2.4314897467495737437559455429437 1:1.0568874 2:0.44838449 3:0.13990839 4:0.014564176 5:1.0699375 6:0.66671348 7:0.092368379 8:0.49876425 9:-0.17958626 10:0.5481776 11:0.18676966 12:0.62569219 13:1.0676062 14:0.19860542 15:0.20370965 16:0.20218781 #
0.91234143506156095693171437233104 1:0.54675144 2:1.3376071 3:0.82473809 4:1.162586 5:-0.67091703 6:1.2301421 7:0.089212023 8:0.45320714 9:-0.11587832 10:0.13974519 11:0.53722382 12:0.83581346 13:0.38472557 14:1.3076953 15:0.28690487 16:0.44009253 #
-3.1345781128386289715592738502892 1:0.12133732 2:-0.16117014 3:1.003391 4:0.22637965 5:0.37432548 6:0.81869352 7:0.28498223 8:0.7076869 9:0.85496819 10:0.26531655 11:0.38037744 12:0.24000001 13:0.33880404 14:-0.07300432 15:0.89965028 16:0.48230341 #
-1.0097252467859332281108208917431 1:1.2962964 2:-0.24638678 3:1.6850479 4:-0.33073217 5:0.55606353 6:0.54616737 7:0.70362788 8:0.65136403 9:-0.77112842 10:0.99519402 11:0.0047384733 12:0.023864569 13:0.96645987 14:0.52011085 15:0.10962588 16:1.0064738 #
-1.1048881270928623266058821172919 1:0.45432493 2:0.7114929 3:0.68034607 4:1.1827731 5:0.036860533 6:0.24722703 7:0.5529505 8:0.68788058 9:1.0407683 10:1.1051235 11:0.65862387 12:0.62131059 13:0.6203028 14:-0.018625297 15:0.55597258 16:0.27763864 #
-0.71462167179640034841980877899914 1:0.71702057 2:0.49370986 3:1.0662439 4:0.2272287 5:0.48158574 6:1.1441513 7:0.3961035 8:1.1547805 9:0.44719848 10:0.80573136 11:0.058727447 12:0.012218555 13:0.32976788 14:-0.10187981 15:0.45577091 16:1.0293728 #
-0.4712939589396010209298992776894 1:0.83108187 2:0.36002266 3:0.59662789 4:0.38616258 5:0.50663805 6:0.15961434 7:1.3442079 8:0.56295466 9:0.68998176 10:-0.23215556 11:1.1179327 12:0.080455944 13:0.74525744 14:0.36798698 15:0.51292473 16:0.48945111 #
-0.097466609553354788264556418653228 1:0.81026125 2:0.63514239 3:0.73114586 4:-0.0402181 5:-0.0485221 6:0.15763654 7:0.050607309 8:0.4231033 9:0.76454425 10:1.0476638 11:-0.015173378 12:1.1904123 13:0.70977944 14:0.57103169 15:0.198488 16:-0.14264236 #
6.3913635691248238401840353617445 1:0.32208478 2:0.080718473 3:0.50415015 4:0.41750655 5:0.67058855 6:0.75767356 7:0.44543555 8:0.26895732 9:0.91566825 10:0.80453193 11:-0.17210783 12:0.84002805 13:0.95930976 14:-0.0031709794 15:0.74892354 16:0.52369452 #
-4.4322512244067420184023831097875 1:1.1091063 2:-0.033525564 3:0.66766465 4:1.0050473 5:0.61792839 6:0.70214951 7:0.16903158 8:0.56640899 9:0.10421401 10:1.085059 11:0.1381457 12:0.20459424 13:0.82185948 14:0.64341319 15:0.78150362 16:0.56365532 #
-0.62487630950418437958404638266074 1:0.34055024 2:0.76869655 3:0.49493399 4:0.48177797 5:0.95237792 6:-0.14788681 7:0.52485883 8:0.78665996 9:0.63944787 10:0.7378999 11:-0.004279111 12:0.35470548 13:0.79123402 14:0.23162727 15:-0.082268 16:0.44228989 #
-0.024647352567181226440373720265598 1:0.22199525 2:0.57685673 3:0.47996292 4:-0.014499231 5:-0.64058197 6:1.224263 7:0.43521231 8:0.78322142 9:-0.20715784 10:0.26071733 11:-0.40833572 12:1.1069623 13:-0.16955894 14:0.073487848 15:-0.49259248 16:0.85669041 #
12.723246722469250258313877566252 1:1.1430736 2:-0.17571661 3:0.13328645 4:0.82114685 5:0.015342535 6:0.099460997 7:0.49777225 8:0.3532441 9:0.91954255 10:0.69228816 11:1.2022213 12:0.27885684 13:0.26121482 14:0.47636697 15:0.77633774 16:0.7148577 #
0.36967166440513976599646639442653 1:0.49335006 2:0.37095568 3:1.3731985 4:1.0246344 5:0.49638331 6:1.1030216 7:0.3145999 8:0.040732887 9:0.9281249 10:-0.0861082 11:0.11710805 12:0.31813297 13:0.12184841 14:0.70492548 15:0.52393472 16:0.48449221 #
0.92883808584517657536139267904218 1:0.77122027 2:0.24790278 3:1.1548618 4:1.0779071 5:-0.19402006 6:0.90645885 7:0.6329056 8:0.73398018 9:0.36305904 10:0.6669634 11:0.92256236 12:0.28161964 13:0.51773477 14:-0.10361306 15:-0.0070426539 16:0.26757038 #
-4.6840787547286621972375542100053 1:1.3308446 2:1.2117215 3:0.61967552 4:1.3072664 5:0.47331214 6:0.069349229 7:0.42262429 8:0.35720995 9:0.5011791 10:0.80312395 11:0.19121672 12:0.06839221 13:0.21972334 14:0.69877797 15:0.47184393 16:0.90534204 #
0.36805018517164123093010630327626 1:1.1089015 2:0.6895709 3:1.2214048 4:0.22441407 5:0.85548097 6:0.2756677 7:0.89614034 8:0.46606547 9:1.1866072 10:0.44466168 11:0.35027018 12:0.50646013 13:0.33404106 14:-0.088788375 15:0.60428751 16:-0.076858357 #
-1.5422346119585348400704560845043 1:1.0652076 2:-0.037524324 3:0.87476963 4:0.96629268 5:0.92962062 6:0.27208388 7:0.58918232 8:0.28592211 9:1.0172042 10:0.63360149 11:0.30132583 12:0.068804927 13:0.52239394 14:-0.085374698 15:0.17813426 16:0.96767116 #
2.2716749350918492567075190891046 1:1.2979671 2:0.41321412 3:0.3035028 4:0.88300139 5:0.23477574 6:0.75330645 7:0.24131237 8:0.89868695 9:0.76721781 10:0.41490635 11:0.55163056 12:1.1775674 13:0.49195474 14:0.59922892 15:0.268242 16:0.014270295 #
1.9309459012148324497104567853967 1:0.53062326 2:0.6078459 3:0.84946305 4:0.27803648 5:0.16869052 6:-0.12803221 7:0.20033604 8:-0.045888085 9:-0.0085833855 10:0.66559643 11:-0.0020496876 12:0.47901079 13:0.53413552 14:0.83414036 15:0.56756145 16:0.92366385 #
-0.34658340793862463247165806023986 1:0.73934984 2:0.50540799 3:-0.01607335 4:1.1302803 5:0.4718349 6:-0.21094419 7:0.99959534 8:0.044296056 9:0.99725187 10:0.31467152 11:0.22080493 12:0.87820357 13:0.77355552 14:0.46335173 15:0.85450661 16:0.12612014 #
3.4779192124450259981927047192585 1:0.27521709 2:0.22708835 3:0.84526867 4:0.99424142 5:-0.078007706 6:0.082191713 7:1.1295638 8:1.0228196 9:0.093741916 10:0.3035863 11:0.051383935 12:0.045866966 13:0.7715686 14:0.48248827 15:0.78488958 16:0.20447432 #
2.5650322556687403796615853934782 1:0.5300467 2:0.18570605 3:1.1784773 4:0.90201753 5:0.43682802 6:0.34739396 7:0.33003467 8:0.25048563 9:0.33576605 10:0.54353607 11:0.40735742 12:0.50663614 13:0.72804838 14:0.27379408 15:1.1007819 16:0.79067421 #
0.063231192333552330153700893333735 1:0.93908966 2:0.57957995 3:0.69134241 4:0.66712946 5:0.41794804 6:1.4293643 7:0.49704564 8:0.06941767 9:0.19425979 10:0.2689518 11:-0.089411899 12:1.0430554 13:0.84301102 14:0.015122985 15:-0.080014952 16:-1.0024217 #
-1.0743346433522080740630144646275 1:1.120532 2:0.55236328 3:0.76730448 4:1.0360061 5:0.2107373 6:0.72240502 7:0.70901883 8:1.1550021 9:0.51208115 10:0.23881243 11:0.94717437 12:0.69610906 13:0.91765004 14:0.21712741 15:0.82674181 16:0.99282217 #
-0.66840527654832981863108898323844 1:1.7738464 2:0.37817958 3:1.2483146 4:0.29015905 5:1.1502278 6:0.8796857 7:1.343438 8:0.79624599 9:1.0121531 10:0.45526192 11:-0.017663479 12:0.58615863 13:1.376748 14:-0.087267183 15:-0.5359326 16:0.77447355 #
-1.0541138557799532016190369176911 1:0.68421394 2:0.48056901 3:0.45676863 4:0.85695881 5:0.18069091 6:0.80668831 7:-0.047251347 8:0.041186772 9:0.14216645 10:0.48411256 11:0.40749973 12:-0.21552302 13:-0.091315269 14:0.0011588689 15:0.58458716 16:0.82505494 #
3.3385966905067911980609096644912 1:0.74881375 2:0.16427235 3:0.64994717 4:0.90495336 5:-0.099288516 6:-0.062451072 7:0.67781806 8:0.6280086 9:0.78355819 10:-0.16034971 11:0.20321962 12:0.55785006 13:1.0408845 14:0.11556307 15:0.24020356 16:0.60483998 #
3.9965013887882387955130525369896 1:0.68387562 2:0.88899112 3:-0.038524974 4:0.55521154 5:1.4021153 6:0.65626776 7:0.9037503 8:0.51432532 9:0.58902532 10:1.028411 11:0.082596965 12:0.87458438 13:0.41000897 14:1.0270563 15:0.68607318 16:0.93711889 #
4.6445094921577121382938457827549 1:0.019648625 2:0.81760824 3:0.17314938 4:0.082106896 5:0.7231757 6:0.6965301 7:0.53465271 8:0.54998934 9:1.0753257 10:1.0771474 11:0.053870235 12:0.99621111 13:0.75625539 14:0.97603464 15:0.014831468 16:0.38119352 #
-2.1636368160781440650453077978455 1:0.93618929 2:0.77707672 3:0.9078908 4:0.15187737 5:0.51589453 6:0.80837297 7:0.20381641 8:0.48184687 9:0.59488368 10:1.2787443 11:-0.84271467 12:0.88472879 13:0.03940044 14:0.42874852 15:1.0304011 16:0.81607682 #
-0.94979950314199568239814652770292 1:0.97182727 2:0.94127226 3:0.010711888 4:0.072733372 5:0.97582668 6:1.3266755 7:0.6739639 8:-0.33241037 9:0.67581785 10:0.53540516 11:-0.13764034 12:0.83151096 13:0.43478033 14:0.34341228 15:0.35212317 16:1.0594068 #
1.4924642084198436187136849184753 1:0.64408594 2:0.19491455 3:1.292426 4:0.073612198 5:0.72654319 6:0.18107012 7:1.1532097 8:0.26355222 9:0.63052785 10:0.886392 11:0.038208865 12:0.82219917 13:1.1693754 14:0.41854283 15:0.91302353 16:0.59997416 #
-2.9493980618939321658444896456786 1:0.87568492 2:0.55196458 3:0.98820347 4:-0.31424886 5:0.76697057 6:0.47540694 7:0.88436806 8:0.84851396 9:0.7003901 10:0.42327437 11:0.22377247 12:0.91670996 13:0.38305914 14:0.87882078 15:0.24838698 16:0.64927602 #
4.4903812913132634676571797172073 1:0.89885598 2:-0.32464537 3:0.011878234 4:1.0311644 5:0.04681398 6:0.90766323 7:0.71494019 8:0.65765166 9:0.059641074 10:0.58659619 11:0.61033422 12:0.44377443 13:0.026665235 14:0.60286504 15:0.075094655 16:0.71746576 #
9.5428274732835038918210557312705 1:0.30625156 2:0.30437022 3:1.0646664 4:1.178275 5:-0.036855791 6:0.59311044 7:0.59283167 8:0.27743435 9:0.70702332 10:0.45001402 11:-0.050797544 12:0.053300068 13:0.97709322 14:0.34889084 15:0.11529566 16:0.6645633 #
0.5906175647104301429379802357289 1:0.84548241 2:0.0023756041 3:1.0521795 4:1.1214423 5:0.065482944 6:0.39714116 7:0.044836707 8:0.75971252 9:0.91227144 10:0.56456566 11:0.71367466 12:0.25177231 13:0.89881313 14:0.98078084 15:0.94981426 16:0.028721767 #
0.59603297281823397479882942207041 1:0.74545348 2:0.57311213 3:1.1485448 4:0.7000522 5:0.17782293 6:0.70805478 7:1.0169245 8:0.90251207 9:0.50769669 10:0.75934368 11:0.2230069 12:0.048366416 13:0.66710222 14:1.2137355 15:0.88677299 16:0.45584521 #
0.44456281686941351294350965872582 1:0.53099167 2:0.73107046 3:0.70729119 4:0.8901332 5:0.47441858 6:0.22431788 7:1.4228405 8:0.22156678 9:0.027030947 10:0.83392262 11:0.47313991 12:0.75083083 13:0.84742558 14:0.53144258 15:-0.22142342 16:-0.10954449 #
0.14038176288379061729116870083089 1:0.96099061 2:0.15360211 3:-0.001585044 4:0.38492864 5:-0.19716811 6:1.1446836 7:0.0046994477 8:0.16265821 9:0.66577131 10:0.51263028 11:0.32369882 12:0.010686735 13:0.76040494 14:0.66685981 15:-0.9339788 16:0.43888152 #
9.650423415129321114136473624967 1:0.74491888 2:0.65898025 3:0.43267995 4:1.0428466 5:0.45581475 6:0.069908537 7:0.48749033 8:0.56719959 9:0.52266473 10:1.0083222 11:-0.062797263 12:0.80826712 13:1.0396168 14:0.72705775 15:0.63771152 16:0.51925296 #
-2.0826615793822154110159772244515 1:0.81745571 2:0.74313456 3:0.49838328 4:1.2118869 5:0.13082474 6:1.1256924 7:0.84965903 8:0.11752367 9:0.85505414 10:0.99473852 11:0.59789175 12:0.53681463 13:0.11098817 14:0.95863545 15:0.66878504 16:0.51229542 #
8.566705488310946137175960757304 1:-0.15941745 2:1.0448247 3:0.041885484 4:0.25071695 5:0.57293463 6:0.85257924 7:0.18237108 8:0.67973 9:0.089562818 10:1.25481 11:-0.020701418 12:0.97110486 13:0.48010436 14:0.12116074 15:0.46979243 16:0.86194259 #
-5.4089912942515088190020833280869 1:0.28499186 2:-0.22001322 3:1.0396265 4:0.28612611 5:-0.33894283 6:0.62188411 7:-0.21435979 8:0.59195733 9:0.30560678 10:0.11175331 11:0.23582131 12:0.6671707 13:1.0648806 14:0.47864169 15:0.13787302 16:0.60445732 #
0.67864794841518227830334808459156 1:-0.14299862 2:0.94942594 3:0.87380373 4:0.43104279 5:0.60990506 6:0.43803525 7:0.29129553 8:0.96148342 9:0.96556169 10:0.37858167 11:0.064048737 12:-0.14661637 13:1.9329956 14:1.2112905 15:0.21979965 16:0.38141906 #
-0.45842301260505913251819265497033 1:-0.39930072 2:0.27737629 3:1.5072929 4:1.7139426 5:-0.52645665 6:0.21882784 7:0.11517677 8:0.94270575 9:0.78467065 10:0.19016528 11:0.45099509 12:1.0127994 13:0.58096904 14:0.31899506 15:1.0427312 16:0.48892006 #
0.55235850017809040579663815151434 1:1.139227 2:-0.01275332 3:0.5877102 4:0.38916397 5:0.30571827 6:-0.053113919 7:0.38280627 8:0.97212303 9:0.12220326 10:0.68640602 11:0.39016438 12:0.6013667 13:-0.055775624 14:0.31094265 15:0.073673844 16:0.86750537 #
-1.7393023710081960686579805042129 1:1.3269534 2:0.20236875 3:1.345172 4:1.3339258 5:0.37594235 6:0.59291142 7:0.84432262 8:0.73823726 9:0.88586199 10:-0.20132044 11:0.076108471 12:-0.056837764 13:0.49134111 14:0.60551035 15:0.12593184 16:0.094987392 #
0.22005447993226240344100119727955 1:1.0955633 2:-0.031317964 3:1.0286084 4:1.2281432 5:0.86008662 6:-0.4115808 7:0.67701912 8:0.23711185 9:0.95613801 10:0.51416093 11:0.47497228 12:0.64503032 13:2.0410626 14:0.23716097 15:0.75906289 16:-0.21502052 #
-1.3640404003629287288390514731873 1:0.82261246 2:0.14112705 3:0.63637078 4:0.57999498 5:0.11234136 6:0.73927879 7:0.62785673 8:0.66625386 9:0.6355198 10:0.52174067 11:0.061184302 12:0.48428893 13:0.22175559 14:0.72545475 15:0.2166141 16:1.1887881 #
-0.6243347714614732035798283504846 1:0.99618554 2:-0.083718888 3:1.0976777 4:0.70370448 5:0.66453117 6:0.99278253 7:1.0559855 8:0.39476064 9:0.6972906 10:0.15144862 11:0.85552073 12:1.0813688 13:0.45255288 14:0.86872566 15:0.99485737 16:0.47965905 #
0.47207276403291947852736143431684 1:0.56100827 2:-0.17037532 3:1.1097243 4:0.3454105 5:0.83278507 6:0.28681862 7:0.04226755 8:0.60502023 9:0.46806622 10:0.80776906 11:0.34244826 12:1.0738301 13:0.86132449 14:0.35730082 15:-0.02520252 16:0.69018066 #
1.0139313106628951022258888770011 1:1.5047998 2:-0.382635 3:0.94193494 4:1.2843969 5:1.1393259 6:0.29073262 7:0.028656052 8:0.42910832 9:0.040840998 10:1.4087188 11:-0.082372867 12:-0.09082403 13:0.94806069 14:0.64588273 15:1.001653 16:0.95164859 #
2.1679605549830007760192529531196 1:0.26192856 2:1.0737042 3:0.22858258 4:0.66904491 5:0.0069217067 6:0.36713716 7:0.34943789 8:0.62576318 9:0.87842792 10:0.97153294 11:0.37946123 12:0.82295698 13:0.71490115 14:0.23001122 15:-0.092561945 16:0.99414241 #
4.1009776120358774065266516117845 1:0.7805959 2:0.98397541 3:0.76538295 4:0.78503436 5:1.0869653 6:0.087756187 7:0.43283546 8:0.34870556 9:0.93028778 10:0.91274214 11:-0.36881417 12:0.68247092 13:0.41472942 14:0.054020233 15:0.99160498 16:0.40752351 #
2.6263014544971747810109263809863 1:0.91566545 2:1.1834159 3:0.74107844 4:0.1070215 5:0.40102902 6:0.25449643 7:0.81243861 8:0.52646816 9:0.56605786 10:0.5619089 11:-0.33253795 12:-0.33015856 13:0.50618511 14:0.6126284 15:0.20341 16:0.3154406 #
-0.85784352545749809060282586870017 1:1.0575185 2:0.42451388 3:0.76745278 4:0.73687327 5:0.050282639 6:0.17206781 7:0.0029254404 8:0.3669683 9:-0.30664137 10:0.63760626 11:1.0341506 12:0.71556371 13:1.0182412 14:0.6783343 15:0.5624761 16:0.40626335 #
5.5625229730455068022365594515577 1:1.2988114 2:0.91941953 3:0.79124701 4:0.27831614 5:-0.12262463 6:0.49045178 7:1.0874603 8:0.55205745 9:0.18178326 10:0.38251245 11:0.28525257 12:1.1099894 13:0.28928649 14:0.36161405 15:0.67823595 16:0.58563036 #
2.8375775106976321993101919360925 1:0.76116961 2:0.34337288 3:0.34362337 4:-0.07919316 5:0.22644702 6:0.18326099 7:0.1919589 8:0.17290698 9:0.28617147 10:0.75079179 11:-0.14018746 12:0.81328094 13:0.59651476 14:-0.069323771 15:1.4882835 16:0.83630008 #
-3.6082526379611130629143644910073 1:0.075357512 2:0.52290183 3:0.69352329 4:0.87631917 5:0.83706152 6:0.19062848 7:0.48924574 8:0.58912045 9:0.4308593 10:0.66756654 11:0.43628177 12:1.2603631 13:0.32612902 14:0.47451317 15:0.51140869 16:-0.051030774 #
1.2213030590676052788978722674074 1:0.69985902 2:0.10052724 3:0.14718187 4:0.89859122 5:-0.070166133 6:0.29446405 7:0.40814912 8:0.67311633 9:-0.026651114 10:0.097528085 11:0.18321715 12:0.83590013 13:0.79863656 14:0.43252981 15:0.95995235 16:0.23079079 #
0.28347903752370340324517883345834 1:0.65642065 2:0.40026218 3:0.029348882 4:0.58407015 5:0.99895871 6:-0.0084271682 7:0.18028241 8:1.3798441 9:0.73526114 10:0.75171131 11:-0.18304953 12:1.1703577 13:0.68939209 14:0.42636871 15:0.51333863 16:0.4187724 #
0.014263405286276498867836792783237 1:0.90733403 2:0.68643188 3:0.056290504 4:1.1036587 5:0.51339966 6:-1.3671639 7:0.76305175 8:0.44480833 9:-0.92662346 10:1.8364942 11:0.52186346 12:1.9017844 13:1.0527356 14:0.27947748 15:0.74515402 16:0.56318545 #
2.0362937329892760729421752330381 1:0.56692052 2:0.83437443 3:0.76984525 4:0.86323518 5:0.52268177 6:0.87309754 7:0.52100283 8:0.13598953 9:0.066822924 10:0.8719427 11:0.088972785 12:0.6035077 13:0.42365065 14:0.50087559 15:-0.054843038 16:0.72192925 #
3.3874732589885891975711729173781 1:0.26466233 2:1.1541458 3:0.19531682 4:-0.16443869 5:0.25116608 6:0.43755347 7:0.68341881 8:-0.11758873 9:0.58961177 10:0.9904784 11:0.20049138 12:0.86438566 13:0.11208828 14:0.73024023 15:1.0172353 16:0.44396099 #
-1.6022282579214643938314566184999 1:0.72915667 2:0.46647036 3:0.98803949 4:0.41633269 5:0.60810357 6:-0.029227519 7:0.69004714 8:0.21652004 9:0.45336771 10:0.97574639 11:0.69496244 12:0.30558476 13:-0.092370339 14:1.2838967 15:0.49006104 16:0.23535053 #
1.4465499827741754579335520247696 1:0.2398309 2:-0.45778313 3:1.294301 4:-0.14977477 5:1.0432482 6:0.63295597 7:0.47886756 8:0.80814171 9:0.81060719 10:0.029508892 11:0.13777103 12:0.38697568 13:0.23249745 14:-0.58767378 15:0.63344371 16:0.83384454 #
0.298659351928956651178737047303 1:-0.56629187 2:-0.88876587 3:1.1829977 4:0.59443587 5:0.39599991 6:0.48761144 7:0.7201522 8:0.79372597 9:0.73494005 10:1.1100321 11:-0.41234875 12:1.1484147 13:0.53824586 14:0.56982487 15:0.35375604 16:0.99440199 #
-0.67653393250507709577590276239789 1:1.0132188 2:0.2322309 3:0.25398481 4:0.40401152 5:0.99593085 6:0.43957245 7:0.90491003 8:0.63299286 9:0.69305336 10:0.74930644 11:0.14570683 12:0.6576035 13:0.37392092 14:0.25113457 15:1.1744632 16:0.25628546 #
1.3455282830608816801998273149366 1:0.88698173 2:0.65586603 3:0.7158618 4:-0.081230476 5:0.56547606 6:0.92970794 7:0.97085786 8:0.62079638 9:0.2379868 10:0.91746438 11:-0.24815546 12:0.77800959 13:0.3272714 14:0.94117272 15:0.7898246 16:-0.052421402 #
2.906594676047016712061576981796 1:1.1254405 2:0.73484665 3:0.74443251 4:0.49144757 5:0.98182869 6:-0.070128188 7:0.63038188 8:-0.06901142 9:0.038457673 10:0.93571752 11:-0.48514983 12:0.45082077 13:0.30237511 14:0.72776681 15:0.17562896 16:0.20500547 #
-0.89745824652296324330791321699508 1:0.59386116 2:0.13127084 3:0.43979645 4:0.88029033 5:-0.640167 6:0.85126692 7:0.3393108 8:0.33324748 9:0.24778484 10:1.6030269 11:1.0308987 12:0.061014138 13:1.3487548 14:0.50318122 15:1.5400342 16:0.77308983 #
2.4325303525485431066499586449936 1:0.75891513 2:0.88642704 3:0.81058598 4:0.26345855 5:0.5497185 6:0.78190464 7:0.08802513 8:0.37631586 9:-0.11766772 10:0.58444464 11:0.1707352 12:0.27098399 13:-0.11475598 14:0.13094996 15:1.1185317 16:0.19458449 #
3.2422315609631455757266849104781 1:0.64052981 2:0.77228922 3:0.85638481 4:1.0007097 5:0.35072824 6:0.75068128 7:0.72162402 8:0.49399239 9:0.64170504 10:0.41051677 11:0.40973508 12:0.89580601 13:0.91434509 14:0.89928228 15:0.63564897 16:0.15084355 #
4.4079171222883433145511844486464 1:0.39295956 2:0.6418249 3:0.73100269 4:0.884758 5:0.079419389 6:0.66900563 7:0.95193881 8:0.30003038 9:1.0076125 10:0.34528795 11:-0.022460576 12:0.48403037 13:-0.15428402 14:0.021856172 15:0.57102382 16:0.67724311 #
0.077627299726631168730328624860704 1:1.0244024 2:0.41126335 3:0.67796284 4:0.74125147 5:0.22327089 6:1.6659139 7:0.43091336 8:-1.0095409 9:0.44960839 10:1.0322847 11:0.84193337 12:0.71212721 13:0.29853022 14:1.3838142 15:0.87167561 16:0.49366844 #
1.4994837167118821863454058984644 1:0.2323935 2:0.79958206 3:0.76584339 4:-0.082939446 5:1.3221239 6:0.25214249 7:0.13823417 8:0.68968445 9:0.57799935 10:1.2397276 11:-0.15639991 12:1.1398321 13:0.95668685 14:0.62209493 15:0.71487612 16:0.16541541 #
-0.43832845822415261727300617167202 1:0.239995 2:0.28256282 3:0.4027693 4:0.32431498 5:0.15237343 6:-0.076001786 7:0.024601584 8:0.65253943 9:1.065484 10:0.33144945 11:0.45528471 12:0.6824742 13:0.67230117 14:0.19577551 15:1.0535263 16:0.25884902 #
4.0709262769543688165185812977143 1:0.99701399 2:-0.041390494 3:0.98823106 4:-0.074904956 5:0.12556651 6:0.5537172 7:0.84737569 8:0.31044656 9:0.86876261 10:0.44005355 11:0.035455007 12:0.49814168 13:0.40331694 14:0.51838994 15:0.55847067 16:-0.018490395 #
3.92327291683256129672940915043 1:0.18813834 2:0.34678802 3:0.73319232 4:0.85585779 5:0.28226182 6:0.17681484 7:0.64563143 8:0.10064627 9:0.78207779 10:0.36445698 11:-0.18598035 12:1.3820658 13:0.63728994 14:0.41731879 15:0.376798 16:0.47192791 #
1.4305077464964068845176825561794 1:0.80334812 2:0.083338551 3:1.1164846 4:0.50945497 5:0.057219669 6:0.76283783 7:-0.11046144 8:0.0037029248 9:0.41864496 10:0.87568235 11:0.25513685 12:0.17964906 13:0.99387532 14:0.5774796 15:0.22320373 16:0.50337934 #
0.21168601733076161663937853063544 1:0.62545907 2:1.0199573 3:1.2629715 4:0.43015388 5:-0.21478505 6:0.18298373 7:0.89074385 8:0.55666137 9:0.51334643 10:0.50460052 11:0.033006769 12:0.64423281 13:0.69737774 14:0.8229354 15:2.3213718 16:0.99464536 #
0.36134170431273188173193489092228 1:1.13561 2:0.66914117 3:0.74887174 4:0.6239742 5:0.039064419 6:0.49738944 7:-0.22353011 8:1.209299 9:0.70754558 10:0.41543135 11:0.67037475 12:0.22383872 13:0.41761822 14:-0.05565042 15:0.71495616 16:0.33906335 #
1.2102268181947750669280594593147 1:0.95876992 2:0.97160524 3:0.88316405 4:0.61803788 5:0.051964186 6:0.63671404 7:1.0443288 8:0.083059065 9:1.0312439 10:0.93493176 11:0.28915697 12:0.6022886 13:1.1327089 14:0.18192795 15:0.61538625 16:0.99693829 #
-0.75307893151929783392972694855416 1:0.09801618 2:0.11810463 3:0.58595365 4:0.39870703 5:0.37234771 6:-0.66839868 7:0.66258645 8:1.1519386 9:0.3343682 10:0.64721155 11:-0.24072513 12:0.89904678 13:0.29723397 14:0.94678009 15:0.66508502 16:-0.0028599028 #
-4.2821632197309700273990529240109 1:-0.14697139 2:0.30537695 3:0.4623979 4:0.55818337 5:-0.093914829 6:0.69498515 7:0.44907558 8:0.44156873 9:0.51263136 10:0.073983207 11:0.29470587 12:-0.057988059 13:0.43096596 14:0.91849613 15:0.98169059 16:0.487295 #
-3.4298337552951685403002102248138 1:0.046570756 2:1.0558544 3:0.61616981 4:0.20499291 5:0.3826839 6:1.514124 7:0.47369322 8:0.61627162 9:0.61281192 10:0.83996326 11:-0.44826904 12:0.5203808 13:1.2243956 14:0.62821043 15:0.69622326 16:0.28798142 #
1.2352776382701056157031871407526 1:0.27523461 2:0.5450927 3:0.21110453 4:0.79855722 5:0.31772435 6:0.64047569 7:1.0659535 8:0.11526266 9:0.63261104 10:1.2754164 11:-0.21408899 12:0.84321845 13:0.40800059 14:0.3766107 15:0.096659884 16:0.50549346 #
0.22625595503823750509475587477937 1:0.49514052 2:0.68291408 3:0.52626544 4:0.93173116 5:0.59071475 6:0.95776659 7:-0.010489056 8:0.66977555 9:0.74157399 10:0.76778072 11:0.25666517 12:0.34859133 13:0.019037712 14:1.0042386 15:-0.089705713 16:0.016954675 #
2.8065798443552090191133174812421 1:0.50337029 2:0.26421818 3:1.2751043 4:1.0983931 5:0.086457841 6:0.38358581 7:0.25317213 8:0.83760655 9:0.1724271 10:0.82988906 11:0.50666869 12:0.8409577 13:0.10957246 14:0.69356513 15:-0.041898977 16:0.25845009 #
2.2108671232347498758485926373396 1:1.0900878 2:0.17647722 3:0.48379931 4:0.88432187 5:0.40367413 6:1.0794988 7:0.67388529 8:0.53151393 9:0.6113084 10:0.68481666 11:0.80510634 12:0.20212445 13:1.1690606 14:1.2888808 15:0.2076764 16:-0.017026175 #
-0.59988023267616208400454524962697 1:-0.027163366 2:0.75857061 3:0.55699861 4:1.4147086 5:0.029728048 6:0.019590916 7:-0.20092851 8:0.64489031 9:-0.2887204 10:0.31993768 11:-0.25003016 12:0.61322433 13:0.42774552 14:-0.42251596 15:0.59585828 16:1.3766122 #
-0.9616544492862371118491182642174 1:0.95475799 2:0.12885842 3:1.1678691 4:0.25761771 5:0.062622249 6:0.62487924 7:0.67145884 8:0.65064901 9:0.43809396 10:-0.036399018 11:0.50156009 12:0.30192193 13:1.1347071 14:0.79216933 15:0.74129373 16:0.81207007 #
0.08626132212590859049683444936818 1:0.98319918 2:1.2065563 3:0.65076298 4:0.51064718 5:0.22639981 6:0.19106211 7:0.011113492 8:0.74178863 9:1.0784894 10:0.42956915 11:0.37658769 12:0.65736437 13:0.36659896 14:0.86264896 15:0.95855075 16:0.97286791 #
-0.3059461750141569402750008066505 1:0.79187262 2:1.0026524 3:0.62166166 4:1.6626614 5:1.8598231 6:0.1778072 7:0.10998175 8:-0.48373851 9:0.21808469 10:0.59006715 11:0.052614722 12:0.63969362 13:0.93233305 14:-0.1770467 15:0.49041501 16:-0.34537143 #
-1.4655332821962567813045552611584 1:1.2889428 2:0.55496418 3:0.73261255 4:1.0781302 5:0.67725241 6:-0.10803296 7:1.0129184 8:0.45908532 9:0.54946667 10:0.63478839 11:0.34164938 12:1.0282223 13:0.37729394 14:0.15419967 15:0.36134028 16:0.84307307 #
-0.61951274133744427263792431403999 1:-0.20348477 2:0.70476443 3:0.61575598 4:0.51700377 5:0.47867662 6:1.148246 7:0.6499123 8:0.75398624 9:0.54732966 10:1.187638 11:0.055652115 12:0.64255744 13:0.39079076 14:0.46018511 15:0.58604228 16:-0.058556058 #
-4.0147022167050785412811819696799 1:0.66448402 2:0.75011188 3:0.82897711 4:0.32256007 5:0.86274636 6:0.6689418 7:0.25646415 8:0.38706845 9:0.71494114 10:0.5492608 11:0.075925887 12:1.3092875 13:-0.50082076 14:0.039308816 15:0.52057338 16:0.66689944 #
-0.66593733076014982597001790054492 1:0.70468843 2:0.53307468 3:0.93728888 4:0.12359444 5:0.026900925 6:1.280617 7:0.57695436 8:0.99636322 9:0.80133539 10:0.922553 11:0.34579793 12:1.0801994 13:0.86880219 14:0.27868098 15:0.22457713 16:0.22156122 #
-1.3722292552778228014176420401782 1:0.9030512 2:1.1563926 3:1.2682366 4:0.48488894 5:0.51623774 6:0.57612818 7:-0.71559584 8:0.89346915 9:0.18203221 10:0.827586 11:-0.63511819 12:0.79709035 13:0.4783738 14:0.32808998 15:0.6470958 16:0.41366845 #
-6.163503972055729640544541325653 1:0.95312846 2:0.45040175 3:0.52491498 4:0.43954408 5:0.24497378 6:0.22648603 7:0.35857278 8:0.57046509 9:1.0082515 10:0.76816809 11:0.15059917 12:0.025477717 13:0.80722612 14:0.33951327 15:0.80766571 16:0.56281376 #
0.25436928724235102761142002236738 1:0.87828541 2:0.60945952 3:0.9942466 4:0.47504115 5:0.6019271 6:0.60439575 7:0.79451543 8:0.78267878 9:0.21015882 10:0.56450319 11:-0.013053413 12:0.11726929 13:0.87736744 14:-0.21430339 15:0.84347278 16:-0.051316638 #
-1.5308774231047994618393204291351 1:0.72429132 2:0.28843808 3:0.9187423 4:0.70695031 5:0.6924268 6:0.9742893 7:-0.0069024209 8:0.50070757 9:-0.30433729 10:0.26816952 11:0.03128349 12:1.2977903 13:0.44071561 14:0.75539583 15:0.3459675 16:0.2126855 #
3.3410725526734226242808745155344 1:0.77254325 2:-0.13416637 3:0.41692051 4:1.0682561 5:-0.41405135 6:0.028890034 7:0.93583935 8:0.30708358 9:0.33734909 10:0.71638191 11:0.29906172 12:-0.12804911 13:1.3063933 14:0.79569048 15:0.50375676 16:0.2741729 #
-1.1535086470954976078928666538559 1:0.5267396 2:-0.17713368 3:0.42649046 4:0.96728247 5:0.24941191 6:1.0556438 7:1.0549852 8:0.40990368 9:0.059743866 10:0.53904307 11:0.398375 12:0.99045545 13:0.74306452 14:-0.21113178 15:0.43519074 16:0.78317052 #
-5.7897199479047865011693829728756 1:0.29054293 2:0.98490173 3:0.80664957 4:0.18642314 5:0.7491433 6:0.15217757 7:0.28859311 8:0.081622422 9:0.93637222 10:0.39785337 11:0.20387755 12:0.65491354 13:1.2919503 14:0.91628057 15:0.079515748 16:0.63783801 #
-0.60056165075050671475764829665422 1:0.70297915 2:0.54390144 3:0.91748947 4:0.9315021 5:0.40531969 6:0.11641908 7:0.30816227 8:0.87530065 9:-0.013395149 10:0.24436875 11:0.40983841 12:0.76192158 13:0.42400229 14:1.0310098 15:0.83692992 16:0.72153854 #
4.2173248503741849191328583401628 1:0.85852206 2:0.42045143 3:0.85696656 4:0.42671257 5:0.42362183 6:0.12779649 7:0.36000594 8:0.60280085 9:-0.13274388 10:0.49632788 11:0.041108068 12:1.0830652 13:0.98424906 14:0.32679778 15:0.18089376 16:0.10826306 #
4.7333495508561567177707729570102 1:0.77878857 2:0.51602191 3:0.74213678 4:0.46448806 5:1.2848659 6:0.41148618 7:0.54083788 8:0.68993336 9:0.29242569 10:0.39229506 11:-0.20990951 12:0.13919741 13:0.15217729 14:0.39036146 15:0.71230578 16:1.0931165 #
0.33049466309642705486027125516557 1:0.53505462 2:0.33430055 3:-0.17521587 4:0.98997915 5:0.67484379 6:0.78859669 7:0.4751977 8:0.70162809 9:0.75810832 10:-0.051407583 11:-0.22695205 12:2.141912 13:1.3395338 14:0.39139313 15:0.8203007 16:0.59186727 #
-1.4976388991889382218403170554666 1:0.17905101 2:-0.20410378 3:0.62887639 4:0.85354853 5:0.32104456 6:0.24419035 7:0.11335631 8:-0.11214794 9:0.30249178 10:0.54381877 11:0.34494704 12:0.4704029 13:0.41693661 14:0.53005856 15:0.19251175 16:-0.065667532 #
-5.5126331142659967810004673083313 1:0.92341286 2:0.52430755 3:0.85209984 4:0.039456028 5:0.7579397 6:-0.27962652 7:0.50535142 8:0.48250619 9:0.56891429 10:1.9118903 11:0.44701374 12:0.82334507 13:0.069557585 14:0.2001673 15:0.66118556 16:0.22826916 #
-1.300223331967137463394124097249 1:0.1948407 2:0.38080522 3:0.42611837 4:-0.31886327 5:0.43256095 6:0.043104731 7:0.87178779 8:0.10467444 9:0.67273486 10:0.54001933 11:0.0039394824 12:0.39547336 13:0.68067867 14:-0.058614399 15:0.25242528 16:0.26312917 #
-0.9257803441204141003950667254685 1:0.87295717 2:0.42929322 3:0.86905223 4:0.3539483 5:-0.63611907 6:0.56312668 7:-0.16332683 8:0.32294092 9:0.33672965 10:0.049461816 11:0.1664111 12:1.2950056 13:0.76177114 14:0.72001082 15:0.59463114 16:-0.15317188 #
-1.8825372268888762583571860886877 1:0.56540442 2:1.4034685 3:0.74561816 4:0.2726714 5:0.98746955 6:0.91561395 7:0.28383601 8:1.2137395 9:0.60988373 10:0.45579791 11:0.30033436 12:0.5584259 13:0.55460274 14:0.42799336 15:0.5906834 16:0.99264729 #
8.4684239722272440786809966084547 1:0.93484485 2:0.088672183 3:0.68185604 4:1.2356298 5:0.59127206 6:0.89721918 7:-0.09663377 8:0.5870918 9:0.34303272 10:0.7852242 11:1.2313442 12:0.47891423 13:-0.049169805 14:0.47589499 15:0.58940691 16:0.32680681 #
-2.1006398130708894278484422102338 1:0.81533903 2:0.21365339 3:0.28173807 4:-0.36064267 5:0.05341066 6:0.7143383 7:0.46574524 8:0.20282696 9:0.67718762 10:0.68783206 11:0.57490605 12:0.23105076 13:0.11102622 14:1.0668473 15:0.18555619 16:0.88018912 #
0.17288809275445396473891435107362 1:0.8387599 2:0.29892564 3:0.39669847 4:1.180387 5:0.15055053 6:0.7017324 7:0.46014932 8:-0.093884453 9:0.58874297 10:0.10390089 11:-0.26664487 12:0.39236516 13:0.38063136 14:1.1471862 15:0.53919619 16:0.4792563 #
-0.004617966582154756083333779770328 1:0.611956 2:0.20918223 3:0.56604254 4:0.90594858 5:0.66613728 6:0.19204111 7:0.41847524 8:0.17016841 9:0.70530999 10:0.70073014 11:0.45366845 12:0.44806111 13:1.064025 14:-1.1951765 15:0.049949378 16:-0.17253228 #
11.475163449154099026827680063434 1:1.0627785 2:0.025630636 3:0.36153871 4:1.1531957 5:-0.15304688 6:-0.14667684 7:0.85152924 8:0.67580903 9:0.41851577 10:0.51202494 11:0.97587568 12:0.73297757 13:-0.042538699 14:0.31916207 15:0.3032808 16:-0.045228891 #
0.092958391679729274192922616748547 1:1.6940988 2:0.6185025 3:0.53472215 4:0.95016122 5:0.8582539 6:0.26567447 7:0.79744267 8:0.17392763 9:0.33683383 10:-0.26027241 11:0.0018480963 12:0.20161226 13:0.63098651 14:1.0748938 15:1.0026171 16:-0.64071751 #
0.57484168395717027966185241893982 1:0.56326246 2:0.14512318 3:0.61944407 4:1.0086319 5:-0.11620537 6:0.87908053 7:0.95336044 8:1.0028522 9:0.81121355 10:0.096637413 11:0.069049723 12:1.048093 13:0.63315958 14:0.99691671 15:0.7560811 16:0.9286806 #
0.15097829053355460438012869417435 1:-0.6549567 2:-0.46549022 3:1.2937313 4:0.53253162 5:-0.45514262 6:1.0518157 7:0.1364363 8:0.40722248 9:0.64536685 10:1.8999202 11:-0.049134295 12:0.98763007 13:0.24453057 14:-0.01091083 15:0.59904557 16:0.96132737 #
-3.5375077617893615489208514190977 1:0.13735351 2:-0.063118473 3:0.55584455 4:0.41225168 5:0.067693122 6:0.15448008 7:0.64554524 8:0.51849735 9:0.25408086 10:0.83133507 11:0.00033654898 12:-0.11907619 13:0.52566999 14:0.18637948 15:0.24402417 16:1.1173699 #
0.11320896498781270189670777881474 1:-0.082491674 2:-0.56426007 3:-0.44433561 4:1.2248447 5:1.0356096 6:-0.31278995 7:1.7588737 8:0.74785221 9:1.0337274 10:1.0773159 11:-0.2044872 12:1.698474 13:1.0832791 14:0.96807557 15:0.35819227 16:1.07979 #
-1.498337996628654300579341906996 1:0.33847994 2:0.56656432 3:0.13024601 4:0.19278057 5:0.18626092 6:0.51241547 7:1.210111 8:1.0464964 9:0.68093276 10:0.89116251 11:0.34697273 12:0.71812856 13:0.81070423 14:0.51724631 15:1.0665671 16:0.68381584 #
-0.50090033875410566732711004078737 1:0.93271768 2:0.79289752 3:0.18120958 4:0.70379782 5:0.53181386 6:0.93631405 7:0.32647079 8:0.20234457 9:0.015238333 10:0.69126773 11:0.086252339 12:1.1307632 13:0.70561987 14:0.27794072 15:1.002498 16:0.54337955 #
8.5859953232167480763337152893655 1:0.32975373 2:1.1581085 3:0.82590967 4:0.76631564 5:0.14831671 6:0.22235627 7:0.59092504 8:0.27133095 9:0.45079416 10:0.44273338 11:0.14792621 12:0.14007148 13:0.30928266 14:0.7867732 15:0.56294984 16:0.51895946 #
-0.77024459704825132266847731443704 1:0.74237311 2:-0.10331275 3:0.94239599 4:0.88707954 5:0.34552267 6:0.69858122 7:0.0013667034 8:0.71252245 9:0.93155497 10:0.5981288 11:0.15772752 12:0.72640163 13:0.40720105 14:0.19709507 15:0.8043685 16:0.19558026 #
-0.88589292420318521692479407647625 1:0.22281447 2:-0.48091361 3:0.83272552 4:1.0900788 5:0.86568928 6:0.050173003 7:0.75141114 8:0.98711497 9:0.38629863 10:0.38332808 11:1.0843627 12:0.59103346 13:0.35818443 14:0.55534977 15:1.0892638 16:0.36838725 #
2.1552236885379065789436481281882 1:0.68988317 2:0.42555854 3:0.87544012 4:0.73387527 5:0.17726131 6:0.86922342 7:0.50365186 8:0.55399227 9:0.43306458 10:0.29185465 11:0.60413438 12:0.59336388 13:0.74586606 14:0.2374136 15:0.17314339 16:0.87754136 #
7.7990533529292713765812550263945 1:0.031108839 2:-0.18687271 3:0.90362352 4:0.4344523 5:0.60069788 6:0.4845145 7:0.23705621 8:0.72780889 9:0.13232395 10:0.62117887 11:-0.014697898 12:0.78987867 13:1.0041269 14:0.52060139 15:0.71956432 16:0.15613857 #
-0.59434974932617079534935555784614 1:1.1392882 2:0.74782944 3:1.0716382 4:0.414404 5:0.33122715 6:0.15307102 7:0.04844135 8:0.32659039 9:0.16468704 10:0.45169267 11:0.19371745 12:0.8508417 13:0.4322637 14:-0.1369618 15:0.78957188 16:0.53231359 #
-0.31093604777353667234507383909659 1:0.92130482 2:1.1135401 3:0.22693634 4:1.3166393 5:1.6194751 6:0.81573439 7:0.075270906 8:-0.6491462 9:0.059411474 10:0.27980602 11:-0.3924934 12:0.56036049 13:0.84656996 14:0.71324432 15:0.61296189 16:0.17366141 #
-0.78557581345571725339738122784183 1:0.8709383 2:-0.63606453 3:0.69615281 4:0.15478048 5:0.75325668 6:0.0087631205 7:0.050143093 8:-0.91935724 9:0.83562768 10:0.55490327 11:0.57235986 12:0.89561331 13:0.57220519 14:0.46054038 15:0.8528468 16:0.87589413 #
-0.29316668714629173786434535031731 1:0.91312689 2:0.57363164 3:0.68969733 4:0.75624663 5:0.091302402 6:-0.67947394 7:0.23237997 8:0.89825904 9:0.77093375 10:1.0130823 11:-0.17101002 12:0.62689358 13:1.1821119 14:1.0548457 15:1.0867697 16:-0.17298089 #
0.7065776755973520728559833514737 1:0.78740269 2:-0.24312118 3:1.5179329 4:0.7228564 5:-0.19017169 6:0.25981158 7:1.3911119 8:0.46598899 9:0.90050966 10:1.9406111 11:1.1490476 12:0.6163044 13:0.52680397 14:-0.41073719 15:0.51506811 16:0.77177322 #
-0.25627610576839787714931162554421 1:0.94974667 2:0.0073720254 3:2.2743168 4:1.1970389 5:0.25418288 6:0.28032696 7:0.14871077 8:-0.092412449 9:0.4757669 10:0.5065226 11:-0.15349017 12:0.30006444 13:0.79648715 14:0.35879132 15:1.1258463 16:0.91538846 #
0.88702974032255199610119689168641 1:-0.18317427 2:0.23669055 3:0.93543911 4:-0.62367225 5:0.49888083 6:1.7169917 7:1.3891375 8:0.40379357 9:0.26813254 10:1.1831362 11:0.49316657 12:0.48676261 13:0.77657729 14:0.62769347 15:0.06863454 16:1.1720752 #
-1.2643122612737414112160649892758 1:1.3213699 2:0.78798908 3:0.67144167 4:1.7941513 5:-0.19409038 6:0.48167142 7:0.089729339 8:0.46104923 9:0.06615755 10:1.0852382 11:-0.088992387 12:1.3367586 13:0.69147807 14:0.21537504 15:1.1183788 16:0.70245284 #
5.0349151529076365818582416977733 1:1.2353846 2:1.0622753 3:0.49105498 4:1.3078935 5:1.8017005 6:0.35773852 7:0.71752679 8:0.70658636 9:0.65143406 10:1.040382 11:-0.2907055 12:0.57262009 13:0.47912756 14:-0.18053666 15:0.19591242 16:0.78305167 #
-6.3202197125225563212325141648762 1:-0.055771034 2:0.9976995 3:0.6121909 4:0.13486527 5:0.7189694 6:0.095265739 7:0.70985729 8:0.78330982 9:0.24438994 10:0.42936575 11:-0.38720334 12:0.81909066 13:1.2074376 14:0.69698787 15:0.48239675 16:1.0076643 #
-1.8023957889468626980544740945334 1:0.28868395 2:0.47767118 3:0.77241105 4:1.1390096 5:0.19409162 6:0.3279888 7:0.0072423583 8:0.79970962 9:0.35720822 10:1.2044618 11:0.02369817 12:0.28861207 13:-0.22095653 14:0.59915137 15:0.67808706 16:1.0994005 #
0.59077297727004463023803282339941 1:0.080017351 2:0.78680152 3:1.0956745 4:-0.27424562 5:0.66055822 6:0.87318134 7:0.35968998 8:0.80003679 9:0.086249761 10:0.56375653 11:0.25532624 12:1.0028558 13:0.77203864 14:-0.17755766 15:0.8502773 16:-0.1504382 #
-4.7473297639668992076167342020199 1:0.41369238 2:-0.0028915699 3:0.63778841 4:0.21646118 5:1.1580739 6:0.6654458 7:0.40129188 8:0.46375453 9:-0.046625961 10:1.3491336 11:0.14030245 12:0.90304643 13:0.11595827 14:-0.02204592 15:0.4883461 16:0.59550118 #
-5.4940075198463826922079533687793 1:1.0885742 2:0.60121351 3:0.89611095 4:0.12646705 5:0.60146004 6:0.33045557 7:0.73266596 8:0.44759285 9:0.26237264 10:0.97647476 11:0.41931272 12:0.17631258 13:0.53214997 14:0.30404609 15:0.021334095 16:0.088024966 #
1.7172967379923209652048399220803 1:0.62326175 2:0.22754985 3:0.93694198 4:0.84468114 5:-0.068772376 6:1.1608022 7:0.31364256 8:0.25674567 9:0.99276769 10:0.474751 11:0.56759894 12:0.67411745 13:-0.18596944 14:0.34702367 15:-0.051412482 16:0.24041535 #
-0.46764235487258304369007078094 1:0.7045629 2:0.48133236 3:1.3797835 4:0.53220117 5:0.4823294 6:0.59418845 7:-0.072306938 8:0.3192296 9:1.8728942 10:0.82475245 11:-0.072747625 12:-0.990435 13:0.048215643 14:0.084135264 15:0.87579858 16:0.48856458 #
1.4350789484340333856948745960835 1:0.92993337 2:1.0080836 3:0.56986547 4:0.81932294 5:-0.24688882 6:0.90128273 7:0.63896549 8:0.2998493 9:1.0377978 10:-0.12471884 11:0.42850852 12:0.93847352 13:0.68986177 14:0.27068502 15:0.73255467 16:-0.032567605 #
-1.4870857340655927458783480687998 1:1.3496548 2:0.59827638 3:1.2400867 4:0.96732318 5:0.24701346 6:0.27524436 7:0.548967 8:0.089970753 9:0.47081438 10:-0.094136842 11:0.98885071 12:-0.13155873 13:-0.046910539 14:0.031126654 15:0.44920939 16:0.38041198 #
1.4590683249282843103600271206233 1:0.11558966 2:0.27851847 3:0.83607644 4:0.78191918 5:0.18747415 6:1.1066872 7:0.40379047 8:-0.0012345237 9:0.4130688 10:0.72981501 11:0.10501413 12:0.48190045 13:0.19521374 14:0.87567145 15:0.66972095 16:0.31802863 #
4.7124304628543978168409012141638 1:-0.16507322 2:0.71896499 3:0.38264549 4:0.94766498 5:0.044255313 6:0.28081113 7:0.3941755 8:0.85097897 9:0.37447736 10:0.63101572 11:-0.025805306 12:0.6352008 13:0.35415888 14:0.30666721 15:0.16766322 16:0.56885546 #
-2.3545357762222223207970728253713 1:-0.075591624 2:1.1070757 3:1.5272583 4:-0.072207212 5:0.24270095 6:0.60645813 7:0.82175595 8:0.36021116 9:0.67789572 10:0.90076703 11:0.12184145 12:1.1988831 13:0.2445567 14:0.63632894 15:0.65106982 16:0.44103432 #
-5.1293249325263907678618124919012 1:0.67715043 2:0.63505119 3:0.85851252 4:1.1122091 5:0.57906103 6:0.92286175 7:0.37980902 8:0.37521625 9:0.64687389 10:0.7469359 11:0.22211012 12:0.86592275 13:0.21625662 14:0.14629142 15:0.77557528 16:0.51151901 #
-1.5656033647965732491513790591853 1:0.96382803 2:0.50388515 3:-0.18997689 4:0.12233556 5:1.9541203 6:0.91169524 7:0.7188915 8:0.75560629 9:0.74226522 10:1.2698706 11:0.11733725 12:0.81926066 13:-0.2050283 14:0.82431561 15:0.87872976 16:0.93542051 #
-1.2177367452996779029206209088443 1:0.59654772 2:0.70653898 3:0.50985289 4:1.0121543 5:0.09408395 6:0.78858232 7:1.094293 8:0.41144583 9:0.18706843 10:0.25376052 11:0.74028665 12:-0.065991767 13:0.075079992 14:0.62035018 15:-0.37383959 16:1.1050203 #
0.61140845430912471591966550477082 1:0.60654539 2:1.8127041 3:0.89221102 4:0.38387796 5:0.49458805 6:-0.0039047915 7:0.64661354 8:0.56407523 9:0.52563924 10:0.27720383 11:-0.63343781 12:-0.60585123 13:-0.25796354 14:0.7338351 15:0.22525683 16:0.64970285 #
-1.125816891868342217719600739656 1:0.37142751 2:-0.15065025 3:0.86056179 4:0.27274245 5:0.077527918 6:0.52531397 7:0.2102958 8:0.84202749 9:1.0410258 10:0.78444856 11:0.26852974 12:0.060554285 13:0.015621928 14:0.82483017 15:-0.06986396 16:0.51808089 #
1.6155182667014216235656931530684 1:0.85525745 2:0.20275338 3:0.51218939 4:0.7304194 5:0.39774147 6:1.0674174 7:0.7851513 8:0.73859793 9:0.59122682 10:0.11605845 11:0.18389562 12:-0.17283872 13:0.46393788 14:0.32468125 15:0.10268622 16:-0.019338533 #
0.34165359318137039634777352148376 1:0.93590087 2:0.78627998 3:0.66900235 4:0.95261389 5:0.30255714 6:1.0049274 7:0.2272871 8:0.19047965 9:0.27710742 10:0.024774693 11:0.9437986 12:-0.094879918 13:0.55873328 14:1.0551578 15:0.83042961 16:0.96696919 #
-0.81780949074334963189158997920458 1:0.26622212 2:1.7356509 3:1.405264 4:0.72228032 5:1.275666 6:0.22235572 7:0.81509006 8:0.86106902 9:0.577887 10:0.23272203 11:0.49552396 12:1.3721417 13:0.68553334 14:0.48031643 15:0.9172883 16:0.21152365 #
-4.0308691940409593357230733090546 1:-0.16073477 2:0.21930709 3:0.34389296 4:0.77441317 5:0.67665607 6:0.28052029 7:1.0332102 8:0.27249837 9:0.73521399 10:0.187298 11:-0.19904387 12:0.37117213 13:1.360587 14:0.42039293 15:0.63225597 16:0.40643495 #
-0.039083380777769460845405546933762 1:0.73880202 2:0.76812941 3:0.38654321 4:0.39529848 5:-0.11772919 6:0.88251239 7:0.80880117 8:0.4833262 9:0.25213373 10:0.92602652 11:0.10262813 12:0.89835823 13:0.75215995 14:1.079497 15:0.36423013 16:0.36651987 #
-0.43409662037348983876228203371284 1:0.73684734 2:0.3884283 3:0.82809561 4:0.9157626 5:-0.66247797 6:0.32668534 7:0.13180833 8:-1.0371995 9:0.68832344 10:0.90236795 11:0.24986336 12:1.1066806 13:0.79635274 14:0.94238198 15:-0.066185109 16:1.1683446 #
2.2033641928551714883610657125246 1:0.31664532 2:0.45405218 3:0.7959255 4:0.73201895 5:0.60266167 6:0.85299623 7:1.2680186 8:0.28176269 9:0.19123553 10:0.73301965 11:-0.1066809 12:0.91965187 13:0.69536024 14:0.32755244 15:0.86182803 16:0.24559005 #
1.6785662624328221426139862160198 1:-0.11898207 2:0.99973339 3:0.38960481 4:0.32986045 5:0.53446215 6:0.022842674 7:-0.2180953 8:-0.06427829 9:0.75198376 10:1.1451771 11:0.22007507 12:0.87262475 13:0.62067413 14:0.10311119 15:0.50984395 16:0.22168459 #
3.7489707025637897253034225286683 1:1.559625 2:1.7884121 3:0.55944663 4:1.6997279 5:1.0737423 6:-0.21173015 7:0.40364182 8:0.21729688 9:0.45321658 10:0.85232258 11:0.23890625 12:-0.040599979 13:0.11662303 14:0.95208925 15:0.58574897 16:1.1981091 #
-10.483082619720772044047407689504 1:0.69723511 2:0.62016201 3:1.0128479 4:-0.15829404 5:0.28146714 6:0.74751925 7:-0.14561042 8:0.63004065 9:0.4948411 10:-0.28429481 11:-0.071277343 12:0.5888465 13:0.24682269 14:0.60381407 15:0.4934471 16:0.31894007 #
0.11126067678827662732476966311879 1:0.39954472 2:0.453071 3:0.87008554 4:1.1743644 5:0.53324854 6:0.98868227 7:0.29190004 8:0.52676433 9:-1.2809852 10:0.44303045 11:-0.052974716 12:0.82108724 13:0.0035096207 14:1.3782909 15:0.32760131 16:0.30396298 #
0.42725394230233415537867358580115 1:0.65286666 2:0.49049184 3:0.65226096 4:0.13235411 5:0.25510177 6:1.0672237 7:0.13727711 8:0.66410363 9:0.96649408 10:0.41679418 11:0.073035181 12:1.0188098 13:-0.067396626 14:1.1331426 15:0.90137118 16:-0.13043818 #
-0.21075819496950445874894342068728 1:0.22664346 2:0.78519487 3:0.79678857 4:0.64065033 5:0.098675832 6:0.66306031 7:0.45837182 8:-0.53781313 9:1.2173502 10:0.97404051 11:0.99361616 12:0.76190662 13:1.0678806 14:0.34129432 15:1.0142448 16:0.77111501 #
2.2252304959117266136559010192286 1:1.0221002 2:0.98090124 3:0.58295703 4:0.20791438 5:0.23153718 6:0.82467294 7:0.49409187 8:0.70332569 9:1.0590301 10:0.54171389 11:0.10599096 12:0.40075925 13:0.097669743 14:0.091536351 15:0.39225864 16:0.66638547 #
-4.5517264210174435135058956802823 1:1.0831383 2:0.86834162 3:0.72772187 4:1.1420174 5:0.79225802 6:0.44521064 7:0.23604843 8:0.72424406 9:1.0251902 10:0.44660497 11:0.20132908 12:0.41181108 13:0.68637359 14:0.6968587 15:0.042295728 16:0.46559384 #
0.52854724092091776022073190688388 1:0.45906982 2:0.65923148 3:0.77437145 4:0.18850759 5:0.7964828 6:0.90609747 7:0.7780056 8:0.97462207 9:0.9853915 10:0.99474752 11:-0.1314213 12:0.6967085 13:0.47888747 14:0.53408772 15:0.95224583 16:0.73777533 #
-1.1197507284417371753448833260336 1:0.78544754 2:-0.066607133 3:-0.074488051 4:0.45058858 5:0.23663902 6:-0.11483403 7:0.88115531 8:0.25644332 9:1.4294744 10:0.61390978 11:0.51133776 12:0.25225076 13:0.02307261 14:0.53307176 15:1.5928719 16:0.3241187 #
-3.5258651412909727262956494087121 1:0.93487477 2:0.93563765 3:0.12052461 4:0.17653957 5:0.2155782 6:0.27696705 7:0.76261455 8:0.42332229 9:0.68171304 10:0.56403899 11:-0.10699723 12:0.72221839 13:1.2075679 14:0.22484298 15:0.19009615 16:-0.14659819 #
1.4830267760793418574394308961928 1:1.2946343 2:-0.18301092 3:-0.11217339 4:1.1915553 5:0.14595445 6:0.80456823 7:0.32874766 8:0.6625914 9:0.44738445 10:-0.56110239 11:-0.028037971 12:0.29764104 13:0.76328635 14:0.88527888 15:1.1677865 16:0.37116486 #
1.1705669849828477246944657963468 1:0.5389967 2:1.3532156 3:0.53297323 4:0.80634159 5:0.38812584 6:0.99287671 7:-0.21542834 8:-0.030634733 9:0.56043851 10:0.038962197 11:0.38302121 12:1.0065429 13:0.33417457 14:0.30975324 15:0.07300467 16:1.0046315 #
5.3569134785136665044547044089995 1:0.50089037 2:0.34481898 3:0.92975789 4:0.23618712 5:0.62448871 6:0.29960385 7:0.75481158 8:0.95298928 9:0.72207999 10:0.82154369 11:0.1922684 12:0.93247241 13:0.487721 14:1.044225 15:0.43468457 16:-0.0050578937 #
0.28944354307034503293039051641244 1:2.0262527 2:-0.035381384 3:1.6397536 4:0.082199045 5:1.8647939 6:1.0230241 7:1.7679234 8:0.48412082 9:1.2683035 10:0.22652654 11:-0.22563915 12:0.72456169 13:1.7722014 14:-0.2180758 15:-0.81853563 16:0.73904026 #
3.461449413158857790762112927041 1:0.19594096 2:0.93244767 3:0.83101279 4:1.0096638 5:0.25025234 6:1.3586329 7:0.27413172 8:0.309607 9:0.3992683 10:0.95658654 11:0.79299045 12:-0.11715584 13:0.71750408 14:0.54360181 15:0.37659603 16:0.31049961 #
2.7002671778857787465710771357408 1:0.46021041 2:0.38358599 3:0.63940865 4:0.057790954 5:0.45124027 6:-0.010645359 7:-0.24340175 8:0.14452273 9:1.1167088 10:0.36268571 11:-0.30728263 12:0.30304876 13:0.082148843 14:0.70470226 15:0.095855139 16:0.88471258 #
-2.9653476336818744840684303198941 1:0.36631185 2:0.38536677 3:-0.010478413 4:0.93950498 5:-0.37591648 6:0.60130882 7:-0.40252456 8:1.0718852 9:0.10430848 10:0.74416327 11:0.85819221 12:0.79457164 13:0.36592212 14:0.31777331 15:0.45509338 16:0.38071004 #
-1.3413273792207671686327330462518 1:1.1983055 2:1.1006253 3:0.80796516 4:0.45516819 5:0.31853175 6:1.2773968 7:1.4451745 8:0.54709721 9:0.50482488 10:0.47005901 11:0.21655321 12:-0.01572888 13:0.96318489 14:0.002085825 15:0.23471645 16:0.97042668 #
-0.87193096101268730002686879743123 1:0.50690538 2:1.4342374 3:0.77499741 4:0.93461812 5:1.6064522 6:0.44404572 7:0.71374166 8:0.68301708 9:0.64017153 10:-0.55229062 11:-0.37688529 12:0.30606389 13:0.76853895 14:0.53126764 15:0.93557739 16:0.92431235 #
-2.4396606677563226206473245838424 1:1.2959756 2:0.64085305 3:1.1771939 4:0.60263038 5:-0.001303201 6:0.89751285 7:-0.057689954 8:0.78056836 9:0.49141026 10:0.86652875 11:0.25013113 12:-0.21098931 13:0.16461316 14:0.76386279 15:0.14057548 16:0.86682737 #
3.0702350898678383295248295326019 1:0.61866587 2:0.56600916 3:0.34457165 4:-0.27365202 5:0.40300351 6:0.55760914 7:0.33055314 8:0.16927779 9:0.4906283 10:1.0216606 11:-0.12431629 12:0.98042434 13:0.72082049 14:0.6633507 15:0.13182169 16:1.2977531 #
-0.68673083384888811142587883296073 1:1.0664815 2:0.9253673 3:0.86437321 4:0.20573354 5:1.0744416 6:0.94715929 7:0.1435217 8:0.26145309 9:0.55308944 10:1.113271 11:0.04428288 12:0.37182766 13:1.1442436 14:0.77026904 15:0.70731211 16:0.65120852 #
10.460600466777579597987823945004 1:1.2937902 2:-0.20571136 3:0.6990369 4:1.3204812 5:-0.26486331 6:0.65830803 7:0.5113616 8:0.17030507 9:0.20685366 10:1.5807691 11:1.1885047 12:0.37812355 13:-0.069569893 14:0.4308235 15:0.33584997 16:0.70571375 #
-0.62203342422822072155241812652093 1:-0.65004444 2:0.92711598 3:1.3064293 4:0.6410895 5:0.64406765 6:0.68687695 7:0.65433002 8:0.350007 9:-0.67782933 10:0.33205193 11:-0.16124783 12:0.2301967 13:0.94802028 14:0.19936937 15:0.67040926 16:0.54409355 #
0.83779044161169979876291336040595 1:1.0800127 2:0.25220469 3:-0.21522337 4:0.81226218 5:0.34085193 6:-0.048174426 7:0.43363297 8:0.43252602 9:1.0917299 10:0.76681632 11:0.59820586 12:-0.44729006 13:1.0389869 14:-0.26780489 15:0.75137174 16:0.79845369 #
2.4616383745054775111782419116935 1:0.80883014 2:0.68131304 3:0.41506645 4:0.75393784 5:1.1679404 6:0.15198053 7:0.27115029 8:0.21114968 9:0.14763129 10:1.0734377 11:0.1578452 12:0.81436586 13:1.1214609 14:0.17565821 15:0.62394041 16:1.1788284 #
-0.12055499578583622755090232203656 1:2.2752771 2:-0.30334252 3:1.9125297 4:-0.17820196 5:2.479594 6:1.1059262 7:2.1656075 8:0.22118935 9:1.5096432 10:0.25473028 11:-0.32307419 12:0.82447731 13:2.111377 14:-0.42784896 15:-0.86841202 16:0.58539271 #
-2.4107899627324131941463747352827 1:0.97546488 2:0.20097065 3:0.58775908 4:1.0404675 5:-0.0043656458 6:0.35739639 7:0.73949564 8:0.01326473 9:0.47644684 10:0.61534363 11:1.5437719 12:1.1034051 13:0.86552757 14:0.38492623 15:0.66025877 16:0.40352064 #
-2.343901999791406343121025201981 1:0.038573422 2:-0.40194538 3:0.45673531 4:-0.018316705 5:-0.5946328 6:0.15575409 7:0.98483121 8:0.98424643 9:0.23579802 10:0.11940924 11:0.089400619 12:0.92429912 13:1.1977515 14:0.64795512 15:0.63309461 16:0.1009593 #
-0.79162560990812580463682479603449 1:-0.23922992 2:0.49461567 3:1.2915764 4:0.69756114 5:0.26877922 6:-0.11593532 7:0.39688343 8:-0.34602177 9:1.0061532 10:-0.50745058 11:-0.535124 12:1.6408684 13:0.54822141 14:0.42343524 15:0.13564652 16:0.63200831 #
-5.9664812570496579269274661783129 1:0.65227962 2:0.88757175 3:0.68351156 4:0.44044808 5:0.18973979 6:0.77917212 7:0.64295495 8:1.0136734 9:0.36977863 10:-0.010968857 11:-0.42780703 12:0.70241547 13:0.88229722 14:0.42550951 15:0.75338435 16:0.36323398 #
-1.1342279973022815209304781092214 1:0.83294177 2:-0.039291218 3:1.2368059 4:0.70498592 5:-0.19965599 6:1.0041883 7:0.49995992 8:-0.0054235477 9:0.068198949 10:0.12143066 11:0.50136232 12:-0.34840888 13:0.16330381 14:0.70143223 15:-0.003918861 16:0.43580073 #
0.40107970937368053743199425298371 1:0.18636107 2:0.89532769 3:0.56840962 4:0.71932197 5:-0.48253661 6:0.80958253 7:1.452819 8:-0.31531569 9:0.74821281 10:0.31424212 11:0.033925641 12:0.45264041 13:-0.29554841 14:-0.14488213 15:1.3243785 16:0.67430824 #
-1.6896106810299487133164575425326 1:0.45011353 2:-0.27509624 3:0.62304473 4:1.0149449 5:0.0051190495 6:-0.26449576 7:0.72914463 8:0.47347018 9:0.40903318 10:1.3091961 11:0.42742828 12:0.96645725 13:0.92279959 14:0.71515769 15:0.27248666 16:0.35629082 #
-0.15329215800171092087822444227641 1:1.3168856 2:0.40945783 3:0.65057099 4:0.31077179 5:-0.21627961 6:0.36276346 7:-0.20381962 8:1.8182579 9:0.97994196 10:0.37391448 11:0.83468705 12:-0.18422861 13:-0.099375017 14:-0.63227582 15:0.2896319 16:0.71693259 #
-3.1069312170489427060715570405591 1:-0.042504549 2:-0.30984852 3:0.54936671 4:0.65648299 5:-0.60307556 6:1.3380131 7:-0.23787138 8:0.32397303 9:0.36968163 10:0.04696599 11:0.74751538 12:0.24872325 13:0.41114691 14:0.56078076 15:1.0391252 16:0.27048644 #
-0.79609871459611392108257632571622 1:0.67584723 2:0.069350086 3:0.85404968 4:1.1007304 5:0.35963872 6:0.62032568 7:0.53849578 8:-0.2093565 9:0.10996914 10:0.60180646 11:0.9777227 12:0.54558104 13:0.5206455 14:0.76236939 15:-0.09758506 16:0.41424397 #
-5.6238663549336891378516156692058 1:0.20886248 2:0.83139187 3:0.60798353 4:0.700656 5:0.38842183 6:0.53003001 7:-0.34399179 8:0.095580555 9:0.24447215 10:0.40422815 11:-0.034569878 12:0.53064775 13:1.2398601 14:0.38054425 15:0.86924833 16:0.4407132 #
-1.7758751474496112798817648581462 1:0.14124356 2:1.0360564 3:0.13449441 4:0.85227144 5:0.17587997 6:-0.14797685 7:0.66567159 8:0.51918399 9:0.20012128 10:0.35038716 11:0.11562202 12:1.0940422 13:0.053234976 14:0.035055656 15:0.79689395 16:0.76337993 #
-2.8227290097946577951404378836742 1:0.53961581 2:0.90593743 3:0.52673256 4:0.17980735 5:0.94565976 6:-0.071562886 7:1.1351297 8:0.57249558 9:0.12560202 10:0.9754079 11:0.30932432 12:0.07077574 13:1.0455385 14:0.89322692 15:0.80562866 16:0.50061399 #
1.3604120287933014754599980733474 1:0.7249859 2:-0.059872776 3:0.46845445 4:1.1156557 5:0.35145524 6:1.0964568 7:0.75941199 8:0.15458436 9:1.0561044 10:0.17919119 11:0.21868575 12:0.1719806 13:0.83868945 14:0.47053096 15:1.2454262 16:0.28765059 #
1.4599684190993713617245930436184 1:0.8220008 2:0.70273685 3:1.0528073 4:0.5079152 5:0.0042232806 6:0.053760536 7:0.70233494 8:0.69647461 9:1.0657682 10:0.93894351 11:0.041586604 12:0.53193766 13:0.38049147 14:0.63079047 15:-0.25865883 16:0.5935064 #
-4.4232934136289170368172563030384 1:0.95762146 2:0.20517379 3:0.81076348 4:1.342854 5:0.37284124 6:0.71423393 7:0.55439955 8:0.57064414 9:0.13984662 10:0.14850755 11:0.31405196 12:0.034312978 13:0.016313499 14:0.33365497 15:1.0047121 16:0.10617231 #
0.50219130462753103216755334869958 1:0.37260702 2:0.26796144 3:1.1208402 4:0.5829469 5:0.13277835 6:0.48399374 7:1.0402927 8:0.73876232 9:0.088512018 10:0.7492609 11:0.04941396 12:0.36178905 13:-0.26867604 14:0.15971275 15:0.64059395 16:0.40121728 #
-1.3706657153160517470524837335688 1:1.8801669 2:2.4119895 3:0.61893946 4:1.8915573 5:1.4953744 6:-0.60892242 7:0.46924472 8:-0.24272451 9:0.34546518 10:0.63880867 11:0.24900953 12:-0.30116075 13:-0.043846257 14:1.0532141 15:0.81623948 16:1.5512334 #
3.3342021196794147108732886408689 1:0.43174812 2:0.27483284 3:1.2474567 4:0.61396897 5:-0.037540678 6:0.19309776 7:0.87530273 8:-0.24703406 9:0.84260684 10:0.97896755 11:0.59474105 12:0.73180503 13:0.88196021 14:0.40231064 15:0.093720309 16:0.08914572 #
0.92585835648366510142182050913107 1:0.42089185 2:0.6146363 3:0.0070715938 4:0.37589759 5:1.1861966 6:0.20139369 7:1.1211172 8:0.68673229 9:0.072001874 10:1.0747751 11:0.048895989 12:1.1388726 13:0.74011171 14:0.27545238 15:0.39709541 16:0.041011322 #
0.82208509656455597269797408443992 1:0.53970599 2:-0.15778218 3:0.82174861 4:1.1143659 5:-0.004783948 6:0.46292442 7:-0.095778115 8:1.3189527 9:0.15512143 10:0.90323925 11:0.42445698 12:0.3476294 13:0.93948257 14:-0.090788305 15:0.17748851 16:0.7593478 #
4.2775930497583800615757354535162 1:0.59583223 2:0.49735302 3:0.63406557 4:-0.27360201 5:0.34723657 6:0.68217015 7:-0.17967194 8:0.28020024 9:0.15073189 10:0.76805681 11:0.29424098 12:0.96301228 13:0.61043698 14:0.69528693 15:0.56720746 16:0.14848305 #
-3.2817341282045062733629947615555 1:1.0644382 2:0.48800462 3:1.0456682 4:1.2032828 5:0.68143117 6:0.025102828 7:0.091434546 8:-0.19765255 9:0.10525637 10:-0.00069199904 11:0.18581279 12:0.57733577 13:0.58310813 14:0.5766958 15:0.17368697 16:0.63618773 #
-5.2035455251329745252064640226308 1:1.0088906 2:0.079401232 3:0.74347544 4:0.86159325 5:0.73556125 6:0.20618019 7:0.95259815 8:1.082998 9:0.25836706 10:0.18831719 11:0.35208991 12:0.47869757 13:0.72036505 14:0.71756005 15:0.43586591 16:0.73002332 #
-1.2483453769555159507120833950466 1:1.048476 2:-0.40377659 3:1.0581101 4:0.38325477 5:0.7874549 6:0.63086176 7:0.44605801 8:1.2273554 9:0.19083571 10:1.180302 11:0.11301985 12:1.2157221 13:-0.019838464 14:0.92686146 15:1.209987 16:-0.10224257 #
-3.7031216798644788212868661503308 1:1.1863604 2:1.1367502 3:0.55571771 4:1.6849166 5:-0.37119666 6:0.35839489 7:0.37418997 8:0.59187526 9:0.85498917 10:0.79588133 11:0.23134808 12:0.48185658 13:0.0070162737 14:0.086707816 15:0.74966633 16:0.047099508 #
4.4772772621918450752787066448946 1:0.14049484 2:0.67067468 3:0.030875489 4:0.10802726 5:0.85844755 6:0.10943492 7:0.065300658 8:0.69465345 9:0.27484614 10:0.14314546 11:1.1585255 12:-0.1008642 13:0.42739999 14:0.47598925 15:0.41889411 16:0.31764472 #
3.4441069370938635074708145111799 1:0.50800574 2:0.32618114 3:0.60798526 4:-0.50533879 5:0.73848295 6:1.0951284 7:0.69111317 8:0.3884576 9:0.49690577 10:0.99488723 11:-0.50055218 12:0.42201585 13:0.42842695 14:-0.011322127 15:0.086961165 16:0.4433403 #
-4.2674853371113945499359942914452 1:-0.072313853 2:1.4077598 3:1.4387395 4:-0.11994223 5:0.17593016 6:0.68519562 7:0.18240346 8:0.40545028 9:0.49360549 10:0.3133705 11:-0.05977596 12:0.16121587 13:0.32721293 14:0.99683839 15:0.52521944 16:0.79575008 #
-1.9129619508969479824145309976302 1:0.19875744 2:0.52575409 3:0.93402427 4:0.66360092 5:-0.12214225 6:0.21639165 7:0.48203549 8:0.96756506 9:0.43018806 10:-0.024315752 11:1.0058782 12:0.41687748 13:0.20157491 14:0.18087919 15:0.079843149 16:0.0735837 #
0.5683738888477909423357914420194 1:0.95249414 2:0.88597739 3:1.0322598 4:0.51119947 5:0.43254086 6:0.64400244 7:0.45727855 8:1.2880993 9:-0.20961209 10:0.80469644 11:0.19578038 12:0.50617677 13:0.54614186 14:0.80488861 15:-0.098182745 16:1.0249442 #
1.9108229758032397871403418321279 1:1.0782894 2:0.99537122 3:1.0025811 4:0.34619877 5:-0.16395733 6:0.61762536 7:0.28036681 8:0.44353652 9:0.87036848 10:1.1116499 11:0.28445679 12:0.18334948 13:0.30775577 14:0.58988506 15:1.1360986 16:-0.13227798 #
2.0241412225835233584803063422441 1:0.93116409 2:0.43300641 3:0.73324955 4:0.58162886 5:-0.15555596 6:0.32377547 7:0.17318672 8:1.1449419 9:0.67997611 10:0.17840266 11:-0.28246048 12:0.13624182 13:0.36217546 14:0.93064469 15:0.57685643 16:-0.056203198 #
5.2648829510305894530119985574856 1:1.2117645 2:0.72245944 3:0.82628703 4:1.1980786 5:1.3606089 6:0.46357358 7:0.79035926 8:0.63398725 9:0.6225487 10:1.2022078 11:-0.32376304 12:0.62392443 13:0.26258445 14:0.90464914 15:-0.02264289 16:0.099821351 #
3.0181676422910661550247368722921 1:0.15570526 2:0.65851772 3:0.87307149 4:0.61301535 5:0.043181751 6:0.033305094 7:0.016849866 8:0.2617532 9:0.71213198 10:0.78696525 11:0.057206083 12:0.94073397 13:0.76872855 14:1.0049644 15:1.0090858 16:0.49464041 #
1.1404680203162136375993895853753 1:1.2215978 2:-0.26880637 3:0.61412495 4:1.6742103 5:0.059808053 6:1.4260805 7:0.15112925 8:0.94716096 9:0.75890017 10:1.1884348 11:0.66685593 12:-0.12085887 13:0.94396448 14:0.75567865 15:0.76018262 16:0.65036356 #
0.28037922617232979849433149865945 1:0.83429289 2:2.0598493 3:-0.15190047 4:-0.8250553 5:1.0435574 6:1.3667568 7:1.3743275 8:0.13927256 9:-0.58755517 10:1.6268127 11:0.38307282 12:1.1817265 13:0.66770488 14:-0.18762507 15:0.71474117 16:0.7837761 #
0.30984437801224590236515155083907 1:1.0583893 2:0.60148925 3:0.14800419 4:0.4715144 5:1.172543 6:0.88238871 7:-0.058303855 8:0.27474761 9:0.17702414 10:1.4168854 11:0.12890975 12:1.4130826 13:1.4922324 14:0.4675059 15:1.5288365 16:0.34619588 #
2.710521984845388310247926710872 1:0.48826751 2:1.0215856 3:1.0425227 4:1.4178919 5:0.29243314 6:1.4917755 7:-0.010768916 8:0.95020741 9:1.0739238 10:-0.14254166 11:0.55895162 12:0.57292247 13:1.0260291 14:0.44070667 15:0.4323636 16:0.23628893 #
2.4976353294156741213782879640348 1:0.3208288 2:0.68182868 3:1.0504333 4:0.91517282 5:0.10494352 6:0.98569608 7:0.15961762 8:0.76684642 9:1.2742277 10:0.65883517 11:0.55879372 12:0.40861455 13:0.42364031 14:0.80008924 15:0.72380507 16:1.1551991 #
-3.7640478461492530293241998151643 1:-0.096488096 2:0.93639058 3:0.81542754 4:0.65155101 5:1.3974172 6:0.34314167 7:0.36660334 8:0.57123679 9:0.52485436 10:0.8287071 11:-0.59839767 12:0.70562249 13:1.5127058 14:0.71141398 15:0.18434946 16:-0.043814462 #
-1.4924389109653433127533617152949 1:1.013808 2:0.64671057 3:-0.01293543 4:0.23348522 5:0.82294762 6:-0.40456614 7:0.093219489 8:0.30726567 9:0.31896117 10:0.50683278 11:0.075219795 12:0.92553252 13:0.43805251 14:0.49323416 15:-0.051468521 16:0.44442424 #
-1.9393956036348609650588059594156 1:0.27584097 2:0.84306318 3:0.68644851 4:0.61099976 5:0.69102097 6:0.2005064 7:0.99580199 8:0.18191576 9:0.81986666 10:0.86898988 11:0.23284303 12:0.88000095 13:0.28339449 14:0.74379718 15:0.32998431 16:0.75728399 #
-1.6011258709872553396280636661686 1:0.7131266 2:-0.11079104 3:0.6863488 4:0.50291967 5:0.66409558 6:-0.45591244 7:0.65597481 8:0.44590759 9:0.01273297 10:0.52199876 11:0.20470369 12:0.59278417 13:0.253782 14:0.038612466 15:0.86523336 16:-0.075243935 #
1.7737226507832180022461443513748 1:0.78133523 2:0.25193086 3:1.0208188 4:0.28949675 5:0.45215595 6:-0.04546804 7:0.92678452 8:0.21554478 9:0.92329192 10:0.54774827 11:-0.0090561733 12:0.46905938 13:0.0035969215 14:0.23695561 15:0.84173244 16:0.89719987 #
-1.9223865650500926438581927868654 1:0.67132688 2:0.24203187 3:0.52142411 4:0.71216416 5:0.23785089 6:0.20848964 7:0.29656345 8:0.72674078 9:0.56157047 10:0.46665013 11:0.27812916 12:0.43695387 13:0.57211101 14:0.82895505 15:0.47277284 16:-0.063650899 #
4.25080750993807043869310291484 1:0.71429741 2:1.1936135 3:0.66732216 4:0.85395813 5:0.6873554 6:0.34185591 7:1.0385246 8:0.75712055 9:0.056114569 10:0.73923326 11:-0.30507812 12:0.62338269 13:0.55409741 14:0.74391472 15:0.99785763 16:0.64929056 #
-1.3165921136577320993410467053764 1:-0.6804629 2:0.52748591 3:0.48274499 4:0.761648 5:0.37455437 6:0.68271232 7:0.3040832 8:0.8848877 9:0.22550856 10:0.53799546 11:-0.35128537 12:1.448832 13:-0.54628628 14:0.29015401 15:0.25831935 16:0.54504794 #
-3.0737566633068769128556141367881 1:1.0046486 2:0.54767227 3:0.45574918 4:0.67516202 5:0.15142065 6:0.78451967 7:0.24477318 8:0.064404383 9:1.0399734 10:0.71731389 11:0.36494228 12:0.88160545 13:0.75876981 14:0.46421385 15:0.81407064 16:0.59790361 #
-3.6861255465321880464557580125984 1:0.66063613 2:0.17540149 3:1.2126874 4:0.63441408 5:-0.056102403 6:2.0044057 7:-0.37715846 8:0.68577605 9:0.50791007 10:0.22772183 11:-0.33249307 12:0.35738137 13:0.74749446 14:0.063137598 15:0.81833613 16:0.58836651 #
0.11844451218463290798066367415231 1:0.16466309 2:0.79522234 3:1.134057 4:0.20383243 5:0.90312856 6:-0.025737593 7:0.3180581 8:0.31466666 9:0.037660304 10:1.3853735 11:-0.47430435 12:0.12569997 13:1.5061948 14:1.0258616 15:-1.0258225 16:-0.080809683 #
6.9555091246972242657875540317036 1:0.4812718 2:0.1444156 3:0.77165788 4:0.34462738 5:0.7877683 6:0.24047785 7:0.43476009 8:0.9537071 9:0.45839241 10:0.72970343 11:-0.0039925044 12:1.12916 13:0.85651666 14:0.85409212 15:0.48370934 16:1.0957017 #
-3.8935249803769456100610568682896 1:0.72395539 2:0.83530265 3:0.58482313 4:1.1255445 5:0.45191479 6:0.32905003 7:0.80607653 8:0.56402725 9:-0.27411345 10:0.29513472 11:0.77957243 12:0.75856256 13:0.13262679 14:-0.061614808 15:0.49121776 16:0.19062966 #
2.386759468244701309913580189459 1:0.37086633 2:0.77756375 3:0.094588503 4:1.1174051 5:0.87165636 6:0.14788741 7:-0.17168908 8:0.30086631 9:0.63428593 10:1.0519569 11:-0.079398349 12:1.0016236 13:0.33288071 14:1.0938058 15:0.79533595 16:0.052911956 #
9.9958978646711393878376838983968 1:0.81533533 2:0.58988786 3:0.39923671 4:0.34172243 5:0.36829719 6:0.58148801 7:0.47238556 8:0.45730951 9:0.78839368 10:0.52404809 11:0.079674967 12:0.97782421 13:0.68258578 14:0.80424654 15:0.27540681 16:0.54184103 #
-0.067028769317206471356485053547658 1:0.77883393 2:1.0232574 3:0.86921 4:0.40139297 5:1.0037202 6:0.5696243 7:0.34286642 8:0.69687724 9:1.8620744 10:0.72218621 11:0.2691133 12:0.63644171 13:0.26689222 14:0.78529322 15:0.97427756 16:-0.3341732 #
-10.214987118450425285232086025644 1:0.27337411 2:0.23113966 3:1.0162702 4:-0.5454064 5:-0.54810995 6:0.32988939 7:0.66709328 8:0.13003147 9:0.54243863 10:0.11468939 11:0.3140288 12:0.79750764 13:0.90894043 14:0.67926216 15:0.55391502 16:0.61091828 #
-1.4678246610917571324250729958294 1:0.67079079 2:0.67383116 3:1.0400771 4:0.29635614 5:0.56949037 6:0.52531415 7:0.40550715 8:0.29437593 9:0.5178898 10:0.5936656 11:0.15053144 12:0.37671724 13:0.71403116 14:-0.24053881 15:0.14885277 16:1.0192424 #
5.1527170160537556498070443922188 1:1.069769 2:0.32697326 3:1.134573 4:0.73970467 5:-0.21529856 6:0.33603117 7:0.40847108 8:0.48392025 9:0.63895702 10:0.10933868 11:0.92236125 12:1.1062878 13:-0.51604801 14:0.54621422 15:0.62820846 16:0.68125731 #
0.0057369825451150718506609926805595 1:0.61613995 2:0.60176957 3:1.1041021 4:0.16410387 5:0.046606872 6:-0.41195017 7:-0.22065811 8:0.20571116 9:0.27516207 10:1.2496059 11:-0.23094739 12:-0.076582097 13:0.34620982 14:-0.42524317 15:0.90492326 16:0.51677424 #
-0.27963871199437162484713326193742 1:0.69868499 2:0.14756125 3:1.1275575 4:0.081795737 5:0.04456133 6:0.78381908 7:0.32608962 8:-0.19881064 9:0.051160861 10:1.2658811 11:0.68819177 12:1.065621 13:1.1168784 14:0.79313087 15:-0.87148064 16:0.089184947 #
3.053101648613927299180659247213 1:-0.20695195 2:-0.17136042 3:1.249869 4:-0.70204842 5:1.0149376 6:0.5238111 7:0.068702042 8:0.30272135 9:0.50643814 10:0.4558759 11:0.23725557 12:1.1483002 13:0.53721315 14:0.44678333 15:0.83136934 16:0.55367082 #
-2.3744023469096027234570556174731 1:0.39536175 2:0.0061837188 3:-0.19137813 4:0.60295695 5:0.4209528 6:1.1590996 7:0.62130296 8:0.69123292 9:0.1148717 10:0.91489601 11:-0.26302779 12:0.89727873 13:-0.16914293 14:0.5511331 15:0.93822104 16:0.51019061 #
0.48393509175920429443706893835042 1:0.76036078 2:0.6453411 3:-0.27461118 4:0.68722796 5:0.55029488 6:0.81601638 7:0.52016824 8:0.71592909 9:0.36386722 10:0.75880444 11:0.47645876 12:0.68782359 13:0.78367299 14:-0.26815394 15:0.3830941 16:0.5249511 #
3.7953967882138099909639095130842 1:0.76273012 2:0.50972474 3:0.41041312 4:0.81820834 5:0.71590441 6:0.82319146 7:0.88714498 8:0.93967819 9:0.7723695 10:0.73551488 11:-0.30104142 12:1.2533467 13:0.54770559 14:0.38035384 15:0.68528557 16:-0.15507692 #
-0.79282367580443224852615458075888 1:0.25339916 2:0.068989836 3:0.73028064 4:1.2928033 5:-0.02000829 6:-0.081816085 7:0.86443681 8:0.062076777 9:0.75262725 10:0.34682181 11:0.36296088 12:0.75906301 13:-0.2048832 14:0.85584503 15:0.63708609 16:0.86035568 #
1.7588710273400189887382794040604 1:0.67155242 2:1.1310614 3:0.20106894 4:0.08868707 5:0.65044606 6:-0.21945335 7:0.23378658 8:0.86778539 9:0.29905087 10:0.93544871 11:0.3500734 12:0.86711812 13:0.7442162 14:0.50553405 15:1.1526967 16:0.28553697 #
2.4043026009170960222149915352929 1:0.92366731 2:0.95164347 3:1.1805785 4:0.74708498 5:-0.70423383 6:0.17900112 7:0.82117194 8:0.40480164 9:0.52502757 10:-0.039860308 11:0.44965845 12:0.44218573 13:1.24929 14:0.64450914 15:0.55272305 16:1.2650306 #
-5.8019137677934544683466810965911 1:1.0654384 2:1.0371091 3:0.20254579 4:0.95930356 5:0.025213992 6:0.16056019 7:0.13174269 8:0.36037511 9:0.17714684 10:0.55777889 11:0.029922746 12:0.87291253 13:0.22075753 14:0.62609506 15:0.14566633 16:0.41287425 #
