SVM-light Version V6.20
2 # kernel type
3 # kernel parameter -d 
1.5 # kernel parameter -g 
1 # kernel parameter -s 
1 # kernel parameter -r 
empty# kernel parameter -u 
10 # highest feature index 
22 # number of training documents 
1001 # number of support vectors plus 1 
0 # threshold b, each following line is a SV (starting with alpha*y)
-1.5835570187296823529976563804667 1:1.0259311 2:0.74799585 3:0.34779853 4:0.84517771 5:0.019830415 6:0.51090372 7:0.54945439 8:0.48146006 9:0.50372982 10:0.49402702 #
-1.216844412496991933991807854909 1:0.39016634 2:0.47053245 3:0.51936215 4:0.43696672 5:0.56548154 6:0.50531512 7:0.48209763 8:0.5015918 9:0.50115776 10:0.50202096 #
-2.6717718911925452118794055422768 1:0.51177174 2:0.90346676 3:0.6176911 4:0.50913531 5:0.20582075 6:0.61331242 7:0.46667716 8:0.46681958 9:0.51068991 10:0.490358 #
1.0238442672940162303518718545092 1:1.1633716 2:0.48222798 3:0.77525377 4:0.22710676 5:0.70538384 6:0.60726637 7:0.45704621 8:0.49132961 9:0.50211406 10:0.48033175 #
-0.58538840368351419130021895398386 1:0.8418709 2:0.075096123 3:0.20960519 4:0.56923413 5:0.78577894 6:0.35354283 7:0.53825772 8:0.54645705 9:0.50144899 10:0.52865976 #
1.1301786437298548815277854373562 1:0.13166507 2:0.59347534 3:0.22110161 4:0.90947342 5:0.013664193 6:0.41439921 7:0.55523491 8:0.50139177 9:0.49963021 10:0.5100221 #
1.1708721218594078106178812959115 1:0.91620159 2:1.0263876 3:0.12251595 4:0.36019933 5:0.9009819 6:0.34316134 7:0.53098643 8:0.53921932 9:0.506221 10:0.538899 #
-0.64892862290238095823724506772123 1:0.14458725 2:0.78982472 3:0.1206944 4:0.38894784 5:0.64101273 6:0.37920925 7:0.46840414 8:0.55286127 9:0.52886581 10:0.56505597 #
-2.7566880045016062261709066660842 1:0.78129137 2:0.5026195 3:0.27548063 4:0.78299826 5:0.48068228 6:0.46057564 7:0.59626186 8:0.55948293 9:0.079082392 10:0.18114235 #
-0.87220347852593260729037183409673 1:0.85575283 2:0.0017789034 3:0.84739393 4:0.6806972 5:0.1535546 6:0.6331653 7:0.51927608 8:0.46585017 9:0.49084848 10:0.47418272 #
-0.036771363766554578111911411042456 1:0.84108627 2:0.94051284 3:0.11232962 4:0.29939345 5:0.10784207 6:0.35979107 7:0.19831483 8:0.59094989 9:0.38271886 10:0.32906136 #
-1.0182985585032362507718062261119 1:0.93552631 2:0.76810884 3:0.8316763 4:0.12445612 5:0.30633083 6:0.64449978 7:0.29852501 8:0.53901482 9:0.35002267 10:0.31747183 #
-2.482352572604031415437475516228 1:0.72638947 2:0.4764308 3:0.29282513 4:0.55651242 5:0.32690892 6:0.40653622 7:0.44103685 8:0.4358415 9:0.94878912 10:0.83801997 #
-0.41453107492793872523861864465289 1:0.8887518 2:0.2578482 3:0.72609133 4:0.44694322 5:0.14539871 6:-0.064263627 7:0.12571687 8:0.56385452 9:0.58507764 10:0.50275654 #
-0.0087338955038521910723137153809148 1:0.66512847 2:0.54114085 3:0.17532849 4:0.73836911 5:0.31928155 6:1.0572015 7:0.85024542 8:0.451024 9:0.5039053 10:0.55636853 #
1.6424215935721291348414752064855 1:0.15522386 2:0.80901486 3:0.38103729 4:0.55092901 5:-0.13920245 6:0.19268993 7:0.1371188 8:0.43317893 9:0.74226785 10:0.68829691 #
-0.22014722216372620278157512530015 1:0.49584892 2:0.16098401 3:0.22089358 4:0.74859768 5:0.22023441 6:0.21499954 7:0.31079125 8:0.5326916 9:0.37152702 10:0.44579935 #
-0.054289210274865516703268752962686 1:0.99615979 2:0.94170153 3:0.37439916 4:0.70758134 5:0.37032604 6:1.0385318 7:0.15269575 8:0.30612549 9:0.33387446 10:0.58822578 #
-0.77859224706522334180647249013418 1:0.56113362 2:0.42617553 3:0.45184883 4:0.71726209 5:0.77140647 6:0.86757416 7:0.13930601 8:0.33265549 9:0.28576195 10:0.6640144 #
2.398660506047390672534902478219 1:0.33829305 2:0.51150006 3:0.8000524 4:0.76228172 5:-0.030769328 6:0.96171492 7:0.93338555 8:0.50240862 9:0.63388038 10:0.61364335 #
1.5070123705048195095201890580938 1:1.038372 2:-0.13638328 3:0.63862008 4:0.493689 5:0.53935766 6:0.42190343 7:0.038037572 8:0.38267702 9:0.31647643 10:0.59283817 #
-0.82639436413659927982422459535883 1:0.82482624 2:0.79078877 3:0.47390911 4:0.44072151 5:0.59536272 6:0.34713635 7:1.1002022 8:0.6454125 9:0.60904342 10:0.31129023 #
2.8367873017975502314413915883051 1:1.0516351 2:-0.028291512 3:0.77443862 4:0.20736048 5:0.37213582 6:0.42249173 7:0.76336026 8:0.64349586 9:0.88722765 10:0.46088457 #
-1.9062154060852620762744891180773 1:0.82051408 2:0.62629741 3:0.67629778 4:0.9209106 5:1.0027028 6:0.379302 7:0.7091611 8:0.3607516 9:0.55561858 10:0.66527247 #
-1.6819441816776141696010427040164 1:0.59784269 2:0.66163492 3:0.86849886 4:0.64928859 5:0.29898512 6:0.081439562 7:0.76008391 8:0.4984158 9:0.69371009 10:0.68080735 #
1.3306861018954163622396436039708 1:0.32799333 2:0.3504914 3:0.67352086 4:0.6612829 5:1.2508845 6:0.79628229 7:0.53739679 8:0.80093169 9:0.35710418 10:0.36950904 #
1.6797492325806155921696927180164 1:1.0701913 2:1.0492133 3:0.47899956 4:0.39103758 5:0.43460697 6:0.59914953 7:0.59427583 8:0.21387364 9:0.80353081 10:0.93654835 #
0.35692876475746421194301660761994 1:0.86898506 2:0.11811607 3:0.68469 4:0.5321207 5:0.69912481 6:0.61216635 7:0.89622819 8:0.030440778 9:0.14982371 10:0.29366252 #
1.3721001359493483207074859819841 1:1.0912118 2:0.63251054 3:0.32213381 4:0.3091433 5:0.6294058 6:0.7885254 7:0.11649758 8:0.70414609 9:0.95900732 10:0.49490082 #
5.6626400425734884080952724616509 1:0.33393812 2:0.5040738 3:0.58844548 4:0.51190543 5:0.98089278 6:-0.021534381 7:0.88831776 8:0.4842273 9:0.20012537 10:0.45161915 #
1.3289150698669043304533943228307 1:0.9581784 2:0.024870222 3:0.53885663 4:0.39598888 5:0.56377745 6:0.78635991 7:0.5884614 8:0.15129845 9:0.65106082 10:0.9808405 #
-1.0465187426839295259384243763634 1:0.69857031 2:0.60940385 3:0.20362622 4:0.69004017 5:0.51873314 6:0.13493684 7:0.50933701 8:0.097502075 9:0.15456498 10:0.78575182 #
0.07371368821423363026923425422865 1:0.78824484 2:0.59660035 3:0.34659749 4:0.56746835 5:0.12880281 6:0.13222864 7:0.70621562 8:0.022560513 9:0.55205756 10:0.19741531 #
-0.20482848723855748285238576045231 1:0.94239122 2:0.23642622 3:0.70116794 4:0.5873397 5:0.96391237 6:0.61422455 7:0.53940302 8:0.91180372 9:0.89837825 10:0.13822055 #
1.4870369649266501621553970835521 1:0.56682998 2:0.47699833 3:0.52490032 4:0.68178195 5:-0.12338714 6:0.23445392 7:0.61944324 8:0.44196486 9:0.053414468 10:0.87452757 #
0.49290795876722304225125981247402 1:0.92058873 2:0.72867793 3:0.33444962 4:0.5042848 5:0.62159485 6:0.58126473 7:0.2551221 8:0.062334467 9:0.43712801 10:0.10406709 #
0.8434992855600581540542748371081 1:1.1355233 2:0.0028347808 3:0.57421321 4:0.59266126 5:0.73839688 6:0.1158208 7:0.6694597 8:0.090333223 9:0.81791949 10:0.9612366 #
-1.8194103530889245146084931548103 1:0.63756782 2:0.72230518 3:0.9329111 4:0.15600342 5:0.22029282 6:0.64142859 7:0.64516073 8:0.31638217 9:0.70604414 10:0.62532705 #
-1.9774754838410399937487227361999 1:0.55945528 2:0.39708412 3:0.40691647 4:0.97855473 5:0.40330142 6:0.45453659 7:0.80310261 8:0.97228581 9:0.65986252 10:0.38031721 #
1.2037361079425741294812723936047 1:1.1020958 2:0.70040703 3:0.24925639 4:0.28526229 5:0.44113532 6:0.69793528 7:0.75018209 8:0.86025745 9:0.084440015 10:0.79557717 #
-0.21967108313365910077230580554897 1:0.69489789 2:0.33416072 3:0.94467121 4:0.37910935 5:0.66748101 6:0.27917758 7:0.61916375 8:0.8176204 9:0.0091957692 10:0.34992233 #
1.5361892283261382452508314599982 1:0.49947217 2:0.54736274 3:0.56029177 4:0.78497219 5:-0.036726456 6:0.5655002 7:0.14226311 8:0.96713412 9:0.34643656 10:0.14352079 #
0.23734047546002268180842520450824 1:0.39934385 2:0.21396288 3:0.42973101 4:0.86921304 5:1.166907 6:0.35487908 7:0.82614565 8:0.94576985 9:1.0009263 10:0.42153087 #
0.098189275066078662845825419935863 1:0.81578702 2:0.84661949 3:0.57648969 4:0.69655776 5:0.18474807 6:0.77351195 7:0.6173107 8:0.76605666 9:1.0374564 10:0.26413426 #
1.0195209940064420273131418070989 1:0.99843609 2:0.91557717 3:0.48580784 4:0.78395545 5:0.90062088 6:0.45003673 7:0.31394091 8:0.99015707 9:0.26150367 10:0.51116455 #
-1.355347174215387084927897376474 1:0.71433169 2:0.39948446 3:0.14468689 4:-0.027204197 5:0.72550851 6:0.43751228 7:0.54697436 8:0.42208064 9:0.079738066 10:0.61852592 #
-2.3491589889365922516617501969449 1:0.01616884 2:0.2680206 3:0.70965582 4:0.97117257 5:0.46078962 6:0.36800846 7:0.78801924 8:0.52275032 9:0.23579277 10:0.48698425 #
-1.7064710247027963241350789758144 1:0.45291334 2:0.63878965 3:0.04631545 4:0.99056381 5:0.57969177 6:0.27904272 7:0.58110666 8:0.34893692 9:0.78110528 10:0.089160584 #
0.33014913795447847766340032649168 1:0.73387504 2:0.97538751 3:0.2237104 4:0.66651601 5:0.078906171 6:0.27448773 7:0.7661081 8:0.88129979 9:0.606139 10:-0.061302669 #
-0.5986975869780151171539728238713 1:0.58272523 2:0.14642693 3:0.38448822 4:0.47559047 5:0.059063919 6:0.69832253 7:0.67974681 8:1.0086919 9:0.31832382 10:0.62230974 #
-2.8028960010069363661955321731512 1:0.69403136 2:0.46150288 3:0.6053459 4:0.69861299 5:0.47224647 6:0.58494705 7:0.79992807 8:0.67394018 9:0.35703194 10:1.0352349 #
1.8390575092185725836202436767053 1:1.2002296 2:0.057426427 3:0.61807185 4:0.923522 5:0.53843445 6:0.43848196 7:0.40235341 8:0.94159442 9:0.56676739 10:0.65800869 #
0.24471627489241581931977975727932 1:1.0265651 2:0.28195208 3:0.58107185 4:0.23487981 5:0.13603339 6:0.67556971 7:0.85130548 8:0.51995349 9:0.1856607 10:0.069606707 #
0.46702838768087090448588583058154 1:0.096167713 2:0.61593175 3:0.20605588 4:0.68564034 5:0.018131878 6:1.0183175 7:0.51571041 8:0.64020836 9:0.41764984 10:0.086166598 #
0.34046280750837526474228411643708 1:0.83205986 2:-0.091506191 3:0.82847154 4:0.11304534 5:0.85199636 6:0.22947612 7:0.67679209 8:0.51589125 9:0.37522098 10:0.70216292 #
-0.042426300182744437761162004107973 1:1.0675135 2:0.62089461 3:0.37245816 4:0.099417679 5:0.83136755 6:0.83038306 7:0.091207847 8:0.75017732 9:-0.054932781 10:0.16750012 #
-0.88904771177794339465094708430115 1:0.59304702 2:0.53875637 3:0.27646187 4:0.69334865 5:0.51950294 6:0.27060482 7:0.0018615887 8:0.96782768 9:0.5292573 10:0.84576619 #
-1.9836900153362317933414260551217 1:0.67572761 2:0.34561858 3:0.097266868 4:0.32823473 5:0.15415183 6:0.85643053 7:0.26147759 8:0.47032368 9:0.72813714 10:0.19372931 #
0.66430987062677981924707637517713 1:0.86802441 2:0.0091638267 3:0.53883708 4:0.4905476 5:0.64528143 6:0.85067081 7:0.53395784 8:0.16037609 9:0.85248381 10:0.032911126 #
1.5032111364180771317933249520138 1:1.1573726 2:0.98960096 3:0.5359925 4:0.54982817 5:0.46932539 6:0.41635776 7:0.32701752 8:0.23155354 9:-0.080970258 10:0.6502651 #
-1.4303027576401865506028343588696 1:0.62766129 2:0.59375507 3:0.90734249 4:0.9394902 5:0.45989469 6:0.52590674 7:0.095284291 8:0.20579579 9:0.80058599 10:0.45395163 #
1.1910583225530020357041394163389 1:1.0668669 2:0.0039434209 3:0.61192435 4:-0.032291736 5:0.53641862 6:0.56212789 7:0.28482988 8:0.9469794 9:0.34396565 10:0.37616962 #
-1.437102511510696345453652611468 1:0.73452312 2:0.68895614 3:0.7820822 4:0.25686416 5:0.92489636 6:0.040614422 7:0.10877285 8:0.30923179 9:0.3679359 10:0.54040104 #
2.3309513900346612302882931544445 1:0.04813423 2:0.4138914 3:0.4981823 4:0.89763123 5:1.2814412 6:0.68240941 7:0.33956262 8:0.39668971 9:0.4828383 10:0.72492158 #
0.76274287443190991186980909333215 1:1.0551118 2:0.18235466 3:0.87093562 4:0.77278268 5:0.75869066 6:0.054979097 7:0.55750531 8:0.49000901 9:0.73176432 10:0.0037972142 #
1.5130778074183277581710171943996 1:0.58205509 2:0.28371713 3:0.42456681 4:0.94678938 5:-0.086327992 6:0.88992399 7:0.4715735 8:0.098471791 9:0.2164996 10:0.23234831 #
1.5340917952622341591251142745023 1:0.31031623 2:0.74765861 3:0.25834084 4:0.57062083 5:0.13548492 6:-0.10405491 7:0.66956484 8:0.73577619 9:0.34964889 10:0.34626648 #
-0.93641562730385152768519674282288 1:0.81045866 2:0.91260898 3:0.90977556 4:0.74896872 5:0.5226683 6:0.32334465 7:0.73344636 8:0.21547119 9:0.11370295 10:0.1865755 #
1.2845206060002543058118362750974 1:0.30753979 2:0.66209656 3:0.74229807 4:0.84452868 5:-0.109561 6:0.23015599 7:0.37015623 8:0.23252812 9:0.27491137 10:0.049468577 #
-1.0318150854864234222674213015125 1:0.26892939 2:0.13792269 3:0.63963312 4:0.88543934 5:0.59124637 6:0.69961917 7:0.59952939 8:0.29054755 9:0.98067397 10:0.86190236 #
0.96209776248413991783792198475567 1:0.36299941 2:0.28727666 3:0.44361642 4:0.82070577 5:-0.12384263 6:0.30774206 7:0.54117429 8:0.27709469 9:1.1116312 10:0.29306793 #
1.1605950842911212372854379282217 1:0.22052675 2:0.45522791 3:0.10866346 4:0.73352367 5:-0.29944438 6:0.24959093 7:0.16147846 8:0.41312838 9:0.32738867 10:0.18153547 #
-0.02096401928791321450651352620298 1:0.81815106 2:1.066504 3:0.76032966 4:0.85167605 5:0.078944974 6:0.38116825 7:0.34899193 8:0.97000152 9:0.2588962 10:0.6334812 #
-1.5618685674501506799316530305077 1:0.65828419 2:0.59955883 3:0.85851252 4:0.83848768 5:0.51453561 6:0.61282992 7:0.010913447 8:0.5235225 9:0.09607929 10:0.20351234 #
-1.0559228976117729370542974720593 1:0.65049112 2:0.80693871 3:0.61916953 4:0.15449901 5:0.42166463 6:0.15235095 7:0.85433555 8:0.64340675 9:0.076463141 10:0.7614668 #
0.60629488984765189663050932722399 1:0.11476285 2:0.33351681 3:0.23910955 4:0.76005745 5:0.023040004 6:0.91811723 7:0.49388796 8:0.49439493 9:0.23967862 10:0.93391371 #
0.47704067091232638109232766510104 1:0.91741645 2:0.75049204 3:0.15370275 4:0.2444192 5:0.18427096 6:0.022185441 7:0.72251415 8:0.73401827 9:0.75119543 10:0.9253183 #
-0.76712605728632654589205230877269 1:0.36639735 2:0.37158716 3:0.39018092 4:0.35535118 5:0.13396713 6:0.72622216 7:0.14566995 8:-0.014923932 9:0.26866153 10:0.62846035 #
0.097121020959285764284629749454325 1:0.87661922 2:1.0307988 3:0.34602174 4:0.86874229 5:0.81649697 6:0.96553385 7:0.77792972 8:0.37132585 9:0.49097058 10:0.19180785 #
1.8746500263797574170610005239723 1:1.102949 2:0.94772458 3:0.36631408 4:0.65697408 5:0.62144583 6:0.061250705 7:-0.014110222 8:0.44695255 9:0.72085232 10:0.580634 #
0.2244538007201502816112537175286 1:1.1129038 2:0.087127715 3:0.59527051 4:1.0499473 5:0.84761846 6:0.83575463 7:0.52835184 8:0.5939858 9:0.34913468 10:0.10617431 #
0.71985866074760695987322378641693 1:0.63553888 2:0.83892924 3:0.28572711 4:0.67584026 5:-0.020990497 6:0.84751779 7:0.60382885 8:0.99333388 9:0.82523221 10:0.95992768 #
1.4235998189818186432376023731194 1:1.0419044 2:1.0442941 3:0.28110287 4:-0.090554282 5:0.32207057 6:0.6733883 7:0.74440098 8:0.37274528 9:0.64050001 10:0.26520139 #
-1.1812265257826812803187976896879 1:0.5799979 2:0.17448382 3:0.60621643 4:0.89792806 5:0.67841041 6:0.12800705 7:0.26538214 8:0.14617071 9:0.41557443 10:0.3455539 #
0.26774087831274162585515341561404 1:1.0673265 2:0.17571464 3:1.1420463 4:0.55278611 5:0.27605176 6:0.55589342 7:0.82473123 8:0.65609783 9:0.1884947 10:0.87993854 #
2.7357287063432211837721297342796 1:0.17341524 2:0.66820037 3:0.38241065 4:0.62996143 5:1.0972204 6:-0.0089144781 7:1.0502509 8:0.40694362 9:0.87025219 10:0.32696649 #
-0.97237929846286497159724149241811 1:0.29107523 2:0.72302389 3:0.46823251 4:0.74649119 5:0.44529721 6:0.57782573 7:1.0634573 8:-0.010265238 9:0.43096268 10:0.53538632 #
-1.2625459459579089216418879004777 1:0.55456764 2:0.56081879 3:0.5171575 4:0.17014998 5:0.74089563 6:1.0165787 7:0.85448128 8:0.79275477 9:0.64957219 10:0.3044171 #
0.11572539042723430091630376637113 1:0.80803341 2:0.26516822 3:0.68131542 4:0.79782325 5:0.027137129 6:0.75262564 7:0.29039648 8:-0.024936035 9:0.98162937 10:0.61212373 #
-0.88698472390703031464909145142883 1:0.6852138 2:0.36491147 3:0.33747321 4:-0.034771618 5:0.66338164 6:0.087719001 7:0.67510796 8:0.24195766 9:0.86191022 10:0.28232253 #
-0.83990034904065136167616856255336 1:0.065537229 2:1.0625627 3:0.56151032 4:0.99591601 5:0.55743837 6:0.63702625 7:0.62762141 8:0.85352629 9:0.70832628 10:0.59619021 #
-0.52903878281776117731283193279523 1:0.45270625 2:0.22455162 3:0.8354038 4:0.69286883 5:0.34691498 6:0.3281526 7:1.0142742 8:0.41765207 9:0.97691792 10:0.13127278 #
-0.45141500319933380858117288880749 1:0.73367518 2:0.38382864 3:0.93139488 4:0.29789409 5:0.43856728 6:0.61621302 7:0.23076925 8:0.91890299 9:0.68448621 10:0.87828928 #
-0.78757794216240073481571926095057 1:0.79374915 2:0.66229099 3:0.40339252 4:0.33007178 5:0.69799322 6:1.0513324 7:0.88990211 8:0.057053111 9:0.30249918 10:0.30206612 #
-0.72786397770523936223696637171088 1:0.62920648 2:0.29799938 3:0.43082088 4:0.1360075 5:0.34791622 6:0.36848414 7:0.99559408 8:0.81065702 9:0.93227381 10:0.77172011 #
1.1646073533417804490852631715825 1:1.2263552 2:-0.054967508 3:0.36404973 4:0.14492795 5:0.52241278 6:0.21061052 7:0.51828277 8:0.17367423 9:0.27231634 10:0.18865633 #
0.45007914569143753213964487258636 1:1.1260413 2:1.2649511 3:0.45744923 4:0.0015907293 5:0.67768401 6:0.60325289 7:0.42677602 8:0.5987314 9:0.20087409 10:0.58117133 #
-0.5135323568410578021214973887254 1:0.76856846 2:0.18192625 3:0.37208864 4:0.68460292 5:0.50368398 6:0.96969247 7:0.1600555 8:0.89681667 9:0.083831929 10:0.54883081 #
0.49539375675293190193215764338674 1:0.76300925 2:0.68942666 3:0.26979831 4:0.5385468 5:0.97864521 6:0.24688067 7:0.83646554 8:0.86199069 9:0.57594615 10:1.0403621 #
0.021437190308390009774175410939279 1:0.74180937 2:1.0533839 3:0.40020335 4:0.54126149 5:0.22792655 6:0.0324791 7:0.44895169 8:-0.10516229 9:0.68877542 10:0.5462352 #
1.1547153848890212568534252568497 1:0.24482246 2:0.071132965 3:0.28916851 4:0.62602395 5:0.94335389 6:0.16027999 7:1.1124147 8:0.89493966 9:0.26325971 10:0.7369467 #
-0.91344009743055976091596903643222 1:0.529293 2:0.29005685 3:0.47668594 4:0.14543793 5:0.23192121 6:0.18135233 7:0.48064473 8:0.71224648 9:0.43500242 10:-0.11817781 #
0.33145911855697929304653825965943 1:1.069325 2:0.56122011 3:0.058876697 4:0.83618873 5:0.8178584 6:0.30228248 7:0.14276534 8:0.68602341 9:0.42622769 10:-0.025926694 #
-0.77861091471261401064651863634936 1:0.91134006 2:0.55137914 3:0.87205398 4:0.72445703 5:0.66586602 6:0.9686594 7:0.75913948 8:0.34389308 9:0.89028686 10:0.65839183 #
0.72377720912165977029673058495973 1:1.1343777 2:-0.026204281 3:0.47384608 4:0.078004241 5:0.61843354 6:1.051926 7:0.8153249 8:0.64364731 9:0.35239008 10:0.68453604 #
-0.18458937978356107501021199368552 1:0.79557753 2:-0.049447719 3:0.19863212 4:0.55460817 5:0.056789696 6:0.53071207 7:0.88015389 8:0.11270156 9:0.46791503 10:0.47095621 #
0.63937408424664698980421917440253 1:0.61366689 2:0.4093715 3:0.4059419 4:0.9806295 5:-0.23615471 6:0.55180126 7:0.13386708 8:0.77959859 9:0.5785861 10:0.96170408 #
0.71877609567312916727388483195682 1:1.0364788 2:0.83446115 3:0.078026965 4:0.99357706 5:0.95154721 6:0.792647 7:0.37401748 8:0.57978207 9:0.50720614 10:0.91657835 #
-0.87594435246624868796061491593719 1:0.92998862 2:0.48425984 3:0.39571938 4:0.15647319 5:-0.15116102 6:0.72378546 7:0.31974441 8:0.69380504 9:0.42967534 10:0.83078456 #
-1.6625490745676672066366563740303 1:0.33811706 2:0.80024397 3:0.12981467 4:1.1652818 5:0.58745885 6:0.15558511 7:0.56265402 8:0.60376132 9:0.30325198 10:0.80800378 #
1.2216845636648940853774547576904 1:1.0849787 2:0.59568059 3:0.3261562 4:0.10597321 5:0.58078939 6:0.14474988 7:0.15440857 8:0.80948502 9:0.25451991 10:0.92196554 #
-0.92620670811390837240395512708346 1:0.67140162 2:0.89305609 3:0.67627054 4:0.62839687 5:0.56475085 6:0.12646152 7:0.21684463 8:0.77528888 9:0.76435602 10:0.091473609 #
0.34406202305757721537915472254099 1:1.0129864 2:-0.0023797448 3:0.017037714 4:0.71286577 5:0.30986348 6:0.09060508 7:0.80396795 8:0.72459811 9:0.51709342 10:0.079892822 #
-0.55966309747126030682551345307729 1:0.80377251 2:0.24259195 3:0.49642411 4:0.22545026 5:0.19590032 6:0.023940627 7:0.99290264 8:0.22659545 9:0.30759135 10:0.63647497 #
1.5933590070794974025147894280963 1:0.30809712 2:0.83151627 3:0.13057265 4:0.62233788 5:-0.14747445 6:0.58495659 7:0.92446268 8:0.59752971 9:0.30623528 10:0.70661962 #
2.0263544680230234362738883646671 1:0.23544407 2:0.69548655 3:0.48965436 4:0.97994703 5:1.1462158 6:1.0773153 7:0.38726342 8:0.58134007 9:0.73986274 10:0.29381734 #
-0.57467574264899867753086937227636 1:0.4396067 2:0.84800148 3:-0.057968967 4:-0.094420001 5:0.032431927 6:0.3630611 7:0.81775743 8:0.47569335 9:0.46375048 10:0.37913686 #
-1.0169042670326555732884798999294 1:0.87782496 2:0.73823261 3:0.90694022 4:0.3408049 5:0.92884731 6:0.87279338 7:0.6154269 8:0.86101657 9:0.26194218 10:0.56180257 #
0.51398996181522416115683427051408 1:1.1836432 2:0.97705787 3:0.20402746 4:0.73486477 5:0.83316231 6:0.12980558 7:0.72700989 8:0.12234877 9:0.27672562 10:0.20499095 #
-1.0151193997653165101979766404838 1:0.50066692 2:0.1338713 3:0.57332098 4:0.81611151 5:0.36622849 6:0.82673985 7:-0.033945508 8:0.71403414 9:0.90398949 10:0.36615801 #
1.1051303699018750759108797865338 1:0.2618331 2:0.48400193 3:0.062385142 4:0.8503207 5:-0.063820362 6:0.95790315 7:0.45369557 8:0.15473333 9:0.94056708 10:0.62583196 #
-0.27722918577808453033384239461157 1:0.80320817 2:0.95713097 3:0.69683796 4:0.91713274 5:0.75662971 6:0.90151197 7:0.89382499 8:0.52535915 9:0.066561885 10:0.84422511 #
-0.57372501784279639203134593117284 1:1.0269146 2:0.42598107 3:0.62552398 4:0.81944489 5:0.43978858 6:-0.041235112 7:0.53893685 8:0.79233348 9:0.21312484 10:0.47913915 #
1.3962434711390185881896286446135 1:0.67784125 2:0.73370403 3:0.87834954 4:1.0211843 5:0.049282812 6:0.90852201 7:0.86395395 8:0.70132864 9:0.10545348 10:0.176405 #
1.2833155934673268205870044766925 1:0.21465699 2:0.91900277 3:0.24438618 4:0.53190011 5:-0.055644184 6:0.36050737 7:0.84924048 8:0.17469996 9:0.85560441 10:0.15621312 #
-0.61000636797292062674102908204077 1:-0.060746022 2:0.96880931 3:0.49157718 4:0.832371 5:0.39434895 6:0.38948652 7:0.66047871 8:0.33712387 9:0.13545474 10:0.047490839 #
-1.0050790145674814990428558303392 1:-0.32049894 2:0.52164555 3:0.09629216 4:1.038717 5:0.35582069 6:0.27767041 7:0.55339742 8:0.38076827 9:0.78131896 10:0.65377414 #
1.031305148769393831287288776366 1:1.1027648 2:-0.14621812 3:1.0704281 4:0.66489041 5:0.73015136 6:0.74773902 7:0.17056514 8:0.44887999 9:0.91297543 10:0.29295719 #
0.96277517410373514294974484073464 1:0.17759621 2:0.5289309 3:0.47534782 4:0.81783193 5:-0.018517563 6:0.13959923 7:0.55225664 8:1.0148109 9:0.92572123 10:0.82608646 #
1.1461286132996693076790961640654 1:0.37433469 2:0.023391619 3:0.2245567 4:0.99876261 5:0.0012408256 6:1.0642407 7:0.99450147 8:0.84921473 9:0.56931657 10:0.25046659 #
1.1290474416403868396230336657027 1:1.2077601 2:1.1027828 3:0.42012438 4:0.70357257 5:0.75318396 6:0.53082108 7:0.75744289 8:0.91017288 9:0.93047011 10:0.44023538 #
0.5074202088092680806852285968489 1:0.75550032 2:0.50295985 3:0.66035986 4:0.82427669 5:-0.055248968 6:0.67767435 7:0.82757574 8:-0.016865354 9:0.5679118 10:1.009199 #
-0.44832231055008087139412964461371 1:0.14764021 2:-0.030935083 3:0.75047112 4:0.65147007 5:-0.072954148 6:0.58782035 7:0.097412154 8:0.81312311 9:0.19587825 10:0.27218747 #
0.12672453973786729219952462699439 1:0.54047179 2:0.94436496 3:0.22448963 4:0.66753095 5:0.094138883 6:0.76073033 7:0.76194793 8:0.052770767 9:-0.092545003 10:0.52728653 #
-1.0210024114863309740997010521824 1:0.75704199 2:0.13709119 3:0.6536237 4:0.15511148 5:1.2068205 6:0.68119586 7:0.23019131 8:0.56194985 9:0.42042747 10:0.35365835 #
1.6569078332009785636813603559858 1:0.23477036 2:0.75043583 3:0.87269801 4:0.68159503 5:1.1568954 6:0.1019812 7:1.009267 8:0.94328445 9:0.38982442 10:0.54897636 #
0.39147171641103889472290688900102 1:1.0937635 2:0.17279096 3:0.29184535 4:0.87256473 5:0.42598465 6:0.34579989 7:1.127115 8:0.55259132 9:0.60688847 10:0.88182151 #
-0.1140058293332752714643874014655 1:0.070986703 2:0.017185174 3:0.46775803 4:0.78896993 5:0.23030172 6:0.83661348 7:0.52039212 8:0.34787396 9:0.53333265 10:0.035853941 #
-0.81607506946861896324207918951288 1:0.74309582 2:0.61950278 3:0.40266231 4:0.02817332 5:0.9176622 6:0.2175279 7:0.45621821 8:1.1038442 9:0.36318856 10:0.43383631 #
0.64522247623252459991505247671739 1:0.35340732 2:0.38688102 3:-0.036355205 4:0.74152356 5:-0.064538136 6:0.14201397 7:0.74978763 8:0.13230057 9:0.64310026 10:0.92539412 #
1.319787559355551254114402581763 1:1.1674544 2:-0.11491109 3:-0.083425485 4:0.31185138 5:0.27706739 6:0.54179507 7:0.28688329 8:0.61986828 9:0.78962874 10:0.70742643 #
1.5463452463938560654810316918883 1:0.88327914 2:0.75524199 3:1.1057516 4:0.81859481 5:-0.1453889 6:0.84117472 7:0.21506998 8:0.29501686 9:0.74986631 10:0.31861541 #
1.0691560079661364124348210680182 1:0.95780545 2:0.29736102 3:0.85771412 4:0.024413858 5:0.34552497 6:0.42529759 7:0.27252054 8:0.059904657 9:0.32574636 10:0.79135847 #
-0.18208848089021262284248336982273 1:0.36208582 2:-0.17486072 3:0.012141244 4:1.1612418 5:-0.10313712 6:1.4544377 7:1.0590731 8:1.057699 9:0.61385471 10:0.0049954462 #
0.18306322697435151169997880060691 1:0.99315375 2:0.79262584 3:0.37599337 4:0.24356887 5:0.78428447 6:0.13649316 7:0.73619568 8:0.82426536 9:0.092477232 10:-0.1012545 #
-1.1911378518847071106279145169538 1:0.68180656 2:0.60738349 3:-0.28042051 4:0.68191338 5:0.5333544 6:0.7676391 7:0.45576543 8:0.91089427 9:0.56755364 10:0.57442915 #
0.49076742265397588216302438013372 1:1.1529815 2:0.048843026 3:0.36030945 4:0.91679126 5:0.8323378 6:0.65096301 7:0.61105347 8:0.27560008 9:-0.020927617 10:0.8682636 #
1.8817540438504103406103240558878 1:0.34005606 2:0.21301369 3:0.027109064 4:0.66954851 5:1.1467358 6:0.12932463 7:0.91020614 8:0.53877121 9:0.32874259 10:0.03128029 #
0.34437094750946789512013879175356 1:1.0187733 2:0.97862107 3:0.43345052 4:1.0510838 5:0.98016131 6:0.60703522 7:0.17557029 8:0.0030395866 9:0.65659016 10:0.39539325 #
-0.42649976296398134367748866679904 1:0.72963482 2:0.68102098 3:0.18840985 4:0.31027421 5:0.94965512 6:0.6788041 7:0.55878127 8:0.0080507956 9:0.98193592 10:0.66405493 #
1.1468599170753595029026428164798 1:1.1234478 2:0.8631888 3:0.52527148 4:-0.010225672 5:0.59839934 6:0.17790391 7:0.19101374 8:0.54456645 9:0.88873702 10:0.1538576 #
0.57510045446495550169885291325045 1:0.51859909 2:0.2395689 3:0.92951417 4:1.025259 5:0.050134525 6:1.0317258 7:0.67310452 8:1.0263431 9:0.17977075 10:0.7444008 #
0.91132093328399310649956532870419 1:0.31649691 2:0.89873791 3:0.17668463 4:0.71055406 5:0.0055571129 6:0.53877729 7:-0.025156312 8:0.36565971 9:0.072461419 10:0.67177367 #
0.53929744299643000982058538284036 1:1.1236732 2:-0.19381693 3:0.159069 4:0.74814093 5:0.97649181 6:0.64676273 7:0.42500883 8:0.41975364 9:0.9141925 10:0.53516918 #
0.08647843975904877245053370415917 1:1.0798452 2:0.28837454 3:0.85666013 4:0.80574137 5:0.15264998 6:0.27281603 7:0.14077434 8:0.34534812 9:0.24439169 10:-0.0013111962 #
0.56422658765417510462469863341539 1:1.2072132 2:0.55582118 3:0.097819723 4:-0.080209464 5:0.54333419 6:0.3562398 7:0.59644043 8:0.020202532 9:0.55923498 10:0.75977921 #
-0.087177000815895272500810619931144 1:0.75319493 2:0.97072381 3:0.27565703 4:0.29127261 5:0.39665198 6:0.49308664 7:0.38604891 8:0.99143279 9:0.83140576 10:0.53010476 #
-0.92547168057653439454668387043057 1:0.16149685 2:0.61381549 3:1.0793316 4:0.43873727 5:0.24357732 6:0.6207062 7:0.55941033 8:0.49703383 9:0.04093843 10:0.82528901 #
0.09894279664351114667031339422465 1:0.75542539 2:0.70237577 3:0.8775202 4:0.98209101 5:0.18474856 6:0.32951206 7:0.11664596 8:0.48331463 9:0.82753438 10:1.0212965 #
1.1462732795207339897558540542377 1:0.38753521 2:0.64627188 3:0.44388965 4:0.89664191 5:-0.051201351 6:0.20969862 7:0.15148816 8:0.86601567 9:0.97869217 10:0.13962021 #
-0.92189907785275460039287054314627 1:0.44283545 2:0.64230919 3:0.47580609 4:-0.095789678 5:-0.059376091 6:0.1008081 7:0.03894265 8:0.28728667 9:0.65768838 10:0.45059389 #
-0.44587728228310863354266757596633 1:0.42368478 2:0.89778596 3:-0.0059551224 4:0.20421366 5:0.39843372 6:0.95174462 7:0.59150833 8:0.50311756 9:0.39081144 10:1.0833642 #
0.32167939076156154554197996731091 1:0.94796586 2:0.84462595 3:0.83778745 4:1.0056133 5:0.026127847 6:0.36637127 7:1.0471915 8:0.21676989 9:0.7253207 10:0.31753442 #
0.98650670810384089026712217673776 1:0.92309594 2:0.96336859 3:0.20828831 4:0.1147906 5:0.64515096 6:0.88920939 7:0.0016214723 8:0.15141937 9:0.35566714 10:0.7692194 #
0.23290382984429833235218154641188 1:0.24782893 2:0.62040049 3:0.69839627 4:0.85026377 5:-0.33250841 6:0.9336307 7:0.530595 8:0.11530232 9:0.19254416 10:0.81698668 #
0.16365401434001475289292670822761 1:0.27958161 2:0.20898339 3:0.84156364 4:0.82749259 5:0.051644228 6:0.17872085 7:0.36268154 8:0.022012072 9:0.49834642 10:0.83789295 #
1.2390577185171871565927403935348 1:0.42534867 2:0.44010741 3:0.13130793 4:0.56802613 5:-0.17046419 6:0.30854842 7:0.31570351 8:-0.044502851 9:0.64718455 10:0.34289721 #
0.89957759983890273058904085701215 1:0.99948561 2:0.1063532 3:0.75296032 4:0.084610716 5:0.20836902 6:0.36885157 7:0.12907192 8:0.10990678 9:0.97612727 10:0.37729657 #
0.65803366725549827798147362045711 1:0.14787957 2:0.23260996 3:0.27122056 4:0.85651267 5:-0.048276812 6:0.79029274 7:0.97187328 8:0.083780766 9:-0.016860286 10:0.20233418 #
-1.0228173305413663651819433653145 1:0.50987226 2:0.67147619 3:0.87245184 4:0.41585144 5:0.26772603 6:0.94248044 7:0.47616011 8:0.26961282 9:0.57962978 10:-0.091077171 #
-0.29152255796708170798581249982817 1:0.54205704 2:0.47062308 3:0.50705969 4:0.2299882 5:0.32212675 6:0.60290813 7:0.17947052 8:0.81234723 9:1.3663555 10:0.51194823 #
-1.0457791446212363339896000979934 1:0.56891173 2:0.62383842 3:0.27470893 4:1.3110143 5:0.31231633 6:0.79407656 7:0.086355023 8:0.21353319 9:0.4057723 10:0.72853726 #
-0.51880203258268831056909675680799 1:0.5755043 2:0.77877498 3:1.0556759 4:0.50573367 5:0.11817614 6:0.36200571 7:0.59496284 8:1.1137868 9:0.80952209 10:0.33837777 #
-0.64817809438315721060064333869377 1:0.15562178 2:0.76884675 3:-0.10865112 4:0.87862664 5:0.52979124 6:-0.037163455 7:0.43356121 8:0.80537075 9:0.36054713 10:0.11293744 #
-0.75085138406409079880887702529435 1:0.10938099 2:0.027561493 3:0.082119502 4:0.69089746 5:0.33891714 6:0.42229998 7:1.1163204 8:0.5315842 9:0.2692093 10:0.60662633 #
0.39548916138677397968947957451746 1:0.21982303 2:0.33038518 3:0.79831809 4:0.90596086 5:-0.044226009 6:0.25646207 7:0.81153697 8:0.96328694 9:0.56330174 10:0.16226967 #
-1.1137541393684733392888119851705 1:0.6704002 2:0.23418561 3:0.2634871 4:0.13141756 5:0.13349463 6:0.046981882 7:0.14063053 8:0.57569218 9:0.1607361 10:0.59327084 #
0.94124236962770146952550476271426 1:0.4160533 2:0.26116866 3:-0.15472229 4:0.94641936 5:0.21346472 6:0.8404755 7:0.5695647 8:0.98030812 9:0.39936209 10:0.6932016 #
-1.2860112542249562128660045345896 1:0.84040332 2:0.70107216 3:0.7692607 4:0.45518267 5:0.56431288 6:0.64635837 7:0.08823508 8:0.50916046 9:0.11765939 10:1.0444189 #
0.41456173189713685367507878254401 1:1.197353 2:0.94273245 3:0.69787639 4:0.11575191 5:0.40504509 6:0.48917666 7:1.1329509 8:0.73671633 9:0.59556144 10:0.71916038 #
-0.54537401569477128582263958378462 1:0.67573565 2:0.080937497 3:0.5767886 4:0.65443283 5:0.89289725 6:0.77148199 7:1.1847414 8:0.73063469 9:0.18086705 10:0.44462863 #
-0.1772635676882997612935355391528 1:0.98232502 2:0.16615094 3:1.1959026 4:0.72628099 5:0.83870488 6:0.7708649 7:0.28168473 8:0.11255322 9:0.147191 10:0.51271152 #
-0.90852149933705117490490010823123 1:0.82809496 2:0.55963868 3:0.32878786 4:0.20870849 5:-0.097507775 6:0.83269519 7:0.90054739 8:0.24945803 9:0.91652185 10:0.43530625 #
1.0206286805889774882416531909257 1:1.2230986 2:-0.06496536 3:0.97892612 4:0.10388665 5:0.41678795 6:0.77676797 7:0.7892136 8:0.13224888 9:0.42814451 10:0.26906881 #
-0.5187560444960966909988542283827 1:-0.19839785 2:0.76204062 3:0.88619673 4:0.58794546 5:0.2211636 6:0.35416612 7:0.54072231 8:0.38315991 9:0.97657454 10:0.5240953 #
-0.18399983315380383230852601172955 1:0.97305173 2:0.29821938 3:0.16342095 4:0.66960061 5:0.49710298 6:0.3857972 7:-0.014402878 8:0.049146816 9:0.72095704 10:0.68836963 #
-0.51227964915668711132212820302811 1:0.63506269 2:0.016218148 3:0.35425428 4:0.9841547 5:0.37012348 6:0.0068426002 7:0.49633056 8:0.85793626 9:0.88374597 10:0.75360596 #
-0.4368585664498704779212800985988 1:1.1259439 2:1.5011281 3:-0.026397102 4:0.25393659 5:1.1001987 6:0.26904479 7:0.62542695 8:0.48770854 9:0.45153493 10:0.50279403 #
-0.53695834294991784396700040815631 1:0.33981529 2:-0.22874622 3:0.58146143 4:0.40223312 5:0.29772535 6:0.32523543 7:0.57400322 8:0.026383912 9:0.73634887 10:0.86647022 #
-0.60906133838599141316905161147588 1:0.78061813 2:0.35724688 3:0.63356173 4:0.28987733 5:0.096048169 6:0.87461501 7:0.71377027 8:0.11386201 9:-0.04922023 10:0.51309001 #
0.60409887332043954444316113949753 1:0.96863002 2:0.09468279 3:0.90442795 4:0.11169658 5:0.1557388 6:1.026613 7:0.28891429 8:0.48199245 9:0.7619853 10:0.96283919 #
0.83422666509724163752537151594879 1:1.016402 2:0.086113267 3:0.95226175 4:0.2537764 5:0.74673051 6:0.10055237 7:0.045008637 8:0.78152072 9:0.39804068 10:0.054448172 #
0.45460650362229076959508233812812 1:1.0660217 2:0.12326166 3:0.85064048 4:0.59104645 5:0.70238245 6:0.58230817 7:0.48854855 8:0.87163907 9:1.0491545 10:1.1266693 #
0.74405487708227135978944488670095 1:1.2168698 2:0.97736943 3:0.091696426 4:0.91701221 5:0.5186041 6:0.56525815 7:0.6985355 8:0.75081295 9:0.15175709 10:0.17915712 #
0.59974549335932270111015895963646 1:1.2036511 2:0.56390458 3:0.17966998 4:0.36696926 5:0.64971441 6:0.91919512 7:0.77151585 8:0.77350849 9:0.65690392 10:-0.056067191 #
1.1579771695947369547496919039986 1:0.31070414 2:0.27225852 3:0.86708212 4:0.70233768 5:1.1259942 6:0.006369804 7:1.0536056 8:0.030728456 9:0.64147782 10:0.51954442 #
-0.21781106237426359206743597951572 1:0.0064848051 2:0.24786372 3:0.16225292 4:0.37235516 5:0.32021627 6:1.2914797 7:0.345074 8:0.59680349 9:0.43590048 10:0.2435226 #
0.78224734373658866282141843839781 1:1.1108891 2:0.012098499 3:0.5599491 4:-0.13330275 5:0.30378965 6:0.29450095 7:0.75864226 8:0.58773053 9:0.1231764 10:0.88525295 #
-0.59173481668299721114578915148741 1:-0.18634135 2:0.48641291 3:0.026857423 4:0.57777113 5:-0.49969083 6:0.34669006 7:0.47280666 8:0.22770722 9:0.70202881 10:0.40301546 #
-0.64351851519060832007568251356133 1:0.72415817 2:0.83385676 3:0.73567736 4:0.38202506 5:0.55403435 6:0.62825853 7:0.14171934 8:-0.006853452 9:0.79764378 10:1.0323017 #
1.2643306244679590744084407560877 1:0.4831529 2:0.31887567 3:0.91027939 4:0.91304779 5:-0.0020120665 6:1.0883424 7:0.91090572 8:0.21082053 9:0.88655758 10:-0.0067640641 #
1.0572753551869018551201406808104 1:0.26341042 2:0.33586383 3:0.72380733 4:-0.26418605 5:0.00042706201 6:0.71342188 7:1.2843884 8:0.68425244 9:0.66323894 10:0.1945224 #
0.12808944000573455057612193286332 1:1.1158465 2:0.74916291 3:0.28530428 4:0.80624747 5:0.58008856 6:0.29137662 7:0.63940507 8:0.24691461 9:1.1703253 10:0.21877651 #
1.2371283343834948986739163956372 1:0.24055579 2:0.68660343 3:0.44889989 4:1.0704745 5:1.0835493 6:0.95865721 7:0.80684048 8:0.42418373 9:0.31449777 10:0.87019354 #
-0.51605927929491879346812766016228 1:0.69127673 2:0.48565161 3:0.084040582 4:0.25773522 5:0.9535535 6:0.4773992 7:0.74612516 8:0.14965846 9:0.22396468 10:-0.094953895 #
-0.78072892701821694494412895437563 1:0.24620819 2:1.0968817 3:0.094158471 4:0.59800923 5:0.52775145 6:0.87082225 7:0.71118218 8:0.71358061 9:-0.0018555443 10:0.44736263 #
-0.44692180103788009537524317238422 1:0.63684636 2:0.68573505 3:-0.27723059 4:0.26525944 5:0.6004113 6:0.14881916 7:0.072541147 8:0.24787237 9:0.75089735 10:0.4927671 #
0.65272025858541338205753845613799 1:0.47529396 2:0.41162929 3:0.06433484 4:0.60049355 5:-0.32129321 6:1.1069684 7:0.10382011 8:0.5437898 9:0.77416205 10:0.18356742 #
-0.81806420527424505984015468129655 1:1.0103519 2:0.37539428 3:0.20390946 4:0.30214837 5:0.14450407 6:0.2584928 7:0.67566729 8:0.99481189 9:0.68307358 10:0.24995448 #
0.73776074331365892877698797747144 1:0.92511249 2:0.95164025 3:0.19714798 4:0.12565719 5:0.31171602 6:0.18958952 7:0.82443148 8:0.14111547 9:-0.0026227152 10:0.19334288 #
0.79476403889248925516142207925441 1:1.0396801 2:-0.01931004 3:0.90227592 4:0.93074656 5:0.7203117 6:0.090493783 7:0.84537292 8:0.56605387 9:0.27193034 10:0.64420563 #
0.62008600086092335867959945971961 1:1.1768134 2:1.1869404 3:0.7602784 4:0.3428385 5:0.63858396 6:0.93350393 7:0.36467409 8:0.41148621 9:0.65963656 10:-0.056832153 #
0.68841103853229390630019679520046 1:1.0326983 2:0.25193596 3:0.92319685 4:0.49221927 5:0.14458372 6:0.060894538 7:0.77677172 8:1.0561687 9:0.63169515 10:0.24978507 #
1.2640473973949537533911779974005 1:1.1485243 2:-0.2226342 3:0.034682572 4:0.5388543 5:0.54730386 6:0.63100868 7:0.41892281 8:0.58560932 9:0.021589417 10:0.20779163 #
-0.72082398952773751865663598437095 1:0.7143628 2:0.70496672 3:0.95758379 4:0.89420289 5:0.78102899 6:0.58044189 7:0.7431705 8:0.71010685 9:0.56934541 10:0.022669675 #
-0.9323745866847334973215311038075 1:0.39976165 2:1.1312437 3:0.21255738 4:0.66855663 5:0.75074428 6:0.56037521 7:0.94790995 8:0.42111072 9:1.0074567 10:0.67867613 #
0.51176137249562458908513917776872 1:0.986615 2:0.98804295 3:0.31747502 4:0.88898098 5:0.83539766 6:-0.03753031 7:0.86427993 8:0.48066908 9:0.30102959 10:0.98877287 #
1.2492127680447013826636748490273 1:0.43797535 2:0.88985562 3:0.60112846 4:0.84936213 5:-0.05577584 6:0.66541469 7:0.23538476 8:0.033043377 9:0.74307519 10:0.86621726 #
0.5991599763450112803297997743357 1:1.0952996 2:-0.16844557 3:-0.084180653 4:0.45976275 5:0.63113332 6:0.37746176 7:0.73626775 8:0.036597125 9:0.85041338 10:0.23026837 #
-0.67603354765278955706975239081657 1:-0.11330426 2:0.80822843 3:0.56905144 4:0.86416388 5:0.3234953 6:0.80085319 7:0.081426635 8:0.33619255 9:0.39444768 10:0.80218905 #
-0.29968946831216569659517290347139 1:0.57000905 2:0.95778733 3:-0.039300244 4:0.5769555 5:0.40134498 6:-0.18472745 7:1.0561807 8:0.80383283 9:0.22248021 10:0.30164263 #
-1.0045259263623258494391166095738 1:0.79717666 2:0.24485655 3:0.23542331 4:0.96652287 5:0.37867704 6:0.67443687 7:0.66889805 8:0.097369 9:0.72452575 10:0.16053221 #
-0.71330816309506450689781331675476 1:0.010165528 2:0.71430892 3:0.25765812 4:0.20769505 5:0.30279928 6:-0.37776154 7:0.82013261 8:0.76168251 9:0.48013461 10:0.22819178 #
1.1253109693046468020583006364177 1:0.54308176 2:0.65278053 3:-0.031349096 4:0.98672062 5:-0.028911125 6:1.1129268 7:1.1319011 8:0.24098417 9:0.67574006 10:0.29134873 #
-0.7795721400596372641089715216367 1:0.46642753 2:0.48501813 3:0.97601545 4:0.26348147 5:0.2397902 6:0.15416715 7:0.64844662 8:-0.050675076 9:-0.018384229 10:0.32729396 #
0.62353832132744135829938159076846 1:1.07293 2:0.063152403 3:0.93494576 4:0.45331255 5:0.68802303 6:0.94339883 7:0.34080806 8:0.91508293 9:-0.023863293 10:0.65393156 #
-0.5836564822721131973182195906702 1:0.55179256 2:0.43929222 3:1.0550689 4:0.97173774 5:0.61011809 6:0.093932196 7:0.57792133 8:0.97077674 9:0.30028525 10:0.87981766 #
0.4408885696128360121015532513411 1:1.0757023 2:-0.025485577 3:0.80364364 4:0.33866054 5:0.8294645 6:0.7551412 7:0.90812898 8:1.0101553 9:0.6601342 10:0.026567869 #
-0.50723043587817862043465311217005 1:1.4076445 2:-0.54877496 3:1.2762251 4:0.69991899 5:0.73839861 6:0.83602953 7:0.27750421 8:0.43461978 9:0.77354264 10:0.30559602 #
0.96117394832984037744694205684937 1:1.1421386 2:0.86986548 3:0.30951834 4:0.28461626 5:0.80112147 6:0.81439143 7:1.0566592 8:0.19216235 9:0.19728263 10:0.77517432 #
0.96402603597183367245548879509442 1:1.1145464 2:0.15869606 3:0.90465134 4:0.7919445 5:0.31980941 6:0.5692113 7:0.89802414 8:0.11708415 9:0.87366414 10:0.56720239 #
-0.65434415187513117473372403765097 1:-0.054874226 2:0.68200266 3:0.083060265 4:1.2590187 5:0.1940081 6:0.64597535 7:0.41211846 8:0.37337184 9:0.38849846 10:0.26133928 #
0.71999067123794158185035030328436 1:0.084373906 2:-0.073312305 3:0.52264845 4:0.86028486 5:0.026012709 6:0.89078152 7:0.98184317 8:0.032283943 9:0.6789735 10:0.81770337 #
-0.4521914287438120183537648699712 1:0.65755224 2:-0.1948798 3:0.66582227 4:0.86827922 5:0.29376322 6:0.7531358 7:0.20135327 8:0.49758804 9:0.26467106 10:1.001209 #
-0.64665086269004312669039791217074 1:0.18400633 2:0.62863606 3:0.54774374 4:1.0084957 5:0.5513674 6:-0.1217246 7:0.13284312 8:0.40574166 9:0.61121374 10:0.32289368 #
1.4171646840639999798128201291547 1:0.37857848 2:0.17764726 3:0.269815 4:1.1048597 5:1.1529685 6:0.90475422 7:0.092493616 8:0.20729008 9:0.39591295 10:0.25771764 #
0.42684233427280832140482402792259 1:0.31867695 2:0.39808655 3:0.78039932 4:0.96347654 5:-0.2567836 6:-0.164786 7:0.16228311 8:0.76573098 9:0.12589467 10:0.72903657 #
-1.1429458276562400875775438180426 1:0.80885077 2:0.76713049 3:0.78452045 4:0.37646869 5:-0.1109435 6:0.53788096 7:0.86094129 8:0.92309207 9:0.18743123 10:0.41587433 #
-0.77457622580035245807295041231555 1:0.54624134 2:0.84846485 3:0.19000116 4:0.57812858 5:0.81520492 6:0.99114263 7:0.23145886 8:0.64429086 9:0.88421905 10:0.084992357 #
1.3200114894199379556027906801319 1:0.30455646 2:0.45979667 3:-0.079487145 4:0.6152333 5:1.1726959 6:-0.15240863 7:0.88765317 8:0.7591204 9:0.54579407 10:0.7925595 #
-0.43372601637327312662506528795348 1:0.75496578 2:0.31955221 3:0.085614152 4:0.21393441 5:0.33444342 6:0.29778427 7:0.75654066 8:0.10520291 9:0.48922336 10:1.2376208 #
-0.16999533682081638397143308338855 1:1.2824941 2:0.61613333 3:0.96938717 4:0.80435234 5:-0.23627019 6:0.83150339 7:0.13505651 8:0.30752301 9:1.1342475 10:0.27117431 #
1.1993895628423294485997985248105 1:0.34860739 2:0.40231943 3:0.89112329 4:0.47456905 5:1.0319974 6:0.069069698 7:1.0057153 8:0.42943653 9:0.56608868 10:-0.18129429 #
0.41975598436431882376496105280239 1:1.2699577 2:0.69019955 3:0.27263314 4:0.53692842 5:0.71197414 6:0.84534609 7:0.97563678 8:0.014844802 9:0.86902058 10:0.21494463 #
-0.10532189329957739043486242280778 1:1.111829 2:0.48059693 3:0.28044379 4:0.9753983 5:0.20851301 6:0.75676101 7:0.022224793 8:0.83383679 9:0.92404944 10:0.64039832 #
0.58014313285985008583622857258888 1:0.46193737 2:0.46752036 3:0.26538998 4:0.48423964 5:1.2733701 6:-0.078608789 7:1.1447504 8:1.1063083 9:0.10477863 10:0.32981819 #
-0.5925157053381779892475833548815 1:-0.20252472 2:0.43328428 3:0.34844106 4:0.39096889 5:0.16321848 6:0.46186087 7:0.48270291 8:1.0149685 9:0.50367588 10:0.7830779 #
0.18382444560117988663350274691766 1:1.701409 2:-0.9350338 3:1.4416335 4:0.87716037 5:0.65879077 6:1.0258443 7:0.38382605 8:0.39926407 9:0.78963375 10:0.15572047 #
0.1750140571058482752420104588964 1:1.004897 2:0.17515647 3:0.40847778 4:0.83037853 5:0.6252799 6:0.93957961 7:0.95481551 8:0.84666359 9:0.93299353 10:0.66023123 #
-0.5300878851206207720281327056 1:0.183679 2:0.89784366 3:0.8050431 4:1.1343367 5:0.47282189 6:0.30014753 7:1.0635769 8:0.92214441 9:0.24069512 10:0.19802746 #
-0.058360982109193541844671671015021 1:0.75698644 2:1.30478 3:0.137917 4:0.4857924 5:-0.48454082 6:0.94488239 7:0.77540809 8:0.81827801 9:0.7333768 10:0.78078806 #
-0.72349312395166787137412711672368 1:0.60150903 2:0.49876779 3:-0.020129681 4:0.15152325 5:3.8358827e-05 6:0.71840584 7:0.65961528 8:0.11750355 9:0.027583696 10:0.070013262 #
0.10014876081372732496976851734871 1:0.99606359 2:1.3987828 3:0.94048089 4:0.33958954 5:0.47266093 6:0.72549295 7:0.63422567 8:0.26561508 9:0.69644541 10:0.94550025 #
1.0832225763119143202573013695655 1:1.2267121 2:0.74455041 3:0.42286977 4:0.17888178 5:0.19159366 6:1.1793293 7:0.2522895 8:0.69202149 9:0.28013828 10:0.51783603 #
-0.26170643660594922197404343933158 1:0.66907269 2:0.071383975 3:0.16187462 4:1.0211312 5:0.33388156 6:0.79401749 7:0.16145106 8:0.67293245 9:0.3046149 10:-0.064008258 #
0.36063488725753456431988297481439 1:1.0711789 2:0.15965819 3:0.75466764 4:1.0248073 5:0.85166103 6:0.47127467 7:0.025465338 8:0.14754497 9:0.84332961 10:0.96446556 #
-0.47128763023892228378741720007383 1:0.13273464 2:0.23725049 3:0.73480862 4:0.49240565 5:0.16639164 6:0.87997401 7:0.44678202 8:0.90545237 9:0.91617942 10:0.95924741 #
0.85908942301422808185407120618038 1:0.1945093 2:0.92090279 3:0.43379161 4:0.6731683 5:-0.081596807 6:-0.056755345 7:0.95143068 8:0.11682648 9:0.46282479 10:0.78978038 #
0.50893694964099656097289425815688 1:0.72790247 2:0.4892059 3:1.0519235 4:1.1189592 5:-0.052489053 6:0.87144846 7:0.7313295 8:0.50847697 9:0.98358232 10:0.87919569 #
-0.80142381260225015182641072897241 1:0.77506423 2:0.41083884 3:0.6887632 4:0.32756791 5:0.72361052 6:0.33762714 7:0.13454409 8:0.32648435 9:0.87049317 10:0.04257391 #
0.40355113622700228281914291983412 1:1.4502039 2:0.95344454 3:1.015175 4:0.46840656 5:0.35256881 6:0.32385185 7:0.39763561 8:0.63356048 9:0.27040142 10:0.27538869 #
0.23281670511045823857010361734865 1:-0.05143996 2:1.1910821 3:0.050085265 4:1.101609 5:0.080020688 6:0.81304765 7:0.34194329 8:0.87829286 9:0.16316855 10:0.037752382 #
-0.46528164278224792838045686949044 1:0.43804196 2:0.75013119 3:-0.13770181 4:0.69175059 5:0.43081549 6:0.085065857 7:0.84535956 8:0.8239156 9:0.96023488 10:0.51321137 #
0.24967947822516076139542917644576 1:0.65936428 2:0.21078283 3:0.76159263 4:0.89440113 5:1.0832886 6:0.76112729 7:0.13866149 8:0.87187999 9:0.44291499 10:1.0102223 #
0.27200930813173113120839730072476 1:-0.42206675 2:0.4632602 3:-0.12558056 4:0.52392226 5:-1.1387765 6:0.33321819 7:0.59983367 8:0.21458419 9:0.8534745 10:0.56150579 #
0.34531166267084356658045862786821 1:0.98378438 2:0.24908103 3:0.90580714 4:0.56921518 5:0.25853673 6:1.006035 7:0.332032 8:0.89358312 9:0.56705153 10:-0.034832165 #
-0.40440967045248293887382828870614 1:0.55389565 2:0.36518604 3:0.35392666 4:0.44480386 5:0.18315437 6:0.4458082 7:0.4546279 8:-0.31805664 9:1.045248 10:0.084351905 #
-0.38615534276046137307503158808686 1:-0.014330758 2:0.79861194 3:0.26110929 4:0.4638299 5:0.46263805 6:0.73228943 7:0.99095106 8:0.66730845 9:0.8182404 10:0.11098896 #
1.2437262655435903369038896926213 1:0.35005358 2:0.86082625 3:0.25633106 4:0.76114565 5:-0.093152769 6:0.77889055 7:0.20109525 8:1.0821688 9:0.073623993 10:0.60390836 #
-0.73651823115453141088693200799753 1:0.98667008 2:0.69931394 3:0.83705986 4:0.03682046 5:1.0907637 6:0.19111606 7:0.82087004 8:0.37124005 9:0.64914155 10:0.60688639 #
-0.3982977058146089377466125824867 1:0.90971768 2:0.29970121 3:0.46120751 4:0.30423051 5:0.20814262 6:0.64263344 7:-0.18357679 8:0.20812044 9:0.348427 10:0.31618273 #
0.36533004091390619549883922445588 1:0.17603371 2:0.14355066 3:0.44496718 4:0.23852736 5:-0.2346521 6:0.8818413 7:1.0630108 8:1.1806738 9:0.072783031 10:0.43548068 #
0.22151942653196274313209812589776 1:0.98242974 2:0.21086633 3:0.03121832 4:0.85374576 5:0.048621327 6:0.48930928 7:0.18522538 8:0.36633727 9:0.10074866 10:0.89656836 #
-0.63802765980740061557696662930539 1:0.7360661 2:0.37139407 3:0.3679162 4:0.48603469 5:0.89561462 6:-0.14273906 7:0.32692131 8:0.59150815 9:0.20373449 10:0.093168125 #
-0.54287594279867401603212329064263 1:0.5030582 2:-0.037415452 3:0.62721771 4:0.77880448 5:0.28616086 6:0.15037453 7:0.97288209 8:0.50934792 9:0.20995995 10:0.077655248 #
-0.67994043372084578269465282573947 1:0.7392782 2:0.71566874 3:0.8863008 4:0.20455611 5:0.55317742 6:-0.037081916 7:0.56884986 8:0.42613745 9:0.46779788 10:-0.12834515 #
0.43451461634294408220569039258407 1:1.115707 2:-0.17980136 3:0.053511731 4:0.49057129 5:0.73328263 6:0.22137998 7:0.45065722 8:1.1141028 9:0.83368236 10:0.50986028 #
0.22245352031399429071356621534505 1:1.2583981 2:0.13782546 3:0.32399526 4:-0.10824123 5:0.080771349 6:0.62377805 7:0.50626814 8:0.33984232 9:0.99357599 10:-0.34804958 #
1.095628766153910804703741632693 1:0.79664856 2:1.1137252 3:0.94222265 4:0.57880396 5:1.1109962 6:0.16691943 7:1.0357287 8:0.49324006 9:0.48368254 10:0.3710134 #
0.59356014098201848039337846785202 1:0.3779645 2:0.92850769 3:0.91819048 4:0.81168407 5:1.2244782 6:0.84729373 7:0.48999843 8:0.43042943 9:1.0354366 10:0.86234581 #
-0.96885090073214652495181553604198 1:0.81974876 2:0.47688437 3:-0.0014599939 4:0.71469057 5:0.82198608 6:0.8442589 7:0.76232654 8:0.076171771 9:0.50941378 10:0.7654658 #
-0.15768114125787044410564874397096 1:1.6419741 2:1.5558554 3:0.84822851 4:0.26031643 5:0.51149505 6:1.1264813 7:0.2656354 8:0.41276613 9:0.66660792 10:-0.26371214 #
1.0486808270470222570480700596818 1:0.37692001 2:0.70393699 3:0.25679225 4:0.67021638 5:-0.19123033 6:0.3324956 7:1.0106605 8:1.0427419 9:0.7351802 10:0.3778961 #
0.5218999123890114555379682315106 1:0.66582066 2:0.32078132 3:0.18727091 4:0.53912377 5:1.1150091 6:-0.00056770508 7:1.1930267 8:0.091795921 9:0.68171418 10:0.68289429 #
-0.88572175397740593449924517699401 1:0.83739322 2:0.66304207 3:0.70782423 4:0.57820767 5:0.91874778 6:0.14951584 7:0.30734321 8:0.80764318 9:1.0202519 10:0.73877323 #
1.113635299812991918955162873317 1:0.34302711 2:0.84150678 3:0.71135825 4:1.0233153 5:1.1586145 6:0.75435299 7:0.18940039 8:0.44169483 9:-0.03220864 10:0.36555755 #
0.52696921372905947134057669245522 1:1.0528051 2:-0.07481198 3:0.27010557 4:-0.02731055 5:0.53219789 6:1.039955 7:0.20693386 8:0.16406342 9:0.36824805 10:0.26068926 #
0.43824441028324684355155227422074 1:0.9064464 2:1.0013803 3:0.49371585 4:0.046273891 5:0.80929607 6:1.2621329 7:1.0289336 8:1.0203966 9:0.54953063 10:0.36099756 #
-0.61002482035511873537103610942722 1:0.79386485 2:0.61368126 3:0.96399683 4:0.78254676 5:0.40942809 6:0.10936154 7:0.54924726 8:0.057848822 9:0.15329601 10:0.95383263 #
-1.203640883437542941081233038858 1:0.71275806 2:0.51440179 3:0.45774469 4:0.086836249 5:0.95711553 6:0.94063932 7:0.056886375 8:0.49303845 9:0.68433416 10:0.73337525 #
1.1188281219459514925773646609741 1:0.40932158 2:0.44179356 3:0.85829109 4:0.50058889 5:0.94955033 6:-0.20596072 7:1.0050958 8:0.74637645 9:1.001258 10:0.66194814 #
0.63197836372154037043458174593979 1:0.038607556 2:0.45898804 3:-0.073896363 4:0.83637208 5:1.0887939 6:0.89373368 7:0.74106914 8:0.37119275 9:0.31188974 10:0.2894859 #
-1.090126316529768102370212545793 1:0.62124735 2:0.25981688 3:0.61071688 4:1.1239423 5:0.46006566 6:0.81789255 7:0.66507834 8:0.11054629 9:0.075294383 10:0.5244993 #
1.119945847869048494160892914806 1:0.15417659 2:0.28698912 3:0.099896096 4:0.95982563 5:1.117862 6:0.94045764 7:0.20006581 8:0.79957032 9:0.81483406 10:0.78486311 #
0.57501192928369504464569672563812 1:1.1055281 2:0.50648403 3:0.37103853 4:-0.42523962 5:-0.12097216 6:0.41815937 7:0.66374177 8:0.79002851 9:0.50886041 10:0.49284244 #
-0.95723825801937378887629392920644 1:0.73417872 2:0.29514506 3:0.4622246 4:0.5965752 5:1.1004583 6:0.19657722 7:0.19806974 8:0.4251579 9:0.045416832 10:0.86159718 #
0.094767359461605762960267895778088 1:0.87734252 2:0.20243995 3:0.76915818 4:0.67908555 5:0.045608453 6:0.90745372 7:-0.067481883 8:0.56107473 9:-0.2274839 10:0.33708501 #
-0.48834587995978456786971833025746 1:0.30461207 2:1.0808055 3:0.61211222 4:0.30808812 5:0.34024483 6:0.12614924 7:0.080691859 8:0.35227901 9:0.038938597 10:0.64757305 #
-0.76808629715452281239151943736942 1:0.74331534 2:0.51144153 3:0.39197555 4:1.0000513 5:0.49149978 6:1.335927 7:0.24584188 8:0.62944484 9:0.81721294 10:0.81570274 #
0.79759348045041034147573100199224 1:0.79046202 2:0.49362767 3:1.0916742 4:0.92268407 5:0.052635707 6:0.96757585 7:0.67602229 8:0.075070038 9:0.14342152 10:0.80322969 #
-0.48183344389641702409932122463943 1:1.3241758 2:1.5270556 3:0.47545457 4:0.42763028 5:0.13725908 6:0.5976578 7:0.73799503 8:0.34885022 9:0.92076439 10:0.7929886 #
0.59940904789914806194417451479239 1:0.60802573 2:0.67899507 3:0.17046382 4:0.92933649 5:0.042886987 6:1.0460979 7:0.95505643 8:0.014853219 9:0.32023171 10:1.1258336 #
-1.0863762677062420713980372966034 1:0.40758669 2:1.1133635 3:0.052450161 4:0.94250786 5:0.43167746 6:0.51433128 7:0.10462662 8:0.15588024 9:0.65876293 10:0.61420518 #
-0.55027399905867868667996845033485 1:0.19189247 2:-0.22248313 3:0.87358284 4:0.57831991 5:0.6234774 6:0.33856139 7:0.39716533 8:0.98244542 9:0.51645476 10:0.29831406 #
-0.44702279176939385685329853004077 1:0.43711048 2:0.2695494 3:1.0143137 4:0.24810864 5:1.0185728 6:0.45140794 7:0.88462162 8:0.36985284 9:0.24072011 10:0.8738696 #
0.45254542694179922257546877517598 1:0.47506627 2:0.94679588 3:0.0470719 4:0.62914723 5:0.11607084 6:0.60908586 7:0.20546274 8:0.39958692 9:1.0148369 10:0.12994942 #
0.58174191913786588159496204752941 1:0.39329255 2:0.84206259 3:0.31205824 4:0.9496702 5:1.1253837 6:-0.09068656 7:0.70540595 8:0.57209957 9:0.072369911 10:-0.096351877 #
-0.79520132314482550039969055433176 1:0.64552832 2:0.042681996 3:0.26129085 4:0.33312625 5:0.81877488 6:0.70981896 7:0.77264178 8:0.91887611 9:0.35695362 10:-0.054937255 #
-0.50032065515227808205622750392649 1:0.35988864 2:1.0767177 3:0.18447819 4:0.20052344 5:0.82244664 6:0.27299836 7:0.90771562 8:0.097267285 9:0.086252891 10:0.54804635 #
-1.1824335833489576508270602062112 1:1.0273032 2:0.37864831 3:0.46045727 4:0.6309346 5:0.013809146 6:0.19972195 7:0.10379855 8:0.48863965 9:0.79313821 10:0.069013 #
-0.69772780130563194500581403190154 1:0.58710432 2:0.3508302 3:0.064029701 4:0.060318679 5:0.57086873 6:-0.052993856 7:0.48890379 8:0.82161981 9:0.45726067 10:1.0498163 #
0.64187093216137791618081109845662 1:1.0615348 2:0.94911474 3:0.13998108 4:0.77714425 5:0.84124511 6:0.35276037 7:0.13808359 8:-0.0033250179 9:0.21468164 10:1.0537379 #
0.73102737048036980915810545411659 1:1.2254829 2:0.043200746 3:0.53074503 4:1.0179628 5:0.66616237 6:-0.031994496 7:0.28071874 8:-0.025432764 9:0.31716338 10:0.3943378 #
-0.88830624580012373936455105649657 1:0.88253814 2:0.63805056 3:0.51266098 4:0.36947507 5:0.15920788 6:0.63123602 7:0.5192886 8:0.10815279 9:0.31588587 10:0.89285779 #
0.83572742067595318093964351646719 1:0.28826296 2:0.17654963 3:0.3602339 4:0.87961864 5:-0.14396153 6:0.52595174 7:-0.17925715 8:-0.037384842 9:0.34889114 10:0.68226087 #
-0.87780723622761447355600239461637 1:0.53254688 2:0.54953784 3:0.78476071 4:0.32989222 5:0.33847946 6:0.4292599 7:0.016121114 8:1.1381232 9:0.25209621 10:0.26669648 #
-0.34648088769820961640988343788194 1:0.64724606 2:0.12503897 3:0.87335044 4:0.87795591 5:0.60188353 6:0.22181825 7:1.1187011 8:0.36978418 9:0.94303423 10:0.92464393 #
0.5490105020629927334852027343004 1:1.0914328 2:0.76429927 3:0.32845247 4:-0.12745194 5:0.5518102 6:0.0075244796 7:0.015793439 8:0.21290408 9:0.12313682 10:0.13151212 #
-0.89495096344754643258312398756971 1:1.0254769 2:0.4334335 3:0.1306089 4:0.45046818 5:1.2907929 6:0.26367429 7:0.49323806 8:0.65224594 9:0.73683721 10:0.35475278 #
0.67925829031533191404435001459206 1:0.39476222 2:0.53421515 3:0.88924778 4:0.63211042 5:1.0648785 6:0.069768034 7:0.85149813 8:0.84661019 9:0.053194325 10:1.1718662 #
-0.93781279364174030543921389835305 1:0.70460534 2:0.13929756 3:0.7521531 4:-0.046949472 5:0.91301483 6:-0.031362038 7:0.95666409 8:0.84828067 9:0.5273605 10:0.41671887 #
-0.2061578588404906486886147831683 1:1.5454608 2:-0.060150001 3:0.73724192 4:1.2672725 5:1.1927884 6:0.19390318 7:0.15236127 8:-0.067724779 9:0.62392431 10:0.81397051 #
-1.3712690699864480414760237181326 1:0.68391287 2:0.4908573 3:0.17553979 4:0.23573701 5:0.52094388 6:0.39124104 7:0.46795419 8:0.74956185 9:1.0351418 10:0.12003719 #
0.32400081759871468545242123582284 1:-0.66313815 2:0.73925084 3:-0.081999466 4:1.4092227 5:0.44588053 6:0.3324728 7:0.4456794 8:0.26994327 9:0.670026 10:0.53895509 #
1.2116133835153741760137791061425 1:0.42465478 2:0.40076053 3:0.8714748 4:1.0807596 5:1.1894189 6:0.99092227 7:0.68518227 8:0.11585036 9:0.58174056 10:0.5345124 #
-0.26158575197081568308732357763802 1:0.013424679 2:-0.086160049 3:0.20504723 4:1.5974708 5:1.2435082 6:0.89988577 7:-0.13596734 8:0.14057679 9:0.39978173 10:0.075282834 #
-1.9620332344714548344910554078524 1:0.88320792 2:0.65689999 3:0.75877821 4:0.83852619 5:0.44889891 6:0.82859647 7:0.28594309 8:0.85792744 9:0.56875724 10:0.55511343 #
0.48747945071555126572704352838628 1:0.94572425 2:-0.12180053 3:-0.078736112 4:0.71214926 5:0.22747405 6:0.75812656 7:0.13565567 8:0.1064736 9:0.75766581 10:-0.037773684 #
0.21365168989854760317470550035068 1:1.0928797 2:-0.099951819 3:0.092629589 4:-0.13028193 5:1.3054389 6:0.46132201 7:0.42336252 8:0.54379445 9:0.85489178 10:0.32625803 #
-0.13385675340466546279216686343716 1:0.7818234 2:0.51316631 3:0.9077251 4:0.53021348 5:0.83921182 6:0.51971757 7:0.76796693 8:-0.022724485 9:0.88692605 10:0.27153575 #
0.40814570454245741037979655629897 1:0.93760753 2:0.56809682 3:0.12394328 4:0.23004968 5:0.93617845 6:-0.05463339 7:0.88165164 8:0.8011542 9:0.97909606 10:0.044545729 #
-0.55653701382937714736698353590327 1:0.47189182 2:1.0153363 3:0.81563908 4:0.03864263 5:0.18159206 6:0.079831846 7:0.28446168 8:0.69762915 9:0.8209182 10:0.98820174 #
-0.38779299640589348641128708550241 1:0.27518997 2:0.062472112 3:0.90417761 4:-0.6829316 5:-0.028618706 6:0.71077901 7:1.7081417 8:0.89889365 9:0.76616466 10:0.053179268 #
0.55000495103183411060854268725961 1:0.40349579 2:0.16496071 3:0.52368546 4:0.99012804 5:0.0087193102 6:0.52960676 7:0.51524663 8:0.7316134 9:-0.11145402 10:0.46829143 #
0.14351176661947750989867245152709 1:0.044800367 2:0.66938835 3:-0.072384439 4:0.18061088 5:0.39506266 6:-0.9969461 7:1.0389251 8:0.79155511 9:0.39806294 10:0.015445104 #
0.072466639790387726849374416815408 1:1.0294968 2:0.56386685 3:0.47548041 4:-0.12959997 5:-0.22199161 6:0.78392726 7:0.92497373 8:-0.42712694 9:1.2046963 10:0.35183859 #
-0.77685240914417952318160587310558 1:0.31294733 2:0.96121836 3:0.7255944 4:1.2163817 5:0.55972606 6:0.23143603 7:0.9203015 8:0.076392822 9:0.88963675 10:0.30951196 #
0.73790375141370212475067091872916 1:1.0902554 2:1.0451072 3:0.29482579 4:0.013049757 5:0.58410144 6:0.81982183 7:0.30881009 8:0.90506881 9:0.69824255 10:1.151373 #
0.74692491198969124255313545290846 1:0.41210866 2:0.75419354 3:0.72150975 4:1.1770564 5:0.13447993 6:1.0853404 7:0.89013821 8:0.98414713 9:0.93716103 10:0.23727213 #
-0.76831783111651430484556613009772 1:-0.041186415 2:0.13577844 3:0.055590738 4:1.1306576 5:0.43917087 6:0.5900659 7:0.40108955 8:0.95795727 9:0.22485037 10:0.61853844 #
1.2473490457044802415254025618196 1:0.10077113 2:0.64462674 3:0.66189289 4:0.69297898 5:0.96294141 6:0.58402294 7:0.26863405 8:0.24881302 9:0.82459199 10:0.53465891 #
-0.300076460094613806095509289662 1:0.34236461 2:0.48105738 3:0.12882988 4:0.83618897 5:-0.9192934 6:1.2139616 7:0.31262195 8:0.45273337 9:0.69467378 10:0.18855613 #
1.9759814972453082493331066871178 1:0.38943291 2:0.60692418 3:0.10527727 4:0.59816676 5:0.00088136707 6:0.72537023 7:0.14669061 8:0.62966985 9:0.72593737 10:0.87450671 #
0.61330864027449405462277809419902 1:1.0481921 2:0.18843174 3:0.78532749 4:0.077983536 5:1.0206786 6:-0.12841627 7:-0.11250989 8:0.16002919 9:0.69553614 10:0.62958694 #
-0.10853039442383394241886662712204 1:0.12863983 2:-0.062519632 3:1.1883514 4:0.25130188 5:0.16410322 6:-0.029594291 7:-0.22860564 8:0.27548397 9:0.06851507 10:0.78810579 #
-0.38141512719475928472334658181353 1:-0.061783645 2:0.47750172 3:0.32174945 4:0.83919948 5:0.25835702 6:0.80663103 7:-0.086494416 8:0.49593335 9:0.80021536 10:0.26734623 #
0.93361968143893248051057298653177 1:0.15213892 2:0.96745968 3:0.24637604 4:0.56373733 5:-0.071143769 6:0.20674713 7:0.44643903 8:0.098169446 9:0.025446994 10:0.61576867 #
0.8042157068048246815195057024539 1:1.0635161 2:0.21411991 3:0.79610455 4:0.82600462 5:0.76098412 6:0.45335594 7:0.032616038 8:0.5652681 9:-0.097075775 10:0.21185349 #
-0.27049378551894243116748839383945 1:0.74599934 2:0.23722705 3:0.09451627 4:0.91532844 5:0.41852105 6:0.037387006 7:1.0344334 8:0.26494321 9:0.90799272 10:0.50232321 #
0.37804181786787544039540875928651 1:0.67674041 2:0.44613189 3:0.097701602 4:0.65523303 5:-0.049466733 6:0.16592017 7:0.39832899 8:1.0886587 9:-0.080801003 10:0.24047033 #
0.71133458865926513237099015896092 1:1.0132681 2:0.016611101 3:0.81955624 4:0.12248784 5:0.55264902 6:0.11156086 7:0.057094157 8:0.79950011 9:1.1011919 10:0.88233042 #
-0.82316811931436173477294460099074 1:0.95984 2:0.61600971 3:0.80633569 4:0.34818956 5:0.11889916 6:0.73096186 7:0.89698118 8:0.89362377 9:0.88000029 10:0.7398662 #
-0.50191238257395442978747723827837 1:0.41431624 2:0.84737307 3:0.47486544 4:0.044893291 5:-0.093751661 6:0.95506465 7:0.26013759 8:0.91472447 9:0.62161523 10:0.11989245 #
0.33452471475028322522859980381327 1:0.33257958 2:0.6324349 3:-0.085882895 4:0.60578173 5:0.15924889 6:1.3412027 7:0.9786697 8:0.85674649 9:0.45179066 10:0.56771964 #
-0.59956592998481239575880863412749 1:0.83069187 2:0.58509111 3:0.1415652 4:1.0111854 5:0.46332735 6:0.15586318 7:-0.056170233 8:0.43351606 9:0.15816054 10:0.33312365 #
-0.15079732827773445480445957400661 1:0.77731615 2:0.2609944 3:0.07078819 4:0.61085004 5:0.7973758 6:0.55930263 7:0.091466904 8:-0.094804525 9:0.090276532 10:-0.062350787 #
0.87834807926676683464961570280138 1:1.1320441 2:0.86000901 3:0.28487307 4:0.29745188 5:0.57535201 6:0.6271866 7:0.068303995 8:1.0113924 9:0.48558643 10:0.013993235 #
-1.1046420109289010191844226937974 1:0.52604169 2:0.16692054 3:0.6459927 4:0.48191297 5:0.43465737 6:0.98072523 7:0.49515519 8:0.47561669 9:0.040211871 10:0.12020571 #
-0.40067422897528920389120798972726 1:0.083993599 2:0.28741619 3:0.73390704 4:0.1188401 5:-0.025302384 6:0.57614332 7:-0.067918018 8:0.42313716 9:0.80741978 10:1.0171682 #
0.80774942580899522504012111312477 1:0.97035784 2:-0.020339351 3:1.0619965 4:0.27532446 5:0.21343915 6:-0.017032634 7:0.58920056 8:0.14739765 9:0.29806447 10:0.12869725 #
-1.1253822412372418426684816950001 1:0.7804355 2:0.81774193 3:0.59425437 4:0.44771859 5:1.2027246 6:0.5732528 7:0.40351793 8:0.34864196 9:0.11979043 10:0.24609996 #
-0.7305521541206339009022485697642 1:0.65849751 2:0.74169701 3:0.37192443 4:0.7574327 5:0.66740727 6:0.027952015 7:0.13345636 8:0.24062522 9:0.93935835 10:0.44464275 #
-0.45135423242341138339028816517384 1:0.71670461 2:0.79039192 3:-0.036159225 4:0.38664839 5:0.2976869 6:0.79521227 7:0.09267664 8:0.69914752 9:-0.14231378 10:0.81154805 #
-0.63603230667185040037026055870228 1:0.63665986 2:0.054218281 3:0.84872514 4:0.39908126 5:-0.08418934 6:0.5688743 7:0.74114448 8:0.70739305 9:0.99180156 10:0.18610416 #
0.75018701559820732960304212610936 1:1.168821 2:0.74608046 3:0.5710578 4:0.19090021 5:0.7758975 6:0.90792769 7:0.77343857 8:0.25222999 9:-0.092628807 10:0.075246125 #
-0.51826481242086297474003231400275 1:0.40380508 2:0.77434468 3:0.67115295 4:0.77165592 5:0.41154099 6:0.8741253 7:0.49429429 8:1.0731858 9:0.082356244 10:0.24945715 #
-0.67776620669769804816695568661089 1:0.78514957 2:0.6110844 3:0.90344232 4:0.59497195 5:0.57245213 6:1.2076154 7:0.17652649 8:-0.035407607 9:0.51358539 10:0.48569578 #
0.23227226852426563485920496532344 1:0.63889122 2:0.68040305 3:0.45326445 4:0.98182672 5:-0.26433599 6:-0.065598607 7:1.0097262 8:0.38198549 9:0.18218112 10:0.17515807 #
0.35383057930332068030665482183394 1:0.46037415 2:0.60980952 3:-0.11513831 4:0.86288881 5:0.058883712 6:0.62552768 7:0.52396023 8:0.40244371 9:0.066057652 10:-0.13687991 #
-1.0362888786002315555379027500749 1:0.73890013 2:0.34636962 3:0.2302953 4:0.10620052 5:0.94747943 6:0.71134859 7:0.63459212 8:0.61804301 9:0.74859667 10:0.98673403 #
0.06541030302360324732990903839891 1:0.32110122 2:0.24574998 3:0.075844489 4:0.9025104 5:0.94186264 6:0.23172745 7:0.79339749 8:-0.039713733 9:0.65187317 10:0.26933366 #
0.53053036322725777296227533952333 1:0.5164566 2:0.95978355 3:0.95170414 4:0.80291367 5:-0.13920046 6:-0.10485929 7:0.59299886 8:0.6415146 9:0.84646279 10:0.42998379 #
-0.46317482332083925733456908346852 1:0.60117584 2:0.21791321 3:0.63699514 4:0.24038751 5:0.048478208 6:0.29071215 7:0.63362938 8:0.60920894 9:-0.19927517 10:1.0580357 #
0.37555706443475189715286433056463 1:1.1668596 2:0.56589013 3:0.15193745 4:0.071870618 5:0.47112757 6:0.71779931 7:0.97177929 8:0.74347037 9:1.096981 10:0.88538975 #
0.72342704684374814494418615140603 1:0.28542161 2:1.1186364 3:0.4411619 4:0.45430988 5:-0.14902887 6:0.27661091 7:0.4504455 8:0.85149735 9:0.20191242 10:0.15334405 #
1.0418048276094467041730240453035 1:0.40570867 2:0.64630699 3:0.51003158 4:0.79236382 5:-0.096371517 6:0.5666101 7:-0.084607318 8:0.047429621 9:0.65041339 10:0.16960117 #
0.53319287050380159698192983341869 1:0.87156522 2:0.9023459 3:0.48308599 4:1.091364 5:1.0045441 6:0.71191084 7:0.012084244 8:0.73984534 9:0.91517949 10:0.54363424 #
-1.0474859206077538065216003815294 1:-0.20481665 2:0.42116868 3:0.54341501 4:0.91466933 5:1.7666562 6:0.50140405 7:0.49578303 8:0.44014993 9:0.56771326 10:0.50206536 #
0.29830417666440028900964875901991 1:1.1432319 2:0.1174659 3:0.38644123 4:0.42546138 5:0.63836461 6:0.16771111 7:0.93912613 8:1.030987 9:0.027546631 10:0.4861885 #
-0.80514356856274904572501327493228 1:0.8065573 2:0.4552452 3:0.033658445 4:0.19790892 5:0.37025422 6:0.75713205 7:-0.043757185 8:0.80559504 9:0.72865897 10:0.93582249 #
0.73357882002009788813268187368521 1:0.5887894 2:0.2169881 3:-0.13497642 4:0.70675284 5:-0.14376184 6:0.56730551 7:0.72526813 8:0.7297489 9:0.91794574 10:0.26178157 #
0.29634049814865254246498693646572 1:1.0372417 2:1.0742573 3:0.45830697 4:0.1351428 5:0.94015485 6:0.0089523522 7:0.42458448 8:0.010718936 9:0.87976724 10:0.74387658 #
0.16102720446420698552358885535796 1:0.99837923 2:0.93252295 3:0.66819686 4:0.057446297 5:0.94226348 6:0.15764108 7:0.79523325 8:-0.046140525 9:0.82666516 10:0.034667823 #
-0.62612322009187604265889603993855 1:0.18626527 2:0.86369979 3:1.1226935 4:1.0837865 5:0.20106074 6:0.55340892 7:0.50730342 8:0.45627543 9:0.41106403 10:0.72723174 #
-0.30464895357665244812750415803748 1:1.3355429 2:0.20801981 3:0.50707024 4:-0.7911334 5:0.41426453 6:0.55796027 7:0.71372187 8:0.59388953 9:0.29975614 10:0.49352214 #
0.54493476523692008228749728004914 1:1.0573068 2:-0.095272183 3:0.20450957 4:0.51149935 5:0.60020953 6:0.060097843 7:-0.031127347 8:0.65000111 9:0.82788956 10:0.070568122 #
0.071198008572377166625066990945925 1:0.062928036 2:1.1485598 3:0.79792994 4:1.3818463 5:0.28748226 6:0.56129873 7:1.2130243 8:0.89933848 9:0.038215816 10:0.011019494 #
0.087821547505928021504217895198963 1:1.7347347 2:-0.18556213 3:0.81685144 4:1.5352281 5:1.3264941 6:0.24624358 7:0.033463955 8:-0.25195101 9:0.74603814 10:1.0188963 #
0.51337619145592106040254520848976 1:1.1546688 2:-0.044972271 3:-0.045948029 4:0.19838761 5:0.76793301 6:0.74683648 7:0.22945867 8:0.3721647 9:0.18893772 10:1.000563 #
-0.49500520531214708963574366862304 1:1.6555903 2:-0.29017675 3:1.1054145 4:0.052108407 5:0.26541978 6:0.70266515 7:0.82026625 8:0.24282008 9:0.54331315 10:0.35435167 #
0.16811184129541770215787721554079 1:1.1770886 2:0.89497375 3:0.88542676 4:0.55938858 5:0.56214631 6:0.044998728 7:0.53688425 8:0.74609005 9:0.52556378 10:0.94214654 #
-0.84398285993088906220549461068003 1:0.53299147 2:0.86754465 3:0.67310387 4:0.94359291 5:0.49373168 6:0.24462427 7:0.32375044 8:0.80317283 9:-0.14297555 10:0.62339002 #
-1.4765714130825353667120225509279 1:0.62561977 2:0.0861618 3:0.44020301 4:0.502909 5:0.49246207 6:0.82565206 7:0.80523467 8:0.46264061 9:0.90906608 10:0.41450647 #
0.73210353050773013805496702843811 1:1.0329046 2:-0.040038794 3:0.79082018 4:0.49452752 5:0.62559736 6:0.11331534 7:0.25024992 8:0.79883426 9:0.14120109 10:1.1517347 #
0.66172108466640555679560975477216 1:0.14893752 2:0.74111271 3:0.74815452 4:0.56055045 5:1.0187355 6:0.043070778 7:0.88374954 8:0.19095327 9:0.81197053 10:1.0481663 #
0.72921887950227548547132983003394 1:0.084604107 2:0.17684399 3:0.96158957 4:0.7300576 5:0.069450274 6:0.94486374 7:0.85855263 8:0.21104449 9:0.090195045 10:0.4776496 #
-0.55020171722408073300414343975717 1:0.57018381 2:0.036047947 3:1.1218394 4:0.62218475 5:0.78077376 6:0.21821591 7:0.4223249 8:0.62996095 9:0.78595436 10:0.70398605 #
0.94952189025668809474467479958548 1:0.22555272 2:0.15587597 3:0.21764816 4:0.17255819 5:0.98478627 6:0.14256661 7:1.0128595 8:0.83256984 9:0.62939161 10:0.23054491 #
0.49026586771784064211487930151634 1:1.0801796 2:0.36582941 3:1.1682458 4:0.75149685 5:0.15755241 6:0.11178412 7:0.23113738 8:0.26093283 9:0.7933256 10:0.77777553 #
0.60198830739898567809831320118974 1:0.62099648 2:0.67391157 3:0.10782189 4:1.0766214 5:1.2682668 6:0.82154912 7:0.72984678 8:0.19462815 9:0.95826185 10:0.71114641 #
-0.7140417360896950116355696991377 1:-0.012931877 2:0.94316608 3:0.68747407 4:0.34097368 5:-0.67075413 6:0.10268982 7:0.35118711 8:0.32549697 9:0.30828297 10:0.5762676 #
-1.3640275076175025770197635210934 1:0.83875149 2:0.31186002 3:0.35717615 4:0.50273466 5:0.7839092 6:0.52606726 7:0.066892058 8:0.84150672 9:0.57317233 10:0.37667111 #
-0.14339324873701289608796116681333 1:-0.38067362 2:0.60799801 3:-0.10747673 4:-0.034740914 5:0.18616484 6:0.2102036 7:0.060530651 8:0.44462284 9:-0.10745694 10:0.77748281 #
0.48884917991239007495352097976138 1:0.76995575 2:0.93761027 3:1.1824812 4:0.99202687 5:-0.17006585 6:0.11515397 7:0.20040034 8:0.098930165 9:0.23123313 10:0.69188672 #
-0.40501454213438803364510931714904 1:0.21910143 2:-0.08932209 3:0.73975724 4:0.20723481 5:0.67400831 6:0.34690908 7:0.71913797 8:0.13564545 9:0.44285932 10:0.070359163 #
-0.5415322966733713272446948394645 1:0.8898682 2:0.29089776 3:0.88473558 4:0.44753557 5:-0.2132061 6:0.571293 7:0.85973454 8:0.20113608 9:0.55447298 10:0.24785568 #
1.019051346232402455171950350632 1:0.2650969 2:0.57324135 3:0.21335055 4:0.63417399 5:-0.15992628 6:0.087199904 7:0.35210258 8:0.66095787 9:0.26855072 10:1.0866742 #
0.66687293685013593336208259643172 1:0.24035841 2:0.66652477 3:0.66408962 4:0.5001415 5:0.99824786 6:0.13490672 7:0.8396582 8:1.0711888 9:0.27604339 10:0.015845941 #
-0.5282818257609054324319686202216 1:0.97199571 2:0.47396144 3:-0.15082373 4:0.3705284 5:0.13659883 6:0.47966826 7:0.87977326 8:0.82111454 9:0.28293005 10:0.87630785 #
0.60452420141186935520494216689258 1:1.1813195 2:0.37395811 3:0.51635206 4:0.01964765 5:0.16542478 6:0.04181008 7:1.0166959 8:0.20392498 9:0.92147303 10:0.17208025 #
1.3704369739042987497157355392119 1:1.1127032 2:0.98529959 3:0.31236449 4:0.51374656 5:0.76517445 6:0.27896118 7:0.13300589 8:0.43298468 9:0.020746836 10:0.086998828 #
0.056032356259393782671462957978292 1:1.1309797 2:1.4367989 3:0.082508497 4:0.035923362 5:1.348165 6:0.59805298 7:1.003068 8:0.34891802 9:1.0988257 10:0.91473818 #
0.74429779404069440484903452670551 1:1.1141098 2:1.2574705 3:0.91857308 4:0.099122658 5:0.28930858 6:0.1432506 7:0.68679744 8:0.84908551 9:0.39060384 10:0.37001199 #
-0.77705647491461160569770072470419 1:0.43859446 2:0.87226182 3:0.28998259 4:0.739344 5:0.52863312 6:0.85726506 7:0.02021878 8:-0.036216769 9:0.201364 10:0.059015077 #
0.29463084371877656941762779752025 1:1.2482888 2:0.43195674 3:0.14418671 4:0.93824029 5:0.48041481 6:0.68721825 7:0.61217964 8:-0.155807 9:0.27007687 10:0.49858835 #
0.7742201871462974782645005689119 1:0.41519377 2:0.29620203 3:0.53807777 4:0.83162332 5:-0.13257976 6:0.12371985 7:0.91999871 8:0.60512346 9:0.83275437 10:0.92584842 #
0.53434846614022590838288806480705 1:-0.032510303 2:0.013847182 3:0.71201086 4:0.81165171 5:-0.24607693 6:-0.18007542 7:0.51243335 8:0.46192834 9:0.55543435 10:0.31499118 #
0.079894253991410882353996214533254 1:0.73858929 2:0.74042213 3:0.12213962 4:-0.19291185 5:0.75493324 6:0.15212372 7:0.60389757 8:0.4870266 9:0.41528904 10:1.1271137 #
0.18314278653318949441342056161375 1:0.88889492 2:0.959387 3:0.40143707 4:0.5959298 5:0.29459935 6:0.87437975 7:0.42498419 8:0.42723545 9:-0.059403583 10:-0.086703666 #
-1.2847666753006077300369724980555 1:0.84476548 2:0.1671672 3:0.22797735 4:0.86155576 5:0.3962132 6:0.72230381 7:0.27321813 8:0.62577713 9:0.73072827 10:0.74454856 #
0.63632357536976735801204085873906 1:1.0991894 2:-0.26737672 3:-0.19323967 4:0.38460097 5:0.35380682 6:0.41607821 7:0.97212875 8:0.39338923 9:0.2590299 10:0.85015541 #
0.34767171280290071200269608198141 1:0.78788167 2:0.66619235 3:0.85030174 4:0.71171176 5:-0.16019151 6:0.91733259 7:-0.062150195 8:0.80600446 9:0.9455505 10:0.74296534 #
-0.67954500998497735508863115683198 1:0.25625092 2:0.69102019 3:0.052253027 4:-0.045983005 5:0.30774835 6:0.1493537 7:0.68505383 8:-0.11574987 9:0.63298792 10:0.54917419 #
-1.0458079654265923785771974507952 1:-0.052626323 2:0.61216563 3:0.50112075 4:0.85089964 5:1.3403361 6:-0.096501708 7:1.4749892 8:0.59833252 9:0.75368142 10:0.35217157 #
-1.0006495694912096450224225918646 1:0.90221471 2:0.61265498 3:0.48882037 4:0.25742361 5:0.18946812 6:0.1933905 7:-0.090300404 8:0.27092439 9:0.68600541 10:0.87355655 #
0.45234454128836154573889416496968 1:0.22280456 2:0.72563028 3:0.77343863 4:0.83308542 5:1.0854537 6:1.0835942 7:-0.19865876 8:0.29298112 9:0.4678539 10:0.85563368 #
0.34294401129715124110219903741381 1:0.9297688 2:-0.077234507 3:-0.044194493 4:-0.17493427 5:0.38458005 6:-0.18535896 7:0.15932468 8:0.39818174 9:0.2931917 10:0.74492955 #
-0.67809048668014404448456389218336 1:-0.20491093 2:0.34602627 3:0.013513599 4:0.60948658 5:0.26213342 6:0.29849282 7:0.5344283 8:0.21225949 9:0.039026089 10:0.44548106 #
-0.21788773000856809236580602373579 1:1.0999606 2:1.4727827 3:0.19946688 4:-0.12788197 5:0.70232844 6:0.91112173 7:-0.18381661 8:0.068979114 9:0.19686331 10:0.85867012 #
0.15941971468432697411898857353663 1:0.14729853 2:0.68809325 3:-0.011622805 4:0.54390907 5:0.19978771 6:-0.10310093 7:0.12566899 8:0.29611278 9:0.84944117 10:0.16586661 #
2.1004872863626999901498493272811 1:0.91251028 2:0.94540578 3:0.54057664 4:0.32826415 5:0.68086845 6:0.36794505 7:0.39231193 8:0.56030178 9:0.39078388 10:0.67659271 #
0.815882892837056949986163090216 1:1.0694168 2:-0.16406564 3:-0.043571845 4:0.33726701 5:0.49002469 6:0.80999351 7:0.98387307 8:0.6286543 9:0.51015455 10:0.13345428 #
0.25041517335137630784203111034003 1:-0.11340387 2:1.4466212 3:0.18093567 4:0.83094728 5:0.31330767 6:0.66558576 7:0.97639376 8:0.3727116 9:1.1387457 10:0.75563139 #
-0.33713447011663394414782146668585 1:0.11969674 2:0.77581376 3:-0.039935157 4:1.1993976 5:-0.57490939 6:0.29179189 7:0.3831057 8:0.54691219 9:0.38788307 10:0.67461091 #
0.4135935867171395274866085856047 1:1.1515592 2:0.05735673 3:0.86416364 4:-0.024786752 5:0.95797253 6:0.75793207 7:0.92125601 8:0.65059012 9:0.81819099 10:0.97467017 #
1.1819735028399314114011531273718 1:1.1697304 2:0.73522627 3:0.33519888 4:1.0396656 5:0.60990518 6:0.11937807 7:0.44872063 8:0.86952144 9:0.74532199 10:0.19547158 #
0.74850371635682400039968342753127 1:0.37166992 2:0.19060779 3:0.060578246 4:1.1164826 5:1.1348987 6:0.89012057 7:0.39093313 8:0.79875785 9:0.038599633 10:0.70709378 #
-0.30750897779115154984097557644418 1:0.89412725 2:0.35428846 3:0.10126373 4:0.54835093 5:0.8430683 6:0.94534582 7:0.85569274 8:0.6390059 9:-0.091252953 10:0.56058693 #
0.070291262931976211669748977328709 1:0.65414125 2:-0.20150824 3:1.1073749 4:-0.62312061 5:-0.048416596 6:0.74304408 7:1.8397695 8:1.0889188 9:0.55070633 10:0.12680101 #
0.50405770306112118728236737297266 1:1.1749489 2:-0.007276522 3:0.79024398 4:0.42364776 5:0.36180681 6:0.40214732 7:0.75933188 8:0.70070118 9:-0.034153745 10:-0.1712659 #
-0.33359723363703563947524344257545 1:0.84116769 2:0.50787646 3:0.33290055 4:0.85631478 5:0.61214292 6:1.0266086 7:1.1574522 8:0.32768095 9:0.39919305 10:-0.13339634 #
0.49264315547033493691841954387201 1:0.21959925 2:0.55831641 3:0.99296075 4:1.0718457 5:1.1931573 6:0.83621228 7:0.24214083 8:1.068118 9:0.74377692 10:0.45280179 #
-0.76868922001986106362636519406806 1:0.58115405 2:0.57303971 3:0.60223681 4:1.1951243 5:0.39226118 6:1.0850462 7:0.30533585 8:0.43399045 9:0.8402189 10:0.092745416 #
-0.37630559370916200068180046400812 1:0.88167596 2:0.58321536 3:0.80909592 4:0.98192924 5:1.2909383 6:0.29389536 7:0.19607383 8:1.0593035 9:0.22640155 10:0.47913879 #
-0.36893957092421270083093531866325 1:0.67833084 2:0.7583797 3:1.1060518 4:0.30483246 5:0.91402239 6:0.61730427 7:0.78885466 8:0.97918403 9:1.1405935 10:0.77039504 #
0.21364743071303371468872001059935 1:0.91091704 2:0.18039408 3:1.0689926 4:-0.15083838 5:0.46999827 6:0.38203084 7:0.2894592 8:0.7142238 9:0.079995394 10:0.4455094 #
-0.31068354819604532268684238260903 1:0.28922343 2:-0.10177264 3:0.91186523 4:0.94764328 5:0.67428797 6:0.83652711 7:0.85877824 8:0.91570973 9:0.49142396 10:0.67490339 #
-0.53828341400738288768934580730274 1:0.64161342 2:0.94264084 3:-0.0011039992 4:0.91085976 5:0.35446301 6:0.85946208 7:0.084063828 8:0.87079817 9:0.26790717 10:0.11648098 #
-0.73704618804614630001026398531394 1:0.80333918 2:0.78974891 3:0.93080968 4:0.16304204 5:0.92522871 6:0.62692952 7:0.37179324 8:0.68132818 9:0.80348802 10:0.11692495 #
0.42710465837795952293021173318266 1:1.2862556 2:-0.16912384 3:-0.1348519 4:0.9954896 5:0.55348963 6:0.4856177 7:0.19679633 8:0.050706398 9:0.70227826 10:0.76757967 #
0.58349854398368727892432161752367 1:0.95321256 2:1.028782 3:0.18830535 4:0.12201017 5:0.83370954 6:0.62411624 7:0.40376425 8:0.44268134 9:1.1512617 10:0.56186122 #
2.4230020330615311685562573984498 1:0.42787704 2:0.48166147 3:0.57289559 4:0.86097467 5:-0.020661578 6:0.8741557 7:0.38819179 8:0.69882125 9:0.77897 10:0.49672672 #
0.87054059827299357099406051929691 1:1.1249301 2:0.022864943 3:0.703731 4:0.97912115 5:0.413739 6:0.56562561 7:1.005174 8:0.7296294 9:0.68543261 10:0.039241109 #
0.48263721449557761555837487321696 1:0.37317243 2:0.8167693 3:0.54299182 4:0.82762223 5:0.099593103 6:0.98316765 7:0.85689539 8:-0.18574688 9:0.6703496 10:0.29717883 #
-0.48855373366990106909213409380754 1:0.50004208 2:0.014010133 3:1.0988151 4:1.014855 5:0.94024014 6:0.49603266 7:1.0521531 8:0.03668379 9:0.58239579 10:0.28733078 #
0.63369179852319856838249734209967 1:0.25451544 2:0.70629305 3:0.26389998 4:0.64317369 5:0.057131253 6:0.080121636 7:0.66071898 8:0.31568769 9:1.2192754 10:0.9009884 #
0.52519107642168938454574345087167 1:1.0177293 2:0.83804452 3:0.49454385 4:0.90697378 5:0.64079875 6:0.95078683 7:0.92467231 8:1.0815496 9:0.42861164 10:0.75541389 #
0.45435714299105040003823319239018 1:0.56788164 2:1.0318966 3:0.5895645 4:1.0094305 5:0.087359615 6:0.52214211 7:0.87694681 8:0.6834076 9:0.25517398 10:0.88786286 #
-0.95729758113641272299076945273555 1:0.49515432 2:-0.018708376 3:0.34291857 4:0.60630363 5:0.48938397 6:0.60851079 7:0.71218222 8:0.28208226 9:-0.026169855 10:0.8634944 #
2.132370457312869227450846665306 1:1.1264842 2:-0.0031885314 3:0.83249301 4:0.69234562 5:0.55393815 6:0.5813958 7:0.48824701 8:0.17971788 9:0.36066952 10:0.384332 #
0.069438511142805608988837207107281 1:0.26075962 2:0.84336984 3:0.35565051 4:0.24397226 5:0.15186156 6:1.1136382 7:1.1556882 8:0.95973313 9:-0.22144894 10:0.079045504 #
-0.69470955468301154311916434380691 1:0.47536814 2:0.85559571 3:0.5709725 4:0.95329094 5:0.57248157 6:0.54155183 7:0.83812422 8:0.052704141 9:0.68633389 10:1.2524304 #
2.164351679111319093351539777359 1:1.0313506 2:0.22056662 3:0.70245796 4:0.66241151 5:0.61094964 6:0.3319357 7:0.29641694 8:0.468009 9:0.88011986 10:0.642003 #
0.64660534678881498305003105997457 1:0.93925571 2:0.96598077 3:0.11286914 4:0.35625488 5:0.8461659 6:0.96250713 7:0.34320211 8:0.79208255 9:0.10993391 10:0.54224962 #
0.43162652757906189160408416682913 1:1.1177622 2:0.5425989 3:0.30097347 4:1.0250465 5:0.68770742 6:0.064346306 7:0.57445365 8:0.60636258 9:-0.2571018 10:0.31659922 #
-0.89209454976082014354687999002635 1:0.41146675 2:0.56932032 3:0.48168877 4:-0.0059138378 5:0.64165211 6:-0.19756071 7:0.97557515 8:0.35251948 9:0.03477554 10:0.20942788 #
-0.40721024470218319946113183505076 1:0.63590699 2:0.43382367 3:0.85110599 4:0.12516738 5:0.64609522 6:1.0558872 7:0.8574819 8:0.21650787 9:0.46630934 10:0.88624752 #
0.14196828395335067685145702398586 1:0.26891774 2:0.46315962 3:0.018851066 4:1.027017 5:-1.3961142 6:1.3492584 7:0.33235651 8:0.39415246 9:0.63065022 10:0.27393639 #
1.0331357215161915963363981063594 1:0.13687445 2:0.84710497 3:0.54980773 4:0.66336775 5:0.10140305 6:0.23434845 7:0.3125785 8:0.95135027 9:0.20676613 10:0.67378849 #
0.53094429242790852629951814378728 1:0.33531496 2:0.57923847 3:0.20256798 4:0.61246514 5:1.1253951 6:-0.076575123 7:1.0384961 8:-0.16849492 9:0.38808867 10:0.068808317 #
0.45848821871737432953608504249132 1:1.0201248 2:0.14106701 3:0.87115085 4:0.001875593 5:0.72350031 6:0.8461957 7:0.31179422 8:1.0286331 9:1.1334659 10:0.1557304 #
0.45829981539564274006792743421101 1:0.28084967 2:0.25130782 3:0.15191899 4:0.56913418 5:0.17263401 6:1.0045151 7:0.85804313 8:0.05802938 9:0.84035856 10:0.079545774 #
-0.5783939900221123364687514367688 1:0.84200478 2:0.076606408 3:0.63156682 4:1.1525139 5:0.12505956 6:0.17276411 7:0.67140269 8:0.44037065 9:0.31699601 10:0.83530796 #
0.49668667680508088446700298845826 1:1.1633419 2:0.10081253 3:0.81850684 4:0.41220737 5:0.53268355 6:0.36796996 7:0.84429014 8:0.1012189 9:0.13088217 10:1.2202363 #
0.63902921170511162163307972150506 1:1.0895114 2:0.90231264 3:0.12697135 4:0.52820581 5:0.84295154 6:0.10240579 7:0.21222076 8:0.99215841 9:1.0730101 10:0.94880414 #
-0.30624595128996517923170017638768 1:-0.14793502 2:0.4586691 3:0.101641 4:1.2877417 5:1.1251987 6:1.4474075 7:0.23953472 8:0.48858756 9:0.662561 10:0.68495619 #
0.30748485150583143576952238618105 1:0.060829826 2:0.85467482 3:0.64997584 4:0.9978705 5:0.15831676 6:-0.086205654 7:0.20116858 8:-0.093406864 9:0.972606 10:0.20785543 #
-1.3521229218040331510053420061013 1:1.0194569 2:0.45223692 3:0.56896853 4:0.42075783 5:0.96071643 6:0.29335201 7:0.96694201 8:0.45701104 9:0.16768791 10:0.60389143 #
-0.68689677086546607753803073137533 1:0.33944416 2:1.1239676 3:0.096388802 4:0.11946812 5:0.34106922 6:0.88579309 7:0.45230195 8:0.050072886 9:0.80137938 10:0.20179784 #
-0.22192044450928183341176236353931 1:1.014349 2:-0.74036777 3:0.23381053 4:0.50519031 5:0.16746858 6:0.52304375 7:0.72999907 8:0.69179887 9:0.697155 10:0.43002203 #
-0.56689868438173063314167166026891 1:0.15576458 2:0.8059566 3:1.2364911 4:0.43950567 5:0.068583548 6:0.1518333 7:0.49497926 8:0.5805667 9:0.38853419 10:0.12992483 #
0.44091585276657507819209058652632 1:1.0811499 2:-0.085518591 3:0.99737382 4:0.12254532 5:-0.19426849 6:0.60455185 7:0.28020751 8:0.68831241 9:0.29709229 10:0.38357764 #
0.39200550974515552260513118199015 1:1.0528507 2:0.0054178759 3:0.49213049 4:0.4633415 5:0.70866179 6:1.032104 7:0.021702528 8:0.86256367 9:0.58783156 10:0.89075154 #
0.46445409612691801459760654324782 1:0.6459341 2:0.91094697 3:0.15107469 4:0.65567648 5:0.92297316 6:0.37530822 7:1.0142814 8:0.92903703 9:-0.10909014 10:0.40673086 #
-0.60407689697913957704855647534714 1:0.85254669 2:0.79024893 3:0.81381392 4:0.14458589 5:0.049575936 6:-0.080327384 7:0.80123222 8:0.50490481 9:1.0315772 10:0.50642991 #
-0.38389382694502666160119019878039 1:0.35360387 2:0.97221637 3:1.1421225 4:0.61362135 5:0.52054578 6:0.27882791 7:0.45541525 8:0.0046719681 9:0.45754209 10:0.80561006 #
0.18033520607516104194978368013835 1:1.1537066 2:1.0050014 3:0.22970062 4:0.34489492 5:0.6296804 6:0.94137836 7:0.25049558 8:-0.2222618 9:0.96657002 10:0.57038367 #
-1.1516487606958483169705687032547 1:0.7620877 2:0.4962655 3:-0.054346658 4:0.40105969 5:0.29471424 6:0.58916622 7:1.016522 8:0.47853866 9:0.34192953 10:0.20919345 #
0.3947460258032085000934330309974 1:0.87078112 2:1.0332786 3:0.11259294 4:0.13059084 5:0.25133914 6:0.2017331 7:0.79875433 8:0.1969665 9:0.071874574 10:0.99369252 #
0.61084513438648357919191766995937 1:0.47278994 2:0.22537792 3:0.1948763 4:0.94510043 5:0.072377816 6:1.0141571 7:0.99224401 8:0.62822759 9:0.86782306 10:1.0484875 #
-0.47195140123359252681822795238986 1:-0.051673595 2:0.51759744 3:1.0019132 4:0.95868647 5:0.16317093 6:0.62092799 7:0.4568117 8:0.28731146 9:0.67818171 10:0.09613844 #
0.248837492005214322432493645465 1:0.40927857 2:0.45241529 3:0.37809163 4:0.5229497 5:1.1666276 6:0.23568739 7:1.0203842 8:0.8069557 9:0.75619757 10:1.3833169 #
0.2352913200742533794684874237646 1:1.1499345 2:0.93237084 3:0.16553101 4:0.031838592 5:0.40511689 6:0.3456589 7:1.2222674 8:1.0074533 9:0.18425524 10:0.24276514 #
0.95849498022502810368195014234516 1:1.0451301 2:0.93298566 3:0.13656785 4:0.9686833 5:0.55300248 6:0.30933222 7:0.74545515 8:0.38953689 9:0.75250942 10:0.78559363 #
-0.46052388902036245355020582792349 1:0.034695435 2:-0.088186033 3:0.13464946 4:0.48878124 5:0.22481813 6:0.33502057 7:0.66011786 8:0.79438519 9:0.99594665 10:0.20116515 #
0.30790773553374406468208235310158 1:0.91935611 2:0.09142857 3:0.86355889 4:0.82062352 5:0.4676713 6:0.15137684 7:0.12626034 8:-0.063874632 9:0.93850625 10:-0.12434872 #
-0.32041558429758765225159322653781 1:0.87626708 2:0.54559898 3:0.78342015 4:0.58453643 5:0.24302967 6:0.30956203 7:0.27795085 8:-0.037436467 9:0.37384415 10:0.30761191 #
1.1850873360015417024015960123506 1:0.38517249 2:0.55719167 3:0.13693665 4:0.61076659 5:-0.19012071 6:0.045437951 7:0.56636149 8:0.73002869 9:0.86432528 10:0.28990105 #
0.70705867865867388921685687819263 1:0.31335849 2:0.30729041 3:-0.068928011 4:0.86516744 5:-0.09890382 6:0.68473649 7:0.46290135 8:-0.072513446 9:0.11806843 10:0.77108335 #
0.36636437152784478987754823720024 1:0.83143991 2:0.70971727 3:0.99901396 4:0.67288744 5:-0.12401334 6:0.0050876522 7:-0.10840026 8:0.75910109 9:0.40226716 10:0.20981319 #
1.1788152655707255789252485556062 1:0.29724994 2:0.47019148 3:0.49705002 4:0.9459815 5:0.17828003 6:0.92002475 7:0.90489721 8:0.76657432 9:0.20391119 10:0.72639871 #
-0.41916953639197213066225344846316 1:0.5872913 2:1.236501 3:0.3154262 4:0.6534301 5:0.54802448 6:0.16808613 7:0.6318174 8:1.0641893 9:0.30411315 10:0.71186113 #
-0.4739907651774083463536157978524 1:0.72649491 2:0.19299127 3:0.16408029 4:0.28865486 5:-0.039717771 6:-0.025692467 7:0.53405285 8:-0.084687307 9:0.83024561 10:0.55641675 #
0.56530590991992779592578699521255 1:0.36296183 2:0.8950581 3:0.22030523 4:0.7990365 5:1.1806769 6:0.80668592 7:0.4794811 8:-0.017761609 9:0.45933655 10:0.81745464 #
0.16011712246606263354564703149663 1:0.91081983 2:0.41852859 3:0.89034027 4:0.87013233 5:0.40122637 6:-0.13114306 7:0.4542236 8:-0.28864422 9:-0.16653223 10:1.0341049 #
0.39667213305653004074002865309012 1:0.27471811 2:0.7956956 3:0.31231767 4:1.2583063 5:1.063845 6:0.5189594 7:0.54560614 8:0.97456199 9:0.46445012 10:0.51511496 #
1.1292756242160515434136414114619 1:1.3420805 2:0.91083694 3:0.25281408 4:0.71876878 5:0.48920631 6:0.73332673 7:0.20435239 8:0.82255727 9:0.28973794 10:0.83336943 #
-0.61983905283584161960419578463188 1:0.70018703 2:0.51503897 3:0.0851551 4:0.49059537 5:1.1531348 6:0.13332833 7:0.27251124 8:0.17899007 9:0.64737189 10:1.0138419 #
-0.26464336493920470605445416367729 1:0.17060554 2:0.68356699 3:0.62391829 4:0.56550074 5:1.7252237 6:-0.21381885 7:1.309476 8:1.22884 9:0.11180665 10:0.51122814 #
0.64922811558230808515190801699646 1:0.97452742 2:-0.0043715606 3:0.75011766 4:0.16570368 5:0.45102125 6:0.56661218 7:0.35188055 8:0.14248276 9:-0.29138002 10:0.53795916 #
-0.25350633984563153422442383089219 1:0.31459233 2:0.83006692 3:0.65733135 4:1.052034 5:0.65667588 6:0.66713458 7:1.3689378 8:0.80872482 9:0.17211284 10:1.0064925 #
0.49868307391110922033305996592389 1:0.46579802 2:-0.090020046 3:0.25011861 4:0.82685995 5:1.2047366 6:1.0416578 7:0.81193107 8:0.39637986 9:0.65665436 10:0.72467065 #
-0.95537557030885411624154812670895 1:0.73038113 2:0.72252744 3:0.012872855 4:0.48681745 5:0.61480337 6:0.030812008 7:0.91920787 8:0.26674154 9:0.44290546 10:0.55203599 #
-0.25686914487723921940443005951238 1:1.0975965 2:0.33362192 3:0.23882054 4:0.70627159 5:-0.11281631 6:0.89710563 7:0.46680182 8:0.61758101 9:0.22759385 10:0.27426884 #
0.26907830917509950596766543640115 1:1.2394176 2:0.94421542 3:1.0750498 4:0.39794895 5:0.15693882 6:0.38932616 7:0.59196335 8:-0.36732116 9:0.31373355 10:0.29260156 #
-0.28275835299146101498024563625222 1:1.9729792 2:0.80120569 3:0.69710457 4:0.34018975 5:0.74047846 6:0.46156272 7:0.41700307 8:0.43777218 9:-0.011763914 10:0.25687906 #
-0.34525634314081121711836885879165 1:0.1762242 2:0.38946119 3:0.4701485 4:0.33259553 5:0.030402841 6:0.30006927 7:0.90740019 8:0.25465262 9:0.42042893 10:0.042410143 #
0.41848221529834062071273592664511 1:0.25649104 2:0.92200124 3:0.10776059 4:0.62195402 5:-0.10446706 6:1.0672911 7:0.1232782 8:0.035586607 9:0.19748247 10:0.083685577 #
-0.26703258714414029872941114263085 1:0.26111835 2:0.86647326 3:0.69859159 4:0.4785229 5:0.2478928 6:1.1159964 7:0.27592516 8:0.31600323 9:1.0236839 10:0.73190057 #
0.60454875962433296532338999895728 1:0.87593573 2:0.095662944 3:0.81342959 4:-0.18857445 5:0.24839735 6:0.56594682 7:0.91824448 8:0.047488321 9:0.72464353 10:0.74742162 #
0.14120142219119613535838198004058 1:0.85448992 2:0.26345682 3:0.75955379 4:-0.084987715 5:0.54393989 6:0.77477694 7:0.73080981 8:0.45882002 9:0.70935613 10:0.05566939 #
-0.53193788013590093122218149801483 1:0.48994216 2:0.52515846 3:-0.0051682661 4:0.060504723 5:0.49071795 6:0.54573405 7:0.030600356 8:0.95327187 9:0.090294592 10:-0.026880704 #
0.36674006797063080087539788110007 1:-0.032656427 2:0.99485075 3:0.21430157 4:0.44371948 5:0.13201706 6:0.35507995 7:0.38801309 8:0.77032721 9:0.65257227 10:0.063917756 #
-0.12808916882279738902461474481242 1:0.63488615 2:0.40532976 3:0.18980174 4:0.61904347 5:0.25423828 6:0.21505359 7:0.21282367 8:0.081734695 9:0.061411828 10:-0.049663715 #
0.4819562041590356726850075119728 1:0.52552605 2:0.45264226 3:1.0582914 4:0.84748155 5:1.0738207 6:0.94654858 7:-0.015077674 8:0.30259651 9:0.45501554 10:-0.11986448 #
0.6075455025532713326796852015832 1:1.1449001 2:1.046922 3:0.32639173 4:0.73046422 5:0.62323648 6:0.37609553 7:0.31979087 8:0.30770662 9:0.79427671 10:-0.17243101 #
-0.54622674743040822153972158048418 1:0.61947447 2:0.69016987 3:-0.11943536 4:0.94036412 5:0.50296652 6:0.64681518 7:0.45072812 8:0.60348582 9:0.27906662 10:0.97772652 #
0.22146769606682936704089570412179 1:1.076836 2:0.076635405 3:0.027592666 4:0.62858337 5:0.16182183 6:0.61932498 7:0.00069717132 8:1.0963368 9:0.17676146 10:0.59311074 #
-0.28014326386814653035983724294056 1:0.44892219 2:0.23260443 3:0.080456644 4:0.53963816 5:0.80305827 6:1.0276176 7:1.0480708 8:1.1065973 9:0.68599635 10:0.86599129 #
-0.25666638691660076387890399018943 1:1.609108 2:1.354995 3:0.12115941 4:0.60408998 5:0.15339261 6:0.35579869 7:0.058341146 8:0.59384453 9:0.2312718 10:0.56772119 #
-0.0078351099145819481928132432813072 1:0.21850143 2:1.1673119 3:0.98185575 4:0.79629451 5:0.068316959 6:0.68382627 7:-0.064303398 8:0.49401426 9:0.43053344 10:0.18270697 #
-0.52677511663462828206405674791313 1:0.80659795 2:0.54482543 3:0.5174703 4:0.9576425 5:0.42558697 6:0.17268026 7:1.174152 8:0.68400139 9:0.024020866 10:0.64903748 #
-0.26931611972918739761340134464263 1:1.576661 2:1.1986859 3:0.12198419 4:-0.40113238 5:0.55648041 6:0.75711715 7:0.72776294 8:0.31879714 9:0.86584312 10:0.55552489 #
-0.71997671357589254625963803846389 1:-0.22890159 2:0.7216928 3:0.3232871 4:0.83767277 5:0.54321474 6:0.27440909 7:0.92867738 8:1.0796067 9:0.20381498 10:0.32971278 #
0.44016256381670976205455758645257 1:0.70089525 2:0.71163583 3:0.58694363 4:0.96290553 5:1.2704791 6:-0.11583413 7:0.95352906 8:0.22672206 9:0.76888996 10:0.80669457 #
0.1351142740899488325911903530141 1:0.95647603 2:0.67573184 3:0.6859138 4:0.34815955 5:0.20874938 6:0.79751551 7:0.99141163 8:1.3212439 9:0.55717462 10:0.21796231 #
0.42690967847322641715024360564712 1:1.0935398 2:0.36308205 3:0.73940736 4:0.71329075 5:0.28428343 6:0.020362208 7:0.77647263 8:0.59295011 9:0.96298426 10:1.0035385 #
0.74104136279192889258382592743146 1:1.1995856 2:0.99568468 3:0.5852223 4:-0.17361391 5:-0.00074823794 6:0.72332579 7:0.26353112 8:0.23772684 9:0.70582604 10:0.76398498 #
0.46708546396095157460237601299013 1:1.157946 2:-0.051681411 3:0.50447387 4:0.12894537 5:0.02550336 6:-0.10574415 7:1.0776893 8:0.014142198 9:0.21702985 10:0.59457964 #
-0.47148487493412383209090421587462 1:0.73671645 2:0.44798738 3:0.69610202 4:0.32205904 5:0.29830119 6:-0.041670397 7:0.38064498 8:0.97973812 9:0.23777846 10:0.91876632 #
-0.52128399078341403072300863641431 1:0.69140595 2:0.46014237 3:0.5930751 4:0.014827388 5:0.97424692 6:0.31686321 7:0.73046476 8:-0.011459815 9:0.5876385 10:0.94066006 #
0.45975616815448916430142389799585 1:0.89519167 2:0.78914845 3:1.0059165 4:0.9713285 5:-0.0079192454 6:1.0914146 7:0.3640869 8:0.89944166 9:0.28317156 10:1.1587852 #
-0.37477255120298741397633079941443 1:0.57962334 2:0.30975404 3:-0.077407792 4:1.2591041 5:0.75494748 6:0.32428765 7:1.1447115 8:0.55933243 9:0.69305348 10:0.6520251 #
0.70631038540365054245739884208888 1:0.5287109 2:0.47614524 3:0.43360344 4:0.83567631 5:-0.33320865 6:0.10003673 7:0.36430681 8:0.18945499 9:0.82424736 10:0.81078386 #
0.19450465964221355652519207524165 1:0.68306214 2:0.46369344 3:0.33514205 4:0.70253479 5:1.284833 6:0.33149901 7:1.1338962 8:0.19102447 9:-0.22063437 10:0.59122145 #
0.57453307700553069015114715512027 1:1.0026715 2:0.77963227 3:0.23902155 4:0.31984276 5:0.86429805 6:0.46490529 7:-0.020328647 8:0.21053165 9:1.0250741 10:1.144084 #
-0.33712058046007575828895141967223 1:0.52575409 2:0.88452739 3:-0.2449775 4:0.16535392 5:1.103475 6:0.92145908 7:0.92740601 8:0.51930225 9:0.50257039 10:0.37481633 #
0.67289158661442816100617392294225 1:1.0367217 2:0.09786161 3:0.70999509 4:0.09475214 5:0.20184076 6:-0.11055344 7:0.52261257 8:0.75510025 9:0.21317497 10:0.22406986 #
0.47776872569260242507027669489617 1:1.0845258 2:-0.0051613525 3:-0.16207859 4:0.74025941 5:0.69738573 6:0.16973539 7:0.5997625 8:0.76680541 9:0.65229523 10:0.99308896 #
-0.38886224733033847300589513906743 1:0.42447165 2:1.1762894 3:-0.090147421 4:0.2335065 5:0.95950717 6:0.45915499 7:0.26857093 8:0.72578257 9:0.43289265 10:0.78271699 #
-0.63845746324219232459284967262647 1:0.320041 2:0.87478399 3:0.60452235 4:0.024077671 5:-0.091112942 6:0.75251573 7:0.24241455 8:0.48804918 9:-0.056669094 10:0.39981103 #
-0.15640517699442335608495113774552 1:0.93750328 2:1.3321441 3:-0.24342752 4:0.42318863 5:-0.0052921856 6:0.34288818 7:0.21203823 8:0.5795548 9:0.39228824 10:0.084225073 #
-0.54006196643627635278761545123416 1:1.8053455 2:1.0205332 3:0.11299826 4:0.46694019 5:0.78829277 6:0.75969315 7:0.34951052 8:0.81081283 9:0.35942143 10:0.96515447 #
-0.69800804239457858724193783928058 1:0.74382651 2:0.68243581 3:0.83316123 4:0.27554828 5:-0.040251046 6:0.54911715 7:-0.034419946 8:0.70193809 9:0.81035632 10:0.39534152 #
1.9674562783708735569376813145936 1:0.27341917 2:0.65094358 3:0.38654074 4:0.61097217 5:0.091140136 6:0.23965013 7:0.04566735 8:0.44941807 9:0.21201639 10:0.35463423 #
-0.78160784595077070768809335277183 1:0.89764005 2:0.64415151 3:0.0062391795 4:0.7951622 5:0.412422 6:-0.13946088 7:0.41906852 8:0.71181929 9:0.61185235 10:0.63761556 #
0.47561702626948759720093562464172 1:1.0164971 2:0.92209554 3:0.20242673 4:1.416708 5:0.74480993 6:0.4542253 7:0.33402279 8:0.33099967 9:0.15170401 10:0.70156538 #
0.4008368224262557899528758298402 1:0.89412487 2:1.0341707 3:0.18910962 4:0.81220984 5:0.63151705 6:-0.16199127 7:0.15994503 8:0.94166893 9:-0.03287435 10:0.99617374 #
-0.53395115436031170830233349988703 1:0.71380395 2:-0.034364562 3:0.084573008 4:0.20460182 5:0.10181434 6:0.25081855 7:0.44883388 8:0.74182653 9:0.79034948 10:0.70490336 #
0.35115403637192715846637725007895 1:1.0437748 2:0.68603218 3:0.22994947 4:0.044218812 5:0.24764852 6:0.79213601 7:0.2354746 8:0.12632191 9:0.74384892 10:0.37627301 #
0.30125612037885096672340523582534 1:-0.17755114 2:1.3612775 3:0.18112412 4:0.77879697 5:0.19110091 6:0.70955682 7:-0.050103467 8:0.13405916 9:0.61023408 10:0.6463685 #
0.36557492698623927918077924914542 1:0.10542706 2:0.76935393 3:1.1541461 4:-0.16927367 5:0.17213826 6:0.976946 7:0.81927478 8:0.27600473 9:0.58197314 10:0.27891299 #
-0.37152207142095239333912104484625 1:1.2174829 2:-0.10328577 3:0.62258208 4:0.75070339 5:-0.27841455 6:0.41431087 7:0.53582728 8:0.52138817 9:0.57143319 10:0.55271965 #
-0.052773160568990021279667246290046 1:1.1850941 2:0.45141223 3:0.84037685 4:1.1186949 5:1.2495182 6:0.23018995 7:0.74492359 8:0.254388 9:0.47595283 10:0.098926589 #
-1.9229377996757544000416828566813 1:0.80280912 2:0.35737723 3:0.54162234 4:0.65226084 5:0.47138798 6:0.48383933 7:0.79688615 8:0.017021479 9:0.61331779 10:0.60703248 #
-0.41343702944420590572605078705237 1:0.30580923 2:0.77602845 3:0.45164368 4:0.8104077 5:-0.68440765 6:0.82719469 7:1.1514084 8:0.5482794 9:0.37099174 10:0.68845576 #
-0.55026962497277842611964615571196 1:1.5995079 2:-0.61458522 3:0.4040466 4:0.21158151 5:0.63810915 6:0.4237369 7:0.33940098 8:0.54863155 9:0.20906115 10:0.40376335 #
0.50623712537485199280951064793044 1:0.99829233 2:0.11592887 3:0.647412 4:0.67992103 5:0.55551136 6:0.50682789 7:0.51306981 8:1.0178709 9:0.30049875 10:0.11757132 #
-0.18285588170978972488711633559433 1:-0.41155633 2:0.64443862 3:-0.056721352 4:0.42732856 5:1.1073565 6:0.96866244 7:1.048237 8:0.60064024 9:0.25112671 10:0.0020422437 #
0.84290370675063086558509439782938 1:0.35912192 2:0.36307845 3:0.51061153 4:0.88911623 5:-0.045703582 6:0.45499098 7:0.78445625 8:0.032975189 9:0.54328167 10:0.36441559 #
-0.39905972063566363949860260618152 1:0.25730023 2:0.90477663 3:0.61587286 4:-0.079265788 5:1.1743534 6:0.0075439992 7:0.64409047 8:0.59910297 9:0.44630468 10:0.68538773 #
-0.48417270208307239265366206382168 1:0.702398 2:-0.13383065 3:0.595209 4:0.52544594 5:1.3359671 6:0.39203566 7:0.52496171 8:0.82432312 9:0.60143399 10:0.85756552 #
2.7527594762460063648745745013002 1:1.0905031 2:0.82332808 3:0.43928185 4:0.16667305 5:0.40125754 6:0.33494574 7:0.69001949 8:0.65217626 9:0.76189089 10:0.47528782 #
0.036900513628242488650688102325148 1:1.3268533 2:0.015693927 3:0.43685406 4:0.90976244 5:0.55259573 6:0.24654333 7:0.14102349 8:0.26987252 9:1.1990861 10:0.90830523 #
0.64363810006858412915420331046334 1:0.46290025 2:0.65981436 3:0.42361903 4:0.91693944 5:-0.016466027 6:0.88811511 7:0.28067613 8:0.46471074 9:0.8274681 10:-0.27694726 #
0.38573281227548172900299050525064 1:-0.45892262 2:0.47109231 3:0.47674617 4:1.0330746 5:2.2301235 6:0.41799167 7:0.57546198 8:0.38621888 9:0.61963844 10:0.32386506 #
-0.50119791068434105252293875309988 1:-0.0033253105 2:0.73668587 3:0.4015013 4:0.35700172 5:0.16594031 6:0.80708551 7:1.0085348 8:0.62296903 9:0.55591649 10:0.87351888 #
-0.1655224969521370548264371791447 1:1.7775739 2:0.55550992 3:0.37242356 4:0.078474842 5:0.38639742 6:1.169387 7:0.85433811 8:0.70698702 9:0.49027559 10:0.18950725 #
0.20275674257084472240642014639889 1:1.437351 2:1.8439308 3:0.64341462 4:0.43592021 5:-0.17650521 6:0.30907986 7:0.99166757 8:0.41945142 9:1.1190511 10:0.86026353 #
0.67062445938586723315211202134378 1:0.99542868 2:1.0437663 3:0.1164784 4:0.21906036 5:0.57476383 6:1.080985 7:0.73252159 8:0.50197011 9:0.81369138 10:0.61619395 #
0.27272193151712731395974742554245 1:2.3044205 2:1.0857954 3:0.087507583 4:0.49222961 5:0.90759623 6:0.81286645 7:0.32668439 8:0.82387227 9:0.37941858 10:1.1478763 #
0.2398794860435803089071526983389 1:1.3042111 2:0.7434994 3:0.82211369 4:0.19753048 5:-0.25608331 6:0.72682524 7:1.0557985 8:1.1220238 9:1.0366949 10:0.65793884 #
0.2426388604082988231791517819147 1:0.79171348 2:0.54090458 3:0.96922678 4:0.68438935 5:-0.11417545 6:0.82741392 7:0.04517911 8:-0.012335688 9:-0.015563044 10:0.56338686 #
0.43806223560958890139716004341608 1:0.30531108 2:0.77620602 3:1.2406259 4:0.8958348 5:1.1677295 6:0.84254301 7:0.75468814 8:0.45757622 9:0.15152001 10:0.29936758 #
0.71862461859705351052696187252877 1:1.0516715 2:-0.11477938 3:0.29444274 4:0.50790489 5:0.2749047 6:0.85591376 7:0.22432731 8:0.86603957 9:0.87069571 10:0.11844376 #
-0.54529272832449382502062462663162 1:0.79747766 2:0.34379214 3:-0.051481977 4:0.40163037 5:0.43696055 6:0.94221509 7:0.23582038 8:-0.0039018444 9:0.48144892 10:0.64169389 #
0.41523735562154456824046633300895 1:1.0170102 2:0.21760456 3:0.94938481 4:0.84735537 5:0.72029161 6:0.41179648 7:-0.2549932 8:0.98191148 9:0.47381273 10:0.503295 #
-0.67360399171151563724180277858977 1:0.68874425 2:0.56722116 3:1.1416159 4:0.68833023 5:0.5814091 6:0.77255726 7:1.0109453 8:0.53234464 9:0.044745483 10:0.53997368 #
-0.12509960920102086712191180595255 1:-0.51346838 2:0.40443447 3:-0.21331923 4:0.43016368 5:-1.5171715 6:0.37113631 7:0.62697941 8:0.21846722 9:1.0963182 10:0.72109669 #
-0.18128434749231500666688532419357 1:0.31848893 2:0.25397393 3:-0.15065527 4:0.43398026 5:0.25222999 6:0.90194696 7:0.11732949 8:0.62810969 9:1.0351527 10:1.1664072 #
0.94090547839596250234706076298608 1:0.18130176 2:0.19487222 3:0.0022435449 4:0.46452644 5:0.97064054 6:0.045906931 7:0.83098966 8:0.18165521 9:0.45041734 10:0.66988146 #
-0.14961482958655505925982254211704 1:-0.28167424 2:0.983634 3:0.19693244 4:0.49794647 5:0.21706504 6:0.28922072 7:-0.31900784 8:0.4334909 9:0.43165234 10:0.61459678 #
-0.5784446798889354424133557586174 1:0.35463798 2:0.62004238 3:0.29220659 4:1.249637 5:0.34454519 6:0.3261424 7:0.18740492 8:0.91416842 9:0.99873054 10:0.72345191 #
