SVM-light Version V6.20
2 # kernel type
3 # kernel parameter -d 
0.4 # kernel parameter -g 
1 # kernel parameter -s 
1 # kernel parameter -r 
empty# kernel parameter -u 
16 # highest feature index 
21 # number of training documents 
1001 # number of support vectors plus 1 
0 # threshold b, each following line is a SV (starting with alpha*y)
-3.9647149611986649553330153139541 1:0.9472003 2:0.60676223 3:-0.14804308 4:0.88311321 5:-0.015315565 6:0.59105074 7:0.67455256 8:0.42507112 9:0.49754477 10:0.72672307 11:-0.19765429 12:0.86274606 13:0.67509633 14:0.45659587 15:0.54384714 16:0.48475921 #
-15.298958665111682009296600881498 1:0.42813107 2:0.46492881 3:0.61558753 4:0.42619243 5:0.60576707 6:0.4732793 7:0.26205304 8:0.58712006 9:0.50233912 10:0.47760755 11:0.59398192 12:0.42270523 13:0.46326017 14:0.50900286 15:0.48618886 16:0.50206381 #
-2.3080584009477145279731757909758 1:0.5853554 2:0.64302832 3:0.33331811 4:0.69152093 5:0.27632776 6:0.42734045 7:1.218004 8:0.22544153 9:0.49365827 10:0.40219328 11:0.41746321 12:0.45027292 13:0.64044094 14:0.49410254 15:0.48442408 16:0.4823091 #
10.181343263707130830653113662265 1:0.71586043 2:0.25218886 3:0.14999056 4:0.3861073 5:0.58400035 6:0.4222036 7:0.062990695 8:0.66348451 9:0.51282179 10:0.87586242 11:-0.24032614 12:0.70087957 13:0.40359813 14:0.47609028 15:0.5180124 16:0.50486499 #
1.2267466969277234234425577596994 1:0.58707744 2:0.10783878 3:0.36520821 4:0.083089456 5:0.80314296 6:0.4498207 7:1.1991876 8:0.27223438 9:0.50716406 10:0.85387897 11:0.26754788 12:0.75147045 13:0.81812286 14:0.45149875 15:0.50471419 16:0.48164907 #
-0.29670607406945187500824090420792 1:0.78289175 2:0.64467418 3:0.51728636 4:0.83570832 5:0.19355753 6:1.1640413 7:0.23822503 8:0.60718882 9:0.46485233 10:0.68742555 11:0.67098993 12:1.011631 13:1.1029235 14:0.47422028 15:0.59784424 16:0.46080235 #
1.6632182611831203278285329361097 1:0.36380726 2:0.71362048 3:0.49420607 4:0.7686103 5:0.71161819 6:0.73259747 7:0.44183859 8:0.45549712 9:0.39740065 10:0.72110385 11:0.0046126461 12:0.95363641 13:1.0135275 14:0.67818105 15:0.62710166 16:0.45909983 #
0.14429290059777225008197376610042 1:0.47693795 2:1.1895596 3:0.10533357 4:1.1855844 5:0.064318836 6:0.29338053 7:0.093111783 8:0.55426162 9:0.40587106 10:0.13796441 11:0.14509496 12:0.32235792 13:0.27996379 14:0.76296568 15:0.54572076 16:0.50596094 #
-0.40965304957473186453498215087166 1:1.2172065 2:0.271065 3:-0.089903168 4:0.35335723 5:-0.031752452 6:0.47818831 7:0.34654555 8:0.66221881 9:0.5773074 10:0.37701097 11:0.57761812 12:0.15569799 13:0.1621713 14:0.38158375 15:0.41251302 16:0.55638766 #
0.84748784315581937587325001004501 1:0.43687966 2:-0.060660195 3:0.5824005 4:0.78984708 5:-0.064170197 6:0.57290512 7:0.60393471 8:0.48960689 9:0.75362062 10:0.8096568 11:0.12742698 12:0.68501979 13:0.38303524 14:-0.16853431 15:0.35319316 16:0.48190105 #
0.30790020056188788233342279454519 1:-0.23074766 2:0.24762017 3:0.0043676919 4:0.84448457 5:0.3599143 6:-0.061242793 7:0.74138236 8:0.31221598 9:0.47005582 10:0.5714274 11:0.048446432 12:0.65156376 13:0.34065023 14:0.63833916 15:0.59160042 16:0.59551686 #
-0.31256390084386864725018995159189 1:0.54040152 2:0.42175114 3:0.32473171 4:0.84531456 5:-0.086296655 6:-0.096136607 7:0.47760999 8:0.54494983 9:0.44135639 10:0.99026811 11:0.60416508 12:1.0811893 13:0.57763112 14:0.71443796 15:0.67120332 16:0.60897911 #
2.2347180700488329385677843674785 1:0.69508672 2:0.70055896 3:-0.06917455 4:0.32094762 5:0.85022086 6:1.0027918 7:0.73310012 8:0.26283878 9:0.54684836 10:0.33689952 11:-0.16445215 12:0.21424685 13:0.16013336 14:0.1341496 15:0.29378593 16:0.40433449 #
2.2289671459606124059860121633392 1:0.23924787 2:-0.24159554 3:0.92687929 4:0.30070168 5:0.47236389 6:0.23938477 7:0.13028322 8:0.7972734 9:0.61253709 10:0.85195577 11:0.15184028 12:1.0649741 13:0.93304676 14:0.58137161 15:0.64287913 16:0.41628778 #
-1.5263103984186456862914837984135 1:0.81522942 2:0.15665635 3:0.57473797 4:0.52506548 5:0.055175327 6:0.42132631 7:0.62509239 8:0.76402503 9:0.66425973 10:0.010114878 11:-0.12577866 12:0.38553482 13:0.88318098 14:0.87922853 15:0.6439991 16:0.18865849 #
-2.0249230536152129644733577151783 1:0.72348666 2:0.58037406 3:0.28076172 4:0.14061135 5:-0.0011891982 6:0.6424731 7:-0.49178907 8:0.71944565 9:0.37157509 10:0.20885883 11:0.074862994 12:0.93811923 13:0.7555126 14:0.52642429 15:0.56468838 16:0.62549657 #
1.6481830646058757139371664379723 1:0.98170382 2:1.2192365 3:0.0074249315 4:0.11789674 5:0.63626242 6:0.20533714 7:0.45007014 8:0.24350938 9:0.32998729 10:0.27037287 11:0.20458755 12:1.0257287 13:0.69559199 14:0.55823046 15:0.50989425 16:0.47692856 #
-0.82878971839596837778429971876903 1:1.263069 2:0.36587396 3:0.37769774 4:0.59305602 5:0.51683342 6:0.031962138 7:0.52213174 8:0.6648075 9:0.91389608 10:0.60311335 11:0.3489078 12:0.80260533 13:0.71488291 14:0.13885504 15:0.43534625 16:0.010529747 #
-0.93300988887912961189385896432213 1:0.62710804 2:0.93414366 3:0.33015049 4:0.21929505 5:0.3290433 6:-0.29627547 7:0.69185781 8:0.8702417 9:0.62674701 10:0.81855398 11:-0.10902409 12:0.57296592 13:1.0156237 14:0.5895645 15:0.46817005 16:0.54540348 #
-1.9838679675610328967394480059738 1:0.65223616 2:0.63204437 3:0.13620107 4:0.6160264 5:0.40029463 6:0.57291627 7:0.79672867 8:1.0508032 9:0.42766055 10:1.1598686 11:0.23511001 12:0.11734793 13:0.57760501 14:0.70945895 15:0.44793004 16:0.96919715 #
-0.45671935591020440536880187210045 1:0.23781954 2:0.80531633 3:0.42325497 4:0.63542408 5:0.10779772 6:0.13093244 7:0.16496983 8:-0.0091262497 9:0.71291167 10:0.41106632 11:0.0079891393 12:0.86512387 13:0.69369739 14:0.21003643 15:0.54692227 16:-0.15099886 #
-0.087686117216500575333171241254604 1:0.8604005 2:0.91202211 3:0.3125411 4:1.1653075 5:-0.34975135 6:0.98481429 7:0.58414155 8:0.48158342 9:0.59367543 10:0.2897816 11:0.86231589 12:-0.23255667 13:0.6059255 14:0.37608695 15:0.38570017 16:0.38945696 #
-1.4396926427348850641152466778294 1:0.58360946 2:0.44011182 3:0.29491594 4:0.92897773 5:0.48992348 6:0.78676105 7:0.36707273 8:0.57169288 9:0.85020393 10:0.88435972 11:0.046422224 12:-0.18157049 13:0.93152052 14:0.34742108 15:0.36384067 16:0.015641056 #
-1.1526401246059325700343833887018 1:0.76162481 2:0.54048669 3:0.42658621 4:0.45237094 5:0.2054811 6:0.76092958 7:0.50921792 8:-0.10617767 9:-0.093826406 10:0.68431288 11:0.23634404 12:0.84435427 13:0.25656393 14:0.45265701 15:0.56403464 16:1.126336 #
-1.618688386955248414977859283681 1:0.23992743 2:0.62162161 3:-0.21013796 4:0.80954438 5:0.26880783 6:0.56097478 7:0.20489967 8:0.97610009 9:0.93189728 10:0.96626568 11:0.6522513 12:0.75753736 13:0.33014569 14:0.34509221 15:0.50239187 16:0.14609063 #
-2.2912540999378601114244702330325 1:0.64259714 2:1.1233301 3:-0.063777789 4:0.48374674 5:0.96203327 6:0.16499759 7:0.026835022 8:0.31953484 9:0.37888181 10:1.1368181 11:0.21710075 12:0.15186359 13:0.43051639 14:0.28777236 15:0.38956898 16:0.52734822 #
-1.2287695529001396721469063777477 1:0.53586149 2:0.30448222 3:0.17994669 4:0.87831539 5:0.68555045 6:1.0398675 7:0.69426048 8:0.66854346 9:0.66994154 10:0.43246073 11:0.3033883 12:1.2906566 13:0.13681646 14:0.26294449 15:0.49044478 16:0.64930677 #
2.1949098932795263472428359818878 1:0.097653255 2:-0.13517287 3:0.29841572 4:1.134287 5:-0.12531133 6:1.168919 7:0.42345536 8:0.51960343 9:0.21843849 10:0.47940135 11:0.31440154 12:0.53350556 13:0.49445698 14:0.8308692 15:0.66650283 16:0.55180031 #
0.54639729051322272201929308721446 1:0.87475634 2:0.48739588 3:0.25976878 4:0.62871039 5:-0.011578346 6:-0.24589607 7:0.48662338 8:0.14213566 9:0.2589865 10:0.50830746 11:-0.0056706024 12:0.0065490021 13:0.54337311 14:0.16512634 15:0.403088 16:0.92771935 #
-2.8196246146140415689274050237145 1:0.93278897 2:0.18551707 3:0.16865358 4:1.1508937 5:0.5601514 6:0.49385011 7:0.018955139 8:0.17536013 9:0.1834463 10:-0.030499188 11:0.36433646 12:0.63791835 13:0.70075762 14:0.38762596 15:0.52511817 16:0.36681727 #
2.0421572181376368426697354152566 1:1.0772238 2:1.2534701 3:0.086101271 4:1.1080329 5:0.055649381 6:0.41460136 7:0.59939367 8:0.50930965 9:0.57620662 10:0.33622214 11:1.1460569 12:0.85971028 13:0.39746615 14:0.43867412 15:0.41419485 16:0.56521416 #
1.1490415259636859168779210449429 1:0.75214487 2:-0.043389857 3:0.56500024 4:0.5939222 5:0.58595836 6:0.28931114 7:0.5329845 8:-0.27075049 9:0.15375577 10:0.84629238 11:-0.032230195 12:0.72040248 13:0.35395569 14:0.53254622 15:0.83634067 16:-0.021086581 #
-2.6762328715876035900578244763892 1:0.88247406 2:0.92171532 3:0.073160805 4:0.96562326 5:0.29906878 6:0.78919131 7:0.53520232 8:0.001472991 9:0.36856529 10:1.0882337 11:0.42492583 12:0.81748801 13:-0.14928298 14:0.45679566 15:0.54883182 16:0.11782512 #
-2.779223015616621772494454489788 1:0.87883544 2:0.15475346 3:0.25300044 4:0.72283983 5:0.56983453 6:0.34436649 7:0.64127249 8:1.0320308 9:0.27853116 10:0.10726 11:0.26024458 12:0.68232948 13:0.93692231 14:0.64869809 15:0.38095969 16:1.2175894 #
3.1924087330235026982450108334888 1:0.60477519 2:0.44398603 3:0.42789683 4:0.97022277 5:1.3185145 6:0.17315486 7:0.67277026 8:0.33869138 9:0.31091592 10:0.9458589 11:-0.093630359 12:0.98740065 13:0.58976781 14:0.033089604 15:0.29158893 16:0.8231889 #
0.019087218595024865730458429879945 1:0.75872654 2:0.56062186 3:0.070974477 4:0.47624511 5:0.1078718 6:0.76383376 7:0.41271394 8:0.22819032 9:0.52491635 10:0.56119555 11:0.18331333 12:0.097762957 13:0.053509384 14:1.2629446 15:0.78744102 16:0.11990245 #
-0.38053446236482624254193751767161 1:1.1564288 2:0.35397428 3:0.50125426 4:0.078391105 5:0.40136078 6:1.0873291 7:0.49160942 8:0.69799531 9:0.45759705 10:0.71790314 11:0.20345196 12:1.0623077 13:0.56645209 14:0.67661864 15:0.71593958 16:-0.16743633 #
-0.3642585861637374633481556429615 1:0.60226941 2:1.0075756 3:0.14066823 4:0.53228158 5:0.47027975 6:0.4062646 7:0.788706 8:1.0830436 9:0.46693882 10:0.42484641 11:0.30536333 12:0.76004887 13:0.3324607 14:0.36226225 15:-0.30603036 16:0.30800614 #
-0.39563289871231122063477414485533 1:0.91189206 2:0.72237957 3:0.17717247 4:0.5884276 5:0.066837184 6:0.058995143 7:0.57392687 8:0.3679032 9:0.084067635 10:0.82194579 11:0.45631042 12:0.35962036 13:0.63379526 14:1.0284052 15:0.058237225 16:-0.22800353 #
-0.69786883029055035709831145140924 1:0.76468545 2:0.31092763 3:0.26079968 4:0.56284142 5:0.65823168 6:0.87736374 7:0.10554386 8:0.17000288 9:1.2341959 10:0.22955239 11:0.11349241 12:0.8001489 13:0.36585212 14:0.19597752 15:1.0889225 16:0.44286528 #
-0.25634887775492226635876136242587 1:0.39467153 2:0.90369415 3:0.55826795 4:0.85804838 5:0.19273539 6:0.46347824 7:0.1649496 8:0.68956298 9:0.52539784 10:0.68711537 11:0.087205596 12:0.48584113 13:0.83335322 14:-0.22393699 15:0.64676589 16:1.033947 #
0.90178057242736553433815060998313 1:0.82536066 2:0.64393306 3:-0.00077800156 4:0.90313733 5:0.29214865 6:1.1502343 7:-0.30091196 8:0.5485661 9:0.061177924 10:0.55710489 11:0.35806388 12:0.31697944 13:0.26649076 14:-0.22007054 15:0.46614856 16:0.61631954 #
-1.0390163273106622909836005419493 1:0.69080955 2:-0.0084140496 3:-0.083840996 4:0.43386844 5:0.39426926 6:0.70526326 7:0.55026716 8:0.53462631 9:-0.076475091 10:0.84390664 11:0.42212418 12:0.35554808 13:1.0814923 14:0.14570172 15:0.66340214 16:0.46547821 #
1.5975283065010372762770884946804 1:0.41453227 2:0.65868378 3:0.1478495 4:0.99136794 5:-0.10129742 6:0.33670676 7:0.70604223 8:0.93787384 9:-0.26824149 10:0.34817198 11:0.12801623 12:0.54354197 13:0.72561777 14:0.28550205 15:0.60913086 16:-0.025201911 #
-0.47961839338004091937150974445103 1:0.98150796 2:0.67934555 3:0.22203693 4:0.96193177 5:0.74937028 6:0.66290367 7:0.16101852 8:1.0876527 9:-0.058351032 10:0.68783748 11:0.28608668 12:0.67737687 13:0.1673819 14:0.96771598 15:0.791879 16:0.41738689 #
-5.0870829527070036135683039901778 1:0.10630206 2:0.59223282 3:-0.10837042 4:0.12090707 5:0.11780942 6:0.97933519 7:0.46879575 8:0.3852962 9:0.57850748 10:-0.087100148 11:0.34096953 12:0.51945472 13:1.0243992 14:0.42536831 15:0.4096005 16:0.50504738 #
-1.7633462889238928905655257040053 1:0.69691563 2:0.50816816 3:0.73463708 4:1.0283046 5:0.22453317 6:0.39356408 7:0.24825823 8:0.39297611 9:0.34953132 10:1.0967566 11:0.098279856 12:0.59236503 13:0.71622825 14:0.8002125 15:-0.24471574 16:0.74594671 #
-0.66225518381841952386679395203828 1:0.6536684 2:0.32178864 3:-0.037808012 4:0.5213213 5:0.33362395 6:0.58692598 7:0.37931561 8:0.084229626 9:1.0808743 10:0.54606289 11:0.26290226 12:0.84101146 13:0.4789449 14:0.89911085 15:-0.24837513 16:0.6338343 #
-0.11509244670977496205477308421905 1:0.60086632 2:0.50595123 3:-0.047534421 4:0.31767458 5:0.39180669 6:0.21833882 7:1.0336144 8:0.84473556 9:0.62665367 10:0.4704608 11:0.037146464 12:0.72834456 13:0.014236359 14:0.23881324 15:1.2817373 16:0.1373432 #
0.31556665829385799337813978127087 1:0.63016975 2:0.71190345 3:0.063291438 4:0.56282496 5:0.34771225 6:0.67303181 7:0.19816703 8:0.37656873 9:0.71039653 10:0.70685953 11:0.25970939 12:0.68275928 13:1.2390541 14:0.023591807 15:-0.2148414 16:0.88811684 #
0.74159407028796986427465753877186 1:0.9119525 2:-0.094102032 3:0.2507188 4:0.64038754 5:0.83594865 6:0.5656051 7:0.89699566 8:0.65297604 9:0.3988167 10:0.69576341 11:-0.10143631 12:0.40803558 13:0.091870137 14:1.0448605 15:-0.032527093 16:0.35060093 #
-1.0802473415710893700492079005926 1:1.3449472 2:0.46393764 3:0.54895824 4:0.71270126 5:0.41407433 6:0.64012867 7:0.79866773 8:0.52269721 9:0.54688501 10:0.40144101 11:0.073880605 12:0.5309819 13:-0.098669767 14:0.27530301 15:0.9173556 16:1.1114792 #
0.91811652598774184941277098914725 1:0.65683484 2:0.66295171 3:-0.16271257 4:0.57492912 5:0.094866388 6:0.6290791 7:0.61458856 8:0.41506702 9:0.0020118644 10:0.27463916 11:0.23182018 12:0.43289682 13:0.45694447 14:0.6690461 15:1.2653627 16:0.99314749 #
-0.69277335873442935643140572210541 1:0.90832305 2:0.67066288 3:0.94612169 4:0.060849477 5:-0.091683939 6:0.67263848 7:0.54629081 8:0.050997678 9:0.63618481 10:1.0686699 11:0.016014373 12:0.41530171 13:0.9646799 14:0.27656716 15:0.74033803 16:0.47288665 #
0.50061476846400798645930763086653 1:1.0639166 2:0.93607056 3:0.73643315 4:0.82983595 5:0.18426408 6:0.8839587 7:-0.0044268579 8:0.68277806 9:1.0190008 10:0.33321097 11:-0.034057397 12:0.75072885 13:0.19950625 14:0.44608834 15:0.21522188 16:0.097864456 #
-0.017975652539435768573206075870985 1:0.26990691 2:0.88242745 3:0.14240494 4:0.5188809 5:-0.28465176 6:0.7905733 7:0.88744438 8:0.4264954 9:0.84550947 10:0.86744118 11:0.14088444 12:0.37952274 13:0.14252765 14:0.26568612 15:0.27232447 16:0.49883279 #
1.6267621028589802634201078035403 1:0.62222111 2:0.65014064 3:0.33021823 4:0.081001557 5:0.31028768 6:0.38780737 7:0.83882964 8:0.59942901 9:0.38583204 10:0.64230561 11:0.17526375 12:1.1955196 13:0.9202562 14:-0.26766315 15:1.106953 16:0.79290837 #
-0.6100641635267487483673676251783 1:0.1682186 2:0.32021046 3:0.23016453 4:0.55508405 5:0.3798641 6:0.16179954 7:0.081848152 8:0.6332196 9:0.26831454 10:0.35639215 11:0.42347562 12:0.86446548 13:0.91854614 14:1.0356519 15:1.3757421 16:0.31039399 #
-0.58269744105914167420223748194985 1:0.91497654 2:0.45219678 3:0.3301543 4:0.57550371 5:0.50507402 6:0.54510117 7:0.22315153 8:0.12803771 9:1.0009879 10:0.90095395 11:0.21638739 12:0.55884379 13:0.85266173 14:1.1017339 15:0.93004823 16:1.1475952 #
0.70002416962165381342231285088928 1:0.31457078 2:0.44829926 3:0.11165833 4:1.1755271 5:-0.24167767 6:0.76737624 7:0.80632651 8:1.2628634 9:0.74527228 10:-0.025913661 11:0.046730917 12:0.55159968 13:0.2721858 14:0.24251451 15:0.2021236 16:0.9055689 #
0.31747830298359358547344299950055 1:0.75717306 2:0.69723505 3:0.32261741 4:0.75379997 5:0.040573601 6:0.44190562 7:0.8386308 8:0.30238232 9:0.96320468 10:0.12214475 11:0.37883565 12:1.103956 13:0.35945088 14:1.2603959 15:0.77887285 16:0.25597867 #
0.094469604677543506099368642026093 1:0.51362962 2:0.5414449 3:-0.053157158 4:0.94665504 5:-0.15454689 6:0.59020537 7:0.1795309 8:-0.29645932 9:0.54296833 10:0.81351507 11:0.91813767 12:0.40058538 13:0.81428212 14:0.40257415 15:0.9030019 16:0.41605312 #
-0.32821534195597867888949394910014 1:1.0111759 2:1.0415547 3:0.21871641 4:0.69293094 5:0.41271213 6:0.18509036 7:0.58833081 8:0.83972156 9:0.89893812 10:0.58624667 11:0.38277391 12:0.10483374 13:0.80432183 14:0.69622022 15:1.2371041 16:0.22360347 #
-0.094944076658853140959770655626926 1:0.90899754 2:0.76472616 3:0.42679083 4:0.77410358 5:-0.095584393 6:0.45410082 7:1.1071821 8:0.25592256 9:1.4595206 10:-0.27449512 11:0.49860176 12:1.3548706 13:0.34263173 14:2.026643 15:1.0383235 16:0.077253126 #
-0.32850215334781351916859648554237 1:0.59000599 2:0.39543578 3:0.26662037 4:0.091099136 5:0.10108622 6:0.26144311 7:0.3124091 8:0.43586221 9:0.17988543 10:0.35429099 11:0.02529246 12:0.87005436 13:-0.24423614 14:0.037726581 15:0.14120632 16:0.11019322 #
1.1222314346760335901365124300355 1:0.47013468 2:0.32365137 3:-0.050948747 4:1.2947787 5:-0.29809615 6:-0.014365266 7:1.010945 8:0.64548528 9:0.87596655 10:0.42472717 11:0.55382842 12:0.42291337 13:0.91872448 14:0.57024997 15:0.16376311 16:0.1695002 #
0.17828513626116190837755937081965 1:0.76763785 2:0.62476331 3:0.55002636 4:-0.14423619 5:0.96771431 6:0.56871688 7:0.56359547 8:0.75594717 9:-0.18605781 10:1.0060098 11:-0.19377552 12:0.89799958 13:0.67277187 14:0.43605322 15:0.20036162 16:0.47419739 #
1.1840126952803646798173531351495 1:0.5935359 2:0.82717276 3:0.73588252 4:0.96169722 5:-0.13509011 6:0.99461532 7:0.49601191 8:0.13983862 9:0.15668306 10:-0.13452768 11:0.36279649 12:0.87306929 13:0.31215498 14:0.7391718 15:0.14229997 16:0.7863555 #
-0.2499620433556973275734947037563 1:0.70100075 2:0.87325275 3:-0.15312803 4:-0.038250249 5:0.59439671 6:0.75934583 7:0.072728232 8:0.50919586 9:0.69685215 10:0.97413087 11:0.21122459 12:0.52690578 13:0.82600248 14:0.35877687 15:0.81879795 16:-0.2928229 #
0.1497165978004973141413103121522 1:0.32027406 2:0.27994466 3:0.15209435 4:0.58649695 5:0.13017474 6:0.69266117 7:0.37880549 8:0.13044512 9:-0.0012972879 10:0.79893619 11:0.17178695 12:0.28880641 13:0.5684613 14:0.091005757 15:-0.30895042 16:0.14021182 #
-3.3069134278476881583230806427309 1:0.97418839 2:0.013254048 3:0.47851297 4:1.2492034 5:-0.1126094 6:0.08921127 7:0.39560682 8:0.83326614 9:0.84962142 10:0.71842557 11:0.37692165 12:0.5676946 13:-0.22340333 14:0.70978004 15:0.62395579 16:0.46136102 #
0.044269246409941107045504793404689 1:0.63747001 2:0.3584336 3:0.40209749 4:-0.14865603 5:0.45772842 6:0.12364636 7:1.044812 8:0.12121974 9:1.1811376 10:0.9439798 11:-0.37978059 12:1.0527496 13:0.20790581 14:0.14008051 15:-0.20106439 16:0.75896519 #
0.96995880483803975646850403791177 1:0.77246082 2:0.091965467 3:0.30190459 4:0.78419101 5:0.084542766 6:0.60861164 7:-0.22941333 8:0.7285471 9:0.31732559 10:0.4268288 11:-0.079673856 12:-0.12125814 13:0.46495438 14:0.29861259 15:0.99140453 16:0.18452649 #
-0.041153614473850845534297349104236 1:0.86898869 2:0.90908265 3:1.0000243 4:0.86502576 5:0.39095098 6:0.48784968 7:0.18928318 8:0.96648169 9:0.2828193 10:1.2457038 11:-0.1156552 12:0.87991518 13:0.63184214 14:0.2704801 15:0.90574223 16:0.067368947 #
-0.96469607861515027646959197227261 1:0.33645391 2:0.23974372 3:0.014905315 4:-0.017030042 5:0.17730543 6:0.86413109 7:-0.20109512 8:0.28538683 9:0.46083438 10:1.3607336 11:0.082693428 12:0.67091125 13:0.32279059 14:0.70573133 15:0.68221706 16:0.49672708 #
0.12962141484958977777353084093193 1:0.9959864 2:0.98410934 3:-0.051401656 4:0.92612094 5:-0.39989766 6:-0.2702125 7:0.59542686 8:0.70329624 9:-0.65758383 10:0.77246302 11:0.49672276 12:0.32948178 13:0.70382047 14:1.1727626 15:0.044549443 16:-0.86765146 #
0.063556365639531875455503495686571 1:0.56640553 2:1.196757 3:0.06423109 4:0.83980745 5:0.66392183 6:0.17752704 7:0.29013219 8:1.1404651 9:0.95355922 10:0.98053664 11:0.856314 12:0.68035257 13:0.01313494 14:0.38517731 15:-0.41377944 16:-0.2921505 #
-0.87357702471182918646519510730286 1:1.0196549 2:0.54716736 3:0.78016835 4:0.30270505 5:1.1915714 6:0.24275419 7:0.30550471 8:0.011569732 9:0.70470375 10:0.49113929 11:0.069149926 12:0.52234483 13:0.58732253 14:1.0716578 15:0.35000354 16:0.34777308 #
0.9067253491981631663421126177127 1:0.99514371 2:0.69586146 3:-0.29065198 4:0.53892756 5:0.49183488 6:-0.015516895 7:0.6501919 8:0.77828234 9:0.015628766 10:0.11940928 11:-0.25656185 12:0.34990999 13:0.47548175 14:1.0229672 15:0.12970909 16:0.65950775 #
-0.13023693987261097948504584564944 1:0.72246701 2:-0.39302075 3:0.48226249 4:1.0267336 5:0.03427976 6:0.34132552 7:-0.56077313 8:0.65836328 9:0.11889428 10:0.3390823 11:-0.27592605 12:-0.50819218 13:0.93675303 14:0.37998301 15:0.96205938 16:-0.23128352 #
-0.11449386862973519318753545803702 1:0.62418002 2:0.38283738 3:0.15506254 4:1.0761795 5:0.68697011 6:0.25715944 7:0.78489417 8:0.93575275 9:0.1526514 10:1.4474182 11:0.052897912 12:-0.37146559 13:0.52599794 14:0.8049975 15:0.76033175 16:1.0318261 #
-1.2686304636922800526122045994271 1:0.62950695 2:-0.035134863 3:0.62630945 4:1.2915635 5:0.5884828 6:0.54200995 7:0.7665258 8:0.36565715 9:1.1344072 10:0.74779958 11:0.38799575 12:0.81425405 13:1.0176367 14:0.78752357 15:0.51214105 16:0.45885798 #
-0.32246916903870814774535347169149 1:0.36643639 2:0.49527168 3:0.71366704 4:0.30102336 5:1.6547139 6:0.3282288 7:0.17468478 8:0.56001723 9:0.69708818 10:1.2788717 11:-0.5460794 12:1.3311267 13:0.97420156 14:0.34887296 15:0.98987126 16:0.41468909 #
-2.0606114282700986883867244614521 1:0.05316817 2:-0.1039049 3:0.22304805 4:0.60807025 5:1.1314774 6:0.70688576 7:-0.040118162 8:0.54605311 9:0.43346381 10:0.71313989 11:0.077811211 12:0.90846914 13:1.03108 14:0.55609351 15:0.18407939 16:0.033057336 #
-1.3396162965734705885267885605572 1:0.88188869 2:0.49019727 3:0.16203308 4:0.60555971 5:0.98160326 6:0.98902476 7:0.59781629 8:-0.19164582 9:0.27672067 10:0.60881591 11:0.19802885 12:0.27288473 13:0.97120076 14:0.63360757 15:0.74455613 16:0.612468 #
0.38185004090142121713213896327943 1:0.72356755 2:0.72483909 3:0.40178469 4:0.58547521 5:0.53134984 6:-0.01513293 7:1.0054262 8:0.46305278 9:0.40930387 10:0.7516827 11:-0.10986427 12:1.052235 13:0.29861692 14:1.0372255 15:0.45285383 16:0.9893145 #
-0.47462105867425391503289233696705 1:0.50907469 2:0.22465776 3:0.13745888 4:0.52000666 5:0.014422575 6:-0.042710289 7:-0.19066931 8:0.67130792 9:0.68980724 10:0.6328063 11:0.62108654 12:0.48913249 13:1.2091738 14:0.44325161 15:0.2612173 16:0.54019994 #
1.2698560685757112054261597222649 1:0.81539512 2:1.2777444 3:-0.32422906 4:1.3300353 5:0.15281302 6:1.0245664 7:0.44738099 8:-0.060958903 9:0.41697505 10:1.5203052 11:1.1027583 12:0.94124377 13:-0.4698309 14:0.54132986 15:0.48494467 16:-0.22506735 #
0.4043696317480678925626591535547 1:0.40378952 2:0.28616583 3:0.20523944 4:0.76411378 5:0.41796863 6:-0.042792063 7:0.53099108 8:1.0007535 9:0.3057006 10:0.70420903 11:0.17433698 12:-0.021504 13:-0.2340938 14:0.0044660675 15:0.60948938 16:0.83877033 #
1.6594113424482792584768731103395 1:0.93025017 2:0.63311726 3:0.27797955 4:0.46697 5:0.99382985 6:1.0164664 7:0.97809625 8:1.0299819 9:1.1752349 10:1.0038238 11:-0.03605793 12:0.8817535 13:0.94257569 14:0.34547955 15:0.31233618 16:0.48084286 #
-0.40875570188229010115676942405116 1:0.60438335 2:0.17778698 3:0.39191535 4:0.48788965 5:0.071655817 6:1.024925 7:0.93955964 8:0.53702277 9:1.0675725 10:0.96485263 11:0.45643383 12:0.64782381 13:0.325362 14:0.65686554 15:1.0839009 16:0.86862892 #
0.36119996005539739547529620722344 1:0.23699149 2:0.84842169 3:0.37908223 4:-0.075652301 5:0.19525845 6:0.89925951 7:0.1476725 8:1.2322856 9:0.85755169 10:0.79162085 11:-0.0053310106 12:1.0491073 13:0.59029365 14:0.69951922 15:0.52306777 16:0.92069972 #
-0.73833573754848003112272181169828 1:0.23327638 2:1.1933132 3:0.57238507 4:0.18228787 5:0.38106883 6:0.72457731 7:0.10318944 8:0.30918938 9:0.25862497 10:0.9905864 11:0.30246502 12:0.91426724 13:1.5159023 14:0.98362947 15:0.39268854 16:0.48061281 #
0.71092223330515036394672279129736 1:0.47549757 2:0.57482529 3:0.35704982 4:0.96836478 5:0.029039619 6:0.53322989 7:0.52661365 8:-0.0006644213 9:1.2345796 10:0.072338387 11:0.0062400876 12:0.083019853 13:0.10380493 14:0.38004875 15:0.75153583 16:0.69675946 #
-1.3866533211207880960103011602769 1:1.0543981 2:1.0129455 3:-0.042432509 4:0.8167153 5:0.33496022 6:0.12076916 7:0.37716269 8:0.56027532 9:1.1650902 10:0.9129073 11:0.0050303913 12:0.93569642 13:-0.1442074 14:0.36195132 15:0.26912075 16:0.94849867 #
0.18325350780445825993325570379966 1:1.1136261 2:-0.18457069 3:0.07956633 4:1.6844718 5:1.0430101 6:0.23983942 7:-0.25914615 8:-0.27056575 9:-0.11129051 10:-0.45321295 11:0.34192294 12:0.53431934 13:0.77163166 14:0.2274525 15:0.53390557 16:0.25834286 #
-1.0363374602685679892744019525708 1:0.097558074 2:0.27190343 3:0.57597035 4:0.32814875 5:0.82905871 6:0.22270757 7:0.84568816 8:0.33257723 9:0.045957111 10:0.21446997 11:0.049503751 12:-0.17527267 13:1.2002689 14:0.63667309 15:0.64220017 16:0.23993897 #
-1.2415901205519186412118415319128 1:0.42841285 2:0.70874089 3:1.1634836 4:0.82227933 5:-0.06000486 6:0.43568116 7:0.9671827 8:0.43811673 9:0.1312611 10:0.75156039 11:0.41297936 12:0.54880047 13:0.48933375 14:0.59668326 15:1.2293489 16:0.45168141 #
-0.6523995175730891160625901648018 1:0.96229881 2:0.93961298 3:0.6361087 4:0.89800692 5:0.788055 6:0.42438328 7:0.66695422 8:0.54741186 9:0.062908463 10:0.14339094 11:-0.13956423 12:0.3571983 13:0.41037598 14:0.021161215 15:0.60040736 16:0.13105193 #
0.92255836870433849394856906656059 1:0.2509096 2:-0.16557944 3:0.90711159 4:0.058446553 5:0.82000762 6:0.96091753 7:0.52739972 8:0.4183659 9:0.45936534 10:1.0034492 11:-0.26640931 12:0.51729387 13:0.38155124 14:0.36226362 15:0.72369826 16:1.1346134 #
0.64884765315516357286895754441503 1:0.76374334 2:0.1240327 3:0.55851805 4:0.84662354 5:0.015202718 6:1.283484 7:-0.37650883 8:0.16042127 9:0.53913933 10:0.40233266 11:0.24382859 12:0.4403331 13:0.82816648 14:0.96885979 15:0.36554503 16:-0.2642464 #
0.99300962176311002860273902115296 1:0.88978958 2:0.93353391 3:-0.030497706 4:0.88779032 5:0.24151041 6:1.0210034 7:-0.15062246 8:0.61115915 9:0.4521808 10:0.72810203 11:0.61029875 12:0.21635793 13:0.68835676 14:1.0377806 15:0.26977858 16:1.0420531 #
0.59646403970942862837745224169339 1:1.1126988 2:-0.09013655 3:0.1732913 4:0.72291297 5:0.84049743 6:0.22092444 7:0.78057814 8:1.5465621 9:0.14286712 10:-0.0062585077 11:0.27568662 12:0.70604539 13:1.3132446 14:0.93217289 15:0.28763711 16:1.9681153 #
-0.50035918172419957539176493810373 1:0.87226737 2:0.059423454 3:-0.12750694 4:0.19477029 5:0.78527814 6:0.35202053 7:-0.094885945 8:0.53679031 9:0.59340066 10:1.2705277 11:-1.1560906 12:0.63248944 13:0.21653697 14:0.70852435 15:0.57302046 16:0.16295698 #
-0.86735804645485847785835176182445 1:1.2073224 2:-0.3395907 3:-0.29060024 4:0.56472373 5:0.49846131 6:0.71733212 7:-0.064089023 8:0.62476802 9:0.35728112 10:1.0741317 11:0.47044715 12:0.96686143 13:0.16540851 14:0.43603301 15:0.50476062 16:0.81823862 #
-0.10200362361845256853332131186107 1:0.15807912 2:0.29925716 3:0.81512201 4:1.2869496 5:-0.7944802 6:0.62654883 7:0.39302999 8:0.79642099 9:0.97142071 10:0.82784522 11:0.011215061 12:0.62953812 13:0.3166025 14:-0.83695996 15:0.017376579 16:0.75417018 #
0.36612269543053932441267761532799 1:0.23124923 2:0.81059933 3:0.41955981 4:0.64562678 5:0.75842565 6:1.0789524 7:0.39373225 8:0.58662796 9:0.60027075 10:0.34065288 11:-0.11892346 12:0.24723808 13:0.08836969 14:1.0095581 15:0.26734906 16:1.0251894 #
-1.5598098095936727691679379859124 1:-0.21742317 2:0.43544459 3:0.12762752 4:0.44542915 5:0.52242684 6:0.11334793 7:0.70629954 8:0.81842166 9:-0.035933457 10:0.75014436 11:0.4805831 12:1.1007652 13:0.43123922 14:-0.0714112 15:0.4635635 16:0.76645392 #
-0.13734728575719601373350542417029 1:1.1298336 2:-0.54394144 3:0.18125701 4:0.67666256 5:1.3800342 6:0.37048671 7:1.2193313 8:0.68680513 9:0.47137183 10:0.97087717 11:-0.39973089 12:-0.049687516 13:-0.20177995 14:1.2623913 15:-0.29185674 16:0.25062793 #
0.040177463252510398072914199474326 1:1.8187257 2:-0.081115901 3:-0.4740198 4:-0.18151651 5:-0.2612814 6:0.43732691 7:0.17162652 8:0.82510769 9:0.6383521 10:0.18130884 11:0.71271557 12:-0.12802666 13:0.11752205 14:0.26573229 15:0.40966001 16:0.61263049 #
3.2264533482402861785942604910815 1:1.0398101 2:0.77227384 3:0.89627779 4:1.0190265 5:-0.01921062 6:0.29622871 7:0.78901106 8:0.47649059 9:0.34200868 10:1.0068007 11:1.4441235 12:0.13818346 13:0.36323333 14:0.5347361 15:0.37153789 16:0.78766513 #
-0.21650181765115908416596823826694 1:-0.24497277 2:0.73686457 3:0.59751433 4:0.37072459 5:0.7760601 6:0.41020682 7:0.68621451 8:0.38861012 9:1.404283 10:0.93376803 11:0.19967723 12:0.77228671 13:0.60737216 14:0.1993314 15:0.52486658 16:0.54087782 #
-1.676068803513437011076803173637 1:0.57824069 2:0.31519687 3:-0.21019796 4:1.0140886 5:1.069661 6:0.11700482 7:0.88927668 8:0.68797135 9:0.73083001 10:0.27647296 11:0.44356918 12:0.68870014 13:0.72508633 14:0.22730543 15:0.97642797 16:0.5054999 #
-1.9154673539365592027650109230308 1:0.049176928 2:-0.11465725 3:0.21558942 4:0.48235899 5:0.32165641 6:0.45790747 7:-0.029279692 8:0.63222247 9:0.91112602 10:0.072990499 11:-0.62059748 12:1.1529304 13:0.57669711 14:0.42919368 15:0.65456784 16:0.46030134 #
-0.18623978561958945410204080417316 1:1.3571895 2:-0.38807666 3:0.08745379 4:0.71274126 5:1.1924254 6:0.12628497 7:0.95257652 8:1.9353859 9:0.032651465 10:0.044161621 11:0.33212793 12:0.58401871 13:1.7137882 14:1.1217426 15:-0.070434421 16:2.6018975 #
1.2120459610870886191236195372767 1:0.62660122 2:0.079359621 3:0.23493998 4:0.60461426 5:1.16618 6:0.19193189 7:0.63345969 8:1.0353189 9:0.64911932 10:1.175679 11:-0.0033413728 12:0.82029969 13:0.72295666 14:1.2357929 15:0.7131601 16:0.24325453 #
-1.7252047266406476122568847131333 1:1.207155 2:0.15663671 3:0.72121066 4:1.0576117 5:0.31862941 6:0.7654773 7:0.98475277 8:0.89766401 9:-0.061016895 10:0.83397865 11:0.3221395 12:0.52596742 13:0.60690701 14:0.17528173 15:0.510068 16:0.57299525 #
1.0562624305347221298490012486582 1:0.24663442 2:0.2561532 3:0.59880745 4:0.45423678 5:0.2092064 6:0.34197029 7:1.0239687 8:0.50568199 9:0.81931144 10:1.2397792 11:-0.1281755 12:0.8528837 13:0.33383125 14:0.64654207 15:0.39615926 16:-0.28139082 #
-0.17696027246774595487188719289406 1:0.60545659 2:0.64708263 3:0.29518363 4:0.7292636 5:0.50395036 6:-0.74518484 7:1.0848391 8:0.44407001 9:0.51489908 10:1.0315108 11:-0.60439503 12:1.110479 13:0.280487 14:1.1422753 15:0.14263195 16:1.4621189 #
1.0772902771937054033912772865733 1:0.49483961 2:0.44765711 3:-0.40766436 4:0.60679352 5:0.54170769 6:0.22366872 7:0.73767716 8:-0.0093513038 9:0.66794735 10:0.93559694 11:0.074006401 12:0.44308782 13:0.87329751 14:0.61931229 15:0.39833346 16:0.9406774 #
-0.025835585222262182070185332349865 1:0.84256518 2:0.76143795 3:0.51201069 4:0.92630428 5:0.40998235 6:0.76560819 7:0.42665312 8:-0.167585 9:0.87402087 10:0.58184868 11:0.71303701 12:0.47983748 13:0.48639974 14:-0.11438045 15:0.35939136 16:1.0369434 #
0.39381373869050612102071795561642 1:1.2708954 2:0.11268265 3:0.40172848 4:0.10542548 5:0.045242816 6:0.64210272 7:0.359292 8:0.081855409 9:0.18267882 10:0.77602857 11:-0.0085477075 12:0.85696268 13:0.89218628 14:1.0404631 15:0.32118136 16:0.6737029 #
0.59811687336277341575652144456399 1:0.52359927 2:0.20412892 3:1.0752788 4:0.54319018 5:-0.0071198661 6:-0.028991144 7:0.21027657 8:0.15115954 9:0.77677751 10:0.75625867 11:-0.2046766 12:1.2382969 13:0.42416134 14:0.63570648 15:0.87446946 16:0.95073247 #
-0.70961564098021823188133794246824 1:0.54150361 2:-0.10585155 3:0.23628923 4:0.14793915 5:0.51562089 6:0.024333965 7:0.80463421 8:-0.053213112 9:0.5916521 10:-0.25403252 11:0.50888014 12:0.56745887 13:0.61196166 14:0.065720461 15:0.50316125 16:0.66158694 #
1.2717734664043052195125937942066 1:0.86287051 2:0.062864438 3:0.049113784 4:0.74405712 5:-0.012828663 6:1.097441 7:0.12060826 8:0.73048472 9:1.1542348 10:0.28967434 11:0.10226683 12:0.4116936 13:0.85382408 14:0.28920358 15:0.48898393 16:0.98147678 #
-0.57023893341493570030564796979888 1:0.5919134 2:0.26041567 3:0.19995093 4:-0.24448523 5:0.23279397 6:0.19072893 7:0.59191918 8:0.69907475 9:1.2663136 10:0.68136603 11:0.14567758 12:0.14004515 13:0.38318473 14:0.59406954 15:0.39318752 16:0.27755159 #
-0.6094600777333589736173280471121 1:0.030497633 2:0.80118608 3:0.0015907674 4:0.59786767 5:0.88402343 6:1.0331962 7:1.1923463 8:0.58155912 9:0.24449019 10:0.50532931 11:0.30377427 12:0.46968904 13:0.32899633 14:0.75140572 15:0.52299297 16:-0.16369161 #
0.69802388543053572877994383816258 1:0.21703796 2:1.0262709 3:-0.21977112 4:0.43470189 5:0.36809844 6:0.6330542 7:0.098884627 8:0.068423629 9:0.86052859 10:0.43473426 11:0.042549159 12:0.98848563 13:0.51428264 14:0.35379523 15:0.76769334 16:0.90759957 #
-1.3996871032220314923222304059891 1:0.94534332 2:0.9452036 3:0.329198 4:0.16779682 5:0.87374079 6:0.67492867 7:0.18050241 8:0.98235828 9:0.65983373 10:0.74438906 11:0.53078967 12:0.9995665 13:0.12395909 14:0.17783186 15:0.97565436 16:0.8873319 #
-0.39579763709947535232913651270792 1:0.87573409 2:0.30272275 3:0.067253336 4:0.88381207 5:0.65529561 6:0.61082619 7:1.1147529 8:0.64561301 9:0.64885467 10:-0.20996009 11:1.1426829 12:0.06834279 13:0.61476856 14:0.95210797 15:0.13332917 16:0.54191673 #
0.84133350035735166017047959030606 1:0.085888006 2:0.6495145 3:0.02516837 4:1.1219487 5:0.026760552 6:0.52692753 7:0.017411804 8:1.1019946 9:0.7050634 10:0.74253416 11:-0.060594674 12:0.94607753 13:0.68695617 14:1.0421834 15:-0.0011685821 16:0.37641141 #
-0.72179711273777635849313583094045 1:1.1326405 2:1.1524484 3:0.43398952 4:0.10665166 5:0.12290301 6:0.97151482 7:0.36738139 8:0.56275147 9:-0.066260144 10:0.54287344 11:0.18916444 12:0.026530776 13:0.67440844 14:0.49626425 15:0.43700707 16:0.42696756 #
0.38964372490697718465213483796106 1:-0.10064694 2:0.2041969 3:1.8010167 4:0.27397186 5:-0.16559729 6:0.36386269 7:0.8310219 8:0.29050237 9:-0.018156579 10:1.3487124 11:0.3330408 12:0.56806213 13:0.16082999 14:0.64753252 15:1.4055362 16:0.15969783 #
1.3795040451834983397105816038675 1:0.50154829 2:0.20001906 3:0.012331038 4:0.89895213 5:0.11753052 6:0.59264249 7:0.20347787 8:0.43317404 9:0.38805175 10:0.44116843 11:0.051519994 12:0.15183142 13:-0.19686534 14:0.47687754 15:-0.20552945 16:0.98108399 #
1.5174579881295431338372736718156 1:1.240299 2:1.2370868 3:0.95006078 4:0.97971767 5:-0.2750338 6:0.1000597 7:0.43720272 8:0.86211926 9:0.64869821 10:0.20886061 11:0.23391297 12:0.49208763 13:0.93441206 14:0.52283573 15:0.20894703 16:0.67302352 #
-0.11377039151974066566452847837354 1:0.69430518 2:1.0637803 3:-0.091692366 4:1.3178176 5:0.090468526 6:1.2088183 7:0.76680851 8:0.5143944 9:0.27653944 10:0.019373531 11:-0.093716152 12:0.21524271 13:0.64532381 14:0.80113447 15:0.45370135 16:0.13624854 #
-1.2003667307020831067632116173627 1:0.94227576 2:0.56132966 3:-0.083288811 4:-0.14798461 5:0.18618341 6:0.57610732 7:0.8628372 8:0.30035099 9:0.61446857 10:1.2417524 11:0.52851516 12:0.71096814 13:0.080596283 14:-0.15880768 15:0.44466877 16:0.56645983 #
-1.7889857917087819139112525590463 1:0.68839908 2:0.78457916 3:0.48660615 4:0.90393025 5:0.12949483 6:0.23128292 7:0.28287679 8:0.65604395 9:1.251987 10:0.55221629 11:0.35417151 12:0.58970773 13:0.63932401 14:0.61749274 15:0.40759107 16:0.7806744 #
0.71828929104517513781757998003741 1:0.82455534 2:0.74357557 3:0.054008689 4:0.70123333 5:0.071940526 6:0.028709562 7:0.81335598 8:0.46685383 9:0.7448774 10:-0.022554267 11:0.21279255 12:-0.016028941 13:-0.27242094 14:0.39226177 15:0.25603142 16:-0.15159281 #
1.2085960184685484719580017554108 1:0.25284296 2:-0.074103691 3:0.57299566 4:0.89740193 5:0.15231915 6:0.3080411 7:0.87100732 8:0.5113436 9:-0.15242459 10:1.2343223 11:-0.3948487 12:1.0166059 13:0.92332113 14:0.55686778 15:0.63779807 16:0.87905127 #
-2.344182402049095337304152053548 1:0.92964935 2:0.62797827 3:0.21029145 4:1.0933477 5:0.31470576 6:0.048410665 7:0.49915862 8:0.35130188 9:0.40974638 10:1.2731308 11:0.42433774 12:0.15205505 13:0.38100031 14:0.067056201 15:0.93624949 16:0.30385986 #
0.82973849522197218320229694654699 1:0.75927931 2:0.60620326 3:0.34527096 4:1.0018516 5:0.10554776 6:1.0851038 7:0.20950837 8:1.0829898 9:0.63869178 10:-0.17107816 11:0.70628893 12:0.72313821 13:0.3715927 14:0.30377159 15:1.0649163 16:0.21234964 #
0.5996978662202979704076710731897 1:0.69879282 2:0.77449822 3:0.1761286 4:0.58449268 5:0.14542079 6:-0.013200375 7:0.12193316 8:0.44943854 9:0.093076393 10:0.30362749 11:0.81497639 12:0.82070565 13:-0.0092565035 14:0.22956789 15:0.82264227 16:0.82101834 #
0.86681794781825982632028626539977 1:0.53305173 2:0.90506327 3:0.1467008 4:0.55665135 5:0.53584492 6:0.68786573 7:0.7423408 8:1.2417899 9:0.61644047 10:0.25969464 11:-0.36986467 12:0.30561036 13:0.51482284 14:0.43565753 15:1.026646 16:0.75069016 #
1.0704303395913230545488659117837 1:-0.13674845 2:-0.1606693 3:1.0869554 4:1.0295829 5:0.72687763 6:0.61645657 7:-0.044449735 8:0.61198956 9:0.81558973 10:1.1023103 11:0.022205366 12:0.85948503 13:0.056559276 14:0.5236178 15:0.31389761 16:0.34188792 #
-0.54804017627113355004553341132123 1:0.72917122 2:0.58320588 3:0.03562817 4:1.0713242 5:0.34338966 6:0.3013913 7:0.15260065 8:0.50284457 9:-0.060388651 10:0.55877882 11:-0.30906135 12:1.2877249 13:0.027007783 14:0.49432963 15:0.1520256 16:0.56468421 #
-1.8933255912948800947503968927776 1:0.90410703 2:1.3186098 3:0.13186355 4:-0.024163166 5:-0.16298953 6:0.83559412 7:0.68256664 8:0.69752365 9:0.83317035 10:0.4411906 11:0.55341506 12:0.61193919 13:0.84441793 14:0.82440609 15:0.66241533 16:0.50864112 #
0.83343030647540705668774307923741 1:0.84530216 2:0.47755295 3:0.45712149 4:0.099740557 5:0.36455134 6:1.0372046 7:0.75956416 8:-0.052251812 9:0.97232407 10:0.58106524 11:-0.23224123 12:1.1315787 13:0.76621729 14:0.42884707 15:0.38664749 16:0.52544105 #
-1.068781885365050809966191991407 1:0.89851177 2:0.43324926 3:0.35390818 4:0.96160841 5:0.4414221 6:-0.13632505 7:0.60051131 8:0.54517776 9:0.84320652 10:-0.22556634 11:0.24791178 12:0.38769481 13:0.53269726 14:0.1002739 15:-0.31475028 16:0.52202684 #
-0.94127237771456018222693273855839 1:0.19551386 2:0.3789762 3:0.0043395548 4:-0.016240645 5:0.16623889 6:0.5526979 7:0.4437322 8:1.0740329 9:-0.22637127 10:0.60507822 11:0.1702888 12:0.64752626 13:0.17139518 14:0.90637547 15:0.55363864 16:0.31774378 #
2.0680252678233976837418595096096 1:0.71177489 2:-0.19368564 3:0.1512329 4:0.18729924 5:-0.14354104 6:0.74644232 7:0.88237274 8:0.28906041 9:0.24582297 10:0.48482275 11:-0.22516111 12:0.36653554 13:0.047935434 14:0.5498684 15:0.62500507 16:0.62047362 #
-0.80046691577273842987949592497898 1:0.87281317 2:0.62348229 3:0.15821806 4:0.6550101 5:0.67348254 6:0.20302668 7:0.58804464 8:0.25215971 9:0.1049396 10:0.61341006 11:0.88295579 12:1.2429129 13:0.74523449 14:0.56191373 15:-0.045443527 16:0.10433806 #
1.3940163164041350363220317376545 1:0.51922798 2:0.49815649 3:-0.075437896 4:0.017393883 5:1.0514107 6:0.59339374 7:0.12158755 8:0.18834782 9:0.028195918 10:0.89220905 11:0.24756309 12:1.2399904 13:0.77644086 14:1.0797838 15:0.63625175 16:0.62371635 #
0.79644155401924132675617329368833 1:0.60311133 2:0.38148087 3:0.12249511 4:0.6289742 5:0.085840873 6:1.2856539 7:0.63073343 8:0.57695723 9:0.14396106 10:0.74579591 11:0.53620225 12:0.96344054 13:0.66788775 14:0.17599271 15:0.062264387 16:0.0039947648 #
2.371943864103404742138536676066 1:1.0127054 2:-0.077232406 3:-0.25092602 4:0.41395375 5:1.0329262 6:0.0029400503 7:0.6545589 8:0.22955365 9:0.90346539 10:0.7638222 11:-0.24144019 12:0.13674735 13:0.33373812 14:-0.024611022 15:0.36436075 16:0.19889064 #
-0.63262959373102822802081846020883 1:0.10761554 2:0.51533163 3:0.26982728 4:1.1378477 5:0.6493777 6:0.44157329 7:-0.29349947 8:0.51478785 9:0.34677178 10:1.172501 11:0.0050635515 12:0.76212734 13:0.16541323 14:0.57989901 15:1.0117258 16:1.0403475 #
1.6481007222892958274940156115917 1:0.74954194 2:0.53266609 3:0.39870185 4:0.098678343 5:-0.048404962 6:0.007916742 7:0.20559923 8:0.30761501 9:0.33205399 10:0.76116663 11:-0.021078201 12:0.54163456 13:0.30154651 14:0.67110348 15:0.96142471 16:0.35026833 #
0.79533755044875797945991280357703 1:1.1154978 2:0.62824124 3:-0.24055791 4:0.055810347 5:0.45589384 6:0.65143216 7:0.72372317 8:1.0553999 9:0.91587156 10:0.56367517 11:0.16978635 12:0.85807586 13:0.73170799 14:1.1911881 15:0.10730884 16:0.48473215 #
-0.48075687717619280947545234994323 1:0.40865698 2:1.2297646 3:0.31110179 4:0.91798127 5:0.38916099 6:1.1136459 7:0.84886903 8:0.87239867 9:-0.039110526 10:0.67989427 11:0.22648087 12:0.99456012 13:0.5904938 14:0.35793009 15:0.17004441 16:1.0050066 #
1.3262741293858240076986021449557 1:0.62652975 2:-0.22125086 3:0.44857907 4:0.73210424 5:0.33329317 6:-0.185553 7:0.13380212 8:0.67913967 9:-0.16480245 10:0.81497389 11:0.017137978 12:1.0356412 13:0.76168537 14:0.15600583 15:0.033911891 16:0.62537956 #
-2.4246355299996587007171910954639 1:-0.20517074 2:-0.18255432 3:0.17723818 4:0.20137766 5:0.32723156 6:0.75311434 7:0.8587932 8:0.70183706 9:0.73833781 10:0.83004624 11:-0.18327878 12:0.54167795 13:1.4139228 14:0.60202277 15:0.76467907 16:0.6013456 #
0.42742131703517566299055374656746 1:0.61438739 2:1.7610266 3:-0.40238386 4:-0.090858623 5:1.5900209 6:0.20504369 7:-0.036149871 8:0.065565385 9:0.36771119 10:1.1004486 11:0.056649648 12:0.059545945 13:0.63933319 14:0.24165915 15:0.33292317 16:0.3052187 #
-0.92499186427652735353888147074031 1:0.63007027 2:0.79803944 3:1.2681465 4:0.34183514 5:0.56910527 6:0.33116215 7:0.55342525 8:0.67337126 9:0.64351547 10:-0.057334345 11:0.28247148 12:1.0088261 13:1.0608211 14:0.32973057 15:0.57222629 16:0.63651806 #
1.0590506976410800632493192097172 1:0.82751399 2:0.95326203 3:0.079659857 4:0.61508155 5:0.76324737 6:0.18632348 7:-0.049548015 8:0.87824708 9:0.13631783 10:0.70177311 11:0.2488126 12:0.74790424 13:1.3262694 14:0.20590493 15:0.91311151 16:0.42876461 #
1.4287972211916299958289755522856 1:0.56674474 2:-0.13589622 3:0.76398134 4:0.89038122 5:0.85757345 6:0.7491554 7:0.73946917 8:0.86799479 9:0.4079777 10:0.94555694 11:-0.028337948 12:0.93544495 13:0.68177259 14:0.093349539 15:1.3511477 16:0.24936362 #
-0.57376351200035713429059569534729 1:-0.31379202 2:0.97919422 3:0.79854912 4:0.88202828 5:-0.35129601 6:1.1569028 7:0.33347973 8:0.2586824 9:0.49298474 10:0.47597462 11:0.72357929 12:1.3840104 13:0.80640888 14:0.61687505 15:0.54287982 16:0.27622026 #
-1.3460628035686164061246472556377 1:0.76433468 2:-0.28166395 3:0.22471504 4:-0.35596398 5:0.92284936 6:0.64541537 7:0.17608383 8:0.70064771 9:0.27397993 10:-0.028982533 11:-0.24734843 12:0.5681445 13:1.0922481 14:0.70114309 15:0.86580783 16:0.65886897 #
0.17817232247106762343946684268303 1:1.9973149 2:0.26233059 3:0.5794155 4:0.54135078 5:0.86654311 6:-0.30428296 7:0.7134704 8:0.78142816 9:1.3592098 10:0.41525298 11:0.46601397 12:0.95180476 13:0.71353376 14:-0.25170067 15:0.51773959 16:-0.28653961 #
-0.039851821539778647940366340662877 1:1.0968502 2:-0.34448463 3:-0.215884 4:2.2834044 5:1.295032 6:0.17380567 7:-0.70231664 8:-0.75099993 9:-0.41602913 10:-0.85758954 11:0.35868597 12:0.35959697 13:0.88303894 14:-0.08613541 15:0.61813641 16:0.0075879041 #
-3.7656065011182979773707302229013 1:0.61555791 2:1.0793873 3:0.7175228 4:0.22470696 5:0.60908866 6:0.47460043 7:0.70845568 8:0.25917357 9:0.86470896 10:1.0895425 11:0.051046267 12:0.61634326 13:-0.10529073 14:0.61560434 15:0.32606131 16:0.47253516 #
-0.48459223340724683071201184247911 1:0.57174695 2:1.129045 3:-0.051462602 4:-0.065801732 5:-0.58423626 6:0.73993695 7:0.29829174 8:0.33628923 9:0.45071959 10:-0.29383692 11:0.68138742 12:0.098016545 13:0.32119915 14:0.74451083 15:0.089569695 16:0.73191547 #
1.9236146176773281091243461560225 1:1.0433855 2:0.40718216 3:-0.093090221 4:0.069879569 5:1.1982551 6:0.26510078 7:0.10701383 8:0.57915944 9:0.47197896 10:0.3096267 11:0.021669293 12:-0.1893834 13:0.097948238 14:0.63278711 15:0.71790653 16:0.86331874 #
-1.4465100324956277066945631304407 1:0.42882961 2:0.52127981 3:0.39360896 4:0.4635807 5:-0.068534911 6:0.73684841 7:0.37288412 8:0.95244342 9:0.58206069 10:0.52308434 11:0.030684827 12:1.1087407 13:-0.10185225 14:0.28787941 15:0.87643152 16:0.44498956 #
-1.8060273501529611195337565732189 1:1.2804972 2:0.18044566 3:1.1915666 4:1.0151561 5:0.095410936 6:0.33947283 7:-0.2012116 8:0.37452784 9:0.26947284 10:0.71452773 11:0.32728562 12:0.48887858 13:0.77220023 14:0.55715275 15:0.74876773 16:0.48185194 #
-0.38357433983737232452426724194083 1:0.57330132 2:0.35554349 3:0.95882195 4:0.41949511 5:0.20397618 6:1.0281893 7:1.3192159 8:0.63763136 9:0.87956297 10:0.37502003 11:0.53180999 12:0.16756089 13:0.44656256 14:0.14366354 15:-0.051589929 16:0.075175881 #
-0.13553813522910404532062500493339 1:0.78498077 2:0.33987907 3:0.32634059 4:0.85978538 5:0.45456269 6:0.20534165 7:0.36365834 8:-0.011418723 9:0.66615456 10:1.063903 11:0.39318827 12:0.9152171 13:0.9600777 14:0.016478222 15:0.90062195 16:0.74738818 #
-0.58489538181816391748668593209004 1:0.64192975 2:1.4855905 3:-0.82490301 4:1.6415368 5:0.065831624 6:1.3079815 7:0.53885925 8:-0.21959174 9:0.4642092 10:1.7046762 11:1.6368792 12:0.90025812 13:-0.84905505 14:0.5949713 15:0.36341575 16:-0.66755247 #
-1.1159412440981817393748087852146 1:0.054201886 2:0.29744071 3:0.53200608 4:0.0953684 5:-0.00059244828 6:0.57198328 7:0.85575843 8:0.26612416 9:0.43766487 10:0.77194577 11:0.47753605 12:0.89461589 13:0.84647459 14:0.80872047 15:-0.050628759 16:0.91887426 #
1.4568150478325361252274205980939 1:1.170578 2:1.5006791 3:0.61078453 4:1.2252512 5:-0.52504021 6:0.19678544 7:0.49162087 8:0.59993297 9:0.76715863 10:0.78897655 11:0.9940545 12:0.36790255 13:-0.29490978 14:0.49357888 15:0.76026028 16:0.41011968 #
-0.93069349448845573036237510677893 1:0.48523417 2:-0.22984779 3:-0.45964256 4:0.1316767 5:0.62896776 6:0.0027985072 7:0.31327829 8:-0.1627076 9:0.35623601 10:0.65240341 11:0.57937747 12:0.55724585 13:0.3075732 14:0.79694611 15:0.56787068 16:0.384253 #
0.52254765970024052990083873737603 1:1.1187574 2:0.65595853 3:0.42507905 4:0.41236651 5:0.56848282 6:0.15749358 7:0.74548042 8:0.60546887 9:-0.016990094 10:0.90643245 11:0.56502807 12:0.60449469 13:1.0376772 14:0.89097726 15:0.73991525 16:0.58231336 #
2.7463226298876532993631371937227 1:0.3957099 2:0.56312943 3:0.15853506 4:1.2789978 5:0.47000995 6:1.5813348 7:0.28953734 8:0.48370975 9:0.56249714 10:0.80425501 11:0.79528338 12:0.19623984 13:0.32698369 14:0.41961378 15:0.38121417 16:0.32816893 #
0.86036780719116201510132668772712 1:0.55149943 2:0.94564998 3:-0.036958162 4:0.62134248 5:1.0184748 6:0.63334805 7:-0.019291908 8:0.16397572 9:0.60018539 10:0.72952676 11:-0.063657172 12:0.92699063 13:0.48845589 14:0.79485303 15:0.078914322 16:-0.23971546 #
0.060496479616408367629976083890142 1:0.5829888 2:-1.0558289 3:0.88477445 4:1.1140345 5:0.0070552779 6:0.087943219 7:-0.90428293 8:0.54816562 9:-0.030479245 10:0.37400198 11:-0.27665937 12:-0.74876761 13:1.4527887 14:0.26001149 15:1.0188574 16:-0.56907874 #
1.2188090730188994026406135162688 1:0.3722569 2:-0.18381138 3:0.98786956 4:-0.13937481 5:0.10636884 6:0.64571017 7:-0.086676173 8:0.10743347 9:0.56401926 10:1.1638834 11:0.21812899 12:0.84936583 13:0.29680523 14:0.0052037258 15:-0.042867456 16:0.52479219 #
-0.29716552705207993634317631403974 1:1.1064686 2:1.2127029 3:0.54329294 4:0.32982981 5:0.42329633 6:0.099176064 7:0.49696088 8:1.2471316 9:0.71139807 10:1.8723124 11:-0.16779488 12:-0.05983451 13:0.51577026 14:0.50401682 15:0.61038041 16:0.88752443 #
0.80586049281561988877342628256883 1:0.65197611 2:1.2785035 3:-0.034776371 4:-0.30824488 5:1.2006618 6:0.68227452 7:0.91972739 8:0.5657447 9:0.8993817 10:0.74247128 11:-0.39328563 12:0.8606348 13:0.77834809 14:0.64832562 15:0.77932161 16:0.61412746 #
1.0933182768004123808225358516211 1:-0.29566267 2:0.83412975 3:-0.033061508 4:1.184162 5:-0.12249702 6:0.69239593 7:0.38545167 8:0.25842622 9:0.16082539 10:0.88345879 11:-0.075651437 12:0.57551992 13:0.82558697 14:0.23919062 15:0.54131687 16:0.66056597 #
0.11342804942684124591689709404818 1:1.0203563 2:1.0747399 3:-0.33073598 4:0.057751931 5:0.25025928 6:-0.056924567 7:0.63984531 8:0.24283355 9:0.67227459 10:0.37657139 11:-0.49886018 12:0.0014270713 13:-0.28336325 14:0.39498779 15:-0.11678795 16:0.67423314 #
-0.97020974675661086905620322795585 1:0.95789206 2:-0.18420853 3:0.48135474 4:1.3658785 5:-0.024888102 6:0.28705284 7:1.104175 8:0.10463871 9:0.083414644 10:0.28410739 11:0.59394348 12:0.47400579 13:0.19530569 14:0.62120599 15:0.66542846 16:0.17753491 #
0.82142245385404455415567781528807 1:0.70384556 2:0.72612762 3:-0.40446576 4:0.88487506 5:-0.16923605 6:0.21540904 7:1.0157529 8:-0.011152632 9:-0.025092604 10:0.35562325 11:0.6704613 12:0.60157675 13:0.22813532 14:-0.12829374 15:0.11916763 16:0.47138962 #
1.2503757433593103431945792181068 1:1.3560743 2:1.0673223 3:0.517295 4:0.9791429 5:-0.095642284 6:0.27163449 7:0.59704715 8:-0.34506488 9:0.55366689 10:0.51174939 11:0.83510321 12:0.20369889 13:0.69431478 14:0.82853144 15:0.51334155 16:0.28242901 #
0.87743174326176232025176204842865 1:0.73558438 2:0.45502689 3:-0.10261609 4:0.89745861 5:-0.10015379 6:0.50486732 7:0.40334642 8:0.6724872 9:-0.1124321 10:0.21349654 11:0.74145091 12:0.03493708 13:1.1304235 14:1.0845612 15:0.28953272 16:0.41486299 #
-0.08176688936832914034180674889285 1:0.80978072 2:1.008304 3:1.2561371 4:0.87746429 5:1.0973536 6:1.3099025 7:-0.16158429 8:0.59162849 9:0.1904414 10:0.29417166 11:0.10640205 12:0.20294242 13:0.40581119 14:0.71585011 15:0.67298317 16:0.72250295 #
0.77036555639403503370488124346593 1:0.26226586 2:-0.25998545 3:0.19309618 4:0.79140091 5:-0.2308719 6:0.099943005 7:0.43917412 8:0.60601902 9:0.98493475 10:0.65321946 11:-0.51540244 12:-0.013649923 13:0.041124973 14:0.83457345 15:0.89580733 16:0.4389222 #
1.1383534352310307191658012015978 1:1.0695336 2:0.75953794 3:0.3446182 4:0.90723658 5:-0.11474848 6:0.98240548 7:0.65680307 8:0.14371534 9:0.63457239 10:0.13910116 11:0.24804865 12:0.43460387 13:1.17109 14:-0.17698547 15:0.94349736 16:0.20464365 #
0.49011668220578258337027932611818 1:0.9211086 2:0.40158474 3:-0.32997933 4:0.62099832 5:-0.16029508 6:-0.52071202 7:0.71376592 8:0.76238513 9:1.0433732 10:0.43029204 11:0.29340944 12:0.77167374 13:0.4319213 14:0.53553826 15:0.67088127 16:0.88875729 #
-1.4234260531881843814261401348631 1:1.2257732 2:1.0468935 3:0.086670741 4:1.1444358 5:0.94494277 6:0.61321002 7:0.78754795 8:0.45925048 9:0.97232288 10:0.09505976 11:0.14391537 12:0.25638065 13:0.74171215 14:0.94148016 15:0.29248798 16:0.40405726 #
0.4421538384866855464494506122719 1:-0.2277322 2:0.067880966 3:1.5040933 4:-0.25352126 5:0.48542055 6:0.46883234 7:0.08457046 8:0.21574067 9:0.30741459 10:1.3102304 11:0.095565237 12:0.44167125 13:0.055364817 14:0.7547164 15:0.32039657 16:0.48670912 #
2.0857705025368433737753548484761 1:0.85130686 2:-0.17964484 3:1.0669987 4:0.62710261 5:1.003696 6:0.42304543 7:0.8764497 8:0.61330557 9:0.75904238 10:1.1884904 11:-0.21346128 12:1.3212929 13:0.84649068 14:0.63054377 15:0.2735284 16:0.87389749 #
0.78440575407315160649801555337035 1:1.2401495 2:0.57853997 3:0.18448804 4:0.75386345 5:-0.078457765 6:0.88759446 7:0.16386415 8:0.22767068 9:-0.13626036 10:0.68999922 11:1.0817529 12:0.5149352 13:-0.29675925 14:0.31433216 15:0.9256745 16:0.074316755 #
1.1225085551521436499911033024546 1:0.59171373 2:-0.15331997 3:-0.057432797 4:0.83147287 5:-0.36233428 6:0.57216948 7:0.35330236 8:0.11037321 9:0.57074553 10:0.13903402 11:0.55320668 12:1.3061887 13:0.8227917 14:0.23553628 15:0.58790684 16:0.64283794 #
0.87808001409158653594033694389509 1:0.82608289 2:0.15763652 3:0.15868166 4:-0.17989555 5:-0.065863371 6:0.37991643 7:0.47910416 8:0.86633855 9:0.27794844 10:0.9694975 11:-0.0064145783 12:0.84023243 13:0.93774563 14:0.20455553 15:0.34814534 16:0.16511063 #
0.11801127626365762179894147720915 1:-0.12078572 2:0.80221081 3:-0.34443054 4:-0.25609541 5:0.077133194 6:0.58048582 7:0.010010021 8:-0.29917583 9:1.0681969 10:-0.49409091 11:-0.20028237 12:1.218653 13:0.67544335 14:0.5586313 15:0.67863578 16:0.54050004 #
0.047673621516734536462944760160099 1:0.051763259 2:1.2694912 3:-0.22940405 4:1.716871 5:0.034166466 6:-0.21544029 7:-0.031663686 8:0.66275924 9:0.023736034 10:0.22925563 11:-0.36441842 12:0.41577271 13:0.042329967 14:0.44592151 15:0.81555521 16:1.0995349 #
-0.20399112257003035320046535616711 1:-0.88758552 2:0.017926041 3:-0.54188687 4:0.55653661 5:0.9232052 6:-0.26574829 7:0.91760671 8:-0.12887841 9:0.49422231 10:0.85534143 11:-0.053669963 12:0.45565742 13:0.84635419 14:0.53726059 15:0.53244901 16:0.6674642 #
0.1557079230666427727136635894567 1:0.57815796 2:-0.65917033 3:0.79812431 4:1.8169994 5:1.0683053 6:0.52604908 7:1.0488564 8:0.4061726 9:1.5256677 10:1.0454792 11:0.51220185 12:1.0391086 13:1.2389603 14:1.0983449 15:0.67624044 16:0.36790869 #
-1.6662399717371976226587548808311 1:0.62296629 2:0.20953332 3:0.17418967 4:1.2224706 5:0.59749603 6:0.94105244 7:0.91960013 8:0.30222937 9:0.56931216 10:1.1888011 11:-0.19488777 12:0.27758318 13:0.21768481 14:0.281203 15:0.72316521 16:0.76216716 #
4.8675023872857732243346617906354 1:0.94331002 2:0.94642901 3:0.1640728 4:1.0176979 5:-0.14304093 6:0.49826121 7:0.2624318 8:0.86683041 9:0.4647176 10:1.1201839 11:1.1278989 12:0.27906024 13:0.63390636 14:0.32327986 15:0.3250978 16:0.27699855 #
0.68690249367673206215556547249435 1:0.56853777 2:0.77480435 3:0.23757726 4:0.14145222 5:0.47356051 6:0.12041162 7:0.077362515 8:0.13858314 9:1.0520424 10:1.105206 11:0.0081747938 12:1.3262377 13:1.0272655 14:0.75939959 15:0.36210331 16:0.23102126 #
-0.68620173510179660603114371042466 1:-0.36925125 2:0.70081562 3:-0.0026297306 4:0.50344688 5:0.20483564 6:0.6814127 7:0.16395912 8:0.32381588 9:0.55284166 10:0.36830875 11:1.0179186 12:0.14636624 13:0.11795986 14:0.67837155 15:1.0736382 16:0.75392658 #
0.12179214615834557666751436499908 1:1.3954918 2:0.72850507 3:0.36514977 4:1.3540601 5:0.67988014 6:0.94024819 7:-0.055125158 8:1.5005777 9:-0.56204855 10:0.60908562 11:0.34312305 12:0.69347113 13:-0.061020665 14:1.186552 15:1.2306403 16:0.63586229 #
0.83893846678793138060825640422991 1:0.039112594 2:0.24292693 3:-0.085375965 4:0.99217856 5:0.25147769 6:1.0336879 7:0.14105318 8:0.1485952 9:0.88332182 10:0.52647251 11:-0.12800486 12:0.29277971 13:-0.083169632 14:0.16309018 15:0.7730248 16:-0.011268809 #
-1.5262674503116830937443637594697 1:1.0200624 2:0.31840679 3:0.023687512 4:0.053848654 5:0.67257625 6:0.78918374 7:0.914038 8:0.45880839 9:0.1761844 10:-0.34211898 11:0.20252123 12:0.82273448 13:0.21521774 14:0.2949107 15:0.28211278 16:0.76061147 #
0.91204223912072446278642701145145 1:0.4351747 2:1.0230538 3:-0.011658733 4:0.66591513 5:0.77486116 6:0.1267318 7:0.31179476 8:1.0593555 9:0.67369431 10:0.45046631 11:-0.48949635 12:1.2114254 13:0.70073521 14:0.078124404 15:0.6169588 16:-0.052894268 #
2.2820285753809845807893452729331 1:0.82095885 2:0.84037125 3:0.14047946 4:1.1538287 5:0.10938805 6:0.90016663 7:0.47950986 8:0.58301657 9:0.93205678 10:0.73078454 11:0.97279543 12:0.53796154 13:-0.21353222 14:1.0616308 15:0.60739374 16:0.77425051 #
-1.0420375655865861119764304021373 1:0.67355835 2:1.1748703 3:0.46393305 4:0.97755235 5:0.34342995 6:0.34287325 7:0.94993365 8:0.65791017 9:0.42847881 10:1.3993104 11:0.22708242 12:1.3031243 13:0.38279811 14:-0.1947093 15:0.36002845 16:0.2906751 #
0.063461578803382961977419540744449 1:0.70317173 2:0.64082605 3:0.28027448 4:0.84260142 5:-0.50749105 6:-1.0586963 7:0.10704305 8:0.11418841 9:0.24305487 10:0.1337847 11:0.19122188 12:-0.4283101 13:0.90954781 14:0.13361414 15:0.091295674 16:0.74161965 #
-0.68677970785344333304323072297848 1:0.37097722 2:0.2586779 3:0.04223042 4:0.30369353 5:0.93570083 6:0.91831219 7:0.07091593 8:0.60467875 9:0.099715799 10:0.95662546 11:0.14560874 12:1.1225996 13:-0.19954567 14:-0.4023079 15:0.73092496 16:0.074920967 #
0.18531906441155865383763057252509 1:-1.0208209 2:1.2738767 3:1.1039025 4:0.74672049 5:-0.71881717 6:1.6556706 7:0.22429486 8:0.061056215 9:0.62336439 10:0.60513127 11:0.64428723 12:1.9816501 13:0.87257856 14:0.7681427 15:0.82915145 16:0.018193414 #
0.077861288096421510385169995061005 1:0.91054487 2:0.84558696 3:0.16114461 4:0.55864763 5:-0.10529134 6:0.13532938 7:0.28662589 8:0.15621132 9:-0.27280438 10:0.32313502 11:1.1301726 12:1.0702837 13:-0.78600162 14:-0.20984782 15:0.94172382 16:1.2475128 #
-1.561170641151554683290214597946 1:1.0116574 2:0.64951837 3:0.24439758 4:0.48620689 5:0.41015878 6:0.38607055 7:0.12936665 8:0.78294647 9:0.30486071 10:1.885781 11:0.014921943 12:1.1108609 13:-0.37104183 14:0.35462874 15:0.43078983 16:0.61990863 #
-0.71940682948410106245518136347528 1:-0.061554495 2:0.83565229 3:-0.21872975 4:1.1010268 5:-0.92471153 6:1.0702342 7:-0.018919123 8:0.82713062 9:-0.15271339 10:-0.27456126 11:0.69342542 12:0.60873497 13:0.5272705 14:0.55494314 15:0.90804148 16:0.22850858 #
-0.16235147619886258762988973103347 1:0.78131884 2:-0.58942437 3:0.58698303 4:1.1354569 5:0.25199205 6:-0.41150773 7:-0.14962591 8:0.77324218 9:-0.65294963 10:1.0657232 11:-0.19910359 12:1.2132672 13:0.95938909 14:0.083743259 15:-0.5010522 16:0.89020747 #
0.34198352232051132393308989776415 1:0.1923988 2:0.96266866 3:0.25591928 4:1.1298158 5:-0.23985915 6:0.73379928 7:0.7343877 8:0.16544135 9:1.0984703 10:0.16284393 11:0.072469912 12:0.20366074 13:1.3799264 14:0.81152004 15:0.39049345 16:0.73910439 #
-0.58614283445756287793670935570844 1:0.08950536 2:0.70382905 3:0.87731397 4:0.93707615 5:0.99178141 6:1.0107834 7:0.81629086 8:0.58929497 9:0.11642273 10:0.57034093 11:-0.35481179 12:1.0248847 13:1.6890352 14:1.00861 15:0.39525837 16:0.37651306 #
1.5766260628101003149481584841851 1:0.93747276 2:0.50016636 3:0.2372885 4:1.1755012 5:-0.0031196007 6:1.5317459 7:-0.049713921 8:0.41420498 9:0.62313581 10:-0.39420149 11:0.29291973 12:0.39550829 13:1.0829904 14:0.46852079 15:0.19764718 16:0.42491344 #
-0.032595205262176629723569476482226 1:0.73624325 2:0.066777326 3:0.1062457 4:0.48312986 5:0.12783803 6:0.56814986 7:-0.73133236 8:1.1131781 9:0.61282641 10:0.24626715 11:-0.4464812 12:-0.30176494 13:0.7908259 14:-0.5006749 15:1.3849096 16:0.68896163 #
-0.075384134720303641596927946011419 1:0.54429293 2:0.76960027 3:-0.10794761 4:0.57236457 5:0.69012648 6:0.21561678 7:0.77742618 8:0.5216915 9:0.18178134 10:0.84864235 11:-0.024640055 12:0.40881371 13:0.49461263 14:0.38323689 15:0.84797525 16:0.049424008 #
0.22661816749474747445525224520679 1:0.64518261 2:-0.44087556 3:0.2621178 4:-0.3940317 5:-0.12562089 6:0.46114153 7:-0.49513999 8:-0.057486009 9:0.23105833 10:1.6393422 11:-0.030763984 12:0.8031159 13:-0.007794905 14:0.80705798 15:0.74557817 16:0.63166451 #
0.71236396056309769786452079642913 1:0.32726005 2:0.35179123 3:0.16509445 4:0.70514321 5:0.12015098 6:0.64481962 7:0.89422691 8:1.0528419 9:0.88500166 10:0.58737975 11:0.2652545 12:0.92675257 13:1.0377651 14:0.47456521 15:0.62083638 16:0.16956565 #
1.6228955962081699215815433490206 1:0.86108071 2:1.007067 3:1.1413128 4:1.1519426 5:0.057608057 6:-0.29797938 7:0.6108892 8:0.50069326 9:0.25886711 10:0.19412275 11:1.0791153 12:0.23422189 13:0.71215761 14:0.25329497 15:0.75104153 16:0.29035711 #
0.96981580013918899929592498665443 1:0.22314337 2:-0.019935254 3:0.4442082 4:0.50227302 5:0.00067351846 6:0.53630549 7:0.85630524 8:1.0515709 9:0.63275307 10:1.1872367 11:-0.11107589 12:1.0191444 13:0.70908087 14:0.35736781 15:-0.062737986 16:1.2309617 #
-1.532336499629891157781003130367 1:0.46046364 2:0.35723719 3:0.28802201 4:0.10322281 5:0.029838583 6:0.86304051 7:0.69337273 8:0.014437226 9:0.12553346 10:0.26366371 11:0.26392063 12:0.5268628 13:0.67614228 14:0.1117838 15:1.0943123 16:-0.10065843 #
1.3042901365995231977024104708107 1:1.0529507 2:1.036491 3:-0.088363782 4:0.25593987 5:0.94279772 6:0.15398632 7:0.18758227 8:0.84489822 9:0.92842168 10:0.39490038 11:0.023400599 12:0.42788988 13:0.61803079 14:-0.082782023 15:0.22898126 16:1.118647 #
-0.50218979742665637022724922644557 1:0.4164657 2:-0.78224552 3:-0.076697454 4:0.20694649 5:-0.34121907 6:1.2022853 7:0.96103662 8:0.43073541 9:0.078772575 10:0.49400163 11:-0.66578478 12:0.80178481 13:-0.082512662 14:0.97825158 15:0.68692207 16:1.0704091 #
2.0986717050253678173987736954587 1:0.4850013 2:0.27180392 3:0.010591666 4:0.9195199 5:-0.23582199 6:0.39868462 7:0.541471 8:0.69140345 9:0.62707162 10:0.6628871 11:0.19720466 12:-0.17680052 13:0.95033348 14:0.95268345 15:0.81505412 16:0.7240504 #
-0.91567797326947286684628579678247 1:0.94572204 2:0.24328589 3:0.91728878 4:0.08861319 5:0.34460104 6:0.93278128 7:0.25042284 8:1.0208651 9:0.60329348 10:0.65671146 11:0.0029375411 12:0.34577125 13:1.1740565 14:0.53580827 15:-0.35355133 16:0.57643038 #
-0.3273279221116472958996723718883 1:0.69192541 2:0.79187518 3:0.76232743 4:0.98420686 5:0.30956751 6:1.366021 7:-0.16972585 8:0.74307239 9:0.39670524 10:1.1283214 11:0.74859917 12:1.5940375 13:1.5400674 14:0.2652227 15:0.28060597 16:0.48821303 #
0.31064135699004280510848730045836 1:-0.097808979 2:0.36295691 3:0.81939107 4:1.0692981 5:0.15312919 6:-0.41157943 7:-0.025054775 8:0.5497483 9:0.29974908 10:1.7810628 11:0.013332422 12:1.4121034 13:0.70387965 14:0.38493586 15:0.93203801 16:0.71609992 #
-0.29260513245101521517810283512517 1:1.3081442 2:0.16060463 3:-0.48939449 4:0.5329749 5:0.95971131 6:-0.080868855 7:0.41219261 8:0.93330199 9:-0.051270261 10:-0.62337655 11:-0.37508538 12:0.45763981 13:0.18891311 14:1.2299553 15:-0.098468222 16:0.78996086 #
0.62890950774853282556620115428814 1:0.88436306 2:0.70762795 3:0.37524703 4:0.76775432 5:-0.39768422 6:-0.044594314 7:0.50737101 8:0.68665123 9:0.37241223 10:0.28106883 11:0.34050462 12:0.90038484 13:0.16548887 14:0.87488353 15:-0.228228 16:0.34399188 #
0.0076086442064875426868897356769139 1:1.154973 2:-0.17822582 3:0.64343005 4:1.0448692 5:-0.008702456 6:1.8021675 7:1.1747984 8:0.6182794 9:1.4116666 10:0.79708046 11:-0.25428471 12:0.96293074 13:0.31864434 14:0.28026751 15:0.97467071 16:0.75846165 #
1.055984177305189675166730012279 1:1.106271 2:0.56574172 3:0.33746877 4:1.17347 5:0.3131015 6:1.4661295 7:-0.21158127 8:0.65258646 9:0.40978491 10:-0.059395816 11:-0.031310864 12:0.95035028 13:0.10911276 14:0.67290759 15:0.9388774 16:0.96075767 #
-0.18350494791098451163868787716638 1:0.42399031 2:0.094710752 3:-0.36723396 4:0.81685233 5:-0.47313827 6:0.81063241 7:0.25938866 8:1.2670332 9:1.3854661 10:-0.48913223 11:0.20097214 12:0.24451046 13:0.23101301 14:0.29691228 15:0.21674083 16:1.5351673 #
-0.3029013399267683204207912694983 1:0.25040358 2:1.2735519 3:0.25771531 4:1.6552072 5:0.27277127 6:1.0041087 7:0.33372295 8:0.32244661 9:0.43611851 10:-0.30077058 11:1.5607638 12:0.83825421 13:0.62682682 14:0.7656377 15:0.58106285 16:0.80606109 #
0.40582483561681631512030321573548 1:1.2970656 2:1.0949136 3:0.22943233 4:1.3055346 5:0.16747765 6:0.82276821 7:0.52272075 8:-0.35029641 9:0.3958348 10:1.6290224 11:1.0632678 12:0.51992816 13:-0.18553145 14:-0.1326426 15:0.76409221 16:0.8110128 #
1.2486130483088933029733880175627 1:0.94557583 2:0.52897435 3:0.21250667 4:-0.19521494 5:0.70910525 6:0.44496372 7:0.17340003 8:-0.016519096 9:0.2133521 10:0.71097606 11:-0.17776302 12:0.52739799 13:0.761338 14:-0.10164743 15:0.48978117 16:0.84902686 #
-3.1823587293872139802886067627696 1:0.12338434 2:0.47288916 3:0.21305443 4:0.76532269 5:1.1526077 6:0.41685969 7:0.49216214 8:0.51630169 9:0.70395195 10:0.11632945 11:-0.16666956 12:0.35414588 13:1.0944653 14:0.42250994 15:0.17448424 16:1.0133647 #
0.53869790088604041500275343423709 1:0.93929499 2:0.94586092 3:-0.081916884 4:0.74491656 5:-0.070378862 6:0.12008793 7:-0.12415529 8:0.04928026 9:0.88328457 10:0.49303523 11:0.076630928 12:0.098862261 13:0.6085937 14:0.18482712 15:-0.089971654 16:0.081013195 #
-1.4837109319308328103659277985571 1:1.5213192 2:0.099850394 3:0.45832205 4:1.254847 5:-0.32230029 6:0.73859996 7:0.55474734 8:0.40660939 9:0.73328263 10:1.4362319 11:-0.34402704 12:0.38956615 13:0.32009363 14:0.3603161 15:0.49873027 16:0.44477603 #
0.89191146068301085936269601006643 1:1.4118524 2:0.23356116 3:-0.09847863 4:0.42844045 5:1.2775708 6:0.86598617 7:0.85525918 8:0.8968842 9:0.056616422 10:0.83353281 11:-0.045083661 12:0.39116463 13:0.52809054 14:0.1389887 15:0.6973992 16:0.75432819 #
1.2503502199105738235118678858271 1:1.0143627 2:0.81289637 3:0.11837106 4:0.46158278 5:0.34677106 6:0.26340812 7:1.07206 8:0.65692979 9:1.0894935 10:0.37826166 11:-0.22800459 12:0.18920916 13:0.3013666 14:0.65333056 15:0.15812536 16:0.67807531 #
0.55968142715957824862016423139721 1:0.41558483 2:0.96081203 3:0.062212292 4:1.1653048 5:0.18759897 6:-0.27604473 7:0.60656387 8:0.22364189 9:0.32595891 10:0.40590209 11:0.072672427 12:0.62477899 13:1.255165 14:0.36053425 15:0.3563385 16:0.75118715 #
0.46160487727292059956241132567811 1:1.127755 2:-0.13960391 3:0.12726042 4:0.3904928 5:-0.71763468 6:0.49615154 7:0.062408518 8:0.96887785 9:0.58977133 10:0.39639375 11:0.049617574 12:0.4056963 13:-0.24545541 14:0.86649883 15:0.66981608 16:0.098300472 #
-0.96527498136830458541624011559179 1:1.0953888 2:-0.052763049 3:0.31082517 4:0.5839051 5:0.27141154 6:0.80551451 7:0.8366946 8:-0.012004168 9:0.8840456 10:0.44963461 11:0.18342544 12:0.35713282 13:0.61199456 14:0.34469184 15:0.45509619 16:0.020837354 #
-0.44662475572588766770110169090913 1:0.2424638 2:1.0454444 3:0.6955874 4:0.70739299 5:-0.15606438 6:0.45811301 7:-0.086995207 8:0.83378083 9:0.35671341 10:0.34074056 11:1.0943182 12:0.38258335 13:1.3297136 14:-0.11292895 15:0.40655291 16:-0.055905875 #
-0.62293644375866596973878586140927 1:1.0182987 2:0.32433456 3:0.69324648 4:-0.018299796 5:0.060015731 6:0.12392626 7:1.0539863 8:0.87583143 9:0.6521861 10:0.52920878 11:0.23100086 12:0.95544481 13:0.29269662 14:0.14004011 15:0.34153727 16:1.0835993 #
0.10944217501435520023544967216367 1:0.83056754 2:0.64664131 3:0.13161013 4:0.70269841 5:1.0221603 6:0.25103998 7:0.53206503 8:0.26724833 9:-0.30340379 10:0.68400675 11:0.6186949 12:2.0629323 13:0.79624254 14:0.39368099 15:-0.56036258 16:-0.19972132 #
-1.1988991736893097606042601910303 1:0.38441747 2:-0.20256399 3:-0.27861622 4:-0.058775846 5:0.8919915 6:0.15544145 7:0.47654873 8:0.77581179 9:0.76623356 10:0.010108118 11:0.074958839 12:1.1950746 13:0.28349328 14:0.55319732 15:0.40060171 16:-0.033154007 #
-0.68181939687208403810814161261078 1:0.4973695 2:0.46844894 3:0.76053643 4:0.20511712 5:0.49530274 6:-0.3299855 7:0.98949784 8:0.73004311 9:0.075308293 10:1.1901001 11:0.44854257 12:0.078057341 13:0.65729815 14:0.3250562 15:0.28666288 16:0.057929482 #
0.5173240284023832291637745584012 1:0.57188803 2:-0.092482805 3:0.6449163 4:-0.24681348 5:0.4255743 6:0.77534515 7:0.57858187 8:1.0763222 9:0.88504636 10:1.1613184 11:0.0027687922 12:-0.004596645 13:0.10747711 14:-0.16886409 15:0.74070251 16:0.13626026 #
-0.58154622632493135903075653914129 1:-0.006242868 2:1.0741959 3:0.48601305 4:0.49183941 5:0.020785317 6:0.74818754 7:-0.022878611 8:1.0301732 9:0.36375153 10:1.0967935 11:-0.078237131 12:0.10829011 13:0.59355408 14:0.60679632 15:0.45197922 16:0.19243088 #
-0.74012430295786857392670299304882 1:0.70450157 2:0.93068767 3:0.25688863 4:-0.62092996 5:0.009907661 6:-0.52774942 7:1.0849603 8:0.055471417 9:0.3610242 10:0.26251653 11:0.22855151 12:0.58605158 13:0.83880639 14:0.62296546 15:0.93427271 16:0.74800068 #
1.1538088853146042378483571155812 1:0.72304499 2:0.79666245 3:-0.15823181 4:1.00071 5:0.025003476 6:0.96628404 7:0.9105317 8:0.81528217 9:0.88157403 10:1.0861742 11:0.97762305 12:0.020819938 13:0.95233917 14:0.054869816 15:0.97011286 16:0.78257024 #
-0.68306471223669984471627003586036 1:0.8652246 2:0.72073942 3:-0.01683208 4:0.71379328 5:0.40674537 6:0.43053028 7:0.62835294 8:0.83394712 9:0.28284192 10:-0.041827876 11:1.0254642 12:0.14090022 13:0.63819611 14:-0.36760035 15:0.65527987 16:0.12976818 #
0.47448498270429401157954885093204 1:0.64077902 2:0.7246806 3:0.18207708 4:0.76766384 5:0.38588667 6:0.82957381 7:0.46333399 8:0.81760836 9:-0.19490331 10:0.10738019 11:-0.36285132 12:-0.37828666 13:0.11300714 14:0.25920355 15:0.29236135 16:0.78238147 #
-0.36432455931810470151077652189997 1:0.15115644 2:0.52901107 3:1.0864234 4:0.86435759 5:0.24799369 6:0.19188479 7:-0.03162846 8:0.008568624 9:-0.055283248 10:0.31045175 11:0.043428574 12:0.92414236 13:0.094046243 14:0.9342162 15:0.18370543 16:0.33787882 #
-0.42613220001424523264432764335652 1:0.75573534 2:0.54823434 3:0.82449788 4:1.025026 5:0.18625855 6:0.63282287 7:0.8885383 8:1.0657597 9:0.45097449 10:0.44027144 11:0.1417267 12:0.38179284 13:0.10042325 14:1.3492928 15:0.4009982 16:0.48625612 #
-1.4581006570184684711932732170681 1:0.86924028 2:0.58632094 3:-0.072975494 4:1.3018355 5:0.41422009 6:0.45844904 7:0.94564182 8:0.5246008 9:-0.031512365 10:0.36343706 11:0.68291271 12:-0.11964406 13:-0.13328429 14:0.7651608 15:0.051897883 16:0.61087352 #
0.55460842587162473282802466201247 1:0.91379434 2:0.55920279 3:0.58367032 4:0.91158319 5:0.30491659 6:0.63873619 7:1.1349872 8:-0.040468384 9:0.1990938 10:0.29376578 11:-0.14563911 12:1.4125625 13:0.90778142 14:0.083900817 15:0.19329037 16:-0.0068690828 #
-1.7924148303199141096797575301025 1:0.73404908 2:0.35795113 3:1.2327272 4:0.71685058 5:0.30180565 6:0.83445674 7:0.83428264 8:0.39957526 9:0.4631089 10:0.49327403 11:-0.25229919 12:0.71294171 13:0.57448459 14:0.48542446 15:0.23975305 16:0.67553961 #
0.49954052136165394415456830756739 1:0.6591109 2:0.39257854 3:-0.42702937 4:0.78286773 5:-0.12231282 6:-0.057595074 7:0.76691151 8:0.1156258 9:0.53513843 10:0.26696429 11:0.55532306 12:0.46657094 13:0.72155595 14:0.57040894 15:1.1453701 16:-0.25191224 #
-3.3300631548050283470274735009298 1:0.22377099 2:0.17113601 3:0.36368701 4:0.24253254 5:0.36217195 6:0.33758193 7:0.24665269 8:-0.20089811 9:0.52187729 10:0.80693692 11:-0.11655238 12:0.097144499 13:1.2158252 14:0.79029506 15:0.46215934 16:0.42622614 #
1.6380610021860464442511329252739 1:0.27366924 2:0.50905144 3:0.16702606 4:1.4446169 5:0.07777594 6:0.84891576 7:0.33405209 8:0.34761614 9:1.0882391 10:0.28953561 11:-0.026026912 12:0.89205909 13:0.71461391 14:0.24751748 15:0.11440951 16:0.30389515 #
0.72835079741485331261685587378452 1:-0.021352207 2:0.96387458 3:0.2823374 4:-0.33334291 5:1.3461113 6:0.72078013 7:0.23065579 8:0.75534618 9:0.4598605 10:0.18015477 11:0.56889731 12:0.81311268 13:0.83637363 14:0.38219202 15:0.5450334 16:0.23610578 #
0.94406142298639383891867282727617 1:1.2578152 2:0.61915416 3:0.40246427 4:0.22092104 5:0.27842963 6:0.68742621 7:0.26510572 8:1.021565 9:0.090181932 10:0.46605343 11:-0.22248283 12:1.2830256 13:0.96321678 14:0.43511724 15:1.0636603 16:0.62026846 #
2.1063879206199849214442565425998 1:1.0035217 2:0.33693525 3:0.43463612 4:0.9473874 5:1.0599551 6:0.026072392 7:0.54177821 8:0.42176545 9:0.87345809 10:0.82043093 11:-0.31791469 12:0.99882293 13:0.80953151 14:0.44785985 15:1.1095668 16:0.94989669 #
-0.85070971837101372337031079950975 1:0.23348978 2:-0.0004650632 3:-0.033678319 4:0.77935857 5:0.64382613 6:0.36668563 7:0.040419191 8:0.8703109 9:0.97054195 10:0.3250941 11:0.44226387 12:0.35830373 13:0.14273329 14:1.2146996 15:0.43831372 16:0.35709769 #
-0.50635849736009685972959459832055 1:1.0660611 2:0.64225394 3:0.47183257 4:-0.036532883 5:1.2610598 6:0.55958778 7:0.40801468 8:0.66716939 9:0.70744914 10:1.0311219 11:0.90845352 12:0.83821553 13:1.0571743 14:0.87484127 15:0.057614584 16:0.98807472 #
1.3920654867385904296384069311898 1:1.0150588 2:-0.085209362 3:0.45644754 4:1.2218859 5:1.4802754 6:0.41546297 7:0.24863125 8:0.036648277 9:0.67667067 10:1.2596376 11:-0.088372566 12:0.93918896 13:0.78785723 14:0.64147675 15:0.33646443 16:0.21724151 #
1.2452866461163196731831703800708 1:0.35001037 2:1.001633 3:0.0032037392 4:1.137935 5:-0.066651352 6:0.030417141 7:1.0256478 8:0.83085561 9:0.39898351 10:0.44126695 11:0.37664664 12:0.4471195 13:0.049284399 14:0.27015048 15:0.62634391 16:0.75580287 #
1.6206888274773489921898317334126 1:1.0277146 2:0.23809439 3:0.1058886 4:0.71798986 5:1.0552833 6:-0.039439883 7:0.66506308 8:0.40188041 9:0.082034566 10:0.91675693 11:-0.1891391 12:1.0111885 13:0.92507011 14:0.72563076 15:0.13016187 16:-0.094319239 #
-0.45528383161443491955466811305087 1:0.17893127 2:-0.065144442 3:0.22174662 4:0.36181465 5:0.87945449 6:0.6042881 7:1.0465237 8:0.3695513 9:0.56707799 10:0.79983258 11:0.69723201 12:1.17261 13:-0.6199401 14:0.29577598 15:0.87634814 16:0.86659092 #
0.53236420903970382845216136047384 1:0.082164019 2:1.0343413 3:0.32177937 4:-0.34267706 5:0.62061858 6:0.77038461 7:-0.085518427 8:0.35968927 9:0.18106396 10:1.1650088 11:-0.40830448 12:1.5600934 13:0.95213544 14:0.23915313 15:0.76133835 16:0.41143307 #
0.51333454632299124753558317024726 1:0.61827159 2:1.1335191 3:0.1366853 4:0.66996413 5:0.063888207 6:0.95223826 7:0.93473798 8:0.044827871 9:0.26351249 10:0.95890594 11:0.40402189 12:0.61768067 13:0.7695483 14:1.2018529 15:0.012372485 16:0.37004206 #
0.15206662747067375973664127286611 1:1.3387505 2:1.1704234 3:-0.0077421749 4:0.79965425 5:1.3849472 6:0.74135017 7:0.28303266 8:1.1201059 9:1.3898491 10:-0.086308196 11:0.11771457 12:-0.44645727 13:0.949247 14:1.286044 15:-0.10557427 16:-0.34566724 #
3.5451045330041632830386788555188 1:0.038423885 2:0.39618006 3:0.99571294 4:0.25597283 5:0.50763029 6:0.36526927 7:0.56091267 8:0.54937017 9:0.19713888 10:1.0889802 11:-0.089865185 12:1.3018053 13:0.55134732 14:0.37921336 15:0.53009105 16:0.19173865 #
0.32928052797272111540394234907581 1:0.59138167 2:0.0522351 3:0.12693517 4:0.55031675 5:0.75533289 6:1.0064411 7:0.27632409 8:0.55896515 9:0.70211786 10:0.65688831 11:0.53124678 12:0.50153989 13:0.6640048 14:0.23121396 15:0.96577877 16:0.90268302 #
1.1228132637021002171451300455374 1:0.79599935 2:0.26253086 3:0.37525705 4:0.77040243 5:0.76462698 6:0.029436877 7:-0.27779573 8:0.51210231 9:0.69199097 10:0.75047439 11:-0.19660884 12:0.86530823 13:0.67461318 14:1.1705101 15:0.1177645 16:0.94335574 #
0.14822825649344611997904053168895 1:0.42351308 2:-1.2933545 3:-0.41060677 4:0.06426879 5:-0.73988426 6:1.6739223 7:1.0668963 8:0.50424367 9:-0.071889482 10:0.69312501 11:-1.0825268 12:0.79814267 13:-0.41419917 14:1.1809083 15:0.67130435 16:1.4938669 #
0.38798602562189127285208201101341 1:0.53639084 2:1.187203 3:-0.50503176 4:0.4331494 5:1.0346082 6:0.262254 7:0.47371721 8:0.54062569 9:0.12370142 10:0.23203379 11:-0.47393477 12:0.11076607 13:0.059513755 14:0.6543538 15:0.8184756 16:-0.087069549 #
0.40451438565875352804113163074362 1:0.3377175 2:-0.052475203 3:0.81445307 4:1.1207818 5:-0.091761708 6:1.3762121 7:-0.025325134 8:0.77637196 9:0.4954237 10:1.0563788 11:0.10064409 12:0.26112685 13:1.0297064 14:0.48716995 15:0.14227405 16:0.84794825 #
-1.321375722306368238889717758866 1:0.16235329 2:0.55578595 3:-0.1085662 4:-0.1487515 5:0.03617847 6:0.39141133 7:0.30825314 8:0.65862316 9:0.70343965 10:0.8784737 11:0.15936059 12:0.084011234 13:0.73818737 14:-0.14979458 15:0.94217902 16:0.98160255 #
-7.1490903932792724262412775715347 1:1.2007143 2:0.93322402 3:0.60536325 4:1.0332476 5:0.28843752 6:0.49121174 7:0.40467501 8:0.4216449 9:0.57351559 10:0.97411573 11:-0.016567666 12:0.8077246 13:0.41912138 14:0.72375375 15:0.70050102 16:0.65914065 #
0.81115786316901083985442255652742 1:0.16621383 2:0.12718101 3:0.78318608 4:0.5341751 5:-0.085349657 6:0.8568235 7:0.21031788 8:0.41072482 9:1.1728754 10:1.2676523 11:-0.183718 12:0.86701566 13:0.64724815 14:0.81524557 15:1.1421312 16:0.23479567 #
-0.88822631699794896142918787518283 1:1.0813392 2:0.58582336 3:0.68677938 4:0.2727572 5:0.78363299 6:1.0317686 7:-0.37504527 8:0.14345132 9:0.81336516 10:1.2338979 11:0.26373544 12:0.76205671 13:0.13082951 14:-0.083642453 15:0.14867701 16:0.27542496 #
1.0379908040297245452876495619421 1:0.56300038 2:0.31107551 3:-0.11891515 4:0.82282376 5:0.47129682 6:0.42206222 7:0.30766904 8:-0.25912169 9:0.040273681 10:0.25827113 11:-0.20141579 12:0.2182216 13:-0.25306705 14:0.35259587 15:0.76659894 16:0.50454843 #
-0.39961979109420697753307649691124 1:1.2847341 2:0.21255094 3:0.45762488 4:-0.36739722 5:0.071821027 6:1.1857381 7:0.53716844 8:-0.11984735 9:0.75983006 10:-0.28007409 11:-0.59616321 12:0.95139235 13:0.90478498 14:0.75961375 15:0.28915876 16:0.49819529 #
-0.94453422665379316303102541496628 1:1.1863565 2:0.11307962 3:0.21432404 4:1.4524763 5:0.52419168 6:0.12867206 7:-0.069617964 8:1.1767751 9:0.60665888 10:0.82931924 11:0.33597818 12:0.25115067 13:0.76532364 14:0.099170014 15:0.074984454 16:0.57270157 #
-0.68525735265270326657116584101459 1:0.10972982 2:1.1619853 3:0.32994685 4:0.29097104 5:0.30329862 6:0.16991548 7:0.30802476 8:0.69318193 9:0.66604394 10:-0.44842494 11:0.11804195 12:0.47887179 13:0.24089827 14:-0.0003336831 15:0.45262486 16:0.39495474 #
-0.49354079890863633561792767068255 1:0.55042654 2:0.13988458 3:0.30562043 4:1.2618111 5:-0.48831004 6:-0.29720268 7:0.21759029 8:0.49774441 9:0.67399734 10:1.2405876 11:1.4429144 12:1.3131995 13:1.2162243 14:0.53348243 15:0.6065532 16:0.53774416 #
0.47135385475947644273730929853627 1:1.3042487 2:1.1004236 3:1.828932 4:1.5264695 5:0.099753082 6:1.0876048 7:0.81044894 8:0.37607926 9:0.26731661 10:0.30997813 11:0.16183412 12:0.46837306 13:0.66621065 14:0.65758878 15:0.25911304 16:0.51931316 #
0.056741051016801803685840610569358 1:0.69095761 2:0.81452966 3:0.95417112 4:1.0624783 5:0.45079982 6:1.2500232 7:-0.54196835 8:1.0546417 9:0.10629728 10:1.1625122 11:0.58345342 12:2.1298096 13:1.5380412 14:0.0045364574 15:-0.23596437 16:0.69420505 #
-1.1191727025520996630092440682347 1:0.76647717 2:0.4675914 3:0.64304483 4:0.30653918 5:0.53040475 6:1.0702715 7:0.59336132 8:0.75008565 9:0.41554019 10:0.57498437 11:-0.12161355 12:-0.034793679 13:1.0487294 14:0.059215687 15:1.1240526 16:0.76071471 #
-0.26486923751843338692424367764033 1:1.6300967 2:-0.12576456 3:0.32519802 4:0.66232955 5:0.36127707 6:0.5140065 7:0.6528421 8:0.46784145 9:0.22231947 10:1.1027521 11:0.33837277 12:-0.020523163 13:0.33629879 14:1.762019 15:0.057162624 16:0.095894665 #
1.2662189998659636458455679530744 1:0.48161477 2:0.45900625 3:0.74466938 4:-0.087076083 5:0.9354592 6:0.86121631 7:0.49147394 8:0.10589761 9:0.99116725 10:1.181923 11:0.012439595 12:0.95569432 13:0.49740356 14:1.1426255 15:0.61693895 16:0.66328931 #
-0.93474987612070237208428125086357 1:-0.43962699 2:0.016490215 3:-0.33904591 4:0.027010966 5:0.78016496 6:0.46581206 7:0.085056514 8:0.60569984 9:0.5086447 10:0.96943784 11:0.036962543 12:1.0217029 13:-0.088441163 14:0.4202902 15:0.084736325 16:0.97800291 #
1.1077522608509942081411736580776 1:0.28829807 2:0.23671736 3:0.68675309 4:0.24164283 5:1.0755386 6:0.79205877 7:0.17177102 8:0.80940729 9:0.8317036 10:1.0628048 11:0.21672794 12:1.0987288 13:0.82726604 14:-0.31401065 15:0.21766487 16:0.41004932 #
1.9792146389465867795109943472198 1:0.015279193 2:0.14129165 3:1.2018046 4:0.25469345 5:1.0049875 6:0.30055782 7:0.14725921 8:0.46547374 9:0.72823733 10:0.26530576 11:0.99455512 12:-0.14284281 13:0.31891158 14:0.50507027 15:0.28170067 16:0.57678252 #
0.33965545451093182016677474166499 1:0.38092566 2:-0.04987894 3:0.34379077 4:0.087071814 5:1.3891238 6:0.80166483 7:0.64048684 8:-0.34961957 9:0.021267589 10:0.042025268 11:-0.059547167 12:-0.7707606 13:1.5821674 14:0.70128334 15:0.61662263 16:0.43884897 #
-0.053336584215000787390081882222148 1:1.0896368 2:1.2649243 3:-0.15905593 4:1.1064699 5:-0.77075249 6:-0.50985974 7:0.29922259 8:1.0662463 9:-1.2289395 10:0.77101618 11:0.53958738 12:0.29434025 13:0.54344094 14:1.1768235 15:0.047892798 16:-1.3724658 #
-1.1783417207339483834260818184703 1:0.36125672 2:0.052481279 3:0.56652576 4:1.2677329 5:-0.097761653 6:0.39632651 7:0.15273502 8:0.71822572 9:0.22867398 10:0.481332 11:1.1273869 12:0.29874083 13:0.17303075 14:0.21562773 15:0.10528383 16:0.18409945 #
1.3983530884001609262412557654898 1:1.3267163 2:0.71721739 3:-0.18967059 4:0.11621212 5:0.75798219 6:0.44254878 7:0.81474322 8:0.48163992 9:0.2663722 10:0.78360945 11:-0.13461 12:0.29640818 13:0.91249436 14:0.26404759 15:-0.31122753 16:0.46815017 #
-0.74694129333493364253371282757143 1:0.89152575 2:0.4017866 3:0.36185265 4:0.44130945 5:0.38475958 6:-0.017471209 7:0.004364104 8:0.08952529 9:0.31203502 10:-0.39878935 11:0.28147432 12:0.68079293 13:0.018608898 14:1.2279519 15:0.50208139 16:0.79334545 #
0.73133050149201139777943581066211 1:1.2346901 2:-0.30903006 3:-0.37958774 4:0.63656723 5:0.06757129 6:1.0815818 7:0.22217709 8:0.76700914 9:0.56143689 10:0.81711489 11:0.79472786 12:0.45104906 13:1.1636316 14:0.6316368 15:0.72729957 16:0.13981488 #
0.60700510881623503944837239032495 1:-0.052304871 2:-0.094737865 3:0.51819587 4:0.026012776 5:0.057201162 6:0.16713272 7:0.059689812 8:-0.83050179 9:0.41600412 10:0.88410932 11:-0.45456582 12:-0.38348642 13:1.5465397 14:0.84121335 15:0.40056658 16:0.27115288 #
0.24124123500187158453123004164809 1:0.92089504 2:-0.15951146 3:0.24710335 4:0.78355265 5:0.46834186 6:1.2047721 7:-0.031667363 8:-0.5908674 9:0.71187222 10:0.92050016 11:0.10994359 12:0.49225473 13:0.34343839 14:0.85050857 15:0.4403038 16:1.1522141 #
4.2951263421346919102461470174603 1:0.96494168 2:0.73783714 3:0.085470445 4:0.028106492 5:0.57881486 6:0.60447925 7:0.97902685 8:0.42430308 9:0.31628403 10:0.63201517 11:-0.031093357 12:0.7519592 13:0.56344545 14:0.74353731 15:0.79514307 16:0.18393467 #
-0.82560300767389349640978934985469 1:0.060824666 2:0.36600301 3:-0.11932998 4:0.79189384 5:0.84443146 6:1.2201258 7:0.62343401 8:0.46522558 9:0.4676446 10:1.3913134 11:0.28299776 12:0.61580807 13:0.33719242 14:0.42560124 15:-0.085057922 16:0.48414254 #
-1.5894842773930832890982856042683 1:0.46935001 2:0.90770435 3:0.24048299 4:0.27090552 5:-0.092088312 6:0.5474996 7:0.16269584 8:0.66095239 9:0.51175857 10:0.8436774 11:0.41189685 12:0.013029049 13:0.29643428 14:0.4119412 15:0.099505477 16:0.93877876 #
0.18186442285508247485026345202641 1:0.54425436 2:0.01048753 3:0.37511551 4:1.4960486 5:-0.89236861 6:-0.74286729 7:0.20427631 8:0.39640057 9:0.80163038 10:1.5625559 11:2.0824459 12:1.62476 13:1.666981 14:0.48016313 15:0.62561059 16:0.62816906 #
-0.18689082935875619972954098102491 1:0.36228606 2:0.47545218 3:0.93687183 4:-0.18688765 5:0.43777016 6:1.2275072 7:-0.064225212 8:0.11676566 9:1.6385927 10:1.7260295 11:-0.29446885 12:0.7237938 13:1.2877617 14:0.97682065 15:0.95036399 16:0.37297922 #
1.1727501505884148080838258465519 1:0.95339084 2:0.29195312 3:0.19045679 4:0.75508386 5:0.16234174 6:0.96546286 7:0.017504565 8:1.0290213 9:0.20359635 10:0.41651753 11:0.61758912 12:1.0286955 13:0.25446239 14:0.76692009 15:-0.11593563 16:0.45951948 #
-1.3745273821629835353519411000889 1:0.76115459 2:0.48924974 3:-0.082499012 4:1.1228318 5:0.48925743 6:0.75953543 7:0.84282488 8:0.44885531 9:0.52196038 10:0.48713207 11:0.72070718 12:0.6743297 13:0.50966525 14:1.1745924 15:1.0168927 16:0.50097048 #
0.79670508388274452471478070947342 1:0.24279547 2:-0.40558195 3:0.66691422 4:0.63611132 5:0.379664 6:-0.24713448 7:0.76868349 8:0.84664947 9:0.097735584 10:0.90121114 11:0.049860686 12:0.75447237 13:0.16038045 14:0.85758597 15:0.47282159 16:0.065869942 #
-0.35679360007228777540433384274365 1:1.3152345 2:1.1620526 3:0.029536724 4:1.1198246 5:-0.6055997 6:2.1302183 7:-0.0011290346 8:0.39207155 9:0.77894115 10:-0.48809856 11:0.65708548 12:0.22440004 13:1.27326 14:0.40082464 15:0.38721451 16:0.47615987 #
-0.49726190226864769305947788780031 1:1.020175 2:-0.19293244 3:0.6592955 4:0.42197004 5:0.9155606 6:0.3145839 7:0.34088537 8:0.32070479 9:0.78336054 10:0.6850518 11:0.23614396 12:0.74493754 13:0.072184116 14:0.26624298 15:0.20931353 16:1.0398906 #
-0.30343869052255939555706731880491 1:0.98172069 2:0.41772297 3:0.19055347 4:0.56231427 5:1.0546691 6:1.635089 7:-0.19593632 8:0.80762315 9:0.85282809 10:0.65980721 11:0.078551643 12:1.0635314 13:0.46196091 14:0.87163061 15:0.37515274 16:0.39250398 #
-1.2692035033852602232684603222879 1:1.0411565 2:0.5170781 3:0.22874579 4:0.72828442 5:0.82234198 6:0.74347442 7:0.20133045 8:0.71897328 9:0.36608556 10:0.40291744 11:0.1015687 12:0.44747207 13:0.97681767 14:0.29575673 15:0.029340858 16:0.26805136 #
0.50747494088477662632641340678674 1:0.33560845 2:0.097542837 3:0.22713698 4:0.49286932 5:0.35307765 6:-0.36317033 7:-0.18448019 8:0.61650902 9:0.42853716 10:0.81279379 11:-0.17347583 12:0.052325141 13:0.15862527 14:0.53425306 15:-0.17681752 16:0.040854752 #
3.5597119950398909971056582435267 1:0.27884689 2:-0.035038795 3:0.49940866 4:0.56294042 5:-0.0057187025 6:0.49357137 7:0.12284039 8:0.0072692903 9:0.56736636 10:0.86005014 11:0.17628536 12:0.72746944 13:0.29644325 14:0.82820207 15:0.35622171 16:0.41672793 #
-0.09020408060606785460855405744951 1:-0.10171705 2:0.66743481 3:1.2582045 4:-0.88639134 5:1.214698 6:0.30886486 7:1.3907657 8:0.29836717 9:0.099670626 10:0.90507156 11:0.59522885 12:1.1891674 13:0.79963368 14:0.53147578 15:0.334993 16:-0.053920031 #
0.66611578607261889839463719908963 1:0.39568725 2:0.47464263 3:-0.25944236 4:0.90006989 5:0.030845556 6:0.88658011 7:1.1942146 8:0.87862152 9:-0.20768017 10:0.39644012 11:0.34478894 12:0.96733928 13:-0.27888846 14:0.64713031 15:0.29360393 16:0.45926815 #
-0.26616962020475548600373372210015 1:-0.19961281 2:0.799954 3:0.20967032 4:-0.06486991 5:-0.34557903 6:0.39277318 7:0.63055277 8:1.9177399 9:0.79202402 10:0.10906082 11:0.080115661 12:0.94544631 13:1.0563813 14:0.75767636 15:0.12827703 16:0.37806958 #
1.2236245643244640923796850984218 1:0.82889223 2:0.91071182 3:0.27557415 4:0.74499935 5:-0.081417382 6:0.35455135 7:0.45577925 8:0.57040912 9:0.50933319 10:0.10157156 11:0.18541639 12:0.76284838 13:0.17066392 14:-0.15248607 15:0.4203319 16:0.68468428 #
-0.70236851860795612711996227517375 1:0.13057351 2:-0.094357096 3:-0.015734876 4:-0.10060338 5:0.54953158 6:-0.1460271 7:0.96060246 8:0.34881833 9:0.29850236 10:0.61743116 11:-0.023083312 12:0.92743951 13:1.6470433 14:0.72197545 15:0.23070896 16:-0.0091184694 #
0.60355029137133042738128096971195 1:1.2138635 2:1.3455479 3:0.47474146 4:0.55846822 5:0.491503 6:0.39326838 7:0.41102341 8:0.43517026 9:0.81981468 10:2.2124438 11:0.25915432 12:1.0943006 13:-0.96849465 14:0.042010996 15:0.25290316 16:0.66353595 #
1.228457158381488278919846379722 1:0.13262303 2:1.1504792 3:-0.43273357 4:0.61853558 5:1.1248956 6:0.43337134 7:0.47241548 8:0.78038907 9:0.69632614 10:0.51284403 11:0.021558769 12:1.1496873 13:0.80883467 14:0.80424088 15:0.58061123 16:0.94511414 #
0.9165698528625295660177130230295 1:0.60202658 2:-0.22436768 3:0.30887479 4:1.2538688 5:1.3489941 6:0.39259699 7:0.63593668 8:1.1765987 9:0.38457438 10:1.0382707 11:0.013384134 12:0.48113832 13:0.16429918 14:0.031276591 15:0.16473514 16:0.020495307 #
5.6988752716820201271730184089392 1:0.5648998 2:0.85062933 3:0.13226801 4:-0.025983017 5:1.0260218 6:0.53666949 7:0.4716329 8:0.45513377 9:0.54479933 10:0.60765404 11:0.09813147 12:0.80864817 13:0.80015963 14:0.36845213 15:0.19482371 16:0.34056902 #
0.84732059656790059687381244657445 1:0.84478486 2:1.213806 3:0.56739372 4:0.76239377 5:0.33383057 6:1.0815132 7:0.017409552 8:0.19914854 9:0.24575329 10:0.30232993 11:-0.17128354 12:0.49122506 13:0.50963432 14:0.51210332 15:1.0590398 16:0.39719939 #
-0.99495317276623218560871464433149 1:0.62931007 2:-0.01406843 3:0.10126458 4:1.2255955 5:0.16003451 6:0.37239107 7:0.39722759 8:0.066454172 9:0.40362528 10:1.0607215 11:0.38193887 12:1.1887504 13:0.034229174 14:0.050998498 15:0.17200263 16:1.2041458 #
-0.69773527206645136189422373718116 1:0.8755309 2:-0.03745205 3:0.44942802 4:0.43161994 5:1.1561418 6:1.0854733 7:-0.36692965 8:0.70796859 9:-0.10912462 10:0.58522338 11:-0.40864509 12:0.83205134 13:0.43837073 14:0.37293804 15:1.1070462 16:0.87587464 #
0.83328453281182368606039290170884 1:0.83684242 2:1.0155113 3:0.19344449 4:0.4824743 5:0.13622463 6:0.25147533 7:0.031287469 8:0.69406044 9:0.037103444 10:0.62113392 11:0.1107993 12:1.0016693 13:0.82032019 14:0.84391522 15:0.29681596 16:1.2599511 #
0.33727604949802419964655086914718 1:0.81575 2:0.63945156 3:-0.26398575 4:0.38953927 5:0.55639279 6:0.46408933 7:-0.021136444 8:1.5022817 9:0.52096325 10:0.54486823 11:-0.12370859 12:-0.0041218661 13:-0.12529476 14:0.16777028 15:0.21856113 16:0.092926942 #
0.99277338234798984117901454737876 1:0.99776518 2:1.3758028 3:0.69553953 4:1.4320656 5:-0.099971429 6:1.079106 7:0.54892743 8:0.61767769 9:-0.042656217 10:1.1873878 11:0.55227363 12:-0.21946862 13:1.0897826 14:0.65983522 15:0.80291414 16:0.41158584 #
0.5222124548041623404159849997086 1:1.0837837 2:1.1328909 3:-0.035999041 4:0.17093536 5:0.6043762 6:0.95214224 7:0.6385473 8:0.20610952 9:0.59355628 10:0.61073643 11:-0.071155198 12:0.5617559 13:0.68746477 14:0.63597792 15:0.63326234 16:1.3899565 #
-0.77844745637207213295738483793684 1:0.46093652 2:0.071457967 3:0.68985158 4:0.64992064 5:0.66040432 6:0.0098002562 7:0.73759592 8:0.46684921 9:0.83053547 10:0.59281522 11:0.18814094 12:0.0049130982 13:0.27068979 14:0.75961888 15:1.3360724 16:0.72117823 #
-0.48738204614447483420391904473945 1:0.87312412 2:1.1614207 3:0.070821941 4:0.36463761 5:0.51930869 6:0.36450991 7:0.8771221 8:-0.317352 9:0.57737863 10:0.36845225 11:0.53976351 12:-0.21506627 13:0.39617229 14:0.33455324 15:0.77859259 16:0.54858375 #
0.77150495826030818236063169024419 1:2.2953167 2:1.0185406 3:1.1823751 4:1.316512 5:0.29386359 6:0.47035119 7:0.31741738 8:0.61477453 9:0.80596858 10:0.97539896 11:0.3000147 12:0.51293695 13:0.50074351 14:0.70471525 15:0.74225616 16:0.20195067 #
1.0113141666817018204937994596548 1:0.33804795 2:0.66945446 3:0.016551625 4:1.0394783 5:0.24939579 6:-0.16981362 7:-0.12708758 8:0.1775942 9:0.14271358 10:0.87615412 11:0.094813719 12:0.98064113 13:0.93370956 14:1.1274512 15:0.55451268 16:-0.039428655 #
-0.80419267515989401040599204861792 1:1.3480852 2:1.0390844 3:-0.014422074 4:0.76513517 5:0.43623045 6:0.81382203 7:1.1994965 8:0.91496187 9:0.23441574 10:0.46034306 11:0.65325463 12:1.3338133 13:0.51227295 14:0.54403138 15:0.76308769 16:0.20215741 #
-0.50114037986902160159985442078323 1:1.1600505 2:0.21789904 3:0.30327702 4:0.48549634 5:1.8286142 6:-0.35258344 7:0.63178885 8:0.15127638 9:0.55731767 10:1.0812483 11:-0.57769471 12:1.8758545 13:0.48972857 14:-0.048316695 15:0.46350178 16:0.9133178 #
-0.067262639024099180051763369192486 1:0.39871475 2:0.10399079 3:0.65562814 4:0.79828799 5:0.063925773 6:0.6723178 7:-0.01168374 8:1.0030649 9:0.46280006 10:0.54608518 11:0.3406069 12:0.70259404 13:0.31002599 14:0.54845601 15:0.77308995 16:1.3264419 #
0.099794748473682332035039621587202 1:0.24762957 2:0.12332527 3:0.70219129 4:0.9777081 5:0.87309837 6:1.0013649 7:-0.088380747 8:0.39558688 9:-0.032684814 10:0.83153671 11:0.062267832 12:1.4086236 13:0.62863469 14:0.18610883 15:0.074062854 16:0.90957761 #
-1.554327816995904276708984070865 1:0.92932552 2:0.22307017 3:0.12258728 4:-0.10432203 5:0.49788836 6:0.63352615 7:0.58257741 8:0.60371047 9:1.0575788 10:0.38365602 11:0.35493651 12:0.53050196 13:0.92685556 14:0.1688486 15:0.32593209 16:0.97757667 #
3.0359699817221028617097999813268 1:0.46415436 2:0.67177069 3:0.31411642 4:0.91170406 5:0.13999911 6:0.88830841 7:0.45825055 8:0.78985906 9:0.38814557 10:0.019471461 11:0.32383406 12:0.45682445 13:0.69241601 14:0.60584921 15:0.035504308 16:0.10819138 #
0.55379919078455808190142306557391 1:0.56637388 2:0.93341058 3:-0.18240285 4:0.7446993 5:0.07610184 6:0.10316157 7:0.47604039 8:0.71934825 9:0.55158186 10:0.14216693 11:0.31752577 12:-0.28057608 13:1.0852591 14:0.0065782885 15:0.24710649 16:0.52207804 #
-1.0053672940795794765733717213152 1:0.5489074 2:0.53212678 3:0.20683697 4:1.0768145 5:0.92753839 6:-0.049826648 7:0.44788298 8:-0.25120619 9:0.6049428 10:0.13515943 11:0.10057686 12:0.95886421 13:0.077390857 14:0.14590557 15:0.095778026 16:0.20136707 #
1.9774582162157945397495950601296 1:0.16604166 2:0.42695692 3:0.52660203 4:0.70746469 5:0.094760142 6:1.0991342 7:0.42355999 8:0.73792166 9:0.22162142 10:0.77960068 11:0.10573029 12:0.25564998 13:0.11306324 14:0.49835631 15:0.92134523 16:0.21139212 #
0.96371667806012217827316135299043 1:1.1119531 2:1.0823617 3:0.71090037 4:0.9909324 5:0.25586417 6:-0.21462567 7:0.23925342 8:0.78888309 9:0.37329078 10:0.3162106 11:1.0047644 12:0.095494278 13:-0.1387803 14:0.73404443 15:0.1478287 16:0.75346482 #
-0.86359228450120251174837449070765 1:0.96231425 2:0.85837168 3:0.17127815 4:1.0552945 5:0.5650388 6:0.68955499 7:1.0469859 8:0.48276809 9:0.95073354 10:0.57964206 11:0.06695804 12:0.34381557 13:0.78571635 14:-0.28201574 15:0.25928691 16:0.76745021 #
3.1532332850811437552351890190039 1:0.30577505 2:0.46358052 3:0.3220844 4:0.65467566 5:0.34022209 6:0.025681455 7:0.47389883 8:0.54927123 9:0.83971024 10:0.6845122 11:-0.11598306 12:0.82032096 13:0.50244868 14:0.2302179 15:0.39697099 16:0.66116464 #
0.40344724933602105210184163297527 1:0.88350028 2:1.6871009 3:1.1741346 4:0.40883055 5:0.48422831 6:0.44080672 7:0.98476648 8:-0.14712213 9:1.3707273 10:1.1839571 11:0.39520669 12:0.49162376 13:-0.43446466 14:0.88841939 15:0.00047051153 16:0.32087237 #
0.37226252817474975165268347154779 1:-0.63535219 2:0.4535155 3:0.012335381 4:0.34155318 5:0.72965008 6:-0.036978491 7:0.84485751 8:1.1169803 9:-0.36324212 10:0.7901634 11:0.82301188 12:1.6667668 13:0.23872402 14:-0.5335052 15:0.41325036 16:0.8891145 #
0.90588846438951919903814768986194 1:1.0097139 2:0.31094936 3:-0.045998774 4:0.67893237 5:1.3863003 6:0.32764217 7:0.95316571 8:0.2767359 9:0.839652 10:0.57072365 11:-0.57183981 12:0.21853296 13:-0.31499687 14:0.48430598 15:0.26126909 16:0.81088531 #
0.46823580465059955191264862151002 1:0.73714864 2:0.092570253 3:-0.027505141 4:0.65098238 5:0.82293874 6:0.70571804 7:1.3297585 8:-0.30437851 9:0.281975 10:0.91127789 11:-0.014646537 12:0.96812648 13:0.58210337 14:0.32305518 15:0.017173165 16:0.79691726 #
0.24529114558165127091271529025107 1:0.3099688 2:0.82955778 3:-0.21613012 4:0.96339822 5:0.31361756 6:1.0682393 7:0.65319735 8:0.28858262 9:-0.11544242 10:0.082799874 11:0.79621649 12:1.2005018 13:0.10875162 14:0.33572927 15:0.55678022 16:-0.34919915 #
0.38694445393100834751365368902043 1:0.32459462 2:0.74211079 3:0.19029172 4:0.7396329 5:-0.0476791 6:0.29059094 7:1.2637757 8:-0.18922442 9:0.98012316 10:0.87833238 11:0.041666262 12:0.51712871 13:0.67664021 14:0.26200506 15:1.2758614 16:0.51817614 #
-0.97393465014956659420164442053647 1:0.28315333 2:1.0884025 3:0.19258213 4:0.72510952 5:0.59843594 6:1.0761749 7:0.70233721 8:0.42346326 9:0.28261173 10:0.68104506 11:0.48585862 12:0.48471415 13:0.42327246 14:0.029765643 15:0.83619463 16:0.60424536 #
0.86124803253573933847775379035738 1:0.7937361 2:0.79927456 3:0.82701194 4:0.78740102 5:0.49391443 6:0.21583928 7:0.47925386 8:0.3453601 9:0.38775173 10:0.57019442 11:-0.38236177 12:1.3460431 13:0.89165503 14:1.0282208 15:0.98645777 16:-0.11632635 #
0.44616130949641830127916364290286 1:0.93143588 2:0.11305469 3:0.15842631 4:-0.038873311 5:0.28649876 6:0.40152928 7:0.36781856 8:0.23459363 9:0.94854844 10:0.48086566 11:-0.38289255 12:-0.38567403 13:-0.40926278 14:-0.023343073 15:0.85497391 16:0.5048601 #
-0.03581807433144513358458382867866 1:0.53908366 2:0.67630929 3:-0.0090262452 4:1.0303719 5:1.1053044 6:0.11912156 7:0.29738253 8:0.094982624 9:-0.57258892 10:0.75671571 11:0.81299651 12:2.4966242 13:1.0301961 14:0.13070177 15:-1.0201762 16:-0.64375877 #
0.87899026829780868563801732307184 1:0.48998141 2:1.0464712 3:0.34417209 4:1.3602037 5:-0.083017036 6:0.15855952 7:1.4783046 8:0.17891344 9:0.5169006 10:0.96761131 11:1.1777996 12:0.3988674 13:0.27907395 14:0.84109086 15:0.26288518 16:0.16287117 #
0.18337949341727846630512033243576 1:0.89927608 2:0.11568334 3:0.26620093 4:0.44575965 5:-0.4064436 6:-0.4581539 7:0.6959213 8:0.30410448 9:0.76723814 10:0.95020849 11:0.29349962 12:0.70935845 13:1.2552476 14:1.0572861 15:0.13224475 16:0.9057228 #
-0.29858032390885186346807245172386 1:0.27124968 2:-0.93113756 3:1.30246 4:0.90800053 5:-0.33150494 6:0.71099174 7:-0.10927307 8:-0.22491133 9:0.67402852 10:1.1977018 11:0.44009516 12:0.98757863 13:0.30925658 14:0.8495912 15:0.17522848 16:0.3149665 #
0.49922257472324210736402960719715 1:-0.055738006 2:0.42374748 3:0.55360293 4:1.306339 5:0.16834615 6:0.29240704 7:0.62120235 8:0.86685228 9:0.79200846 10:0.53743595 11:0.12085868 12:0.80245632 13:0.72395802 14:0.27020213 15:1.1466817 16:0.57152951 #
-0.46944471190994457865386380035488 1:0.89305168 2:0.67278004 3:-0.057857424 4:1.4632822 5:0.67199969 6:0.094514094 7:-0.57856327 8:0.299952 9:0.88119054 10:1.0562565 11:0.29828379 12:0.63620144 13:0.21397264 14:1.2405076 15:0.38751429 16:-0.1246843 #
0.57405988287402065495257375005167 1:0.669617 2:0.43026018 3:0.099304646 4:1.0056387 5:-0.21466899 6:0.89593893 7:0.71866006 8:0.36123443 9:-0.13832468 10:0.33987495 11:0.68460679 12:0.44042182 13:1.1018147 14:0.17056943 15:0.068665996 16:1.1476067 #
-1.7044320231484584304837426316226 1:0.0037350873 2:-0.16412351 3:-0.27312958 4:0.34048295 5:0.42686263 6:0.95699412 7:0.60190272 8:0.44463453 9:-0.14725031 10:0.2755861 11:-0.45206538 12:0.98366159 13:0.88672847 14:0.65595812 15:0.48556456 16:0.61012501 #
2.1946039405528199317529924883274 1:1.2232249 2:0.7879985 3:0.74478179 4:0.85589379 5:-0.12122348 6:1.1201264 7:0.4580726 8:0.73735815 9:0.48595691 10:0.27756032 11:0.25574794 12:0.33601576 13:0.54693574 14:0.90047991 15:0.72900832 16:0.85999793 #
1.1078246109977498701226750199567 1:0.82175142 2:0.69715202 3:0.22456744 4:0.75609034 5:0.22999115 6:0.48591435 7:0.28916439 8:-0.11513869 9:0.46063384 10:0.047470342 11:-0.12175614 12:-0.084068656 13:0.70125347 14:0.8980723 15:0.15959609 16:0.70211715 #
-0.22360570573699167784553765159217 1:-0.065854505 2:0.85893375 3:0.051632911 4:0.90732276 5:0.57797056 6:0.045465354 7:0.82323623 8:0.34227097 9:0.8857007 10:1.367388 11:0.44248408 12:0.43377468 13:0.42885986 14:1.1542639 15:0.7370497 16:0.19643712 #
0.64722648473292665460832040480454 1:1.1474882 2:0.80024362 3:0.19914952 4:0.70670491 5:-0.11708624 6:0.46594021 7:0.43611866 8:0.262375 9:1.3843075 10:0.82367522 11:0.86003637 12:0.57267356 13:0.25568956 14:0.20285675 15:0.85918719 16:0.29269317 #
0.29023045707624844924410467683629 1:0.44108158 2:0.38838696 3:0.84246576 4:0.31936902 5:0.94460779 6:0.22478966 7:-0.16103521 8:0.1451935 9:0.12100017 10:0.91346812 11:0.31354958 12:0.87194121 13:0.74429631 14:0.037572712 15:1.1146066 16:0.38493311 #
0.48593253302026290230131166936189 1:0.09465605 2:0.28954798 3:-0.054712214 4:-0.04700629 5:0.31551015 6:0.9228195 7:1.0241464 8:0.33350083 9:0.28929326 10:-1.4384192 11:0.67353427 12:0.75107121 13:0.80998576 14:0.39910486 15:0.10001247 16:0.87564075 #
3.7397120029256849527143913292093 1:0.76561606 2:0.76940316 3:0.047518007 4:0.74119884 5:0.02832121 6:0.33414924 7:0.6216405 8:0.70747817 9:0.61095953 10:0.47247979 11:0.37322611 12:0.64082491 13:0.39650974 14:0.68892717 15:0.45763227 16:0.3882328 #
1.031947934630799590394190090592 1:0.83318037 2:-0.29953593 3:0.22097717 4:0.13666694 5:0.79865462 6:0.60459775 7:0.4165009 8:0.22218211 9:0.42639112 10:0.93596798 11:-0.17139503 12:-0.27497545 13:0.28970149 14:0.58872694 15:-0.0067194155 16:0.71023005 #
-2.7999393541953061514959699707106 1:1.1452206 2:0.75616956 3:0.28702056 4:0.58987719 5:0.62590569 6:0.18367012 7:0.55413479 8:0.42646077 9:0.019990668 10:0.97990537 11:0.48145565 12:0.74829644 13:0.42740366 14:0.14658543 15:0.15292653 16:0.85544765 #
-0.13907169058734994426806963474519 1:1.0410334 2:1.7969418 3:-0.70775425 4:0.47258958 5:1.5922948 6:0.52382863 7:0.67444432 8:1.1651824 9:0.95702529 10:1.014596 11:0.067781001 12:1.3985881 13:0.57898682 14:0.66833305 15:0.85812557 16:1.1171176 #
-0.18594422713880412456610713434202 1:1.0383089 2:1.022565 3:0.045511868 4:-0.20972282 5:-0.19945545 6:0.29331386 7:0.58794439 8:0.43064386 9:0.074008025 10:0.21794027 11:-0.10931212 12:1.6805024 13:0.96747583 14:-0.41770291 15:1.5522151 16:1.1286451 #
-0.94730813769489941034152025167714 1:-0.046536762 2:0.68222421 3:0.42075223 4:0.11472894 5:0.1458918 6:0.95677775 7:0.32954735 8:0.5802139 9:0.72513121 10:0.58623272 11:-0.053548601 12:0.86417019 13:0.68158597 14:-0.19605759 15:0.10376675 16:0.037903126 #
-1.0913854275114218683739863990922 1:1.3179445 2:-0.061168972 3:0.19371293 4:1.3023481 5:0.32285973 6:-0.04540522 7:0.38347307 8:-0.037881829 9:0.89076477 10:0.73764759 11:0.42990124 12:-0.12785234 13:0.6890471 14:0.89133161 15:0.57315457 16:0.78908014 #
0.18775931003722898249286288319126 1:0.59588903 2:0.024866702 3:1.4538102 4:0.51414865 5:0.53757852 6:1.0419186 7:1.9027526 8:0.33153495 9:0.4852387 10:0.84400433 11:-0.43839476 12:0.82877654 13:0.66854715 14:-0.13968952 15:0.50644261 16:0.66181809 #
