SVM-light Version V6.20
2 # kernel type
3 # kernel parameter -d 
0.5 # kernel parameter -g 
1 # kernel parameter -s 
1 # kernel parameter -r 
empty# kernel parameter -u 
14 # highest feature index 
32 # number of training documents 
1001 # number of support vectors plus 1 
0 # threshold b, each following line is a SV (starting with alpha*y)
-12.518354743838994380666918004863 1:0.30796939 2:-0.24415106 3:0.91755641 4:0.82811636 5:0.45308238 6:0.56755769 7:0.47688094 8:0.31141776 9:-0.24264036 10:0.92011857 11:0.82489109 12:0.44946903 13:0.56551504 14:0.46810749 #
-11.8733871615144419564558120328 1:0.54653847 2:0.5000301 3:0.47301427 4:0.49847588 5:0.52797556 6:0.48354104 7:0.48659849 8:0.54315996 9:0.49773717 10:0.4691315 11:0.50093234 12:0.52982676 13:0.48237079 14:0.49526125 #
10.956155075029840872957720421255 1:0.16798975 2:0.45811513 3:0.85744482 4:0.94235671 5:0.36975804 6:0.58233434 7:0.51656663 8:0.16147013 9:0.44355497 10:0.87104356 11:0.94409275 12:0.37709111 13:0.59540725 14:0.48868483 #
20.007071700533305858016319689341 1:0.78943789 2:-0.15939142 3:0.51964867 4:0.57323152 5:0.57621664 6:0.42118064 7:0.49257833 8:0.7790547 9:-0.15511657 10:0.47742191 11:0.55253011 12:0.58121783 13:0.43182015 14:0.51732814 #
4.6698186332758808703147224150598 1:-0.20569286 2:0.058024243 3:0.31764957 4:0.42468777 5:0.31765133 6:0.67365766 7:0.53039563 8:-0.17068569 9:0.044600151 10:0.5675987 11:0.59179246 12:0.33876488 13:0.75294036 14:0.4724873 #
12.48674716964624131776417925721 1:0.37920865 2:0.12879655 3:0.20594299 4:0.099216796 5:0.13825309 6:0.33714205 7:0.81289744 8:0.60456979 9:0.022433389 10:0.99176806 11:0.89891326 12:0.28795341 13:0.62144279 14:0.7140916 #
8.0239066270391816715346067212522 1:1.0501471 2:0.23600486 3:1.2465698 4:0.98829162 5:0.70454699 6:0.53001159 7:0.3256796 8:0.93933541 9:0.17167605 10:0.9607991 11:0.34575811 12:0.57247752 13:0.40638748 14:0.39735848 #
-6.2448412775655164352883730316535 1:1.0244893 2:0.28246456 3:0.43704346 4:0.65082592 5:0.48938856 6:0.14748204 7:0.67013413 8:1.2197617 9:0.24546 10:0.79687417 11:1.0045296 12:0.65094578 13:0.30561468 14:0.58836383 #
3.8069858986869333783431557094445 1:0.35691047 2:-0.021284709 3:0.99812549 4:0.16949372 5:0.50346959 6:0.6941849 7:0.37530577 8:0.18526441 9:-0.017084071 10:0.42579082 11:-0.12133163 12:0.25571889 13:0.50608158 14:0.68949258 #
-3.560170720988574011300897836918 1:0.69089049 2:0.2772508 3:0.39611444 4:0.25123745 5:0.49806067 6:0.86756301 7:0.36660394 8:0.54786551 9:0.067834117 10:1.1790267 11:0.61943364 12:0.46317607 13:0.94686812 14:0.054873992 #
-4.0915730235820504390176211018115 1:0.38802949 2:0.077209346 3:0.94150156 4:0.86976254 5:0.2820808 6:0.10243274 7:0.76193041 8:0.44286016 9:0.23509729 10:0.60535681 11:0.40444374 12:0.22262689 13:0.10971877 14:1.2075933 #
-15.371129032044798634615290211514 1:0.40569878 2:0.1224898 3:0.26244631 4:1.2344199 5:0.70373207 6:0.28569099 7:0.55271482 8:0.097252436 9:0.028063383 10:0.49902558 11:0.85389411 12:0.86666083 13:0.3025181 14:0.53458935 #
5.1779230081177658462365798186511 1:0.36412361 2:0.26309121 3:0.64351588 4:0.45363617 5:0.9194026 6:0.38390222 7:0.49405882 8:0.16422746 9:0.089654118 10:1.0855709 11:0.4379949 12:1.1658987 13:0.35721573 14:0.34786916 #
-3.3892030638199241998620436788769 1:-0.035457671 2:-0.034634028 3:0.96108401 4:0.07849171 5:0.53076309 6:0.2429768 7:0.57964504 8:0.61246407 9:0.18975417 10:0.66925889 11:0.9285289 12:0.90535492 13:0.29628193 14:0.46770063 #
1.7327584558025550531823455457925 1:0.33157569 2:0.050609339 3:0.96741837 4:0.71617317 5:0.59553844 6:0.58616096 7:-0.28313652 8:0.49971515 9:0.23408999 10:0.29677725 11:0.67563623 12:0.50118721 13:0.24228857 14:0.028256223 #
2.4819187290101591969460059772246 1:0.42134923 2:0.065988921 3:0.9663173 4:0.83272183 5:0.63993597 6:0.90217751 7:1.1804733 8:0.585554 9:0.17385195 10:0.28691328 11:0.73518139 12:0.69094723 13:1.0327578 14:0.4480685 #
-1.4038974794714671467943389870925 1:0.56927556 2:0.039624065 3:0.73626566 4:1.1443584 5:0.70035696 6:0.9325285 7:0.78952098 8:0.10562586 9:0.32585719 10:0.5241214 11:0.069698289 12:0.27468711 13:0.32401204 14:0.16704771 #
4.3537814039232216600794345140457 1:0.40305015 2:0.15266392 3:0.76103264 4:0.54273844 5:0.44065964 6:0.58910573 7:1.1839439 8:0.44646445 9:0.0068473383 10:0.89279062 11:0.65183806 12:0.28228712 13:-0.073732495 14:0.13987567 #
-5.0463608250809546262871663202532 1:0.41129693 2:0.31249598 3:0.32129586 4:0.45870402 5:0.2679818 6:0.30582389 7:0.10775542 8:0.20527235 9:-0.00050512544 10:0.78157413 11:0.72015381 12:0.12146603 13:-0.22186463 14:0.22671627 #
3.9094851013466636047155589039903 1:0.61674976 2:0.1303945 3:0.78391969 4:0.50050366 5:0.61703813 6:0.58088875 7:1.1093147 8:0.43051961 9:0.027409766 10:1.1488168 11:0.33682874 12:0.63827366 13:0.98350513 14:1.0612373 #
-5.4202553083560811586494310176931 1:0.36745012 2:0.0027594208 3:0.76596773 4:0.69605708 5:-0.090432726 6:0.6597755 7:0.55858225 8:0.69036609 9:0.11885603 10:-0.039440129 11:0.71802652 12:-0.070694707 13:0.54111511 14:0.14311011 #
2.7591137616927974285374602914089 1:0.91037327 2:0.16049193 3:0.9356581 4:0.84681761 5:0.036988638 6:0.72940719 7:0.49378315 8:0.81179851 9:0.084521867 10:0.77350807 11:0.90922523 12:-0.06026271 13:0.79001719 14:0.71659768 #
0.54661464617252331077423832539353 1:0.30960473 2:0.13923202 3:0.74890643 4:0.80731577 5:0.66310477 6:-0.063956864 7:0.9938938 8:0.48159268 9:0.098378196 10:0.37867334 11:0.64037281 12:0.71261996 13:0.43113568 14:-0.083605208 #
1.7371826259051870167127162858378 1:0.66843492 2:0.028581271 3:0.60858423 4:0.72636271 5:0.22020546 6:-0.15346573 7:0.20313179 8:0.32476699 9:0.21592435 10:0.85294271 11:0.67689526 12:0.47759411 13:0.97606486 14:0.055276912 #
8.0703216560883408448034970206209 1:0.50601357 2:0.22610606 3:0.61467993 4:0.82953382 5:0.62779284 6:-0.053228799 7:0.25654805 8:0.3544367 9:-0.062589467 10:0.95798522 11:0.26462665 12:-0.066486448 13:0.64927703 14:0.63214159 #
1.2763859851196575068144056785968 1:0.28564194 2:0.099223554 3:0.7915678 4:0.52352434 5:1.252478 6:0.36927727 7:0.42394668 8:0.43654171 9:0.13741036 10:0.38563719 11:0.86290592 12:0.12081419 13:0.89917481 14:0.54744482 #
0.54723031320353732187555806376622 1:0.48207006 2:0.50851882 3:0.79373872 4:0.75161815 5:0.38833386 6:0.49973762 7:-0.079514362 8:0.26216885 9:-0.35439274 10:0.26739827 11:0.60007215 12:0.68796206 13:1.0997612 14:0.55145615 #
-2.6404681826348732620601822418394 1:0.69585305 2:-0.026135869 3:0.42911702 4:0.97309142 5:1.0714884 6:0.70207369 7:0.73522657 8:0.62673736 9:0.31669131 10:0.92266452 11:0.95953584 12:0.065830663 13:0.090542242 14:0.62171113 #
0.61576485232464217567383002460701 1:0.44615883 2:0.27088222 3:0.41137084 4:0.34333715 5:0.8509444 6:1.1300353 7:0.065101713 8:0.28778633 9:-0.11172427 10:0.76932347 11:0.82738692 12:0.28247485 13:0.3747997 14:0.97874427 #
-7.6496198655911715746924528502859 1:0.89716357 2:0.12329058 3:0.1437356 4:0.95053756 5:0.23290563 6:0.36815187 7:1.060909 8:0.17686792 9:-0.088436462 10:0.52304542 11:0.74540645 12:0.0510571 13:0.79995143 14:0.55767256 #
2.884844588930600473020149365766 1:0.34315446 2:0.13565983 3:0.96614921 4:0.36240259 5:0.62980175 6:0.1494685 7:-0.090482771 8:0.71894431 9:-0.0048479792 10:0.62570715 11:0.84262961 12:0.39806408 13:0.040353671 14:0.9335568 #
-0.1160977189032208756191977272465 1:0.25841728 2:-0.069719128 3:0.41635558 4:0.67890614 5:-0.083646946 6:1.068018 7:0.53980005 8:0.63146281 9:0.26007056 10:0.88881284 11:0.46252835 12:0.96865189 13:0.20433508 14:0.2422934 #
3.835715327091201665155040245736 1:0.672548 2:0.2015059 3:0.82053041 4:0.97384554 5:-0.25590736 6:0.57078606 7:0.25182024 8:0.36238235 9:0.0095370477 10:0.67634326 11:0.43478304 12:0.97149646 13:0.35956293 14:0.82566231 #
-2.8569741532280521489894908881979 1:0.30391276 2:-0.15424642 3:0.81311154 4:0.83999473 5:0.54977965 6:0.92400241 7:0.19227988 8:0.60299802 9:0.47690567 10:0.37705138 11:0.76885831 12:0.93649888 13:0.74343479 14:1.0856047 #
4.2117769666365276748365431558341 1:0.47503558 2:0.27700591 3:1.2201476 4:-0.047106579 5:0.37828705 6:0.39972252 7:0.53978854 8:0.69999892 9:0.064990968 10:0.89609396 11:0.57716179 12:-0.038304672 13:0.64865297 14:0.13579883 #
14.36980303293584171342445188202 1:0.72394884 2:0.11726923 3:1.0446428 4:1.1080525 5:0.60509163 6:0.64891785 7:0.42825836 8:0.20066406 9:0.018365279 10:-0.31734824 11:0.48193541 12:0.32571304 13:0.36351091 14:0.7958644 #
-4.386437827388454557819841284072 1:0.088739082 2:0.0086940993 3:0.63746935 4:0.54073942 5:0.20769571 6:0.64831924 7:0.76352614 8:0.12812962 9:0.18637274 10:0.018963993 11:1.3587161 12:0.25937235 13:0.22447164 14:0.91591752 #
-7.8842244198671451727022940758616 1:0.53548366 2:0.12446451 3:-0.19672552 4:0.28963375 5:0.44467762 6:0.33137915 7:0.96823084 8:-0.28062245 9:-0.070141785 10:0.17983742 11:1.6182142 12:0.32916841 13:0.3536016 14:0.18726243 #
-1.6304650274603358361957816669019 1:0.66408896 2:0.29787853 3:1.0280219 4:0.90032536 5:0.70113701 6:0.82812208 7:0.65237808 8:0.56040263 9:0.034660704 10:0.62430024 11:1.0123732 12:1.1942018 13:0.17913863 14:0.51095176 #
-3.9016450972610954295305418781936 1:0.11726657 2:0.27372774 3:0.34979615 4:0.4811222 5:0.63367409 6:0.88551247 7:0.7926833 8:0.78571308 9:0.064742275 10:0.73725259 11:1.2336413 12:0.68366921 13:0.74779552 14:-0.027031623 #
2.654710505662718045272185918293 1:0.51387787 2:-0.093277231 3:0.96123403 4:0.91519707 5:0.80785972 6:0.17958154 7:0.14145471 8:-0.151847 9:0.41894382 10:0.55644315 11:0.15084933 12:0.78693473 13:0.27922612 14:0.60365868 #
2.983891421600056048646365525201 1:0.39149606 2:0.071972229 3:-0.29919627 4:0.38351694 5:0.22761844 6:0.35668173 7:1.102375 8:-0.47198886 9:-0.020607967 10:-0.27739513 11:2.1402335 12:0.20327684 13:0.10711404 14:0.57718855 #
5.9849801820989085854307631962001 1:0.89844954 2:0.11215227 3:0.98632073 4:0.93648124 5:0.60555649 6:0.26549122 7:0.39067903 8:0.40073314 9:-0.11866781 10:0.20164467 11:-0.38275826 12:0.58008075 13:0.85670716 14:0.10923029 #
-6.7187111319742358617190802760888 1:0.52416283 2:0.33144712 3:0.70924199 4:0.56752783 5:0.31999305 6:-0.021004582 7:0.93156624 8:0.50918859 9:-0.037878927 10:0.91273063 11:1.3157156 12:0.018538244 13:0.78793114 14:0.093116894 #
-2.1927884793742551394757356320042 1:0.30384928 2:0.18785769 3:0.025097575 4:0.73938328 5:0.6172629 6:1.1486979 7:0.60515642 8:0.26704228 9:-0.31634635 10:0.49216682 11:0.46397778 12:0.9248715 13:0.29669249 14:0.34431866 #
-4.9256786019812794918948384292889 1:0.81583899 2:0.069321431 3:0.80825597 4:0.4071503 5:0.78997278 6:-0.088141039 7:0.37175006 8:0.43638784 9:0.10702474 10:0.89898807 11:0.97893918 12:0.80329973 13:0.8591699 14:1.106097 #
-0.65561002944795776503639217480668 1:0.19676046 2:0.34305152 3:1.0181723 4:0.72741675 5:0.7032184 6:0.39715433 7:-1.0700992 8:0.46301556 9:0.12263311 10:-0.014030425 11:0.77117544 12:0.19005211 13:-0.1648864 14:-0.49476939 #
-2.4202403756214319052730843395693 1:0.89438409 2:0.0069285063 3:0.31363353 4:0.97106534 5:0.31061932 6:0.74077529 7:-0.29051316 8:0.44354054 9:0.27958578 10:0.93997502 11:0.92121291 12:0.44219115 13:0.47237122 14:0.58735979 #
0.86239761161631889319068022814463 1:0.57574379 2:-0.16448393 3:0.73488724 4:0.94056523 5:0.33944839 6:0.84646302 7:0.060932525 8:0.77779812 9:0.37177175 10:0.15059268 11:-0.27465186 12:0.27480656 13:-0.12189017 14:0.73010737 #
6.150537359081201138621963764308 1:0.02446348 2:-0.31072131 3:0.18096823 4:0.20550366 5:0.85579145 6:0.51213872 7:0.41751549 8:0.32478669 9:0.50928658 10:1.0707372 11:0.65148675 12:0.31273165 13:0.32276273 14:0.058424506 #
-34.579112188966028895720228319988 1:1.3269793 2:0.34913141 3:0.84391236 4:0.28835508 5:0.26425007 6:0.56482977 7:0.54278564 8:-0.054127797 9:-0.0055575063 10:0.71944875 11:0.85792893 12:0.61231261 13:0.31119138 14:0.44795766 #
-6.4356862700651253916817040590104 1:0.56007868 2:-0.19971742 3:0.84491009 4:0.28738338 5:0.18899474 6:0.89993852 7:0.41376555 8:0.14098774 9:0.35896572 10:0.43247104 11:0.93287158 12:0.82712996 13:0.81683803 14:0.033061635 #
-7.7295242875989282893556264752988 1:-0.063233718 2:0.44117865 3:1.0661194 4:0.48578876 5:0.38131326 6:1.1488358 7:0.45755389 8:1.1073823 9:-0.088757582 10:0.59237134 11:0.51304442 12:0.48326033 13:0.54127586 14:0.5602544 #
0.6676075186935238603425091241661 1:-0.46877611 2:0.7611841 3:1.3211812 4:0.07158386 5:0.39556757 6:1.4302959 7:0.34064627 8:1.4879544 9:-0.44024122 10:0.52331603 11:-0.086011022 12:0.39247715 13:0.59384423 14:0.79827225 #
-6.8381666386803550139461549406406 1:0.56525117 2:-0.21712679 3:0.12944202 4:0.72229749 5:0.20917144 6:0.65643144 7:0.4376843 8:-0.050834384 9:0.4562546 10:1.1256938 11:0.26862091 12:0.31738085 13:0.56306088 14:0.96815991 #
-2.8850542528445108914070260652807 1:-0.21616024 2:0.23610622 3:0.1085286 4:1.0807623 5:0.29457104 6:0.14521873 7:0.37612444 8:1.0575968 9:-0.0048745857 10:0.97558624 11:0.68167269 12:0.52649802 13:0.30594811 14:0.45853311 #
2.0490604319135208299940131837502 1:1.2601787 2:-0.1778059 3:0.29326057 4:1.3008804 5:1.5467371 6:0.80492735 7:0.70760405 8:0.80140233 9:0.40318736 10:0.82731318 11:1.0519652 12:-0.02717346 13:0.47725052 14:0.79176515 #
0.1218602333703217716065481113219 1:-0.056710366 2:0.15051658 3:0.65313095 4:0.11134945 5:0.23879878 6:0.65522587 7:0.86465913 8:-0.45214653 9:0.37328234 10:1.140803 11:0.57939398 12:0.66838908 13:0.34555015 14:0.0075993319 #
4.0407615727010002260044529975858 1:-0.18535635 2:0.10215835 3:0.92158824 4:0.65987492 5:0.23735045 6:0.60771888 7:0.50879705 8:-0.065768905 9:0.024918994 10:0.28252205 11:0.55598241 12:0.97885859 13:-0.014609748 14:0.64688587 #
4.841575003521680464757537265541 1:0.29820079 2:0.46467674 3:0.47980621 4:0.57742155 5:-0.24417087 6:0.11176486 7:0.56926131 8:0.30748612 9:-0.20953849 10:1.0637614 11:0.81390101 12:0.92143577 13:0.45681551 14:0.086353794 #
-0.58157119698765447068922185280826 1:0.30124134 2:0.084046371 3:0.89860004 4:0.95894837 5:-0.058322866 6:0.20280215 7:0.82768351 8:0.91373479 9:0.19267337 10:0.66060936 11:0.028266631 12:0.61399323 13:1.0055078 14:0.44409475 #
0.53267457035029286416261129488703 1:0.15770914 2:0.10137105 3:0.91257429 4:0.49379405 5:1.988898 6:0.32644916 7:0.22393259 8:0.60610861 9:0.2229019 10:0.172985 11:1.2953439 12:-0.25239068 13:1.1740373 14:0.72776115 #
1.6604404373026484531550295287161 1:0.32614371 2:0.20523532 3:1.1200945 4:0.59284359 5:0.68190426 6:1.039572 7:0.54720914 8:0.034852348 9:0.0095739681 10:0.71234572 11:0.64383471 12:0.097591504 13:0.3990413 14:0.3588593 #
1.6403845045947018643772707946482 1:-0.019882845 2:0.35568345 3:0.32045069 4:0.010066528 5:0.9225902 6:0.060885549 7:-0.031975489 8:0.34651348 9:-0.21867195 10:0.84051108 11:0.92637753 12:0.43264064 13:0.67966318 14:0.12716316 #
8.2835861744683825236279517412186 1:0.35796472 2:-0.14898229 3:0.71774602 4:0.19110566 5:0.55506498 6:1.187274 7:0.95495367 8:0.47582659 9:0.33100039 10:0.84234017 11:0.84517676 12:0.53899175 13:0.3404209 14:0.91892064 #
2.7231285681737373849387040536385 1:0.36837268 2:0.1947058 3:0.78836906 4:0.66822934 5:1.1543816 6:0.5784595 7:0.42547706 8:0.55265391 9:-0.083510101 10:0.77027535 11:0.18710408 12:0.63921285 13:-0.10969768 14:0.61372131 #
-4.9657569364183524740496977756266 1:-0.038453612 2:0.043526296 3:0.95533603 4:0.94069535 5:0.70125496 6:0.72960049 7:-0.085989997 8:0.54838753 9:0.25390437 10:1.156038 11:0.31025314 12:1.0457081 13:0.82184929 14:0.3416546 #
2.5511725257441661973700774979079 1:0.23882049 2:-0.0046267919 3:0.36291769 4:0.14813799 5:1.0382396 6:-0.092261478 7:0.79750049 8:0.29361224 9:-0.061140504 10:0.049931906 11:0.37626934 12:0.40188408 13:0.30375874 14:0.86411679 #
3.5420421521257923203052087046672 1:0.31539255 2:0.0034028618 3:0.40471175 4:0.1406354 5:0.015457424 6:0.29197139 7:0.19786552 8:0.42223823 9:0.07678359 10:0.56025606 11:-0.08923991 12:0.69039285 13:0.48692489 14:0.18920049 #
2.6670737856867106074787443503737 1:0.29015556 2:0.049287342 3:0.34323686 4:0.72986698 5:0.32387319 6:0.33129251 7:1.021601 8:0.057056956 9:0.069853507 10:0.84048235 11:0.59070045 12:0.98212707 13:0.90128386 14:0.61780459 #
-0.28879661911667264817538125498686 1:0.0058768298 2:-0.21411601 3:0.88929987 4:1.0042622 5:-0.48025176 6:0.070325844 7:1.0355294 8:1.387387 9:0.41857964 10:0.49398562 11:-0.54057324 12:0.69718927 13:1.1754719 14:0.17158008 #
1.8062477660401232704145968455123 1:0.52292573 2:0.25420833 3:0.76020306 4:1.0923301 5:-0.15541342 6:0.97205609 7:0.38204157 8:0.47699484 9:0.0049743862 10:0.77725273 11:0.56059659 12:0.33707699 13:1.1113445 14:-0.24931265 #
-9.0722485215996702123675277107395 1:0.78677493 2:0.056761388 3:0.11437012 4:0.96110702 5:0.98456693 6:0.84422028 7:0.49018028 8:0.91880226 9:0.056798872 10:0.77796662 11:0.4165259 12:0.35420856 13:1.075824 14:0.43121248 #
-0.64208037628550174158448271555244 1:0.49037847 2:0.23800886 3:0.65471005 4:1.2633764 5:0.94839883 6:0.2628406 7:0.26227683 8:0.62123609 9:0.090063162 10:0.79630148 11:0.96038526 12:0.78493965 13:1.1168526 14:0.54964411 #
1.2543485017319997432139189186273 1:0.29175183 2:-0.31790796 3:0.52958554 4:0.47740644 5:0.38925493 6:0.56830478 7:0.42393035 8:0.8725825 9:0.33935684 10:0.73304933 11:0.7254498 12:0.034932174 13:1.3423678 14:0.49065104 #
3.2319694613791241089018058119109 1:-0.0050053108 2:0.042481653 3:1.1065857 4:0.72842956 5:0.33261141 6:0.41168204 7:0.6102612 8:-0.04933691 9:0.2150377 10:-0.28371066 11:0.10990563 12:0.41338274 13:0.65939593 14:0.083452873 #
-0.73607577892619502346605031561921 1:0.14952074 2:0.25327948 3:-0.24888323 4:0.72301996 5:0.74489766 6:0.32623687 7:0.41826418 8:0.026992578 9:-0.1103392 10:1.2850268 11:1.1099083 12:0.56720513 13:0.66013497 14:0.35584098 #
6.3603707131343201197637426957954 1:1.034656 2:-0.11266132 3:0.86151338 4:0.44500658 5:0.97531515 6:0.21747923 7:1.1336356 8:0.60938078 9:0.26706323 10:0.88297635 11:0.61880255 12:0.55092216 13:0.80558777 14:0.15119721 #
-3.1673310101525715687387219077209 1:0.4856306 2:0.13327818 3:0.52721471 4:0.90463638 5:0.80641609 6:0.61680585 7:0.067950763 8:-0.41357806 9:0.18295497 10:0.61450535 11:0.57503778 12:0.75098479 13:1.0921723 14:-0.17813395 #
1.2144782739612864919109824768384 1:0.32530221 2:0.13058007 3:0.53278321 4:0.2759451 5:-0.32091707 6:1.0488839 7:0.72083664 8:0.34511286 9:-0.025875945 10:0.8317588 11:0.3870514 12:0.087350443 13:0.54556084 14:0.33299285 #
-0.45019241519589253686106644636311 1:0.76428556 2:-0.15198573 3:0.99623537 4:0.98242408 5:0.020078346 6:0.66592324 7:0.91147178 8:0.75871319 9:0.46294865 10:0.4192777 11:0.8896175 12:0.47804749 13:-0.18762653 14:0.75138122 #
1.4671884221370465883893530190107 1:0.45284334 2:-0.12468454 3:1.2556508 4:0.6764245 5:0.51886606 6:0.39418492 7:1.0823166 8:0.67769229 9:0.4716928 10:-0.16242489 11:-0.015788589 12:0.68456811 13:0.14428721 14:0.51587969 #
0.23184149440599657876482808660512 1:-0.078003861 2:-0.48719791 3:1.1223187 4:0.95477897 5:-0.72917759 6:-0.064920835 7:0.8217479 8:1.8574952 9:0.56197232 10:0.49670172 11:-0.65157574 12:0.81794024 13:0.79438406 14:-0.25804704 #
-1.462657832015641146128359650902 1:0.19787782 2:-0.24028502 3:1.117681 4:1.0198221 5:0.62654412 6:0.93239915 7:0.50955164 8:0.68822485 9:1.3837599 10:0.35723555 11:0.93575788 12:0.60080099 13:0.49886531 14:0.61449575 #
1.400737190446815105815403512679 1:0.0019469657 2:0.0034415242 3:0.79940218 4:0.48957595 5:-0.064640217 6:0.41257462 7:-0.23414572 8:0.17154187 9:0.23482251 10:0.77876717 11:0.69279581 12:0.15507041 13:0.75697833 14:0.85603309 #
-3.408578437340370914654386069742 1:0.58341551 2:0.25109711 3:0.88004601 4:0.69532406 5:1.211045 6:-0.10807011 7:-0.011579775 8:0.14511926 9:0.18549904 10:0.9913035 11:1.1335343 12:0.52131766 13:0.11451223 14:0.16557033 #
1.3364898156054123568026170687517 1:0.16620027 2:0.89314419 3:0.94406152 4:0.58124918 5:0.8124525 6:0.1924284 7:0.81801128 8:0.26013112 9:-0.41017577 10:0.62127429 11:0.75160438 12:0.36228544 13:0.51883924 14:0.76503175 #
-0.16418379646991870801642221522343 1:1.2298956 2:-0.086167373 3:0.40976584 4:1.1090866 5:0.59587997 6:0.59616202 7:0.092019506 8:0.81519401 9:0.19222362 10:0.38440225 11:0.57810903 12:0.83492982 13:0.037286296 14:-0.16195413 #
-3.6399825045157037095577834406868 1:0.48896226 2:-0.051413499 3:0.69960201 4:-0.098941825 5:1.1007143 6:0.89345157 7:0.4809427 8:0.66299593 9:0.0097626671 10:0.290582 11:0.56770402 12:0.862755 13:0.2500487 14:0.013297906 #
7.3381435776652192970459509524517 1:0.42477721 2:-0.15232639 3:0.12523945 4:0.15710799 5:0.59981883 6:0.0089093018 7:0.81194419 8:0.35218838 9:-0.12775262 10:1.0364401 11:0.5118804 12:0.72598982 13:-0.20029044 14:0.76625621 #
1.5264314990640048819159346749075 1:0.27399892 2:0.23475298 3:0.73042828 4:1.254473 5:0.69032526 6:1.0742112 7:-0.13275996 8:0.23873083 9:0.15734683 10:0.48117059 11:0.22435045 12:-0.05764981 13:0.63523132 14:0.77986741 #
3.5439008636227042892130612017354 1:0.89613485 2:-0.17224085 3:0.59360814 4:-0.024356851 5:0.57279128 6:0.77639204 7:0.016028348 8:1.0683924 9:0.19161873 10:1.1652591 11:0.40003699 12:0.65252841 13:0.30918488 14:0.78070551 #
0.64594800426265452930607580128708 1:-0.11760513 2:0.050397534 3:0.7838251 4:0.024649044 5:0.43211606 6:0.23815635 7:0.40756935 8:0.085689478 9:0.16113089 10:0.8989504 11:0.91649181 12:0.78046143 13:1.2562317 14:0.95674813 #
-0.36442520129171607212725803037756 1:0.49406683 2:0.49057335 3:0.17032246 4:0.027294569 5:0.24649929 6:0.5750438 7:0.73760659 8:0.61417514 9:-0.0034239583 10:0.83366877 11:0.96725571 12:1.182074 13:0.49487081 14:0.78339744 #
0.74156480164384885878092745770118 1:0.17036307 2:0.15488371 3:0.13553153 4:0.10896913 5:0.49112108 6:0.66128159 7:1.2969354 8:0.6615178 9:-0.03028697 10:0.54606229 11:-0.031211715 12:0.2767058 13:0.5585897 14:0.313784 #
-2.9017044808130734168116759974509 1:0.51299542 2:-0.078557082 3:0.97081304 4:1.138345 5:0.39528441 6:-0.12082873 7:0.32763699 8:0.53638947 9:0.79306918 10:0.18591084 11:0.92926258 12:0.48452437 13:0.41882661 14:0.35042843 #
2.1354704421910066791667759389384 1:0.43557027 2:0.25618482 3:1.1634636 4:1.2410419 5:0.049799167 6:0.33354536 7:0.35285884 8:0.42189243 9:-0.1362007 10:0.57609415 11:0.32242134 12:-0.001432745 13:-0.032115504 14:0.22626773 #
3.0994606777942106390355547773652 1:1.1464483 2:-0.052441414 3:0.93028837 4:0.67604083 5:0.85560638 6:0.20999329 7:0.86618203 8:0.71924841 9:0.040627185 10:0.17225796 11:0.26379895 12:-0.27571252 13:0.45565328 14:0.7450543 #
2.0926009197386270521690221357858 1:0.20770475 2:0.18095374 3:0.95816165 4:0.83887553 5:0.67269599 6:0.94916213 7:0.56910139 8:0.17011571 9:-0.0052256305 10:0.80095541 11:-0.10262249 12:0.53884435 13:1.0421987 14:0.7113145 #
-6.440452975858532269626266497653 1:0.28981391 2:-0.010929713 3:0.0053320136 4:0.31850898 5:0.81019187 6:0.91173285 7:-0.061817754 8:0.39815661 9:0.40035689 10:0.81326371 11:0.91692674 12:1.0327585 13:0.76860738 14:0.48539487 #
-0.53589505643620449770736513528391 1:0.44319525 2:0.15163708 3:0.26717448 4:1.2118752 5:0.22493707 6:0.66108781 7:0.58562154 8:-0.42074272 9:0.29229575 10:0.55215394 11:0.62962979 12:0.9958266 13:1.2269225 14:0.93554229 #
0.66776190359746856461953257166897 1:1.3156152 2:0.016374934 3:0.55521345 4:0.62218112 5:0.20592624 6:1.0103859 7:0.7512902 8:0.85637623 9:0.018440904 10:0.13034838 11:0.28348452 12:0.65777707 13:0.61403424 14:0.8042872 #
6.7546856110923947369428788078949 1:1.1208543 2:0.61719757 3:0.53763211 4:0.92415589 5:0.83994192 6:1.0471419 7:0.52520156 8:0.32523274 9:-0.020999806 10:0.88694501 11:0.87464845 12:0.50147635 13:0.79117966 14:0.76767129 #
-0.70208311778765952748670997607405 1:-0.29824784 2:0.09427081 3:0.76813066 4:0.79477048 5:0.9569717 6:0.23779121 7:0.1233481 8:-0.091719769 9:0.18548609 10:1.0337138 11:1.0448785 12:0.47914654 13:0.12676434 14:0.95581859 #
-1.7659771332380047592636174158542 1:0.42922264 2:-0.046716001 3:0.88142008 4:0.47745749 5:0.81851935 6:-0.06080433 7:-0.15612203 8:1.0080277 9:0.08450792 10:-0.0123806 11:0.20090705 12:0.82918084 13:0.74134248 14:0.43292204 #
2.767978375415618419452812304371 1:0.4971875 2:0.18945098 3:0.87779379 4:0.48722759 5:0.37266806 6:-0.05953446 7:0.52936536 8:0.83963758 9:0.10997357 10:0.66933948 11:0.57816154 12:1.31777 13:0.93550539 14:0.46278059 #
0.50518314505150430093749491788913 1:0.92074615 2:-0.25497937 3:0.65375823 4:0.98675579 5:0.33793485 6:0.70239818 7:0.61380821 8:0.7480709 9:0.56903094 10:1.1591247 11:1.07744 12:0.80827194 13:0.86539209 14:0.22029187 #
1.7904084318237685202745979040628 1:0.084980495 2:0.14174953 3:1.2147393 4:0.66396558 5:0.99864531 6:0.46559808 7:0.17744976 8:0.48901668 9:0.37433094 10:0.78225058 11:0.41085425 12:0.265082 13:0.88894105 14:-0.12742893 #
-0.028027849527894735381927660000656 1:0.71775538 2:0.24670054 3:0.32528728 4:0.36992422 5:0.75432771 6:0.84409004 7:-0.01016283 8:1.0872338 9:-0.013681227 10:0.5973711 11:1.2280306 12:-0.19621994 13:0.58038265 14:0.45319939 #
0.076837411619591802769413391160924 1:-0.012380666 2:-0.067336425 3:1.2479504 4:0.79120868 5:0.093223907 6:-0.066511348 7:0.63516223 8:-0.049927175 9:0.086645946 10:0.42746049 11:0.34319595 12:0.63022953 13:1.0392019 14:0.95219481 #
1.3285780327193608130187385540921 1:1.0118557 2:0.017090412 3:1.0232191 4:0.70314151 5:0.31225464 6:-0.049135126 7:0.44265202 8:0.16923338 9:0.036855213 10:-0.17015721 11:0.79932505 12:0.99955136 13:0.79083276 14:0.70196575 #
3.8416817175294557529241501470096 1:0.35940194 2:-0.16203535 3:0.72474313 4:0.079123244 5:1.3934282 6:0.78757322 7:0.77152032 8:0.65354437 9:-0.25359443 10:0.86640984 11:1.166448 12:0.67813319 13:0.69946003 14:0.78623188 #
-1.6978054996595155490268780340557 1:0.38056222 2:0.18477601 3:1.0540987 4:1.0572374 5:1.0850979 6:0.70171505 7:0.5431428 8:1.1450489 9:0.20843044 10:0.197006 11:0.87523305 12:0.2659598 13:0.35770732 14:0.56537187 #
-2.2250890563716154701978666707873 1:0.92623824 2:-0.40312415 3:0.82255679 4:0.61045194 5:0.23297794 6:0.90307206 7:0.13176657 8:0.52327418 9:0.52054149 10:1.0136584 11:0.30836684 12:-0.11878025 13:0.68257034 14:0.14504282 #
-1.2937999299897069427345286385389 1:0.95344305 2:-0.13112886 3:0.1046948 4:0.67062223 5:1.0285687 6:0.017268697 7:0.41199228 8:1.0112569 9:0.035544965 10:0.70924133 11:-0.35321856 12:1.0313438 13:0.40824443 14:0.0093668718 #
0.63113421425759752558803938882193 1:0.72924459 2:0.40807527 3:0.63226205 4:0.95678878 5:0.29646978 6:1.0903596 7:0.86239469 8:0.67919666 9:-0.24457474 10:1.0443486 11:0.164969 12:0.020645324 13:0.054847617 14:0.86506659 #
-2.7176690720408700485677400138229 1:0.4373036 2:0.0073652365 3:1.5406318 4:-0.16365947 5:0.67898709 6:0.89006913 7:0.49553338 8:-0.10492151 9:-0.24751578 10:0.31470743 11:-0.65651762 12:-0.1554068 13:0.47498575 14:0.65843642 #
0.71489083828979438361983511640574 1:0.69793433 2:0.13836917 3:-0.10823304 4:0.84541792 5:0.3862358 6:0.8208034 7:0.61756706 8:0.75056911 9:-0.019018413 10:0.93978292 11:1.0572654 12:0.66308749 13:0.30905339 14:1.2813388 #
-2.5984023010317338631125494430307 1:0.080947973 2:0.18219976 3:0.71777469 4:0.5365988 5:0.35430074 6:0.81412017 7:0.2229263 8:0.43017966 9:0.12785719 10:1.2593513 11:0.66216511 12:0.33844456 13:0.085263841 14:0.78605551 #
1.9502138827987645086636803171132 1:-0.14043216 2:-0.23121297 3:0.36713928 4:0.30185717 5:0.89235574 6:0.69999802 7:-0.082835279 8:0.21069159 9:0.15496857 10:0.53438604 11:0.37284252 12:-0.28056416 13:-0.091288216 14:0.47925821 #
2.9844113371804406042997470649425 1:0.37749976 2:0.23002209 3:0.63756782 4:0.31549141 5:0.47372857 6:0.45822695 7:-0.12156212 8:0.49319714 9:0.1073315 10:1.1087402 11:0.96643662 12:0.68062288 13:0.77330792 14:0.69487613 #
-3.1649729909920809589607415546197 1:0.33340597 2:0.10697141 3:0.25964907 4:1.1180928 5:-0.025325477 6:1.229261 7:0.46146759 8:0.16026971 9:0.07052052 10:0.68874657 11:1.2031319 12:0.1800883 13:0.14366876 14:0.42988381 #
2.9710896390900320973571524518775 1:0.23269276 2:-0.25172472 3:0.57203031 4:0.73624945 5:0.34223202 6:0.050829593 7:0.7485041 8:0.19993728 9:0.36205557 10:0.80000323 11:0.93690968 12:-0.087457322 13:0.50857061 14:0.5979746 #
-4.1123966739414328230850514955819 1:1.2060698 2:0.03306216 3:0.82461178 4:0.25467148 5:0.70496428 6:0.83441162 7:0.041321006 8:0.93634897 9:0.1969339 10:0.33756205 11:1.2285745 12:0.7375536 13:0.94529295 14:0.44105488 #
3.5315157183981411570528052834561 1:-0.021114429 2:0.11229483 3:0.13924333 4:0.67669779 5:0.67618716 6:0.37770435 7:0.60617554 8:0.45031035 9:-0.074854203 10:0.69471747 11:0.75555605 12:0.37156683 13:0.76300567 14:1.3431991 #
0.089584081260980691352457938592124 1:1.2488719 2:-0.12868582 3:1.2390387 4:0.4529618 5:0.69605148 6:-0.89089453 7:0.082905285 8:0.30562323 9:0.13901342 10:-0.17746402 11:1.1090848 12:1.2224419 13:1.2723635 14:1.0180758 #
-0.70033492449856482586767469911138 1:0.36983815 2:0.24305813 3:1.0697834 4:0.4999499 5:0.25274894 6:1.069882 7:0.68336302 8:0.12866372 9:-0.018523009 10:0.69314367 11:0.46978685 12:0.9050135 13:0.59641582 14:0.79927164 #
2.8846866367123653596138410648564 1:0.018755939 2:0.22392397 3:0.86928707 4:-0.086557671 5:0.63791573 6:0.31899667 7:1.0607946 8:0.18220834 9:0.10775659 10:0.84607881 11:0.93412483 12:-0.031038918 13:1.0391811 14:0.72264844 #
-1.7308477576736387426592500560218 1:0.16289149 2:0.15159208 3:0.44700068 4:0.72630686 5:0.65984225 6:1.2008497 7:0.72948307 8:0.36149961 9:0.68667251 10:1.0416961 11:0.82881272 12:-0.22551304 13:1.0422813 14:0.70070469 #
-12.871265451192213546960374515038 1:0.73538905 2:-0.068560168 3:0.17958158 4:0.26754501 5:0.75543594 6:0.3187072 7:0.48636827 8:0.18878224 9:0.048488926 10:0.46892521 11:0.57382059 12:-0.072908565 13:0.49430573 14:-0.056562044 #
5.4278951306573226531781983794644 1:0.72361398 2:-0.079809278 3:1.0020603 4:0.41697454 5:-0.071190767 6:0.17714296 7:0.39023611 8:0.7469961 9:0.33075556 10:0.94037241 11:0.76032668 12:0.77163053 13:0.0012996065 14:0.24849883 #
-5.6639947251223166091449456871487 1:0.34296578 2:0.48645708 3:1.0015471 4:0.67632312 5:0.36372641 6:1.1962159 7:-0.17063843 8:-0.21004327 9:0.47675979 10:0.50665486 11:0.32308963 12:0.79265022 13:0.049576793 14:0.49986446 #
-20.835694857810899804917426081374 1:-0.074638031 2:0.087635212 3:0.7730087 4:0.6566813 5:0.71847856 6:0.31695649 7:0.78256029 8:0.38633543 9:0.15945488 10:0.8933807 11:0.23781534 12:0.42047495 13:0.57695943 14:0.28620973 #
-0.4624979416700840118004123269202 1:1.9960595 2:-0.34391409 3:0.41110703 4:0.43917426 5:0.11278511 6:1.0465099 7:0.77986878 8:1.3296125 9:0.10542922 10:-0.18019503 11:0.33984309 12:0.67161572 13:0.61466503 14:0.7228688 #
-2.2563702192326746676087623200146 1:0.44737008 2:0.045384113 3:1.0150771 4:0.55770731 5:0.48845324 6:0.721587 7:1.743248 8:0.51917952 9:0.0094812596 10:1.1691245 11:0.51506591 12:0.15969922 13:-0.72198069 14:-0.013889475 #
-0.75123152001777970809826001641341 1:0.61484385 2:0.038651351 3:-0.014068037 4:0.53059924 5:-0.060619619 6:0.34774995 7:0.74909645 8:1.1778716 9:0.31559619 10:0.74512398 11:0.7864176 12:0.059727486 13:0.35436806 14:-0.18462969 #
-1.3333260162893585398791174156941 1:0.1113503 2:0.20362137 3:0.29065174 4:0.84663123 5:-0.37782389 6:0.52347308 7:0.92505068 8:-0.07521046 9:0.07026846 10:0.21911015 11:0.10053587 12:0.53568357 13:0.30888757 14:0.82015431 #
-1.9864459422417262146609573392197 1:0.65004438 2:0.10160347 3:0.33223146 4:0.25136998 5:1.2461834 6:0.43506408 7:0.39128649 8:1.2212234 9:0.13323741 10:1.0257262 11:0.84758937 12:1.0131519 13:0.84295017 14:0.17303771 #
-1.0985426490305776336953158534016 1:0.24633208 2:0.32024655 3:0.53623527 4:0.13214403 5:1.0284022 6:0.094221763 7:0.46087173 8:0.2259711 9:0.11876199 10:1.5330514 11:0.3833518 12:2.1325274 13:0.55668342 14:0.32212171 #
-2.7889106092810691528427469165763 1:1.0571464 2:-0.034337439 3:1.0326368 4:0.9729436 5:0.85708213 6:0.63720512 7:0.21961875 8:0.096902981 9:0.61920685 10:0.34662458 11:0.78398222 12:0.14349984 13:1.0202453 14:0.66984951 #
-2.759865726791716156185430008918 1:0.7063815 2:0.28489366 3:0.94815749 4:0.73916918 5:0.23941545 6:0.82771713 7:0.51375777 8:0.40360063 9:-0.22667769 10:0.57104093 11:0.1612218 12:0.88744211 13:0.23198032 14:-0.26074699 #
0.89065356231564729583283224201296 1:-0.047101766 2:0.18646304 3:0.085872039 4:0.65640992 5:0.96796799 6:0.0336968 7:1.1777861 8:0.73621172 9:0.46797946 10:0.83328044 11:1.0030794 12:0.8711313 13:0.55296504 14:0.62323171 #
0.48584283457691412877466063946486 1:0.88271105 2:0.29109192 3:0.81460261 4:1.0258789 5:0.044821866 6:0.72313857 7:0.86645049 8:0.95635033 9:-3.6918533e-05 10:0.46653447 11:0.88465768 12:0.56564683 13:0.45087996 14:-0.015404921 #
-0.40938579981599493295973957174283 1:0.69121438 2:-0.19196749 3:0.41254634 4:0.2550016 5:-0.3872118 6:0.67456293 7:0.75611454 8:0.71610665 9:-0.22052926 10:0.86971462 11:0.8396318 12:0.93560952 13:0.96634126 14:1.0404552 #
-1.0243108610416151726951738964999 1:0.24444565 2:1.1145192 3:0.67112821 4:1.0979309 5:0.69311285 6:0.3412095 7:0.45136026 8:-0.0056885583 9:0.94787419 10:0.90412039 11:1.1480582 12:0.051049106 13:0.64325607 14:0.42543429 #
7.7209697065622853173749717825558 1:0.43972605 2:0.081776619 3:0.48687178 4:0.83226037 5:0.17563736 6:0.89852548 7:0.2995896 8:0.42369184 9:0.10705902 10:0.51010144 11:0.52766299 12:0.35379574 13:0.8132236 14:0.5296669 #
-4.1123197794429522389236808521673 1:0.27350187 2:0.30986685 3:0.5836131 4:0.35993958 5:0.80813217 6:0.31788874 7:1.1526339 8:1.2471769 9:-0.28388581 10:1.0366111 11:0.69149584 12:0.74301285 13:0.0090334704 14:-0.12574615 #
3.9340741435176966867004466621438 1:0.078914262 2:-0.23581067 3:-0.13481326 4:-0.093273915 5:0.21376941 6:0.58610564 7:0.46190861 8:0.70441908 9:-0.094905034 10:0.8903119 11:1.0503277 12:0.86875451 13:0.074190207 14:0.068376221 #
1.1429621782163235099716303011519 1:-0.060538787 2:0.12700331 3:0.59757155 4:0.63809198 5:-0.84923702 6:0.53813785 7:0.94227654 8:-0.55070639 9:0.21526103 10:-0.074734583 11:-0.55305099 12:0.60449636 13:0.30707794 14:0.6423924 #
0.76751431596792651923522043944104 1:0.52405769 2:-0.41239959 3:0.65102601 4:0.077226363 5:0.1818912 6:0.81164593 7:-0.14740974 8:0.26339081 9:-0.2844491 10:0.3760592 11:0.6294837 12:0.76527661 13:0.15638468 14:0.79122549 #
-3.8105631569561433380499693157617 1:0.750862 2:0.17219087 3:0.44741213 4:0.51111096 5:-0.078356057 6:-0.025289994 7:-0.014731682 8:0.90350527 9:-0.069616057 10:0.54341173 11:1.1381825 12:0.60535794 13:0.62000906 14:0.32196435 #
4.9594432641643466652681127015967 1:0.4701831 2:-0.18376862 3:0.86591363 4:1.0076429 5:0.85192394 6:0.48973435 7:0.37796313 8:-0.009604211 9:0.40526885 10:0.0046538818 11:0.19028118 12:0.38519332 13:1.2070436 14:0.98215729 #
0.40816683312310947373546810013067 1:1.8474904 2:-0.21235743 3:1.1997305 4:0.17094214 5:1.1470199 6:0.17246823 7:1.365561 8:0.79765767 9:0.4223834 10:1.1436495 11:0.65749741 12:0.51972252 13:1.2269235 14:0.32563424 #
-0.54510150847923122263694040157134 1:0.76955682 2:0.035893347 3:0.95110387 4:0.42174175 5:0.97892064 6:0.61993229 7:-0.33122423 8:0.46092412 9:-0.060661104 10:0.76965433 11:0.30124354 12:0.2176778 13:0.81513566 14:0.35625163 #
-11.601753482784131321636778011452 1:-0.40271214 2:0.1695758 3:0.79036504 4:1.4358021 5:0.16012995 6:0.31426206 7:0.16511974 8:0.61997426 9:-0.099241078 10:0.31817588 11:-0.10218059 12:0.53899837 13:0.67723423 14:0.79904467 #
1.394408237485919244136312045157 1:0.78418511 2:0.070762023 3:-0.090318516 4:-0.065155059 5:-0.047735322 6:0.049222689 7:1.44098 8:0.56106514 9:-0.42314553 10:1.3103081 11:1.1243986 12:0.078290574 13:0.69444674 14:0.79245991 #
0.61783371431056122169422906154068 1:0.44560948 2:0.097989403 3:0.8110345 4:0.97578615 5:0.93638343 6:0.964854 7:0.4864378 8:0.36538714 9:0.39032701 10:-0.15450214 11:0.44964787 12:1.1845024 13:0.41398504 14:0.12842576 #
4.9621823123113655285010281659197 1:0.73757911 2:-0.26035962 3:1.3860848 4:1.1803355 5:1.247429 6:0.33252689 7:0.44755432 8:-0.12194537 9:0.31310216 10:-0.53318 11:0.76013821 12:0.50357527 13:0.22656515 14:0.60937667 #
-1.9759462098745279590161771920975 1:0.13278711 2:0.15144405 3:0.39277267 4:0.38243777 5:0.51447368 6:0.97212929 7:-0.16444418 8:1.095645 9:0.25255281 10:0.74407512 11:0.99266672 12:0.65378851 13:-0.095848523 14:0.056573234 #
0.30093540240439958788343233209162 1:0.88758779 2:-0.072266623 3:0.48137277 4:-0.15010376 5:0.67352343 6:0.45876777 7:0.40972549 8:0.35742009 9:0.13530457 10:1.066346 11:1.2337031 12:-0.0024518347 13:0.35343897 14:0.51962012 #
-8.5551829650029365126329139457084 1:0.62132263 2:0.067149386 3:1.3926831 4:0.85505509 5:0.40897578 6:0.26520908 7:1.0427939 8:-0.37647301 9:0.67498267 10:0.72434682 11:0.57078815 12:0.68591702 13:0.37540704 14:0.53592861 #
-4.6431861569853332127877365564927 1:0.48572665 2:0.24311008 3:0.74648535 4:0.58844256 5:0.27554351 6:0.072785489 7:0.44249985 8:0.71875888 9:0.3928386 10:0.040605631 11:0.42103666 12:0.15242745 13:0.9382202 14:1.1332428 #
-0.29538986855377036278014202252962 1:1.0265106 2:0.050495889 3:1.1046268 4:0.53491449 5:0.62094748 6:1.0942726 7:0.4043768 8:0.94516867 9:0.061331041 10:0.64399737 11:0.76527655 12:0.1137238 13:-0.15082221 14:0.36916491 #
-3.6680230701954261718356065102853 1:0.29832938 2:0.21933834 3:0.62593776 4:0.92223114 5:0.99867618 6:0.36504039 7:1.2496542 8:-0.30149689 9:0.19469678 10:0.23436177 11:0.24777056 12:0.26509026 13:0.78957206 14:0.80527669 #
4.5600893383178107143294255365618 1:0.13492008 2:0.064778835 3:0.54351747 4:1.0823311 5:0.86663842 6:0.88007826 7:1.0840099 8:0.14139347 9:0.057004411 10:0.85217547 11:0.71238738 12:0.56781369 13:0.36434269 14:0.82793903 #
-1.2339980877347995757986609532963 1:0.76926804 2:0.31750122 3:0.81421804 4:0.71473747 5:0.74337977 6:0.16014069 7:0.12203424 8:0.23418981 9:0.21791269 10:-0.042884842 11:0.17126882 12:-0.12328322 13:0.11465332 14:0.23759992 #
-0.46443983215268608288894824909221 1:0.41144395 2:-0.28431466 3:1.1070189 4:0.77831054 5:0.33127853 6:1.4957888 7:0.34539714 8:0.36270326 9:0.5242976 10:-0.072727568 11:0.80988395 12:1.9340405 13:0.72912115 14:0.87633073 #
-0.16450101294180557998103608952079 1:1.3143888 2:0.43845484 3:0.14566189 4:0.408447 5:0.44405988 6:0.72969472 7:0.3568159 8:0.89618558 9:-0.026298026 10:1.355178 11:1.1919327 12:0.74058408 13:-0.0032436561 14:0.10229111 #
6.7246478216661831339706623111852 1:0.64889026 2:-0.061370123 3:0.99745196 4:0.57430619 5:0.7129724 6:0.35249269 7:0.25909191 8:0.86865985 9:0.34957036 10:0.663158 11:0.42263743 12:0.095538229 13:0.56005746 14:0.73204464 #
1.2470556875262870377696344803553 1:0.45066458 2:0.06978 3:0.66147351 4:1.1307553 5:1.1722041 6:0.76408619 7:0.60558796 8:0.32390961 9:-0.029056655 10:0.68063849 11:1.1906397 12:0.06221664 13:1.0073825 14:-0.21449691 #
3.0315227177002324054910786799155 1:0.20278528 2:0.32694504 3:0.88521779 4:1.0386658 5:0.29517755 6:0.0534948 7:1.1882044 8:0.039012421 9:-0.14705943 10:1.1138164 11:0.80197823 12:0.78971672 13:-0.018116787 14:0.58003801 #
0.022057551012970029458148957246522 1:1.1580598 2:0.010549711 3:0.71319246 4:1.344888 5:1.3406826 6:1.1722896 7:0.44797549 8:-0.022502329 9:0.28801665 10:0.47175369 11:-0.17096393 12:0.30711594 13:0.16690217 14:0.6607722 #
2.2345037051267264693876768433256 1:-0.25117829 2:0.29368696 3:-0.33921969 4:1.5596135 5:0.94095385 6:-0.049959119 7:1.0112748 8:1.2264448 9:0.33745968 10:0.55783361 11:1.0719111 12:1.1216415 13:0.478448 14:0.82280928 #
-3.1865340901594940703489555744454 1:0.087600276 2:0.18164477 3:0.97068584 4:1.1121713 5:0.62321407 6:0.3344385 7:0.77856743 8:0.9834677 9:0.6674335 10:1.1128342 11:1.0304905 12:0.64541107 13:0.25989288 14:0.78350085 #
-0.74093778738993409938018430693774 1:1.3728732 2:0.15024452 3:0.2994504 4:0.49780217 5:0.15236239 6:-0.28241798 7:-0.70487446 8:0.91397017 9:-0.084843278 10:0.21850668 11:1.4418718 12:0.98720968 13:0.85509264 14:0.53824937 #
-2.0246831335117754235852771671489 1:0.28570154 2:0.080363587 3:0.9502449 4:0.13636462 5:0.74608636 6:0.056115862 7:0.78987741 8:-0.23438729 9:-0.24666168 10:0.61888504 11:0.43196264 12:0.41693512 13:0.63247162 14:0.011077506 #
-3.0205532393162206616921139357146 1:0.62704587 2:0.16938725 3:0.48936361 4:0.67772055 5:0.81711185 6:0.39477926 7:0.32410493 8:0.2955263 9:0.025079925 10:0.46058431 11:-0.0030552282 12:1.1677153 13:0.75639468 14:1.1387868 #
-3.3855802629926561309048338443972 1:0.61958104 2:0.1053206 3:1.494323 4:0.77408671 5:0.030405533 6:0.22585982 7:-0.17925207 8:0.37052166 9:0.088963211 10:0.18015185 11:0.45019618 12:0.35236457 13:0.85574764 14:0.3822023 #
1.8750745630092251481357834563823 1:0.24759352 2:0.48352757 3:0.17734562 4:0.38427684 5:0.15021971 6:0.19368735 7:-0.15058811 8:0.2042017 9:-0.23270281 10:1.0413345 11:1.0195752 12:-0.089076459 13:-1.0172613 14:0.22163974 #
1.0487433949132702881712475573295 1:0.53952968 2:0.021014167 3:-0.0021186939 4:2.0246558 5:0.79662102 6:0.36252427 7:0.66001326 8:-0.059969373 9:-0.031047033 10:0.0099254567 11:0.98133379 12:1.2899899 13:0.1761741 14:0.53097034 #
0.27064038696130937600159427347535 1:0.85355473 2:0.049535729 3:0.040884193 4:0.59221429 5:0.37641874 6:1.017697 7:1.0413245 8:0.60719579 9:0.00040541115 10:0.52995968 11:1.3574262 12:1.2850733 13:1.0574547 14:0.16958563 #
2.0382146678841932541104142728727 1:0.54586816 2:0.20229456 3:0.6864695 4:0.75790256 5:0.8998118 6:1.2778366 7:0.19817232 8:0.09922488 9:0.092078641 10:1.0434839 11:1.173708 12:1.4139951 13:0.53528887 14:0.38540328 #
2.5718310839782096977046421670821 1:-0.27816361 2:-0.13261694 3:1.070025 4:0.71686959 5:0.97945577 6:0.6201061 7:0.95120305 8:-0.026616476 9:0.23931888 10:0.71156466 11:0.56311131 12:1.1300422 13:0.4762753 14:0.030532958 #
1.1947172129015639630011946792365 1:-0.078849375 2:0.017106265 3:0.2303023 4:0.84276116 5:0.1816067 6:0.15965217 7:0.062655769 8:0.31731492 9:0.35009423 10:0.58782852 11:0.79405797 12:1.2269377 13:0.65374339 14:-0.054343227 #
-0.087037394470617007735668835266551 1:2.4713039 2:-0.00044427149 3:1.5758603 4:0.083406366 5:1.3918608 6:-0.25070009 7:1.8167435 8:0.97559983 9:0.60738665 10:1.3771904 11:0.12877373 12:0.263749 13:1.3376418 14:0.67165732 #
-0.82105143641243383267891431387397 1:0.16061889 2:0.38575602 3:-0.36908501 4:0.33996415 5:0.14588207 6:0.83476418 7:0.40435103 8:0.40190509 9:0.084157668 10:0.65328705 11:1.0774242 12:-0.0078398492 13:0.9831239 14:0.32290572 #
-2.3463693336068685013628964952659 1:0.36935088 2:0.27402264 3:0.34185734 4:-0.12990621 5:0.27450678 6:0.6039961 7:0.44042704 8:1.0119213 9:0.16094372 10:0.3679283 11:0.54934275 12:0.060186721 13:-0.034213383 14:0.98037702 #
-3.1030357672490249676400253520114 1:-0.14187273 2:0.21093945 3:0.8971386 4:0.049745943 5:-0.068629421 6:0.72497362 7:0.4104988 8:0.332293 9:0.26585859 10:0.8238306 11:0.99422652 12:0.2603181 13:0.34041414 14:-0.15449016 #
-1.7689036123946133560735916034901 1:0.45776156 2:0.00055597449 3:1.2146013 4:-0.023879228 5:0.98405045 6:-0.14201345 7:0.40965134 8:0.21038139 9:0.25325337 10:0.74167746 11:0.20856613 12:0.54804331 13:-0.15748461 14:0.32566375 #
13.546186322189347706057560571935 1:0.35787204 2:-0.13827081 3:0.62440151 4:0.71750748 5:0.40807977 6:0.73795241 7:0.64161336 8:0.22188887 9:0.28179845 10:0.45711759 11:0.64491701 12:0.69454849 13:-0.16170983 14:0.41226608 #
-0.95585493049477532334634588551125 1:0.69295734 2:1.1200365 3:0.61356807 4:0.95253474 5:0.46657321 6:0.55970293 7:0.11384315 8:0.57609552 9:-0.022496864 10:1.0566381 11:0.79299682 12:0.79746979 13:0.51134694 14:0.026651116 #
2.1758465116428280516913673636736 1:-0.13113874 2:0.18112807 3:0.65078151 4:0.53350037 5:0.04272908 6:0.092549324 7:0.512712 8:-0.057060156 9:-0.17029816 10:0.44148555 11:0.29037714 12:-0.14101957 13:-0.12912585 14:0.2470862 #
-4.2700132272152728774017305113375 1:0.2707037 2:0.67977703 3:0.14076388 4:0.99312168 5:0.79225659 6:0.8151567 7:0.10824841 8:0.3881098 9:-0.019593488 10:0.97566789 11:0.87227637 12:-0.088705808 13:0.35350505 14:-0.14213048 #
-2.5099444269120798622907386743464 1:0.93873072 2:0.25215486 3:-0.31126845 4:0.60105413 5:0.4918178 6:0.070602007 7:0.32989305 8:0.45037237 9:0.12283792 10:1.0086257 11:0.63799763 12:0.97883433 13:0.62922585 14:0.21996963 #
3.6602891760878466520523488725303 1:0.33466825 2:0.29332072 3:0.71816295 4:0.59378332 5:0.57933551 6:0.56588346 7:0.38211074 8:0.59868103 9:0.078114606 10:0.79842401 11:0.87208217 12:0.81341201 13:0.55559826 14:0.0070332629 #
-0.40158052289699863734995233244263 1:-0.12936641 2:0.6762467 3:0.90724099 4:0.5780077 5:1.0252329 6:0.19288856 7:-0.19950123 8:-0.082349122 9:-0.22345844 10:1.1551768 11:1.2391316 12:0.43916431 13:0.91208804 14:0.0068372972 #
1.0557682703082316155729358797544 1:-0.46447858 2:0.1519931 3:0.083704092 4:0.39648941 5:-0.30971313 6:0.38934132 7:1.1567413 8:-0.10746635 9:0.32847497 10:0.22061116 11:0.70950109 12:0.78661835 13:0.28144631 14:0.7403565 #
4.957754614961807249073899583891 1:1.0377989 2:0.048312288 3:0.77433217 4:0.96420181 5:1.0800501 6:0.44120699 7:0.20325981 8:0.37495035 9:0.078505658 10:0.61330956 11:0.58370316 12:0.47514325 13:0.22647648 14:1.2899991 #
-0.69783527370517406396288606629241 1:0.21874474 2:-0.46753123 3:0.1356459 4:0.80831504 5:0.28684497 6:0.24991414 7:0.73473829 8:0.53875118 9:-0.99574572 10:0.30564442 11:0.72627503 12:0.70733273 13:0.45464611 14:0.50474995 #
-2.702157403682658110000147644314 1:0.71624285 2:0.44610789 3:0.49074975 4:0.56700313 5:-0.22478305 6:1.0912936 7:0.1996035 8:1.4650217 9:0.36407855 10:0.84633315 11:1.1382474 12:0.65521562 13:0.6839174 14:0.54672801 #
-3.8729254428058781378751973534236 1:0.21579677 2:-0.038501091 3:0.71470255 4:-0.36644283 5:0.40534765 6:0.13153262 7:0.40556774 8:0.91954762 9:0.041048549 10:0.1417747 11:0.87421805 12:0.68266267 13:1.098814 14:0.5108819 #
1.2556194135483307317002754643909 1:0.43210277 2:0.24280943 3:0.8807857 4:0.80577338 5:0.60438615 6:0.56041127 7:0.65279669 8:0.62355876 9:0.13524494 10:0.42051056 11:0.28097066 12:-0.34340471 13:1.0156345 14:-0.048570275 #
0.20423103402629461111672526385519 1:-0.23818541 2:-0.034195241 3:0.73245317 4:0.81419265 5:0.24878977 6:0.72913283 7:-0.31916592 8:0.18037842 9:0.030758077 10:0.9622103 11:0.75128865 12:0.073810853 13:0.89929277 14:0.065179631 #
0.14086805089363577114802694723039 1:1.0913233 2:0.1366366 3:-0.0016670873 4:1.2963654 5:-0.63980979 6:1.520687 7:0.3726202 8:0.54377788 9:0.26607618 10:0.67370039 11:1.1084932 12:0.4246996 13:0.57667893 14:0.72710222 #
1.0182043835234060313865711577819 1:0.11567309 2:-0.12063383 3:1.0874218 4:0.84816045 5:-0.23361307 6:0.89811236 7:0.98296422 8:0.20102687 9:0.32696632 10:0.37787482 11:0.33847603 12:0.049546663 13:0.76530123 14:0.71704048 #
0.31117196261655255540290454518981 1:0.1080018 2:-0.024541177 3:1.1822929 4:0.65959418 5:0.54699594 6:0.22687557 7:0.13203907 8:-0.20044157 9:0.87239856 10:0.49221462 11:0.64654446 12:-0.23048356 13:0.23421231 14:0.79620475 #
-16.908826520005121096801303792745 1:-0.20390187 2:0.25860077 3:0.72835928 4:0.8588984 5:0.9763611 6:0.47601774 7:0.12759058 8:0.25369459 9:0.28002623 10:-0.11024684 11:0.43411392 12:0.58218575 13:0.41838533 14:0.88452435 #
7.0133212563273179540601631742902 1:0.31433481 2:0.14363073 3:0.94274002 4:1.0050423 5:0.63436091 6:0.54073423 7:0.3116762 8:0.40828806 9:-0.13304275 10:0.26308787 11:1.2243335 12:0.13718511 13:0.04599737 14:0.62227964 #
0.10050613171242930854454300515499 1:-0.087188981 2:0.6138736 3:0.77242732 4:0.79719293 5:0.71903449 6:-0.28022152 7:0.29713583 8:0.85480243 9:0.30415532 10:0.10958932 11:0.33428666 12:0.12048231 13:0.17556143 14:1.8856726 #
-15.16516392050663775137309130514 1:0.96640998 2:0.11254827 3:1.0527744 4:0.6057235 5:0.4695935 6:0.64767158 7:0.6077556 8:0.42709959 9:0.36956787 10:0.56956452 11:0.32607251 12:0.78896397 13:0.92756301 14:0.43911931 #
-31.525569098477031815264126635157 1:0.11624175 2:0.29450539 3:0.54945958 4:0.30532715 5:0.46825033 6:0.15428011 7:0.21797858 8:1.3405722 9:0.17859019 10:1.5617801 11:0.75342011 12:0.37759778 13:0.86096829 14:0.25442719 #
-1.3585882774236708314674615394324 1:0.14310423 2:0.3504473 3:0.49964774 4:0.47836488 5:1.463123 6:0.26805946 7:0.4986684 8:-0.16945541 9:-0.0012076725 10:1.3332375 11:-0.0086747836 12:1.138226 13:-0.39186823 14:0.16440164 #
-0.22257813741289625419916831106093 1:1.2834013 2:0.283005 3:0.40621382 4:0.56093919 5:-0.06778837 6:0.80279189 7:0.085555136 8:1.3225772 9:-0.70703942 10:0.74692965 11:0.46475437 12:-0.39491946 13:0.32644793 14:0.80653906 #
-0.54249805215501001320888008194743 1:-0.19504908 2:-0.4643895 3:-0.41751194 4:0.19762142 5:0.51754344 6:0.99252892 7:0.66825289 8:0.38633841 9:0.77436864 10:1.536369 11:0.92294848 12:0.45442203 13:0.80189449 14:0.85739827 #
4.2854574895891985875095997471362 1:1.2463075 2:0.11910266 3:0.62047583 4:1.10025 5:0.53122526 6:0.067425348 7:1.0373602 8:0.42621189 9:-0.15072477 10:1.0847343 11:0.40864682 12:0.7528863 13:0.20034482 14:0.53754139 #
-1.2604250940747416809273317994666 1:-0.098282792 2:0.010891241 3:0.061473671 4:0.047774211 5:0.098839298 6:0.051757026 7:0.79132473 8:0.59885657 9:0.10602481 10:0.92829084 11:0.75139678 12:0.57381964 13:1.0837084 14:-0.12249261 #
-1.6876018419970142403485624527093 1:1.0878105 2:-0.38031411 3:1.1173005 4:1.3675503 5:0.60413653 6:0.64485693 7:0.3960211 8:0.51365227 9:0.28039601 10:1.5244125 11:1.1728827 12:1.2116623 13:1.2430639 14:0.091329105 #
2.6368946415269829408600799069973 1:0.27791759 2:0.12782197 3:0.83456725 4:0.7046932 5:0.73929352 6:0.96348912 7:0.90206528 8:-0.24819732 9:-0.067852229 10:0.35559377 11:0.17385571 12:-0.15621409 13:-0.22727461 14:0.81746781 #
4.2366792154679364656999496219214 1:0.12925361 2:-0.079303287 3:0.50363308 4:0.079938509 5:0.19998379 6:0.91884196 7:0.11723112 8:0.67156959 9:0.013828304 10:0.68665504 11:0.79319519 12:0.20781793 13:0.49177536 14:0.42334622 #
-2.610814681059417718955728560104 1:-0.49658456 2:0.034665719 3:0.30464134 4:1.3578644 5:1.2998137 6:0.22112918 7:0.8823415 8:0.9056266 9:0.25076723 10:0.58869296 11:-0.0098992093 12:0.50566733 13:0.44701725 14:0.69670963 #
-3.4682176918894969119833149306942 1:0.58375019 2:0.19996396 3:0.77235603 4:1.1586045 5:-0.002435327 6:0.76132411 7:0.089761369 8:1.0473017 9:0.23447111 10:0.14049292 11:0.17721033 12:0.96290278 13:0.34664726 14:0.31544319 #
4.9690303518811251848319443524815 1:0.49079984 2:0.16306424 3:0.9087646 4:0.2558009 5:-0.15249735 6:0.46514696 7:1.1874628 8:0.67847151 9:0.44948679 10:0.73816991 11:0.91449851 12:0.7658304 13:0.68431485 14:0.58422869 #
0.92283499556924797335710763945826 1:0.054571372 2:-0.18501957 3:1.5832878 4:1.1300815 5:0.64603573 6:0.35406789 7:0.68173075 8:1.6882191 9:1.1658758 10:0.45796755 11:0.89055914 12:0.80524731 13:0.15714151 14:0.78333217 #
0.92189074852451891040061582316412 1:0.54324192 2:0.29960266 3:0.052621994 4:0.50135797 5:1.2370991 6:0.18431523 7:0.81215441 8:0.69102174 9:0.11465764 10:1.1195334 11:0.91007328 12:-0.072771326 13:0.91475469 14:0.46746647 #
-0.91935644507473124331653480112436 1:0.29231894 2:0.30220428 3:0.84994191 4:1.0024228 5:0.30036637 6:-0.1297965 7:0.094120577 8:0.56281561 9:0.22159645 10:0.71642685 11:0.36371881 12:0.95757604 13:0.10648254 14:0.55012268 #
-2.7405178340604590125906270259293 1:0.88552815 2:0.44552717 3:0.98122239 4:1.0301034 5:1.0027999 6:0.13337505 7:0.53310424 8:0.74229938 9:-0.099537082 10:0.20472664 11:0.4819676 12:0.54089814 13:0.78038847 14:0.58368385 #
0.67634885500927721668773529017926 1:0.71569699 2:0.21932597 3:0.69707042 4:0.0041213688 5:1.4664217 6:-0.091315642 7:-0.14831817 8:-0.10812213 9:-0.14220247 10:0.95183057 11:1.3968447 12:0.92588532 13:0.67317408 14:1.1383432 #
-1.8413642530916851658417954240576 1:0.55325133 2:-0.32009098 3:1.3045387 4:0.428745 5:0.7723428 6:-0.34428784 7:0.2441674 8:0.29640973 9:0.38774255 10:0.62830943 11:0.048230708 12:-0.3761656 13:0.81480891 14:0.62208533 #
0.46776244926686522118686184512626 1:0.094843797 2:-0.090395354 3:0.41089538 4:0.8483507 5:-0.51711506 6:0.81140506 7:0.67183709 8:1.2120131 9:0.15059839 10:0.10215165 11:0.68913227 12:-0.58944601 13:0.67495 14:0.34698072 #
2.5681235118906795555915323348017 1:0.28599375 2:0.87075597 3:0.58947587 4:-0.035634536 5:0.27863857 6:0.76572543 7:0.52348715 8:0.78316206 9:-0.19971794 10:0.88881373 11:1.1113803 12:0.94476217 13:0.63569885 14:-0.55962175 #
1.555854480794936156584640229994 1:0.68636137 2:0.16170913 3:0.9939695 4:0.48137471 5:0.77889901 6:-0.19594616 7:0.82728171 8:0.99179858 9:0.015477423 10:0.86631459 11:0.95537823 12:-0.034622572 13:-0.02922417 14:0.75232154 #
0.13693855519616998650533901127346 1:-0.084537379 2:0.39984658 3:0.076544598 4:0.94704068 5:-0.19459994 6:1.6808442 7:0.67239743 8:0.50660431 9:0.00099622994 10:0.5773446 11:0.45076668 12:1.1137272 13:-0.038772497 14:-0.26550648 #
-1.8289202225253320399644962890306 1:0.59859872 2:-0.24049817 3:0.52173209 4:0.57715958 5:0.46275264 6:0.093982957 7:-0.21758698 8:0.22841783 9:-0.53315085 10:1.3401142 11:0.99896467 12:1.0249618 13:0.47882846 14:0.28989804 #
5.7339677938769755272119255096186 1:0.73758072 2:-0.16191785 3:0.72752857 4:0.8401944 5:-0.17899071 6:0.24970004 7:0.27289438 8:0.12372244 9:-0.046612889 10:0.083105363 11:0.19351833 12:0.18247309 13:0.3398028 14:0.63353425 #
3.1774246757698638710110117244767 1:0.049519915 2:0.68821013 3:0.33538967 4:-0.055985086 5:0.90687108 6:0.72071183 7:0.97142881 8:0.19357114 9:0.019203296 10:1.0711312 11:0.99508619 12:0.39038998 13:0.20748828 14:0.10426357 #
3.1354124656392374781432863528607 1:0.34103164 2:-0.052397508 3:-0.17701198 4:0.8800112 5:0.8048895 6:0.34803534 7:0.72176158 8:0.89040542 9:-0.16392654 10:0.91024196 11:1.3708147 12:0.62237072 13:0.56182331 14:-0.36667284 #
2.7733297127791565195309431146597 1:0.6522491 2:-0.17400131 3:0.87863898 4:0.97160697 5:1.1953505 6:0.59151781 7:0.47774136 8:0.51654315 9:0.054184165 10:0.30704278 11:0.2706961 12:0.48270327 13:0.58127558 14:0.12802878 #
-11.666721317349418640674230118748 1:1.5688496 2:0.047474056 3:1.8060201 4:0.62728041 5:0.4500837 6:1.0197898 7:0.38260153 8:0.28469667 9:0.44395119 10:0.32618305 11:0.41984394 12:0.40106711 13:0.56825674 14:0.82242614 #
-0.30755382586557383772785101427871 1:-0.6788969 2:0.066992931 3:0.21430251 4:0.72417969 5:0.44264013 6:0.60198069 7:0.39103222 8:-0.83603287 9:0.063198432 10:0.083829254 11:0.37294146 12:0.27652919 13:0.66662014 14:0.60817301 #
-8.9656165514333157062765167211182 1:0.6305896 2:0.1250174 3:1.2682188 4:0.94221765 5:0.79422224 6:0.9862237 7:0.603136 8:0.40312988 9:0.36630654 10:0.41343239 11:0.10873429 12:0.83585727 13:0.35594499 14:0.88724929 #
-3.4836535019380607813843653275399 1:0.56901628 2:0.12392459 3:0.65016562 4:0.5605008 5:1.1835442 6:1.311377 7:0.9166435 8:0.30747646 9:0.012050472 10:-0.13665164 11:0.82811493 12:0.45791823 13:0.78027201 14:1.2495152 #
-5.2572688333575143815323826856911 1:0.21298942 2:-0.018036418 3:0.066836186 4:0.53277045 5:0.21560626 6:0.22933121 7:0.16012262 8:0.47689599 9:0.30462232 10:0.58170158 11:1.1991577 12:0.88607138 13:0.062443592 14:0.79700053 #
0.27852366494220287540528602221457 1:0.11587311 2:0.55958301 3:1.1314358 4:0.74518627 5:1.0022341 6:0.30653349 7:-1.2670058 8:0.094879642 9:-0.05684543 10:0.077805169 11:0.72724968 12:0.23075235 13:-0.53900176 14:-0.95727777 #
2.685408733127450542355063589639 1:0.2477136 2:-0.20918122 3:-0.017885664 4:-0.11688556 5:0.43591461 6:0.67327243 7:0.16973157 8:0.60524833 9:-0.34574735 10:0.65405619 11:0.30506322 12:0.47694945 13:1.1572552 14:1.1318299 #
-0.47666475968085575409816101455363 1:0.76268286 2:0.28159305 3:0.6230588 4:0.61591828 5:0.021186566 6:0.50452727 7:0.10599768 8:0.46152291 9:0.007679204 10:0.55973071 11:1.0589567 12:0.2172149 13:0.23259322 14:1.3146918 #
0.22377056786401683385889782584854 1:1.1888096 2:-0.18575615 3:0.53835809 4:0.81460077 5:0.92666149 6:0.3523078 7:0.81620526 8:1.4582286 9:-0.13939613 10:0.10048614 11:0.55549371 12:1.1298367 13:0.28422821 14:0.61536604 #
0.78561005213807522107316572146374 1:0.48405343 2:0.20592238 3:0.6761452 4:-0.034548815 5:1.5428406 6:1.7464858 7:1.199403 8:-0.064525925 9:0.11271272 10:-0.24600145 11:0.95937049 12:0.37230134 13:0.92207175 14:1.4020873 #
-8.7415546048620864638678540359251 1:0.40971014 2:0.22305772 3:0.082823515 4:0.22372203 5:0.72999293 6:-0.16513982 7:0.30666557 8:-0.226492 9:0.28139299 10:0.78314209 11:0.73817408 12:0.30277923 13:0.5787183 14:0.9454754 #
-3.0000126175736054889853221538942 1:0.59792346 2:0.084771067 3:0.48213199 4:0.87850559 5:0.40433916 6:0.75978905 7:0.87307304 8:1.008315 9:0.1376325 10:0.90250731 11:0.41057837 12:1.0767785 13:0.089491323 14:0.80832243 #
0.75581318162399391269445914076641 1:0.90814304 2:-0.072186939 3:0.97384262 4:0.81890112 5:0.65583271 6:1.2086282 7:-0.092952631 8:0.59942383 9:-0.017314838 10:-0.28611666 11:-0.0097819176 12:0.41388258 13:0.90851074 14:0.32708135 #
-1.5378447263084400464805412411806 1:1.1513225 2:0.086831875 3:0.4651224 4:0.47571874 5:-0.21872936 6:-0.11296944 7:0.53093833 8:0.56772107 9:0.20270483 10:1.0000056 11:0.11905748 12:0.053367611 13:0.37345177 14:0.72765964 #
-10.552740245793422957376606063917 1:0.14616431 2:0.25272506 3:0.8938145 4:0.14006566 5:0.021644069 6:-0.12915473 7:0.44944167 8:-0.046723824 9:-0.01002902 10:0.68591076 11:0.85897869 12:0.4191958 13:0.27396783 14:0.58491415 #
0.67351635927017283744788755939226 1:0.51891565 2:0.0025820879 3:-0.89048392 4:0.61267322 5:0.88895822 6:0.73961169 7:-0.21612723 8:0.4166739 9:0.37564123 10:1.2730745 11:1.2602577 12:1.459034 13:0.81763446 14:0.2373527 #
6.6788507653626414395375832100399 1:0.44471821 2:0.42247054 3:0.26106235 4:0.83889973 5:-0.028415328 6:0.18052132 7:0.22864631 8:0.36549115 9:-0.069122173 10:1.0477999 11:0.55729401 12:0.44089714 13:0.94732714 14:0.78534728 #
5.190980162536068753809104237007 1:-0.47974676 2:0.35067499 3:-0.53140831 4:1.1905569 5:0.26608482 6:-0.071236961 7:0.0066129048 8:1.5056213 9:-0.14706257 10:1.2557691 11:0.79286432 12:0.53896743 13:0.34297436 14:0.25118923 #
0.26291876206999426068833258796076 1:0.070749708 2:0.076495141 3:-0.057375215 4:1.0904269 5:0.20067935 6:0.56784779 7:0.88206106 8:0.012637646 9:0.14709462 10:0.97532099 11:0.50901759 12:0.3263568 13:0.5864256 14:-0.16229264 #
0.82292363816092961581460940578836 1:0.19921985 2:-0.45514646 3:-0.020585364 4:-0.024752069 5:0.099827386 6:0.14482518 7:0.63308889 8:-0.056799352 9:-0.22332233 10:0.41003975 11:0.2803686 12:-0.62812841 13:0.0011544194 14:-0.15197316 #
-1.9783510520201947890939209173666 1:0.35423648 2:-0.34621522 3:0.82580495 4:0.99181038 5:0.68567318 6:1.5115056 7:0.59365511 8:0.98975146 9:0.24919713 10:0.72530949 11:0.919321 12:0.57057267 13:0.33827305 14:0.10614555 #
-7.8014310717877428658084681956097 1:0.34572503 2:0.21556097 3:0.79781437 4:0.28695384 5:0.72968918 6:0.5527637 7:0.97566926 8:0.95527685 9:-0.081889689 10:0.33674338 11:0.53133303 12:0.23481463 13:0.82680821 14:1.0443255 #
0.45276110852573470122450771668809 1:0.3657546 2:0.13739401 3:0.75635451 4:1.6639347 5:1.4220978 6:0.35927275 7:0.13292401 8:0.38330725 9:-0.046260994 10:0.84801638 11:1.0071006 12:0.84471679 13:1.7746564 14:0.87436706 #
-3.8034150399079358351173141272739 1:0.60136974 2:-0.021812353 3:1.0080668 4:0.049036533 5:0.12166891 6:0.28791907 7:0.94405341 8:0.84310514 9:-0.3106328 10:0.79854304 11:0.25779739 12:0.75140154 13:0.16779155 14:0.68040478 #
0.091880370850718415254299031857954 1:0.1083916 2:0.11473896 3:0.80441755 4:0.72948086 5:0.048568189 6:0.37231711 7:0.054446891 8:-0.21390805 9:0.07755632 10:1.3012443 11:0.10713586 12:0.68338948 13:0.1422119 14:0.19685628 #
-11.921662887622064275205957528669 1:0.58066994 2:0.2158488 3:0.89930272 4:0.64786667 5:0.10658246 6:0.43190029 7:0.43326852 8:-0.40507367 9:0.22409308 10:0.38456786 11:0.58526111 12:-0.010046342 13:0.95984024 14:0.406708 #
-10.122703020726014244701218558475 1:0.96852767 2:-0.10150042 3:0.18018104 4:0.072917797 5:0.89873791 6:0.75640756 7:0.87239701 8:0.28670883 9:0.33464378 10:0.63138199 11:0.52257085 12:0.53143048 13:0.59405375 14:0.76759255 #
-0.0059564174928735807990065609374142 1:0.29133874 2:-0.67478943 3:0.49843463 4:0.48826942 5:0.38581625 6:0.9012717 7:0.97441095 8:-0.059245501 9:0.32388318 10:0.19789909 11:0.87764817 12:1.1867596 13:-0.48183107 14:0.077526249 #
-2.0603876774966689566781496978365 1:0.60041583 2:0.20566113 3:0.86589915 4:0.79044795 5:0.57730204 6:1.1763083 7:0.37897092 8:0.3888866 9:0.55676848 10:0.0017612248 11:0.92735261 12:0.34012851 13:0.26598313 14:0.34156772 #
-1.6492349562670500784378191383439 1:0.70569605 2:0.072038129 3:0.57940954 4:1.0611579 5:0.068926543 6:0.90311664 7:0.082978383 8:0.88348794 9:-0.14711313 10:1.0608989 11:0.82221377 12:0.7248596 13:-0.0094417948 14:0.33082244 #
0.73813025200595050456797707738588 1:-0.079309568 2:0.17046702 3:0.45607036 4:0.21220356 5:0.11098588 6:0.60111558 7:-0.80467266 8:0.47152558 9:-0.11049744 10:1.4858233 11:1.0709189 12:0.89048141 13:0.66745275 14:0.99188209 #
-3.9386457814148694289713148464216 1:0.63001317 2:0.10723817 3:1.3920585 4:0.7372151 5:1.042447 6:0.73255849 7:1.0590588 8:0.25072834 9:0.19627361 10:0.66645187 11:1.2963547 12:0.15356019 13:0.3664757 14:1.0429929 #
2.0932156072995136142367300635669 1:0.14891599 2:-0.25035805 3:-0.31918934 4:0.17712343 5:1.196412 6:1.0136117 7:1.0891515 8:0.54845303 9:-0.26254845 10:0.78125089 11:0.84085131 12:0.26381484 13:0.79778963 14:0.54617232 #
3.6686605902965681025307276286185 1:1.1497089 2:-0.19574192 3:0.76255345 4:0.29359701 5:0.15924439 6:0.79288191 7:0.93339431 8:1.2691621 9:-0.06199988 10:0.85621482 11:0.52983195 12:0.64340168 13:0.75532031 14:0.057541758 #
-2.9346964907286237078665180888493 1:0.21205516 2:0.20113492 3:1.2766925 4:1.0698631 5:-0.10086885 6:0.28915671 7:0.039349582 8:0.12795796 9:0.72565413 10:1.0260905 11:1.330107 12:0.82478827 13:0.60826802 14:0.39031738 #
13.900676615160477922472637146711 1:0.30405915 2:-0.020396357 3:0.68306512 4:1.0785565 5:0.87456483 6:0.41825801 7:-0.047919657 8:0.44889107 9:1.2893615 10:0.39633065 11:0.093854301 12:0.79624629 13:0.46494603 14:0.25901946 #
-9.6849019950803647560633180546574 1:1.4989986 2:0.35275361 3:1.7907753 4:1.2263864 5:0.76444131 6:0.21152303 7:0.30464026 8:0.20011397 9:0.14200211 10:1.1472272 11:-0.013362501 12:0.78897506 13:0.48760852 14:0.54837668 #
0.3480555511596149509401243449247 1:0.15286565 2:0.39793545 3:0.36106375 4:0.28491938 5:2.2067909 6:-0.146733 7:0.4139072 8:-0.39191571 9:0.22162633 10:1.7983679 11:-0.36963108 12:2.0530155 13:-0.66879106 14:0.18215741 #
-2.2500843821993563587113840185339 1:0.2530207 2:0.26542082 3:0.32699847 4:0.6936962 5:0.07469812 6:1.2080233 7:1.1400195 8:0.88768059 9:-0.072499692 10:1.060904 11:1.0808363 12:0.34650436 13:1.3620867 14:0.84297001 #
-0.23702915865044635324032640255609 1:1.283384 2:-0.15494145 3:1.4425416 4:0.57418907 5:0.64863634 6:-0.19251092 7:0.21144046 8:0.68469155 9:0.1481225 10:0.24528685 11:0.96445268 12:-0.12048255 13:0.22953577 14:0.38733935 #
-0.95131726373810598929026127734687 1:0.26678175 2:0.72737134 3:0.53549784 4:0.48090848 5:0.16134018 6:0.28507996 7:0.73392051 8:0.10560708 9:-0.12609562 10:1.0071303 11:0.27218866 12:0.063109376 13:1.2732658 14:0.18621086 #
0.43837932852763927815686884059687 1:-0.17516886 2:-0.22474591 3:0.83151925 4:0.83996308 5:0.9389382 6:0.53607923 7:0.017772801 8:0.13068266 9:-0.179895 10:0.36475605 11:0.89225399 12:0.91994888 13:0.86049485 14:0.68863374 #
1.5662750314845172994182576076128 1:1.0610627 2:0.18174958 3:0.71821976 4:0.85838318 5:0.9754799 6:-0.018293535 7:0.11332481 8:1.0076591 9:0.067344502 10:0.89236826 11:0.868559 12:-0.34291688 13:0.70773679 14:-0.076418817 #
2.0858172060360131716549858538201 1:-0.23098804 2:-0.14777933 3:0.80371219 4:0.67804557 5:0.59919053 6:1.4458588 7:0.39583203 8:1.6577283 9:1.3225454 10:0.31700647 11:1.0699751 12:0.55488223 13:0.6208303 14:0.74784285 #
-1.3830231265330064083229899551952 1:0.32095486 2:0.7376554 3:0.9841724 4:0.024580663 5:-0.23423243 6:0.027752558 7:0.42162594 8:-0.53074247 9:-0.17584883 10:1.0719039 11:0.45974752 12:0.011487705 13:-0.18460652 14:-0.097448997 #
3.3181868972988737276352821936598 1:0.55085915 2:-0.028206209 3:0.78425795 4:0.84074622 5:0.14552726 6:0.96565622 7:1.1490953 8:0.27091187 9:-0.33200258 10:-0.12670916 11:0.093205526 12:0.52250528 13:0.30578089 14:0.086765453 #
-1.5011096257472149595457722170977 1:0.1864319 2:0.18597402 3:0.98044688 4:1.2412429 5:0.76641142 6:-0.25026408 7:0.54068744 8:0.29992607 9:0.28779498 10:1.1751252 11:0.65725875 12:0.2587893 13:-0.19126853 14:0.14311099 #
-1.0594208934799216326183568526176 1:-0.071269654 2:-0.51910996 3:0.42908955 4:0.56554407 5:-0.72383577 6:1.4322554 7:0.42570713 8:0.804111 9:0.32723135 10:1.0912429 11:0.19438305 12:1.0331072 13:0.040275484 14:0.324902 #
-0.089098649310164840242620698518294 1:0.24144368 2:0.44533727 3:1.5418679 4:0.39438149 5:0.91890955 6:1.3089995 7:0.81886297 8:0.55158925 9:0.38667673 10:-0.083199523 11:0.9497304 12:1.569209 13:0.29445073 14:0.2983492 #
0.18316897175820831544790223688324 1:-0.70405185 2:-0.055554926 3:0.52916747 4:0.75965494 5:-0.32357427 6:0.7147193 7:0.59012038 8:-0.5052352 9:-0.19884899 10:-0.18091787 11:0.4501248 12:0.94277585 13:-0.046736114 14:1.1328939 #
3.9365568259036205489564963500015 1:0.71203738 2:0.64318448 3:1.2163171 4:-0.0095256129 5:0.4848299 6:0.14858386 7:0.30147317 8:0.75364244 9:-0.087867238 10:1.5115726 11:1.2322527 12:0.74741817 13:1.0483612 14:0.62183481 #
-2.9980401996602070724406985391397 1:0.1995858 2:0.19041474 3:-0.40526825 4:-0.15620312 5:0.80943584 6:0.35030535 7:0.13762988 8:-0.55854154 9:0.15854844 10:0.9701038 11:0.88098884 12:0.39129797 13:0.74333704 14:-0.29193869 #
0.045720006753172046098931957658351 1:0.94434792 2:-0.12793553 3:-0.0029702208 4:1.2309941 5:0.12837188 6:0.98163658 7:-0.91887331 8:0.19055314 9:0.77931786 10:0.90752697 11:0.87989885 12:0.40907142 13:0.67706192 14:0.57153565 #
-6.2425015281778239994991963612847 1:0.795075 2:0.090102367 3:0.53999358 4:0.61651301 5:-0.20649886 6:0.069145374 7:1.0411992 8:0.62546879 9:-0.0052693831 10:1.2048601 11:1.3816742 12:0.95059365 13:0.20697112 14:0.51935375 #
-7.8251631227226914333527929557022 1:0.70225656 2:-0.28944248 3:-0.23188663 4:1.090673 5:0.64184499 6:0.42137712 7:0.15360376 8:0.76529992 9:0.092894919 10:-0.04818717 11:0.62245488 12:0.11773561 13:0.32816258 14:0.84010655 #
-0.11290965858222630491258797746923 1:0.6568349 2:-0.27771032 3:0.87313229 4:1.3889979 5:1.2310212 6:1.2193779 7:-0.31683624 8:0.32254821 9:0.039731868 10:-0.032190423 11:0.45727134 12:0.72642672 13:0.022193488 14:-0.17318627 #
-9.1296294059076092963778137345798 1:-0.20303097 2:0.20945713 3:0.58117449 4:0.79882991 5:0.31517753 6:-0.063404396 7:0.31349826 8:0.68900526 9:0.026862489 10:0.23125678 11:0.84732187 12:0.11830756 13:0.60223567 14:0.29942471 #
-0.24835856563770469795926487677207 1:0.40496522 2:0.020176068 3:0.89587116 4:0.78917223 5:0.52952653 6:0.2625542 7:1.1059216 8:0.079241335 9:-0.089506507 10:0.5640375 11:-0.38420272 12:0.99083656 13:0.095304884 14:0.61978418 #
-8.0803200493913251989397394936532 1:0.10880956 2:0.745287 3:0.9425211 4:1.0295018 5:0.10879327 6:0.60373461 7:0.53074622 8:0.58675802 9:-0.14452063 10:1.4274623 11:1.3089495 12:0.50164288 13:0.84481764 14:0.90645105 #
-21.029715144623942535417882027104 1:0.29134014 2:0.032247405 3:0.47484204 4:0.94011474 5:0.56238824 6:0.21427748 7:0.13588814 8:0.29327667 9:0.30591041 10:0.30893248 11:0.007709112 12:0.33378458 13:0.81840843 14:0.2153523 #
-0.35184195379835458972195283422479 1:0.26726255 2:-0.068870798 3:0.47147271 4:0.38413531 5:0.82079411 6:1.1617894 7:-0.00050523941 8:0.1274891 9:-0.0856281 10:0.96685141 11:0.24714211 12:0.6289649 13:0.11775089 14:0.12575382 #
12.088441525328079251266899518669 1:0.79257375 2:0.14988603 3:0.56880397 4:0.86162126 5:0.27634031 6:0.81654757 7:0.89584118 8:0.29151839 9:0.25509071 10:1.0450863 11:0.79113352 12:0.49748284 13:0.63444239 14:0.63650334 #
1.1442659496576075284224316419568 1:0.43492141 2:0.4558852 3:0.10325424 4:0.62925756 5:1.2248427 6:0.33174521 7:-0.089936353 8:0.91764247 9:0.081272587 10:0.91239721 11:0.80975258 12:0.87145203 13:0.086760633 14:0.80030024 #
-14.957292161909430561195222253446 1:-0.27590093 2:0.12573057 3:0.53301561 4:0.77482522 5:0.64072615 6:0.84006077 7:0.83798617 8:0.72015744 9:0.16290647 10:0.21758738 11:0.4984442 12:-0.14133118 13:0.083510615 14:0.45145062 #
9.7444353268204206841573977726512 1:0.47713643 2:0.30797172 3:1.1329049 4:0.63836187 5:0.94924861 6:0.69693184 7:1.1509851 8:0.73652971 9:0.26250866 10:0.53706849 11:0.70057595 12:0.32086229 13:0.20663095 14:0.36508214 #
5.4351157086055774669830498169176 1:0.65453374 2:0.1227788 3:0.43168771 4:1.344831 5:0.077203736 6:-0.1363209 7:0.63572127 8:0.96890014 9:-0.049431466 10:0.59711856 11:0.84280288 12:-0.044364363 13:0.25584075 14:0.48595896 #
-0.28953330019868483979905704472912 1:0.89008296 2:-0.61646986 3:-0.33634007 4:0.1602051 5:0.68480051 6:0.15368693 7:0.50670797 8:0.73763973 9:-0.68055385 10:0.55874622 11:0.41023809 12:0.95146495 13:-0.073360965 14:0.68695253 #
12.459854027697616629666299559176 1:0.49026671 2:0.092756718 3:0.88894904 4:0.57253551 5:0.87728846 6:0.33980098 7:0.67266929 8:0.2862114 9:0.42085022 10:0.9006409 11:0.65476316 12:0.61635423 13:0.29447466 14:0.88737059 #
0.78298366838572497350412504601991 1:0.40796602 2:-0.46524376 3:0.97367668 4:0.31330669 5:0.65544218 6:1.2350559 7:0.81585228 8:0.51282203 9:-0.28637108 10:0.86770588 11:0.093366928 12:0.094505019 13:0.46009579 14:0.44577298 #
2.0370774656441592576072707743151 1:0.18870091 2:0.18283264 3:0.99572599 4:1.0912313 5:0.13230285 6:-0.28118539 7:-0.061347775 8:-0.47584125 9:-0.45407835 10:0.017252807 11:0.14873236 12:0.04790438 13:0.90638185 14:-0.16230018 #
1.4946396476260679353487148546265 1:0.56955111 2:0.27824026 3:1.0243844 4:0.30760252 5:0.090231024 6:0.58167958 7:0.23410028 8:0.93515527 9:-0.083208725 10:0.57996863 11:0.72014081 12:0.77196366 13:0.672912 14:0.89189434 #
-3.2696148112974898758409381116508 1:0.59509891 2:-0.025093015 3:0.60472345 4:0.64640588 5:0.71735549 6:0.8224535 7:0.44577685 8:1.4714011 9:0.068856969 10:1.5992341 11:0.61104852 12:0.13269387 13:-0.080988534 14:1.1505486 #
0.47368821633175656193870395327394 1:0.053478725 2:-0.1392546 3:0.96905464 4:0.4053928 5:1.33722 6:0.42203575 7:0.79791474 8:0.58537406 9:0.40577826 10:0.77034289 11:1.017415 12:-0.13320678 13:0.16760772 14:-0.26020077 #
0.42785746026266485708688946942857 1:0.41791552 2:0.54083622 3:-0.27126959 4:0.50731754 5:0.80156207 6:1.3639225 7:0.55424911 8:0.24575029 9:-0.80571878 10:0.67244136 11:0.3955479 12:1.6249239 13:0.24048518 14:0.13379982 #
10.246296068073274199150546337478 1:0.69658172 2:0.25019661 3:0.83044684 4:0.985475 5:0.87046784 6:0.70993131 7:0.92337459 8:0.71693939 9:-0.22815424 10:0.85816467 11:0.59265769 12:0.34698072 13:0.83540148 14:0.43077588 #
-0.46008571635435602242836239383905 1:0.62187296 2:0.16918211 3:0.58159107 4:0.81959718 5:-0.12273528 6:-1.1188961 7:0.098557867 8:0.73722535 9:0.092198394 10:1.1016599 11:0.75754493 12:0.22383437 13:1.1124473 14:-0.12406424 #
4.859994009700010941799064312363 1:0.80869925 2:0.12812302 3:0.76474637 4:0.55183756 5:0.6140734 6:-0.14727643 7:0.40366641 8:0.8410424 9:-0.016311979 10:0.93773973 11:0.2871041 12:0.37763155 13:-0.066570088 14:-0.33398324 #
-0.043030357750581935127875965463318 1:0.57356203 2:0.40168926 3:0.83008224 4:1.431404 5:1.3611432 6:1.1377724 7:0.67663825 8:0.51826501 9:-0.15861976 10:0.74853033 11:1.2663535 12:-0.14645277 13:1.3015069 14:-0.90142536 #
0.11734530840987197897185012607224 1:1.0975858 2:-0.62468636 3:-0.47020054 4:0.20957175 5:0.71455425 6:-0.27016178 7:0.55255502 8:0.78767806 9:-0.82294887 10:0.23567137 11:0.44154641 12:1.4400378 13:-0.63665175 14:0.90518945 #
-0.63297959863801400715033196320292 1:-1.0479705 2:-0.12161463 3:0.10989586 4:0.95781732 5:0.028466282 6:0.58426893 7:-0.2282899 8:-0.85369956 9:-0.20854244 10:0.34391174 11:0.34128204 12:0.72595596 13:0.48744404 14:1.272938 #
-0.11921022274787534955819978677027 1:1.1271253 2:-0.027918926 3:-0.19205903 4:0.46047267 5:0.96137005 6:-0.50113893 7:0.82860094 8:1.2200928 9:-0.88681573 10:-0.17794402 11:0.77899528 12:1.3211526 13:-0.052188892 14:0.93836015 #
-3.2682675973297219407243119349005 1:0.77738333 2:0.84595382 3:1.1657126 4:1.3521602 5:0.97153944 6:0.11212034 7:0.64506245 8:0.36862516 9:0.57155257 10:1.0256234 11:0.91616935 12:-0.1050172 13:0.82789052 14:0.087435253 #
0.85677469237059722395599692390533 1:1.275524 2:-0.36984754 3:0.42129141 4:0.334135 5:1.5273739 6:1.1356734 7:0.98781133 8:0.20290796 9:0.3336904 10:0.62039173 11:0.025705984 12:0.22756539 13:0.92190331 14:0.5244652 #
11.366943666498441345424907922279 1:0.43570694 2:-0.42681408 3:0.52474374 4:0.51539952 5:0.42668217 6:0.15033062 7:0.93450576 8:-0.065728053 9:0.12708126 10:-0.1125597 11:-0.14203444 12:0.25577962 13:0.50621462 14:0.23039678 #
-2.5689867114099813605321287468541 1:0.40267166 2:-0.066521011 3:1.5578836 4:0.34762987 5:0.35984889 6:1.251965 7:0.8216933 8:-0.36520344 9:-0.47952527 10:0.69181442 11:0.83913434 12:1.0733621 13:-0.071905784 14:0.99063301 #
-2.2070497951915237777598122193012 1:0.82331586 2:-0.021065895 3:1.2411019 4:1.7204229 5:0.64816093 6:0.36481151 7:0.58910197 8:-0.016251849 9:0.090117484 10:-0.35084844 11:0.52690852 12:0.12575682 13:-0.021596104 14:1.5322168 #
-2.1924462641361741610523949930212 1:0.71728146 2:-0.075324461 3:0.53481293 4:1.352263 5:0.15154742 6:1.1548344 7:0.1702491 8:0.23847826 9:-0.021203557 10:0.26586804 11:-0.02046087 12:0.79738212 13:1.0745078 14:0.79419947 #
2.4404323884458487547988170263125 1:0.011923877 2:-0.072226331 3:0.7224164 4:-0.13428025 5:1.0026063 6:0.48491612 7:0.0316144 8:-0.044750646 9:0.089239657 10:0.88696861 11:0.5026657 12:0.61913991 13:0.35221756 14:0.96013993 #
-0.42330934846942419591542261514405 1:0.022258794 2:0.10454939 3:0.78688818 4:0.77394229 5:-0.27917248 6:0.50117886 7:0.81633008 8:0.38951337 9:-0.07424961 10:0.54486382 11:1.3064406 12:0.84141243 13:0.9482336 14:1.1014537 #
-4.7781707434110582966013680561446 1:0.10933211 2:0.31195232 3:0.27095664 4:0.044923823 5:0.15549767 6:0.76410067 7:0.15653357 8:-0.10816381 9:0.53105599 10:0.82075971 11:0.94066149 12:1.1078707 13:-0.26888031 14:0.4652479 #
3.2673413520994807335284804139519 1:1.3324294 2:0.75058919 3:0.81818151 4:-0.10597326 5:0.19416289 6:0.81110883 7:1.2698356 8:0.008151548 9:0.3776736 10:1.1029487 11:0.80335087 12:1.2065467 13:0.84272063 14:0.60065782 #
-1.8659991559149011752793967389152 1:0.1974266 2:0.28581876 3:-0.085859142 4:0.5047999 5:0.48118055 6:0.50444055 7:1.3286346 8:-0.49715981 9:-0.178076 10:1.2093731 11:0.69808108 12:0.70456129 13:0.74057776 14:1.0695575 #
9.746710494337447627799519977998 1:0.22666158 2:0.091978177 3:1.5134341 4:1.398441 5:0.74234247 6:0.53451973 7:0.2840817 8:0.35240993 9:0.6399284 10:0.38440156 11:-0.64209306 12:0.19896394 13:0.38517562 14:0.60917068 #
0.43839920263529275068492552236421 1:-0.36408341 2:-0.17816773 3:0.78790879 4:-0.62741154 5:0.32207966 6:-0.091793351 7:0.60295427 8:1.4871073 9:-0.17325447 10:0.12480722 11:1.5645829 12:1.1074004 13:0.87813765 14:0.37693879 #
10.301713932724148037323175230995 1:0.65144998 2:1.3429322 3:-0.015882587 4:-0.33013743 5:0.80433726 6:0.27274704 7:0.40250838 8:-0.12103003 9:-0.12414409 10:1.1982772 11:1.2966965 12:0.41151756 13:0.60710549 14:0.09403719 #
1.3137832946064773587124818732264 1:0.43201163 2:0.18550619 3:0.18561536 4:-0.11898365 5:0.49648374 6:-0.45509925 7:0.48281762 8:0.61898088 9:0.24709846 10:0.93577158 11:0.82554698 12:0.15131465 13:0.3119584 14:0.080198862 #
9.3598469856221306883981014834717 1:0.16069137 2:-0.032261275 3:0.69333935 4:0.29771733 5:0.64974803 6:0.96166241 7:0.76398093 8:0.20739095 9:0.038003683 10:0.58184063 11:0.24734928 12:0.64303982 13:1.1290965 14:-0.14410929 #
2.4706808449425192719672850216739 1:-0.17482632 2:0.0019198293 3:-0.45998976 4:0.13148183 5:0.28827 6:0.2522234 7:0.47964659 8:0.41102692 9:-0.21013218 10:1.0224311 11:0.55341357 12:1.2977864 13:0.331664 14:0.96318007 #
0.96403957600168277419783180448576 1:0.48077828 2:0.92883599 3:0.4687033 4:0.43928844 5:1.0545691 6:0.2236203 7:0.85322422 8:0.078457557 9:0.22460313 10:1.087664 11:1.0650146 12:0.96030182 13:1.0995506 14:0.057109363 #
3.6345009231707123831256467383355 1:1.0548611 2:-0.246935 3:1.1019862 4:0.93502462 5:0.30644184 6:0.028538203 7:0.37010816 8:-0.56919467 9:1.1787677 10:-0.12903368 11:1.2470152 12:0.5947752 13:0.77249956 14:0.36848214 #
0.52213856800023750182049298018683 1:0.28234223 2:0.059181143 3:0.94079345 4:0.87666059 5:1.2741622 6:-0.060731929 7:0.495253 8:0.010539521 9:-0.10564756 10:0.36846811 11:0.60067594 12:1.5457571 13:0.096989676 14:0.57916862 #
-7.8934829877792349606124844285659 1:0.41363883 2:0.21057817 3:0.76768279 4:0.65416026 5:0.14617474 6:0.47209978 7:0.28332388 8:0.68950498 9:0.14110518 10:-0.16266511 11:0.82546061 12:0.95441782 13:0.26918378 14:0.80064231 #
-2.7616553747048171452149745164206 1:0.81879956 2:0.15643975 3:0.25511003 4:-0.080189385 5:0.58941048 6:0.61737573 7:0.8947776 8:0.90677929 9:0.18191919 10:0.8436299 11:0.80443478 12:0.68742383 13:0.11737108 14:0.11706461 #
-1.2377419353054053274831858288962 1:1.017235 2:-0.70210898 3:0.63142192 4:-0.5053761 5:0.81501925 6:0.96361279 7:-0.31536618 8:1.2967647 9:0.072137609 10:1.0917162 11:0.056704026 12:0.4320904 13:0.25671193 14:0.56090099 #
5.2901924270417710616243311960716 1:0.68586946 2:-0.21411814 3:-0.030531367 4:0.083489783 5:0.59557456 6:-0.022146005 7:-0.1688374 8:0.92269677 9:0.024721032 10:0.94102114 11:0.73936027 12:0.14742441 13:0.88995934 14:0.43208507 #
-0.086031976978415219958762349961034 1:-0.025653617 2:-0.59271544 3:1.5383604 4:0.811225 5:-0.97890294 6:-0.19952777 7:0.57501817 8:2.1067839 9:0.66881078 10:0.52793819 11:-0.45704842 12:0.92582011 13:0.22335638 14:-0.4835164 #
-1.7302969482006780310712201753631 1:0.22636165 2:0.1107481 3:0.97348946 4:0.1021203 5:0.3450782 6:1.0452361 7:0.14431493 8:0.50733644 9:0.0079581318 10:0.94022065 11:0.48649403 12:0.88929164 13:1.2473546 14:0.44583043 #
10.12085961859250993200021184748 1:0.39123353 2:0.1774009 3:0.86355394 4:0.80003184 5:0.53718579 6:0.33553514 7:0.11548825 8:0.015015424 9:-0.17350098 10:0.83119744 11:0.1417558 12:0.4221856 13:0.51895869 14:-0.0024367194 #
-1.5970202788381220315727659908589 1:0.42231235 2:0.15282346 3:0.021033205 4:0.76465893 5:-0.19208211 6:1.3244176 7:-0.19461985 8:0.71804655 9:0.25429612 10:0.59631777 11:0.064726643 12:0.032828823 13:1.0314134 14:0.61582631 #
0.34821785158685608640993791595974 1:0.46661651 2:0.63392144 3:1.2036871 4:0.56222349 5:0.4769994 6:1.0137212 7:0.90094203 8:0.41013941 9:-0.14192103 10:1.5252502 11:0.27790233 12:1.0986607 13:0.94986165 14:0.034642372 #
0.380285215852246227807853529157 1:1.0565922 2:0.39328617 3:0.28212729 4:1.1532954 5:-0.35197777 6:0.58260399 7:0.70692265 8:0.17998601 9:0.20954114 10:1.8218288 11:0.37980875 12:0.068023399 13:0.13999313 14:1.4588233 #
4.5298609409027088545940387120936 1:0.32009414 2:0.0054635946 3:0.81366527 4:0.70333368 5:1.009478 6:0.47249386 7:0.24662177 8:-0.26883012 9:0.27056846 10:1.3060673 11:0.67254609 12:0.15031716 13:1.1500452 14:0.84606391 #
0.58110846483120670580291289297747 1:0.15910463 2:-0.063617125 3:0.72870713 4:1.0502833 5:0.75876093 6:0.41069168 7:1.2794796 8:-1.0764039 9:0.5430423 10:0.081664406 11:-0.081236683 12:0.18628845 13:1.1609603 14:1.0803407 #
0.78523990052889436341843065747526 1:0.58823049 2:-0.17740643 3:1.147644 4:0.56163073 5:0.44758919 6:0.7848658 7:2.3986793 8:0.30863878 9:-0.17950703 10:1.7701446 11:0.6686672 12:0.34493825 13:-1.243977 14:-0.067591891 #
-1.6499559890895070246585873974254 1:-0.0094718263 2:0.74800545 3:0.26187083 4:0.28552184 5:1.2735255 6:1.4000952 7:0.6856845 8:-0.4906534 9:-0.37852606 10:0.75365651 11:1.1099994 12:0.76592445 13:0.43784383 14:0.84947366 #
-1.9054579819173877996973942572367 1:0.67940336 2:0.7587201 3:1.3821812 4:1.2717308 5:1.396172 6:0.9025678 7:1.3238477 8:0.45364028 9:-0.19357096 10:0.3298696 11:0.60917586 12:0.62187308 13:1.1136204 14:0.46283492 #
7.9869839755772638056896539637819 1:0.64030313 2:-0.1430826 3:0.93974215 4:1.2057283 5:0.15816967 6:0.86713403 7:0.51502514 8:-0.2763958 9:0.021678248 10:-0.3142598 11:1.1759384 12:0.55895495 13:0.29323423 14:-0.072245754 #
0.22847692131916971791660841972771 1:0.92678833 2:-0.59125036 3:0.87745941 4:0.048373383 5:0.15878014 6:1.2751352 7:0.44668308 8:-0.077280715 9:0.57243425 10:0.1251328 11:0.95684749 12:1.0566126 13:1.039598 14:-0.47258636 #
-4.9072912421273313654523917648476 1:-0.068416141 2:0.55707043 3:0.92222941 4:1.0989426 5:0.41029033 6:0.54320252 7:0.47265273 8:0.073776096 9:-0.029212384 10:0.09730655 11:1.0143396 12:0.92766112 13:0.89274025 14:0.019258255 #
-22.585095977776727949049018207006 1:-0.049853425 2:0.14473064 3:0.52682453 4:0.31627697 5:0.32483202 6:0.3085759 7:0.2375519 8:1.1081064 9:0.20917784 10:1.1585079 11:-0.058898315 12:0.56903994 13:0.29106 14:0.91174263 #
4.3387105846148354970637228689156 1:0.026093263 2:-0.20300665 3:1.1139401 4:0.49067983 5:0.75635493 6:0.065528721 7:0.55613673 8:0.37921813 9:-0.18615898 10:0.24277073 11:1.0608307 12:0.14490862 13:0.39061305 14:0.064521715 #
-0.46411302912133789444482090402744 1:0.84176213 2:0.76605135 3:-0.13190761 4:0.43787134 5:1.4225308 6:0.27826974 7:0.42130369 8:1.0623263 9:-0.15523854 10:1.2131282 11:1.1387662 12:-0.80909103 13:0.80139989 14:-0.052159 #
-6.7275694063298212554968813492451 1:0.79026335 2:0.15005118 3:0.014337858 4:0.49186295 5:0.059012406 6:0.66456389 7:0.38989657 8:0.93109429 9:0.072537348 10:0.94988781 11:0.71795982 12:0.29684201 13:0.32091615 14:0.61779821 #
-1.4660347638332731357024840690428 1:0.75377744 2:0.17469223 3:0.93455255 4:0.43397978 5:0.097978882 6:0.15714478 7:1.0756912 8:0.27912205 9:0.11046636 10:0.47285032 11:0.20567627 12:0.26027825 13:0.723988 14:0.38515881 #
6.759279173985559552306767727714 1:0.32221049 2:0.39426869 3:1.3066665 4:0.54165554 5:0.95788223 6:0.74788177 7:0.11757508 8:0.94548851 9:0.47496065 10:0.73117346 11:1.1020191 12:0.64891523 13:0.66897881 14:0.73658872 #
2.1722930738542993722717255877797 1:0.12145501 2:-0.17408587 3:1.2197008 4:0.90863031 5:-0.10515734 6:0.87876153 7:0.74734527 8:0.64873564 9:0.01447027 10:0.4070273 11:0.75115991 12:0.88658506 13:0.51175219 14:0.29991108 #
3.9952540758628165562527101428714 1:0.021263208 2:0.39840961 3:0.52594036 4:0.96916503 5:0.67433989 6:0.098236829 7:0.93382716 8:-0.032150768 9:0.013903866 10:0.75008452 11:0.73704523 12:0.096798927 13:0.75851309 14:0.14746445 #
-0.10966044437643972242479861733955 1:0.19353865 2:-0.94738352 3:0.45556635 4:-0.0032300169 5:0.65577298 6:0.16657543 7:0.8601054 8:0.14826584 9:0.41298467 10:0.91949934 11:0.92901713 12:-0.084866747 13:0.34057182 14:1.1225413 #
6.0008604060902950294575930456631 1:-0.13018954 2:0.010917057 3:-0.3697305 4:0.43414956 5:0.63783896 6:0.54658264 7:0.81883049 8:0.46753123 9:-0.096184328 10:0.77512074 11:1.0985347 12:-0.19322641 13:-0.028568586 14:0.66117299 #
1.4726977516317347749463806394488 1:0.97920388 2:-0.3134256 3:0.94019705 4:0.96235901 5:0.48822013 6:1.0009192 7:0.088538378 8:0.7536577 9:-0.25189987 10:0.90917772 11:0.079727896 12:0.94361329 13:0.76398689 14:0.58502567 #
-1.6376986118914196310925035504624 1:-0.28984734 2:0.56091815 3:0.32978088 4:0.27077994 5:0.22250888 6:0.13598591 7:0.51877636 8:0.16073313 9:0.1364463 10:1.2400119 11:1.2974766 12:-0.38777208 13:0.30385649 14:0.81678611 #
-0.0047537382916375842817346963897762 1:0.92064792 2:0.18936315 3:1.2498065 4:0.57704896 5:0.6394304 6:-0.76408589 7:0.6632393 8:0.61930591 9:0.18248624 10:1.3620303 11:0.67149544 12:0.029509148 13:-0.42842644 14:-0.50334227 #
-2.6344992274157306155757396481931 1:0.70346588 2:-0.03865315 3:0.99709618 4:0.51242894 5:1.3085661 6:1.2259076 7:0.28965449 8:0.19220123 9:0.52986896 10:1.0236647 11:0.62263471 12:0.86286128 13:0.60251474 14:0.79065871 #
9.7696781442612383727919223019853 1:-0.0075004906 2:0.096250921 3:0.80660337 4:0.42855498 5:0.13906896 6:0.63759756 7:0.52596098 8:0.36701328 9:0.2679072 10:0.99596316 11:0.91853678 12:0.77633095 13:1.0331379 14:0.36419147 #
0.028399332045896466536483160325588 1:1.2227604 2:0.88623911 3:1.4570673 4:1.0659698 5:1.0402477 6:0.1995355 7:0.76543301 8:1.1834385 9:0.046521902 10:0.1794991 11:0.5529421 12:0.82612568 13:1.2496085 14:0.71354967 #
0.080761597179717786731956152834755 1:0.37844512 2:0.083500169 3:0.90604138 4:1.4567397 5:0.92194241 6:1.7000444 7:0.81420332 8:-0.1412352 9:0.47533056 10:0.49047396 11:-0.054948214 12:-0.34393945 13:0.28972599 14:0.10562316 #
0.085252102668160856246970524807693 1:0.7022143 2:0.66385758 3:1.1199547 4:1.8686731 5:1.5394843 6:1.5226929 7:0.64302313 8:0.63394397 9:-0.12314653 10:0.87010765 11:1.4194963 12:-0.28842869 13:1.5538751 14:-1.3872371 #
9.4774319393017805168710765428841 1:0.20649722 2:-0.021807646 3:0.64148372 4:0.23313928 5:0.23071416 6:-0.073576368 7:0.15516409 8:0.26224029 9:0.027728587 10:0.93180943 11:0.20293978 12:0.77885157 13:0.57884437 14:1.0715711 #
1.5546972599469504050517798532383 1:0.86438978 2:0.26621673 3:0.34470022 4:0.73781216 5:1.1258013 6:0.25053784 7:0.12695155 8:-0.17153701 9:-0.37936577 10:-0.65999705 11:0.67652059 12:0.12485417 13:0.72841519 14:0.53738809 #
-6.0228762135718323378341665375046 1:1.1243097 2:0.25671974 3:0.72821921 4:0.72537041 5:0.38158306 6:0.47802135 7:0.085836962 8:0.1983843 9:0.13076586 10:0.68551314 11:-0.29039419 12:0.62715214 13:-0.024516322 14:0.7053768 #
-3.4931254747528264203992875991389 1:0.27114487 2:0.1895722 3:0.42711234 4:-0.095567167 5:1.1188583 6:0.20117238 7:0.79965985 8:0.41542628 9:-0.14642066 10:0.56813192 11:1.3624394 12:0.60460359 13:-0.17130728 14:0.74273461 #
0.006752548240816245127271510995115 1:0.18229379 2:0.10728591 3:0.69942844 4:0.70781469 5:-0.31394246 6:-1.7598933 7:-0.24981463 8:1.2036611 9:0.28931409 10:1.0304123 11:0.93565971 12:0.5715059 13:0.98104268 14:-0.034741692 #
2.1427430801810802840634551102994 1:1.1174921 2:0.071231693 3:0.17649998 4:1.1140925 5:0.71091747 6:1.2598227 7:0.71969581 8:0.11214609 9:-0.055456847 10:1.183254 11:0.67392856 12:0.35202608 13:0.68405354 14:-0.026707355 #
-0.071020992403327584674421757426899 1:0.8949641 2:-0.42220929 3:-0.24448894 4:0.67916799 5:0.31433389 6:0.3120957 7:0.58801454 8:-0.64760673 9:0.45911878 10:1.2970415 11:0.017799417 12:0.30045068 13:0.52851975 14:1.4628812 #
4.2434532456014322221449219796341 1:0.46196753 2:0.19453007 3:0.87340099 4:0.79094809 5:0.17133288 6:1.0246676 7:0.66194183 8:1.1154187 9:0.29374477 10:0.59826493 11:1.1444333 12:0.31042075 13:-0.025867524 14:1.055621 #
-0.83273434346871277877966122105136 1:0.46035227 2:-0.18173428 3:0.88622528 4:0.91712081 5:0.36422154 6:0.24949914 7:0.80658716 8:1.0945929 9:0.049972963 10:0.17944098 11:1.0053372 12:0.47468138 13:0.84833407 14:0.71282178 #
-2.399398223963160603489086497575 1:0.53347307 2:0.22804172 3:0.87097043 4:0.27777171 5:0.072572492 6:0.022959856 7:0.30419871 8:-0.32015517 9:0.12873286 10:0.43833783 11:-0.039674472 12:1.2446461 13:1.1045864 14:0.35465088 #
-2.4591142165377344319665553484811 1:0.89681852 2:0.24535088 3:0.59286058 4:0.22094329 5:0.23730715 6:0.70753992 7:-0.052318111 8:1.1728669 9:0.0033688268 10:0.54994571 11:0.15427722 12:0.51215535 13:1.1293452 14:-0.39437819 #
0.20501474596355401258662709551572 1:0.55852234 2:-0.24835661 3:0.83946538 4:0.91038108 5:0.074833296 6:0.3277308 7:-0.13803007 8:0.37903482 9:0.17696075 10:0.14888804 11:0.49499908 12:1.2168531 13:1.2631222 14:-0.27323189 #
1.1254731897051515332464077800978 1:0.59036589 2:-0.12635562 3:0.072227299 4:0.31677514 5:0.620309 6:0.54236323 7:0.76958346 8:0.42372271 9:-0.46272203 10:0.99968946 11:0.12611713 12:0.9698199 13:0.80947429 14:-0.10118074 #
-15.83095507769927934305087546818 1:-0.14052747 2:-0.10366707 3:0.51152217 4:0.38770655 5:0.52680033 6:0.82538259 7:0.88711411 8:0.97411466 9:0.2190448 10:1.2585132 11:0.32290328 12:0.78686494 13:0.98235488 14:0.73419398 #
-3.8789569020471148519391135778278 1:0.21314812 2:0.71167845 3:1.2832251 4:0.45562369 5:1.3115494 6:0.74038827 7:0.21765985 8:-0.031263478 9:0.22682488 10:0.31970808 11:0.060228314 12:0.69266963 13:0.32503906 14:0.10276135 #
-0.55087202354044639829311336143292 1:0.87028807 2:0.33214748 3:0.42962173 4:1.0580719 5:1.1562908 6:0.71715444 7:0.34388322 8:0.42913154 9:0.4269594 10:1.0326449 11:0.27524978 12:0.87695891 13:0.37859899 14:0.068178415 #
4.6564374504831036460927862208337 1:0.86500472 2:0.060757391 3:0.9813953 4:0.62088656 5:1.0333792 6:0.18931089 7:-0.081632286 8:0.36884651 9:0.13631175 10:0.25022045 11:0.80977523 12:1.0510939 13:0.29911727 14:0.44871593 #
-2.170360423267134297731217884575 1:0.55914479 2:0.4978328 3:0.65318614 4:0.1480058 5:0.6897974 6:0.80573916 7:0.50356776 8:0.30466118 9:0.054546207 10:0.78229165 11:0.9406243 12:0.094424106 13:1.096993 14:0.73756582 #
22.486792024307426629547990160063 1:0.44791791 2:0.071223095 3:0.93205202 4:0.44095042 5:0.34948471 6:0.21798788 7:0.59609371 8:0.40237102 9:0.11807285 10:0.62175685 11:0.78031319 12:0.15547003 13:0.39770788 14:0.56200981 #
-2.8804609423753126939971025421983 1:0.54949772 2:0.68627006 3:1.4956965 4:0.3502894 5:-0.017924599 6:1.1733698 7:0.8005234 8:0.24250837 9:0.31030482 10:0.21003607 11:0.17709689 12:0.53902662 13:0.13207091 14:0.4639495 #
1.8264365676015934525366901652887 1:0.22118583 2:0.49918932 3:0.70095289 4:1.1674495 5:0.38294327 6:0.45689383 7:0.015535409 8:-0.16803189 9:-0.077015564 10:0.75566864 11:0.79823768 12:0.53959954 13:0.45921963 14:1.0684013 #
-0.95765427901142996525152284448268 1:1.6625783 2:-0.50240427 3:1.0407019 4:0.34154689 5:-0.0094493339 6:0.78903663 7:1.2848287 8:1.551078 9:-0.053405959 10:0.94079918 11:0.47118178 12:0.7847234 13:0.4156248 14:-0.20637907 #
0.74534964350460031212719513860065 1:0.88553321 2:0.36454457 3:0.57425851 4:1.2011995 5:0.55149662 6:0.78550655 7:0.42541638 8:1.0536181 9:0.081489354 10:0.67547268 11:0.7528339 12:0.91547102 13:1.4353377 14:0.96621478 #
4.3441682334393991737897522398271 1:0.5603745 2:-0.24336648 3:0.9858278 4:0.94812053 5:-0.068839379 6:0.78234601 7:0.85158384 8:0.62408632 9:0.38749921 10:-0.078457139 11:-0.45513204 12:0.97436583 13:0.59804416 14:0.82052213 #
1.1244360923488179171414458323852 1:1.9658363 2:0.24153708 3:0.97296828 4:-0.23565106 5:0.64467353 6:0.97580987 7:-0.15773875 8:0.70685709 9:0.33251536 10:0.3651002 11:1.4734677 12:0.6793083 13:1.0588161 14:0.35633862 #
3.6720916947064448088156041194452 1:0.5482682 2:0.49322647 3:1.1516371 4:0.79819602 5:0.052653935 6:0.73655248 7:0.25693205 8:0.45045096 9:0.67924231 10:1.1928304 11:-0.018219171 12:0.37813956 13:0.5704242 14:0.93673849 #
0.68889300248317286712307350171614 1:0.53450686 2:-0.15543382 3:0.60633767 4:-0.17088997 5:0.64512432 6:0.88758659 7:0.92188406 8:0.82296735 9:-0.15288438 10:0.63334388 11:0.86289203 12:-0.23105076 13:0.9246307 14:-0.22386712 #
10.839337903819453501341740775388 1:0.94814038 2:0.28939447 3:0.59748894 4:0.80106014 5:0.23992825 6:0.93043584 7:0.16455971 8:0.370462 9:-0.057007231 10:0.79457575 11:0.33281139 12:0.023553081 13:0.30959424 14:0.29289287 #
-0.49160746617202988328898527470301 1:0.96078742 2:0.38074523 3:-0.13646381 4:0.06764064 5:0.69870007 6:0.62158793 7:-0.027723543 8:0.7094835 9:-0.021149285 10:0.81725413 11:1.3701558 12:0.5103721 13:1.2663157 14:0.89964712 #
-6.1323108479951660143569824867882 1:0.44567695 2:0.48725513 3:0.35185096 4:0.79938895 5:0.59687775 6:0.20526443 7:0.040482488 8:0.71303099 9:0.11292021 10:0.76067907 11:0.97942275 12:0.26481962 13:0.67314351 14:0.76948881 #
-0.069780500716939031224939071762492 1:-0.47626394 2:0.048315145 3:0.28728855 4:-0.0078847809 5:-0.20818704 6:0.49805018 7:-1.2598953 8:0.45040807 9:-0.1029419 10:1.7175407 11:1.1500764 12:1.331586 13:0.39401484 14:0.93861347 #
-8.6233137555397867402007250348106 1:0.23580016 2:0.24312513 3:0.43927732 4:0.57829642 5:1.0375493 6:0.83861995 7:0.47257984 8:0.0068465052 9:0.12883319 10:0.61730605 11:0.74533856 12:0.73537374 13:0.82100326 14:0.64246535 #
-3.6963631304801078947264159069164 1:-0.023094609 2:0.27217647 3:0.84896392 4:0.34387961 5:0.76922852 6:0.096367516 7:0.17773342 8:-0.11686863 9:0.3156012 10:0.26894373 11:0.76661515 12:0.52221769 13:1.0767318 14:0.31865084 #
-2.9146416247568698310033141751774 1:0.12257626 2:0.59119785 3:-0.031358153 4:0.80834752 5:0.53807563 6:0.41202 7:0.95985013 8:0.10476549 9:0.40989837 10:1.1367499 11:0.36760977 12:0.56912142 13:-0.012299173 14:0.69164914 #
-0.95847413581891061085116234607995 1:0.094657242 2:-0.11375309 3:0.49710572 4:0.17833547 5:0.24697211 6:-0.40381846 7:-0.3432692 8:0.058749322 9:-0.048497301 10:0.61842942 11:-0.71407729 12:0.59273422 13:0.60990244 14:0.68171716 #
-1.8504157807373411426254961043014 1:0.26851243 2:-0.13398282 3:0.79654008 4:-0.14011316 5:0.47005889 6:0.034997702 7:0.11718316 8:0.25933537 9:0.28685653 10:1.0749605 11:0.1364526 12:0.33218971 13:1.0835478 14:0.045603093 #
-6.6210617641015572232277008879464 1:0.063631691 2:0.29227373 3:0.200147 4:0.037790131 5:0.47733906 6:0.51114535 7:0.24163853 8:0.35252622 9:0.21440698 10:1.3232932 11:0.2039156 12:-0.20158674 13:0.73123813 14:0.36460909 #
-8.4334632954682273719981822068803 1:-0.058761023 2:0.39184541 3:0.72621208 4:0.42466217 5:0.64484715 6:1.0338534 7:0.14351407 8:0.33259615 9:-0.036827516 10:0.40048128 11:1.2658756 12:0.77151102 13:0.21333975 14:0.47074309 #
-3.5544169594915295817827427526936 1:0.70038253 2:0.52379191 3:1.071568 4:0.71477401 5:0.31906617 6:0.57419604 7:-0.13986154 8:0.39742556 9:0.18624257 10:0.68453991 11:1.3635876 12:0.22751483 13:0.62861508 14:-0.35172024 #
-0.0056901905653351965430619685548663 1:0.14041899 2:-0.084315896 3:0.77625155 4:1.2004797 5:-0.19068432 6:0.029136922 7:0.87183499 8:0.48766232 9:0.35460371 10:0.493231 11:0.42785484 12:0.90958607 13:-0.23374876 14:-0.039203573 #
-0.77225652157501456507304737897357 1:0.43112424 2:0.07242047 3:0.6643948 4:0.18528539 5:0.73784482 6:0.32225537 7:-0.5086441 8:0.45442918 9:0.32094508 10:1.8079854 11:1.2881917 12:0.41880986 13:1.139118 14:0.67616123 #
0.017366731824877901929626844435006 1:0.54444414 2:0.76171952 3:-0.29254308 4:-0.30505797 5:0.029980542 6:0.42966369 7:0.97098976 8:0.73930454 9:-0.065425813 10:0.75826192 11:1.4064935 12:1.6893783 13:0.13892639 14:0.8704133 #
-1.3389413841694908224866367163486 1:0.013178755 2:0.17198633 3:0.84283948 4:0.87484169 5:0.94449735 6:0.39934906 7:0.35697505 8:-0.088573806 9:0.4389897 10:0.25068015 11:0.95085698 12:0.41300136 13:-0.0028688454 14:-0.28387013 #
-1.0034905259798641008472941393848 1:0.52566355 2:-0.17345917 3:0.084645018 4:1.0885496 5:0.51246083 6:0.28505406 7:1.8577051 8:-0.17747456 9:0.00048167194 10:0.84093291 11:0.40331787 12:1.1176864 13:1.1269786 14:0.80443805 #
-11.347034118031418259420206595678 1:-0.12706167 2:-0.13405621 3:1.0408344 4:1.0682718 5:0.81726426 6:0.53751796 7:0.53205842 8:0.25533444 9:0.23464243 10:0.30631158 11:0.53534299 12:0.014674646 13:0.55713671 14:0.88239104 #
2.6989978226430380026101829571417 1:2.0980635 2:-0.14613298 3:1.8315871 4:0.6898526 5:0.95599633 6:1.0407491 7:0.26861995 8:0.28981346 9:0.73707139 10:0.17528006 11:0.22160503 12:0.60752404 13:0.60547209 14:1.3874882 #
1.7977403281914123844842379185138 1:0.39729655 2:-0.16573112 3:-0.062953368 4:0.62752867 5:0.048672482 6:0.4293223 7:0.11318946 8:0.31081054 9:-0.090932369 10:1.0124328 11:0.87547749 12:0.41998857 13:0.67313319 14:0.1032385 #
-1.0824078041251892212670782100759 1:0.53709233 2:-0.022327166 3:1.0632342 4:0.62645149 5:0.64378804 6:0.36562738 7:0.8708455 8:0.03829347 9:0.11362195 10:1.1841986 11:0.089036115 12:-0.17281273 13:0.16226812 14:0.64741659 #
-1.8535913989146095559590321499854 1:0.13979293 2:-0.12433337 3:0.91686201 4:1.1469314 5:1.014607 6:-0.10539589 7:1.2138072 8:0.75800049 9:-0.078955941 10:0.17489064 11:0.8520155 12:1.0081754 13:0.53254855 14:0.94197983 #
12.371861626054991845080621715169 1:-0.25615785 2:0.43800247 3:0.089974575 4:0.72881836 5:0.64318454 6:0.78418291 7:0.19436768 8:0.4913643 9:-0.12690318 10:1.0447114 11:0.72171593 12:1.0506052 13:0.32274041 14:0.34464523 #
2.367597069618188498907329631038 1:0.29197961 2:-0.12052237 3:1.0505548 4:0.8096351 5:-0.10918555 6:1.1108593 7:0.60151428 8:0.58356088 9:0.46580142 10:0.70548916 11:0.14785454 12:0.20587286 13:0.030578267 14:0.013098523 #
0.45748200563209379110318764105614 1:0.044666991 2:0.29216951 3:0.60685432 4:0.30322713 5:0.17119533 6:1.4151348 7:-0.21549924 8:0.41200909 9:0.20394823 10:1.8716044 11:0.58719534 12:0.33346075 13:-0.2875554 14:0.96858168 #
11.288481410609966459901443158742 1:0.36186013 2:0.20279598 3:0.84542269 4:0.95159179 5:0.47183082 6:0.34562939 7:0.81725055 8:0.13992922 9:-0.08003778 10:0.26371655 11:0.41619429 12:0.31887236 13:0.69808024 14:0.9800685 #
-4.3801471389009227763722265081014 1:0.4318282 2:-0.18609235 3:0.84159815 4:-0.2456117 5:0.35476309 6:0.71008009 7:-0.37726074 8:0.28102428 9:-0.36971828 10:0.090195537 11:1.1650865 12:0.10156672 13:0.98150909 14:0.40201655 #
-2.088462238469443565946903618169 1:-0.092916511 2:-0.21343164 3:1.2759819 4:0.90112346 5:0.66976076 6:0.75538975 7:1.0870399 8:0.54739171 9:-0.028619397 10:-0.71898282 11:0.29573202 12:0.75005555 13:1.1137215 14:-0.25122333 #
2.9907598604138443398881008761236 1:0.19508268 2:0.41472551 3:1.3172458 4:0.61059791 5:1.2073139 6:1.1772267 7:0.74338728 8:1.0032154 9:0.13005437 10:0.65322202 11:0.28222939 12:0.058926072 13:0.15493104 14:1.3112754 #
-0.80777917137632060384788701412617 1:0.48254108 2:-0.080852129 3:1.0760212 4:0.97855353 5:1.0101324 6:0.5925343 7:0.11408127 8:0.71842396 9:0.86105925 10:0.84730309 11:0.84655273 12:0.96712178 13:-0.17811494 14:0.13085642 #
3.4831647538018848386798254068708 1:0.5766691 2:-0.088160887 3:0.21386731 4:0.62881196 5:0.88473117 6:0.6803059 7:0.46294022 8:0.59114462 9:-0.41482437 10:0.9089151 11:0.76309657 12:0.10271604 13:0.25157011 14:0.29398695 #
-1.8260675739929839167530190024991 1:-0.09765213 2:0.212972 3:0.57328779 4:0.28925991 5:0.1700644 6:1.0399643 7:0.45240733 8:0.21114963 9:0.45227033 10:0.0069440547 11:0.3132672 12:0.89663833 13:1.0334984 14:0.97643358 #
-2.668766709675955972613792255288 1:0.86230528 2:0.40110531 3:1.0302324 4:1.0895346 5:0.86902469 6:1.3064654 7:0.21190734 8:0.95156646 9:0.28684157 10:0.41140035 11:0.5617094 12:0.46613532 13:1.0478792 14:0.17724539 #
0.71328181800724443917260941816494 1:0.91294438 2:-0.16108993 3:0.23221596 4:0.75256997 5:0.89375323 6:0.32635152 7:0.64190394 8:0.55035603 9:-0.073260866 10:0.86026239 11:1.1449913 12:0.57084769 13:1.0052495 14:0.80744815 #
-1.419586980492422378929973092454 1:0.17549779 2:-0.49257338 3:0.81041485 4:0.034984738 5:1.0158969 6:1.6624856 7:1.2454309 8:0.6768325 9:0.77512795 10:0.91089606 11:1.1728454 12:0.55050981 13:0.30495474 14:1.2763788 #
0.32279413894439257237678475576104 1:1.1420002 2:-0.027748236 3:0.99421251 4:0.74898064 5:1.3028861 6:-0.30253556 7:-0.21843778 8:1.1657807 9:0.12888028 10:0.93920529 11:1.0157669 12:-0.53751212 13:0.71759313 14:-0.79052258 #
0.034694411241173513105184866844866 1:2.8566849 2:0.05663627 3:1.8790069 4:0.10301948 5:1.8391725 6:-0.54690403 7:2.1786499 8:1.0714428 9:0.86035997 10:1.5855305 11:-0.12181484 12:0.052056756 13:1.3350174 14:0.85661244 #
0.3288628623758946822874804638559 1:0.37128043 2:0.48127234 3:1.1043634 4:0.47544053 5:0.8244921 6:0.65630865 7:0.56313974 8:0.42858845 9:0.43769774 10:0.82866555 11:1.3563915 12:0.89946479 13:0.40479437 14:-0.56614548 #
0.80678025181897738971059652612894 1:0.34002516 2:-0.089885876 3:0.87669683 4:0.41984323 5:0.88849181 6:0.83297575 7:0.083107598 8:0.88554132 9:0.45382664 10:0.74003696 11:1.1317105 12:0.13604137 13:0.65093064 14:-0.029873008 #
-0.80372901526349782574953906078008 1:-0.097515665 2:0.4582063 3:0.97415215 4:0.41335326 5:0.22419074 6:0.044194493 7:0.28230691 8:1.2155714 9:-0.10828045 10:0.74305087 11:0.83132094 12:1.7573479 13:0.23276912 14:0.21229798 #
1.7376448408840374781902937684208 1:0.086331412 2:-0.22965908 3:0.77599126 4:0.75406891 5:0.089954838 6:0.3279326 7:0.91483915 8:0.38136595 9:0.51566452 10:0.89257842 11:1.5245292 12:0.30443484 13:-0.31574795 14:0.42582256 #
-1.074804024823492687445991577988 1:0.83811188 2:0.32332268 3:1.0458161 4:1.0011262 5:-1.0709909 6:0.35378799 7:0.16191283 8:0.21591678 9:-0.28675032 10:0.65865082 11:0.38480824 12:1.427484 13:0.16358159 14:0.79807574 #
-3.4157966880620960203884806105634 1:0.8567152 2:0.33750138 3:1.2298112 4:1.393718 5:0.28614625 6:1.1933601 7:-0.10147531 8:-0.15687646 9:0.053847231 10:0.35766265 11:-0.51178092 12:0.019576078 13:0.46207616 14:0.48727018 #
