SVM-light Version V6.20
2 # kernel type
3 # kernel parameter -d 
0.5 # kernel parameter -g 
1 # kernel parameter -s 
1 # kernel parameter -r 
empty# kernel parameter -u 
9 # highest feature index 
22 # number of training documents 
1001 # number of support vectors plus 1 
0 # threshold b, each following line is a SV (starting with alpha*y)
-5.620285376042513547645285143517 1:0.038170647 2:0.25698617 3:0.45581609 4:-0.021027928 5:0.87664843 6:0.61437094 7:0.56792784 8:0.49657878 9:0.50207484 #
38.706837158973549151141924085096 1:0.88399386 2:0.68907899 3:0.53203297 4:0.96815878 5:0.13316374 6:0.42484587 7:0.47431388 8:0.5013926 9:0.50009835 #
2.2900229734672605808043499564519 1:0.56108749 2:-0.12158451 3:0.29687211 4:1.4185455 5:-0.27160248 6:0.79377544 7:0.84364527 8:0.46752545 9:0.50299335 #
-5.905297721136172128808539127931 1:0.25437909 2:0.23011604 3:0.42604771 4:0.65010041 5:0.3762345 6:0.61544448 7:0.62734056 8:0.49224883 9:0.48701957 #
-2.3648857743166655787092622631462 1:0.72953749 2:1.2523108 3:0.78486526 4:0.38206437 5:0.87548798 6:0.085851803 7:0.047844887 8:0.55100667 9:0.47548035 #
-1.6947386374771218342516476695891 1:1.2904608 2:0.10443168 3:0.5251509 4:0.11287085 5:0.38981086 6:0.70083421 7:0.68682134 8:0.46393234 9:0.72857672 #
4.9251930190299777478912801598199 1:0.79759037 2:1.2663091 3:0.64436448 4:0.51964778 5:0.71539438 6:0.75152224 7:1.1292919 8:0.41188771 9:0.73820758 #
-0.17691726588381034845909312025469 1:0.64464897 2:0.27031621 3:0.38399327 4:0.58746636 5:0.28691545 6:0.10962149 7:-0.26828241 8:0.6244626 9:0.079404265 #
-0.67711468624516424341663878294639 1:0.53059465 2:0.86975026 3:-0.6310485 4:0.83500934 5:-0.024768712 6:0.33723116 7:0.79764414 8:0.30080983 9:0.74219698 #
3.9078506769624437033883168624016 1:1.4008731 2:0.93357521 3:-0.040566146 4:0.65926069 5:0.46348876 6:0.342655 7:0.34076327 8:0.48720521 9:0.22347233 #
-2.2884092424003594778980641422095 1:0.30561149 2:0.68886012 3:1.1068377 4:0.095606402 5:0.041217864 6:0.30603588 7:0.36299157 8:0.4951905 9:0.94334221 #
-1.9042128396374675691760103291017 1:0.20984136 2:0.9644503 3:0.27325478 4:0.84788877 5:0.77045137 6:0.56428009 7:0.53806674 8:0.60462129 9:-0.24662492 #
0.78578874225043027212933566261199 1:1.4774013 2:0.32230705 3:0.34988523 4:1.2803054 5:0.032622825 6:0.29670465 7:0.34957799 8:0.40980375 9:0.99657655 #
-0.92535109971673557005544807907427 1:0.67980933 2:0.16804288 3:0.45343947 4:0.81503826 5:0.60268074 6:0.25560743 7:0.12731738 8:0.39741409 9:1.3405341 #
-0.86316946918770276475640912394738 1:0.24811551 2:1.093418 3:-0.28439623 4:0.42769426 5:1.035714 6:0.75941527 7:-0.10644422 8:0.58043635 9:1.0366681 #
-5.2701228228268970354974953806959 1:0.91501707 2:0.31954819 3:0.72874129 4:0.78763008 5:1.063772 6:0.1389228 7:0.72295731 8:0.32946092 9:0.053746209 #
3.9011555260898700403515704238089 1:0.70368087 2:0.94756514 3:0.24567495 4:-0.22054397 5:0.0057645934 6:0.62065923 7:0.36073494 8:0.66395074 9:0.29832074 #
-2.5614437939266245791714027291164 1:0.71662939 2:0.64536053 3:0.59132993 4:0.24964137 5:0.56560767 6:-0.18682559 7:0.62502712 8:-0.067858964 9:0.92883468 #
1.0434505112936836024317699411768 1:0.81995112 2:0.63361639 3:0.15048689 4:0.95144713 5:0.039496381 6:1.0910757 7:0.17660607 8:1.0818344 9:0.65613854 #
-3.4807489457953653122501691541402 1:0.76746804 2:0.69222957 3:0.73385853 4:1.1366198 5:0.70148581 6:0.52574635 7:0.70026004 8:1.2811049 9:0.89816362 #
-0.33902776853330274242637187853688 1:0.38090062 2:0.51586556 3:0.91216254 4:0.46633798 5:0.5187158 6:0.057758182 7:0.41141355 8:1.2442394 9:0.32058561 #
-0.19769746696171486277648909890559 1:0.87051111 2:0.62916136 3:0.34958908 4:0.76763725 5:-0.049907748 6:0.054742493 7:1.2602919 8:1.040104 9:0.48551735 #
-6.448184798869476708205183967948 1:0.59281319 2:0.56593603 3:-0.0050504883 4:1.1230801 5:0.96355057 6:-0.022493454 7:0.42718267 8:0.82451582 9:0.53988004 #
0.60310858406932199571315322828013 1:0.45207796 2:0.78958702 3:0.8475619 4:0.50589848 5:0.56936085 6:0.95997375 7:0.062077012 8:-0.35982865 9:0.37373874 #
2.6510145551664465735086650965968 1:-0.095288448 2:1.0294937 3:0.50311083 4:1.3517823 5:-0.047007207 6:0.22634299 7:0.55803704 8:0.23438649 9:0.81448144 #
-4.4408597138190515352107468061149 1:0.52015662 2:0.81790954 3:0.31311664 4:0.28132582 5:0.85413742 6:0.57661182 7:0.5219664 8:0.67072105 9:1.0685725 #
1.5103123083463738662857167582843 1:0.34808359 2:0.27009937 3:0.6979757 4:1.3961824 5:0.012897161 6:0.50695121 7:-0.18109965 8:0.0041147191 9:0.26184478 #
0.012773296366112279337512447341396 1:1.1873505 2:0.46056122 3:0.49962065 4:-0.040218759 5:1.1585814 6:0.46324003 7:-0.14789109 8:0.19085102 9:0.40495199 #
1.7488198199465925242179764609318 1:0.90651226 2:0.535851 3:0.80467623 4:0.89984989 5:1.00734 6:1.1562181 7:0.081433333 8:0.6071474 9:0.40546873 #
0.33765255290166373836058255619719 1:0.94474632 2:0.73770946 3:0.76656377 4:0.58185416 5:-0.022789473 6:0.27782586 7:0.96567214 8:-0.24965806 9:-0.20461355 #
2.0143541361164949421436176635325 1:0.56075221 2:0.069674477 3:0.89390296 4:1.1396496 5:-0.15102391 6:0.14787251 7:0.95944947 8:0.55469763 9:1.2179177 #
0.51900843704089794083955666792463 1:0.95012647 2:0.45475444 3:0.079333864 4:1.0312228 5:0.21167505 6:0.58922207 7:0.54031134 8:-0.49812275 9:0.56724185 #
-0.18696854815888686029978771330207 1:0.7926442 2:0.35963255 3:-0.17026222 4:0.47154701 5:0.97191119 6:1.0137076 7:0.66562659 8:0.12975024 9:0.20009917 #
-0.39370333816912178592772875163064 1:1.1740656 2:0.63116401 3:1.4825159 4:0.77028877 5:0.051201396 6:0.79007745 7:0.39980271 8:0.88184857 9:0.18075532 #
-3.9042609044215783598019697819836 1:0.80847937 2:1.041778 3:0.031544853 4:0.87606382 5:0.90193528 6:0.47412616 7:0.01362048 8:-0.020912951 9:0.60897225 #
-1.2963477989917127075614189379849 1:1.2168444 2:0.45704862 3:0.26098526 4:0.77601743 5:0.41878745 6:0.86628044 7:1.0649399 8:0.97852522 9:-0.19876243 #
-1.2758233710544450989488041159348 1:-0.060051579 2:1.2486364 3:0.46350452 4:0.38147166 5:0.30791599 6:0.24774313 7:1.1566283 8:0.7519806 9:0.58622515 #
1.7907139420232183191217245621374 1:0.56669521 2:0.033226632 3:1.0112158 4:1.2086521 5:-0.072099701 6:-0.082472853 7:0.78210491 8:0.58590883 9:-0.075710744 #
1.3082942287474341735986627099919 1:-0.19625691 2:0.68351096 3:0.50512642 4:-0.034059949 5:1.1507924 6:-0.27502906 7:-0.23052529 8:0.56276935 9:0.61615705 #
0.28632880875273403198377764056204 1:0.67928451 2:0.78455013 3:0.71966618 4:1.0794803 5:-0.20977329 6:1.2457808 7:1.0740836 8:0.37669367 9:0.57967484 #
0.33568131642574378092902520620555 1:1.1888468 2:1.1649799 3:1.0073396 4:-0.1995987 5:1.2458386 6:0.65822637 7:0.67941993 8:1.0997012 9:0.86296284 #
3.5683909855244753117631262284704 1:0.42776722 2:1.0767993 3:1.3622898 4:1.2094094 5:0.29468381 6:0.631706 7:0.10533796 8:0.47101334 9:0.69822311 #
0.10618634647926945835383349958647 1:1.6992246 2:-0.36726686 3:0.25769985 4:-0.43094561 5:0.59916556 6:0.89007008 7:0.83450615 8:0.42816624 9:0.95452362 #
0.83051088487415203331920565688051 1:0.1932085 2:0.76857722 3:0.70609796 4:1.2084352 5:-0.23401798 6:0.43608275 7:0.15791732 8:1.3046763 9:0.40634248 #
0.15796931229135935392804412913392 1:0.62088358 2:0.36272609 3:0.078774802 4:0.087366648 5:0.54988497 6:-0.010533341 7:-0.88867396 8:1.0469661 9:-0.066904664 #
0.021465100150063608219763722217976 1:1.0354646 2:0.086059816 3:1.3632565 4:0.7858339 5:0.22763745 6:0.11548024 7:0.0055102073 8:-0.045599721 9:0.52036715 #
-0.11720043858880152543022745703638 1:0.95668221 2:0.69637543 3:0.040382307 4:0.68747491 5:-0.35445932 6:-0.34580839 7:2.0402467 8:1.4865621 9:0.49743652 #
-1.503397890177119888832635297149 1:1.2127124 2:1.0585152 3:0.7856757 4:0.4701629 5:0.040713638 6:-0.18175223 7:0.026175937 8:1.0307652 9:0.90437913 #
0.3238818271400498161050052203791 1:-0.44286615 2:-0.24221985 3:0.24213508 4:0.28569564 5:0.53302652 6:1.1779209 7:0.76292461 8:0.62100744 9:0.33385673 #
-0.38601948973847749480015068002103 1:-0.264947 2:0.47486374 3:0.67744821 4:0.95657969 5:0.53211206 6:-0.27398244 7:-0.30612355 8:0.75771195 9:0.24845023 #
0.35537383853154957957798387724324 1:0.56755012 2:0.92605883 3:1.1103425 4:0.087686509 5:0.77784181 6:0.8897211 7:0.56051564 8:0.73602188 9:0.08576934 #
-0.065136263024977131275150554756692 1:0.71727431 2:0.17502859 3:0.79870033 4:0.7759645 5:-0.3151623 6:0.9780041 7:-0.13767293 8:0.44319057 9:0.97940665 #
-0.070419892377197021438028912143636 1:0.60913736 2:1.3282086 3:-0.13127264 4:0.68742478 5:0.29767308 6:0.91481948 7:0.85667157 8:1.2330391 9:0.51739287 #
2.1807058741222604680842778179795 1:0.76471668 2:0.20322102 3:-0.15380922 4:0.86250037 5:-0.28550485 6:0.42232943 7:0.53193533 8:0.35988104 9:-0.2662563 #
-0.45483005852649666111986448413518 1:0.77016604 2:-0.045196578 3:0.51292259 4:0.5311693 5:-0.14419946 6:0.80517703 7:-0.36987489 8:0.42807627 9:-0.48620838 #
-1.8125850488345001121359700846369 1:-0.0041355654 2:0.069390334 3:-0.028843936 4:0.52962625 5:-0.007812026 6:0.11419106 7:0.36894184 8:0.10035045 9:0.57050765 #
1.6792108108516370368334946761024 1:0.98798096 2:1.1542577 3:0.89853054 4:1.2746248 5:0.20625754 6:0.31226167 7:0.3794066 8:0.75327897 9:-0.30496565 #
-0.99875140192574285435966885415837 1:0.8861807 2:0.97649771 3:0.3497037 4:1.3762225 5:0.6274755 6:0.042854432 7:1.0781361 8:-0.097928733 9:0.55519331 #
-0.63587174877563779062938920105807 1:0.48115823 2:-0.29603979 3:0.39656517 4:1.9542867 5:-0.99785781 6:1.0143611 7:0.98107362 8:0.28620619 9:0.59216863 #
-0.021424456989101236387140758665737 1:1.413141 2:1.0642953 3:0.98664242 4:0.5595755 5:0.42917138 6:0.88948041 7:0.28703153 8:0.18938474 9:1.1966267 #
-3.6028799305399679120398559462046 1:0.21890438 2:0.90266496 3:0.42353609 4:0.62480801 5:0.510957 6:0.54921228 7:-0.30373377 8:0.92455137 9:0.80798596 #
0.31213437936989030241363707318669 1:1.2802029 2:0.76066339 3:0.47402605 4:1.0877601 5:0.13840084 6:1.3112221 7:0.3533079 8:0.11926109 9:-0.14151922 #
-0.12412742233854640039325545330939 1:-0.1349286 2:1.0909539 3:0.90713102 4:1.5345333 5:-0.72690034 6:0.24095997 7:-0.45229352 8:1.4107323 9:0.52492172 #
1.9525056442408266210719602895551 1:1.1920619 2:0.91907144 3:0.29259971 4:0.22388154 5:1.0410941 6:0.33820945 7:0.36626664 8:1.2241747 9:0.16596064 #
0.029953575537112454851840226410786 1:0.89923072 2:1.1058474 3:0.21787478 4:1.7660383 5:-0.48926246 6:0.27789322 7:1.314368 8:0.81911755 9:0.50847781 #
0.62350574320788232363099723443156 1:1.0313543 2:1.2534209 3:0.27839327 4:-0.053285714 5:1.2344844 6:1.4695133 7:0.36733586 8:0.43752536 9:0.89754355 #
-1.677222175076977572771852464939 1:0.88498873 2:0.24027547 3:1.2375016 4:1.2035714 5:0.48572823 6:0.86619192 7:0.8823396 8:-0.041340839 9:0.71257001 #
3.5838773470978018131916087440914 1:1.0288523 2:0.96906096 3:0.97858256 4:0.49659702 5:0.76908612 6:0.32586929 7:0.37478787 8:0.044449329 9:-0.096583404 #
-0.2552336928400319449039557184733 1:1.1765126 2:1.9719914 3:1.1168444 4:0.35231632 5:0.88819116 6:0.53284973 7:0.314466 8:-0.18753698 9:-0.26039869 #
1.9330440590779010001654114603298 1:0.47414365 2:0.75522488 3:0.0088809654 4:1.173102 5:0.097684927 6:0.9886601 7:0.40221611 8:0.34942055 9:1.2583433 #
3.5523868676063412586074719001772 1:1.3360723 2:1.014927 3:1.0109699 4:0.44170848 5:0.61614203 6:0.0027718171 7:1.1176938 8:0.69608158 9:0.47932142 #
-3.0056899465377378000141561642522 1:0.53241068 2:0.81686574 3:0.62739772 4:0.37401092 5:-0.11395376 6:0.20750335 7:0.44539884 8:0.86703926 9:-0.22696768 #
0.92977389388420961235937056699186 1:0.70212817 2:0.84180689 3:0.52468175 4:1.5766741 5:1.6325042 6:-0.10712355 7:0.57991809 8:0.40477052 9:0.5997684 #
3.5734560836581996667860039451625 1:0.35521102 2:0.69497424 3:0.036344819 4:1.094119 5:0.0082223443 6:0.065196827 7:0.46274811 8:1.0535858 9:1.0325649 #
0.18689101401169050387096604026738 1:1.1541677 2:0.21277489 3:1.8616401 4:1.6846303 5:0.75835055 6:1.1332195 7:1.1166021 8:-0.33584747 9:0.9763394 #
-2.2617256495572779506630922696786 1:0.72602749 2:0.93885148 3:0.11226687 4:0.24048918 5:0.18035191 6:0.68567657 7:-0.088652812 8:0.010996931 9:0.64482158 #
-0.71617897731716417819569642233546 1:0.6826902 2:0.18202224 3:0.46972349 4:0.65916514 5:0.0873271 6:0.86400956 7:0.95247763 8:-0.031867214 9:1.2146208 #
-2.807793284715164094933470551041 1:0.60094446 2:0.53312218 3:1.1686243 4:0.95770395 5:0.63743186 6:-0.099332921 7:0.48641536 8:0.51068479 9:0.75461161 #
-0.23504475924746942583354325506662 1:0.51461786 2:1.04919 3:-0.50301343 4:1.5482137 5:-0.23228595 6:1.0797364 7:0.19154829 8:0.78284681 9:1.7220726 #
0.35331749446906246525657024903921 1:0.45943439 2:0.95814574 3:0.55338848 4:-0.28187761 5:-0.67410117 6:0.36640212 7:0.42186117 8:0.90474898 9:-0.83572823 #
-3.5840453574848964990451349876821 1:0.57522738 2:0.89461547 3:0.91123503 4:0.76314467 5:-0.08122585 6:0.20220689 7:0.40864539 8:-0.25127485 9:0.58930719 #
6.1744698264861286318705424491782 1:1.3994131 2:0.96412808 3:0.25165501 4:0.44292647 5:1.2572477 6:0.40739983 7:0.8670159 8:0.21528637 9:0.79880702 #
0.62273280045241308222614406986395 1:0.54338312 2:0.78776491 3:0.1563168 4:-0.1582505 5:0.79376757 6:-0.22205563 7:0.51072049 8:0.57742023 9:-0.048121247 #
0.046229776604894724789662774355747 1:0.32494253 2:1.7353269 3:-0.25007787 4:0.63385445 5:-1.0093499 6:0.98606771 7:1.486861 8:0.45875874 9:0.81040221 #
0.16458685499800340679144028399605 1:0.032952223 2:1.039764 3:0.63998407 4:0.81374198 5:0.57591659 6:0.6450454 7:-0.42833114 8:1.816964 9:1.2107192 #
-1.8444418893870235809373525626143 1:0.76708525 2:-0.29915264 3:0.34893116 4:0.91604495 5:0.34612283 6:0.81785494 7:0.16459845 8:1.1322759 9:0.068801351 #
3.3016676500754456036190731538227 1:0.50277752 2:-0.18250175 3:0.69880158 4:0.11745628 5:1.2611154 6:-0.12439107 7:-0.21335606 8:-0.030906867 9:0.77611262 #
0.15215981100493478073154562935088 1:0.17511106 2:0.97129917 3:-0.046367321 4:1.2156303 5:0.17419346 6:-0.12070616 7:0.48825872 8:0.25448346 9:-0.13498478 #
-1.8787855610291741559336742284358 1:1.1204797 2:-0.2372216 3:-0.040490169 4:0.86445934 5:0.46124142 6:0.26344875 7:0.89719504 8:0.32784203 9:0.60014689 #
-1.0009261897207124558661917035352 1:0.14635651 2:-0.26323828 3:0.14267874 4:1.0827508 5:0.35149387 6:0.70123756 7:0.47958139 8:1.1862301 9:1.1636333 #
-1.4436854270610155470677682387759 1:1.1839935 2:0.015023626 3:0.25956327 4:0.66678774 5:0.04425332 6:-0.28580764 7:0.50448453 8:0.61309481 9:0.41474536 #
0.031574053028378963603461926368254 1:0.40287429 2:0.80084896 3:0.54107624 4:0.89073694 5:-0.71465009 6:-0.4523094 7:0.23196255 8:0.47038278 9:0.60077357 #
0.88247773638355830883028829703107 1:0.037982989 2:0.67105961 3:1.2506394 4:-0.68408352 5:-0.53742415 6:0.62845606 7:0.16528937 8:0.56941193 9:1.0991106 #
0.94613068357456420187645562691614 1:1.0067505 2:1.2980334 3:0.52869356 4:1.4338785 5:0.28818166 6:-0.11824991 7:0.023210485 8:0.39815491 9:1.0144536 #
0.6503502133985812339034282558714 1:0.74676991 2:-0.17919081 3:0.93633831 4:0.68262744 5:-0.073756956 6:0.84570402 7:0.57743412 8:0.010075402 9:0.0090196934 #
-1.0200676940419228788670125140925 1:1.128282 2:0.71546304 3:0.8672083 4:-0.75421751 5:0.9711991 6:0.1708066 7:0.82401913 8:0.079615206 9:0.80316424 #
-1.607395853844922894992919282231 1:0.95731163 2:1.271063 3:0.91861796 4:0.40489048 5:0.31487495 6:1.0127668 7:0.092097282 8:1.0915115 9:0.69514441 #
0.014715460695945623698088766673209 1:1.0257127 2:0.51684952 3:1.1444428 4:1.1746507 5:1.1413217 6:2.0746803 7:-0.2800265 8:0.63623202 9:0.20845063 #
0.047737561906774916842266520689009 1:1.1959114 2:1.343672 3:0.087234899 4:2.1907825 5:-1.1198655 6:0.19172882 7:1.7800404 8:0.9964478 9:0.59947658 #
-1.3472012358699165801567687594797 1:0.25452256 2:0.5717693 3:0.57321292 4:0.98220426 5:0.34281465 6:0.26416585 7:1.0363595 8:0.24764177 9:-0.031333026 #
-0.028837451460408967951476455482407 1:1.7949533 2:-0.35690361 3:-0.003867524 4:1.1198589 5:-0.1505952 6:-0.43259537 7:1.1286347 8:0.36799264 9:0.64945847 #
-13.153700089192147615335670707282 1:1.1261735 2:0.86945271 3:0.53829074 4:1.2261215 5:1.0552847 6:0.70753711 7:0.84181535 8:0.40702173 9:0.5492999 #
-0.13013361625372812935275135259872 1:0.14247625 2:1.1003464 3:1.3852397 4:-0.10868271 5:0.6362915 6:1.2986722 7:0.1579331 8:1.1832584 9:-0.17076856 #
-0.54013507843073316205817491209018 1:2.0181715 2:1.0837145 3:0.018531542 4:0.26522064 5:0.8293218 6:0.89333665 7:0.7273795 8:0.61234218 9:-0.31645444 #
-0.057896972736023240291292069059637 1:2.0688221 2:1.0325294 3:1.0228579 4:0.35402822 5:-0.50483835 6:0.17607135 7:-0.0072272858 8:0.59140855 9:0.85755849 #
0.39864663118112142470295111706946 1:0.69105417 2:-0.050149478 3:0.1256054 4:0.23637719 5:-0.062437944 6:0.37361175 7:0.072778501 8:1.1014199 9:0.90152943 #
0.2591887815027964503400426110602 1:1.0387629 2:1.209246 3:0.58871317 4:0.018553579 5:1.3571523 6:0.95108032 7:1.1251594 8:0.18808289 9:0.1263078 #
1.5364048534341872009889584660414 1:0.36493468 2:0.98488224 3:0.066137441 4:0.26450691 5:0.70158416 6:0.089589745 7:0.43997416 8:-0.073043883 9:0.33864769 #
0.058369082241569635038924701575525 1:1.5724903 2:1.6705821 3:0.61874914 4:0.71591091 5:0.86972106 6:0.91075355 7:0.73533511 8:0.84620541 9:0.83826083 #
-0.77175643437567464921755799878156 1:1.5948929 2:0.74115467 3:0.82019413 4:0.96391565 5:-0.3403399 6:0.23009759 7:0.89684349 8:0.40307686 9:0.39374429 #
-0.46491166470653272346780227053387 1:0.27590239 2:0.38374221 3:1.2734476 4:0.28867182 5:-0.10085377 6:0.31841028 7:1.1783741 8:1.2884667 9:0.78074014 #
-0.35363968247881227835449635676923 1:0.18588704 2:1.4513723 3:1.2434151 4:-0.10993367 5:1.1400567 6:0.13212734 7:0.55941361 8:-0.10629595 9:0.82300603 #
0.11189978102736798659666561661652 1:0.63223284 2:1.3235077 3:-0.049020555 4:-0.058580905 5:0.18077932 6:0.8677122 7:-0.47472456 8:-0.75820976 9:0.54090995 #
2.9810968268145541237856832594844 1:0.37320623 2:0.86795735 3:-0.078375228 4:1.4022481 5:0.13469352 6:0.95706755 7:-0.035575956 8:0.20723045 9:0.090730608 #
1.5010813743613722337499893910717 1:0.98798722 2:0.53331465 3:0.12695122 4:0.88682079 5:0.090054199 6:-0.11184198 7:0.56373829 8:0.096392669 9:0.94608855 #
-0.58723938942791742423565892750048 1:-0.53420597 2:0.22974697 3:0.98901129 4:-0.10933619 5:1.4308002 6:0.15051429 7:-0.33572677 8:-0.04375609 9:0.69197774 #
0.66303376449600215369883926541661 1:0.76778346 2:-0.50591654 3:0.074325725 4:0.17281328 5:1.261956 6:0.097980924 7:-0.23206225 8:0.97113496 9:0.45840311 #
11.697197739551123518708664050791 1:0.71538359 2:0.39357036 3:0.22718555 4:-0.032644425 5:0.93644583 6:0.10683875 7:-0.041556396 8:0.81625473 9:0.67273885 #
0.35647122365743799665693813949474 1:0.41167498 2:0.36074853 3:0.69674408 4:0.87593752 5:0.16937742 6:0.11799712 7:-0.043201528 8:-0.037977979 9:0.93101406 #
-0.2308238544326289831687404330296 1:-0.15815176 2:-0.00078467163 3:0.78459698 4:1.3041523 5:-0.37884262 6:0.60197324 7:-0.46764991 8:-0.60894483 9:0.71580207 #
-0.77793306455073230054608757200185 1:1.1175054 2:0.67132419 3:0.80092114 4:0.31600466 5:-0.068462394 6:0.075419851 7:-0.41644409 8:0.30290914 9:0.24083988 #
-0.24947650921676617352673588356993 1:1.1636585 2:0.61064619 3:0.93152243 4:1.4340546 5:0.89641625 6:0.22573231 7:-0.20041606 8:0.8546856 9:0.27376199 #
0.30260463097170181567818758594512 1:-0.059910141 2:1.3733656 3:-0.1457441 4:1.040948 5:0.66521853 6:0.64540869 7:0.53883868 8:0.19772454 9:-0.95991844 #
-0.05911525213535177847301582687578 1:1.0638241 2:-0.70843202 3:0.60742843 4:1.1153216 5:-0.56535846 6:-0.046469964 7:-0.13751799 8:0.62291837 9:-0.49673676 #
0.55613787173109185957287081691902 1:0.14274207 2:0.36668491 3:1.1974216 4:0.092826523 5:1.0700488 6:0.12290388 7:-0.12225632 8:0.46418232 9:-0.126963 #
-2.6439185789708665730302072915947 1:1.035812 2:0.035763316 3:1.026739 4:0.51666111 5:0.57539111 6:0.34191391 7:0.10303926 8:0.88982588 9:0.57897556 #
0.38728255136355305143780469734338 1:-0.39269903 2:1.0556737 3:0.56697351 4:0.48613822 5:0.93504792 6:0.57667518 7:0.53037512 8:0.29832512 9:0.75609398 #
-2.5972014205755100668682189279934 1:0.81595308 2:1.0300316 3:0.02740429 4:0.46940368 5:-0.22168566 6:1.2094679 7:0.74454314 8:0.25318548 9:-0.020688316 #
0.52605333118799013636390782266972 1:0.69793379 2:0.53788531 3:1.4693446 4:0.23281731 5:1.3578323 6:0.23173289 7:0.18800673 8:0.52410382 9:1.0990617 #
0.12575481833149765309443068872497 1:0.0051612835 2:0.86048239 3:0.24115039 4:-0.31819633 5:1.1430598 6:0.84743863 7:0.89468622 8:0.82120997 9:1.5242562 #
-0.67927473479018629642922633138369 1:0.44134998 2:0.25130761 3:-0.15262906 4:0.064393222 5:1.533713 6:-0.19694085 7:-0.12785035 8:0.22705157 9:-0.042972725 #
-0.28015359006226736582334524428006 1:1.0276806 2:0.75728661 3:0.090070821 4:1.945676 5:-0.27105224 6:1.3957903 7:-0.37566209 8:-0.14324188 9:-0.53764927 #
-0.057419223659702679773975120269824 1:1.4522394 2:2.8043768 3:1.0677071 4:0.21955054 5:0.69272339 6:0.75078309 7:0.18445392 8:-0.57350677 9:-0.30835998 #
-2.3916024807382347816542278451379 1:-0.078303963 2:0.6920681 3:0.92557627 4:0.97378111 5:-0.14521587 6:0.98467308 7:0.48094887 8:0.21100046 9:0.2061808 #
-0.29627005843823633890465885087906 1:-0.052049235 2:0.81346685 3:0.42977124 4:1.1916866 5:0.54869056 6:-0.48182014 7:1.5044837 8:-0.58719379 9:0.03195959 #
-0.25786920808529351090143677538435 1:0.49180186 2:0.4051868 3:-0.33238333 4:1.2567395 5:-0.16633315 6:0.12935419 7:1.1047724 8:1.0706371 9:-0.4961932 #
-0.32210310792690088899092870633467 1:0.92299759 2:0.4027358 3:0.085026152 4:-1.0260026 5:1.6157185 6:-0.088973895 7:-0.45509014 8:0.70325148 9:0.53189409 #
-0.0065355672125367025859787872832385 1:1.1093313 2:0.78326833 3:0.10046823 4:2.9236443 5:-2.0059977 6:0.62553537 7:1.8269492 8:0.76327318 9:0.73662192 #
-2.7491345376581728388032388465945 1:0.82370269 2:1.2668163 3:0.44443572 4:0.64528865 5:-0.42631152 6:0.60613203 7:0.64830053 8:0.69380027 9:1.0849681 #
0.23600316989069672346523987016553 1:-0.43009472 2:0.90482944 3:0.39818725 4:1.3937194 5:0.64552939 6:-0.85685295 7:2.1460216 8:-1.133797 9:0.070010379 #
-0.13799715555245339881906829759828 1:0.81711119 2:-0.71561855 3:1.3322173 4:0.30443496 5:-0.39603713 6:1.0552367 7:0.73091662 8:-0.38419032 9:-0.17768261 #
0.41077494616124954340818931086687 1:1.487682 2:0.069805101 3:0.82785612 4:0.16853304 5:1.5363213 6:0.14648874 7:-0.57092655 8:0.79429442 9:0.6477533 #
-1.2955016762526838647318072617054 1:-0.23687954 2:-0.091785595 3:0.53866112 4:0.78779662 5:-0.025236076 6:-0.21845491 7:1.0021417 8:0.81289566 9:0.53863025 #
0.070873798887103517385455120347615 1:0.51542503 2:0.15086843 3:0.46293128 4:0.0019009671 5:0.71003407 6:0.49509743 7:0.087782137 8:0.20022744 9:1.957054 #
1.8778920193358712431574986112537 1:0.49530354 2:0.80449152 3:0.50469738 4:0.3952556 5:1.6608911 6:0.42657456 7:0.22542477 8:0.23619063 9:0.50917709 #
2.7654196019838561682036015554331 1:0.39398471 2:0.22450909 3:0.23900463 4:1.1358731 5:0.073012426 6:0.15140697 7:1.0612088 8:-0.092567347 9:0.58868963 #
-0.097859200229906073698060708920821 1:-0.13242914 2:0.48904288 3:0.82791263 4:1.0072169 5:1.124402 6:0.58440477 7:-0.027846621 8:0.1618121 9:-0.075013943 #
-10.256502318963772069082551752217 1:0.78482205 2:0.7395826 3:0.96829611 4:0.30698299 5:0.81627762 6:0.62825668 7:0.1252677 8:0.29256502 9:0.76361364 #
-0.96281639983825506590164877707139 1:1.1181322 2:0.88780046 3:0.18805356 4:0.11073396 5:0.39457187 6:0.95633918 7:1.4625708 8:1.1087738 9:1.0470588 #
-0.62084085731006188879632645694073 1:-0.28851953 2:0.72115666 3:0.42118266 4:0.79139286 5:0.57137102 6:-0.39528936 7:-0.33024234 8:-0.16517735 9:1.3211032 #
0.05774221350717724521306450924385 1:0.67735887 2:0.52064544 3:1.2552959 4:0.85866922 5:1.300293 6:-0.25829032 7:1.3542725 8:0.47271341 9:-0.023376636 #
2.9880781920266579199108036846155 1:0.052799366 2:-0.0017103094 3:0.45611218 4:-0.30630228 5:-0.029566284 6:0.83237278 7:-0.54439092 8:0.48068923 9:0.55814779 #
0.18807255400917752274914107601944 1:1.7370576 2:0.59446353 3:0.16636322 4:1.15753 5:0.35750374 6:1.3581886 7:1.2800164 8:0.93829411 9:-0.85438067 #
4.6537093047280722046821210824419 1:0.73552573 2:0.024291495 3:0.29518321 4:1.1551214 5:0.056488723 6:0.26008102 7:0.74078166 8:1.2112362 9:0.49225336 #
-0.053276327538309894982226921911206 1:1.8679709 2:-0.56452692 3:0.046222735 4:-1.0095615 5:1.0144349 6:0.89632589 7:0.69179147 8:0.57651031 9:1.4655521 #
0.44370732300477233600588533590781 1:0.032958258 2:0.9510299 3:1.0378803 4:-0.026232816 5:0.87929541 6:-0.10549911 7:0.12577248 8:0.84863913 9:1.305891 #
0.18738229898649938487409372100956 1:0.24562092 2:0.25236902 3:1.7616179 4:-0.16149241 5:-0.22804609 6:-0.0062454916 7:1.4414318 8:1.975709 9:0.86237979 #
1.5108765014564558004650507427868 1:0.06947317 2:0.75054365 3:0.67930067 4:-0.16392045 5:0.6887309 6:0.077528678 7:-0.28937468 8:-0.26057595 9:0.53265166 #
-4.9738268382910835185839459882118 1:0.50883716 2:0.98944187 3:0.4388665 4:0.67272794 5:0.31091404 6:0.89964294 7:0.072598986 8:0.59234744 9:0.048348624 #
-0.70439784589093068500886829497176 1:0.43334761 2:-0.21764849 3:0.31400752 4:0.80905455 5:0.17357443 6:-0.09321849 7:-1.147455 8:0.13936844 9:0.085519686 #
2.7880310992161718708359785523498 1:0.12357777 2:0.91438186 3:0.85363269 4:0.10142729 5:0.34666252 6:0.2849434 7:0.4743742 8:0.26453114 9:0.20267412 #
-0.76550963764198842742558781537809 1:1.1076602 2:0.81277174 3:1.467085 4:0.088866852 5:0.9855904 6:0.18021674 7:0.30710262 8:-0.31836602 9:-0.72055197 #
0.092122057354158515263264916939079 1:0.86120427 2:-0.56477386 3:0.83352685 4:1.7203602 5:0.77440882 6:-0.015434844 7:0.73928136 8:0.40506694 9:1.4209167 #
-2.0788347522806045475363134755753 1:0.85269618 2:1.04998 3:0.096742131 4:0.61741626 5:0.57327473 6:-0.25849497 7:0.29895788 8:0.81206125 9:0.86199307 #
-0.19800223011089887470426162963122 1:1.5690951 2:0.5795173 3:0.12712003 4:0.49778473 5:1.8466072 6:0.092806958 7:1.0264271 8:-0.21514612 9:-0.035316132 #
-0.065691573811553244377492433159205 1:0.92373347 2:-0.0041338308 3:0.33135861 4:0.87785453 5:-0.065044217 6:1.6337702 7:-0.14112537 8:1.7779113 9:0.65178227 #
0.9879130517234960828787393438688 1:0.80033988 2:-0.042239968 3:0.86220467 4:1.1111127 5:0.10851169 6:1.3997873 7:0.79927772 8:1.0508959 9:0.88426155 #
-0.045621111555393722980511483910959 1:0.79047859 2:1.9809536 3:0.21297219 4:0.27629673 5:0.69029552 6:-0.59493637 7:-0.12856571 8:0.84118503 9:0.65728837 #
-0.14286416953163250109781756691518 1:1.7088573 2:0.82134432 3:-0.36433429 4:-0.40218472 5:0.70816284 6:0.018539716 7:0.2593013 8:0.98183757 9:0.46312544 #
2.392796660206743641907678465941 1:0.38006076 2:0.8328051 3:-0.24482265 4:0.9246887 5:0.21600959 6:0.36567721 7:0.14101332 8:0.89350021 9:0.39208639 #
0.24131392578726096331820372142829 1:0.85625684 2:-0.27727491 3:0.36226952 4:0.88395882 5:-0.36000019 6:0.3101624 7:0.29604498 8:0.3986778 9:0.72063446 #
0.010112108497284643879310372938107 1:1.4400496 2:0.85484594 3:1.385251 4:-0.82489514 5:1.08717 6:0.39341208 7:0.2213376 8:1.3545587 9:1.1292976 #
0.040939062039024282091403961203468 1:-0.42429018 2:1.3129767 3:1.4404619 4:-0.45515171 5:0.50244111 6:1.88814 7:0.054698385 8:1.556625 9:-0.47640467 #
-21.628263078252103923659888096154 1:0.66293633 2:0.83179986 3:0.30037314 4:0.71316779 5:0.449487 6:0.92741501 7:0.7921471 8:0.67273557 9:0.58002734 #
-5.9865539229054114400696562370285 1:0.83048874 2:0.81064779 3:0.73505622 4:0.62005353 5:0.56246781 6:0.35726872 7:0.31015152 8:0.99452305 9:0.32236624 #
-0.5461504783204710333777143205225 1:0.213127 2:0.81903529 3:0.85078835 4:1.8829122 5:0.15629256 6:0.8227424 7:0.71531487 8:0.66729748 9:-0.048452765 #
-0.62614951899343207486481333035044 1:0.73471242 2:-0.49764711 3:0.17894119 4:1.7815521 5:-0.32124797 6:0.13867223 7:0.89947361 8:1.7349504 9:0.52852196 #
2.7536420358671014341211957798805 1:0.038892236 2:1.0569992 3:0.19127055 4:1.348559 5:0.47659141 6:0.7493031 7:0.7608695 8:0.87532067 9:0.54065484 #
-0.9717420639462140963260594617168 1:-0.36870944 2:0.75608057 3:0.31781828 4:0.74167615 5:-0.53949136 6:0.87892014 7:0.10907976 8:0.4512479 9:0.90992492 #
0.67501911477744491740793364442652 1:-0.41358382 2:1.4256167 3:0.36211175 4:-0.11770748 5:0.77767003 6:0.079043671 7:0.39757109 8:1.047474 9:0.17873971 #
-0.067547563673437407971711365917145 1:1.2390761 2:-0.24127004 3:-0.009858829 4:0.85305071 5:0.36134446 6:0.78037745 7:-0.092432842 8:0.35543665 9:0.58653909 #
-0.058088770055264103697734157094601 1:1.787038 2:0.28874877 3:0.60914969 4:2.1033664 5:-1.1590282 6:0.20536683 7:1.2514789 8:0.28051084 9:1.2041094 #
-1.262601704333411234415507351514 1:0.55660665 2:0.71950078 3:0.14726645 4:0.0117736 5:0.13357753 6:-0.055215348 7:1.3358858 8:0.090565883 9:0.50355059 #
-0.36971457701769466774877059833671 1:0.90955377 2:0.30151403 3:0.34515518 4:1.001013 5:0.60762805 6:0.18254396 7:0.088882208 8:-0.12821166 9:0.022308987 #
-0.31371346873104094532536123551836 1:-0.061714198 2:0.17652616 3:0.94617712 4:0.44104996 5:0.93165684 6:-0.20663747 7:0.4358269 8:0.26721725 9:0.86564487 #
-0.26313931400222723144821657115244 1:-0.9177537 2:1.3759007 3:0.13117732 4:1.3612243 5:-0.24912523 6:-0.099536575 7:0.9506138 8:0.45438135 9:1.0284917 #
0.27418391594502578012537696849904 1:0.45231417 2:0.85996836 3:0.54260999 4:0.90986526 5:0.60350543 6:0.21738094 7:1.170202 8:0.25751939 9:1.1803302 #
-0.033770930153244137217338760592611 1:0.61054546 2:0.058226414 3:1.2565306 4:0.88019985 5:0.21504255 6:-0.47178704 7:-0.7145111 8:-0.37861526 9:0.87271839 #
-0.044183236128554362331932736651652 1:1.3449702 2:1.954769 3:0.98031151 4:0.82667053 5:0.42827103 6:1.5956941 7:0.71600187 8:0.80479389 9:1.4202682 #
-4.9140706188743177307287623989396 1:0.90298724 2:0.31067479 3:0.72804487 4:0.10604005 5:0.15321818 6:0.048193876 7:0.46745032 8:0.3892116 9:0.20876493 #
-0.22527011240974367800582456311531 1:1.9606895 2:0.41112864 3:0.8773061 4:0.2533814 5:2.1688461 6:0.082172558 7:-0.67832249 8:0.69228947 9:0.9653821 #
-0.21224477127513957652737985881686 1:1.4240122 2:1.2527655 3:1.4835581 4:0.23004019 5:-0.11657524 6:0.71985626 7:-0.58721423 8:0.74476975 9:-0.21553147 #
0.96871661937157715893675913321204 1:0.085761003 2:0.88483828 3:-0.19097476 4:0.41669914 5:0.85234725 6:-0.063475825 7:0.076976694 8:0.32766125 9:1.2067015 #
-0.029991965012758081687849198715412 1:1.0374596 2:0.87645763 3:0.1189594 4:1.0058614 5:0.31668437 6:0.42194146 7:-0.00018919133 8:0.82904917 9:0.97726089 #
-0.36174632362663483586828760962817 1:1.6158719 2:1.7987636 3:1.1576951 4:-0.34722605 5:1.5915596 6:0.18925744 7:1.2662623 8:0.86317641 9:0.80280924 #
1.3047781439090717636730687445379 1:0.56161362 2:0.41578007 3:0.97254133 4:1.6339943 5:-0.027109059 6:1.3681842 7:0.26707891 8:-0.19317034 9:0.68853176 #
-1.6353218874168897745136064258986 1:0.39383322 2:0.29889461 3:1.0547838 4:0.93185443 5:0.36737114 6:0.80681825 7:0.24055652 8:0.75689322 9:0.23817757 #
-0.610668118371679335965040991141 1:0.52081138 2:0.10104203 3:0.84318161 4:0.61006188 5:-0.22301804 6:0.95436513 7:0.82524085 8:1.11674 9:-0.18009916 #
0.53696785205491348591522182687186 1:1.3822273 2:1.0507276 3:0.91688353 4:-0.45898089 5:-0.1801257 6:0.26356471 7:0.63535017 8:-0.50499332 9:0.66012806 #
0.61151536664921635200187211012235 1:1.1959773 2:0.40197885 3:0.37875357 4:0.86443108 5:0.29017448 6:0.50106978 7:0.88694024 8:0.67608434 9:1.1937244 #
0.4488007963694060631354432189255 1:0.33672869 2:0.19410329 3:0.76924551 4:1.1493806 5:0.20553665 6:-0.32439965 7:-0.016706871 8:1.1956418 9:1.0271922 #
-13.304005430797950282340025296435 1:0.55835634 2:0.89599442 3:0.97858202 4:0.63227105 5:0.0078143179 6:0.69222027 7:0.81533062 8:0.39349404 9:0.35196242 #
-0.34040350507801836466015288351628 1:0.99392211 2:1.6827035 3:1.0856274 4:1.9551603 5:0.14130983 6:0.3546361 7:0.45313811 8:0.8304801 9:-0.86524081 #
0.039366635948386248522457009357822 1:-0.75360739 2:0.73313522 3:0.90358257 4:0.41905829 5:1.2313439 6:0.12662157 7:0.85755748 8:-0.1569469 9:0.0094511732 #
-2.4812733254978955876879354036646 1:0.28326541 2:0.82608944 3:0.57848829 4:1.1593108 5:0.80074 6:0.80436122 7:0.34436974 8:0.15336831 9:0.57876182 #
0.41455501587916937511479886779853 1:0.41503873 2:0.59591579 3:2.0242777 4:1.6225381 5:0.58078051 6:-0.18766707 7:0.59042633 8:0.48751411 9:1.0406276 #
-1.5848421332058564292566416042973 1:0.55681443 2:0.78986865 3:0.38194236 4:-0.74318576 5:1.3322742 6:0.96426845 7:-0.16201547 8:0.78921241 9:0.20135272 #
-0.56479523287965738287397243766463 1:0.60866612 2:-0.59005308 3:0.99655151 4:1.1781558 5:0.85446995 6:0.71832466 7:1.1813643 8:0.70261538 9:0.11113272 #
1.7630774613337845124760860926472 1:0.44738647 2:1.4462074 3:0.48145589 4:0.99283707 5:0.29389375 6:0.19407687 7:0.54987144 8:0.74134892 9:0.37431514 #
-0.033530198119266330092358430192689 1:-0.77567458 2:1.5429167 3:0.071387097 4:0.22424084 5:1.383695 6:1.0644377 7:-0.18368477 8:0.46621761 9:1.3576711 #
-1.2720123799370435246913757509901 1:0.43320689 2:0.027226964 3:-0.21557349 4:1.2798184 5:0.09279763 6:0.50099206 7:0.004054022 8:0.42033005 9:0.74469543 #
0.23904460599286725397405461990274 1:1.3907067 2:0.83162022 3:-1.1536381 4:0.39991844 5:0.61993408 6:0.69312346 7:0.55520564 8:0.20708998 9:-0.0068332325 #
0.17430036876245624810621848155279 1:2.1790581 2:0.83796954 3:-0.89767307 4:-1.012193 5:0.74981165 6:0.0083006732 7:0.36220121 8:1.3014327 9:0.58904481 #
0.2001030495139067000298638276945 1:1.2535268 2:0.96651411 3:1.2528664 4:0.79273713 5:0.64977747 6:0.43136904 7:0.011520007 8:1.8632087 9:0.012449726 #
-0.10452067911446570602773675773278 1:1.3255177 2:1.1364338 3:-0.442123 4:1.402615 5:0.25413257 6:-0.034531955 7:-0.53294629 8:1.3301835 9:1.286711 #
-0.032276483174367300021945226262687 1:1.1206647 2:0.29462951 3:-0.623905 4:0.74611056 5:-1.0694793 6:0.53933352 7:0.51382518 8:0.61180812 9:-0.44717237 #
0.015888087725237989844551123042038 1:0.40703037 2:0.90433705 3:-0.10174811 4:1.5155395 5:1.3548774 6:1.1682903 7:0.3011204 8:-0.23527785 9:1.2998977 #
-0.36736154010017552096201143285725 1:0.86217403 2:1.7120906 3:-0.07556776 4:0.45037767 5:1.5184257 6:0.22530343 7:1.1770381 8:-0.30503026 9:0.88265562 #
-0.20237580489014769802302851076092 1:0.83749545 2:0.1602432 3:0.45779523 4:0.63263589 5:0.086569078 6:0.77780044 7:1.2547394 8:0.29102686 9:0.16057779 #
0.86459288666012623636447642638814 1:1.7037498 2:0.98167688 3:0.54718167 4:0.80792892 5:0.49953917 6:-0.28827551 7:0.59153223 8:1.2101007 9:0.15506601 #
0.22904811035385533313224470930436 1:1.3370115 2:-1.073745 3:-0.54336345 4:0.8451249 5:0.62908089 6:0.19416338 7:0.76981211 8:0.27287683 9:0.41289046 #
-1.2307347879805297097277616558131 1:1.4726766 2:-0.032176793 3:0.83489972 4:1.0028892 5:0.72470468 6:0.67947733 7:0.28269807 8:0.28574285 9:1.0613692 #
6.6076440050839968520790534967091 1:1.4966642 2:1.2614967 3:0.43141001 4:0.30885747 5:0.53070921 6:0.81581706 7:0.50811476 8:0.094701901 9:0.41471422 #
-0.15505203279774801283785734540288 1:0.45325959 2:-0.20882633 3:1.2757118 4:1.3047729 5:-0.37365049 6:-0.68794465 7:1.4303178 8:0.59878981 9:1.2033274 #
-0.11596807215068585805717304992868 1:-0.38972747 2:1.0949795 3:0.68836701 4:1.2475641 5:0.12094402 6:1.7016041 7:-0.19650875 8:0.61498326 9:0.095896177 #
-8.1608351107771905930121647543274 1:0.88146728 2:0.34929565 3:-0.25623837 4:0.36761606 5:0.43301177 6:0.47969443 7:0.24674471 8:0.66625333 9:0.44335279 #
0.61752660638226253286831024524872 1:0.22441381 2:0.67886746 3:1.0355731 4:0.29253656 5:1.0142921 6:0.94268888 7:1.3235382 8:0.77448285 9:0.82590061 #
2.4438361282304548183219594648108 1:0.13598037 2:1.0764258 3:0.098825634 4:-0.3477326 5:-0.43665525 6:1.2422799 7:-0.27311844 8:0.63633031 9:0.58096397 #
-0.042808853980543258577196041869684 1:1.2394134 2:0.8233456 3:0.81883913 4:1.4858168 5:2.3876324 6:0.20528933 7:1.1247063 8:0.39469418 9:0.18050465 #
-0.51053152259447198701991510461085 1:2.2015951 2:1.7878516 3:0.051336069 4:0.71208447 5:0.25294384 6:1.1597445 7:0.61801952 8:-0.059054863 9:0.38873476 #
0.43081972849157890159688122366788 1:1.1118928 2:0.052826073 3:1.001334 4:0.98072338 5:-0.2579011 6:0.44537246 7:0.077190444 8:0.93790478 9:-0.033396605 #
1.8669822724792934920401421550196 1:0.68151093 2:0.68002284 3:1.0307709 4:1.5352659 5:-0.015570781 6:0.56053114 7:0.51936024 8:0.85395277 9:0.97611696 #
-1.0336961491089462494841200168594 1:-0.2863299 2:-0.36179793 3:0.49402013 4:-0.80251431 5:1.1191753 6:0.20379116 7:0.17532286 8:0.48247242 9:1.1689183 #
4.1588314986339973700069094775245 1:-0.094949655 2:0.94297713 3:0.69118828 4:0.35752511 5:1.2204548 6:-0.34849653 7:0.17956445 8:0.46101221 9:0.00078515918 #
-0.14480416987674624151871682897763 1:1.7176591 2:0.98362952 3:1.4147757 4:0.69990021 5:1.0947357 6:0.32311252 7:0.27132177 8:-0.1539917 9:0.3259654 #
-0.32540049752309857522547531516466 1:0.97352546 2:-0.085310198 3:0.066605367 4:1.4851652 5:1.486497 6:0.41731566 7:0.44108048 8:0.19473 9:0.25719282 #
-0.087850972336558738606804297432973 1:1.389483 2:-1.8922685 3:-1.0352477 4:0.88280541 5:0.76045942 6:0.093383498 7:1.0294092 8:0.29520646 9:0.32650092 #
1.1325580015553637913683360238792 1:1.1969763 2:1.8637254 3:0.63414013 4:0.71297818 5:0.67608815 6:0.43442589 7:0.1817148 8:1.15877 9:0.34159496 #
2.8724466099868917190462980215671 1:0.89777267 2:-0.064397059 3:0.52506655 4:1.5712988 5:0.19068134 6:1.578267 7:-0.10783973 8:0.78879958 9:0.48403785 #
7.0398318482644315352558805898298 1:0.058339834 2:0.86637115 3:0.68179733 4:0.094144046 5:0.81207353 6:0.33824649 7:0.054422934 8:0.83614874 9:0.42603037 #
0.13842694823400344961150665312744 1:-1.3925755 2:1.7477247 3:-0.13986664 4:1.1336415 5:-1.0539925 6:0.23075067 7:0.58782035 8:0.35289568 9:1.2048846 #
0.40845050723106629542158430012933 1:1.2034601 2:0.82183176 3:0.096435234 4:0.11082649 5:1.2763609 6:1.4573916 7:0.61706263 8:1.1172614 9:0.31622857 #
0.48375244441666820360836709369323 1:0.35717753 2:1.4610347 3:1.5715362 4:0.27019003 5:-0.54537129 6:0.76165646 7:1.1275671 8:0.075501367 9:0.501746 #
-7.0069486931175690713757830963004 1:1.0688053 2:0.31722891 3:0.5764938 4:0.74913073 5:0.4760128 6:0.46397462 7:0.29562849 8:0.18442407 9:0.80756539 #
-1.1150452797385974612609516043449 1:0.23988426 2:0.75837463 3:1.1681681 4:0.67559063 5:0.12771265 6:-0.85772252 7:0.92365384 8:0.24594592 9:0.43357486 #
0.055445684443608728164676335836702 1:1.7548745 2:1.7729506 3:-0.8742137 4:0.46911997 5:0.39977655 6:1.0872709 7:1.538511 8:1.2374701 9:0.46084055 #
2.1951058928520663648953359370353 1:1.0177755 2:0.63590032 3:0.047666825 4:0.80801046 5:0.38946357 6:0.11522499 7:0.97241914 8:0.6587283 9:-0.014285912 #
-0.50013772053395755268212496957858 1:-0.99270207 2:0.45976287 3:0.86226892 4:1.597177 5:0.29828459 6:0.82812983 7:0.38594851 8:0.28105938 9:1.0330431 #
-0.19008342033559422201705046973075 1:0.74244148 2:0.26421735 3:-0.24658604 4:0.7113471 5:-0.79845482 6:0.42033401 7:1.1619313 8:0.36885446 9:0.95289743 #
-0.61237751447550414773957072611665 1:0.42343578 2:0.67813057 3:0.75889301 4:-0.6108079 5:0.72335064 6:0.40695 7:0.96779662 8:1.5925275 9:0.31281975 #
0.3092942877474247342917124115047 1:0.11955198 2:-0.23964371 3:0.19806804 4:1.4501061 5:-0.023827324 6:-0.23643439 7:-1.5746531 8:-0.29355231 9:0.24998723 #
-0.06398552856301596702959244566955 1:0.80519795 2:0.2453144 3:0.58339208 4:1.346022 5:0.027044887 6:0.15884429 7:1.1821009 8:0.065287128 9:2.1502743 #
-0.24489070777455224092733487850637 1:1.5246859 2:0.17061293 3:1.5142418 4:1.1924559 5:0.04300797 6:-0.23683523 7:0.62738991 8:0.34949997 9:1.0609611 #
-12.715362494544056204404114396311 1:0.095563941 2:0.71898627 3:0.45394322 4:0.68993193 5:-0.094466694 6:-0.1389835 7:0.20610674 8:0.50972962 9:0.57734233 #
4.6850070880135996631565831194166 1:0.37631676 2:0.9543364 3:0.60041553 4:0.22066616 5:0.87021917 6:-0.16675201 7:0.011254041 8:0.21365702 9:1.0775788 #
0.61489443917423536323241251011495 1:1.5904838 2:1.0855896 3:0.84611291 4:0.61406696 5:0.24224356 6:-0.19580749 7:0.96153402 8:-0.28510171 9:1.0591173 #
1.0213978578316522671798338706139 1:0.32130095 2:0.21309964 3:1.0748053 4:0.97856224 5:0.14956722 6:0.72924441 7:0.74157935 8:0.68869466 9:0.82367057 #
-0.20619643708616711141878852231457 1:-0.20611429 2:0.30298465 3:0.84890062 4:0.50699818 5:0.03655326 6:0.1089197 7:0.25937769 8:-0.90420479 9:0.03709219 #
5.1687565362171090654896943306085 1:0.25572732 2:0.8489815 3:0.079998456 4:1.0031859 5:0.01671635 6:0.7010321 7:0.91027403 8:0.18548469 9:0.42655066 #
-2.5464845618373574964721228752751 1:1.052382 2:0.31195047 3:0.62713951 4:0.82189518 5:0.15984489 6:1.1041654 7:0.3317275 8:0.47061568 9:0.61578816 #
-1.3218946673850209272416122985305 1:-0.61670893 2:-0.32905352 3:-0.24273787 4:0.24531816 5:1.004562 6:0.22160855 7:-0.31658512 8:0.73073673 9:0.21483161 #
-1.9364151440701029560642609794741 1:0.84274954 2:0.17232572 3:0.92187768 4:0.74702018 5:0.55786926 6:-0.15640713 7:1.1216289 8:0.94152772 9:0.48081398 #
-0.16520790031880686066223518082552 1:1.745002 2:0.81975228 3:-0.46509781 4:0.522717 5:-0.049692016 6:0.20451017 7:1.0563724 8:1.0162919 9:0.27726296 #
17.771151256124316120121875428595 1:1.0067149 2:0.91467929 3:0.42888254 4:0.29395556 5:1.0797358 6:0.96111685 7:0.5279057 8:0.53035563 9:0.28164729 #
1.0343454306743589121708737366134 1:0.60310882 2:0.027916815 3:-1.0898117 4:-0.062166996 5:0.32151213 6:0.63336283 7:0.094729364 8:0.80130094 9:0.36729473 #
0.24587226690254171401761595916469 1:0.50057536 2:0.88603234 3:-0.40585101 4:0.64033639 5:0.086549371 6:-0.71098936 7:0.5432204 8:0.30855119 9:-0.81986159 #
3.6998157878154014355231993249618 1:0.90973228 2:0.95093197 3:1.2441509 4:0.31801957 5:1.5412757 6:0.82630569 7:0.91167891 8:0.34137172 9:0.53294998 #
-0.049202097249054610461627135009621 1:1.6474448 2:1.078622 3:1.0613779 4:1.5399513 5:3.2164371 6:-0.19118078 7:1.2645445 8:0.43015212 9:0.04796806 #
-0.97876483966125316094064601202263 1:-0.24661051 2:1.1133417 3:-0.060518123 4:-0.84817088 5:-0.89889246 6:1.6025106 7:-0.82702714 8:0.57215106 9:0.56065333 #
-3.1875236338565731131211578031071 1:0.81038809 2:0.45206127 3:0.9056201 4:0.72837788 5:0.83205926 6:0.75034899 7:1.1180061 8:0.71090668 9:0.24895206 #
0.25682454998815723579141945265292 1:0.31552842 2:1.1481482 3:1.0650127 4:1.1494474 5:0.25469494 6:0.24450558 7:-0.14516897 8:0.20933512 9:-0.18284144 #
1.9439101591613920927414937978028 1:0.76372737 2:0.020524593 3:0.80134881 4:0.22834383 5:1.2486037 6:-0.1676432 7:-0.22085263 8:0.98600286 9:-0.081688084 #
-0.33530352163218657413068513051257 1:0.47956562 2:1.4375385 3:1.0958912 4:0.98166531 5:1.269927 6:-0.62143606 7:0.20630638 8:0.035923902 9:-0.38838968 #
-0.033856629007971608680271913272009 1:-0.24348234 2:2.1129916 3:-0.51649916 4:0.60364681 5:-1.411885 6:1.1172646 7:2.1866372 8:0.50652468 9:0.77842027 #
-0.26008584906416504223258812089625 1:0.81191742 2:0.39330879 3:0.54319769 4:-0.1383339 5:0.67493147 6:0.91869158 7:1.1296859 8:-0.44173181 9:-0.22703843 #
5.1463082847770600380954419961199 1:0.4653877 2:0.34955245 3:0.26150399 4:0.249102 5:1.0449817 6:0.20033494 7:-0.56754279 8:0.21055104 9:0.28304136 #
-1.565053858062495306668893135793 1:0.91282201 2:0.032671772 3:0.67253548 4:1.0366018 5:0.28647569 6:0.61477739 7:0.18495202 8:1.031162 9:0.99962538 #
-0.10501452642738344500639158241029 1:2.0710571 2:2.0736802 3:0.7681644 4:1.4818485 5:0.44713128 6:0.52344286 7:0.91859078 8:1.2250801 9:0.18812665 #
6.194448021692315009545382054057 1:0.36680269 2:0.44688275 3:0.3644093 4:1.214501 5:0.15886295 6:0.36726558 7:0.39312959 8:0.80994463 9:-0.18664926 #
0.33588601598319323127128654959961 1:0.45962301 2:1.0041765 3:-0.61791939 4:0.47833559 5:1.5234888 6:-0.14366734 7:0.48510438 8:0.90289116 9:0.57863396 #
-0.66287014708678348995363194262609 1:0.52981585 2:1.0853469 3:1.1077743 4:0.83020461 5:0.40706003 6:0.95778412 7:0.49496278 8:0.93662459 9:1.5184519 #
-0.14600403223481508985237553588377 1:-0.46023914 2:1.0053586 3:0.29128215 4:1.5658525 5:0.61845344 6:-1.2005819 7:2.7519321 8:-1.7100317 9:0.24459378 #
-1.6079200402363864608190624494455 1:0.80173564 2:0.81768698 3:1.0513763 4:-0.26794049 5:1.1601768 6:-0.23494145 7:0.885548 8:0.93157268 9:0.72809631 #
2.0563362498272121925424471555743 1:0.53307837 2:0.28655127 3:0.6273644 4:-0.23853666 5:0.21671781 6:1.0131091 7:-0.27829316 8:1.5012307 9:0.53123015 #
0.53797848117542235168997422078974 1:1.0053464 2:1.8796835 3:0.41176918 4:0.25899237 5:-0.63477671 6:0.29197744 7:0.52056044 8:0.99255377 9:1.6091101 #
0.55372974557272214291003820108017 1:-0.86202419 2:1.3270216 3:-0.15488373 4:-1.2411038 5:-1.2561812 6:1.9432654 7:-1.2594504 8:0.5973509 9:0.39993793 #
-0.49481224720638650182991113979369 1:0.11376308 2:0.2176251 3:0.33735669 4:1.9417473 5:0.21808501 6:0.28509954 7:0.30800501 8:0.86271745 9:-0.93481302 #
-1.8445234208809768716719190706499 1:0.61256689 2:0.97878671 3:0.22055964 4:0.97807866 5:1.2084497 6:0.30130622 7:-0.19423495 8:0.85761237 9:-0.077602819 #
-0.075945830941372999278726751981594 1:0.17868808 2:1.3924423 3:1.6105139 4:-0.12283421 5:1.7468121 6:-0.43151519 7:0.022836639 8:0.20738167 9:1.6844597 #
-0.089263412347132808921656987877213 1:1.3181225 2:0.34556413 3:0.5822162 4:-0.18652844 5:0.14874415 6:-0.15854913 7:2.0142982 8:0.3610062 9:0.25665429 #
-0.66517818441112097627154753354262 1:-0.22338215 2:0.49027979 3:0.72955835 4:1.0151942 5:-0.44131827 6:-0.0067937239 7:1.2989542 8:0.32906806 9:-0.64292067 #
-0.35227611182137380518852864952351 1:1.0054634 2:0.64518952 3:0.0093791885 4:1.2304295 5:0.95416033 6:0.40911484 7:1.4965204 8:0.20972569 9:-0.39941132 #
0.13850428337272671641677845855156 1:-0.110776 2:0.06002038 3:0.27867901 4:2.3601243 5:0.36311764 6:0.064931519 7:-0.064195462 8:0.833969 9:-1.6708776 #
1.0186151050329359524226902067312 1:-0.46490842 2:1.0120283 3:0.17377427 4:0.25113961 5:-0.43699646 6:-0.51770163 7:-0.18475883 8:0.2104588 9:0.65502179 #
-0.91221429514017648987334041521535 1:1.3276911 2:1.2976289 3:1.0044523 4:1.36315 5:-0.77865452 6:0.82565421 7:0.42556497 8:0.43367189 9:0.26447591 #
-0.71411532112046749443123871969874 1:0.75063729 2:-0.32329217 3:0.68867445 4:1.6085118 5:0.85011554 6:0.2158445 7:-0.44302732 8:-0.44353244 9:0.33517355 #
0.0087357614283249378911433424832467 1:1.334747 2:-0.21088223 3:-0.10475214 4:0.27405128 5:0.91452181 6:-0.30337262 7:0.028973838 8:-0.081615672 9:-0.21210922 #
-4.6975723679080250150263964314945 1:0.60963953 2:0.63983709 3:0.18825178 4:0.7259835 5:-0.58570993 6:0.56510144 7:0.3918722 8:0.38406226 9:0.32244882 #
0.70730071503015568001870860825875 1:0.56224084 2:1.0889989 3:1.1359299 4:0.89681131 5:0.43228665 6:0.71338755 7:0.74520981 8:1.3728422 9:0.003708998 #
-0.22472874777406662283318894424156 1:0.054152407 2:1.0769293 3:0.27475724 4:-0.11828239 5:0.41800609 6:1.4080597 7:0.91502011 8:-0.084340923 9:0.97554165 #
-0.15248581752040440973061663498811 1:0.0022193387 2:0.48014399 3:0.98012275 4:0.63316882 5:1.396114 6:1.1126714 7:0.13935845 8:1.6835907 9:0.49597129 #
-0.060990322378194121444305864088165 1:0.26708773 2:0.73443007 3:0.41604838 4:1.6565493 5:-0.10861195 6:0.6951468 7:1.9939156 8:0.29146028 9:0.42660275 #
1.9074746019292874166239926125854 1:0.45708007 2:0.4040885 3:0.62321663 4:-0.48504633 5:-0.59736031 6:0.92515147 7:0.074221946 8:0.026838597 9:0.52151293 #
0.3894210156308862136320669833367 1:0.23084149 2:-0.093837634 3:1.9089113 4:0.92494041 5:0.49257261 6:1.3008324 7:0.31783959 8:0.7940957 9:0.11004113 #
0.09665477720300556796484414689985 1:2.598686 2:0.56075329 3:0.56808341 4:0.38337335 5:2.8690233 6:-0.28146926 7:-1.0688416 8:0.576473 9:1.5509211 #
0.024172001998915872145179406516036 1:1.4815875 2:-2.6244102 3:-1.6697363 4:0.99549729 5:0.54383546 6:-0.17546929 7:1.403932 8:0.55467355 9:0.28824452 #
-0.57393490484053288902543954463908 1:-0.30068424 2:-0.15687948 3:0.46578196 4:-0.73035747 5:0.25678676 6:0.75415963 7:-1.2364173 8:0.32080409 9:0.35564882 #
-0.51300590894695574650796743298997 1:0.020490104 2:0.087148428 3:0.64538705 4:2.3279109 5:-0.38613647 6:1.4541931 7:0.055112425 8:0.71053123 9:0.42660552 #
0.24514247121889623515222922378598 1:-0.65008008 2:0.76101524 3:0.83263546 4:1.1721057 5:-0.87968677 6:-0.28631526 7:1.6042848 8:0.38787934 9:-1.1585977 #
-0.0012372830864660678586164355152732 1:1.7101351 2:0.1813352 3:0.65574849 4:-0.47338387 5:-0.12925451 6:-0.42122185 7:2.7792985 8:0.49096569 9:0.27987438 #
-0.67837615239106485720554928775528 1:0.91512585 2:1.0306518 3:-0.099527478 4:-0.72039413 5:0.88422835 6:0.90892029 7:0.18369503 8:-0.01493986 9:0.78009671 #
-0.063090113178098913837565930862183 1:0.18332468 2:1.474997 3:-0.096836053 4:-0.33347324 5:0.10687431 6:1.1396472 7:-0.81516725 8:-1.4119046 9:0.46856639 #
0.42905881761453934508665497560287 1:-0.57944202 2:-0.43079928 3:0.23530343 4:0.62861615 5:-0.84061122 6:-0.89204174 7:0.81766772 8:0.38810727 9:0.53075761 #
-0.11271668916222596368292840907088 1:0.058057208 2:0.21809226 3:0.23120165 4:0.93377125 5:0.94494247 6:0.42129338 7:1.7505862 8:-0.093012363 9:1.4164035 #
0.036200978336402955815032100872486 1:1.1588596 2:0.85053009 3:-0.057802904 4:0.33639264 5:-0.69650275 6:-0.97711402 7:2.7656448 8:1.7029276 9:0.30810377 #
-0.0809542664858717703202373172644 1:0.57799006 2:-0.26154718 3:1.455681 4:1.5194184 5:0.073578008 6:-0.70902288 7:0.76068574 8:0.85982132 9:-0.57492113 #
0.47549716169126365894470609418931 1:-1.4001169 2:-0.9275983 3:-0.6638605 4:-0.037907392 5:0.93029481 6:0.58620542 7:-0.26423118 8:0.53037947 9:0.31764731 #
-1.6319821760321278070193784515141 1:1.1581246 2:1.0342462 3:0.93752247 4:-0.45176744 5:0.69140691 6:-0.0054396619 7:0.052235994 8:0.70948547 9:0.37359339 #
-2.2361168391947816580511698703049 1:0.9941709 2:0.7266289 3:0.74467206 4:0.92730939 5:0.54483622 6:-0.27366093 7:-0.19918899 8:0.19615081 9:0.53505713 #
-0.068375694196225009213740975155815 1:0.19085562 2:0.88702333 3:0.033096951 4:-0.3167477 5:0.5018847 6:-0.5940178 7:1.0848746 8:-0.56416678 9:0.85313231 #
-0.38732294391906374464440432348056 1:-0.042393852 2:1.6203797 3:-0.044166166 4:-0.76064754 5:-0.7095567 6:1.5844032 7:0.16796234 8:1.1003227 9:0.79265237 #
0.71165057469344095153473972459324 1:0.74540418 2:0.17374721 3:-0.22473443 4:0.79213327 5:0.20651184 6:0.87261111 7:0.52133298 8:0.56094098 9:0.84769535 #
-0.056113411556871301000271046177659 1:1.3997763 2:1.0079323 3:0.39015785 4:1.0259159 5:0.27729443 6:1.6457481 7:1.3295778 8:0.066239156 9:0.81365764 #
-0.92183760444070605988287070431397 1:1.1147958 2:1.3829107 3:-0.034674656 4:-0.019353939 5:0.98871583 6:0.31825465 7:0.79652542 8:-0.040020585 9:-0.23161021 #
-0.45757128473373981369931584595179 1:0.10364887 2:0.30448285 3:1.5748898 4:1.894009 5:-0.47679693 6:0.73048961 7:0.87991053 8:1.0061938 9:1.2770967 #
-1.5823158118112470305050010210834 1:0.96652198 2:0.107985 3:0.30631232 4:1.3474233 5:0.62123984 6:0.71616369 7:0.58851343 8:0.30336356 9:-0.19244352 #
-0.60227519003110685513746602737228 1:0.82218629 2:0.17775257 3:0.61133903 4:-0.24776968 5:1.1901122 6:0.77113265 7:0.19992277 8:0.86479801 9:-0.31585005 #
-0.071583326568240263076958740384725 1:-1.7791631 2:2.1557329 3:-0.39125952 4:0.86977178 5:-1.6786005 6:0.14130536 7:0.31696749 8:0.29140124 9:1.0926715 #
0.19940983636654827093614983368752 1:0.97131813 2:-0.43471462 3:0.60095656 4:1.1324924 5:0.48687908 6:0.696724 7:-0.37091005 8:1.0218555 9:1.9239538 #
6.683378793232892078890472475905 1:1.275403 2:1.1268584 3:0.84753054 4:0.64135557 5:0.51888818 6:0.24014124 7:0.48468739 8:0.70554018 9:1.013781 #
0.09238041381406771057616111875177 1:0.91468251 2:-0.11013296 3:0.57823479 4:0.11024065 5:0.096340708 6:1.4078799 7:0.092626207 8:-0.49623048 9:1.3324671 #
0.72126454216940771857480285689235 1:0.55796659 2:0.92133814 3:0.024981793 4:-1.566993 5:1.634282 6:0.98126549 7:-0.41511604 8:0.81938297 9:-0.061169509 #
-0.59102178599215615673045931544038 1:0.027439058 2:0.068154328 3:0.23697904 4:0.78315824 5:0.064386986 6:1.1450342 7:-0.015464489 8:-0.16997238 9:0.36103502 #
-0.28813501375042194219133762089768 1:0.66130888 2:1.3432543 3:0.90203714 4:0.94679952 5:0.78146666 6:-0.4071857 7:1.0871385 8:1.1859232 9:-0.07387276 #
-0.069897222633412040004863285957981 1:0.039874151 2:0.68838567 3:0.50779521 4:-0.5503661 5:0.78893882 6:0.039140675 7:0.052930564 8:0.62774628 9:2.3464937 #
0.21373248359206797886145068332553 1:1.3884518 2:0.96414429 3:0.09560775 4:1.1235063 5:1.8027799 6:1.401008 7:0.54519784 8:0.32413581 9:0.47199029 #
-0.0096167538233230490801739520634328 1:0.31662428 2:0.0089453952 3:1.2641213 4:1.3455509 5:-0.16153912 6:0.13562573 7:-0.011446358 8:0.3202002 9:1.8291978 #
0.035806483388210172402743580732931 1:0.69943577 2:-0.30371577 3:1.3390191 4:0.68909603 5:0.68421543 6:-0.19622429 7:-0.097317643 8:1.24538 9:-0.6678853 #
2.6392124956484672715362194139743 1:-0.019440953 2:0.7363413 3:-0.20270196 4:0.13657674 5:0.90115261 6:-0.0084568951 7:0.08559338 8:0.64979684 9:0.21812929 #
0.084237539785438297901265514155966 1:1.0365422 2:0.65740663 3:0.27452841 4:1.4535716 5:-0.13485129 6:0.75862038 7:0.90760171 8:0.4763357 9:0.53894776 #
0.02590351245435675020534205259537 1:-0.094492272 2:1.1956429 3:-0.18877602 4:-0.85658419 5:0.64116627 6:-0.87596208 7:1.2372426 8:-1.0884453 9:1.2275399 #
-0.27340724319910791884069567458937 1:0.91710424 2:0.37403366 3:0.93117768 4:1.7289886 5:-0.050305437 6:0.34879503 7:0.51249176 8:-0.78796589 9:-0.29803896 #
-2.1649945071216363245980573992711 1:0.82131475 2:0.74468786 3:0.43556297 4:0.54565531 5:0.52551955 6:0.71463674 7:0.83328968 8:-0.09962596 9:0.34363869 #
-0.63360605881159592911444633500651 1:-0.26253337 2:1.159838 3:0.32305166 4:0.76490802 5:1.0537323 6:0.54943264 7:-0.93159658 8:0.45463946 9:0.56293797 #
0.83426195896844035360118141397834 1:0.80827981 2:0.071101055 3:0.84510916 4:0.5863176 5:-0.14609928 6:0.10920728 7:0.89180422 8:0.23785277 9:0.77476281 #
-1.3738982993100841145661661357735 1:0.83759022 2:0.42923248 3:0.92971689 4:0.50705916 5:-0.042201899 6:0.16754827 7:0.35468644 8:0.92387384 9:1.3151602 #
-0.02071330629327862785094005459996 1:1.2059191 2:0.89333737 3:-0.25798926 4:0.0058969641 5:-0.657897 6:-1.7594986 7:3.179939 8:1.8682475 9:-0.19377738 #
-0.12426841007564028152021506912206 1:1.104546 2:0.68749851 3:-0.1583349 4:0.83421433 5:0.25839967 6:-1.1249512 7:0.64427966 8:-0.038192064 9:1.3265555 #
0.22455487328573514593799131944252 1:0.92382282 2:0.43178856 3:0.93799496 4:-0.73926145 5:-0.25612158 6:-0.34221339 7:0.58412856 8:0.70151192 9:-0.066615731 #
-0.00084578798457930195672793693972835 1:0.67443442 2:0.56427234 3:1.2963305 4:0.89312857 5:0.80869925 6:-1.2725074 7:-0.098795936 8:0.2840443 9:0.74370712 #
-3.1132604251796305305788337136619 1:-0.3434487 2:0.33714503 3:0.91064483 4:1.2243457 5:0.4377937 6:0.38903305 7:0.15666313 8:0.88565874 9:0.79731005 #
-0.50181752666234713533555122921825 1:-0.27146301 2:1.5220269 3:0.93056405 4:1.893028 5:-0.54028618 6:0.074820712 7:0.41738343 8:-0.0096932184 9:0.90626389 #
0.16292963062295875986684734471055 1:0.55997133 2:1.1993419 3:0.22199631 4:0.23279153 5:1.3931328 6:0.21318242 7:1.2833635 8:0.91539192 9:0.72015339 #
0.042333212263541170061742491270707 1:-1.0589025 2:1.3054416 3:0.90887016 4:1.62778 5:0.37400913 6:2.1151285 7:-0.59282857 8:0.78863788 9:0.15705669 #
-3.0837650439812946956408268306404 1:0.37731382 2:0.84253669 3:0.73459965 4:0.85403222 5:0.13187665 6:0.92086148 7:0.15320785 8:0.22748487 9:0.91344821 #
1.3248377613248085715724755573319 1:1.6347622 2:0.99141461 3:0.43071601 4:2.088237 5:1.4429455 6:0.90067399 7:1.1773939 8:0.079298787 9:0.74674672 #
0.14829114034391602250373409788153 1:1.2997686 2:0.25696912 3:1.4212012 4:-0.013739223 5:1.568828 6:0.27477485 7:0.59959722 8:-0.24824676 9:-1.4046416 #
-0.47895441366204255517757815141522 1:1.6047499 2:1.4901187 3:0.31795117 4:0.0012168699 5:1.8602759 6:1.8358569 7:0.59386683 8:0.45531929 9:0.073960073 #
-0.17290880337758252061064467852702 1:1.0267922 2:0.0041478514 3:-2.104486 4:-0.23659445 5:0.22187464 6:0.74590141 7:-0.13931084 8:0.74720496 9:0.16731672 #
0.65873679383100691708818885672372 1:1.4547687 2:-0.32273817 3:0.99226892 4:0.7357409 5:-0.036360864 6:0.41375545 7:0.96565163 8:1.0153413 9:0.23219714 #
-0.15016235302095318204784746285441 1:0.46356016 2:0.26224637 3:-0.34664494 4:-0.28850919 5:0.93380547 6:-0.36611998 7:-1.5180802 8:1.1646395 9:-0.25675276 #
0.013046498109612961191494662216428 1:1.5337178 2:-0.21874014 3:1.6294049 4:0.99950397 5:-0.97513962 6:0.4038941 7:0.45009091 8:0.76210117 9:0.022189479 #
-0.46681741887482569586254044224916 1:1.3762245 2:0.91933739 3:1.6200348 4:0.43213767 5:0.38456646 6:0.66030389 7:1.2456619 8:0.56381834 9:1.3847812 #
0.27715830338227781526327930805564 1:0.55471593 2:-1.064224 3:0.24793236 4:2.3637023 5:-0.66875511 6:0.22099765 7:1.1472348 8:2.0803258 9:0.76143348 #
0.19745319926987051073474788154272 1:1.0998808 2:0.71026331 3:1.8656765 4:-0.4351314 5:1.6554925 6:-0.20626989 7:0.18000706 8:-0.82440364 9:-1.2588792 #
-1.2410058003347299582230789383175 1:1.1181475 2:0.56973314 3:0.34336087 4:-0.076466866 5:0.97703439 6:1.1037254 7:-0.055375632 8:1.1717478 9:1.1108891 #
-9.1469849067144473053758702008054 1:1.1490475 2:0.90023053 3:0.25130296 4:-0.36242428 5:0.84849519 6:0.23754516 7:0.45775083 8:0.64849246 9:0.55094558 #
0.33933658176101227921250824692834 1:0.98758906 2:1.1998917 3:1.128558 4:0.20020957 5:1.1795267 6:0.64867216 7:-0.59699166 8:0.31048158 9:1.1512631 #
1.1289257287997223055953099901672 1:0.044970449 2:1.0616918 3:1.5784792 4:1.2422836 5:0.53306574 6:0.8398968 7:0.95239633 8:0.045148168 9:0.28310478 #
-0.16048845601588124232250720524462 1:0.7868976 2:0.23509537 3:-0.65307957 4:1.351768 5:0.58086771 6:1.112771 7:1.3462873 8:1.0396844 9:0.25250009 #
-0.31024156452746021184196933972999 1:0.07439588 2:2.2474844 3:0.900989 4:1.0241066 5:1.0769 6:0.19857329 7:0.62228763 8:0.77703011 9:0.63237411 #
-1.7117694745662899169502679797006 1:0.2176653 2:0.32635093 3:0.74821758 4:0.56212026 5:0.50308591 6:0.20986158 7:0.051758654 8:0.0088655399 9:0.015017062 #
1.3127015125076559876049486774718 1:0.82145739 2:-0.18774261 3:-0.13958696 4:-0.12646081 5:0.52003676 6:0.71695071 7:-0.064353406 8:0.31756791 9:0.012696783 #
0.2220596098637756532490072913788 1:1.0196719 2:0.057695851 3:0.39595175 4:1.2396059 5:1.1055025 6:0.28506839 7:0.0085112313 8:-0.65664643 9:-0.6389733 #
0.2570187285412710576082417901489 1:0.89917529 2:1.0752943 3:0.86263907 4:0.052636724 5:-0.24448483 6:0.95115465 7:-0.22996549 8:0.82052344 9:1.660722 #
0.0056860587588851360663078082779975 1:1.9962851 2:0.047914166 3:0.81169939 4:-0.88424969 5:-0.35536847 6:-0.83016253 7:3.4521606 8:0.62264681 9:0.23728737 #
1.1487117896203393740961473667994 1:1.6170397 2:0.93256432 3:0.42399177 4:0.89145225 5:0.18177108 6:0.67345649 7:0.10971508 8:1.2225392 9:0.25327703 #
0.14088457226041353753664964187919 1:0.20628545 2:0.11810534 3:1.5241485 4:1.0020249 5:0.87927073 6:-0.64122123 7:0.6884833 8:1.2664078 9:0.65972787 #
-0.87449311564631770909983288220246 1:0.12696889 2:0.09809088 3:-0.084892727 4:-0.57398033 5:0.36516693 6:-0.55701441 7:0.33176517 8:0.95224714 9:0.23599093 #
-1.1028708734513785749697944993386 1:0.10048713 2:0.46902949 3:1.0482323 4:1.0468711 5:0.38760588 6:-0.26896998 7:0.29449558 8:0.73487073 9:-0.25350246 #
0.7851155607338509145876059847069 1:0.82424635 2:0.70110101 3:0.88100314 4:1.2237905 5:0.05652976 6:0.1109016 7:0.53291059 8:-0.76323599 9:1.3024213 #
0.071942811534620204616530259045248 1:-0.3388243 2:0.92719668 3:0.08916001 4:1.8053063 5:0.38995379 6:-1.5238919 7:3.3130527 8:-2.2788067 9:0.56974804 #
0.086750532874708477515390825374197 1:1.5989338 2:1.302765 3:-0.47286069 4:1.1017963 5:0.86180055 6:0.35033405 7:-0.49828222 8:-0.090108722 9:0.76193118 #
-0.62404976793824906700081101007527 1:1.6597517 2:0.88656241 3:0.67399424 4:0.48393413 5:1.7892442 6:0.032118462 7:1.5358133 8:0.20265238 9:1.2115104 #
-0.063225432158512631652946822669037 1:1.0044415 2:1.1822953 3:0.90796214 4:-0.69960451 5:1.5186112 6:0.82738686 7:1.1192545 8:-0.50343949 9:-0.24649481 #
-0.046125780055853646266506018491782 1:0.20694405 2:0.69878078 3:0.7291708 4:1.0936289 5:0.40967527 6:1.2732455 7:0.74151129 8:-0.036533441 9:-0.42593685 #
0.019300033419765719872041032090237 1:-1.9835267 2:2.4657826 3:-0.34678823 4:0.64464229 5:-1.7877707 6:-0.54857695 7:0.17241167 8:0.18205227 9:0.67889071 #
-0.13706359560011932563483583180641 1:0.73034132 2:1.3102744 3:1.0124768 4:-1.0982957 5:0.51829982 6:0.11016046 7:-0.14654616 8:-0.93500191 9:0.6244325 #
0.3909751900814723013510842974938 1:0.92466623 2:1.39526 3:0.21552035 4:0.97620738 5:0.3986983 6:1.1437232 7:-0.10002381 8:0.94886583 9:-0.59442055 #
0.15183609493342209439958878647303 1:-0.22871335 2:1.7175376 3:-0.34458819 4:-1.3883941 5:-1.229917 6:1.9935503 7:-0.021869088 8:1.4094452 9:0.95152116 #
-0.10826289288812990241339662134124 1:0.057702545 2:0.37674409 3:0.8419385 4:0.64883626 5:0.37239444 6:0.80122453 7:1.8973098 8:-0.11926664 9:-0.24676602 #
-0.66757420506518561076347850757884 1:0.22503719 2:0.88601744 3:0.93463159 4:0.35637084 5:1.1798089 6:0.22679041 7:1.0792139 8:0.17928478 9:0.48763669 #
-1.2296345662461778402985146385618 1:-0.83911908 2:0.18895355 3:0.065553688 4:1.3104181 5:-0.26004243 6:0.98792189 7:0.79578096 8:1.1652716 9:0.28815523 #
-0.68045382163115752938153946161037 1:0.81776237 2:-0.44383281 3:0.47773945 4:1.9892772 5:0.16468191 6:2.2895103 7:-0.58549339 8:1.0213854 9:0.55788702 #
0.78160866337104772938459973374847 1:0.80983108 2:0.83412188 3:1.4048474 4:0.10649735 5:1.0030124 6:1.4606153 7:0.55800897 8:-0.0085249431 9:0.99490172 #
1.839178899712079706674217050022 1:1.023435 2:0.81843847 3:-0.29442805 4:0.16496043 5:1.083583 6:1.1596974 7:0.86168128 8:0.92629528 9:1.1113967 #
-1.6808733656553525026566831002128 1:1.0463104 2:0.83432597 3:0.52061647 4:-0.15214323 5:0.60970849 6:0.76350659 7:-0.039346013 8:0.09155748 9:-0.33837184 #
0.035523282218220417205678529626312 1:1.3944312 2:0.52248055 3:-0.11723664 4:0.86337936 5:0.47838828 6:-0.51760554 7:1.4612441 8:0.93714935 9:-0.4888458 #
-0.63228567249950817785730805553612 1:-0.15250212 2:0.89131761 3:-0.52017277 4:0.42538169 5:0.24243943 6:-0.088531613 7:0.76608467 8:1.013384 9:-0.13289948 #
0.024729333928089600874722364665104 1:-0.34848925 2:1.5898762 3:-0.3198314 4:-0.40747797 5:0.076281577 6:1.4340246 7:-1.1011562 8:-2.0479074 9:0.43529627 #
1.6007532931324197633671246876474 1:1.6717275 2:1.3439038 3:0.66037518 4:-0.26743501 5:-0.11723953 6:0.35791552 7:0.99036747 8:0.73426706 9:0.46417651 #
-2.8553780680985187956366644357331 1:0.22699964 2:0.48691332 3:0.32439137 4:0.7385152 5:-0.05518876 6:0.24383682 7:0.81554401 8:0.62918973 9:1.0668719 #
-0.069316246697529906861667825523909 1:1.0309746 2:0.63083029 3:2.2117586 4:-0.82295609 5:1.9846169 6:-0.6090703 7:-0.055453215 8:-1.0685265 9:-1.6838644 #
0.61374983878148370308736048173159 1:0.60349721 2:1.4690386 3:0.96026498 4:0.023493383 5:-0.39700031 6:0.79244995 7:0.076552257 8:0.94938231 9:-0.07409475 #
0.93653687358146919805790275859181 1:0.43480167 2:-0.11827419 3:-0.22203225 4:0.50749558 5:1.3310295 6:0.24139923 7:0.0056458218 8:0.35561839 9:0.94235963 #
-1.5521585334450664905858729980537 1:0.76948017 2:0.6407125 3:1.0980384 4:0.8308965 5:-0.13675401 6:0.48083255 7:-0.26418823 8:0.4587383 9:0.47280708 #
0.37623102299723049091184634562524 1:0.69792926 2:0.88793808 3:-0.38835558 4:1.3312576 5:1.1596968 6:-0.80004591 7:0.19572894 8:1.1615974 9:0.82291335 #
-0.71946740287795085677657880296465 1:0.69823867 2:-0.54662639 3:0.77866298 4:1.3592551 5:0.49373621 6:-0.30554011 7:0.088023618 8:0.38520518 9:0.36452681 #
-0.34273042886581533972290003475791 1:0.99138564 2:0.95376915 3:1.1753618 4:0.84402043 5:1.4276248 6:-0.057657931 7:0.6275835 8:0.16522267 9:1.1949867 #
-0.38397521060371303525116104538029 1:0.51075816 2:1.4866214 3:0.83959097 4:0.074419528 5:0.67803097 6:-0.30871072 7:-0.64471823 8:0.4903321 9:1.9058151 #
-0.29457288494656452826347958762199 1:0.19943336 2:0.67412221 3:0.037527923 4:1.1386307 5:-0.51053059 6:-0.081700772 7:0.22497174 8:2.0418305 9:0.48879015 #
-0.11758651032348561848994705769655 1:0.72852045 2:-0.29435503 3:1.7829684 4:0.1086914 5:0.60951638 6:-0.28739089 7:0.81042373 8:0.34230521 9:0.92357212 #
-0.14581083307873277110644494314329 1:1.9774225 2:2.0336118 3:0.86625677 4:-0.072689474 5:0.91148037 6:0.79152417 7:0.35615018 8:-0.74164259 9:0.97086704 #
-0.48456736822488460925129061251937 1:0.32635704 2:0.30344063 3:-0.016095635 4:0.43773308 5:0.9062252 6:0.053027485 7:1.1114478 8:1.3740487 9:-0.064964503 #
-0.39699472944434072152475323491672 1:-0.6359964 2:-0.24566101 3:1.2849288 4:0.86798471 5:-0.32125649 6:0.75918776 7:0.36291447 8:0.29425097 9:0.33558372 #
-0.92510798218636702827666340454016 1:0.49112266 2:1.086365 3:0.16020523 4:0.65964073 5:0.053066406 6:-0.041253742 7:0.04673703 8:-0.12502949 9:0.16452168 #
0.20714773900851760068952955862187 1:1.9427067 2:-0.57891124 3:1.1387408 4:1.7330239 5:0.7087093 6:1.0633315 7:-0.02054088 8:0.12934157 9:1.5316285 #
-0.27232538186359034337868934017024 1:0.80811989 2:1.4889652 3:0.55036712 4:0.59899598 5:-0.23598151 6:-0.51657778 7:1.4621161 8:0.63416708 9:-0.01163173 #
0.80289192147667309829017767697223 1:0.60769171 2:-0.08046107 3:0.67240316 4:0.87656939 5:0.091058537 6:0.47851908 7:0.1730092 8:0.42912215 9:0.29165989 #
0.39902009809952088126294711400988 1:-0.19573483 2:0.35090151 3:0.45652288 4:-0.60828179 5:0.19694473 6:0.93465948 7:0.84612691 8:0.66647023 9:0.31447124 #
-3.0874455092973263070632583549013 1:0.72808915 2:0.41244724 3:0.38040605 4:0.91693997 5:0.10985768 6:-8.5159729e-05 7:0.14952329 8:0.88861746 9:0.62665051 #
-1.071517151249278265723319236713 1:1.3879347 2:-0.18142651 3:0.38505754 4:1.5427252 5:0.79779279 6:0.26679435 7:0.2867758 8:1.1521813 9:0.77066141 #
-0.29982973850966643247772935865214 1:-1.4260896 2:1.5616107 3:-0.088267796 4:-1.5613972 5:-1.6512482 6:2.2691894 7:-1.6076002 8:0.65029156 9:0.29858959 #
0.17144833742080262117823963308183 1:0.97077078 2:2.2090635 3:1.2052499 4:2.4936864 5:-0.049772982 6:0.20358446 7:0.5149523 8:1.0388598 9:-1.4241587 #
-0.52241874974716251411877010468743 1:0.34666267 2:-0.64013511 3:0.55296344 4:-0.14144635 5:1.6593786 6:-0.75696158 7:-0.43047148 8:-0.33363634 9:0.81346118 #
10.489056602521394268023868789896 1:0.53832787 2:0.098771393 3:0.40068549 4:0.38543934 5:1.2997113 6:-0.068181403 7:0.11679203 8:0.57113516 9:0.22371553 #
0.14087502588592090702057646467438 1:-0.15653555 2:0.44968057 3:0.23923522 4:0.28039303 5:-0.37010819 6:0.092652626 7:1.174613 8:0.64139229 9:1.8094177 #
1.0778964695288071329315471302834 1:0.66023296 2:0.41003227 3:1.1893985 4:1.2082613 5:0.21347377 6:-0.042648062 7:0.75341493 8:-0.15445554 9:0.35586813 #
-2.3477839136709444112227629375411 1:0.27749014 2:1.1635941 3:0.67414874 4:1.1745197 5:1.1798548 6:-0.1166125 7:0.1730022 8:0.236607 9:0.53896159 #
-0.17396505726462963004053108306834 1:2.0290694 2:-0.79016864 3:1.1693864 4:0.62597084 5:-0.12370296 6:0.33495334 7:1.3864759 8:1.52428 9:-0.030103203 #
3.0169072637900526956400426570326 1:0.41771519 2:0.52706838 3:1.0922314 4:1.2256339 5:0.078627579 6:0.59684193 7:1.2569575 8:0.64657241 9:0.16414668 #
0.33375312028957987431354581531195 1:1.176303 2:1.1042264 3:-0.22175628 4:-0.9179278 5:0.14455913 6:0.42335877 7:0.85496241 8:0.21210611 9:0.69269383 #
0.16725452586532837950805685522937 1:0.59007323 2:-0.20608076 3:0.25987881 4:2.5163584 5:0.34178239 6:3.2513778 7:-0.85865068 8:1.304551 9:0.32775283 #
0.57973318103059179318137239533826 1:1.0880508 2:0.34918955 3:1.3488921 4:0.042852726 5:0.7463398 6:0.91805744 7:-0.35374895 8:0.092344187 9:1.1710613 #
0.12140439975768820002333114871362 1:0.39497301 2:1.5837269 3:0.70767337 4:-0.43839058 5:0.36470091 6:-0.16032784 7:-0.94216514 8:0.6951071 9:2.8195572 #
0.55423002902737250607856367423665 1:0.18966849 2:0.83413184 3:0.22492722 4:1.0275352 5:-0.017997434 6:1.0085539 7:1.3325021 8:1.3764349 9:0.91552591 #
-0.30471674784737984298388369097665 1:0.82261783 2:1.5709817 3:1.395231 4:-0.22220854 5:2.1562824 6:1.0447189 7:1.3795238 8:0.23758999 9:0.60533637 #
-0.98824394963268957781110657379031 1:-0.073949978 2:-0.39592892 3:0.74063903 4:-0.0094970353 5:1.7354702 6:-0.55900222 7:-0.018213145 8:0.85893601 9:-0.30459628 #
0.56231216287577778789597005015821 1:1.3396772 2:0.30857894 3:1.07583 4:0.71941912 5:0.33871871 6:0.066741154 7:0.64933383 8:0.45840842 9:-0.14019901 #
-0.24756563008280707549602084327489 1:0.93650657 2:0.95844609 3:1.2527468 4:1.765874 5:0.40463647 6:1.2956009 7:1.5588681 8:0.83105946 9:-0.030174816 #
7.6385599877524850143117873813026 1:0.53159213 2:0.5237664 3:-0.09240555 4:1.1921722 5:0.23185864 6:0.2274273 7:0.37086895 8:0.16634908 9:0.60593438 #
-0.20031563300491272983094859228004 1:-0.71778435 2:1.4620652 3:1.0398531 4:0.10778067 5:-0.02153535 6:0.10251629 7:1.1507781 8:0.4560535 9:0.16943839 #
0.91454700173344549707366013535648 1:-0.047610652 2:0.36088637 3:0.18457332 4:0.050593924 5:1.3203663 6:0.95531088 7:1.4009899 8:0.30831259 9:0.38339898 #
0.44524963032156400499772530565679 1:-1.0475372 2:-0.093475647 3:0.90207464 4:1.768901 5:0.86850411 6:0.51570219 7:0.077823624 8:1.3189008 9:0.68768144 #
0.24688978847707715447157283961133 1:1.7814713 2:2.0475719 3:1.3934536 4:-0.55316925 5:2.2238917 6:0.20218271 7:1.8221772 8:0.470862 9:1.1583693 #
-0.083056018435705675218017063343723 1:1.0927554 2:1.0678974 3:0.79778302 4:1.0396745 5:-0.52852291 6:0.11164565 7:-0.6742202 8:-0.5617007 9:1.0408311 #
0.10601652342379347393475086391845 1:0.3923462 2:-0.37433434 3:0.91085821 4:-0.2141152 5:-0.51415575 6:0.86360919 7:0.37358591 8:1.0602148 9:0.23611344 #
-0.18023369482498019511496067934786 1:-0.0048471987 2:1.3233583 3:0.88156033 4:0.87488574 5:0.088549249 6:1.3922461 7:-0.45598996 8:0.057228319 9:1.3500501 #
-1.007336371265341368186341242108 1:1.4112421 2:0.65533006 3:0.72157151 4:2.0608678 5:-0.051401488 6:0.15951452 7:0.6028859 8:0.66006106 9:0.2008581 #
-0.4447607062600185678924447074678 1:1.4184738 2:0.80597961 3:-0.74447858 4:-0.050225616 5:1.6531476 6:1.817315 7:0.90218663 8:0.99699831 9:1.323818 #
0.26729127885977971290643040447321 1:0.94931597 2:-0.84074003 3:0.88732016 4:1.9877214 5:1.1342947 6:0.027950738 7:-0.77647853 8:-0.66942716 9:0.19508195 #
0.15885818342370899847182386110944 1:1.1899981 2:0.56785816 3:0.7561695 4:-1.7397497 5:1.7194606 6:0.092623577 7:-0.16296865 8:1.1132101 9:0.81855601 #
-0.32726421808312611272384629046428 1:1.0123682 2:0.57802927 3:-0.12822036 4:-0.038591463 5:0.40984222 6:-0.33647543 7:0.41976652 8:0.99508882 9:1.6711977 #
0.083305931133891661377610660110804 1:0.49083969 2:0.10445264 3:-0.66410601 4:-0.76320589 5:1.0473554 6:-0.66374236 7:-2.4242117 8:1.0186664 9:-0.3944402 #
5.0144324076494308783935593964998 1:0.54855829 2:0.57887161 3:0.58450449 4:1.2321531 5:0.11068789 6:1.1507252 7:0.64426053 8:0.64933032 9:0.092617832 #
-0.53370732458180880630749243209721 1:-0.0067488593 2:-0.13676082 3:0.84317476 4:-1.1597279 5:-1.0724306 6:0.99863976 7:-0.24591699 8:0.23749657 9:0.70712757 #
1.2868546500653901265565082212561 1:0.19957368 2:1.1147281 3:0.65718931 4:1.2475392 5:0.33563042 6:0.47109488 7:0.19099598 8:1.1221075 9:1.0174496 #
3.2753430113700230386086786893429 1:0.17144594 2:0.90009916 3:0.98674798 4:1.080147 5:0.30166131 6:0.16283561 7:0.58279061 8:0.75731277 9:0.37146604 #
-0.00024020289361208359670343814862292 1:1.6153675 2:1.5095769 3:-0.31133461 4:-0.90437222 5:0.17683819 6:0.84094441 7:-0.14302383 8:-0.73269343 9:0.58600467 #
-1.9200102113036867645945449112332 1:0.55872881 2:0.64506143 3:0.20970526 4:0.5690428 5:-0.13411717 6:0.63135874 7:0.62442571 8:1.2524079 9:0.34825191 #
-0.00060280974848816971326664893027214 1:-0.22606778 2:1.5150273 3:-0.21333085 4:-1.4931794 5:1.114862 6:-0.84318358 7:0.95494515 8:-1.5013521 9:1.437657 #
-0.19978389940216878528644883772358 1:0.62384152 2:1.1932105 3:1.3273978 4:-0.84995359 5:-0.98104787 6:0.2154534 7:0.053781722 8:1.2073405 9:-1.1304563 #
-0.17549837166602327842568342930463 1:-1.9727612 2:-1.6036439 3:-1.0097617 4:-0.37001815 5:0.76489645 6:0.80618399 7:-0.1688119 8:0.5999496 9:0.25200248 #
5.1005253113241622031637234613299 1:1.3667808 2:0.61646903 3:1.037836 4:0.81214744 5:0.11697273 6:0.35233042 7:0.47540081 8:0.18828933 9:0.8167268 #
-0.22862312568049455996366248200502 1:0.29916802 2:1.0962151 3:0.33227751 4:-0.31902075 5:0.47904003 6:0.28936195 7:0.83946908 8:0.73060369 9:0.86355573 #
-7.9137050424464892017795136780478 1:0.63447148 2:0.77667737 3:0.64431822 4:0.038301606 5:0.81533742 6:0.19841023 7:0.42689034 8:0.58992064 9:0.24183264 #
-0.014267157338225512630547342496357 1:0.82885641 2:0.36061588 3:0.013842563 4:1.4184115 5:-0.4238531 6:-0.50038338 7:-0.3315354 8:1.1012769 9:0.67317969 #
1.014944845267039763569982824265 1:1.0924664 2:0.66658419 3:0.80221307 4:-0.1377978 5:0.91711706 6:0.99953699 7:1.2279596 8:0.24054675 9:0.95061725 #
-0.25034144027499510842815766409331 1:0.0020088481 2:1.0616742 3:-0.51516092 4:0.71332759 5:0.18039326 6:-0.47971493 7:-0.022729335 8:1.3137289 9:1.4305592 #
-0.094147725867715886804987235336739 1:-0.46800399 2:-0.17304069 3:0.43190807 4:1.8060564 5:0.0837797 6:-0.435004 7:-2.2290661 8:-0.69512504 9:0.40810436 #
0.094589439695879948266643566512357 1:2.2038426 2:1.7299192 3:-0.60943335 4:0.56779957 5:0.023776421 6:1.9105747 7:1.0843962 8:0.0085439263 9:-0.37100363 #
-0.029505929374335920084559958809223 1:0.36933535 2:1.0359499 3:0.4485375 4:1.0069344 5:0.7291972 6:-0.25525206 7:1.5251869 8:0.32342553 9:1.8804175 #
0.5648085282008370455741896876134 1:1.3928133 2:0.84746021 3:0.22802193 4:1.1644863 5:0.74684495 6:1.4940349 7:-0.60252875 8:0.075010642 9:0.7336247 #
0.44071814054301711172101363445108 1:-1.5580471 2:-0.12244352 3:-0.010542096 4:1.4033296 5:-0.64781111 6:1.2456236 7:0.84243912 8:1.4045725 9:0.41764069 #
-0.80820135919903257626373260791297 1:-0.83906001 2:0.96488667 3:0.21951944 4:0.079064704 5:1.3132749 6:-0.9321512 7:-0.44905829 8:0.52973837 9:0.028907705 #
-0.87650844088768209427797728494625 1:-0.91476458 2:0.66862243 3:0.95884168 4:-0.25782901 5:1.0526326 6:0.39844096 7:-0.16758242 8:1.3714255 9:0.37470821 #
-5.4773281815463965571666449250188 1:0.76820654 2:1.0557239 3:0.28029063 4:0.49596557 5:0.35351843 6:0.12430831 7:0.63597393 8:0.34888387 9:0.60146368 #
1.3511183786051521593662982922979 1:0.57616848 2:-0.051357843 3:1.0166029 4:0.27112162 5:1.0539457 6:0.0068522515 7:-0.46274766 8:1.3178353 9:1.2697072 #
-0.48791292594364826795683143245697 1:1.1804957 2:0.94496626 3:0.46930444 4:0.84141058 5:-0.62642425 6:1.7358936 7:-0.10366648 8:0.44713968 9:0.96810657 #
1.3070680101036478149012509675231 1:0.16909903 2:1.1485236 3:0.5304749 4:1.1156065 5:0.34146306 6:0.37638459 7:-0.15975407 8:0.18011124 9:0.38637212 #
0.14060017525110429792434274531843 1:1.6834773 2:0.08087606 3:0.44621408 4:0.65253007 5:0.47055033 6:0.71044278 7:0.4194687 8:-0.42803422 9:0.4779228 #
-1.4870036565728530497665360599058 1:0.78235555 2:1.1961988 3:1.4148332 4:0.25225037 5:0.79870552 6:-0.15470175 7:0.85169172 8:0.86575538 9:1.2876868 #
-0.62010343437807902144953686729423 1:0.50335425 2:0.57965255 3:-0.59494096 4:0.96276432 5:0.066504292 6:0.23714946 7:1.5603319 8:1.0061762 9:0.76977974 #
-2.1804689744344583068880183418514 1:0.68761247 2:0.92734164 3:0.6681062 4:1.009979 5:1.2761229 6:0.14137381 7:0.030995181 8:0.84515989 9:1.1358218 #
-0.34683043672400493129259757552063 1:-0.082137346 2:0.94588196 3:0.1010595 4:0.025732692 5:0.69576991 6:1.4715542 7:0.72176313 8:0.89820433 9:0.10718343 #
0.48692557697212168754674621595768 1:1.0536325 2:1.3771299 3:0.49183202 4:0.75258738 5:-1.634665 6:0.89134753 7:0.65040219 8:0.29782015 9:0.73837012 #
1.9792974923440118661943643019185 1:0.071926072 2:0.78835213 3:0.67002863 4:0.19135368 5:0.39390346 6:1.2318932 7:0.55091602 8:0.45643601 9:0.68846422 #
1.423216308536512597626710885379 1:1.0094137 2:1.5966408 3:1.0205183 4:0.70537627 5:1.3609922 6:1.0395561 7:0.019072453 8:0.59665203 9:0.87885523 #
-0.26727365105413036783232882953598 1:0.83525932 2:0.73499358 3:0.10420924 4:0.6496163 5:0.60105586 6:0.82494503 7:1.1813631 8:-1.1416756 9:0.57635814 #
2.023134151401689173610520811053 1:0.87279695 2:0.93281066 3:0.94210166 4:0.25638768 5:0.65562409 6:0.79315883 7:0.97286206 8:1.2629579 9:0.71894395 #
0.29570901390659426466456238813407 1:1.4307435 2:1.0715356 3:1.0527072 4:1.2910877 5:0.23298703 6:-0.038907554 7:-0.68752384 8:1.3414664 9:0.94566649 #
-0.21393045983068290083473073082132 1:1.1200904 2:0.58282733 3:0.0004073717 4:1.3452706 5:0.6812166 6:0.071992382 7:-0.063502587 8:-0.95143193 9:0.45457858 #
-0.17366066990087672405884688942024 1:-0.17315911 2:0.61414731 3:0.39426699 4:0.19550674 5:1.6228057 6:0.92961478 7:2.4517839 8:0.42883477 9:0.79036129 #
0.18926689394828891122024572268856 1:-0.14393428 2:0.39662242 3:-0.05013245 4:-1.0509709 5:-0.040214095 6:-1.1638743 7:0.91909111 8:1.1066155 9:0.19216934 #
0.053995146795874124356906520461052 1:-0.25061664 2:1.1510484 3:1.2125987 4:1.7956583 5:0.39057699 6:-0.44876903 7:0.48185322 8:0.75040078 9:-0.12944609 #
0.12045749814426985613291520849089 1:1.0383021 2:0.50001872 3:1.8364695 4:1.213028 5:-1.0084943 6:0.54021567 7:-0.64232051 8:0.4251399 9:0.40554076 #
-0.09899068086178977599054462643835 1:0.15082976 2:-0.62207019 3:2.6222856 4:1.169783 5:0.38678432 6:1.8314723 7:0.43228117 8:0.7312153 9:-0.018355798 #
0.20348401656792058922462729242397 1:0.12394334 2:1.2155515 3:0.98095834 4:-0.65284801 5:1.4183598 6:-0.29308277 7:0.77048153 8:1.0185493 9:0.38905051 #
-5.8124513670425255185136848012917 1:0.85064119 2:0.8466785 3:0.49998802 4:0.85922617 5:0.99110782 6:0.15641455 7:0.407729 8:0.48237056 9:0.64203542 #
-0.893839419646506372352234848222 1:2.1953483 2:1.1327819 3:1.5168498 4:0.39174002 5:0.53393495 6:-0.38429853 7:1.3712506 8:0.93883556 9:0.29353887 #
-0.12519542229310443026690791157307 1:0.77429736 2:-0.37067604 3:0.72408217 4:0.24201889 5:-0.73562354 6:-0.023004707 7:1.4041723 8:-0.14355282 9:0.76872402 #
-0.50611075943432393131615754100494 1:1.2179811 2:1.1898178 3:1.5508876 4:1.1120398 5:0.56718749 6:1.1424598 7:0.43244237 8:0.047875181 9:0.18120508 #
-0.16003246028227360864271133777947 1:-0.10496842 2:0.10330363 3:1.1675075 4:2.0097704 5:0.017237777 6:-0.13174079 7:1.4371578 8:-0.34205511 9:0.3707149 #
0.25374028121908104305148867751996 1:1.2622639 2:0.85472232 3:-0.094335616 4:0.6830759 5:0.090777859 6:1.1852657 7:-0.30662233 8:-0.5749042 9:0.17725715 #
-1.4437772264434511892972068380914 1:-0.12415624 2:0.1404697 3:0.41169217 4:0.40336785 5:1.2262971 6:0.79956782 7:-0.44171423 8:0.35526928 9:0.71379304 #
0.62384885893249220067957594437758 1:0.080573857 2:1.6040041 3:-0.073199838 4:-0.16509271 5:1.2756931 6:-0.27534661 7:0.54280686 8:0.019930523 9:0.56870615 #
-0.18413697916520049835398253890162 1:0.96444607 2:1.2440712 3:0.84499109 4:0.54129821 5:0.90876424 6:0.31928214 7:0.55913752 8:-0.67027432 9:0.77465338 #
-0.6976663146288408778872280890937 1:-0.36327386 2:0.62668031 3:-0.65218139 4:1.7114264 5:-0.23776992 6:1.0897337 7:0.17197409 8:-0.2040012 9:0.21102069 #
-0.0094730706772701445822493226955885 1:1.2117841 2:0.69670951 3:-0.084672578 4:-0.63717991 5:-0.68580514 6:0.76518178 7:0.37059683 8:1.1620911 9:0.46680334 #
0.61515261424627742936621643821127 1:-0.14882588 2:0.24943058 3:0.49130949 4:0.78614771 5:-0.99735171 6:-0.30512202 7:-0.23509729 8:0.75656456 9:0.50721574 #
-0.0040624590095014699586695172683903 1:-0.58877051 2:0.43758538 3:0.021660464 4:-0.22175676 5:-0.44210309 6:0.091220528 7:1.5705957 8:0.5599761 9:2.3030601 #
0.55663605356425949199916658471921 1:0.13204798 2:1.6325909 3:0.9148199 4:0.72566772 5:0.1923794 6:0.8290807 7:0.9800123 8:0.27254605 9:-0.46985677 #
-0.38038293710999965258068300499872 1:1.0529544 2:-0.16814131 3:0.16395412 4:1.3165338 5:0.77415645 6:0.15432894 7:1.3099687 8:1.6268352 9:0.24132019 #
0.20305474284248059557711485467735 1:1.1324754 2:0.79164797 3:0.85984606 4:-0.5043155 5:0.45301887 6:1.0190824 7:-0.48989883 8:0.050163027 9:-1.1964239 #
0.016966935606055957852511539840634 1:0.70556849 2:0.68850642 3:0.6943965 4:-0.25590226 5:1.1946437 6:-0.78387445 7:0.10723971 8:-0.35208446 9:0.20625757 #
-0.23330733890023838683625001522159 1:-0.012298434 2:1.0120505 3:0.48642671 4:-0.46565038 5:0.72217339 6:-0.67749274 7:-0.77646458 8:-0.42054179 9:0.97891062 #
-0.082695716897399476619234803820291 1:0.21639848 2:0.26753312 3:2.2339156 4:-0.46275014 5:-0.46270797 6:-0.30743361 7:1.5285223 8:2.5783327 9:0.61431003 #
-0.0064463382013689538713174798090222 1:1.2943342 2:0.019826567 3:0.049654078 4:0.30521992 5:-0.42547137 6:0.73159778 7:0.15862052 8:-0.26365289 9:0.38092089 #
0.35399379628576960188368616400112 1:1.114598 2:-0.51833123 3:0.84427112 4:1.0689379 5:1.6361071 6:0.31842011 7:1.4008865 8:0.46017441 9:-0.25120541 #
0.14094123804471211935940289095015 1:1.0943905 2:0.30093604 3:0.58800256 4:0.28663713 5:-0.030051345 6:0.57476979 7:1.2547417 8:-0.3539286 9:1.8433907 #
6.2007044983284691497260610049125 1:0.66983068 2:0.32247519 3:1.0547472 4:0.21797282 5:0.85817361 6:-0.13685273 7:-0.26048699 8:0.48776546 9:0.36089793 #
6.1822875620938280150085120112635 1:0.89994895 2:0.41216677 3:0.71385527 4:0.89472991 5:0.24707459 6:0.4408069 7:0.80981636 8:0.37707984 9:0.1233293 #
-1.2622231912887622584662494773511 1:0.56557214 2:-0.15373945 3:0.22650303 4:0.12117299 5:2.4430707 6:-0.1108279 7:0.38357505 8:0.66682595 9:0.33871132 #
-0.56299890160002052930110494344262 1:0.16080646 2:-0.067108355 3:0.28800857 4:1.0836462 5:-0.52965695 6:1.2933874 7:-0.57634884 8:0.75270772 9:0.23366733 #
2.8506760045246060109036534413463 1:1.3324759 2:0.61940014 3:0.16615692 4:0.4907707 5:0.49502173 6:0.31394187 7:0.70969373 8:1.1025348 9:0.73141235 #
-0.50348569018434341515444430115167 1:0.63213754 2:0.23968746 3:-0.14405888 4:0.29642284 5:0.52396393 6:0.22087851 7:0.99097115 8:1.4474957 9:1.2184099 #
0.74928029996789202726859002723359 1:1.4018233 2:1.004536 3:0.66496289 4:0.078597866 5:0.5195083 6:0.44471288 7:1.0867283 8:0.79062104 9:-0.44909576 #
-0.16795414558961566098282958137133 1:1.3008404 2:1.4339859 3:1.8009512 4:0.81282264 5:0.84064656 6:0.88599533 7:-0.045239266 8:2.2499907 9:-0.16862346 #
-0.6647322348484541176816264851368 1:0.67078441 2:1.4269425 3:1.1305401 4:0.98900181 5:1.0886685 6:0.71935576 7:1.8003476 8:0.22978494 9:0.75604892 #
1.1686911601998051235540287962067 1:1.4393332 2:1.4568045 3:0.76199335 4:0.40675795 5:-0.034212463 6:0.46520802 7:-0.11504231 8:0.082656339 9:0.26537079 #
-0.34231916928827138546509445404809 1:0.15890048 2:0.64422369 3:-0.032738354 4:-0.092850812 5:0.47351405 6:0.79010427 7:1.3224729 8:0.53346837 9:-0.25714147 #
-0.5778505092989402180947422493773 1:-0.45516294 2:0.40956843 3:0.78763831 4:0.9093439 5:-0.43407524 6:0.37092754 7:1.5330487 8:0.26364344 9:0.98853815 #
0.19243076843189366176289922805154 1:0.42966658 2:0.95007586 3:0.091584064 4:1.8040012 5:0.46825802 6:0.54094285 7:-0.22920069 8:1.6186976 9:0.52960163 #
-4.7168113701315279584491690911818 1:0.88757801 2:0.41672486 3:0.25375625 4:0.90568072 5:0.68645096 6:0.47646874 7:0.079323143 8:0.67978489 9:0.037367567 #
3.5627197013222460242332090274431 1:0.43515244 2:0.77761728 3:0.041692674 4:1.029868 5:0.19371659 6:0.48894694 7:1.1354209 8:0.94127238 9:0.36862472 #
0.22922011360818816960716048924951 1:-0.26844719 2:-0.43082049 3:-0.04915154 4:0.88929582 5:-0.5191682 6:1.7279719 7:-0.5093205 8:-0.3350119 9:0.16016607 #
-0.81030384257290544169904933369253 1:0.29495543 2:-0.29105705 3:0.48282799 4:-0.47702375 5:1.2176106 6:0.066276737 7:0.56661171 8:-0.14557858 9:0.41022351 #
-0.092684584411437676010336872423068 1:0.97401327 2:0.92879516 3:-0.068123601 4:-0.054662839 5:0.77796233 6:0.92272019 7:1.5105003 8:0.6749894 9:0.18551821 #
-0.047934722454510046707465420467997 1:2.3675258 2:0.51807654 3:-1.8432766 4:-1.2582585 5:0.44983318 6:0.37392595 7:0.18842003 8:1.5255766 9:0.63159537 #
-0.17599857292843892886402556996472 1:1.2413789 2:-0.83433717 3:0.080965795 4:0.5110054 5:-0.36183372 6:0.066911742 7:-0.75602388 8:0.15593153 9:0.88496822 #
0.060758659291065546248500339743259 1:2.5303423 2:2.361187 3:0.79931468 4:1.874771 5:0.67270529 6:0.96710175 7:1.1078496 8:1.0518314 9:-0.14333978 #
-0.73825442676684349674331997448462 1:1.2764887 2:1.3391023 3:0.76690328 4:0.76021516 5:0.38633683 6:1.5930458 7:0.98812002 8:0.75686395 9:-0.19872208 #
-0.58944142882484140688603702074033 1:0.98654884 2:-0.068273112 3:0.37487176 4:0.22691095 5:-0.096492358 6:-0.88014191 7:-0.17355758 8:1.1083974 9:0.53873664 #
0.049087168552188580050721355974019 1:1.5270939 2:1.8570391 3:2.4708629 4:0.96621251 5:0.89140028 6:1.2726879 7:-0.32194194 8:2.898546 9:-0.39476591 #
0.69710281867424828128321223630337 1:0.34132007 2:1.1413503 3:0.92221397 4:1.620177 5:0.18022421 6:0.80415767 7:1.1386529 8:0.048147108 9:0.89470959 #
0.12864511428995156760990425937052 1:0.1814691 2:1.6304595 3:-0.72044599 4:1.479416 5:0.055950407 6:0.036697228 7:-0.027606362 8:0.62488002 9:0.37950101 #
0.14893132380903770228819382737129 1:-0.13939717 2:0.78509718 3:0.22699694 4:-0.40000638 5:1.5499198 6:0.24852502 7:0.37016168 8:-0.25379753 9:0.8139689 #
-0.19981620810376643504469029721804 1:0.20725855 2:-0.6961661 3:-1.0914941 4:-0.62494791 5:0.41907638 6:0.88032305 7:-0.042276345 8:0.88584936 9:0.11714125 #
0.4845313440209405575487267014978 1:1.2903837 2:0.73642075 3:0.80174017 4:-1.6452847 5:0.84337366 6:-0.33243677 7:1.0589904 8:1.0387716 9:0.6587531 #
5.2699503168982886336380033753812 1:-0.087365881 2:0.85839659 3:0.91435701 4:0.010294638 5:1.2092415 6:0.080065891 7:0.43024883 8:0.4775213 9:0.68885911 #
1.1062033374805380070426963357022 1:0.025823794 2:0.31524679 3:0.68359816 4:0.44076949 5:0.83690387 6:0.45521027 7:0.074545741 8:-0.019204041 9:1.0508488 #
0.67374685407738565956492493569385 1:-0.13120697 2:0.93012959 3:0.83973569 4:-0.48458228 5:0.34912086 6:-0.084133908 7:-0.31329173 8:1.1744568 9:0.094658092 #
0.21093699481994179767418984283722 1:1.4395211 2:1.3314923 3:0.45736846 4:1.5223726 5:0.87705392 6:-0.46597177 7:-0.39627025 8:0.27581829 9:0.13134858 #
0.013196562061716682334733263814996 1:0.54725593 2:0.28722689 3:-0.76453298 4:-0.20403862 5:0.89458001 6:1.2773445 7:1.4166471 8:0.35824257 9:-0.79516262 #
0.038378559593922043080560513317323 1:1.2015131 2:-0.053827062 3:-0.38933825 4:0.25985357 5:1.1137253 6:-0.2952362 7:-0.43749982 8:0.82281965 9:1.0837542 #
-0.45677654177707061045055070280796 1:-0.33584607 2:1.4915537 3:0.51740366 4:2.0099192 5:0.57365781 6:0.58122838 7:0.66675127 8:1.5558996 9:0.8596707 #
0.27277550787633286777378316401155 1:-0.35875395 2:-0.35682473 3:0.53929764 4:2.849813 5:-1.30857 6:1.3215364 7:0.48832342 8:0.44127449 9:0.50669307 #
1.0337148639796314153471712415922 1:0.22255032 2:1.428502 3:0.44107062 4:0.66077596 5:0.11878762 6:0.72796476 7:-1.051457 8:0.96449006 9:0.52750498 #
-6.1106041560991695149596125702374 1:0.43235749 2:0.026703477 3:0.32441571 4:1.2553282 5:0.64444005 6:0.13579376 7:0.42891902 8:0.37930152 9:0.83104354 #
0.054705924545283876603285477813188 1:-0.7315619 2:1.08636 3:0.44341597 4:0.63193494 5:0.62787688 6:-1.1222447 7:-0.56203556 8:-0.2597506 9:1.5576322 #
-0.44858481508478431631914418176166 1:1.0373323 2:0.011177559 3:1.591794 4:0.62070453 5:-0.017718107 6:-0.43550009 7:-0.18531975 8:1.1266505 9:0.24840595 #
1.239188931584875197344786101894 1:0.26337713 2:1.2114115 3:0.29699838 4:0.27011791 5:1.286252 6:-0.44845876 7:0.22126698 8:1.1590643 9:0.70328039 #
-0.78238091313650692804060327034676 1:1.7928975 2:1.8012443 3:1.0054964 4:0.78822351 5:0.39055395 6:0.48932683 7:1.1646764 8:0.21745948 9:1.1291702 #
-0.2065413808161225273085648268534 1:0.47953948 2:0.35243309 3:-0.64922607 4:0.12946957 5:1.0127993 6:-0.78640139 7:0.81219769 8:0.23722507 9:-0.066230364 #
-0.093805978983430932105491706352041 1:0.42359355 2:0.85333532 3:0.84992164 4:1.3117194 5:-0.76208848 6:0.81461525 7:0.63702601 8:1.771066 9:-0.05022252 #
1.6583519349388990971050361622474 1:1.4824486 2:1.0962074 3:0.43610302 4:0.7592386 5:0.42566657 6:-0.2956031 7:0.60697168 8:0.02054779 9:0.099367343 #
-0.065137402943184610770721576500364 1:-0.55715185 2:-0.87628371 3:-0.18378267 4:0.52911699 5:-0.69953609 6:2.1584473 7:-0.81763273 8:-0.71059442 9:-0.091976464 #
-0.13339347399751502742937248058297 1:-0.56510216 2:2.32441 3:0.5092929 4:-0.48311025 5:1.0706428 6:0.01810975 7:0.0018068213 8:1.3662424 9:0.24548349 #
0.36655936460383414798869239348278 1:2.9658301 2:1.5645012 3:1.9503512 4:0.48611549 5:0.5583716 6:-0.74179035 7:1.6221691 8:1.1954449 9:0.31006575 #
-0.20029439987237127041019846274139 1:1.2237595 2:1.2037631 3:0.24250126 4:-0.23557663 5:0.74408007 6:-0.0077818795 7:-0.55380487 8:1.5041572 9:0.91597617 #
-0.1832626895710359193891747509042 1:0.50775456 2:0.76930529 3:1.4066312 4:1.0011115 5:1.3166219 6:0.1151509 7:0.12413356 8:0.86091876 9:0.062860735 #
-0.36435419108040256741531948136981 1:1.3741362 2:0.14352086 3:-0.61468107 4:0.69171339 5:0.71243048 6:1.0727794 7:0.66330212 8:0.15988918 9:1.5298572 #
0.28225690493755473120529586594785 1:-0.41566539 2:-0.12717301 3:0.99381149 4:1.4461948 5:1.4565331 6:1.1360239 7:-0.13852741 8:-0.13247292 9:0.4304277 #
0.1286063834196390365249840215256 1:2.0038538 2:0.46195254 3:0.31154254 4:0.79803216 5:0.31725612 6:0.50611639 7:1.0311456 8:1.098622 9:1.8563809 #
-0.98140135451775534214391427667579 1:-0.16768338 2:0.83003634 3:0.32711783 4:1.1799693 5:-0.29234761 6:-0.26986411 7:0.96672153 8:1.4195445 9:1.0036954 #
0.1411532440604007510032147365564 1:0.86970866 2:1.2124968 3:-0.015727241 4:0.078927062 5:1.2680979 6:0.38014257 7:0.19725946 8:0.61992997 9:1.7996933 #
-0.46335720028187676877706735467655 1:0.62674809 2:0.82931691 3:1.2713869 4:2.4402256 5:0.069163233 6:1.6240228 7:0.062638529 8:-0.42235765 9:0.88328809 #
2.739799829095764582831407096819 1:0.938595 2:1.2359034 3:1.0345341 4:0.22605394 5:0.84036183 6:0.39208591 7:0.78856426 8:0.17898157 9:0.76989263 #
-0.097043970526244388574710342254548 1:0.0090801176 2:0.44781122 3:2.3311338 4:2.4057941 5:0.024131415 6:-0.26552337 7:0.993783 8:0.74962497 9:1.4186395 #
-0.84036581425134548872790674067801 1:1.2882884 2:1.2756566 3:0.030691365 4:1.1471059 5:-0.15422763 6:0.67856258 7:0.48660797 8:0.72430903 9:0.089352526 #
2.4675729521162872437400892522419 1:0.92510778 2:-0.17403084 3:0.68493992 4:0.066608399 5:1.1143715 6:0.3730931 7:0.031532321 8:0.53173143 9:1.1518377 #
0.16771826240442316846568360233505 1:1.1173892 2:-0.46868426 3:0.39789093 4:0.96908426 5:-0.48255351 6:0.485957 7:-0.25062951 8:1.4515911 9:1.1777152 #
-0.071281295396440055855968864761962 1:0.063218452 2:2.275619 3:-1.0559187 4:1.865271 5:-0.36789775 6:-0.20329265 7:-0.38511962 8:0.76626575 9:0.47442651 #
-0.23571783114239613921014893094252 1:1.4070349 2:0.073386759 3:1.0891387 4:1.2065531 5:0.17856537 6:0.60185361 7:1.3687506 8:0.22920871 9:-0.53503346 #
0.1848390060030232762144919433922 1:0.55312926 2:-0.30070522 3:0.43475983 4:2.0203779 5:-1.8656194 6:1.1485649 7:1.2602658 8:0.027796904 9:0.67543268 #
0.29173664117897679659563436871395 1:1.3308344 2:0.34659559 3:1.0248477 4:-0.14831541 5:-0.51450628 6:0.033584293 7:0.45520014 8:1.1052539 9:1.7174102 #
-0.38007143687860123204558249199181 1:0.76210266 2:1.5789176 3:0.06666673 4:-1.1111641 5:-0.20408602 6:0.72725356 7:0.66153431 8:0.75228405 9:-0.16519628 #
-0.42487126750233233929421317043307 1:1.6702224 2:-0.025524344 3:1.156459 4:-0.06304653 5:0.76292789 6:1.3255595 7:0.015735982 8:0.23506507 9:0.10339312 #
2.4717634576368991972117328259628 1:0.93440169 2:0.62962222 3:0.94532782 4:-0.15701243 5:-0.22776191 6:0.81429595 7:0.046104804 8:0.70480633 9:0.22996208 #
1.0715901958322024967174002085812 1:1.5219042 2:1.1841038 3:1.0290139 4:0.92607766 5:0.78570509 6:0.8176598 7:-0.41138607 8:0.62404382 9:0.10438991 #
0.26218088037113540522682342270855 1:-0.80670053 2:-0.87146032 3:0.60055786 4:-0.71842349 5:1.931928 6:-0.023668574 7:-0.31939998 8:0.50650489 9:-0.2656973 #
-0.13305676693957008138724518175877 1:1.4778539 2:0.27984282 3:0.22468512 4:0.20645432 5:0.52127707 6:0.33623499 7:0.40880528 8:2.0400696 9:1.0047553 #
-0.10772084347258779890577073956592 1:-0.4935174 2:-0.18109721 3:0.45961365 4:-0.1416842 5:0.083476044 6:0.81277895 7:0.15508075 8:0.9601177 9:-0.549393 #
0.11426993343356617316430856590159 1:0.75688964 2:-1.3199039 3:0.93154532 4:1.696713 5:1.1799527 6:0.87622911 7:1.1349859 8:1.4382515 9:-0.25309175 #
0.33091661046258324940794182111858 1:0.033325583 2:1.4571663 3:-0.58319712 4:0.84504038 5:1.3362824 6:0.53773862 7:-0.23896571 8:-0.52572435 9:0.90977275 #
-0.34583508522562733666916301444871 1:0.91747177 2:1.1234781 3:1.2462587 4:1.0495524 5:0.080692731 6:0.48421726 7:0.93053973 8:0.12831682 9:1.0929562 #
-0.59817429862316684463507954205852 1:1.5174735 2:0.27176857 3:0.33305603 4:0.66742551 5:-0.50446504 6:1.1201427 7:0.26841155 8:0.84577787 9:0.45171842 #
0.25442280282607437902342439883796 1:2.072679 2:0.14581908 3:0.50391483 4:2.5013173 5:0.053963706 6:0.023961913 7:0.81256479 8:1.0181304 9:0.19491221 #
-0.15085944910944634744787151703349 1:2.0652318 2:-0.67099398 3:0.95435911 4:2.2215173 5:0.57464337 6:1.3045092 7:-0.75763506 8:-0.040420633 9:1.4364822 #
-1.3871847198669098322199033646029 1:1.095199 2:0.54341733 3:0.34470907 4:0.74590844 5:-0.1118406 6:0.68733197 7:0.15068559 8:0.40034732 9:0.22706537 #
-0.063356192294090216132751436362014 1:1.110635 2:2.6360795 3:1.2388996 4:3.0392396 5:-0.3044062 6:-0.10675615 7:0.39893019 8:1.3204247 9:-1.9099211 #
0.29919293394920054574015466641868 1:0.24178031 2:-0.1263005 3:0.55916095 4:1.2807261 5:-0.26361033 6:-1.0563056 7:0.093156695 8:0.33737615 9:0.43004829 #
-0.3189243558105133713453938071325 1:1.128502 2:0.030868204 3:0.34292936 4:2.2477765 5:-0.028514894 6:1.3615793 7:0.93922222 8:0.89444661 9:0.31324461 #
-0.16409382016391094172291786890128 1:-0.34315053 2:1.6788818 3:-0.47358656 4:-1.0156703 5:1.8525645 6:-0.58175397 7:0.63399321 8:-0.06621173 9:0.65062732 #
-0.75064488571916798687055916161626 1:1.094424 2:0.41890112 3:1.1336787 4:-0.15846218 5:0.12850699 6:0.73656046 7:0.59148145 8:1.255021 9:0.64042324 #
0.019718238021196123760381269107711 1:-0.3812941 2:1.7480155 3:0.94408119 4:0.91800928 5:0.13600697 6:1.7414364 7:-1.0884734 8:-0.14077498 9:1.6163069 #
-1.3265369424383479657336692980607 1:-0.0080614416 2:0.64724267 3:0.34620628 4:0.96025681 5:-0.028773567 6:0.76501375 7:-0.13093439 8:0.76787949 9:0.52623057 #
0.16371265007311452954752439836739 1:0.63597918 2:1.6292292 3:0.27984506 4:1.4605166 5:0.58149683 6:0.31842592 7:0.75794387 8:-0.2338441 9:-0.30415666 #
0.21877828005086374929533121758141 1:1.7520096 2:1.1547524 3:0.86034775 4:-0.060672414 5:-0.10971645 6:-0.84755671 7:-0.50136983 8:1.2127507 9:1.1699413 #
-1.419042330856245426318196223292 1:0.77846956 2:0.73512179 3:0.92184711 4:0.87795717 5:-0.31742775 6:0.77989924 7:0.54212099 8:1.0531375 9:0.68394983 #
-0.2884092252897886288209861049836 1:1.6863464 2:0.53464895 3:1.7068214 4:-0.081460938 5:0.24719372 6:-0.13827939 7:-0.20730802 8:-0.099675372 9:0.80769575 #
0.32012332156398320970325244161359 1:1.1585639 2:-0.60337335 3:0.43222976 4:-0.17166053 5:-0.34766334 6:-1.4766142 7:-0.37025926 8:1.4660993 9:0.57999003 #
-0.30837062781248791853982993416139 1:2.2184796 2:1.1312656 3:0.017119378 4:1.9887502 5:1.9525278 6:1.0706155 7:1.0238013 8:-0.3865566 9:1.0104623 #
-1.1485858874590035849649893862079 1:0.19426923 2:0.27111816 3:0.41329032 4:0.86272615 5:1.1436455 6:0.79943925 7:0.24385925 8:1.1327326 9:-0.052704729 #
-1.4612841240705516376863215555204 1:1.6835462 2:1.0926824 3:0.53826904 4:1.1400243 5:0.022420334 6:0.8200959 7:0.50422543 8:0.27470654 9:0.86569196 #
-0.062376017976757416882982454353623 1:1.9026598 2:-0.81159157 3:-0.42720816 4:0.23049375 5:0.85243738 6:-0.35470557 7:-0.22135796 8:-0.27364793 9:-0.52471602 #
0.52510045967219576290574423182989 1:1.0309346 2:0.089611933 3:-0.56474978 4:0.99380708 5:0.95811784 6:0.77716434 7:-0.44204393 8:0.96348166 9:-0.046317022 #
5.8641214381649122699968756933231 1:0.52281833 2:0.62844968 3:0.85719079 4:1.2238884 5:0.16626188 6:0.67231691 7:0.435159 8:-0.14648338 9:0.15136752 #
-0.23552196789062085358068543428089 1:0.99469656 2:-0.9977051 3:0.42131692 4:0.43937215 5:-0.77949196 6:0.68577904 7:0.23125105 8:0.51445448 9:0.45241547 #
-0.39129049083718225876538099328172 1:0.43346477 2:-0.59649277 3:0.22322857 4:-0.47971812 5:-0.49137658 6:1.2763603 7:-0.79662657 8:1.1212833 9:0.48811775 #
-0.42710070612517303523247846896993 1:0.87630469 2:1.0559263 3:1.6458668 4:0.50592232 5:0.17500325 6:-0.52726901 7:0.35495672 8:0.33130491 9:-0.39097765 #
-0.56905196039310024236357321569812 1:1.1404605 2:1.6326976 3:1.1822724 4:-0.38982019 5:0.66428971 6:0.65067953 7:1.7627745 8:0.32962108 9:0.60314518 #
0.14921031791786121267762155184755 1:0.53239697 2:0.88336891 3:-0.33702391 4:0.29710877 5:0.50727278 6:0.72593254 7:0.79164791 8:-1.0158613 9:-0.364557 #
-0.70496752067782120221295372175518 1:0.68326229 2:0.18917745 3:1.1001085 4:0.43095946 5:1.0635898 6:0.58606046 7:1.0343049 8:0.26513693 9:1.5289813 #
-0.050115237404819087951857170537551 1:0.79469866 2:1.263103 3:1.3994951 4:-0.22867532 5:1.0053273 6:0.52521038 7:1.4266831 8:2.0771964 9:0.54410285 #
0.37247261781974982941534335623146 1:-0.64550447 2:-0.85167974 3:0.40398884 4:-1.5105695 5:1.1264129 6:0.098929957 7:0.20548141 8:0.3958104 9:1.4925805 #
0.070391473633958659417153569393122 1:1.087375 2:0.54346484 3:-0.49521273 4:-0.070976324 5:1.2849431 6:0.43808278 7:-0.27219737 8:-0.41930601 9:1.1377606 #
-0.31846541995070815067592207014968 1:2.6399727 2:0.71574688 3:0.45609793 4:0.14558937 5:0.87407607 6:0.3535935 7:0.4440856 8:-0.64521623 9:0.43493316 #
0.3011114112553330834920473080274 1:-0.11529741 2:0.41847831 3:0.12882294 4:0.57571644 5:0.98101389 6:0.90402508 7:-0.77118266 8:1.2616597 9:1.4085528 #
0.16036300145952270268523420782003 1:0.82781148 2:1.0034502 3:1.5446719 4:3.2587507 5:0.15003042 6:2.0360267 7:-0.1022529 8:-0.5744099 9:1.1173551 #
0.883809797764975590972369445808 1:0.87620062 2:-0.29866174 3:0.80263758 4:0.34842515 5:1.0304517 6:0.38421816 7:-0.27956501 8:-0.030278008 9:-0.1688101 #
-0.75208124155772904106953546943259 1:0.61928374 2:0.086361051 3:0.52455807 4:0.55602908 5:0.27784351 6:0.2604472 7:0.83301115 8:0.82720113 9:0.41961178 #
0.16444391834174679201119317895063 1:1.0917479 2:0.24631797 3:1.2638991 4:0.6390205 5:0.53848958 6:0.87102085 7:-0.10343038 8:0.3736805 9:-0.26867628 #
-0.059221357422059743569331402568423 1:0.40700984 2:1.4325029 3:0.28550944 4:0.78813595 5:1.1390989 6:1.6525302 7:0.82730591 8:0.41974023 9:0.096445873 #
-0.84928566573976993492323117607157 1:0.82012099 2:1.2265663 3:-0.24064699 4:0.028788639 5:0.74367309 6:1.0349896 7:-0.18852097 8:0.84670454 9:0.18434331 #
-0.54964155035273010163621165702352 1:-0.51217765 2:0.46249631 3:-0.067380175 4:1.4142005 5:-0.16055053 6:0.14081225 7:0.97120446 8:-0.65562755 9:0.58529353 #
-0.040734177126892881504183208107861 1:1.4303122 2:-0.94539291 3:0.57942069 4:1.2006898 5:-1.0306685 6:0.55683464 7:-0.60366428 8:1.9703245 9:1.2757562 #
0.28049850948271315420612381785759 1:-0.89421457 2:0.60446054 3:-1.1011779 4:1.9464793 5:-0.68852478 6:1.1906065 7:0.11850195 8:-0.60285395 9:0.26828599 #
-0.21096721326517017813806376125285 1:0.93607253 2:1.6604038 3:-0.10109973 4:1.3156068 5:0.89761198 6:1.0338765 7:0.92039812 8:0.90826035 9:-0.61345112 #
-0.14792606189415113959739755955525 1:0.6126222 2:-0.60768193 3:1.3802004 4:0.79482251 5:-0.50673395 6:0.24748141 7:0.96786588 8:0.86125761 9:1.499181 #
-0.48270918824478870057248514058301 1:0.17905568 2:0.98958677 3:1.4204673 4:0.88628405 5:0.2404063 6:0.35208216 7:-1.013103 8:-0.02700183 9:0.42579544 #
6.5113741107090623572162257914897 1:0.67341369 2:0.11950188 3:0.42334175 4:1.0359238 5:0.059048936 6:0.57518834 7:0.4946062 8:0.3257727 9:0.94784087 #
-0.26429339143414276591670386551414 1:-1.0265002 2:1.02343 3:0.1242935 4:-0.21369632 5:-0.89166951 6:-0.75174785 7:-0.6811024 8:0.16155457 9:0.71301466 #
0.32555463239362597560599965618167 1:2.1241996 2:2.2087531 3:1.3105609 4:0.99963713 5:0.19998276 6:0.81912625 7:1.9039123 8:0.097497806 9:1.4203421 #
-0.26503469530129469822199439477117 1:-0.14674509 2:0.43318635 3:1.5145067 4:1.3734218 5:0.3159422 6:1.0680919 7:0.69303328 8:-1.0062245 9:0.18690172 #
-0.064879910505328958203463685094903 1:-1.3128673 2:1.0632961 3:1.0232668 4:1.0507228 5:-1.4525537 6:-0.40255627 7:1.9467422 8:0.087724142 9:-1.68407 #
-0.47547132840892436522750585936592 1:0.52881789 2:0.034105077 3:1.2001765 4:0.49025729 5:1.6117357 6:-0.58361775 7:-0.9867571 8:0.40914029 9:-0.056027342 #
