SVM-light Version V6.20
2 # kernel type
3 # kernel parameter -d 
0.5 # kernel parameter -g 
1 # kernel parameter -s 
1 # kernel parameter -r 
empty# kernel parameter -u 
9 # highest feature index 
23 # number of training documents 
1001 # number of support vectors plus 1 
0 # threshold b, each following line is a SV (starting with alpha*y)
1.166760109325813532521465276659 1:1.1308664 2:0.2002575 3:0.4475334 4:1.288445 5:-0.13599595 6:0.39372897 7:0.47794899 8:0.49773991 9:0.50113887 #
-16.128875209689677916458094841801 1:0.3595863 2:0.56642532 3:0.51286381 4:0.322889 5:0.64193243 6:0.52654779 7:0.50957829 8:0.50130826 9:0.50013179 #
15.78645158197813103129192313645 1:0.4142237 2:0.71495253 3:0.55986655 4:0.96098208 5:0.052325133 6:0.6244334 7:0.72106016 8:0.49796975 9:0.49050397 #
-4.6112681539113591355771859525703 1:1.1796198 2:0.42127109 3:0.46665791 4:0.47007236 5:0.85868174 6:0.22356153 7:0.0084509244 8:0.54302794 9:0.48985735 #
-6.004673684577859660294052446261 1:1.0828519 2:1.2066677 3:0.64117807 4:0.73846835 5:0.37902364 6:0.45568904 7:0.31939688 8:0.54012972 9:0.4674733 #
1.1432494909815256178831077704672 1:0.41056237 2:-0.34443921 3:0.18200238 4:-0.063482933 5:1.0808977 6:0.089118101 7:0.08741568 8:0.4911367 9:0.53211415 #
1.4903997118940757182770084909862 1:0.34005514 2:-0.4556936 3:0.26944637 4:0.78736502 5:0.33015677 6:0.4342019 7:0.65172762 8:0.47536144 9:0.51709968 #
-1.7639719316146766914243926294148 1:1.1639386 2:-0.037721489 3:0.31038335 4:0.6619944 5:0.89703131 6:1.090091 7:1.1183956 8:0.57320666 9:0.37199175 #
-1.524689501422340276448608165083 1:1.0089626 2:0.62461579 3:0.15513694 4:0.29008111 5:0.19111662 6:0.73439044 7:1.0841588 8:0.50632727 9:0.41916168 #
-1.1480909085794217538989414606476 1:0.37463188 2:0.051813215 3:1.0227534 4:1.2150191 5:0.76966989 6:0.75145048 7:0.071291201 8:0.57421339 9:0.50535285 #
-1.4541454685668004920273688185262 1:0.87895066 2:0.26228383 3:1.1658618 4:0.55168337 5:-0.062090956 6:0.89621073 7:0.066623062 8:0.64555901 9:0.43992388 #
3.0472739349031301436809826554963 1:0.28228763 2:1.0096488 3:0.50413197 4:0.16361402 5:1.4308381 6:0.0035808885 7:0.022822008 8:0.48743352 9:0.51984781 #
-3.139859976269539831861266065971 1:0.27445799 2:0.60418642 3:0.66504908 4:0.86600417 5:-0.027138757 6:0.020879984 7:-0.35435945 8:0.52870691 9:0.60621589 #
-1.6118302139512483694971933800844 1:0.82516491 2:0.41325232 3:-0.11061813 4:0.87479228 5:0.34278229 6:0.19948077 7:0.41686076 8:0.024030522 9:0.98930001 #
-1.7332512212151902630807853711303 1:-0.37696096 2:0.53834903 3:0.2625204 4:0.78372067 5:0.80078632 6:0.28204849 7:0.39783084 8:0.084884293 9:0.88736439 #
-3.2018531306012341097755324881291 1:0.638686 2:0.38870871 3:0.45508 4:0.80080974 5:0.85828775 6:-0.10352702 7:0.71822256 8:0.94446492 9:-0.071608923 #
0.19362127174598195433752323424414 1:0.21447544 2:0.10672687 3:0.96163529 4:1.0175604 5:-0.049422029 6:0.43859509 7:0.68793476 8:1.1340266 9:-0.15333979 #
-1.8270145565070492477133257125388 1:0.66680574 2:0.91492122 3:0.68793356 4:0.91246462 5:0.67121208 6:0.90864968 7:0.64963651 8:1.0559083 9:-0.0055996892 #
-0.29056970908345963744423556818219 1:0.57008356 2:0.16244771 3:0.35847771 4:0.79878426 5:0.001205498 6:1.1060642 7:0.010467833 8:0.0026178386 9:1.1569412 #
-0.39142288556041465730217510099465 1:1.1654463 2:0.86348289 3:1.1196911 4:0.16130166 5:0.60589218 6:0.093400054 7:0.077154294 8:0.97744608 9:-0.021896923 #
-1.823312101470314194884281278064 1:0.79311311 2:0.28103605 3:0.22212611 4:0.79365522 5:0.069052048 6:-0.38598505 7:0.84985322 8:0.32142526 9:0.28200039 #
3.1314110993536439231377244141186 1:1.0366733 2:-0.13681214 3:0.92572516 4:0.26328599 5:0.3813054 6:0.30616212 7:0.72210515 8:0.23727351 9:-0.056566767 #
-0.96849866083198166144541119138012 1:0.52260208 2:0.44989252 3:0.38062927 4:0.84803438 5:0.032295682 6:0.412274 7:0.25521266 8:-0.29778442 9:-0.06719587 #
-3.0538614551345029113349482940976 1:0.84733146 2:0.52641857 3:0.6367715 4:0.95200473 5:1.0177211 6:0.69092107 7:0.62580824 8:-0.25260156 9:0.38949248 #
0.90095806271973910561712273192825 1:0.74486381 2:0.28658953 3:0.25720289 4:0.56122231 5:0.32906842 6:0.39390963 7:0.38607055 8:1.4292734 9:0.99383819 #
0.96303467496175021445026231958764 1:0.36389109 2:0.33431366 3:0.25396648 4:1.3419069 5:0.18784674 6:0.025158053 7:1.1123086 8:0.70881265 9:1.183026 #
-0.80006845739963960983942570237559 1:0.80074382 2:0.34910578 3:-0.36435029 4:0.80978733 5:0.14641559 6:0.87880111 7:-0.098933764 8:0.83871543 9:-0.096315354 #
1.2050568603189462102420748124132 1:0.39157328 2:0.82547051 3:-0.084226228 4:1.0696111 5:-0.12153385 6:0.33770016 7:0.28023416 8:1.0735617 9:0.37080523 #
0.32510241438492348819977451057639 1:0.93130302 2:0.13977964 3:1.3373771 4:0.68897367 5:0.30047506 6:-0.087855093 7:0.54614848 8:-0.027517486 9:1.2204311 #
-5.1801785193425873288219918322284 1:0.71503955 2:0.40381408 3:0.71378905 4:1.0614114 5:1.1047463 6:0.23488016 7:0.70933092 8:0.77424103 9:1.1205872 #
-1.2106007873677924191468946446548 1:0.6565063 2:-0.22398493 3:0.39221251 4:1.2017276 5:0.53026223 6:-0.13198115 7:-0.033148207 8:0.24200852 9:0.54968011 #
0.49505657185085072402586092721322 1:0.81480211 2:0.79213792 3:0.86089128 4:1.0658981 5:0.21107784 6:0.78486967 7:-0.11422542 8:0.81501532 9:1.2643799 #
-2.1576727833094140329706078773597 1:0.61578965 2:0.29842564 3:0.89542592 4:-0.29016158 5:0.92776006 6:0.11691034 7:0.17880748 8:0.581599 9:1.1292872 #
-1.6382440194530150101570598053513 1:0.86021346 2:0.23106743 3:0.29537994 4:0.90112662 5:0.38196808 6:0.70679849 7:0.29419321 8:0.46451616 9:-0.056085806 #
0.78032843025462894637200861325255 1:0.9666931 2:0.72560263 3:1.2845006 4:1.1119775 5:-0.062990762 6:0.76791662 7:1.1311725 8:-0.031782389 9:0.36433077 #
10.731219785938721500428982835729 1:1.3425205 2:-0.24905032 3:0.29922277 4:0.27411801 5:0.58774805 6:0.36700448 7:0.77603948 8:0.63802636 9:0.86910027 #
-1.6945596752111966587506231007865 1:0.72433954 2:0.54669076 3:0.29595095 4:0.032120161 5:-0.052046843 6:-0.39544722 7:0.14736673 8:0.73104721 9:0.67322648 #
0.081948411652125990878303696263174 1:0.7248587 2:1.522508 3:0.57375658 4:0.57051462 5:0.63555676 6:1.1581722 7:-0.11640486 8:0.37748763 9:0.46077618 #
-0.46288659842818358214344698353671 1:0.84541202 2:0.34193256 3:0.13927889 4:-0.35710898 5:0.55263078 6:0.55417132 7:1.3344643 8:-0.014773179 9:0.63024449 #
2.3374002372625430901109666592674 1:0.92646974 2:0.64770246 3:1.1256663 4:0.88354033 5:0.086406082 6:-0.064640045 7:0.87718451 8:1.0187806 9:0.75571007 #
-3.9800921488818645777030269528041 1:0.85780931 2:0.268114 3:0.24348719 4:-0.29880118 5:1.0983618 6:0.89131886 7:0.18973826 8:0.86572528 9:-0.062538713 #
0.978478599288452599580523383338 1:0.068126127 2:-0.010324229 3:1.160892 4:0.82884729 5:0.42895308 6:0.5534085 7:1.112501 8:0.20415001 9:0.72374463 #
1.7955752366477597536942312217434 1:0.89658034 2:0.56927687 3:0.16859002 4:1.1840398 5:0.18700668 6:0.48584357 7:1.3523487 8:0.50038981 9:-0.10302139 #
-0.32914528563285327944498703800491 1:-0.16895378 2:1.2943172 3:0.86076665 4:1.3066072 5:-0.12266374 6:0.21841773 7:0.31804231 8:0.50516295 9:0.13513172 #
-0.022620976851143129171539669641788 1:0.04635768 2:0.32957 3:0.21086766 4:1.0529639 5:0.10643881 6:1.3839228 7:0.62125468 8:0.98394656 9:0.87461931 #
0.11298073997121883815797360739452 1:1.0058508 2:0.78650975 3:0.83213174 4:0.79180586 5:-0.031327959 6:-0.027049694 7:0.17425121 8:-0.092176542 9:0.78646022 #
-0.13166154146920688861044368422881 1:0.65097475 2:0.36201692 3:0.049066983 4:0.44087693 5:0.54287952 6:0.032633848 7:0.25715351 8:2.0638118 9:1.4612018 #
-1.9110856198119074988994725572411 1:0.57573354 2:0.1604539 3:1.0588702 4:0.2813246 5:0.84290695 6:0.48249573 7:-0.10431876 8:0.48493701 9:0.45287764 #
-3.2092886291632800599415986653185 1:1.0342911 2:0.15803954 3:0.13017416 4:1.2068731 5:0.58526134 6:0.83840543 7:0.33818886 8:0.71944678 9:0.88638794 #
-0.44346788307855528055156923983304 1:1.1565043 2:0.11995056 3:0.90523893 4:0.91467196 5:0.37930584 6:0.61586517 7:1.0022275 8:1.0718254 9:0.32213899 #
-1.0486853887117437711395950827864 1:1.1723394 2:0.68868232 3:0.021888882 4:0.56818777 5:0.028651789 6:1.0392153 7:0.096606687 8:-0.022646595 9:0.49208468 #
2.6319792147018765682275898143416 1:0.28091538 2:0.46622264 3:0.071757257 4:0.026110439 5:0.77643687 6:-0.067423142 7:-0.195265 8:0.02405053 9:-0.014487033 #
0.094416640020802161670232521828439 1:0.38387966 2:0.32123187 3:1.4649963 4:0.80491674 5:0.092635885 6:0.37080362 7:-1.2724428 8:0.68970859 9:0.77248108 #
-1.8960346265229630624560286378255 1:0.54172903 2:0.94347209 3:-0.28534129 4:0.85455793 5:1.0036955 6:0.29878739 7:0.47292623 8:0.26246592 9:0.16224924 #
0.20506047555645068314333911985159 1:0.83087343 2:1.1680249 3:1.0061002 4:0.58481228 5:0.72603542 6:1.1473074 7:0.49210542 8:1.6379412 9:-0.81221044 #
0.41492421958475039778235782250704 1:0.38651851 2:0.61115718 3:0.38237515 4:0.92468482 5:1.2516911 6:-0.81972581 7:1.0221373 8:1.0639627 9:-0.44767177 #
-1.3077471262148550046333639329532 1:0.079437941 2:0.16793625 3:1.1425281 4:0.85104376 5:0.2542963 6:-0.040702496 7:0.36187539 8:0.6218214 9:0.67172658 #
-0.71952310109311701236123326452798 1:0.39567295 2:1.3616178 3:0.015857674 4:1.1352301 5:-0.19890426 6:0.69869077 7:0.25844234 8:0.13151258 9:0.87693942 #
0.50789306937237777006544092728291 1:0.76294905 2:-0.44391954 3:0.26671407 4:0.35321739 5:-0.41026375 6:0.90754962 7:1.0032558 8:0.19072983 9:0.58158946 #
0.072489034632485654929823226666485 1:0.95810676 2:-0.10686161 3:0.53147376 4:0.58704978 5:-0.013039087 6:0.25925264 7:0.20384823 8:0.71109062 9:0.72575539 #
0.62819340375147936228472644870635 1:0.43458351 2:0.61938232 3:-0.12487558 4:0.42322752 5:0.72912949 6:0.92674947 7:-0.0057230284 8:0.50010508 9:1.0337125 #
0.30935285454844285712994178538793 1:0.85231137 2:-0.10645717 3:0.52082437 4:0.37874216 5:0.54387414 6:1.2037314 7:0.65932274 8:0.055393264 9:0.79856128 #
0.40320867078082034407060518788057 1:0.029711727 2:0.17266448 3:-0.11645453 4:0.63916165 5:0.71866345 6:0.17620353 7:-0.067462809 8:0.99966604 9:0.3680647 #
0.11886053129793683336146159490454 1:0.067627601 2:0.83462614 3:0.25630891 4:0.63930762 5:-0.39550751 6:-0.41927162 7:-0.82763815 8:-0.47495866 9:-0.044783175 #
-1.548379649776509436875926439825 1:0.8612802 2:0.41036665 3:0.66528714 4:0.47960135 5:0.22843885 6:0.44523716 7:0.90321118 8:0.22914414 9:1.0127722 #
14.587932858975893424258174491115 1:0.7164678 2:0.20532319 3:0.85160738 4:1.0560845 5:0.31580463 6:0.32991093 7:0.43520293 8:0.44539589 9:0.62946051 #
-1.461355212912894163679311532178 1:0.20345347 2:0.95875621 3:1.0951283 4:0.80248308 5:0.60332227 6:-0.20706357 7:0.55855733 8:0.19273734 9:0.25311941 #
0.081048885988990168605106134691596 1:-0.47865474 2:0.73662472 3:0.94979239 4:0.51495212 5:-0.17137709 6:-0.79138231 7:-0.78080958 8:0.38050127 9:0.52397567 #
0.15150476690079986430426117749448 1:0.15641356 2:0.14564623 3:0.25968182 4:1.0487168 5:0.3126927 6:0.28587967 7:1.106209 8:-0.12303194 9:0.13676961 #
-2.817943717599788566730012462358 1:-0.3409909 2:0.52476299 3:0.16561909 4:0.47734693 5:-0.064423434 6:-0.08664088 7:0.71046746 8:0.60820442 9:0.43692139 #
-0.50586555657781684391949283963186 1:0.13553022 2:-0.1387917 3:0.4774453 4:1.0172023 5:-0.095101811 6:0.52936214 7:0.16093521 8:0.67236382 9:1.2160614 #
0.50009589662193898451647555702948 1:0.582816 2:0.075697705 3:0.40891159 4:0.9087652 5:0.20945856 6:1.1359849 7:-0.44689405 8:1.0867933 9:0.44560325 #
0.5292607127143738043884013677598 1:1.7376324 2:-0.13545735 3:0.65556514 4:0.92964888 5:0.59089714 6:0.5980882 7:-0.11137405 8:-0.086213849 9:0.47693777 #
-1.153139563720653404388372109679 1:0.6708948 2:0.39729282 3:-0.37301305 4:0.99144083 5:0.023482727 6:0.96166301 7:0.95170736 8:0.59876913 9:0.72963148 #
0.99226869140524198709130132556311 1:1.5322481 2:-0.055321731 3:0.54535228 4:0.036319587 5:1.1794947 6:1.1723936 7:0.74818605 8:0.96911734 9:0.71126783 #
0.55254699879834456854865720742964 1:0.82365721 2:-0.35688367 3:-0.055442605 4:-0.52835637 5:-0.14444783 6:1.0970002 7:0.88779551 8:0.42742825 9:0.47936738 #
-0.13871539247089123558787093770661 1:0.95678508 2:1.1865307 3:-0.033540625 4:0.95560288 5:0.0023392357 6:0.044679757 7:0.99177909 8:0.75450218 9:0.95098585 #
0.050855999481834432418558833433053 1:1.7783635 2:-0.2085624 3:0.32220829 4:1.0568203 5:0.8838411 6:1.4675664 7:1.6214665 8:0.75428689 9:0.27880412 #
-0.77736268595323032570831855991855 1:1.0236334 2:0.92108083 3:0.42353469 4:0.68193966 5:-0.25329828 6:0.25181687 7:0.40612906 8:0.72993255 9:-0.34547412 #
-0.40588383658831922451426521547546 1:0.76275492 2:-0.26527622 3:-0.021747503 4:0.43897241 5:1.4147587 6:0.61777687 7:-0.099926114 8:0.070482992 9:0.3764756 #
0.15994016820862394512303694682487 1:0.84137106 2:0.25889128 3:0.32179558 4:1.1796653 5:0.043630205 6:1.4393108 7:0.68116903 8:0.25428027 9:-0.48687851 #
-0.076080535069319069063631388871727 1:0.99768078 2:0.39806733 3:0.97864956 4:1.0030034 5:0.14448419 6:1.2985231 7:-0.70384431 8:1.1621784 9:1.730104 #
0.11895830310671751117723715651664 1:1.1587063 2:0.16010694 3:0.23495626 4:1.2251046 5:0.65922523 6:0.70690858 7:0.021988386 8:0.47628605 9:-0.97655725 #
1.3993697241825253652081073596491 1:0.3475228 2:0.50175309 3:0.6370765 4:0.35882226 5:0.98718613 6:-0.36360523 7:0.021564975 8:1.4452307 9:0.85452837 #
-0.42602400681584834396531391575991 1:0.9897716 2:1.079168 3:0.6723004 4:1.0021391 5:0.052093536 6:1.4461906 7:0.88808197 8:0.79061681 9:0.9658739 #
-0.5580718723749223952879106036562 1:0.27581477 2:0.74943995 3:0.63152564 4:0.76009881 5:0.6737783 6:0.068310305 7:-0.1062521 8:1.1341076 9:-0.31483841 #
-1.7873330901095580980353361155721 1:0.5930025 2:0.30107126 3:-0.15370886 4:-0.053485781 5:0.88030583 6:-0.10734858 7:0.76553619 8:0.61996925 9:0.95840192 #
0.13866899601496360250330042163114 1:-0.3375234 2:1.273083 3:1.493843 4:0.93142962 5:0.57529014 6:-0.79521686 7:0.34368008 8:0.1137004 9:-0.027700074 #
-0.23505873694746176605363530143222 1:0.42036811 2:-1.115314 3:-0.084091492 4:0.49001271 5:0.3151474 6:0.21461573 7:0.3393617 8:0.73145896 9:1.2015151 #
0.020589633293657136348109304435638 1:0.99547881 2:0.056434985 3:-0.27163357 4:0.24127889 5:0.4784348 6:-0.034816261 7:0.35265994 8:-0.50762761 9:-0.036199674 #
0.19671908626950046494741286551289 1:0.98905826 2:0.46244326 3:-0.76248324 4:1.1326603 5:0.48864171 6:0.20405987 7:0.67291921 8:-0.46709138 9:1.4371436 #
0.8509590224060930019334136886755 1:-0.010086006 2:-0.01962374 3:0.95396316 4:1.2060233 5:-0.055239726 6:0.52032942 7:0.016271062 8:-0.035140071 9:0.21004848 #
0.47612007760942354206434856678243 1:0.98215431 2:-0.081052735 3:1.0284607 4:0.94975674 5:-0.038556639 6:0.83811939 7:0.79588664 8:1.1754284 9:1.3435408 #
1.6782428581284183355393224701402 1:0.68907785 2:0.91484755 3:-0.051734071 4:1.188792 5:0.1594464 6:-0.020220375 7:0.3175143 8:0.17685941 9:0.01073936 #
0.34586220090950575700716740357166 1:1.7980067 2:1.6917673 3:0.5345825 4:1.075503 5:0.50817364 6:0.16105208 7:-0.068902619 8:0.71828884 9:0.64724588 #
2.2637750192164038942621573369252 1:0.10510038 2:0.050714999 3:-0.2567696 4:1.5654291 5:0.075280219 6:0.73292857 7:0.16930078 8:0.24387722 9:0.28625098 #
-0.25182225986993950206382919532189 1:0.85605526 2:-0.26646057 3:0.29405451 4:0.4158752 5:1.003855 6:0.73580593 7:0.080941416 8:1.5339353 9:0.80643982 #
-1.3331854024437388428481199298403 1:1.1056161 2:-0.28984803 3:-0.18008557 4:-0.028492605 5:0.74589306 6:0.037968967 7:-0.24496484 8:0.76445818 9:0.073077217 #
-1.0761204704970985801537608494982 1:1.501544 2:0.56679744 3:0.088955529 4:0.94627011 5:0.350687 6:0.048432857 7:0.12643081 8:1.1991624 9:0.42586735 #
-3.0169609582769392197576507896883 1:0.88211161 2:0.31517884 3:0.55536872 4:-0.10096507 5:0.86320627 6:0.070670605 7:0.32581151 8:-0.2255044 9:0.57689661 #
-0.063315669784982778200976838434144 1:0.15571703 2:0.076544449 3:0.81009787 4:-0.22146498 5:1.0470713 6:-0.52484149 7:-0.62266511 8:0.35905445 9:0.55129153 #
-0.83693822321437605360472389293136 1:1.4909098 2:-0.4420903 3:0.50467491 4:-0.52047032 5:0.7372641 6:-0.29700056 7:0.43009138 8:0.81041527 9:1.0465384 #
2.3779555187555372341989823326003 1:-0.49699253 2:0.053184412 3:0.72906888 4:-0.068035483 5:0.80877304 6:-0.0097016823 7:0.28482282 8:0.51008159 9:0.47420269 #
-0.71081936028477665789893080727779 1:0.24534218 2:1.2246046 3:1.0822757 4:0.37278336 5:0.37552804 6:0.77961642 7:0.73829174 8:0.17490295 9:1.0420941 #
-0.2433225906609907951416715832238 1:-0.24972034 2:0.040669929 3:0.063737415 4:0.55766445 5:0.59528518 6:0.81133401 7:0.37816155 8:-0.095930032 9:-0.44899318 #
-4.5489949856389877425044687697664 1:0.35049859 2:0.13642839 3:0.14621262 4:0.41150865 5:-0.0005517368 6:0.83109093 7:0.39639848 8:0.32994205 9:0.36491051 #
0.627297325810942218993204733124 1:0.65048534 2:0.91775388 3:1.3154206 4:1.0829481 5:0.16118744 6:0.65657002 7:0.19351417 8:0.30302876 9:-0.2522198 #
0.075231404530617274062365140707698 1:-0.70856494 2:1.1374109 3:0.52699977 4:0.50765163 5:1.6017088 6:0.2857472 7:0.021952529 8:0.62121093 9:0.60882336 #
-0.50805978455943234806113650847692 1:0.41101328 2:0.56083167 3:0.8746593 4:0.17483279 5:0.27849725 6:1.0390111 7:0.92169881 8:0.87630701 9:0.65808165 #
0.60761722251954231044379639570252 1:0.21864709 2:0.40775138 3:1.2697339 4:1.4307337 5:0.32316834 6:0.8708477 7:0.71439379 8:1.1171343 9:0.98084772 #
2.2917031613023102210036086034961 1:-0.0044943509 2:0.85126609 3:0.20654903 4:-0.44893157 5:0.23347777 6:0.57284915 7:-0.2875571 8:1.0072622 9:0.59658897 #
1.7468436041911139522397888867999 1:1.2421879 2:0.29828787 3:1.0520893 4:0.09495493 5:1.5106946 6:1.051477 7:0.63886338 8:-0.0079550697 9:0.1076732 #
-0.11693595262414767377290303329573 1:0.24716032 2:-0.26816291 3:1.373595 4:1.6739671 5:-0.057497885 6:0.16061983 7:0.84456241 8:1.4894109 9:-0.31839952 #
0.15619959442682676553637577399059 1:0.18724154 2:0.17121816 3:1.8718419 4:1.207647 5:0.16202538 6:-0.72944218 7:0.61283118 8:0.97041118 9:0.91226447 #
-0.28606078398208456547990863327868 1:0.46642482 2:0.90590912 3:-0.31148759 4:0.92789406 5:-0.91112781 6:0.30634272 7:-0.075592555 8:1.4716567 9:0.38358366 #
-12.544336507491722798590672027785 1:0.67623216 2:0.23956758 3:0.66455466 4:0.68515968 5:0.60692167 6:0.8872959 7:0.39194211 8:0.89279264 9:0.61105394 #
-0.79051610327142307621528516392573 1:0.58576506 2:0.33863151 3:0.7178542 4:0.54741901 5:1.0146333 6:0.45157373 7:-0.1216267 8:-0.042897537 9:1.2354991 #
0.06959036389553784063277674931669 1:0.86201686 2:1.0794144 3:0.70682579 4:0.90661186 5:0.27093926 6:0.025384424 7:1.2614264 8:-0.13540897 9:0.43403327 #
-0.010522510432307173242061359985655 1:-0.42840648 2:0.3008092 3:1.9259371 4:1.6758804 5:0.015205416 6:-1.6661848 7:1.0900146 8:1.165468 9:0.77306712 #
0.082774094492666080991050137072307 1:2.567502 2:-0.45408449 3:0.26022527 4:1.0025158 5:1.3657401 6:2.1025248 7:2.069941 8:1.0925676 9:0.57104582 #
-3.7929574488949082677891055936925 1:0.99181986 2:0.81347811 3:0.021017041 4:0.12059292 5:0.29437429 6:0.19660887 7:0.15431195 8:0.63207144 9:0.1326265 #
-0.28393306725061207007598795826198 1:1.1668928 2:0.75882149 3:0.84423262 4:0.88977116 5:1.1226547 6:0.10877289 7:0.9216854 8:0.45506161 9:-0.21668565 #
1.3096072709297101877012892146013 1:0.98227382 2:0.47006091 3:0.31352022 4:-1.1403426 5:1.3849041 6:0.95779526 7:-0.017827008 8:0.90324581 9:-0.35233527 #
2.0572483347368768491492119210307 1:0.3585906 2:-0.088894665 3:0.55094057 4:0.29597089 5:1.490317 6:0.13602193 7:0.70538801 8:0.46407256 9:-0.063412473 #
-0.28214524825312409239685962347721 1:0.95937043 2:0.85127538 3:0.35297784 4:1.0039098 5:-0.22417022 6:1.0876774 7:0.18702014 8:1.1366843 9:0.31109697 #
-0.64760928282318597215549971224391 1:1.674385 2:-0.61757594 3:1.1871697 4:0.19431962 5:0.12032668 6:0.21161698 7:0.96788973 8:0.066390693 9:-0.38808465 #
-0.18701467321757297979090139961045 1:-0.22669618 2:0.98955554 3:-0.91773164 4:0.6322189 5:0.25209317 6:0.89040446 7:-0.29259279 8:0.13275592 9:1.0033407 #
-0.025469278416626092709229567390139 1:0.57826573 2:0.55531633 3:-0.2386799 4:0.33730668 5:0.41185692 6:-0.38838041 7:-0.11571912 8:2.6681416 9:2.0364556 #
-2.0305344413421679838904765347252 1:0.045334648 2:0.53716332 3:0.84384716 4:0.87432134 5:0.050061643 6:-0.2335431 7:0.27472749 8:0.14360471 9:1.1822875 #
-1.1912239630472571949582061279216 1:-0.28866306 2:0.99145752 3:0.41758561 4:-1.0149628 5:0.98043537 6:0.16969626 7:-0.18167607 8:1.1564436 9:0.60334426 #
-0.071125400115020970259749333308719 1:0.69021773 2:0.63463384 3:0.97662973 4:1.3636992 5:0.53011137 6:2.1869504 7:-0.49014619 8:0.78869283 9:0.18031661 #
0.43130898326158911837424625446147 1:0.87809879 2:-0.19312768 3:-0.23504457 4:1.0472195 5:0.35668591 6:0.0026992941 7:0.22395231 8:0.95195442 9:0.29099685 #
0.41101738700140894033907557059138 1:1.163843 2:0.29560244 3:0.62974793 4:1.8183935 5:1.3214185 6:0.027654827 7:0.22003478 8:0.51944709 9:0.3191632 #
0.28025768803792228123228369440767 1:0.54499388 2:0.84411949 3:0.7621457 4:1.130932 5:0.27038968 6:1.2571204 7:-0.12893486 8:-0.18465327 9:0.40994585 #
-0.059743490094169578175087309546143 1:1.0142556 2:0.75930291 3:0.53837621 4:0.95968324 5:1.1883619 6:1.3801118 7:0.34455258 8:-1.1790333 9:0.65081269 #
7.3392818715768983750535880972166 1:0.44501653 2:0.52116001 3:0.26440626 4:0.2337577 5:0.6974712 6:-0.090779282 7:-0.30484313 8:0.32365435 9:0.80814582 #
-0.1487936527609942383154617573382 1:-0.017323483 2:1.68715 3:0.23199029 4:1.1049182 5:0.49356711 6:0.74457717 7:-0.41329521 8:0.40159953 9:1.1622752 #
1.366890799436611292350107760285 1:-0.14213435 2:0.026613276 3:0.080423765 4:0.1400509 5:1.3638344 6:1.0033119 7:0.79630572 8:0.86272889 9:0.90329295 #
0.089751093939968343282664875459886 1:-1.1205025 2:0.8431052 3:1.1289684 4:0.11853861 5:-0.063068323 6:-1.1007525 7:-0.95383859 8:0.20325239 9:0.48481452 #
0.13680984554924738305636822133238 1:0.022793997 2:0.41536793 3:-0.31505466 4:0.24993557 5:0.99687558 6:1.680285 7:-0.24161975 8:1.4088997 9:1.0868037 #
0.87034373310881008034556316488306 1:1.0675386 2:-0.38382977 3:0.74304098 4:0.43452245 5:0.50886667 6:0.45274961 7:0.093129523 8:1.2408998 9:-0.14816512 #
-0.13805070506743150060557923097804 1:0.63111174 2:1.4654808 3:0.85693008 4:1.1038599 5:-0.44753098 6:1.7174473 7:-0.33215997 8:-0.20075648 9:1.0029914 #
2.4324363626958316331183596048504 1:1.0187776 2:0.095101051 3:-0.11782524 4:0.31132877 5:1.4447811 6:0.55422491 7:0.87199664 8:-0.017797906 9:0.58156902 #
-0.15692835792866233202147441261332 1:0.90703708 2:-0.68567556 3:-0.32684892 4:-1.1796452 5:0.14904696 6:1.0042292 7:1.128137 8:0.78625566 9:0.7299487 #
0.0031704139932457954705047331600554 1:0.95929343 2:0.20888191 3:1.1919893 4:0.9615587 5:0.15280619 6:1.6027712 7:-1.4651037 8:1.4354657 9:1.9639633 #
-1.0022380061814755158877687790664 1:-0.37698364 2:0.93051976 3:0.25114584 4:0.88692093 5:0.16243407 6:0.97299874 7:0.57426363 8:0.34339353 9:-0.045738049 #
2.1078126022025629460188156372169 1:0.93115872 2:0.73735714 3:0.84980154 4:0.1645949 5:1.2662872 6:-0.0020693133 7:-0.74817908 8:0.91026974 9:0.27206627 #
1.6574075607359444184396579657914 1:0.96995944 2:-0.062915869 3:-0.18096298 4:0.28191987 5:1.1167787 6:0.36263749 7:0.85254055 8:1.0676479 9:0.086729497 #
-0.28545416367602544083226234761241 1:0.66678888 2:-0.11052463 3:1.0785863 4:0.62529331 5:0.60091501 6:-0.4092541 7:0.037273996 8:0.25650609 9:-0.22177793 #
0.24320890186677740496534738667833 1:1.7499074 2:-0.092783749 3:0.23499694 4:0.62973309 5:0.76827031 6:-0.13860691 7:0.85786772 8:0.28235406 9:-0.056833379 #
-0.36618316805357414844834806899598 1:0.91893893 2:-0.42246592 3:1.2510679 4:1.7349443 5:0.32639897 6:0.25891009 7:0.71650189 8:0.1756909 9:0.84515858 #
0.10067988616503585619366134551456 1:-0.045250989 2:0.88379818 3:0.35973215 4:-0.33383888 5:-0.55431986 6:1.0604693 7:0.40712437 8:0.51184511 9:0.71028298 #
1.3737971781283246919258544949116 1:-0.34439233 2:0.33698273 3:-0.29804528 4:0.094576493 5:0.80950409 6:-0.28311631 7:0.62742561 8:0.73081297 9:0.17236906 #
6.2491446219016815177837997907773 1:0.63998568 2:0.70522839 3:0.10372928 4:1.0340362 5:0.16682893 6:0.50981688 7:0.22131531 8:0.6105426 9:0.9989267 #
-0.038123421966289788853643472066324 1:-0.43129712 2:0.32271737 3:-0.31239954 4:0.81827539 5:0.67596734 6:0.0032985292 7:-0.9810338 8:0.92508638 9:0.46820247 #
0.17063795504918105594427402138535 1:1.7718314 2:0.83929962 3:0.24149571 4:0.84035712 5:-0.76481169 6:1.0705174 7:-0.049167108 8:0.53010738 9:0.05160711 #
-0.056782873057141539097081306408654 1:0.94878447 2:-0.35438061 3:1.7316514 4:0.81042433 5:-0.50835341 6:1.3013039 7:0.71741372 8:1.2001051 9:1.8549907 #
0.25007958354525938737822343682637 1:1.4427847 2:-0.22747001 3:-0.65178823 4:-0.094720274 5:1.5572294 6:0.10812109 7:-0.7701056 8:0.57265151 9:0.080905937 #
0.017522624835979928176188380462008 1:0.31515995 2:0.69863957 3:-0.83835793 4:0.86976582 5:0.30912501 6:-0.92105949 7:-0.17322157 8:3.2428043 9:2.4492726 #
-0.10883811598052041402784340107246 1:0.30346313 2:-1.1950577 3:0.026583651 4:0.6382001 5:0.21976343 6:0.79434031 7:0.36166999 8:-0.017137498 9:0.32376018 #
0.48886680517950314994735094842326 1:0.98734379 2:-0.062048323 3:-0.12921028 4:1.389261 5:1.2063531 6:0.33386323 7:1.4860909 8:0.42145962 9:0.74312025 #
0.78764123408286867977778911154019 1:0.57121259 2:0.55700552 3:0.54791266 4:1.5527369 5:0.094540447 6:0.75061631 7:0.70606923 8:-0.30048928 9:1.1021409 #
0.065959249210097686821896445508173 1:1.1234789 2:0.025439527 3:0.0076643028 4:0.24495755 5:0.88835341 6:1.4281479 7:0.2004794 8:0.27104384 9:-0.1850474 #
-5.5111043142992279797454102663323 1:0.74082476 2:0.70286471 3:0.52255338 4:1.2533275 5:1.016523 6:0.28057232 7:-0.19416481 8:0.63255543 9:0.35655251 #
0.69793791470449040303947185748257 1:0.67967582 2:0.093233027 3:0.90968013 4:-0.099951811 5:0.56112581 6:-0.37710744 7:0.73054075 8:1.2199712 9:0.24263833 #
0.32666229676018354588507008884335 1:1.0758387 2:-0.14173244 3:0.20369837 4:-0.22280614 5:1.0205432 6:0.74708951 7:-0.35219383 8:0.61366755 9:1.1891415 #
-0.37559676750706361136877831086167 1:0.33795112 2:0.29326919 3:0.73303062 4:1.9636348 5:0.072101422 6:0.27577746 7:0.35597762 8:0.79062963 9:0.26403031 #
-0.009887630144384814551150597594642 1:-0.14122821 2:0.66325331 3:0.33379501 4:1.3679585 5:0.63001114 6:0.19841784 7:0.54385966 8:1.4049286 9:-0.68648887 #
0.6311450695085730755451436380099 1:1.3908519 2:0.011820394 3:1.7693113 4:0.94734979 5:0.54205686 6:0.40154937 7:0.25781402 8:0.96774977 9:0.87742084 #
0.19069411867113067460266506714106 1:0.96341741 2:0.41086981 3:0.8686747 4:1.1871825 5:0.17961918 6:-0.53474665 7:-0.10824948 8:0.72263026 9:1.3444057 #
1.4465537113745199349068570882082 1:0.76256269 2:-0.14017136 3:0.87960577 4:0.32577646 5:1.2680993 6:0.4078998 7:1.0428863 8:0.11304344 9:0.94904333 #
0.23269197603668737017734713390382 1:1.1106734 2:-0.35681564 3:1.0484673 4:0.63526976 5:1.0230045 6:-0.20593673 7:0.18255389 8:0.720653 9:0.78949916 #
3.9934364464311129516715936915716 1:1.3928339 2:0.28691617 3:0.25981054 4:0.42006326 5:0.080371298 6:0.21096139 7:1.0220671 8:0.64965892 9:0.21063557 #
-0.48663897395577787596820940052567 1:0.53814971 2:0.2577306 3:0.15587844 4:2.6519158 5:-0.55094975 6:0.18377095 7:0.42990884 8:0.62611902 9:0.090266839 #
-0.20972514654421073321266533184826 1:0.24123324 2:1.191442 3:-0.44419557 4:1.7153239 5:0.059756894 6:-0.095921531 7:0.39737761 8:0.99883193 9:1.2165005 #
-0.32542333076729629270928967343934 1:0.5459522 2:0.51684201 3:0.25356689 4:1.1950792 5:0.59090436 6:1.1028399 7:1.3869523 8:-0.015475171 9:0.67155796 #
0.42279346774200998737569534569047 1:0.8451792 2:1.3289418 3:0.12590857 4:0.4385142 5:1.5983907 6:-0.31636077 7:-0.55691874 8:0.079384208 9:0.20102236 #
0.025717449606691956953685718190172 1:0.93793511 2:-0.04792463 3:1.5912287 4:0.10492808 5:0.9165777 6:0.75864685 7:1.2576159 8:1.2234193 9:-0.23978685 #
-0.68622276341746957228906467207707 1:0.43101063 2:-0.59603399 3:0.51807773 4:0.94968104 5:-0.71151978 6:-0.21246168 7:0.60922819 8:0.74558502 9:0.410624 #
-0.093826664391411115917485119553021 1:0.65068668 2:1.8520333 3:0.54096299 4:0.74243581 5:0.75915974 6:0.29902598 7:0.84448236 8:1.1937625 9:0.46636829 #
0.039833123978741849513518502590159 1:0.74172276 2:1.782995 3:1.53101 4:0.08749789 5:0.2135947 6:0.6199007 7:0.13896863 8:0.031958342 9:0.916924 #
-0.032336882855616359833117456901164 1:-0.10887907 2:0.25864652 3:0.76298714 4:1.4582303 5:-0.38571668 6:1.1064012 7:1.1823728 8:0.40385181 9:0.39105615 #
0.87532889779816314135274524232955 1:0.49720106 2:0.35569328 3:0.28555492 4:0.86315364 5:0.38354737 6:0.23648927 7:1.1713511 8:0.70553374 9:0.53885812 #
0.58552166512300807266200308731641 1:0.39847764 2:0.96066982 3:0.4784902 4:1.536548 5:-0.38852066 6:0.1556548 7:0.91062266 8:0.23919776 9:0.34664628 #
0.019269143891354274106264554689005 1:1.2418293 2:0.51024771 3:1.0231771 4:0.83068776 5:0.83931041 6:-0.098429658 7:1.4836694 8:1.4905653 9:1.2501358 #
0.046047788272167620993169379062238 1:1.2401186 2:-0.14958714 3:-0.1201748 4:1.814242 5:1.6193727 6:0.2995069 7:2.1364143 8:0.32176358 9:1.1109233 #
0.061250182255128460262483258702559 1:0.85937142 2:-0.94720435 3:-0.51042634 4:-1.841476 5:-0.095706791 6:0.88549936 7:1.1567032 8:1.0716438 9:1.0474691 #
-0.6860330290380949325168558061705 1:0.098534137 2:1.1390452 3:0.95330757 4:-0.29838511 5:2.0472343 6:-0.57109916 7:-0.89706594 8:0.39443293 9:0.32497483 #
0.024199403556894805850108198796988 1:0.32401592 2:0.70480806 3:0.64983612 4:0.35833588 5:-0.33151981 6:0.52096838 7:1.0115308 8:0.032489162 9:-0.29914653 #
-0.22343585290426559719634269640665 1:-0.19790916 2:-0.41424659 3:0.67043269 4:0.30261698 5:1.9144636 6:-0.2451092 7:0.26101163 8:0.38181263 9:0.66204458 #
-1.7536029842201688033753725903807 1:0.7179783 2:0.52862185 3:0.83456236 4:0.70568824 5:-0.42599821 6:1.2031391 7:0.7561208 8:0.20905381 9:0.45266753 #
-12.146349124919579409720427065622 1:0.45610982 2:0.35374847 3:0.0026125021 4:0.65939867 5:0.21265382 6:0.0089533962 7:0.16278403 8:0.60151434 9:0.57905483 #
0.18429256458043050126427431223419 1:0.81603223 2:0.06617412 3:0.076191455 4:1.3180184 5:-0.33723953 6:-0.9237119 7:0.2063178 8:-0.19320405 9:0.64091837 #
0.38379887128450140831859016543604 1:0.58512276 2:1.1038377 3:0.67284632 4:1.7623724 5:1.6983387 6:0.30058143 7:-0.46669403 8:0.82617038 9:0.01118646 #
-0.33719052807768196133864080366038 1:2.0073979 2:0.44401273 3:0.76094842 4:0.42051712 5:0.85595876 6:0.13476355 7:-0.53431988 8:0.52294338 9:0.49755439 #
-1.969793151332197345126928667014 1:0.77235132 2:0.076576017 3:-0.080832884 4:0.73027927 5:0.54270214 6:0.63755983 7:-0.11293023 8:0.20074533 9:0.52637899 #
-1.7830172640744825773850834593759 1:0.86254197 2:0.6114794 3:0.54526037 4:0.88986999 5:0.50674194 6:1.0696845 7:0.5066933 8:0.16405484 9:0.69339681 #
-0.10503095802039259798466019901753 1:0.19847757 2:0.78844237 3:0.4409669 4:1.2952031 5:1.652687 6:-1.3657494 7:1.1682503 8:1.302868 9:-0.96595109 #
-0.31769124622267852497969897740404 1:1.802537 2:-0.22358789 3:0.34099916 4:1.8965168 5:-0.50176013 6:0.82763058 7:0.6174866 8:0.60208827 9:0.63645434 #
0.69629803701164172391457896083011 1:0.9319247 2:0.52487093 3:0.7933833 4:0.58759338 5:1.3958638 6:1.692392 7:0.80403477 8:0.27351496 9:1.0246203 #
-0.15418810107414293586458597928868 1:0.19682899 2:1.1943955 3:0.71902496 4:0.78291255 5:2.1140089 6:0.093388803 7:0.46577141 8:0.6373961 9:1.2345794 #
-0.63039606318246255156623192306142 1:0.96823311 2:0.52396744 3:1.3005263 4:0.33550432 5:1.1556093 6:-0.24279533 7:-1.5704451 8:1.2646582 9:0.39813113 #
2.7769248836855870976592086663004 1:-0.013151622 2:0.16794601 3:0.71982539 4:0.36429501 5:1.2175153 6:-0.30785537 7:0.34613356 8:0.05602885 9:0.93565863 #
0.17449167407456994682846129762765 1:-0.1135211 2:0.58927912 3:0.55852264 4:0.6756776 5:-0.84403288 6:0.73548007 7:0.88578683 8:0.84600365 9:1.002414 #
-0.049808732939482687485099887680917 1:-0.56393158 2:0.33269364 3:1.3724577 4:1.9463642 5:-0.4121559 6:1.0032493 7:1.6281551 8:-0.15165925 9:0.45177054 #
0.071096657234496346555729928695655 1:-0.23239261 2:0.01243659 3:0.80887967 4:0.50646693 5:0.92636251 6:0.86514771 7:-0.51343763 8:1.2607067 9:0.76521707 #
4.1821971740918399973452324047685 1:0.23685606 2:0.39571133 3:0.80977833 4:0.025598424 5:1.1142516 6:-0.1094017 7:-0.028885936 8:0.47098294 9:-0.10469477 #
-0.53277865896074383389446893488639 1:-0.821823 2:0.11919575 3:0.020893468 4:1.9794407 5:-0.20896415 6:0.58761084 7:-0.050933205 8:0.080344185 9:0.15066931 #
-0.027990701786354616614760359993852 1:0.085635379 2:0.13121067 3:0.48315868 4:1.2044166 5:-0.33223772 6:0.49581555 7:-0.062649682 8:-0.95552635 9:-0.50107718 #
-0.3557167145166453825488872553251 1:0.70422083 2:-0.30296144 3:0.96236128 4:0.34342769 5:0.36371383 6:0.25015795 7:0.01405625 8:0.14945695 9:1.1439154 #
0.18290323546628053930085400224925 1:1.1605763 2:0.23806755 3:-0.15029611 4:3.371186 5:-0.79959393 6:0.37513173 7:0.46233478 8:0.74173683 9:-0.31253952 #
-1.6966241039666132284224886461743 1:0.45396379 2:1.3661559 3:0.35269463 4:0.57040042 5:0.29695296 6:0.17203777 7:0.49675784 8:0.71153235 9:1.1189853 #
-0.047767588668201049761918852709641 1:1.1739992 2:0.60794109 3:-1.3878344 4:1.3952719 5:0.67127776 6:0.25000104 7:0.86089313 8:-0.95328289 9:2.0037048 #
0.41026416964446460466930943766783 1:0.65761453 2:1.1918488 3:0.062339798 4:0.95428884 5:-0.24653021 6:1.1494867 7:1.217555 8:-0.13893117 9:0.31692857 #
-0.051165069817606365076834151750518 1:1.2137665 2:0.27469045 3:-0.28235334 4:-0.47642714 5:0.97784311 6:-0.24325566 7:0.084165439 8:-0.40722972 9:0.82526809 #
-0.1063460808603410301387270919804 1:1.6343451 2:0.35537452 3:0.32900351 4:0.62024558 5:0.28338632 6:0.1618883 7:1.3890262 8:0.033407584 9:1.1268413 #
0.24631634641829597276441177200468 1:0.99751252 2:0.53766644 3:-0.017890273 4:1.8588371 5:0.4490844 6:1.3477479 7:-0.065634124 8:0.92011935 9:1.2281337 #
-0.58722224399077760370602163675358 1:1.0000157 2:0.23451698 3:0.86917371 4:-0.98854929 5:1.4536244 6:0.43971911 7:0.56720448 8:0.43134063 9:0.61357737 #
1.6549887978706419033869678969495 1:0.23932886 2:0.1161766 3:0.45685717 4:-0.47195125 5:-0.45438552 6:0.95817846 7:-0.38208199 8:0.18032643 9:0.36445361 #
0.018496047910399653069202230426527 1:1.4786266 2:0.50591511 3:-2.2035272 4:1.5102245 5:1.1439965 6:0.31046864 7:1.2480679 8:-1.0991533 9:2.539052 #
-1.2608581003072549808763369583176 1:0.52561885 2:0.55896544 3:0.70078552 4:0.3411127 5:0.046953488 6:0.27530783 7:0.29780927 8:0.91196555 9:0.078492656 #
-0.30959849316126403229176844433823 1:1.9407283 2:0.12992226 3:-0.02981711 4:0.50976729 5:0.29975358 6:1.1674194 7:0.56655616 8:1.1506263 9:1.1772432 #
-1.8592481166476482190574870401178 1:0.81993127 2:-0.24575074 3:0.88760811 4:1.3499767 5:0.7899887 6:1.0512856 7:1.1383812 8:0.4349806 9:0.19234249 #
0.0071548830054979119241753693358987 1:0.19491813 2:0.34971821 3:0.55021584 4:0.60217255 5:0.18429375 6:-0.12988609 7:2.0635002 8:0.56756622 9:0.651357 #
-0.20430947084770437194300995997764 1:0.72764891 2:1.061897 3:-0.44179988 4:1.0854443 5:-0.48988736 6:-0.27699465 7:0.67679501 8:-0.43580604 9:-0.1658977 #
0.54609866469581080927753191645024 1:-0.0013537252 2:-0.12986077 3:-0.16027817 4:1.6545477 5:0.33005017 6:0.75121248 7:0.74602091 8:0.8918047 9:1.1120988 #
-0.42226631566071098911052672519872 1:1.1887597 2:0.71320689 3:0.11640207 4:-1.9262182 5:1.7966193 6:0.95718151 7:-0.22724876 8:0.98644614 9:-0.55590546 #
0.42433516533869347631124924191681 1:1.1662642 2:-0.0082200291 3:0.1935849 4:1.0833021 5:0.44015995 6:0.018399727 7:0.43445897 8:1.3205529 9:1.7367808 #
0.61903659972814384371275764351594 1:1.5509924 2:0.11119227 3:0.36923558 4:0.28959292 5:-0.049779706 6:0.3949064 7:0.80605125 8:-0.44299278 9:0.49427679 #
0.027995118329120660671804898811388 1:-0.91432703 2:0.34636772 3:1.9996222 4:2.1213338 5:-0.3050704 6:0.88188094 7:1.8723032 8:-0.5737288 9:0.4916296 #
-0.50246027303779483563772600973607 1:1.1322114 2:-0.18126056 3:-0.23462619 4:0.41503027 5:2.3708482 6:0.62073547 7:0.97372758 8:-0.50396872 9:0.49761555 #
0.26649710644363489020491897463216 1:1.3518393 2:0.56540757 3:0.3918182 4:0.64139283 5:-0.024923332 6:0.26780358 7:-0.27742326 8:0.12363868 9:0.56472009 #
0.37329832840704058050107505550841 1:0.76749527 2:0.074691698 3:0.80092299 4:-0.74098867 5:0.70918936 6:-0.35780588 7:0.86296898 8:-0.079003304 9:-0.1841564 #
-0.026431411059654949524677647332283 1:1.6326057 2:0.009024607 3:1.2194575 4:1.071242 5:0.38314605 6:0.88824755 7:1.3663969 8:1.8503736 9:0.39096758 #
0.49022977845356535686605070623045 1:1.2980022 2:1.4592465 3:0.47435433 4:-0.055251632 5:1.1848649 6:0.26959774 7:0.015996773 8:0.52406132 9:0.99653918 #
-0.26443929034143193179673403392371 1:1.7560652 2:0.5730722 3:-0.11872651 4:1.2143234 5:0.99658048 6:0.37419206 7:0.84661525 8:0.24774809 9:0.61078256 #
-0.29253711371477825187170651588531 1:-0.4769187 2:0.85664493 3:0.51915437 4:0.71853447 5:-0.029234974 6:0.45518938 7:-0.3792094 8:1.2188861 9:0.71258938 #
2.3618342352414742890687193721533 1:1.2040952 2:0.48467755 3:0.094163418 4:0.90618229 5:0.17964624 6:0.29266748 7:0.82032132 8:-0.063475184 9:0.28423807 #
0.69711885804076301198506371292751 1:0.84367073 2:1.141746 3:1.4194138 4:0.32517499 5:0.83857262 6:-0.25719339 7:-0.33354461 8:0.49113992 9:0.7804175 #
0.017533560644868110417471385176214 1:1.7436459 2:0.30597064 3:0.76031953 4:2.4251304 5:1.8942595 6:-0.15778981 7:0.35240829 8:0.52210057 9:0.47886434 #
0.0043025838420761297609118400941952 1:0.47376269 2:0.093234621 3:0.65150237 4:1.3511957 5:0.71603566 6:0.50492102 7:0.38054204 8:1.7622907 9:0.69520158 #
0.06165124473172065022730237160431 1:-0.86992997 2:0.74902368 3:-1.5202078 4:0.44819292 5:0.32731307 6:0.79815751 7:-0.72732365 8:0.24564813 9:1.4542248 #
-0.19912516777494795872094357491733 1:0.86708808 2:1.6044058 3:0.83316177 4:0.81773466 5:-0.51337063 6:0.16760193 7:0.7115761 8:0.47331506 9:1.4008824 #
-0.57639296204184420346905426413286 1:1.6663185 2:0.35865027 3:1.4886295 4:-0.08494366 5:1.9859433 6:1.5020262 7:0.71901315 8:-0.16348271 9:-0.17369914 #
-4.86289490988920558578456621035 1:0.95032746 2:0.54301369 3:0.7173388 4:0.48306355 5:0.49364761 6:-0.18828006 7:0.30735061 8:0.85702419 9:0.79429436 #
1.3376603152586243883348515737453 1:0.3106077 2:-0.1070585 3:0.9641279 4:1.4363736 5:0.12542027 6:0.91157651 7:0.77185661 8:-0.2168193 9:-0.10260982 #
-1.0323946555853886763998161768541 1:-0.20248373 2:1.0092533 3:1.0654863 4:1.2279887 5:0.037646737 6:1.0478418 7:-0.21170054 8:0.76851726 9:0.28176731 #
-2.3164831339647649066648682492087 1:0.70711625 2:0.48791981 3:0.65245235 4:0.54712015 5:0.60086793 6:0.40964967 7:1.0695032 8:0.34369317 9:0.086936973 #
-1.2027779032061935993169754510745 1:0.48971635 2:-0.068150677 3:0.085225448 4:1.1829464 5:1.2656856 6:0.006893727 7:-0.034576125 8:0.77223623 9:1.2842069 #
0.3315953077708675977852692540182 1:1.5015314 2:0.66457355 3:0.3179225 4:0.69316918 5:1.5991662 6:0.43519038 7:-0.058317639 8:0.74550599 9:0.64168137 #
-2.4011419518462986388840363360941 1:0.28394672 2:-0.030621823 3:0.13394551 4:0.92520136 5:0.30161762 6:0.59661669 7:0.76539785 8:-0.035954773 9:1.0223039 #
1.5369974555559902107404468551977 1:0.41348067 2:1.122821 3:1.0828369 4:1.2177874 5:-0.26048538 6:0.16044067 7:0.26713243 8:0.94928122 9:0.81244946 #
-0.34312155815956763005303287172865 1:0.026567759 2:0.60694575 3:0.9335143 4:0.77926624 5:1.0274848 6:-0.86890948 7:-0.12892473 8:1.9132394 9:0.89953345 #
-0.74162645227199985864530162871233 1:-0.14012778 2:1.3024037 3:0.41288579 4:0.68883485 5:0.29861778 6:0.44725469 7:-0.22854453 8:-0.17298467 9:0.082585216 #
0.68421932793134887518249342974741 1:1.1972463 2:0.47229117 3:0.15408365 4:1.3513955 5:1.003505 6:1.2872901 7:-0.43411332 8:0.77991551 9:0.1750457 #
-1.1299714452435405398489365325077 1:1.3696351 2:0.6197927 3:0.47207975 4:-0.42054585 5:1.1358231 6:0.31504926 7:0.36609817 8:1.1487505 9:0.63060814 #
0.058806960222939227977967391325365 1:-0.2101994 2:-0.34217775 3:0.14594531 4:0.9931466 5:0.57192951 6:0.81825441 7:1.5269942 8:0.83972663 9:-0.0054817344 #
-0.19816467103283197381813351967139 1:1.2403734 2:1.1473843 3:2.2428939 4:0.31985486 5:0.7299155 6:-0.44711599 7:-0.33306333 8:0.82376909 9:0.63875222 #
0.33433085816243535148828414094169 1:0.39212549 2:-0.074839048 3:0.83193755 4:1.4424839 5:0.18916844 6:1.2886291 7:0.65163177 8:0.90115952 9:0.31424963 #
0.61958129101410763794888225675095 1:1.1075525 2:-0.28000283 3:0.65751773 4:0.50508118 5:1.6109138 6:1.248976 7:0.10102747 8:0.42025504 9:1.007989 #
-0.73609431115752721463962870984687 1:0.37186429 2:1.0975208 3:0.35488307 4:0.90028304 5:-0.2229667 6:0.8882001 7:1.1104715 8:0.26389107 9:0.72873545 #
1.5849972838855947987468653082033 1:1.2248578 2:-0.16417943 3:0.33680704 4:1.0179051 5:0.70377898 6:-0.21976385 7:0.80132377 8:-0.038831208 9:0.7442615 #
-1.2251515174236173866262333831401 1:0.99137264 2:0.08478003 3:0.22958502 4:1.0370016 5:-0.93533623 6:0.17263284 7:1.117746 8:0.30053857 9:0.33987424 #
-0.47740919394182362855971746284922 1:1.3189119 2:0.74807477 3:0.79724151 4:0.22726992 5:0.74505889 6:0.30513516 7:-0.19511658 8:-0.011244487 9:-0.40024704 #
-0.22643949939212135169519513056002 1:0.054579802 2:-0.12618747 3:-0.37854457 4:1.3047898 5:-0.10541951 6:1.4747758 7:-0.14617485 8:-0.33051735 9:0.67841929 #
-0.43383261954165019957940785388928 1:0.5517053 2:1.1364218 3:-0.23363279 4:0.71960723 5:0.24563952 6:0.74621648 7:0.73618889 8:0.64083564 9:0.14915268 #
6.9819778970232873049894806172233 1:0.75889957 2:0.93250012 3:0.77212471 4:-0.045133051 5:0.75795883 6:0.52811432 7:-0.11743884 8:0.73768848 9:0.55850947 #
-0.058119809295360161383037223004067 1:-0.27408689 2:0.049998544 3:0.94904023 4:-0.41294852 5:0.80192637 6:-0.94903916 7:-1.2999705 8:0.22967188 9:0.78974169 #
0.026979605022974733480323195067285 1:1.0100065 2:0.50496703 3:0.6563279 4:-0.22817017 5:0.94039404 6:-0.35824367 7:0.11256231 8:-1.1906626 9:0.31048411 #
2.3372653988755169862656657642219 1:0.69949317 2:0.11748331 3:0.2404332 4:-0.16420987 5:1.0770322 6:0.99102598 7:0.58061922 8:0.30187055 9:0.69109178 #
6.7133424493274089783767522021662 1:-0.0087282043 2:0.067916133 3:0.24439813 4:-0.18121833 5:-0.007381984 6:0.95754516 7:0.098512605 8:0.82242668 9:0.48775366 #
0.043674859897730129720816449889753 1:0.0425913 2:0.3293874 3:0.20677523 4:0.89844531 5:0.46428365 6:-0.071058936 7:1.4548525 8:-0.83025408 9:-0.30950648 #
0.047771085291407680561981408118299 1:0.50995749 2:0.24306515 3:1.2440519 4:0.26041666 5:-0.41436738 6:-0.37230089 7:1.3179401 8:0.59859276 9:0.76582581 #
0.33420592178047925369099857562105 1:0.65928739 2:1.0662557 3:0.28004107 4:1.0863261 5:0.04693025 6:1.0734814 7:0.4619118 8:0.69373816 9:-0.53917539 #
0.27875067978782058775166774466925 1:0.67530191 2:0.56485915 3:1.8164276 4:0.22632696 5:1.1175017 6:-0.56046849 7:-2.1484663 8:1.7121886 9:0.093457744 #
0.24437350038714286681873488760175 1:0.66178775 2:-0.3613646 3:0.91070276 4:1.7653505 5:1.1927129 6:1.4400631 7:1.6969192 8:-0.14197083 9:0.13579486 #
-0.28224073654095749308368112906464 1:0.54896766 2:-0.084100336 3:0.24950103 4:0.49927315 5:-0.33742344 6:0.97326559 7:0.84641039 8:1.4258413 9:-0.12478794 #
2.5962228353532394997671417513629 1:1.6560574 2:0.051307924 3:0.86109233 4:0.79073793 5:0.60529339 6:0.085974775 7:0.40784284 8:0.75151378 9:0.043560568 #
-0.0026185439682197319058443163442007 1:0.78664601 2:-0.18306267 3:-0.15813613 4:0.51838642 5:1.3192872 6:-0.55469304 7:0.7496466 8:0.23339625 9:0.2016851 #
0.024270866231070182400531010102895 1:-0.74969304 2:-1.2093974 3:0.83601314 4:0.34744713 5:3.0600445 6:-0.31481072 7:0.057437226 8:0.3687081 9:0.83480293 #
-0.18824096768798664891519933917152 1:1.6823882 2:0.52715725 3:-0.70547718 4:0.56862444 5:0.11823902 6:0.7287088 7:1.4660329 8:0.18123174 9:-0.15988426 #
0.15219331172226568948957492466434 1:1.6027442 2:1.0080138 3:-0.043650359 4:-2.6511087 5:1.9638741 6:1.0300393 7:-0.49331883 8:1.1195031 9:-0.73033953 #
0.26641539102393341220675893055159 1:0.2692982 2:0.3214606 3:1.6066936 4:1.238736 5:-0.20592535 6:-0.093489952 7:0.89963138 8:0.17506994 9:0.32761642 #
-0.11592688984930689388708202613998 1:0.83606857 2:0.43998963 3:0.11578796 4:0.60466206 5:0.62683654 6:0.46588069 7:2.1786277 8:0.60275829 9:0.085082956 #
0.28901283931379917468973417271627 1:0.44892243 2:0.88840944 3:-0.29278818 4:0.20458257 5:1.1728024 6:-0.044901121 7:-0.1937172 8:1.2606219 9:0.32665494 #
1.335247414271224508652835538669 1:0.47971931 2:0.30013403 3:0.77984035 4:0.56147903 5:0.84484893 6:-0.032598205 7:0.18877073 8:-0.47361887 9:0.12473254 #
0.079748470306129304319142647727858 1:1.204007 2:-0.055031203 3:1.0071273 4:0.17432864 5:0.99092329 6:0.11606611 7:1.6077703 8:0.16391478 9:-0.10668412 #
-0.17623603281793662200804817530297 1:1.5182991 2:0.42387831 3:0.28608942 4:0.42418817 5:0.10559637 6:0.59441972 7:0.095718578 8:0.64431739 9:1.3477042 #
-0.07478083875501106980721033323789 1:-0.57564646 2:-0.54003662 3:0.57948327 4:1.2061214 5:-0.53421479 6:0.42237023 7:0.23224087 8:0.70106131 9:1.7333827 #
-0.61969479541455518845083361156867 1:0.35564291 2:-0.062784545 3:0.27669668 4:1.3160661 5:-0.051498216 6:-0.11649928 7:0.31377214 8:0.40235972 9:-0.42872676 #
-2.243118039271072117202265872038 1:0.50939858 2:-0.042457439 3:0.069628544 4:1.1283188 5:1.2883112 6:0.20380352 7:0.27175754 8:0.58523166 9:4.5185221e-05 #
-0.13931040114627665782442988984258 1:0.94037122 2:0.42159277 3:1.0129852 4:1.1763083 5:0.23329632 6:0.08759477 7:-0.18726633 8:1.0823495 9:-0.0098711895 #
-1.7276464661410302348087952850619 1:0.72187167 2:0.047058225 3:-0.23464383 4:-0.072040632 5:0.59164649 6:0.050737418 7:0.739833 8:0.37507999 9:-0.0099877222 #
7.3798554107178411243239679606631 1:1.1677012 2:0.095230527 3:0.83219129 4:-0.087569468 5:0.86289078 6:0.87715799 7:0.89184517 8:0.72944605 9:0.31194958 #
0.34301977354713758527893219252292 1:0.58078885 2:1.0866677 3:0.97055233 4:0.637362 5:1.5280241 6:0.36586413 7:0.50963002 8:-0.71633399 9:0.437388 #
-0.19885636646353732626124610760598 1:0.20804432 2:-0.3160257 3:0.58712888 4:-0.43214589 5:1.0074227 6:1.0904278 7:-0.69570762 8:0.14499253 9:0.14052036 #
-0.78094479024335206052143121269182 1:-0.059054833 2:-0.22365215 3:0.55426294 4:0.44566429 5:-0.18711086 6:-0.15830375 7:0.84780633 8:-0.1218563 9:0.76936805 #
-0.23325641670918301207038325628673 1:1.5330175 2:0.85723048 3:0.023872083 4:1.7307696 5:0.13563973 6:-0.37704757 7:0.74636501 8:-0.2600964 9:-0.064378202 #
-5.8013976129807431902918324340135 1:0.8892222 2:0.17946823 3:-0.078032866 4:-0.20926255 5:0.78181773 6:0.57396764 7:0.18208614 8:0.93270314 9:0.80688423 #
-4.3968435576398920971996631124057 1:0.56849593 2:0.79898733 3:0.45045245 4:0.50430804 5:0.019812979 6:0.22414376 7:0.35002178 8:0.10778451 9:0.54382426 #
1.0243171360168752404007364020799 1:0.09020859 2:0.028937103 3:-0.052011237 4:0.64754122 5:0.84352946 6:0.16295829 7:0.415941 8:0.87181598 9:1.0780059 #
-0.063204365854452299045007634958893 1:0.25762326 2:0.072786964 3:0.6701355 4:-0.055942498 5:1.2483172 6:0.17115314 7:0.32172996 8:1.3274082 9:0.27521124 #
-0.17253280907361057128213133182726 1:-0.79494226 2:0.22326976 3:0.62023562 4:-0.68551117 5:0.89670128 6:1.0925722 7:1.0202571 8:0.8142817 9:0.92584193 #
-0.04167370492412174332041985280739 1:0.29759106 2:0.14403532 3:-1.0570408 4:0.68524271 5:0.49664059 6:-0.3002913 7:-0.026188644 8:1.4867659 9:0.21769099 #
0.11298561021363315304277818995615 1:0.38114166 2:-1.0453515 3:-0.10450736 4:1.4482692 5:0.93302822 6:-0.36193433 7:-0.095006742 8:0.76205319 9:0.26528695 #
0.26640679809992251492190007411409 1:0.22975422 2:0.14027967 3:-0.1030824 4:1.3188804 5:0.12667069 6:0.17441863 7:1.1203419 8:0.99034226 9:0.0052329563 #
-4.3331253912368028480273096647579 1:1.0886838 2:0.53114903 3:0.74460411 4:0.6184985 5:0.013112959 6:0.99630266 7:0.84705406 8:0.68648565 9:0.26877722 #
1.5706919647171009302155653131194 1:0.29205325 2:0.072113827 3:0.95181113 4:1.2165285 5:-0.24831401 6:0.69642234 7:1.097067 8:0.63558477 9:1.0981582 #
0.18615333479181878084673940065841 1:1.6675287 2:1.169866 3:0.2062017 4:1.9221566 5:0.37605688 6:-0.81923455 7:0.053553045 8:-0.47690082 9:-0.23456076 #
13.328761075379281564323719067033 1:0.65092921 2:0.79615074 3:0.2321711 4:0.27883834 5:1.0168983 6:-0.025238464 7:0.017189464 8:0.71235603 9:0.12962073 #
0.025105074572600562243795963013326 1:0.81852418 2:-1.0230349 3:1.7542621 4:2.211524 5:0.28594998 6:0.32390043 7:0.95433879 8:-0.1250181 9:1.0380787 #
0.53261029267198689574058789730771 1:0.70001984 2:0.97425973 3:0.73736644 4:1.1844344 5:-0.11794019 6:0.21085227 7:1.091906 8:1.4411813 9:-0.22145674 #
-0.5244823935700384520686156974989 1:1.0657943 2:1.0501924 3:1.65767 4:1.1203099 5:-0.35351712 6:-0.49880832 7:0.93104786 8:1.6849862 9:0.95030075 #
6.7208339566142347720756333728787 1:0.095914207 2:0.15963218 3:0.40833408 4:1.2905849 5:0.13884014 6:0.21925253 7:0.33123994 8:0.56839645 9:0.39593646 #
0.038282903973205925640677094179409 1:-0.090361461 2:-0.48157957 3:-0.83397305 4:1.3149748 5:-0.18416339 6:2.0932307 7:-0.56364536 8:-0.68355763 9:0.95781201 #
-2.4588845533911150020855984621448 1:1.1405925 2:0.85723078 3:-0.096492842 4:1.0751727 5:0.69867426 6:0.61125863 7:0.76198983 8:1.0951968 9:0.56702435 #
0.25839074287670460439159114685026 1:0.31950015 2:0.036498684 3:1.636096 4:0.48572919 5:0.41610169 6:1.0980737 7:0.014065078 8:0.32676759 9:1.110707 #
-0.21297099072748373882468797546608 1:0.63945585 2:-0.29332271 3:0.19798452 4:0.72536629 5:0.93652248 6:0.23524722 7:-1.0508615 8:0.21920598 9:0.33459923 #
-0.92451576312642003152575398416957 1:-0.51924503 2:0.15844208 3:0.11040315 4:1.1392308 5:-0.052671976 6:0.77227885 7:-0.031580992 8:0.84502983 9:0.0042208731 #
-4.8958647191220601158079261949752 1:0.36447972 2:0.044235248 3:0.4711493 4:0.84972918 5:-0.076480068 6:0.60440147 7:0.43192935 8:0.96577644 9:0.45001942 #
-1.1301472694150549447300591054955 1:1.8610845 2:-0.84518677 3:0.23886803 4:-0.033045892 5:0.98592556 6:0.58885032 7:1.4999937 8:0.69002253 9:0.93983614 #
0.30792799413483706860716893061181 1:2.3012216 2:-0.83914286 3:1.3654723 4:0.12570499 5:-0.011147083 6:0.085638851 7:1.224076 8:-0.44233486 9:-0.66133779 #
9.4449586170478223579038967727683 1:1.1904317 2:-0.15814763 3:0.031787861 4:0.26833025 5:1.0093673 6:0.94634551 7:0.39507014 8:0.63187206 9:0.30186296 #
-2.2245085634081513958903997263405 1:0.43060887 2:0.23414686 3:0.3990123 4:0.61737698 5:0.66634792 6:0.47148463 7:-0.2274857 8:0.84673685 9:1.1908746 #
0.38303259555685387205414826894412 1:0.71058106 2:1.3020999 3:-0.012951713 4:-0.50931585 5:-0.21468183 6:0.43699709 7:-0.32738933 8:0.25050515 9:-0.48757568 #
0.033099001784717363428001135616796 1:0.57309306 2:1.2234004 3:0.10312178 4:1.2916946 5:0.92626739 6:1.870362 7:0.52926594 8:-0.08570049 9:0.55090272 #
1.5201932664194452993200457058265 1:0.79219055 2:0.63462985 3:0.91723394 4:1.1363999 5:0.1437521 6:-0.049158517 7:0.79160768 8:0.2611163 9:-0.27431837 #
0.88616949416414081408532865680172 1:0.62294406 2:0.6165055 3:-0.068791293 4:-0.23708913 5:1.4029111 6:-0.071102634 7:-0.12102959 8:1.0109415 9:1.3803897 #
0.55614467271526846214868555762223 1:0.69125229 2:-0.13405919 3:0.47529009 4:1.7835491 5:0.20161712 6:0.48466673 7:-0.47443628 8:0.30502144 9:0.86309451 #
0.2727913589349515999238349195366 1:2.0874171 2:0.37688348 3:1.821337 4:-0.2830433 5:2.571651 6:1.8809768 7:0.72671276 8:-0.39592624 9:-0.49351969 #
-3.5009274301864818923490929591935 1:1.0779964 2:0.69380701 3:0.6956799 4:0.69522381 5:-0.12328599 6:0.50256914 7:-0.093309723 8:0.85411835 9:0.80103374 #
0.44092063061042841010106485555298 1:0.9073444 2:0.2182831 3:1.1986016 4:0.82327253 5:1.2682055 6:1.5352865 7:0.39165416 8:1.3645049 9:0.46410161 #
11.664149899275619404193093942013 1:0.11529109 2:0.047527716 3:0.25144625 4:0.31841671 5:0.91370648 6:0.12909074 7:0.28658724 8:0.14177096 9:0.56871295 #
-2.0782247876095936156559673690936 1:1.4634823 2:0.48163673 3:0.9395054 4:-0.54233223 5:0.85120797 6:1.0642078 7:0.00018021914 8:0.32705167 9:0.41364413 #
-1.9579209593818953649702052643988 1:0.052937452 2:0.67480451 3:0.32738897 4:0.98406148 5:0.51452142 6:0.89312756 7:-0.028357862 8:0.39361405 9:0.60441017 #
-0.4006795849001944520573204044922 1:-0.0082071023 2:0.92901129 3:1.1414688 4:0.83391923 5:-0.12008841 6:0.24377255 7:1.11236 8:0.11800921 9:0.84468192 #
2.8215055122059280456880969722988 1:1.1062412 2:0.75964922 3:0.67226809 4:0.019332051 5:1.3751588 6:0.26287234 7:-0.21093234 8:-0.14669621 9:0.48989904 #
0.30921301096358411175657465719269 1:0.48016927 2:1.3368869 3:0.65545934 4:0.066879213 5:-0.45411491 6:0.34968495 7:0.11194126 8:-0.45633534 9:0.62515414 #
1.5667644019702460234100271918578 1:1.0986502 2:0.38454124 3:0.3078844 4:0.31549659 5:1.316196 6:0.80050278 7:0.9449361 8:0.98324329 9:1.2264493 #
-7.9889840033253065598728426266462 1:0.80721313 2:-0.10262293 3:0.68436795 4:0.85093617 5:1.080151 6:0.26791218 7:0.31661543 8:0.084161289 9:0.40750116 #
0.0081656097079510995412343632438024 1:0.98290855 2:0.71528578 3:0.65610236 4:0.10653298 5:-0.23935097 6:-0.49032369 7:0.32712796 8:-0.56295568 9:1.3648887 #
0.17762510820703877878479204355244 1:1.5393442 2:0.49816132 3:1.3084252 4:1.3198775 5:0.46104744 6:1.7235171 7:0.074454702 8:0.32252812 9:0.78635359 #
0.2186530167336081798001856668634 1:1.6942383 2:-0.70967937 3:0.44545439 4:0.12479392 5:-0.37045476 6:0.25273949 7:0.10120638 8:0.94829404 9:0.75686938 #
0.23204018494859338095359646558791 1:1.2043921 2:-0.44315946 3:-0.48208636 4:0.63366896 5:3.0991054 6:0.60526592 7:1.1850864 8:-0.89505881 9:0.32855135 #
-1.1522205571571590976276411311119 1:-0.62641013 2:0.39462221 3:-0.13581355 4:-1.0099581 5:-0.072882645 6:0.94903916 7:-0.33122188 8:0.43849406 9:0.55575323 #
-1.1446185868577503086385149799753 1:0.10726865 2:1.4933306 3:0.85366738 4:-0.48536786 5:1.5614133 6:0.20023388 7:0.44935262 8:0.35075593 9:-0.006939596 #
-0.09431844114025569880688237844879 1:0.15674952 2:-0.47460753 3:0.75566071 4:0.80750561 5:1.1458884 6:0.392652 7:1.2699323 8:-0.27145636 9:1.8101429 #
1.5046372677421435692934892358608 1:0.70833558 2:1.018074 3:1.2498341 4:1.1148313 5:0.21202637 6:0.16599736 7:0.80518019 8:0.21489507 9:1.3467897 #
0.08064475072829345447811277836081 1:1.6366054 2:1.2519506 3:3.0845952 4:0.19663486 5:0.59609699 6:-0.6953584 7:-0.37230998 8:1.1345593 9:0.54254586 #
3.2393551809595106938388653361471 1:0.81409466 2:0.28379884 3:0.58454633 4:0.43587407 5:1.436054 6:1.1539253 7:0.68530369 8:0.83583248 9:-0.046961848 #
0.01483508962023961930132287534434 1:1.1637692 2:-1.1516308 3:0.3622523 4:0.7540102 5:0.12516817 6:-0.016410502 7:-0.18150169 8:-0.2313967 9:0.4373264 #
0.26715323103666960280477837841318 1:0.86399698 2:1.6234442 3:0.091806307 4:0.30082619 5:0.76001889 6:-0.14407134 7:0.070266984 8:1.0487448 9:1.5269717 #
-0.58608444683163474220322086694068 1:-0.4063091 2:0.95006418 3:0.1565356 4:-0.1661464 5:0.99707627 6:-0.91559762 7:-0.26752383 8:0.22817169 9:-0.15986745 #
-1.2782957274758230958866533910623 1:1.3624543 2:0.43782827 3:1.4190264 4:1.4694937 5:0.64301485 6:-0.18018252 7:0.036135741 8:0.19516477 9:0.52789885 #
-0.065974420963828744879364762709884 1:0.72009993 2:0.51085371 3:1.6445589 4:0.92726088 5:0.075797789 6:1.6207641 7:-0.55055457 8:-0.39653027 9:-0.15351793 #
-0.0023683836794781941426091265157083 1:1.2649913 2:0.76738513 3:0.68531203 4:-0.46505249 5:0.99147058 6:-0.6515522 7:-0.081131145 8:-1.9580107 9:0.2562401 #
0.058862100654709224867300321193397 1:0.51694381 2:0.079589263 3:0.02854459 4:-0.73886281 5:1.6301802 6:1.5998843 7:0.50136107 8:0.098680705 9:0.9623161 #
0.59249718374376370011447079377831 1:0.83673519 2:-0.62347406 3:0.90549475 4:1.337912 5:1.7399472 6:0.21328706 7:0.39578539 8:-0.39626682 9:0.30557218 #
-0.2578738042519537754238001525664 1:0.58365673 2:0.35363355 3:0.40798935 4:0.035985723 5:0.066439889 6:0.71495908 7:1.1304593 8:0.4315809 9:1.8458296 #
2.8581563404494549907042255654233 1:1.5188367 2:0.04585468 3:0.96945328 4:0.44343343 5:0.88579857 6:0.93570274 7:0.3921428 8:0.16660176 9:1.1368206 #
-0.34284864441628493114677667108481 1:0.68260962 2:-0.27697903 3:0.89572793 4:0.046629801 5:0.87439048 6:0.25313094 7:1.1901067 8:0.98242605 9:0.85241586 #
2.924987077084619802036513647181 1:0.58073878 2:1.0430306 3:0.79151928 4:1.3259108 5:-0.19051331 6:-0.074388593 7:0.18950084 8:0.0644577 9:0.40343162 #
3.2790198678738380344555025658337 1:1.0466164 2:-0.18091263 3:0.53895414 4:0.51176298 5:0.43975875 6:0.66640109 7:0.14236991 8:-0.21007742 9:0.40800229 #
0.02668729447984849456609879325697 1:0.9930039 2:-0.33114505 3:0.083382629 4:0.388796 5:0.17637302 6:0.44553801 7:0.33086374 8:0.11455796 9:-0.73364353 #
0.22512522284108821279957624028611 1:0.85357374 2:1.2088749 3:-1.038811 4:1.283988 5:0.66597009 6:0.86072296 7:1.3624165 8:1.1851634 9:0.52314979 #
-0.031902537343790351997974141795567 1:-0.18067442 2:1.2212816 3:1.2096978 4:1.8650523 5:-0.50387728 6:0.030045154 7:-0.57068968 8:0.84057021 9:0.28136441 #
-0.9529629695518838650158954806102 1:0.55052519 2:0.319823 3:0.68450439 4:0.40745735 5:0.73407066 6:0.67968476 7:-0.12199327 8:0.31997862 9:-0.2012514 #
0.51347278944630059260845200697077 1:0.61131102 2:0.62713253 3:1.593362 4:-0.41447341 5:-0.45653671 6:1.0997597 7:0.022517052 8:0.9713099 9:0.21510407 #
0.31569405597283628495119955914561 1:0.55855507 2:0.36499524 3:1.527663 4:0.87858534 5:0.26531932 6:0.26678419 7:-0.16628377 8:0.47186071 9:0.41801453 #
0.082185358441869013623737316720508 1:0.63066304 2:1.5416781 3:0.84182411 4:-0.08314427 5:-1.5240723 6:0.82202339 7:-0.28133738 8:-0.26410851 9:-0.10008768 #
5.1013165905399748822901528910734 1:0.20201044 2:0.12610316 3:0.69341588 4:1.2016881 5:0.23932686 6:0.86448216 7:0.93309498 8:0.51961309 9:0.2127445 #
-0.10323604035400070488837087623324 1:0.62122166 2:1.2956022 3:-0.15775672 4:0.70037252 5:0.68573016 6:-0.88154626 7:0.28987673 8:0.49279127 9:-0.18040134 #
0.54823115596845550800964019799721 1:0.69945997 2:-0.46994093 3:0.24465081 4:0.62918574 5:-1.7598609 6:0.54256153 7:1.430654 8:0.38413507 9:0.53606558 #
0.013416331958863847786944667461739 1:0.60775733 2:0.41917327 3:-0.045032233 4:-0.12610584 5:0.94968355 6:1.1904684 7:1.5566465 8:0.78366125 9:0.080708623 #
0.18518677803101785128703227201186 1:1.3127872 2:-0.19189309 3:0.9117499 4:0.89242435 5:-1.2135146 6:0.94547457 7:-0.2181963 8:0.35353181 9:0.60845596 #
-0.43595706688291763208908946580777 1:0.15554383 2:1.3231 3:0.15243487 4:-1.4408776 5:-0.8696366 6:0.49837735 7:-0.54264838 8:0.30675429 9:0.075199001 #
0.1385734275044221974759750537487 1:0.78927106 2:0.31256533 3:-0.67592382 4:1.7915769 5:-0.23498042 6:0.86166716 7:1.6440657 8:0.56615931 9:0.89842319 #
-0.40419963780909079487102530947595 1:0.73504966 2:1.4246615 3:0.80690855 4:-0.43026698 5:1.7808377 6:1.0381032 7:-0.4574019 8:0.58507568 9:0.85644627 #
0.61343320539352119702414256607881 1:0.54095852 2:0.88423228 3:-0.47732994 4:-0.31874463 5:0.012210038 6:1.362799 7:0.30082107 8:0.16985497 9:0.068784393 #
-0.16612256618363016591466418958589 1:-0.21310453 2:0.11086775 3:1.223457 4:0.57707238 5:1.355863 6:0.048425511 7:0.00035751876 8:0.8125397 9:1.2196525 #
-3.6583066499864771436989485664526 1:0.87998492 2:-0.02524215 3:0.65013748 4:0.79593015 5:0.84036511 6:0.088841826 7:0.30267087 8:1.0649575 9:0.37144169 #
0.33690989846724300749158942380745 1:0.33726162 2:-0.95643693 3:1.344167 4:0.81155175 5:-0.32271618 6:0.17228317 7:0.046376888 8:0.79575461 9:1.0493634 #
-0.58107410023103267526778381579788 1:0.57104349 2:0.75813174 3:0.60474783 4:0.8529759 5:0.048871487 6:-0.1079308 7:0.59796715 8:0.73166728 9:0.19791456 #
-0.16509250582107171112511423416436 1:1.9872671 2:0.11647339 3:1.1557035 4:0.66591048 5:1.9513626 6:1.4454966 7:0.47153673 8:0.79094666 9:1.2978382 #
-0.03659008866119985159404137675665 1:3.0529644 2:-0.64597762 3:0.052312814 4:1.1730123 5:1.8331766 6:2.3982706 7:2.4420652 8:1.4638405 9:0.59930462 #
2.6717352317556080087967984582065 1:0.56506044 2:0.38236481 3:0.29227 4:1.0917165 5:-0.10883449 6:0.57068491 7:0.87072891 8:0.011864942 9:0.68599391 #
8.0921535823193178060819263919257 1:1.2373235 2:0.50591081 3:0.30557111 4:0.88405997 5:0.27339721 6:0.28504971 7:0.64996183 8:0.7628271 9:0.7453354 #
-0.31706583751400319037827557622222 1:-0.063562416 2:-0.090256266 3:-0.33599031 4:1.2944064 5:-0.44767207 6:0.47474587 7:1.0349407 8:-0.45418295 9:1.1541736 #
-0.23592047682935909924673012483254 1:1.0800815 2:0.77354163 3:1.180415 4:0.11849406 5:-0.64788657 6:1.1241888 7:0.85623187 8:0.17418067 9:1.1043273 #
-1.2028026409560321763336787626031 1:1.3467249 2:-0.16113546 3:-0.25053856 4:1.2317854 5:0.60601079 6:1.1293606 7:0.68250954 8:0.62210739 9:-0.17161217 #
0.37704863315063957829309515545901 1:1.4589537 2:0.6925211 3:0.99091387 4:0.64705718 5:-0.69682729 6:1.7757136 7:1.2374859 8:0.68569607 9:0.14821081 #
-0.012101304144346495053619072734818 1:-0.070402935 2:0.99317241 3:0.30337802 4:1.887163 5:1.2418038 6:-0.64160919 7:1.665969 8:1.4067912 9:-0.49157187 #
0.86372437710235150376547608175315 1:1.2858876 2:-0.28897536 3:0.42546606 4:0.55774492 5:1.3264456 6:0.14389041 7:1.5597546 8:0.82833934 9:0.33100513 #
0.28292697656884729928705723978055 1:1.1103364 2:-0.57695192 3:0.45917597 4:-0.11077203 5:-0.26778147 6:0.98006284 7:0.55525488 8:-0.31678268 9:1.3274313 #
-0.56965182972109018599837781948736 1:-0.66140372 2:-0.2139259 3:0.27622733 4:1.640561 5:0.35568088 6:-0.48397705 7:0.296601 8:0.59414983 9:0.4744752 #
-0.12750499310574245348526289944857 1:2.4605961 2:0.43768048 3:2.3078771 4:-0.55168593 5:3.234288 6:2.153923 7:0.79384804 8:-0.52060109 9:-0.65843928 #
0.47345329022592019807547103482648 1:0.91392207 2:1.3365912 3:0.58444077 4:1.6408867 5:0.89907861 6:0.40215403 7:0.76111668 8:0.12552072 9:0.93814719 #
6.6408410428500781463867497222964 1:1.1194842 2:0.27661425 3:0.32778329 4:0.30264843 5:1.0209802 6:0.84446388 7:0.46462911 8:0.0047992677 9:0.36763901 #
-0.10302241007707899078660318537004 1:0.90776652 2:0.063287728 3:0.53398269 4:0.32705578 5:1.1940655 6:-0.63213956 7:1.1732424 8:0.12609264 9:1.2526942 #
-0.14013611313507384759091678461118 1:2.054553 2:-0.68787003 3:0.31941625 4:0.077028401 5:0.96990532 6:1.2668865 7:0.16191329 8:-0.34107456 9:0.53413284 #
0.02006386000172174013944648152119 1:0.5500868 2:0.16932167 3:-0.064956173 4:0.64597231 5:0.50300103 6:0.91491687 7:0.88040203 8:1.1205161 9:-0.31300223 #
0.12248906671435880189058309497341 1:1.851447 2:0.61000782 3:0.77012533 4:0.45137864 5:0.31419286 6:-0.44241226 7:0.42285132 8:1.3158849 9:0.95315754 #
-0.1405996739680357432433766007307 1:0.23738025 2:-1.5575641 3:1.9658617 4:0.75763732 5:-0.65094346 6:0.78990203 7:-0.017183473 8:0.96805447 9:1.2840275 #
-0.1616824468219809629587757626723 1:0.57935518 2:0.52842593 3:-0.22230338 4:1.0864202 5:-0.16949511 6:0.28389359 7:-0.30864018 8:0.54512703 9:1.9351603 #
-0.64536023072436277114860558867804 1:-0.45600569 2:-0.64819717 3:-0.28068987 4:0.44007194 5:1.0481313 6:-0.049108941 7:0.031974316 8:-0.21220301 9:0.54255486 #
-5.216664554100619355381240893621 1:0.92465174 2:0.12518764 3:0.045085642 4:0.47005334 5:0.932271 6:0.17364104 7:0.60817707 8:0.45605445 9:0.7839148 #
0.65599713914228929834138170917868 1:0.96166903 2:1.4814483 3:1.0419897 4:0.45629293 5:1.225726 6:0.13599749 7:0.26385584 8:0.25973213 9:0.094357841 #
0.41886252050800043544853679122753 1:-0.86191046 2:0.30597791 3:0.34511361 4:-0.0039544464 5:-0.6093483 6:-0.70763201 7:1.1095881 8:0.40740722 9:0.69967747 #
0.26238799405516605167676402743382 1:-0.22649634 2:1.4744505 3:-0.065698802 4:-2.4045844 5:-0.97020537 6:0.42717639 7:-0.7179929 8:0.16610909 9:0.09147542 #
0.42493418596413573551373588088609 1:0.45202607 2:-0.24781233 3:1.6765072 4:0.093557186 5:0.94899768 6:0.47555313 7:-0.80072689 8:0.43372911 9:0.0985054 #
0.68943783638468059127291098775459 1:0.91977 2:0.95347404 3:0.55556917 4:-0.43828735 5:-0.36043918 6:0.66998464 7:-0.25469789 8:0.75058651 9:0.54050916 #
-0.067383827826467027066748016750353 1:0.74790072 2:0.3883172 3:1.86924 4:0.85027003 5:0.76317328 6:-0.22490589 7:0.56291854 8:0.24718934 9:-0.91841042 #
0.26320510639426480947733466564387 1:1.1669686 2:1.4710261 3:0.14676309 4:1.9921798 5:1.6678418 6:0.24743119 7:1.0189259 8:0.26088834 9:1.0863893 #
0.080751818810895895084378537376324 1:0.041012608 2:-1.5962868 3:-0.36893734 4:-0.32436427 5:0.3005226 6:-0.54489088 7:0.49177811 8:0.51188862 9:1.4789524 #
0.1170427782082818779496591332645 1:-0.11060329 2:-0.80745828 3:0.68209743 4:0.76424265 5:0.22877327 6:0.37060392 7:-0.23186931 8:0.84371585 9:-0.04930013 #
-0.14985372164550794793491661494045 1:1.3595619 2:0.68773061 3:1.1116817 4:1.3312721 5:0.84101671 6:1.2120452 7:1.368223 8:0.98894203 9:1.1417235 #
0.45499586060339419768538959942816 1:0.36434758 2:0.30624476 3:0.71046174 4:1.2933356 5:0.29988924 6:0.28959182 7:0.40066576 8:0.59363306 9:1.8875695 #
-0.33511542344990935538007192917576 1:0.58825195 2:0.43152973 3:0.69966966 4:0.50591195 5:-0.15054137 6:-0.59627545 7:-0.22971278 8:-0.30232775 9:0.54155064 #
0.055360234687529229213875936466138 1:0.10545992 2:-2.0510261 3:2.4153585 4:0.87320352 5:-0.90539527 6:1.1807666 7:-0.00076664082 8:1.3111343 9:1.4984115 #
-0.52145414316492677553327439454733 1:-0.17848308 2:1.2552558 3:1.2255462 4:0.065557323 5:1.0288213 6:0.062694475 7:0.18487862 8:1.2260355 9:0.93437654 #
1.8279079169221417178192723440588 1:-0.14369032 2:0.81546026 3:0.14859441 4:-0.32386833 5:0.11515215 6:0.8962149 7:0.010064953 8:-0.13872878 9:0.064311594 #
-0.19748031224984097242725056275958 1:0.65966809 2:-0.43634188 3:1.029958 4:-0.70576024 5:0.44982955 6:0.66841966 7:0.82039547 8:0.5763098 9:-0.25045145 #
-0.19314533624245797116536493831518 1:-0.1462269 2:0.7548216 3:1.135111 4:0.48155078 5:1.1807054 6:1.2477447 7:0.27959669 8:0.52021873 9:0.19509642 #
0.11624633562932330799188918035725 1:-0.26578102 2:0.36488482 3:1.1948125 4:1.5142678 5:0.90672594 6:-1.534627 7:-0.18402179 8:1.8803517 9:0.46305338 #
-0.016150479666061944017396712069967 1:1.3019081 2:0.61973679 3:0.27378929 4:0.83158273 5:0.35385963 6:-0.58127874 7:-0.20926665 8:0.96775126 9:-0.64410686 #
7.3126607849457583299113139219116 1:0.24353494 2:0.84667712 3:0.70738721 4:-0.023633372 5:-0.14994761 6:0.94179487 7:-0.14098242 8:0.35136592 9:0.73649567 #
-0.072310525277268555832677066064207 1:1.5165787 2:-0.41513461 3:0.95394129 4:1.1460699 5:-0.23665716 6:1.0351743 7:0.85730916 8:-0.21132284 9:0.66104889 #
-0.47413584279841103352737263776362 1:0.59047395 2:-0.17316636 3:0.0014185808 4:1.0841728 5:-0.42981654 6:-0.24878673 7:0.98432118 8:0.97850847 9:1.6375527 #
0.44834655904547621174671689914248 1:1.1432199 2:0.0004110056 3:-0.54363197 4:-0.58005041 5:0.33699113 6:0.90272582 7:-0.19619603 8:1.3218458 9:1.1345116 #
0.71288598835496574945835845937836 1:1.197513 2:-0.0097367475 3:0.75855696 4:0.84317869 5:0.62270796 6:0.4669193 7:-0.41776887 8:0.69331771 9:1.0482497 #
0.02515167214299439749081166439737 1:1.063677 2:-0.76566637 3:-0.51886469 4:1.0044099 5:0.53522784 6:0.84463078 7:1.1345863 8:-0.14404763 9:-0.40669701 #
-1.1189309592768093004622187436325 1:0.87443537 2:0.67210191 3:1.2404033 4:0.33215609 5:0.38431376 6:0.47600245 7:0.36163014 8:0.15375167 9:0.43875524 #
0.2529160128913187643995286180143 1:0.37573859 2:-0.79977512 3:0.12936176 4:1.4279468 5:-1.3597711 6:-0.7904855 7:0.9505443 8:1.0353053 9:1.2626624 #
0.29116937713863327852337192780396 1:0.85896921 2:0.64213616 3:0.5604794 4:0.75484675 5:1.5521086 6:-0.33769473 7:-0.29849449 8:0.77511543 9:0.64397997 #
0.36029257426046823464815815896145 1:1.1322765 2:0.37473002 3:1.0809393 4:-1.8118519 5:1.7237926 6:0.31177473 7:0.494423 8:0.23624223 9:0.80855358 #
-0.05133018282102799756394517771696 1:0.91061765 2:0.84396482 3:-0.1975491 4:-0.43102542 5:0.51904213 6:1.6356016 7:2.0976214 8:0.94921058 9:0.24709295 #
-0.27889090140781580551276874757605 1:0.50944012 2:1.2158958 3:0.27194309 4:0.6582967 5:0.33881456 6:0.72502452 7:1.2931855 8:1.4717467 9:1.2857112 #
-0.70417831579909351269463968492346 1:1.282145 2:0.8429088 3:0.086123221 4:1.2073683 5:0.74779135 6:-0.18741511 7:-0.17466746 8:-0.14196694 9:1.3272434 #
-0.014954076561109657175774323434325 1:0.86547601 2:0.95387846 3:0.14781718 4:1.1076546 5:-0.81612056 6:1.6889902 7:-0.1256344 8:1.6068804 9:0.28440502 #
0.24730347099371915997600979153503 1:0.71344745 2:-0.089912325 3:0.13274632 4:0.53683978 5:0.32220647 6:0.014967578 7:-0.27394438 8:0.49974555 9:-0.27028716 #
1.3288637841496961922160835456452 1:1.2683287 2:-0.07869444 3:1.1497859 4:0.7908662 5:0.87824643 6:1.2923994 7:0.26744893 8:0.32691756 9:-0.15352996 #
0.57043257441120720496741114402539 1:0.45717445 2:-0.19365741 3:-0.27763426 4:0.22201812 5:1.1593003 6:0.79728526 7:0.88472921 8:0.21859561 9:-0.41101924 #
-0.1494579975880297728618728569927 1:0.29342088 2:-0.061318841 3:1.2185477 4:0.5474118 5:0.3199735 6:1.3495072 7:0.80309653 8:-0.07286977 9:-0.15490241 #
0.20338315507439927443122940076137 1:0.46125644 2:0.91823375 3:0.18285125 4:0.73950237 5:0.0027473061 6:1.0562522 7:0.13939621 8:0.79122555 9:0.57144016 #
3.4322250304779302609858859796077 1:0.75528419 2:0.40369049 3:0.70979619 4:0.25162524 5:1.4532007 6:0.25353894 7:0.13813984 8:0.81784695 9:0.90794235 #
-0.52742833977784686627643395695486 1:0.25344697 2:0.47897804 3:1.0093218 4:0.93943894 5:0.18387899 6:0.41724855 7:0.54210162 8:-0.41118678 9:0.97620958 #
-0.1382213281385238912157831236982 1:0.5112896 2:0.507321 3:2.3075488 4:0.053173952 5:1.1412736 6:-0.75764614 7:-2.6843383 8:2.0466497 9:-0.41887349 #
2.1774962245521227721667401056038 1:0.8001256 2:0.57046497 3:0.54842913 4:1.4747299 5:-0.050470892 6:0.89547867 7:-0.077680208 8:0.13867112 9:0.48024228 #
-0.068594564213722106216231111375237 1:0.99407142 2:0.70005226 3:0.064086735 4:1.3769603 5:0.039192274 6:1.4232868 7:1.0153419 8:0.44781414 9:-1.6094426 #
0.757159633557463185304925445962 1:-0.21591362 2:-0.76140624 3:0.10530298 4:1.1258671 5:0.053865418 6:0.95886827 7:0.80204624 8:0.21845375 9:0.67270666 #
-2.1354404003398728129070605064044 1:0.27702659 2:1.0510787 3:0.78524923 4:1.0493236 5:0.28804588 6:0.44325277 7:0.12504633 8:0.922683 9:0.35389662 #
0.047022019634426120981984809077403 1:0.53747571 2:-0.60990572 3:0.82065171 4:0.68445361 5:0.0030501285 6:1.4424583 7:0.16858548 8:0.41401672 9:0.3596274 #
-1.4101779770581506223692258572555 1:0.41534036 2:0.90178496 3:1.2419859 4:0.61489618 5:2.2868404e-05 6:0.84757417 7:0.39817348 8:0.73788619 9:1.3587182 #
-0.076474745768045318539130050794483 1:1.3285667 2:0.42530069 3:0.52236032 4:1.5071332 5:0.34477797 6:-0.075630635 7:1.7583613 8:0.47115126 9:0.74938315 #
0.02577283766009947144071112745678 1:-0.11939322 2:0.81914216 3:0.59760511 4:1.6822423 5:1.8614126 6:-2.0244024 7:1.2277303 8:1.670112 9:-1.1856441 #
3.0121548080252971146819618297741 1:0.44222808 2:0.11364082 3:0.23572658 4:1.2994601 5:0.37783715 6:1.0165142 7:-0.028212957 8:0.18013655 9:-0.24725182 #
-0.45536806202112622976585498690838 1:0.078380123 2:0.34424922 3:0.89290422 4:0.66326922 5:-0.018800065 6:0.40772215 7:0.20987572 8:0.2361259 9:-0.023874925 #
-1.3057939942916154674179551875568 1:0.74940443 2:-0.2921178 3:0.75412452 4:0.49549189 5:0.23554629 6:0.7882818 7:0.90319711 8:0.65801722 9:1.239741 #
-0.1565030443796395775990504262154 1:-0.3711749 2:1.7214421 3:-0.44196877 4:-3.1006124 5:-1.128512 6:0.16884021 7:-0.9686957 8:-0.15348004 9:0.081374437 #
0.83364278411981107552719549858011 1:1.2474064 2:1.0470114 3:0.035692357 4:1.475546 5:0.089350618 6:1.6522651 7:0.51628596 8:0.18361701 9:0.3485994 #
4.6880977265542078669113834621385 1:1.0429945 2:-0.23958263 3:0.11447232 4:0.87183779 5:0.37209585 6:0.031862698 7:0.4865227 8:0.17125662 9:-0.10101297 #
-0.4823970537813787595737835545151 1:0.89982074 2:-0.22166394 3:0.13876376 4:0.61210263 5:0.285409 6:1.7024466 7:0.58967555 8:1.1339829 9:0.71987814 #
1.3122823829778313964311564632226 1:0.0088950396 2:1.1051097 3:0.61399186 4:0.17954269 5:-0.522071 6:0.50279486 7:0.13770363 8:0.90167856 9:-0.19692974 #
-1.9514751608134639493385975583806 1:0.78871667 2:0.40247086 3:-0.28371269 4:0.96875691 5:0.7579819 6:0.93063843 7:1.0001802 8:0.087521575 9:0.030456759 #
2.989361634578580506627076829318 1:1.3992162 2:-0.093752548 3:0.83584923 4:0.63421571 5:0.69045734 6:0.35988247 7:1.0589062 8:0.098887183 9:0.47427297 #
-0.76764104471714589283948271258851 1:0.74359781 2:0.26319507 3:0.99921292 4:0.35296315 5:-0.60207289 6:-0.27566698 7:0.39621508 8:1.2958946 9:0.12250858 #
0.05145755372119861087432113322393 1:0.57607746 2:-0.25876939 3:-0.98941165 4:-0.59611619 5:0.46193516 6:-0.3823337 7:0.38306382 8:0.15100023 9:-0.13009727 #
-0.37131464573131295336949619922962 1:0.54108787 2:1.000708 3:-0.2088917 4:-0.74926722 5:0.98501539 6:0.74280024 7:0.46452859 8:-0.11482902 9:0.63755304 #
-0.30368645461330084911466542507696 1:1.2853112 2:-0.10303176 3:0.16482948 4:0.4391315 5:0.1205224 6:1.3268838 7:-0.46958348 8:-0.83215737 9:0.52973181 #
-0.31702893070811494213856462920376 1:-0.16772766 2:0.9311111 3:1.2801412 4:2.2317121 5:-0.0073420294 6:0.93718863 7:0.73061478 8:1.0202405 9:1.4497993 #
-4.2753239442061712338727375026792 1:0.65523833 2:0.12782191 3:0.18521623 4:0.40190274 5:-0.1451695 6:0.27403015 7:0.94224131 8:0.96659678 9:0.40563789 #
0.085975047555764419482393634552864 1:0.15928087 2:1.2730916 3:0.20353432 4:1.1930282 5:0.25168216 6:-0.07522618 7:0.92799968 8:-0.041852944 9:1.0738502 #
-0.42052277011823802066459165871493 1:2.0433645 2:0.15827532 3:0.11333629 4:1.2784622 5:-0.19462414 6:-0.075596288 7:0.67320311 8:1.0186983 9:0.93689173 #
0.0053959468799264533045434433233822 1:0.42985892 2:0.6866703 3:-0.48638082 4:0.33792382 5:0.67594582 6:1.1232007 7:1.2999148 8:1.2688473 9:-0.91679227 #
-1.4448722796862403239259720066912 1:0.98626393 2:-0.032402996 3:1.1515496 4:0.0010731304 5:0.98723197 6:0.73556042 7:0.33387017 8:1.026709 9:0.99616754 #
0.38236673834437395758101274623186 1:0.26269987 2:0.87902194 3:0.28067538 4:1.4586616 5:1.4457967 6:0.85437602 7:-0.52462965 8:0.25434756 9:0.95465183 #
0.22879945829599179774049844127148 1:-0.027161064 2:0.88215768 3:0.62942958 4:0.27026382 5:1.039778 6:0.44869614 7:1.4737974 8:-0.11476875 9:0.10801101 #
-0.10850013948632591942455860589689 1:0.45473439 2:-0.4700774 3:2.3550937 4:-0.059402846 5:1.1037223 6:0.44565389 7:-1.3798008 8:0.48870462 9:-0.063051321 #
-0.16837020439870828414363757019601 1:-0.68590039 2:-1.4202242 3:-0.18237691 4:1.4079368 5:-0.31900039 6:1.2548705 7:0.86703509 8:-0.0049605477 9:0.64564818 #
-0.26412550102117304806625952551258 1:0.5751524 2:-0.83995056 3:1.1113039 4:2.2179918 5:-0.17871933 6:0.72062838 7:-0.85830635 8:0.8052693 9:0.92751801 #
-0.09359237294084761515922110675092 1:1.3702158 2:-0.7356593 3:-0.59907973 4:0.97899401 5:3.7724309 6:0.60872418 7:1.5560845 8:-1.3521968 9:0.32068843 #
1.4409412689268430440847623685841 1:0.4029825 2:0.5164299 3:-0.52189547 4:1.3464679 5:0.36550117 6:0.17923605 7:0.77675253 8:0.30450821 9:0.61139685 #
-0.084514845751362213666091349750786 1:1.1319877 2:-0.91333497 3:-0.92253697 4:0.93599856 5:0.22976859 6:-0.31851745 7:0.64145112 8:0.95296746 9:-0.010245126 #
-2.5638564303237392216772150277393 1:0.26568013 2:0.30860972 3:0.75494254 4:0.79000419 5:-0.49512079 6:-0.28458402 7:0.83758813 8:0.48822886 9:0.49288288 #
0.57762932199481820116915287144366 1:-0.05621291 2:-0.10541081 3:0.40985274 4:-0.28009728 5:0.78580451 6:-0.40324837 7:0.13116312 8:1.0482655 9:0.71163499 #
-0.23197193243881347735069198279234 1:2.3677926 2:-0.39269173 3:1.3682932 4:1.06512 5:0.90076929 6:1.2844627 7:-0.15199374 8:0.13565949 9:0.055237602 #
-0.15115911312665661347942602787953 1:0.32595387 2:1.7288796 3:0.61704022 4:1.9355757 5:-0.66879028 6:0.87254226 7:0.43893719 8:0.37079439 9:-0.6963498 #
-0.57789077288691548250909590933588 1:1.6148045 2:-0.52068692 3:-0.16399312 4:-0.52710479 5:1.3730828 6:0.59413743 7:0.42036763 8:0.58317184 9:0.12038677 #
0.50081617319631632767595874611288 1:-1.1720479 2:0.47839355 3:-0.44246629 4:-1.6669731 5:0.061024714 6:0.85668528 7:-0.56810421 8:0.23368682 9:0.75489867 #
0.055954640631933241778916965358803 1:-0.68960339 2:1.1899424 3:1.5786331 4:0.22326608 5:1.4069303 6:1.8010018 7:0.39761046 8:0.58932287 9:0.10196601 #
-0.060778327350542470097760627822936 1:-0.39906275 2:0.39121538 3:0.31319243 4:1.6255376 5:0.90530771 6:1.4589698 7:-0.41789541 8:0.11108601 9:0.23344754 #
-0.086398053221541898372137779915647 1:1.286521 2:1.7620448 3:-0.27861795 4:0.28889865 5:0.38816032 6:0.43466309 7:0.32656679 8:0.79548085 9:2.1002679 #
0.092847103080390486207207345614734 1:1.5937589 2:-0.35362887 3:0.0080965217 4:0.26068532 5:0.080087528 6:1.8426409 7:-0.91490197 8:-1.3744315 9:0.67309737 #
-0.037956707023575883552801712994551 1:0.04180447 2:0.029192809 3:0.93434292 4:2.0740519 5:1.1434419 6:1.0074526 7:0.58255529 8:1.8932781 9:0.51244009 #
-0.61790981196514127571361996160704 1:0.90879631 2:0.53752899 3:0.41395393 4:-0.35233253 5:1.7006773 6:-0.25566316 7:0.9696033 8:0.61770511 9:-0.03419758 #
0.63857570065410174109388208307792 1:0.25760022 2:-0.012972993 3:0.89984834 4:1.5353732 5:0.5244928 6:0.93579471 7:0.24577573 8:0.15068354 9:1.1411482 #
-0.14093711980439391218133948768809 1:1.2237147 2:-0.6685496 3:0.93075711 4:0.70149857 5:-0.4717623 6:0.077769876 7:-0.51111519 8:1.037266 9:1.0658048 #
-0.082060505931521546263418542821455 1:0.98895717 2:0.82691509 3:1.1528445 4:0.34376106 5:0.62876058 6:-1.1263409 7:0.55966359 8:1.0714408 9:0.91622651 #
-0.15309682591951565000520929515915 1:-0.097886607 2:-0.21064658 3:0.039989728 4:1.2037373 5:-0.76195621 6:0.52273995 7:0.20209554 8:1.2041171 9:0.62650526 #
-1.0618188907610672799819440115243 1:1.057736 2:0.6469143 3:0.76847875 4:0.21321335 5:0.40547389 6:0.86127585 7:-0.40084639 8:0.075291216 9:0.94653833 #
-0.67448024982026844043048185994849 1:2.1122642 2:-0.074914686 3:1.0245405 4:-0.48212442 5:1.0946136 6:1.0418527 7:1.419184 8:1.0926502 9:0.3850123 #
-0.8335199189365541938556702916685 1:0.60779691 2:0.28023976 3:0.70100695 4:1.147547 5:0.77131575 6:-0.55372012 7:0.78506649 8:0.10477115 9:0.59028816 #
0.30155864348448041534211938596854 1:1.1069574 2:-1.0652913 3:1.0033197 4:0.51899904 5:0.90238678 6:0.70830429 7:0.66899139 8:0.05650685 9:0.29465929 #
-0.049050516382158897144005749169082 1:-0.40028474 2:0.057397563 3:1.3973161 4:0.28861183 5:-0.4202916 6:0.2510415 7:0.11991534 8:0.18017216 9:-0.55016989 #
0.23722373771780458362457011389779 1:0.24743426 2:0.52230245 3:0.96850306 4:1.721936 5:-0.095319644 6:-1.0142808 7:0.021177744 8:-0.11076172 9:1.5009952 #
0.0053481539446820769434509657003218 1:0.56751132 2:0.61980146 3:1.6806694 4:-0.30623007 5:0.91082615 6:0.39525026 7:0.2401123 8:-0.42962566 9:0.56142342 #
-0.40903755603423380682315269041283 1:-0.085681818 2:0.26485023 3:0.67601651 4:-1.0450807 5:-1.1477791 6:1.543798 7:-0.22757505 8:0.59567034 9:0.50323248 #
0.96935524596308719758042116154684 1:0.73475128 2:0.40087974 3:0.87069124 4:1.5854558 5:1.8051702 6:-0.082632035 7:0.93279982 8:0.91865897 9:1.7923647 #
-1.0736787262009550580899031047011 1:0.40975431 2:0.32046193 3:0.16848235 4:-0.54362154 5:1.0707967 6:0.75748664 7:0.13761076 8:-0.01924926 9:-0.083258934 #
0.22932428628550205473857204196975 1:2.5060949 2:-0.9569239 3:0.46261385 4:-1.0849813 5:1.6312605 6:0.87905979 7:1.1639767 8:0.64782488 9:0.85854048 #
1.5591427249560232404235193826025 1:0.59030426 2:0.77605158 3:0.64076769 4:1.2532748 5:0.52600002 6:1.8140134 7:0.10467496 8:0.25482991 9:0.95692974 #
-0.11938676926036931313923616926331 1:-0.3770394 2:0.61145306 3:0.21691848 4:0.80910593 5:-0.34186041 6:0.70256948 7:0.80956107 8:-0.085530594 9:1.0937475 #
0.066175517697660793392522293743241 1:0.56468254 2:0.89897358 3:-0.18744208 4:1.1096365 5:-1.4533358 6:2.0152578 7:-0.30849352 8:2.0550537 9:0.40486315 #
-6.4015254911468728593604282650631 1:0.94238609 2:0.36683959 3:0.75824678 4:-0.2788046 5:0.71226656 6:0.090736791 7:0.76553607 8:0.74413466 9:0.31692332 #
-0.07077649508267942757289148403288 1:1.0510864 2:0.47249562 3:1.7624958 4:0.05627729 5:1.3032122 6:-0.32918337 7:0.46966204 8:0.90644854 9:0.13750896 #
-0.077827317285773564559114845451404 1:1.5739791 2:0.82050389 3:-0.24146383 4:0.64544666 5:-0.20623827 6:1.0251727 7:-0.86447948 8:0.27447149 9:1.0710334 #
-0.94367946700707339147129459888674 1:1.0052772 2:1.4779546 3:0.47048387 4:0.89655745 5:0.12683021 6:-0.26292005 7:-0.43348444 8:0.34959331 9:0.17016758 #
-4.5487611788081778740888694301248 1:0.93865126 2:0.21064395 3:0.53330314 4:1.5624024 5:0.92986089 6:0.66182613 7:0.87368023 8:0.41739079 9:0.67942256 #
0.25702828616251188753594192348828 1:0.64814597 2:0.51384276 3:0.13140261 4:-0.071441539 5:0.22404027 6:1.3801875 7:0.59730971 8:1.0571529 9:1.3742983 #
-0.74075266596301003740876467418275 1:-0.18353923 2:0.17466027 3:-0.31366402 4:0.95685863 5:0.27284193 6:-0.086308695 7:-0.32044855 8:-0.23998253 9:0.48904002 #
-0.26268796328492100000673303838994 1:-0.44265169 2:0.06378594 3:0.95714051 4:1.8229204 5:0.56146508 6:0.95875996 7:1.1074487 8:0.52209771 9:-0.28725585 #
-1.2517986664176170563678169855848 1:1.0294267 2:0.81572646 3:0.64300048 4:1.2085238 5:0.61516547 6:-0.40481541 7:0.042061295 8:0.31780398 9:-0.10151406 #
0.91265481687663352339257016865304 1:0.63160431 2:-0.21645512 3:1.4019879 4:0.99756432 5:0.071925364 6:0.29185838 7:0.54168588 8:0.20640296 9:0.088229246 #
0.9425807841368010198124238741002 1:0.86126059 2:-0.21453762 3:-0.18303579 4:1.2095039 5:0.1428792 6:0.18550454 7:-0.076129861 8:-0.35434422 9:1.0954249 #
0.59964108092813195316495011866209 1:0.22007266 2:2.0223746 3:1.2482631 4:-1.0285467 5:1.8400685 6:0.17626111 7:0.68244755 8:0.38434994 9:-0.28078628 #
6.5920535441892393890839230152778 1:0.95926654 2:0.6415295 3:0.81392449 4:1.4279115 5:0.32131657 6:1.2157598 7:0.24922191 8:0.79006654 9:0.44111872 #
-0.069093964425158152509176545663649 1:0.21300426 2:0.29364088 3:0.099852532 4:1.071054 5:0.61658067 6:-0.78001505 7:1.2563267 8:1.3068782 9:0.69085759 #
-0.10039536349897611178239031914927 1:0.30624828 2:-1.1761562 3:0.0038375042 4:1.6499832 5:-2.0171709 6:-1.1887419 7:0.94059259 8:1.0846101 9:1.59892 #
-1.2997626892208580251519833836937 1:1.0659292 2:0.37931174 3:-0.070459753 4:0.71878058 5:1.0198925 6:0.41330501 7:0.30858427 8:0.86029375 9:-0.14376345 #
-2.0710911964389171480149798298953 1:0.6785298 2:1.1243329 3:0.95101827 4:0.68530953 5:-0.39675704 6:0.68018293 7:-0.14965706 8:0.14769429 9:0.19161271 #
0.20898485988493786802422391701839 1:0.43693134 2:-0.33401388 3:1.1874688 4:-0.26666254 5:0.58926612 6:0.41984054 7:-0.76793218 8:0.040713843 9:1.7575829 #
-0.9609735742577646400164326223603 1:-0.63450062 2:0.97136855 3:1.1168942 4:-0.24141391 5:0.68125373 6:0.040281847 7:-0.13952398 8:0.0016314937 9:0.5649699 #
-0.27650745157850747935057711401896 1:-0.029217267 2:0.38318256 3:0.80506516 4:1.3289638 5:0.70984805 6:0.20009352 7:-0.39887977 8:-0.29204437 9:0.95982289 #
0.054306006694481274987840180301646 1:-0.18515043 2:-0.046801884 3:-0.26755089 4:-0.16385649 5:1.0120236 6:0.53320819 7:0.14481685 8:-0.46588877 9:1.7075542 #
-0.36913931684314232883892259451386 1:1.7335745 2:1.1920793 3:0.95856327 4:-0.062465206 5:2.1751144 6:0.25781867 7:-0.129898 8:-0.34632984 9:0.48906779 #
0.22778692861359364774109792506351 1:1.7193142 2:-0.85469157 3:0.031167081 4:-1.3006092 5:1.4998088 6:0.61763847 7:-0.20845553 8:0.19204748 9:0.048065584 #
8.7106845120724241127163622877561 1:0.17432249 2:0.12678912 3:0.80493563 4:0.035443496 5:0.97878623 6:-0.018513929 7:0.082660988 8:0.72178638 9:0.62978733 #
-0.097754025008722988943077325529885 1:0.58528924 2:0.20091632 3:0.34770826 4:0.86410749 5:-0.23392689 6:0.69861823 7:1.1637076 8:-1.1289741 9:0.80236298 #
0.83585150626779558535872638458386 1:0.81769878 2:0.54092228 3:0.27175388 4:0.1261474 5:0.80737054 6:1.337815 7:0.55322748 8:1.3645715 9:0.39089197 #
-0.041900194816941661868359148002128 1:2.1627581 2:1.0859373 3:-0.07292629 4:-3.3856537 5:2.168082 6:0.86911768 7:-0.72610676 8:1.5349869 9:-1.0703028 #
0.036818346397401072178645620169846 1:1.9182611 2:-1.2971301 3:-0.74981534 4:1.2207376 5:4.3143106 6:0.64420557 7:1.6926763 8:-1.914465 9:0.0038725114 #
-0.073279085940423066558579989759892 1:-0.043301098 2:0.24864554 3:1.4905308 4:0.55381376 5:0.19742949 6:0.46567672 7:-0.18837285 8:1.6944896 9:0.95766133 #
0.21450853732319002942219299256976 1:1.1699353 2:0.51154351 3:1.0504786 4:1.7761114 5:0.38217607 6:-0.32265437 7:-0.94703615 8:1.1425053 9:-0.075078145 #
1.4247404507706475929040834671468 1:1.1709572 2:-0.15661585 3:0.1835838 4:0.72573048 5:0.45821643 6:0.52624691 7:0.2861746 8:0.0092936857 9:1.5553303 #
0.43977991790566617336111221447936 1:0.60361964 2:0.4252266 3:0.40230405 4:1.1119113 5:0.37106058 6:1.5900059 7:0.61730301 8:-0.47740492 9:0.15049602 #
2.7931581909401961283379023370799 1:0.84404516 2:0.46729386 3:0.064139947 4:1.2556385 5:0.021912327 6:0.50744134 7:0.65165043 8:1.1820458 9:-0.051827267 #
-0.20218979853830826298732858958829 1:-0.48283541 2:1.1985577 3:-0.37221318 4:-0.22703369 5:1.0576228 6:0.43240747 7:-0.73070604 8:0.27498069 9:0.94982505 #
1.1530252742517170805314208337222 1:0.53755355 2:1.317813 3:0.51860595 4:0.15452206 5:0.88747227 6:-0.079606228 7:-0.24711184 8:-0.19060238 9:0.3501589 #
-0.27924334422835400681961459667946 1:1.1876048 2:0.5971638 3:1.4427614 4:1.8448534 5:0.61472994 6:0.20621985 7:0.0013935323 8:1.5393327 9:-0.10992001 #
0.03743082438003046685803809623394 1:0.38842312 2:-0.86956245 3:0.29266962 4:-0.74347717 5:0.73184311 6:1.137127 7:0.2139326 8:0.82305557 9:0.29780635 #
-0.34767198652406811065773695190728 1:2.5036681 2:-0.77026772 3:0.16253445 4:-0.14801472 5:0.69388974 6:0.67413181 7:0.60187417 8:0.52485502 9:0.56396306 #
-0.62993872865475575295590715541039 1:-0.038658705 2:1.3184794 3:0.89566422 4:-0.32229817 5:0.39977327 6:-0.38914195 7:-0.41603351 8:0.794873 9:0.17723006 #
-0.81893342772739308177420980427996 1:0.74947 2:1.2538166 3:-0.27769333 4:-5.0841987e-05 5:0.89241254 6:-0.29066631 7:0.13711525 8:0.78583407 9:-0.55325562 #
1.1478294780584930023792367137503 1:1.2200685 2:1.2044005 3:0.56977206 4:1.0065454 5:-0.44006994 6:0.79689944 7:0.86502099 8:0.13739789 9:0.50262046 #
-0.80123328212483957422307412343798 1:0.84940445 2:0.4433839 3:0.57301462 4:0.91072959 5:-0.49209082 6:0.9667713 7:0.66141975 8:0.15594208 9:1.4602424 #
0.20066585843482900863854467843339 1:-0.48286903 2:0.0015851579 3:-0.22801217 4:0.0088062426 5:-0.32711089 6:0.75188702 7:0.47718704 8:-0.33057037 9:0.80064553 #
0.5725545816146696553872175172728 1:0.67333412 2:-0.073083341 3:0.27375412 4:0.22859988 5:0.5597927 6:0.34868792 7:0.50426042 8:0.88843054 9:0.076792859 #
0.14855256063735769456179980352317 1:0.67057216 2:0.27321941 3:1.2414335 4:1.1745853 5:0.74024022 6:-1.1944128 7:0.1767737 8:-0.50923759 9:-0.14106494 #
6.6588812534102768125876536942087 1:0.76431531 2:-0.22083887 3:0.69084835 4:0.38161573 5:1.0464576 6:0.98267728 7:0.50005978 8:0.65037781 9:0.78900802 #
0.44801671172709228718744611796865 1:0.28766838 2:0.24640605 3:-0.89122802 4:0.15778075 5:-0.027894471 6:-0.044485975 7:-0.0027729415 8:0.62415779 9:0.80601335 #
-0.18214571793148076617185893155693 1:0.33961886 2:0.94210082 3:-0.56830543 4:0.79351962 5:0.54551226 6:0.37465772 7:1.5161824 8:0.26346979 9:1.1856323 #
-0.20922392720309831992686611101817 1:1.4919312 2:1.1036502 3:0.55433083 4:0.50952411 5:2.4063737 6:-0.42182708 7:-0.60539412 8:0.98350531 9:0.90853471 #
0.10202301041979773554846389060913 1:-0.55222273 2:2.0655162 3:0.6552766 4:2.0913122 5:-0.81411219 6:0.66002345 7:0.48495373 8:0.57533038 9:-0.85590571 #
-0.26641516205277609996571186457004 1:1.3698376 2:0.70732552 3:0.52510011 4:2.097569 5:-0.75463796 6:-0.036220539 7:0.049346346 8:-0.45101485 9:0.72355419 #
-0.49189760913620750315544682962354 1:1.479364 2:1.0668193 3:0.12690365 4:-0.16940367 5:1.3736538 6:0.92270994 7:0.30387658 8:-0.4632062 9:0.27552706 #
1.1423139056994822126966937503312 1:0.73145545 2:0.40845159 3:0.5242064 4:1.0919238 5:0.27105245 6:0.40035811 7:-0.22468977 8:0.02936125 9:0.37985015 #
0.020406683773130165904241550833831 1:0.11999363 2:0.22119071 3:0.53140157 4:0.7228899 5:-0.70984352 6:1.8522532 7:1.6753169 8:-0.88972473 9:0.50129247 #
0.23927507583858537154597456719785 1:0.043617859 2:-0.46827266 3:0.67871326 4:1.6467732 5:0.11904707 6:0.44742912 7:0.14003666 8:1.1821996 9:0.70307362 #
-0.18389343905732122297358444029669 1:1.1968724 2:0.50195998 3:-0.71876633 4:-0.35793531 5:0.30933198 6:0.43411916 7:0.78441209 8:0.15646946 9:1.3057432 #
-0.76992317294318224352167590041063 1:1.5002116 2:0.52751082 3:0.92928159 4:1.2561496 5:0.9441182 6:0.54799616 7:0.38454956 8:0.82424539 9:0.79591167 #
-11.327049653464225542620624764822 1:0.74114579 2:0.21287122 3:0.41603827 4:0.38741121 5:0.56866735 6:0.69461918 7:0.098386012 8:0.29464111 9:0.93960339 #
-1.4905105422796014469355441178777 1:-0.34458107 2:0.4304218 3:0.3572112 4:-0.13999976 5:1.3233355 6:0.97544605 7:-0.1946049 8:0.77303427 9:0.47141826 #
-0.047918621033051993218787600881114 1:0.59437251 2:-1.0961092 3:0.93988001 4:1.2642459 5:1.4848894 6:1.0455475 7:1.6281562 8:-0.86300451 9:0.035348635 #
0.53438112016029526429861107317265 1:-0.75680697 2:1.3028415 3:0.70795953 4:-1.6509961 5:1.517971 6:0.25188646 7:-0.29387075 8:1.1539445 9:0.53985763 #
-4.0248962994731662945468997349963 1:0.79689401 2:-0.048953302 3:0.99569488 4:0.93443549 5:0.1337816 6:0.90209997 7:0.76369083 8:0.13602515 9:0.66225827 #
0.39282130190323194529611328107421 1:-0.28349546 2:1.3429611 3:1.298184 4:-0.6574502 5:2.4090021 6:-0.6323002 7:-1.3256443 8:0.14279698 9:0.2560395 #
-0.34599468913335235109585141799471 1:0.76328951 2:-0.32020372 3:-0.11682259 4:0.7703371 5:1.9671338 6:0.2582683 7:2.0526404 8:0.42001405 9:0.24041459 #
-0.22951663134434147073292820095958 1:-1.3075725 2:1.3622947 3:0.65735042 4:-2.2564836 5:2.0890431 6:0.70312691 7:-0.48753992 8:1.5059125 9:0.40241021 #
1.6553414784109632407194112602156 1:1.3965602 2:0.55036592 3:1.2038318 4:0.62528408 5:0.013509183 6:0.15484333 7:0.48790243 8:0.5801031 9:0.29741031 #
0.27764696071236855123842701686954 1:0.78073454 2:1.0592692 3:0.23936786 4:0.95689106 5:0.25988206 6:0.54725707 7:-0.80868131 8:0.81985259 9:-0.070446417 #
-0.21049958761904971615841475340858 1:1.0381788 2:1.399915 3:0.39632419 4:2.1360607 5:2.3818142 6:-0.42215663 7:1.2067329 8:0.77907485 9:1.8123156 #
-0.17080431587358341216642543258786 1:1.1317179 2:-0.8715263 3:1.3811108 4:0.28198457 5:1.3907671 6:1.2601584 7:0.85000664 8:0.2557601 9:1.4682649 #
0.79184366806452699538709794069291 1:0.11637073 2:-0.2399444 3:0.81970966 4:1.6107633 5:0.31090662 6:0.18992528 7:1.1405226 8:0.23450898 9:0.41028836 #
-6.9188461681120418944601624389179 1:1.0653478 2:0.8406508 3:0.42738643 4:1.2923226 5:0.78897655 6:0.27424335 7:0.62041688 8:0.35054272 9:0.22152875 #
0.033176479992434268484480242022983 1:1.4248639 2:0.77811956 3:-0.68500674 4:-0.15291196 5:0.42731419 6:1.6916676 7:2.7608063 8:0.91755891 9:0.081169426 #
0.58357846564497850572195147833554 1:0.85819548 2:0.56995803 3:1.3935196 4:0.34543508 5:0.3861993 6:0.93854523 7:0.11189018 8:1.3909382 9:0.95193815 #
-0.21003894300443265441558082784468 1:0.84245616 2:-0.16524059 3:0.32118273 4:0.98956817 5:-0.15135773 6:1.4546288 7:-1.219597 8:1.0127726 9:0.13258845 #
-1.5902059697701804719116580599803 1:0.51906598 2:0.33293119 3:0.24682988 4:0.85420984 5:0.27496549 6:1.002484 7:0.89505476 8:0.77435833 9:1.201651 #
-0.52660396944885445869033446797403 1:-0.85271043 2:0.47581756 3:0.87799323 4:-0.18318656 5:1.1301893 6:-0.95460945 7:0.093177587 8:0.63471115 9:0.93507946 #
0.31200183655575697283524050362757 1:-0.0053377859 2:0.38406962 3:-0.033169504 4:0.62255752 5:0.39941433 6:0.29469028 7:0.79110873 8:0.58715308 9:-0.54710555 #
0.092865158957888591095830577160086 1:0.51473957 2:-1.4345833 3:1.5019881 4:2.7712758 5:-0.44461218 6:0.67028761 7:-1.1567897 8:0.99129105 9:1.1357269 #
-0.13609248901745824023024056259601 1:2.6143677 2:0.16643089 3:0.54255658 4:0.39060879 5:-0.2139336 6:-0.81960279 7:0.80851495 8:1.1368287 9:0.50093317 #
-0.11446574708348941640245755024807 1:1.6774071 2:-0.49721324 3:-0.32435957 4:0.9481625 5:0.66279924 6:0.39861053 7:1.0423465 8:-1.1472431 9:1.4538159 #
0.071522010487424195201988652570435 1:-0.82431924 2:1.6525388 3:-0.44785836 4:0.093007311 5:1.3505713 6:1.1228293 7:-1.232101 8:0.40060547 9:1.2084967 #
0.11858662663799603154135553495507 1:0.63870043 2:1.2389481 3:0.17775743 4:1.3879811 5:-0.52099985 6:-0.6352492 7:0.51832128 8:0.92349565 9:-0.55109853 #
-0.26626450763157705203809655358782 1:0.95998299 2:0.69928753 3:0.12436186 4:0.81738484 5:0.50600821 6:0.24795099 7:-0.84292662 8:-0.4700492 9:0.83330762 #
0.58994234015671720428031221672427 1:0.30175042 2:-0.035959981 3:0.671408 4:0.52951843 5:-1.1203755 6:-0.92284018 7:1.1892765 8:0.07506483 9:0.33288434 #
-0.94076026834795811737421900033951 1:0.56416523 2:-0.33010662 3:0.8281011 4:0.81756711 5:0.63714331 6:-0.37003374 7:0.52030808 8:0.67587286 9:1.3529317 #
-0.36113947852170119601211695226084 1:-0.18893921 2:-0.39772519 3:0.28160286 4:0.66407919 5:0.3295055 6:-0.49449214 7:-0.056972127 8:1.3231993 9:0.75317651 #
0.12220980180682498861255425026684 1:1.4951576 2:0.80812132 3:-0.71951252 4:1.0553459 5:1.6066116 6:0.59650713 7:0.14899789 8:0.85863805 9:-0.76397032 #
0.39415430589547301165609383133415 1:-0.92888659 2:0.56966156 3:1.3471047 4:0.69446009 5:-0.10861457 6:-0.087034784 7:0.68847972 8:-0.24908718 9:1.2961009 #
-5.3403686212601941818434170272667 1:0.76766568 2:0.3133775 3:0.17001659 4:0.2679702 5:0.74607438 6:0.18628225 7:0.26055145 8:0.13085487 9:0.030122176 #
0.047051565805366193928627183140634 1:0.14305122 2:-0.92912203 3:1.4828453 4:1.3556782 5:-0.66908932 6:-0.42261752 7:0.78305888 8:1.9288592 9:-0.3323634 #
2.8321494612163862214515575033147 1:0.51730609 2:1.0330281 3:0.75420642 4:0.39225814 5:1.1970077 6:0.0093612578 7:-0.012000156 8:0.36493981 9:1.2607135 #
-0.14064096103352158317889575300796 1:1.1254098 2:-0.93908972 3:-0.0029154981 4:-0.85694909 5:-0.49831197 6:1.2006187 7:0.66868949 8:-0.54369777 9:1.6373045 #
0.67088579955091831585889394773403 1:0.69316709 2:0.25635359 3:0.080392934 4:-0.57259876 5:-0.60282385 6:0.19367723 7:0.52955049 8:0.67647231 9:0.13948484 #
-0.441218647803657271211363877228 1:-0.2640357 2:1.0932498 3:0.48345456 4:1.134607 5:-0.10612108 6:0.88733423 7:0.91643924 8:1.1303126 9:0.18309212 #
0.0015524141400663380926938650361535 1:0.031375621 2:-0.82679981 3:-0.5155313 4:-0.36658731 5:1.6611745 6:0.27389705 7:-0.29664588 8:0.61293364 9:0.51559818 #
-0.32448053241548946434846811825992 1:-0.12978303 2:0.055296473 3:0.59290928 4:0.14947258 5:0.73469621 6:1.1589205 7:0.376845 8:1.619781 9:1.3044994 #
0.064386212197649367316998336718825 1:1.4221073 2:0.70294315 3:1.9788647 4:-0.10976452 5:0.17906033 6:0.57165343 7:0.50430256 8:0.095467918 9:0.1706465 #
0.89885852229091534049132405925775 1:0.13663727 2:0.044727214 3:0.61895394 4:-0.094949804 5:0.24944617 6:0.82917297 7:0.048976395 8:0.19567934 9:1.7678585 #
-0.033077259902288998205666104013289 1:1.6460509 2:1.326166 3:1.3554256 4:-0.25143892 5:-1.3098767 6:1.6208432 7:1.2170752 8:0.393327 9:0.97482163 #
-0.18996375592790684661004263489303 1:0.63587451 2:-1.0520941 3:1.0052878 4:-0.17788506 5:1.6320922 6:0.12235685 7:1.4006419 8:0.30320814 9:-0.064268678 #
-0.19351057632547635778408334772394 1:0.95181245 2:1.5614598 3:1.2939218 4:2.1775656 5:-0.44686219 6:0.17887698 7:0.26954919 8:0.55747384 9:0.8469131 #
0.52229948756697874845400519916438 1:0.32619652 2:0.42539275 3:0.84485126 4:0.99233639 5:0.0067742104 6:0.13430575 7:0.52719343 8:1.2874888 9:1.2150881 #
0.41788395429313224260781112207042 1:-0.098517977 2:2.168056 3:0.25284842 4:0.38859078 5:-0.070189461 6:0.12793261 7:0.718786 8:0.664451 9:1.4623709 #
-0.15123288584838445736124867835315 1:-0.64979357 2:-0.067121655 3:0.3952795 4:-0.40381977 5:-1.3014976 6:-1.2955524 7:1.4421934 8:0.029038258 9:0.34948358 #
-0.72420594808757354776673764717998 1:0.58333892 2:-0.57340819 3:0.43158543 4:0.62311953 5:0.61957687 6:1.3157787 7:-0.036901601 8:0.20693268 9:-0.029383652 #
0.11764123733860352982727448534206 1:-0.26218349 2:1.6364754 3:1.3328749 4:2.6052094 5:-0.11848144 6:0.96458334 7:0.81110132 8:1.3316965 9:1.5963426 #
-0.10861750872735798090218395373086 1:0.86780477 2:-0.81609321 3:0.42840782 4:0.29983637 5:1.1609707 6:1.4222312 7:1.3217596 8:0.67841226 9:0.57770079 #
-8.1586429801224475966137106297538 1:0.47649488 2:0.11078224 3:0.77507728 4:0.46585816 5:-0.024483625 6:0.25081715 7:0.922225 8:0.40889573 9:0.59503448 #
0.66898278600261407156324366951594 1:0.38397431 2:0.23282351 3:-0.46265039 4:1.4660801 5:0.41830084 6:-0.24733588 7:-0.41087943 8:0.38204965 9:0.85682821 #
0.077970275928114313179762007166573 1:0.77307642 2:0.77037686 3:0.58885366 4:0.14449102 5:0.85020185 6:0.24563651 7:1.2482016 8:0.81913424 9:-0.71219122 #
0.12482089046969820078647472882949 1:-0.63246381 2:-0.045629758 3:0.78043407 4:-0.21411595 5:0.87839735 6:1.3386406 7:0.11299557 8:2.1639187 9:1.5597421 #
0.34688174871939780885554682754446 1:1.0126168 2:-0.42307544 3:0.22065701 4:-0.067351528 5:1.0650771 6:0.033629596 7:1.1704097 8:-0.24629149 9:0.082747012 #
0.090097127816788288856564292927942 1:1.8204867 2:-0.10476468 3:0.068487719 4:0.7645914 5:0.90872025 6:-0.10546767 7:-0.083132505 8:0.71716315 9:0.81403255 #
-0.88853862488298307464873460048693 1:1.2342412 2:-0.48823646 3:0.10358801 4:1.1059446 5:0.42780909 6:0.10296842 7:1.4399397 8:0.36046022 9:0.3048557 #
10.150941784221382491182339435909 1:0.49531311 2:0.23631203 3:0.34116507 4:1.1045953 5:0.29457065 6:0.38039207 7:0.60423452 8:0.21988304 9:0.82980049 #
0.2891907728227045559776797745144 1:0.36487681 2:1.3417025 3:-0.24858375 4:0.93845189 5:-0.81715363 6:-0.66929942 7:0.44307482 8:0.62332308 9:0.89321226 #
0.078470474082412741689829260849365 1:0.34140718 2:-0.036545977 3:1.4201571 4:-0.5506013 5:1.6036344 6:0.69200367 7:0.34523571 8:-0.073062211 9:0.025057856 #
-0.36186211353993064099299203917326 1:1.0148021 2:0.86449659 3:0.55453539 4:2.4539812 5:0.34002811 6:2.1611004 7:0.017397504 8:0.75857234 9:0.69687504 #
-0.1470379542905962677590281373341 1:0.61866623 2:0.93525082 3:-0.39149991 4:0.28091633 5:0.54154396 6:-0.24341831 7:0.80143166 8:1.535483 9:0.15887982 #
-0.04153234634360833399391310649662 1:1.2927213 2:0.67447609 3:1.2099913 4:2.4134238 5:0.57446152 6:-0.69501752 7:-1.4366264 8:1.2686688 9:-0.096134089 #
-0.55963569023449211137233305635164 1:0.89290345 2:0.4940221 3:1.0702194 4:2.4513266 5:-0.004019496 6:1.2562085 7:-0.15800594 8:0.5055353 9:0.2011241 #
0.25827723741199271056956376924063 1:0.52856666 2:0.78031653 3:0.18360691 4:0.96102667 5:-0.23495448 6:-0.22913517 7:0.82971054 8:0.01026185 9:1.1705413 #
0.20271625610280660789719320291624 1:-0.32197437 2:1.1821966 3:0.94255322 4:1.3721538 5:1.5269523 6:-0.21730098 7:1.0208012 8:0.41491675 9:1.2318723 #
0.49289125946869821737195138666721 1:1.98303 2:0.53139436 3:1.2476779 4:-1.0238947 5:0.87516356 6:1.5352594 7:-0.39064291 8:0.13253197 9:0.47709718 #
0.015575911283415162442156365329993 1:0.95388949 2:1.3740886 3:-0.47599304 4:1.6967145 5:-1.0987024 6:-0.80879027 7:0.77016753 8:0.209461 9:-0.83838207 #
0.21389912179682110671130601531331 1:-0.015490237 2:-0.42998502 3:0.034345284 4:-0.54485881 5:1.2027142 6:-0.46245629 7:0.04130476 8:-0.057250187 9:0.56239891 #
-0.5135730891708470968737287876138 1:0.2005378 2:1.3202674 3:0.95349348 4:-0.51301813 5:-0.74963248 6:1.1816936 7:-0.56383622 8:-0.0023941544 9:1.1122365 #
-0.51828524303186040977919901706628 1:-0.10041701 2:1.2155633 3:0.055759255 4:-0.33288383 5:0.58234882 6:-0.13909321 7:0.51592642 8:0.39989537 9:-0.18808721 #
-0.33822776662771575351129627051705 1:2.4730809 2:-0.46870914 3:1.0820584 4:0.87080562 5:0.86126655 6:-0.122393 7:1.367853 8:-0.047825001 9:0.31252292 #
-0.60870122843806473422745284551638 1:0.13944137 2:-0.52468085 3:0.30054867 4:0.8981753 5:1.3948549 6:1.0222682 7:-0.21125962 8:1.0066658 9:0.55257618 #
-0.28407511019960990372723586006032 1:1.0435697 2:0.89187455 3:1.1186131 4:0.29684502 5:1.7346694 6:1.4771863 7:0.89337283 8:1.1429597 9:-0.93276149 #
5.0405984789137718848905933555216 1:0.79429388 2:0.047680851 3:0.25153732 4:0.19031283 5:1.101024 6:0.58205777 7:1.2287103 8:0.44883585 9:0.21506572 #
1.129897812882730834260769370303 1:1.0324839 2:-0.021963455 3:0.12372559 4:-0.16346291 5:-0.3459031 6:0.65050048 7:-0.23000808 8:0.82910585 9:0.51917785 #
