SVM-light Version V6.20
2 # kernel type
3 # kernel parameter -d 
1.5 # kernel parameter -g 
1 # kernel parameter -s 
1 # kernel parameter -r 
empty# kernel parameter -u 
10 # highest feature index 
23 # number of training documents 
1001 # number of support vectors plus 1 
0 # threshold b, each following line is a SV (starting with alpha*y)
-2.2289928029393273334335390245542 1:1.0347697 2:0.25817341 3:0.63561893 4:0.84242058 5:0.021625176 6:0.51340407 7:0.55127847 8:0.47808099 9:0.50325716 10:0.49555266 #
-1.4071073580694024585113766079303 1:0.38958165 2:0.5312261 3:0.48466736 4:0.43463293 5:0.56505364 6:0.50234705 7:0.48135492 8:0.49986902 9:0.49946392 10:0.50212383 #
-1.8817379114879559942608011624543 1:0.50940645 2:0.090843067 3:0.39570302 4:0.52845216 5:0.20245749 6:0.61917621 7:0.45895204 8:0.45582193 9:0.54153812 10:0.49822232 #
0.95140530412598112164346275676508 1:1.1639431 2:0.47789371 3:0.26248536 4:0.2233904 5:0.73580742 6:0.59882587 7:0.44539496 8:0.48175931 9:0.54202932 10:0.49751911 #
-1.3407983927919568944986394853913 1:0.84113157 2:0.93640083 3:0.77686614 4:0.54543662 5:0.7807973 6:0.34182295 7:0.54732448 8:0.55676156 9:0.44143328 10:0.51163644 #
1.6910278721023324077776806007023 1:0.14032724 2:0.42682701 3:0.76596195 4:0.91041797 5:0.0030748372 6:0.40980589 7:0.56262249 8:0.50590068 9:0.47725505 10:0.49950805 #
0.096569515567147740098263852814853 1:0.88758743 2:-0.059758641 3:0.94004279 4:0.35818714 5:0.91132128 6:0.30744052 7:0.54773563 8:0.55970669 9:0.41997507 10:0.50198168 #
-0.65015474811494111673226825587335 1:0.07238505 2:0.083932668 3:0.77248347 4:0.29562896 5:0.54180676 6:0.39593032 7:0.44323575 8:0.55449378 9:0.53779989 10:0.53040516 #
-2.2478749358185385887054508202709 1:0.78289783 2:0.41153592 3:0.76606423 4:0.96942335 5:0.62989569 6:0.49200037 7:0.29038846 8:0.38896292 9:0.30226022 10:0.45170629 #
0.99439213076020782633435146635748 1:0.88051128 2:1.0007204 3:0.15699005 4:0.688555 5:0.19687591 6:0.59911078 7:0.48440596 8:0.4494206 9:0.48958558 10:0.49177074 #
0.97881982538592038345370838214876 1:0.97778267 2:-0.012591468 3:0.85828817 4:0.36549127 5:0.32438752 6:0.65013611 7:0.12664638 8:0.39066756 9:0.55046195 10:0.4878605 #
-1.2863881185455789957217120900168 1:0.69828826 2:0.75571871 3:1.1257753 4:0.55764389 5:0.38578844 6:0.35245559 7:0.39499837 8:0.53020829 9:0.47484511 10:0.51752281 #
0.083655445258386973428343935665907 1:0.49503154 2:0.86669266 3:0.6989395 4:0.66093367 5:0.081451528 6:0.73307735 7:0.13793853 8:0.18764746 9:0.21169721 10:0.7713927 #
0.028483144472293369514614980175793 1:0.90011567 2:0.78086895 3:0.42275321 4:0.24504499 5:0.13283829 6:0.34624806 7:0.24443156 8:0.71695364 9:0.75827992 10:0.21521714 #
-2.2369708226519340321658546599792 1:0.63677508 2:0.40028033 3:0.47538891 4:-0.027001044 5:0.24335751 6:0.3667933 7:0.37618822 8:0.57578385 9:0.68367648 10:0.7559275 #
0.70465821296253294825362445408246 1:0.89905965 2:0.15113021 3:0.7140668 4:0.37018058 5:0.22494714 6:0.43555066 7:0.88510388 8:0.52763277 9:0.64584148 10:0.92804545 #
-2.9406373078068424042896822356852 1:0.59490192 2:0.59427351 3:0.35284457 4:0.77791721 5:0.39925745 6:0.41837379 7:1.0208824 8:0.62707543 9:0.56849986 10:0.59666651 #
2.4780702205703768470357317710295 1:0.24844868 2:0.48061299 3:0.3156718 4:0.92070842 5:0.1117375 6:1.1268885 7:0.76706928 8:0.55010641 9:0.52958792 10:0.26118848 #
-1.8388981609822492302441787614953 1:0.73760045 2:0.37459037 3:0.7047357 4:0.33935156 5:0.47836301 6:0.93420285 7:0.67454618 8:0.50442183 9:0.54326391 10:0.15767078 #
2.2537443096903664319086146861082 1:0.39300126 2:0.19765325 3:0.8291266 4:0.57663566 5:-0.18855962 6:0.57069063 7:0.25827926 8:0.17482941 9:0.39398539 10:0.2276803 #
4.3308858580941613780623811180703 1:0.16731714 2:0.47750247 3:0.31228778 4:0.73755068 5:1.1183915 6:0.12827964 7:0.91303962 8:0.60282129 9:0.44116318 10:0.49509937 #
1.7504010205011104606143135242746 1:0.879058 2:1.0596232 3:0.320032 4:0.36611447 5:0.57020557 6:0.88485986 7:0.77880669 8:0.76418072 9:0.65928745 10:0.48115912 #
-1.7027410752432701190883790332009 1:0.52716702 2:0.50076479 3:0.6145857 4:0.96638596 5:0.48516747 6:-0.030594407 7:0.68661302 8:0.33152813 9:0.26756945 10:0.40882531 #
-1.6417275743124273290618475584779 1:0.7865445 2:0.44658586 3:0.58563077 4:0.62665701 5:0.75785935 6:0.40969518 7:0.49645558 8:0.97396117 9:0.82584262 10:0.67654335 #
-2.0127846553209463031919312925311 1:0.80355567 2:0.42366958 3:0.53775597 4:0.31751946 5:0.28657877 6:0.64001 7:0.62759131 8:0.020530829 9:0.20450144 10:0.48659196 #
0.0058088483919948273592748222426962 1:0.90367532 2:0.23022358 3:0.53585845 4:0.82175225 5:1.1359245 6:0.96869195 7:0.40488738 8:0.36222747 9:0.52770597 10:0.57345045 #
-1.3466757894645475790440514174406 1:0.65540814 2:0.36739662 3:0.87097305 4:0.60882229 5:0.76831836 6:0.56552905 7:0.82882643 8:0.26006475 9:0.47953138 10:0.93842745 #
-1.4552951851299367191927558451425 1:0.81054711 2:0.37987185 3:0.40743589 4:0.66071498 5:0.21743704 6:-0.035114363 7:0.079252213 8:0.56236094 9:0.3806251 10:0.72351915 #
0.18250976051844985947880672938481 1:0.98814046 2:0.28702211 3:0.77014631 4:0.5360952 5:0.6889416 6:0.021811396 7:0.69679439 8:0.23524235 9:0.88328457 10:0.32189658 #
0.66589989358458823165420881196042 1:0.90683621 2:0.73639423 3:0.24168219 4:0.48193017 5:0.47022316 6:0.46173579 7:0.42287648 8:0.58348763 9:0.15266283 10:1.0486858 #
-2.0107071435602557052391148317838 1:0.31948856 2:0.81104374 3:0.26818997 4:1.0003597 5:0.33440393 6:0.45985106 7:0.39201596 8:0.88724506 9:0.22859123 10:0.46901667 #
2.1378605936377303997630860976642 1:1.0606436 2:1.0905125 3:0.41049773 4:0.48114887 5:0.72235221 6:0.17532167 7:0.14202972 8:0.22930865 9:0.50283206 10:0.76130605 #
-0.050972706584331020640554754663754 1:0.86930686 2:0.36968428 3:0.52801293 4:0.63624144 5:0.19409826 6:0.4451299 7:0.66106176 8:0.95742005 9:0.060915165 10:0.05223446 #
2.3837348060364691448853591282386 1:0.60558742 2:0.55264133 3:0.4265388 4:0.89264226 5:-0.040458471 6:0.94351286 7:0.76537395 8:0.63909042 9:0.44834113 10:1.0019886 #
-2.3016353563454186037517956719967 1:0.81781536 2:0.36406684 3:0.22285506 4:0.51822764 5:0.49364933 6:0.8774296 7:0.3149924 8:0.28749454 9:0.5375967 10:0.87127244 #
-1.9214982260849700068661149998661 1:0.69638842 2:0.35579836 3:-0.085567959 4:0.60109204 5:0.67525929 6:0.32691988 7:0.26264113 8:0.41325897 9:0.37517974 10:0.16915621 #
1.0447394941722860650656912184786 1:0.86571741 2:0.87095243 3:0.18528187 4:0.52080321 5:0.50911313 6:0.16501585 7:1.0430435 8:0.066839695 9:0.66414934 10:0.50823849 #
-1.5014112529317029665065774679533 1:0.52374107 2:0.50418621 3:0.32540086 4:0.87360805 5:0.54952753 6:0.40543261 7:0.44674051 8:0.14218846 9:0.97321832 10:0.53338075 #
-0.82398469584028877221726361312903 1:0.44228885 2:0.38904777 3:0.56889355 4:0.2189731 5:0.20770769 6:0.26686499 7:0.91474396 8:0.61373252 9:0.78361028 10:0.061644133 #
0.53943456328363958984795090145781 1:0.90588611 2:0.93354809 3:0.35864332 4:0.78264922 5:0.92076945 6:0.55375874 7:0.54093027 8:0.62901354 9:0.12407444 10:0.031270523 #
0.37139130961612065728871812098077 1:1.0998515 2:0.14766161 3:0.29099789 4:0.86946934 5:0.82574672 6:0.59928304 7:0.079421856 8:0.018713139 9:0.11638977 10:0.20815776 #
1.3921742051459069511309962763335 1:1.0956428 2:0.93584603 3:0.48997661 4:0.99216121 5:0.66674107 6:0.82453328 7:0.3435446 8:0.76650596 9:0.59198958 10:0.69884539 #
2.5594810878083125160742383741308 1:0.23435548 2:0.32406142 3:0.37999597 4:0.7609722 5:-0.050195359 6:0.080516361 7:0.1526971 8:0.2905452 9:0.2238228 10:0.33697766 #
-0.85535355983513849942312390339794 1:0.79458135 2:0.37030953 3:0.64170998 4:0.20520143 5:0.83171254 6:0.078331441 7:0.21518277 8:0.11583707 9:0.5908587 10:0.69686562 #
2.2951538851374366778657076793024 1:0.41782311 2:0.26889643 3:0.74239564 4:0.70646328 5:-0.026323274 6:0.21392193 7:0.2998164 8:0.71907127 9:1.0117489 10:0.71178055 #
-1.1656333370327058851501078606816 1:0.58813977 2:0.27058819 3:0.50524753 4:0.37308997 5:0.26072553 6:0.77991474 7:0.29071289 8:0.89889145 9:0.035433866 10:0.54767513 #
1.3661887857306564963977280058316 1:1.1593136 2:0.40981802 3:0.8251496 4:0.31008279 5:0.48517713 6:0.46353078 7:0.27684245 8:0.81796783 9:0.14970522 10:0.80666608 #
0.72313289052141616064517393169808 1:1.2037023 2:0.25097272 3:0.68932843 4:-0.01830929 5:0.33227503 6:1.0447878 7:0.70915747 8:0.58185518 9:0.2811957 10:0.46560612 #
-1.0636999026816928992644761819975 1:0.71111465 2:0.51182616 3:-0.11656758 4:0.31589845 5:0.34543854 6:0.79828417 7:0.81033045 8:0.37071422 9:0.29744363 10:0.18328252 #
0.94470069732040840015940830198815 1:0.60422891 2:0.46477982 3:0.59614122 4:0.79985446 5:-0.093036316 6:0.40790012 7:0.93563819 8:0.35951763 9:-0.084012367 10:0.58615345 #
1.2857911925869451863491121912375 1:0.94725639 2:0.96182156 3:0.16099845 4:0.03666712 5:0.49836218 6:0.093184084 7:0.63924104 8:0.76988435 9:0.46029803 10:0.46086666 #
1.8221348180548178063986597408075 1:0.1983043 2:0.29756606 3:0.75187725 4:0.68426079 5:-0.01699847 6:0.45237118 7:0.22803655 8:0.90360272 9:0.033317186 10:0.84074628 #
-1.0082641468905948478607115248451 1:0.44371343 2:0.20312651 3:0.93504584 4:0.68895757 5:0.41984537 6:0.67847854 7:0.88948315 8:0.97404718 9:0.50258905 10:0.58478343 #
0.67668983055614018162771117204102 1:0.56704944 2:0.84681028 3:0.80758739 4:0.8093518 5:-0.15386535 6:0.2425409 7:0.74241757 8:0.35994372 9:0.43135136 10:0.0015229681 #
-1.5799501808666516211587804718874 1:0.9603579 2:0.3029342 3:0.22497927 4:0.39589491 5:0.90611905 6:0.56655854 7:0.94072741 8:0.72939551 9:0.393648 10:0.41961223 #
0.97393155050827195928775381617015 1:1.0709965 2:-0.066068389 3:0.32664958 4:0.77139676 5:0.61913383 6:0.5714612 7:0.60400057 8:0.74725848 9:0.81624031 10:0.16092606 #
0.74011888588674434874548069274169 1:1.0040294 2:-0.15504837 3:0.3607806 4:0.27830583 5:0.36846039 6:0.18691951 7:0.6977703 8:0.15094212 9:0.39724642 10:0.4610472 #
0.75946476468469203968680858451989 1:1.0977801 2:0.87628824 3:0.34368891 4:0.89661819 5:0.55131221 6:0.045872126 7:0.73526353 8:1.0145873 9:0.34863427 10:0.59858 #
0.092286464014527183619129857561347 1:0.83539557 2:0.63332897 3:0.5987618 4:0.7872026 5:0.22445147 6:0.8641969 7:0.85448235 8:-0.065478802 9:0.83903515 10:0.41351518 #
0.54998518127324524940036098996643 1:1.0724081 2:1.1489069 3:0.23017515 4:-0.047099836 5:0.43228498 6:0.75213724 7:0.22618271 8:0.39906019 9:0.53191531 10:0.54767817 #
0.66539471038316244655419495757087 1:1.0610492 2:0.61475688 3:0.53495264 4:0.64495903 5:0.66880655 6:0.22881347 7:0.6514194 8:0.03301926 9:-0.024889184 10:0.36486214 #
0.079052703777192118161920575403201 1:0.6193282 2:0.57060599 3:0.58803552 4:0.67534208 5:-0.056247413 6:0.79349816 7:0.71199661 8:0.91979098 9:0.96017867 10:0.319794 #
-2.1718931862442065749974062782712 1:0.33409745 2:0.11745206 3:0.68396086 4:1.1138968 5:0.49680248 6:0.22344047 7:0.45749336 8:0.79077965 9:0.71876049 10:0.29729182 #
-1.1462846610567811733716325761634 1:0.31858465 2:0.14077997 3:0.24773508 4:0.9514972 5:0.58176494 6:0.23479337 7:0.62604988 8:0.49272963 9:0.31786588 10:0.96386713 #
0.61439415681858333684317585721146 1:0.9642092 2:0.29854843 3:-0.076094247 4:0.83174652 5:0.092432432 6:0.42325884 7:0.72415835 8:0.42890152 9:0.79695445 10:0.72659564 #
0.83847207030398340776855548028834 1:1.0011666 2:0.02164253 3:0.66548806 4:0.35740814 5:0.61355686 6:0.36762923 7:0.010411847 8:0.9978385 9:0.68646866 10:0.20408513 #
-0.46436276630879391724704419175396 1:0.7143535 2:0.52569151 3:0.56272244 4:0.45317438 5:0.98090434 6:0.02163944 7:0.25204474 8:0.86642301 9:0.075928375 10:0.55189234 #
1.6644252005216644274554482763051 1:1.0282893 2:-0.13948898 3:0.23869017 4:0.1643105 5:0.57299072 6:0.57875884 7:0.25963962 8:0.44380331 9:0.25996733 10:0.93450022 #
0.35910891124481048031213958893204 1:0.95335382 2:-0.0041109831 3:0.38913149 4:0.78978974 5:0.30743542 6:0.90928274 7:1.0277321 8:0.29678667 9:0.29302171 10:0.32163644 #
-0.68902193270458478302487037581159 1:0.46878678 2:0.37185597 3:0.69249976 4:0.65897828 5:0.33891124 6:0.78458405 7:0.057453375 8:0.39813921 9:0.38737005 10:-0.06592235 #
2.4184810142841381974676551180892 1:1.2480063 2:1.0263391 3:0.50210369 4:0.080492869 5:0.29776204 6:0.49598506 7:0.8476696 8:0.29568204 9:0.41201672 10:0.47915387 #
0.049503191758990337800749870211803 1:0.82907867 2:0.093243554 3:0.80958664 4:0.85410839 5:0.65175289 6:-0.092347577 7:0.812415 8:0.61166072 9:0.32399067 10:0.84091187 #
-0.081495202008649278435648000140645 1:0.78108263 2:0.87448871 3:0.13861804 4:0.67192841 5:0.87727678 6:0.74426162 7:0.01945308 8:0.58181995 9:0.79975671 10:0.35554263 #
-0.51656109449651932408187349210493 1:0.57914191 2:0.72612166 3:0.064403087 4:-0.10446226 5:1.1765381 6:0.62682378 7:0.85560673 8:0.065467261 9:0.4326261 10:0.38423407 #
-1.2521874380956738992409782440518 1:0.44227552 2:0.94233757 3:0.54128665 4:0.24629886 5:0.077754676 6:0.51708412 7:0.74936992 8:0.42177266 9:0.17174861 10:0.15422769 #
0.23735273228588782412629143436789 1:0.94170636 2:0.67054856 3:0.23509823 4:0.67501372 5:0.90144497 6:0.72927135 7:0.96365374 8:0.37365142 9:0.93932068 10:0.89402902 #
2.0809701061297323221310762164649 1:0.33848935 2:0.37542582 3:0.48343754 4:0.72475004 5:-0.1101054 6:0.096893154 7:0.72919953 8:0.11056733 9:0.65527606 10:0.91587746 #
1.0833368520450852301451050152536 1:1.06967 2:0.97871763 3:0.4268308 4:0.645904 5:0.7143566 6:0.26552522 7:0.18395546 8:0.20768987 9:0.70029002 10:-0.06433586 #
-1.2837449923220540792812016661628 1:0.26132485 2:0.93598646 3:0.41347766 4:0.74304235 5:0.37461379 6:0.57888955 7:0.60946131 8:0.39876992 9:0.96832609 10:0.080888845 #
1.5377851715089079220888379495591 1:0.51448745 2:0.31603032 3:0.2303814 4:0.96054953 5:-0.17548026 6:0.20158537 7:0.39878279 8:0.90003693 9:0.52721298 10:0.2888203 #
1.4937864882633229424158116671606 1:1.1507531 2:1.149411 3:0.34278455 4:0.30486009 5:0.41107234 6:0.49399444 7:0.15786056 8:0.94907951 9:0.26914901 10:0.46123928 #
2.1262405283847201076241617556661 1:0.24315697 2:0.7963165 3:0.85585922 4:0.66292942 5:1.2613579 6:0.11396993 7:0.88621777 8:0.4195213 9:0.53565639 10:0.31813258 #
-0.58976473038285381900180937009281 1:0.78083348 2:0.52200335 3:0.79878837 4:0.13589102 5:0.72073597 6:0.53483987 7:0.11928936 8:0.31223306 9:0.21351665 10:0.080317989 #
0.41268311811167979197279009895283 1:0.62259126 2:0.37598243 3:0.1581472 4:0.92064095 5:0.20759636 6:0.76188225 7:0.63734943 8:-0.05160502 9:0.26634714 10:0.9271338 #
0.45754710363808048789735494210618 1:0.58175272 2:0.034059126 3:0.97413063 4:0.49428016 5:0.15246864 6:0.12695672 7:0.50785142 8:0.77892387 9:0.23001567 10:0.073497929 #
-0.81766475284640449672224349342287 1:0.80794924 2:0.44887364 3:0.57767701 4:0.11140183 5:0.14476177 6:0.0010207205 7:0.49043825 8:0.32129195 9:0.15785506 10:0.30243087 #
-0.94283816559516919753036745532881 1:0.7678715 2:0.43029264 3:0.11733995 4:0.4187842 5:0.36643016 6:0.88004124 7:0.22879772 8:0.9930777 9:0.82862639 10:0.22913632 #
-1.2812330777155498395813992829062 1:0.75566661 2:0.87661362 3:0.81078893 4:0.30480996 5:0.05301027 6:0.75043106 7:0.58432853 8:0.83680904 9:0.56926501 10:0.89729762 #
-0.55056393619354260238196729915217 1:0.35194531 2:0.9480499 3:0.18660288 4:0.65326685 5:0.29459038 6:0.0021298383 7:0.22467305 8:0.47347653 9:0.73648471 10:0.64556742 #
-1.3468092163196929700319515177398 1:0.63719445 2:0.36028066 3:0.0080610327 4:0.16150707 5:0.53605258 6:0.84507668 7:0.48869163 8:0.39567095 9:0.25614074 10:0.97462732 #
-1.1272388935295110101719728845637 1:0.84624022 2:0.54451936 3:0.36325246 4:0.7336657 5:0.81890905 6:0.93870091 7:0.81805414 8:0.20520766 9:0.64827317 10:0.28573084 #
-0.78604871174308288406251676860848 1:0.61383015 2:0.79373962 3:0.30159199 4:0.8589341 5:1.0104407 6:0.77591509 7:0.78804463 8:0.65730888 9:0.0033737321 10:0.83491957 #
1.3153603446726922499010470346548 1:0.64790696 2:0.29455465 3:0.067688495 4:0.92273039 5:-0.2273805 6:0.78791374 7:0.13869591 8:0.12141744 9:0.77255476 10:0.45728189 #
-0.49242612324469225981715680973139 1:0.65939349 2:0.50053954 3:0.87190872 4:0.50755966 5:0.28927422 6:0.67874688 7:0.028368307 8:0.31567115 9:1.0776595 10:0.51170796 #
-0.30537698296996507174583257437916 1:0.9319365 2:0.98974353 3:0.69084483 4:0.81957901 5:0.072784349 6:0.22208677 7:0.34629789 8:0.59510189 9:0.7987954 10:0.92470026 #
1.2275581592351434423449063615408 1:1.2074683 2:-0.080122039 3:0.098895356 4:0.63980627 5:0.48358965 6:0.62604904 7:0.46980545 8:0.94491452 9:0.36326805 10:0.68064064 #
-0.6233025882069985756928076625627 1:1.676312 2:1.2627028 3:0.48642999 4:-0.1848955 5:0.23246478 6:0.5358175 7:1.0017922 8:0.21574615 9:0.39741591 10:0.47167891 #
1.1394960402849942937564264866523 1:0.97120738 2:0.95784771 3:0.33984202 4:0.28774706 5:0.70084786 6:0.97505927 7:0.40711302 8:0.10910487 9:0.017438265 10:0.4579477 #
-0.76893044479794769863190140313236 1:-0.052241988 2:0.56424361 3:0.72247756 4:0.9717921 5:0.40672117 6:0.48245299 7:0.77046674 8:0.014869145 9:0.24419986 10:0.30138537 #
-0.48960299752561320385524368248298 1:0.68572903 2:0.40517637 3:0.34016824 4:0.027392806 5:0.21406376 6:0.00079645426 7:0.98601013 8:0.10309383 9:0.65185469 10:0.809726 #
0.38035924497695822177334434854856 1:0.67996353 2:0.57989633 3:0.44200179 4:0.27827054 5:0.8884235 6:0.093809016 7:1.0928421 8:0.54242086 9:0.030433239 10:0.23778675 #
-0.78916928280933595907242761313682 1:0.72370553 2:0.48476014 3:0.29883993 4:1.024496 5:0.33054516 6:0.44034874 7:0.15772592 8:0.7520203 9:0.81701428 10:0.8152793 #
-0.84040130634865817249590236315271 1:0.71217579 2:0.63922578 3:0.58542204 4:0.92115343 5:0.59042627 6:0.412552 7:0.78949869 8:0.89119476 9:0.75447214 10:-0.12170707 #
5.28668155184481047825784116867 1:0.12767057 2:0.39762592 3:0.52943832 4:0.98804468 5:1.2186234 6:0.87656653 7:0.30948576 8:0.5648042 9:0.56190848 10:0.34550744 #
-0.010826768724242775629451607244391 1:0.93630135 2:0.51970726 3:0.57604218 4:0.93453473 5:0.052622564 6:0.81719601 7:-0.01205417 8:0.87911391 9:0.37826273 10:0.21003644 #
1.6530341737416935909976700713742 1:1.2764516 2:0.083782896 3:0.85258645 4:0.82706904 5:0.64318776 6:0.61585879 7:0.36793888 8:0.52563602 9:0.82113206 10:0.74559891 #
-1.2697397460329227225628301312099 1:0.57944119 2:0.56119257 3:0.8037768 4:0.23375633 5:0.78187919 6:0.93251818 7:0.64457077 8:0.47465464 9:0.99563521 10:0.61391741 #
0.043673261069758238794857874154332 1:0.14242508 2:0.39464465 3:0.58041084 4:0.01064577 5:0.059699982 6:0.27324393 7:1.1091279 8:0.61142528 9:0.90944475 10:-0.25616527 #
-1.4185089859544572910010629129829 1:0.05274231 2:0.77074593 3:0.87132847 4:1.0615765 5:0.33302382 6:0.26867312 7:0.77668375 8:0.70841646 9:0.58372474 10:0.88544768 #
-0.8142018867350534483406931940408 1:0.74465519 2:0.18612029 3:0.16905457 4:0.19005911 5:0.71639973 6:0.36933285 7:0.47973055 8:0.32036498 9:1.0196649 10:0.15261459 #
-0.7484167231949094833964863937581 1:0.86133403 2:0.88953269 3:0.82255739 4:0.3893142 5:-0.058725521 6:0.13780436 7:0.8131367 8:0.084029056 9:0.69448709 10:0.50492328 #
-2.0686852080991200431014931382379 1:0.014581094 2:0.19060759 3:0.98220527 4:1.1587903 5:0.32037565 6:0.36550894 7:0.30391532 8:0.41565466 9:0.34540752 10:0.72284293 #
1.3933789415207304962507350865053 1:1.2776396 2:0.021844756 3:0.9302476 4:0.62735951 5:0.64186203 6:0.69338441 7:0.47697541 8:0.6383099 9:0.079522833 10:0.12539111 #
-1.0750803281381575704500619394821 1:-0.17554778 2:0.32959428 3:0.31970862 4:0.96336669 5:0.59945446 6:0.64285934 7:0.89877069 8:0.71544898 9:0.51873899 10:0.14015615 #
1.559280843077894607162647844234 1:1.1656047 2:0.0090765124 3:0.66941547 4:-0.017751781 5:0.55158263 6:0.73650342 7:0.60672754 8:0.229627 9:0.93729448 10:0.37746486 #
0.13064126655605995397380070244253 1:0.79700387 2:0.59947312 3:0.35915044 4:0.49622864 5:0.083548337 6:-0.31372353 7:0.15741362 8:0.89923292 9:0.29769614 10:0.70544922 #
-1.0264919037627868725337521027541 1:0.68224782 2:0.2961078 3:0.52242744 4:0.18026337 5:0.14099854 6:0.46540168 7:0.43649691 8:0.024337865 9:0.75389063 10:0.13256525 #
0.057471234219126116071763021864172 1:0.6307407 2:0.053525623 3:0.45983997 4:0.067990713 5:0.45306364 6:0.7038306 7:0.73175097 8:0.9251678 9:0.19599502 10:0.1389576 #
0.021465436550386549768854038688914 1:0.63273537 2:0.11869957 3:0.86564946 4:0.77610111 5:0.17984252 6:0.45292506 7:0.10671049 8:0.020770166 9:0.37293884 10:1.0145749 #
-0.18844639948744504320821135934239 1:0.84445769 2:0.62319046 3:0.54839677 4:0.11266451 5:-0.063339621 6:0.978706 7:0.10885486 8:0.28076246 9:0.48125929 10:0.56690878 #
-0.7070812054917404720910667492717 1:0.035224963 2:0.71999288 3:0.06206945 4:0.73049819 5:0.16603526 6:0.86179149 7:0.39718053 8:0.2589435 9:0.68196082 10:0.64564842 #
-0.40748961286164070427773253868509 1:0.90002573 2:0.62553185 3:0.98883516 4:0.030596089 5:0.52553338 6:0.3461552 7:0.97476798 8:0.75515223 9:0.37252632 10:0.23969564 #
-0.40919208940214413239289115153952 1:0.62103409 2:0.8518672 3:0.2580893 4:0.85763246 5:0.45591292 6:0.47324306 7:0.10762143 8:-0.027126854 9:0.20522767 10:0.22367682 #
0.68797968127517283853933349746512 1:1.1676744 2:0.22117421 3:0.60885316 4:-0.039886266 5:0.48120731 6:0.17527877 7:0.63881922 8:0.9472096 9:0.64862424 10:0.89290214 #
1.1195280170262535968106476502726 1:0.5080539 2:0.65771246 3:0.6082359 4:0.80511618 5:-0.19503404 6:0.21832792 7:0.055198319 8:-0.011832278 9:0.89421445 10:0.55832845 #
1.700920155164875158249060405069 1:0.19673246 2:0.75564855 3:0.76135892 4:0.77960622 5:1.2066567 6:1.0525702 7:0.55536276 8:0.57096887 9:0.78009999 10:0.86790466 #
0.87722819688471020960207624739269 1:0.66942763 2:0.23991533 3:0.70294404 4:0.66154903 5:1.0230405 6:0.051183652 7:1.00128 8:0.81953263 9:0.57892525 10:0.076462016 #
2.096874071518149307280509674456 1:1.2237056 2:0.96256155 3:0.3183637 4:0.51571131 5:0.6110884 6:0.39725843 7:0.46745911 8:0.61772192 9:1.1732299 10:0.57975084 #
-1.1228928661600880989368533846573 1:0.78173971 2:0.83962798 3:0.95263582 4:0.35270336 5:0.99619639 6:0.55321503 7:0.52365786 8:0.010076826 9:0.4235988 10:0.27852681 #
1.0776508708947145631640296414844 1:0.56655997 2:0.65738934 3:1.1038308 4:0.81957138 5:-0.14098839 6:1.0031322 7:0.57155693 8:0.70668101 9:0.24136174 10:0.25637516 #
0.22591782369441423816702751992125 1:0.025347983 2:0.18191348 3:0.41405222 4:0.66066492 5:0.017634384 6:0.14916189 7:0.99527878 8:0.79680669 9:0.68525344 10:0.53795809 #
-1.1697405083167071726535368725308 1:0.75515914 2:0.25441331 3:-0.025504662 4:0.25010192 5:0.069970585 6:0.17776984 7:0.78076917 8:0.87704229 9:0.39819059 10:0.57818913 #
1.5521989114350311922407854581252 1:1.2063353 2:0.18021762 3:0.84021914 4:0.91786546 5:0.8674202 6:0.01623228 7:0.058254972 8:0.52427483 9:0.29253447 10:0.46345159 #
0.2338661078890888478376552939153 1:0.067655787 2:1.106123 3:-0.13587227 4:0.90084773 5:-0.42574739 6:0.97458357 7:0.92507148 8:0.39744419 9:0.28099698 10:0.42384541 #
1.5995821402751069228997948812321 1:0.22199139 2:0.16863951 3:0.32838905 4:0.48229563 5:0.94508201 6:0.081829414 7:0.98525941 8:0.042937264 9:0.79465783 10:0.16794024 #
0.14151247684786799618805730460736 1:0.6748572 2:0.88650912 3:0.64732194 4:0.86716801 5:0.036190957 6:0.0873897 7:0.1076756 8:0.65567625 9:0.044237055 10:0.364921 #
0.93938296024624867719410303834593 1:1.2201514 2:0.21368311 3:0.74316508 4:0.79296339 5:0.74475372 6:0.53344363 7:0.59074217 8:0.03235295 9:0.1484343 10:0.96511221 #
0.30848991931533081833904930135759 1:0.87733734 2:0.97123253 3:0.57904953 4:1.0532016 5:0.86222595 6:0.48085195 7:0.53795761 8:0.12058221 9:0.64488482 10:0.79652846 #
0.49045656694234152084277411631774 1:1.1924686 2:0.5185346 3:-0.011400512 4:0.32191306 5:0.16204023 6:0.25780734 7:0.37801924 8:0.16779995 9:0.38202053 10:0.15490831 #
0.037560226177825964399836777829478 1:0.32897988 2:0.27685249 3:0.83531916 4:0.46895215 5:0.3621543 6:1.0161661 7:0.69721907 8:0.43038473 9:0.0807008 10:0.76849657 #
-0.51624727844645112995181079895701 1:0.79855692 2:0.69190258 3:0.41456723 4:-0.051650107 5:1.1640693 6:0.64480072 7:0.30004349 8:0.79334414 9:0.36018059 10:0.48843217 #
-1.2224534920680483196520071942359 1:0.81027508 2:0.38033524 3:0.66429454 4:1.0015061 5:0.46985447 6:0.94596255 7:0.41829383 8:0.77142018 9:0.18669182 10:0.79544222 #
1.4301393646014410876432521035895 1:0.24349964 2:0.6970126 3:0.86744654 4:0.65315539 5:1.0187135 6:0.011039933 7:0.93593341 8:1.0569056 9:0.20232576 10:0.79669785 #
0.72576445993961646863112946448382 1:1.0229156 2:0.20050383 3:0.86970747 4:0.15084614 5:0.79999071 6:0.8552314 7:0.51224118 8:1.0195708 9:0.83417904 10:0.78066647 #
-0.9454041619442608013201834182837 1:0.47584942 2:0.84696925 3:0.82988536 4:0.92876357 5:0.46128574 6:1.0461013 7:0.25571325 8:0.77420866 9:0.71075219 10:0.34955686 #
1.8371956720216866543182732129935 1:0.32121176 2:0.56832957 3:1.009207 4:0.89010304 5:0.046105076 6:0.99942815 7:0.64885294 8:-0.021746181 9:0.58785737 10:0.33813751 #
0.65581756031173821241964105865918 1:0.97583383 2:0.84082019 3:0.37649867 4:-0.044873249 5:0.52572578 6:0.52469242 7:0.49974358 8:0.1126546 9:0.83040249 10:1.1377434 #
-0.56664867735566459838736363963108 1:0.88192964 2:0.64701635 3:0.29854551 4:0.10355657 5:1.1378223 6:0.055430442 7:0.57021266 8:0.49039194 9:0.75718307 10:0.67899257 #
1.4055398694450278451739677620935 1:0.1753687 2:0.37316447 3:0.72530711 4:0.77452207 5:-0.010630227 6:0.85753304 7:-0.03458732 8:0.78558296 9:0.69884944 10:0.66269934 #
0.42393785949127016365878262149636 1:0.82754546 2:0.57376748 3:0.81951308 4:0.86616552 5:-0.032792192 6:0.010968118 7:1.0036095 8:0.78201294 9:0.74653065 10:0.50890064 #
-1.0613004944459358824815353727899 1:-0.089995049 2:0.81871694 3:0.31249887 4:1.0982751 5:1.2744759 6:0.16551185 7:0.86886549 8:0.71472847 9:0.50747132 10:0.44680068 #
0.1749101126771151759609068676582 1:0.98550546 2:0.67787635 3:0.019485269 4:1.0394918 5:0.1990311 6:0.82851028 7:0.7843892 8:0.49731457 9:0.35744181 10:0.0054402929 #
-0.55789494457349508849119956721552 1:0.79977524 2:0.12268116 3:0.50996596 4:0.38693875 5:0.035866477 6:0.24168515 7:0.42789057 8:0.92462254 9:1.1970911 10:0.6294412 #
0.94665490832264498344272851682035 1:0.40679088 2:0.61591744 3:0.047831878 4:0.87391436 5:-0.024551317 6:1.0126882 7:1.0789146 8:0.2084461 9:1.1119357 10:0.50719523 #
0.40436360444549046544437942429795 1:0.37699759 2:0.07532613 3:0.99660909 4:0.46200433 5:0.049194187 6:0.22380513 7:0.92987496 8:0.16065042 9:0.38459295 10:0.50127697 #
0.90173276637536903255210063434788 1:0.43185839 2:0.5804857 3:0.70910549 4:0.90502822 5:-0.31374815 6:0.048124824 7:0.42762697 8:0.56740248 9:0.31237566 10:0.83204579 #
-1.0582883786507157886092045373516 1:0.63674885 2:0.58362991 3:0.50664586 4:0.14161611 5:0.68357992 6:0.32521331 7:0.8076129 8:0.23730585 9:-0.083592713 10:0.90711743 #
0.82692386264664252681910738829174 1:1.0381585 2:0.10283921 3:0.90461487 4:0.19737966 5:0.76938897 6:0.93625647 7:0.80271202 8:0.1324078 9:0.36768791 10:0.85298687 #
-1.4188786713698724462062727980083 1:0.45959169 2:-0.003410789 3:0.29026881 4:0.87644327 5:0.45568988 6:0.39602292 7:0.98206729 8:0.11385851 9:0.50657719 10:0.20577502 #
-0.95755172718841286005897472932702 1:0.66322649 2:0.70348197 3:0.69677031 4:0.62905943 5:0.99287516 6:-0.021850251 7:0.14823101 8:0.55589479 9:0.83307445 10:0.15173973 #
-0.85652954587060681213017687696265 1:0.65102172 2:0.31140181 3:0.095851168 4:0.32200649 5:0.17013302 6:0.41994569 7:-0.10077854 8:0.31507158 9:-0.039887179 10:0.54120183 #
0.42628178934702964930636426288402 1:1.0449045 2:-0.12429009 3:0.12746982 4:0.81836683 5:0.84832114 6:0.20624098 7:0.27785552 8:0.34552383 9:0.94444847 10:0.76774323 #
-0.41788187354698291819943278824212 1:0.4982312 2:0.039329205 3:0.53680974 4:0.73635244 5:0.73097354 6:0.71403855 7:0.68444943 8:0.50124902 9:-0.067793362 10:0.10780247 #
1.5821186517586274256075284938561 1:0.43431175 2:0.52745354 3:0.44541967 4:1.2127255 5:1.2228031 6:0.96085238 7:0.37338033 8:0.34771827 9:0.24020094 10:0.74643087 #
0.19872485434541267701469280382298 1:0.91966254 2:0.90229046 3:0.46788797 4:0.47129959 5:0.69701004 6:0.016244909 7:1.1407627 8:0.57670301 9:0.61367059 10:0.99224186 #
0.38830988598872884232093838363653 1:0.62593359 2:0.14269389 3:0.23268764 4:0.89251715 5:-0.092335112 6:0.8276974 7:0.21083538 8:0.57164943 9:-0.14220543 10:0.36060774 #
-1.0569623276767137198817181342747 1:0.88774729 2:0.45431593 3:0.073286399 4:0.70020902 5:0.91241747 6:0.18662702 7:0.49818024 8:0.11909696 9:0.35492054 10:0.76584345 #
-0.392730875896959152893117561689 1:0.39799294 2:0.92041057 3:0.32784364 4:0.093040504 5:0.35551086 6:0.023730561 7:0.17608245 8:0.065227434 9:0.31372491 10:0.39106756 #
-0.17413934064249511624034028045571 1:1.292927 2:0.76285356 3:-0.28529793 4:0.23931964 5:0.062083997 6:0.09749797 7:0.45896634 8:0.074159794 9:0.58668548 10:0.075700663 #
0.29175929450794618746911623929918 1:1.2202923 2:0.75877059 3:0.86446625 4:0.25489438 5:0.6776734 6:0.7633366 7:0.43196899 8:0.75179362 9:0.85217726 10:0.023689728 #
-0.77755123350954180594385434233118 1:0.16116814 2:0.1558807 3:0.79627532 4:0.81462932 5:0.5078221 6:0.42681685 7:0.87853158 8:0.38795459 9:1.1372021 10:0.78274953 #
0.5369287587578438492030841189262 1:0.0087246904 2:0.22038755 3:0.62821639 4:0.60191917 5:0.1018279 6:0.45428276 7:0.19846618 8:0.11431625 9:0.33132237 10:0.95150232 #
0.67392067463442384411820285095018 1:0.92527103 2:-0.013601187 3:-0.0093038026 4:0.73786288 5:0.82429439 6:-0.095296435 7:0.78648424 8:0.69055772 9:0.063150302 10:0.26329955 #
0.79777150741328373140248686468112 1:0.36314076 2:0.055126265 3:0.73140192 4:0.70358688 5:-0.17787242 6:0.14442877 7:0.49941459 8:0.52105868 9:0.86335272 10:-0.013421868 #
-0.49701798593118795555056976809283 1:0.19797361 2:0.93625307 3:0.60666376 4:0.47136572 5:0.21682759 6:0.32959521 7:0.76852411 8:0.74021822 9:0.036259495 10:0.8783133 #
0.81371459538319557136532012009411 1:0.12077153 2:0.60506403 3:0.65825313 4:0.66040885 5:0.097237825 6:0.1247736 7:0.20330867 8:0.91649079 9:0.58683312 10:0.047574971 #
0.61813859018195049799260232248344 1:0.36695492 2:0.76338422 3:0.42205304 4:0.73133081 5:0.0015810926 6:0.87797076 7:1.0772831 8:1.0670123 9:0.18320228 10:0.36380312 #
0.99069916299033378148664041873417 1:0.98330808 2:1.0214742 3:0.12493626 4:0.90007538 5:0.66019404 6:0.029133614 7:0.38861692 8:0.73101312 9:0.56784058 10:0.10450903 #
0.32713579722548558059713741386076 1:1.3824435 2:0.029047996 3:0.74924272 4:-0.060535941 5:0.47229618 6:0.22940658 7:0.22654885 8:0.34662473 9:0.40046883 10:0.44031599 #
0.51902675799775177534201020534965 1:1.1273121 2:0.056495145 3:0.21035391 4:0.085759923 5:0.4608027 6:0.88057709 7:-0.020815033 8:0.64040595 9:0.10434899 10:0.18800075 #
0.5910424724011352770602911732567 1:0.43341687 2:0.82492512 3:0.22010936 4:0.77211738 5:-0.090178564 6:-0.066668145 7:0.87204373 8:0.6344735 9:0.50346804 10:0.31390604 #
-0.25080216064967558731169106067682 1:0.39201817 2:0.11964018 3:0.25994778 4:0.55356961 5:0.22735617 6:0.016994029 7:0.17608647 8:0.34727311 9:0.96138179 10:0.088837095 #
-1.1320433736324941875750482722651 1:0.80966246 2:0.41940194 3:0.31830972 4:1.0840137 5:0.4992834 6:1.1556436 7:0.19019389 8:0.33729956 9:0.4973529 10:0.31214938 #
-0.32168057348176581911047833273187 1:-0.12790276 2:-0.028633716 3:0.11577453 4:0.81412518 5:0.09560395 6:0.75401193 7:0.1170767 8:0.32625738 9:0.61456323 10:0.39911082 #
-1.1904202004085746580130944494158 1:0.92586684 2:0.34902859 3:0.33767137 4:0.56270176 5:0.47077054 6:0.0059201536 7:0.56311995 8:0.77309567 9:0.43374428 10:0.13151278 #
0.66742464778322863061532643769169 1:0.42344764 2:0.039345972 3:0.66853666 4:1.0663739 5:-0.0069005787 6:0.95450819 7:0.8655706 8:0.66689622 9:0.9425987 10:0.3947961 #
-0.81360992507321594491287441996974 1:0.54629242 2:0.64156771 3:-0.22573775 4:0.62322789 5:0.6195057 6:0.61730742 7:0.71565217 8:0.93720073 9:0.64304817 10:0.61709517 #
0.41918533328965207340743859276699 1:1.1878576 2:0.76904517 3:0.45779392 4:0.53262556 5:0.50670475 6:0.98847497 7:0.17899829 8:-0.013691461 9:0.87458861 10:0.18496986 #
0.47898164527214748265038224417367 1:1.1263973 2:1.0953995 3:0.032169566 4:0.51659632 5:0.76703995 6:0.52325702 7:0.81303149 8:0.32398367 9:0.075651608 10:0.80220139 #
1.3893001576719132827975045074709 1:0.42245346 2:0.48359165 3:0.58396703 4:0.67005849 5:1.0285676 6:-0.26541224 7:1.0731738 8:0.20846575 9:0.58941329 10:0.88657004 #
0.70582091453580664275335720958537 1:1.1479331 2:0.99628747 3:1.0143193 4:0.78283024 5:0.28641817 6:0.70133883 7:0.44067985 8:0.19742994 9:0.25636739 10:0.32807699 #
-0.70359002810539483796503645862686 1:0.62053776 2:0.16854233 3:0.21313339 4:0.30598679 5:0.2683408 6:1.0104486 7:0.87481385 8:0.51777929 9:0.90469086 10:0.68834203 #
0.43838853638330366191411258114385 1:0.6490131 2:0.29766709 3:0.27670261 4:0.80632401 5:0.044830818 6:0.68939888 7:0.67517769 8:0.15934901 9:0.86140555 10:-0.11457315 #
0.21016465641968701261177443484485 1:0.91331232 2:0.0073206592 3:0.34032458 4:0.80052739 5:0.95320934 6:0.54444873 7:1.0119067 8:0.80878109 9:0.58100343 10:0.95704037 #
-1.3583607142438105519488544814521 1:0.77815384 2:0.82318884 3:0.89230824 4:0.33800143 5:0.72790027 6:0.6826728 7:0.051300555 8:0.57434773 9:0.62787026 10:0.95606434 #
1.0764721196445279360887070652097 1:0.10185339 2:0.67198014 3:0.35943586 4:0.56266373 5:0.96280622 6:-0.035465922 7:0.85907954 8:0.73839158 9:0.088270009 10:-0.055165436 #
-0.53279399778717351221501985492068 1:0.3426972 2:0.22736131 3:-0.26620254 4:0.32736778 5:-0.13792086 6:0.092015311 7:0.40376741 8:0.37395471 9:0.50415164 10:0.26500276 #
-0.63721908640012070446090319819632 1:0.27898711 2:0.85524786 3:0.6366601 4:0.56989133 5:0.5423755 6:0.051982228 7:0.39263999 8:-0.0074459999 9:0.64342451 10:1.0819602 #
0.83550648361793078411352553303004 1:0.24365334 2:0.92469084 3:1.0264267 4:0.89818478 5:-0.11519495 6:0.86388052 7:0.94211447 8:0.64071208 9:0.72361714 10:0.89799696 #
-1.0065969327193624582861275484902 1:0.66580951 2:0.7500717 3:0.87571251 4:0.37034819 5:0.827896 6:0.82706755 7:0.64811462 8:1.0650444 9:0.24442224 10:0.15528229 #
0.56165121546382024142474165273597 1:0.3655338 2:0.76366425 3:0.10348759 4:1.065938 5:1.1780143 6:0.7987594 7:0.45245713 8:1.062875 9:0.54458994 10:0.78400367 #
-0.48301124051444965790125252169673 1:-0.16016446 2:0.66065645 3:0.50143826 4:0.56480759 5:0.23490816 6:0.79897189 7:0.060204074 8:0.87874687 9:0.50912297 10:0.97220647 #
-0.65239183675910838999811858229805 1:0.39809766 2:0.3573302 3:1.0518764 4:-0.12931789 5:0.068304434 6:0.29996055 7:0.06550961 8:0.59324682 9:0.36516434 10:0.42792439 #
-0.89873732530682604036087468557525 1:0.78128523 2:0.20877515 3:0.26657709 4:0.78220719 5:0.78753603 6:0.49580571 7:0.088345326 8:0.92117614 9:0.20304991 10:0.41686919 #
-0.56506533604672293247261904980405 1:0.36151502 2:0.2386706 3:0.03331292 4:0.81528348 5:0.27651682 6:0.24513058 7:0.72610986 8:0.70609701 9:-0.05055742 10:0.13292655 #
1.6164687951059970583145286582294 1:0.13807307 2:0.11512163 3:0.76888037 4:0.50136584 5:0.063280582 6:0.075887591 7:0.32674786 8:0.58715916 9:0.55336827 10:0.79846382 #
-1.0021746189642031232835961418459 1:0.27174282 2:0.92155707 3:0.98000121 4:0.75295591 5:0.41123095 6:0.35163811 7:1.0419253 8:0.661838 9:0.54284334 10:0.18250711 #
-0.42015910513565146722214649344096 1:0.57099038 2:0.067005791 3:0.71421009 4:0.48423511 5:0.69878685 6:0.82577217 7:0.16784662 8:0.88433814 9:0.97420645 10:0.13778985 #
-0.7464947821674331462915574775252 1:0.40032148 2:0.26632521 3:0.91225147 4:0.16020165 5:0.38687575 6:-0.029910777 7:0.89880353 8:0.85250038 9:0.59703779 10:0.94985348 #
-0.45254574108780487584624552255264 1:0.93000078 2:0.42292795 3:0.68148685 4:0.72157025 5:0.042173926 6:0.071376048 7:-0.14809789 8:0.19772689 9:0.74325162 10:0.21688335 #
0.79950880933837353836679540108889 1:0.56016314 2:0.35142523 3:-0.076598853 4:0.92176253 5:0.0093025053 6:0.90413648 7:0.5201509 8:1.013103 9:0.46189818 10:0.82775569 #
0.95047998373298703267408882311429 1:1.1663167 2:0.49237642 3:0.27785328 4:-0.051852696 5:0.19435105 6:0.60306495 7:0.97385693 8:0.95634019 9:0.59992999 10:0.14073591 #
0.39005012690481583037538371172559 1:0.18152975 2:0.42460924 3:0.37674913 4:0.74517411 5:-0.14176409 6:0.72462577 7:1.0488224 8:-0.048079513 9:0.22106227 10:0.24748152 #
0.59535506209798083609996410814347 1:1.047045 2:0.87717634 3:0.19637729 4:0.91188473 5:0.64434844 6:0.48891661 7:1.1029884 8:0.89900875 9:0.90207529 10:0.5188719 #
-0.70359601720855657891462442421471 1:0.56899202 2:0.50722867 3:0.57852888 4:0.56945288 5:1.1931655 6:0.16754454 7:0.17733799 8:0.18757607 9:0.13152044 10:0.25563553 #
1.4296764457084700783440212035202 1:0.4073869 2:0.10239864 3:0.67666018 4:0.5562461 5:-0.19118439 6:0.16746946 7:0.82894069 8:0.90156436 9:0.083585538 10:0.48983765 #
0.13156460714437184789105117488361 1:0.903144 2:0.54890299 3:0.27989474 4:-0.445784 5:0.066676103 6:-0.14555462 7:1.0649787 8:-0.080401063 9:0.65806711 10:0.86975867 #
0.43075189173761696537212628754787 1:0.17321195 2:0.30825678 3:0.67911124 4:0.75798333 5:-0.031238703 6:0.79049373 7:0.49038634 8:1.0031381 9:0.34911263 10:-0.1744131 #
0.36159000181957334785209923211369 1:0.98884356 2:1.0445585 3:0.34328312 4:-0.044444401 5:0.51426697 6:0.51095021 7:0.63057041 8:0.13505724 9:0.49237612 10:-0.11849025 #
-0.21704220963850953673990318293363 1:0.40661389 2:0.69206059 3:1.0080332 4:1.1003684 5:-0.33077741 6:1.2608906 7:0.85408425 8:-0.17732133 9:0.61766881 10:0.33983541 #
-0.11048466043433147198982169356896 1:0.70492709 2:0.16396305 3:0.61843866 4:0.53789777 5:0.66343904 6:0.39029106 7:0.053505607 8:0.57479417 9:0.48485678 10:1.1640021 #
0.45658359331079878540293748301337 1:1.1477352 2:1.0353527 3:0.4687115 4:-0.065950215 5:0.53829211 6:0.83378267 7:0.44776103 8:0.81788123 9:0.35225615 10:1.1413583 #
0.92116270770749264507060161122354 1:1.04154 2:0.13573736 3:0.987104 4:0.61248595 5:0.43201065 6:0.47698396 7:0.71976572 8:0.22561118 9:0.67185193 10:0.086800143 #
-0.38054117791837127615650615553022 1:-0.12873554 2:0.2542167 3:0.99764454 4:-0.13312484 5:-0.019261871 6:0.45421901 7:0.57708925 8:0.04014631 9:0.39458871 10:0.77291596 #
-0.54504672497138340059308347917977 1:0.083547868 2:-0.098620459 3:1.0956806 4:0.89784825 5:0.63526636 6:0.24632385 7:0.99411207 8:0.36823779 9:0.6294682 10:0.24590334 #
-0.10466982770971587635155941597986 1:0.099743761 2:0.050737057 3:0.30032858 4:0.6068126 5:0.16762944 6:0.70896345 7:0.77105296 8:0.86682862 9:0.50998557 10:1.0055859 #
-0.49811619067855755771390136033006 1:0.23797837 2:0.56745243 3:0.30712131 4:0.10709292 5:0.48016584 6:0.080569595 7:0.24273647 8:1.1317924 9:0.6163488 10:0.12335627 #
1.0943108529525611416488573013339 1:0.38195825 2:0.94694227 3:0.76049322 4:0.93058574 5:-0.17403783 6:0.63804483 7:0.25910774 8:0.38017452 9:0.94698203 10:0.32378778 #
0.70871244056435511726732556780917 1:1.3895823 2:1.2726123 3:0.47886243 4:0.67262053 5:0.61713648 6:0.47941124 7:0.48548129 8:0.56418848 9:0.44123274 10:0.31472567 #
0.75975508483499110123915443182341 1:0.3418389 2:0.36792576 3:0.70062143 4:0.7432363 5:1.2062669 6:0.16150099 7:0.81059849 8:0.48932603 9:-0.25532523 10:0.70715117 #
0.90097404460018903904483522637747 1:1.0367204 2:0.92645156 3:0.24490364 4:0.18230583 5:0.61591434 6:0.13520144 7:0.16004302 8:0.42979988 9:-0.1658234 10:0.25167143 #
0.96677436077201572839356913391384 1:1.1163554 2:-0.23370761 3:-0.1064365 4:0.37912342 5:0.48038793 6:0.68920147 7:0.28575459 8:0.2341855 9:0.66991585 10:0.15448089 #
0.44354108423828952911804890391068 1:1.0834488 2:0.97225475 3:0.43354243 4:0.12788387 5:0.74906564 6:0.71534306 7:0.70076436 8:0.9883818 9:0.053708136 10:-0.031003516 #
0.33399844640873627144017632417672 1:1.2504114 2:-0.10084257 3:0.044317298 4:-0.1171262 5:0.30537444 6:0.31000483 7:0.35461724 8:0.74230903 9:1.1237175 10:0.67246556 #
-0.53028189117437629640505747374846 1:0.20474155 2:0.069141887 3:0.28585544 4:0.26662102 5:0.3249141 6:0.19198014 7:0.20918423 8:-0.055364545 9:0.19690245 10:0.67073113 #
0.99749827066342655612629641836975 1:0.3250474 2:0.4720481 3:0.3027544 4:0.44751039 5:1.1502353 6:-0.2151906 7:1.111648 8:0.85601157 9:0.92331034 10:0.37010536 #
0.86735445585340520402439778990811 1:0.39401561 2:0.99062079 3:0.22508924 4:0.61844385 5:1.1249343 6:0.10304075 7:0.88836414 8:0.74094486 9:0.12656474 10:0.85867071 #
-0.96993207457801855486678732631844 1:0.63966185 2:0.81624007 3:0.6686787 4:1.1373639 5:0.43327489 6:1.0403371 7:0.3335391 8:0.36389133 9:0.7469939 10:1.0055795 #
0.49731020388579683100260808714665 1:0.91018194 2:1.0551808 3:0.49128893 4:0.23186351 5:0.095025785 6:0.23732945 7:0.67362905 8:1.0120295 9:0.480019 10:0.89170539 #
-0.97052779229696661822401893005008 1:1.0528326 2:0.69053829 3:0.83109426 4:0.3481721 5:-0.11708009 6:0.89245468 7:0.76003063 8:0.52239543 9:0.33980322 10:0.1866039 #
0.56593901917716216143361407375778 1:1.1271604 2:0.63212597 3:0.3022356 4:0.058075186 5:0.82631344 6:0.00060017849 7:-0.042099856 8:0.4969779 9:1.0121732 10:0.46456206 #
0.5698596730896948736599938456493 1:1.1615508 2:-0.12345058 3:0.66820234 4:-0.15161973 5:0.039598353 6:0.4329491 7:1.0636215 8:0.75152153 9:0.29797345 10:0.10845743 #
-0.88652765920979692548797856943565 1:0.74205375 2:0.43982938 3:0.65336967 4:-0.088812239 5:0.91809928 6:0.32926828 7:1.0261513 8:0.28299749 9:0.71362239 10:0.15301295 #
-0.8225267070125461543739220360294 1:0.80089194 2:0.41819298 3:0.63151169 4:0.87483865 5:0.3713133 6:0.022672018 7:0.71287841 8:0.32999718 9:1.0402741 10:0.9145745 #
0.68062220985859867017353508344968 1:0.30176386 2:0.46791944 3:1.1342603 4:0.89514601 5:-0.18254362 6:0.83409417 7:0.56023073 8:0.27301884 9:0.19155781 10:1.0498222 #
-0.056685171756361764361376032184126 1:1.1297213 2:0.64744484 3:-0.060062278 4:0.88468015 5:0.21073388 6:0.48054144 7:0.021212835 8:0.28800085 9:0.16294563 10:0.80794221 #
0.75494903964141257812769936208497 1:1.0884545 2:0.91928536 3:0.34710103 4:0.48730814 5:0.74486983 6:0.22028157 7:0.042023964 8:1.1502612 9:0.74149191 10:0.86539733 #
0.39050841800426927541423083312111 1:1.0955836 2:0.51562071 3:0.26950133 4:0.6247673 5:0.61325389 6:0.98856282 7:0.6810298 8:0.95702457 9:-0.09167064 10:0.57239962 #
-0.66079755743713497473379447910702 1:0.7130757 2:0.6606856 3:0.83503032 4:0.41435352 5:0.42386454 6:0.11024453 7:-0.045838069 8:0.91788143 9:0.87108642 10:0.53740311 #
0.1858108354942569762080495365808 1:0.93268353 2:-0.084504731 3:0.26032114 4:1.0705563 5:0.18181376 6:0.026811905 7:0.58194941 8:0.22532502 9:0.29018411 10:0.50998747 #
-0.44491794825001829138955145026557 1:0.66815472 2:0.092685908 3:0.87268144 4:0.26251286 5:0.54508191 6:0.057879996 7:0.87106526 8:0.31119618 9:0.10834046 10:0.01380205 #
-0.79816757711582053680388071370544 1:0.68865484 2:0.84686983 3:0.87735814 4:0.22026734 5:0.37866622 6:0.81185967 7:0.98289245 8:0.19379419 9:0.41603622 10:0.92126465 #
0.60292618407929920998356010386487 1:0.14613837 2:0.84769398 3:0.34193689 4:0.95529395 5:-0.10063042 6:0.13368154 7:0.49548715 8:0.98817414 9:0.66706198 10:0.94627565 #
-0.90893499254858289848613139838562 1:0.40203694 2:1.0653659 3:0.10300042 4:0.91049057 5:0.44928923 6:0.47068167 7:0.94124687 8:0.1896178 9:0.1954184 10:0.23291872 #
1.5018467893093248033409281561035 1:0.37234521 2:0.31629598 3:0.6037063 4:0.78326249 5:-0.13802285 6:0.0058329506 7:0.97615242 8:0.22050829 9:0.41103995 10:0.18478028 #
-0.17424051236133339393141739037674 1:0.78510237 2:0.4178775 3:0.07327079 4:0.67497635 5:0.35703519 6:0.21241145 7:1.0570813 8:0.65645266 9:1.0436417 10:0.21461569 #
0.48420947293561367175129817042034 1:1.2422611 2:0.47252473 3:0.33680475 4:0.079283327 5:0.48034546 6:0.19136873 7:0.56906044 8:-0.093281887 9:0.15862899 10:0.85752976 #
-0.60348035153322854284851928241551 1:0.99840504 2:-0.0011701907 3:0.47952557 4:0.24564888 5:-0.23437777 6:0.73714989 7:0.58790189 8:0.57945049 9:0.63423824 10:0.36025417 #
-0.77292472980519866254667249449994 1:-0.35372809 2:0.49435559 3:0.91379762 4:0.55198467 5:0.23483834 6:0.2134304 7:0.59021401 8:0.62297738 9:0.31443146 10:0.10126648 #
0.98687144270887539043712877173675 1:0.24650645 2:0.26710102 3:0.82860011 4:0.59263653 5:0.034712482 6:0.83254462 7:0.89014012 8:0.16207261 9:0.97029781 10:0.85805088 #
1.1135965809288679295718793582637 1:0.18064773 2:0.66066474 3:0.34933102 4:-0.26908186 5:-0.10650402 6:0.8025713 7:1.1657437 8:0.68762064 9:0.35550365 10:0.20264989 #
-0.48784575371706739854715806359309 1:0.77005148 2:0.44586438 3:0.49799913 4:0.39600748 5:0.2651298 6:0.38114557 7:0.90964067 8:1.0507082 9:-0.0033779605 10:0.88859546 #
-0.42051660317799144372941100300523 1:0.45504987 2:0.6068632 3:0.77182591 4:0.20190851 5:0.81699294 6:0.89572787 7:0.76683927 8:1.1143746 9:0.64091873 10:1.0295154 #
0.75495630165844462844404461066006 1:0.48145235 2:0.87296277 3:0.63596338 4:0.88292593 5:-0.037174601 6:1.0373571 7:0.92161137 8:0.036776781 9:-0.016886335 10:0.41542697 #
0.37125429942104992697693433001405 1:0.8874225 2:0.12196019 3:0.9272579 4:0.8009851 5:0.99400014 6:0.673715 7:0.079418182 8:0.037495531 9:0.79697591 10:0.11754267 #
-0.57257442397955848889523622347042 1:0.32366696 2:0.83714348 3:0.28809443 4:0.14112525 5:0.38621038 6:0.99929404 7:0.0090302043 8:0.24929743 9:0.49657091 10:0.27480197 #
-0.0033988209826377189029522618568535 1:0.067752205 2:0.35933664 3:-0.069286436 4:1.1040639 5:0.65434521 6:0.12157495 7:1.0851511 8:0.12550509 9:0.59884423 10:0.7039187 #
-0.52257078445089921725497106308467 1:0.37456819 2:0.9103635 3:0.47729209 4:1.1013963 5:0.43832481 6:0.15809602 7:0.95167965 8:0.83198047 9:0.013137983 10:0.22169666 #
-0.75779418273372745051830179363606 1:0.74547476 2:0.62422234 3:0.15986508 4:0.76084381 5:0.10771191 6:0.10095957 7:0.46116126 8:-0.089867152 9:0.29798162 10:0.82014573 #
0.84279757159840196223399289010558 1:0.49935097 2:0.066280119 3:0.91005266 4:0.84826392 5:0.10183012 6:0.83732885 7:0.14378788 8:0.6711939 9:0.094577059 10:0.48472983 #
-1.1208286909692812827188390656374 1:-0.22794463 2:0.53245467 3:0.80627966 4:0.96062827 5:0.30023178 6:1.0626705 7:0.26008791 8:0.59442192 9:0.48760259 10:0.36859187 #
-0.44978825397959854015539349347819 1:0.24830139 2:-0.0233921 3:0.93634135 4:0.97332072 5:0.43861407 6:0.1928018 7:0.9750033 8:0.97183049 9:-0.014058084 10:0.62411451 #
0.89079327504051564190490353212226 1:0.42286381 2:0.13605149 3:-0.20396642 4:0.50363421 5:1.052624 6:0.0043394822 7:1.0766279 8:0.51867419 9:0.24480455 10:0.69453627 #
0.60678585799905093711714698656579 1:1.1852732 2:0.24514641 3:0.92487597 4:0.77786642 5:0.68361527 6:0.58663303 7:1.0634797 8:0.93342978 9:0.42476124 10:0.47750652 #
-1.0282291371909872967904675533646 1:0.68908083 2:0.016431872 3:0.3807216 4:0.17695855 5:1.1224411 6:0.62399888 7:0.39783937 8:0.45237178 9:0.45188329 10:0.66612518 #
-0.46256163967933411340638372166723 1:0.5056076 2:0.93109423 3:0.76859719 4:0.3254568 5:0.5208236 6:0.022463856 7:0.34723172 8:0.6366151 9:0.039650232 10:-0.22250025 #
0.69717831166048604973894953218405 1:1.1656314 2:0.83967149 3:0.28976318 4:0.66512215 5:0.46065333 6:0.82429385 7:0.37818122 8:-0.0036617813 9:0.88013637 10:0.98424745 #
1.1535242768498836785084904477117 1:0.27966687 2:0.43565354 3:1.1237457 4:0.42577913 5:1.0177695 6:-0.0069418447 7:1.1904094 8:0.56158739 9:0.55376089 10:0.33423099 #
0.74174994892440548888146167882951 1:0.38866967 2:0.074955203 3:0.49979067 4:0.51143777 5:1.077791 6:0.054156568 7:0.90155298 8:1.0743771 9:0.29620242 10:1.0030123 #
0.66743715272577164299150354054291 1:0.49253586 2:0.59502417 3:1.0743902 4:1.0373998 5:0.35309738 6:1.0597525 7:1.2027481 8:0.51363778 9:0.39558926 10:0.44184184 #
-0.80296271076617931061747412968543 1:0.26698607 2:0.80811018 3:0.25650874 4:0.36824092 5:0.093658186 6:0.50914675 7:0.47874436 8:0.79310417 9:1.1548096 10:0.83959532 #
-1.43515405115547234338180260238 1:0.068165615 2:0.23945279 3:0.7953918 4:1.0855473 5:-0.6431908 6:0.32463944 7:0.5036791 8:0.47066435 9:0.4979423 10:0.445243 #
0.39233207923337820588471913652029 1:1.1506383 2:0.56161475 3:0.26955813 4:0.28648001 5:0.12622902 6:1.2831459 7:-0.072304539 8:0.62195003 9:0.7964794 10:0.85371542 #
0.63627714010383273901538814243395 1:1.1692359 2:1.3800992 3:1.1677361 4:0.19298337 5:0.36676803 6:0.68427682 7:0.63698375 8:0.43275672 9:0.6284228 10:0.83865589 #
0.38360830797500405919819854716479 1:0.85112184 2:0.29251817 3:0.95475346 4:1.1726112 5:0.91208369 6:0.90057707 7:0.42105505 8:0.84457862 9:0.88893127 10:0.16071089 #
0.59812550565742450547901398749673 1:1.0703857 2:0.05875409 3:0.8887015 4:0.17770091 5:0.46834171 6:0.50888807 7:0.33939072 8:0.0095115332 9:0.11407471 10:-0.10304884 #
-0.26342188978309405422706390709209 1:0.47320306 2:0.35303831 3:-0.047343101 4:0.70785856 5:0.33368605 6:0.35197347 7:-0.071928196 8:0.93978375 9:0.7861982 10:0.35846281 #
0.74625680319682552443794065766269 1:0.32673889 2:0.68975312 3:0.42638001 4:0.98361015 5:1.1707524 6:0.84440666 7:0.36908019 8:0.060399823 9:1.1053967 10:0.48535049 #
-0.86957563917143676501808613465982 1:0.73262984 2:0.58518618 3:1.0768533 4:0.9413057 5:0.71001089 6:0.58259535 7:0.83259135 8:0.34908602 9:0.85343552 10:0.40221679 #
0.15430131982872227758285532672744 1:0.8469516 2:0.31627622 3:0.4070479 4:0.95530033 5:1.0187395 6:0.096823446 7:0.98612487 8:0.05841415 9:0.41154489 10:0.068811052 #
-0.42731034764240649614919220766751 1:0.75929713 2:0.30712968 3:0.1987059 4:0.21232595 5:0.37334046 6:0.52348721 7:0.033028986 8:1.0023111 9:0.40174133 10:1.0595921 #
0.61097426173720970066227664574399 1:0.82297164 2:0.25850686 3:-0.062197637 4:0.6621508 5:-0.025920358 6:-0.040491469 7:-0.043876737 8:0.43813398 9:0.7530455 10:0.85690528 #
0.53393061943154718207438236277085 1:1.0408564 2:0.93477851 3:0.2632241 4:0.4639492 5:0.40949494 6:0.95628977 7:0.005601923 8:0.64436007 9:0.35122705 10:-0.08080627 #
0.77447267892874183115026198720443 1:0.33297175 2:0.36886451 3:0.84222883 4:0.83861816 5:-0.027253335 6:0.38512972 7:0.94724518 8:1.0696456 9:0.58092415 10:1.0784389 #
-0.39270312684780678269547138370399 1:1.702296 2:-0.14149198 3:0.69306272 4:-0.30292696 5:0.54329622 6:0.755647 7:0.54051799 8:0.19998565 9:0.88105202 10:0.43649185 #
-0.66201603392558294736147672665538 1:0.13751376 2:1.3072908 3:0.30662358 4:0.52731556 5:0.6787917 6:0.55900866 7:0.7979756 8:0.34291342 9:0.69034386 10:0.64024699 #
-0.9433761969689523629867267118243 1:0.30242291 2:0.95511776 3:0.54544926 4:0.70054722 5:0.20365298 6:0.59606105 7:0.8079657 8:0.1120896 9:0.6909557 10:0.80560178 #
-0.80159194845576320354041399696143 1:0.77614385 2:0.58217031 3:0.73968703 4:-0.084232956 5:0.86534947 6:-0.17398919 7:0.79973489 8:0.74153733 9:0.43176055 10:0.74413288 #
-0.65843566793997276853644962102408 1:0.46674061 2:0.20362034 3:0.60896397 4:-0.021429133 5:-0.05521461 6:0.95340639 7:0.32983211 8:0.15365538 9:0.88879186 10:0.8920784 #
-0.63769403650044331754997983807698 1:1.7512703 2:1.6910167 3:0.33898678 4:0.57010007 5:0.57063192 6:0.51937383 7:0.51632357 8:0.57990062 9:0.46805793 10:0.35708788 #
0.94748937413543277141769749505329 1:1.0405267 2:0.040021308 3:0.79908872 4:0.14848587 5:0.58911639 6:0.33418059 7:0.89717686 8:0.51660049 9:-0.01914016 10:0.81371808 #
0.16907708288363668125420247179136 1:0.93174583 2:-0.10876685 3:0.69020849 4:0.55524379 5:0.78008807 6:1.0458853 7:0.33980751 8:1.0231705 9:-0.15488279 10:1.0099268 #
-0.35518741564842171154481320627383 1:0.87025332 2:0.48769027 3:0.063966729 4:0.29401854 5:0.19724649 6:0.37652248 7:0.059693113 8:0.10205265 9:1.0232737 10:0.79464471 #
0.72684251298211266512083739144146 1:1.1520613 2:-0.18400101 3:-0.14968458 4:0.16254392 5:0.69061852 6:0.61834449 7:0.91638631 8:0.61325717 9:0.46138132 10:0.28139731 #
0.55845667831864698182897654987755 1:1.0827626 2:1.0142248 3:0.16085188 4:-0.080432899 5:0.15190804 6:0.30461675 7:0.21791409 8:0.67242968 9:1.0248641 10:-0.041434936 #
-0.96151217992574433690577961897361 1:-0.0046998682 2:0.67650467 3:0.82927763 4:0.63764966 5:1.790572 6:0.069509931 7:0.99501085 8:0.51949245 9:0.48707104 10:0.38043138 #
1.1580884998888811843187340855366 1:0.1951953 2:0.43963811 3:0.62812972 4:0.66574878 5:-0.0039993394 6:0.23869511 7:0.62980396 8:0.13575347 9:1.1363477 10:0.20440648 #
0.41482279602831251263950207430753 1:1.008993 2:0.9237622 3:0.26864573 4:-0.29667261 5:1.3859831 6:0.55729949 7:0.88251662 8:0.33959332 9:1.026317 10:0.39865381 #
0.5814092553030183463391722398228 1:0.77230173 2:0.092893153 3:0.20315932 4:0.82203883 5:-0.010743228 6:0.55053139 7:1.0611054 8:0.77362049 9:0.44515073 10:0.22051515 #
0.18000761984168023310814987780759 1:0.91756415 2:0.82600588 3:0.065949567 4:0.43379003 5:0.12308336 6:0.91409057 7:1.0186539 8:0.2451973 9:0.16358668 10:0.84511966 #
0.28947421662250616414269188680919 1:1.0951324 2:-0.033935271 3:0.52374858 4:0.054939762 5:0.1705915 6:0.9303534 7:0.82046616 8:1.0644584 9:0.38247672 10:0.92602658 #
-0.13850909095587482511291455011815 1:0.92851979 2:1.0079534 3:0.47496799 4:0.52373075 5:0.70734555 6:-0.26726004 7:1.4770983 8:0.49911043 9:0.57705641 10:1.2916143 #
0.43991986441948000008395069926337 1:1.0809159 2:0.099918723 3:0.92187923 4:0.19453479 5:0.82440424 6:1.0149314 7:0.9955371 8:0.54690897 9:0.67826748 10:-0.076977931 #
-0.39673859848304049435796514444519 1:0.34428129 2:0.071086287 3:1.1560961 4:0.31119862 5:0.47656208 6:0.22942738 7:0.71556759 8:0.092463739 9:0.90606725 10:0.033801354 #
-0.42650196992899608305904735061631 1:0.78511775 2:0.60405314 3:0.52203077 4:1.0304221 5:0.094294064 6:0.66824073 7:0.97043663 8:0.80137742 9:0.53867716 10:1.3513436 #
-0.51561940550144180761549250746612 1:0.74287808 2:0.73318863 3:-0.022071475 4:0.00096525165 5:0.52331883 6:0.031725992 7:0.93324286 8:0.62099707 9:-0.0038217136 10:0.17270075 #
-0.43095716662476712954799040744547 1:0.62084514 2:1.4612192 3:0.47591925 4:0.64501423 5:0.065018848 6:0.33810833 7:0.32661003 8:0.53645396 9:0.60753906 10:0.2702758 #
-0.73431451776652478802276391434134 1:0.9383415 2:0.66697156 3:0.68562132 4:0.90776527 5:0.63803422 6:1.1362092 7:0.81934202 8:0.76607192 9:0.47315368 10:0.41473284 #
-0.1187979287711808801253354772598 1:1.1176902 2:1.1940299 3:0.29973984 4:-0.52209783 5:1.7884972 6:0.64992851 7:1.0956992 8:0.3434701 9:1.3210034 10:0.3597559 #
0.65686870256818274960153303254629 1:0.40027183 2:0.63389951 3:0.020101972 4:1.0203385 5:0.077664003 6:0.87669194 7:0.8742106 8:0.99510098 9:1.1057556 10:0.54142696 #
1.0458568338131100095012016026885 1:0.80666828 2:1.0135422 3:0.39905465 4:0.083425604 5:0.57746303 6:0.44763419 7:0.31259146 8:0.23937525 9:0.99548185 10:0.34932601 #
0.82790559473475167084899339897675 1:1.0311354 2:0.061981816 3:0.84590048 4:0.37438622 5:0.48592404 6:0.34825167 7:0.8876161 8:0.92764366 9:1.0615705 10:0.23995167 #
0.95990781222384413684522996845772 1:0.2091772 2:0.20657639 3:-0.17103888 4:0.72311097 5:1.1271923 6:0.91333055 7:0.31130034 8:0.31154543 9:0.33906594 10:0.51356077 #
0.53408027460704632360943833191413 1:1.0786401 2:-0.012865772 3:0.4917734 4:0.6816113 5:0.64711946 6:0.5024038 7:0.84084976 8:-0.023503186 9:0.81481189 10:0.7802037 #
0.7547981817968985041034102323465 1:0.293571 2:0.73406947 3:0.47729027 4:0.70416999 5:0.95185202 6:0.0011941624 7:0.8392483 8:0.40886682 9:1.2409353 10:0.42229539 #
0.41869335501817922517986403363466 1:0.37672886 2:0.21271423 3:0.85097456 4:0.59944385 5:1.1362673 6:0.026087571 7:0.98322219 8:0.62413967 9:1.1278746 10:0.93768126 #
-0.60473567993438059886557311983779 1:0.93941146 2:0.75691473 3:0.86410576 4:0.29351658 5:0.34964657 6:0.45471409 7:0.75590527 8:0.43271479 9:1.1113734 10:0.50663209 #
-0.33718369958526134277931873839407 1:0.31575593 2:-0.12298347 3:0.80628979 4:0.79025632 5:0.56719911 6:0.8807441 7:0.36664712 8:-0.016908253 9:0.67936563 10:0.40281308 #
0.40735902313465255364377526348107 1:1.2825034 2:0.88636613 3:0.53918821 4:0.33141491 5:0.45872438 6:-0.19673699 7:0.49467176 8:0.83000666 9:0.31332967 10:-0.016523706 #
0.37142093195310976749823339559953 1:1.172516 2:0.15125689 3:0.19229317 4:0.20288751 5:0.71322685 6:0.95194256 7:0.94519365 8:0.58346164 9:0.78963214 10:1.0187182 #
-0.69615213945943110740444126349757 1:-0.12586002 2:0.65132648 3:0.9135955 4:0.24958758 5:0.026201284 6:0.8192355 7:0.57914275 8:0.53827202 9:0.76771843 10:0.36714068 #
0.5428743216426498152671342722897 1:0.080631241 2:1.0585214 3:0.72502732 4:0.90066266 5:-0.23752849 6:0.39627454 7:0.2404315 8:0.23000652 9:-0.0077116853 10:0.35321632 #
-0.95125049295920705016982310553431 1:0.84911567 2:0.53765762 3:0.85063565 4:0.26289317 5:0.0038651188 6:0.29596907 7:0.42386794 8:0.42490417 9:0.091766924 10:1.0224704 #
-0.5023685624720535258802556199953 1:1.0051143 2:0.60465312 3:0.30995989 4:0.46304733 5:-0.23940548 6:0.58785379 7:0.54749632 8:0.52678519 9:0.67435354 10:0.88611835 #
0.85182520877329215291950958999223 1:1.072981 2:0.08456593 3:0.83427829 4:0.20000355 5:0.89625895 6:0.5816673 7:-0.077837199 8:0.18552072 9:0.67465013 10:0.77565342 #
-0.24171896871970202647084136060585 1:1.8768612 2:0.046419032 3:0.98162735 4:0.79595011 5:1.0601304 6:0.43210316 7:0.22276887 8:0.44137263 9:0.35887834 10:0.49472216 #
0.46070238171254201953175311246014 1:1.1390564 2:0.24575107 3:0.42664066 4:0.20797522 5:0.72280014 6:0.7575115 7:0.7415753 8:0.099147446 9:0.2024582 10:0.012396765 #
-0.53622733327488414367678615235491 1:0.5057385 2:0.69197655 3:0.79210621 4:1.2000414 5:0.31356198 6:0.21737622 7:0.38826257 8:0.19332111 9:0.74665546 10:0.11382322 #
0.21809281641781616545294752995687 1:0.24433646 2:0.8356576 3:1.0943114 4:0.7989912 5:-0.3026621 6:0.27956441 7:0.91599524 8:0.88721102 9:0.52922446 10:0.042549461 #
0.34819193368399781185473784717033 1:-0.01555483 2:0.71182746 3:0.85997111 4:0.52804685 5:0.90397722 6:0.73271036 7:0.65375954 8:0.26939505 9:0.40771669 10:0.32052204 #
0.15962691125736980235494399948948 1:0.57436472 2:0.56888485 3:0.28159413 4:1.197806 5:0.82950783 6:0.85173231 7:-0.10192923 8:0.70937997 9:0.82512343 10:1.1884825 #
0.63616671040700412120827422768343 1:1.1015295 2:0.02690215 3:0.2953786 4:0.3142288 5:0.73521727 6:0.057266489 7:0.1294997 8:0.33857247 9:0.53524351 10:-0.087754957 #
0.28022629440662499833436527296726 1:0.077672064 2:0.7407012 3:0.85566002 4:0.90898806 5:1.2502658 6:1.0610691 7:0.1743705 8:-0.20337883 9:0.062871195 10:0.073151886 #
-0.73445634963130423944477342956816 1:0.73213965 2:0.6375941 3:1.0365007 4:0.08796642 5:0.75970244 6:0.77017587 7:0.29276061 8:0.61941612 9:-0.073270209 10:0.9166823 #
0.98442317803541079523910184434499 1:0.34951487 2:0.82233644 3:0.90157074 4:0.95000607 5:1.1478417 6:0.91523373 7:0.1973695 8:0.90649658 9:0.11586158 10:0.58783048 #
0.90434586826972584994166481919819 1:0.65245301 2:0.52991587 3:-0.079037286 4:0.77858508 5:-0.20861205 6:1.028872 7:0.49071097 8:0.23335294 9:0.1930355 10:0.42988154 #
-0.31234394247472979655455560532573 1:0.35472253 2:0.97865421 3:0.71161211 4:-0.024272736 5:0.71594304 6:0.30674124 7:0.16115525 8:0.029514072 9:1.1338291 10:0.51059437 #
0.30326171494206777268232144706417 1:-0.33921438 2:1.1565546 3:0.31504637 4:1.5175713 5:1.393646 6:0.13152304 7:0.9298436 8:0.78921109 9:0.60999697 10:0.61634332 #
-0.58066890849995389523030553391436 1:0.70012015 2:0.56916952 3:0.46870047 4:0.18437368 5:0.30191928 6:-0.29948911 7:0.77618146 8:0.96444911 9:0.78652197 10:0.55536824 #
0.68040398095357745855693565317779 1:1.1493955 2:0.95289707 3:0.48334929 4:1.0478754 5:0.42120937 6:0.13059919 7:0.69546729 8:0.21458976 9:0.81376159 10:0.33079004 #
0.55527911767858384450846642721444 1:0.35621959 2:0.80473614 3:0.15902179 4:0.73855901 5:1.1431202 6:-0.07638444 7:1.0019507 8:-0.018211225 9:0.36721456 10:0.10435499 #
-0.562161211488505174749263915146 1:0.78845561 2:0.23212405 3:0.13646775 4:0.29573724 5:0.86011785 6:0.82374585 7:0.95619553 8:0.0044369632 9:0.82967454 10:0.53109014 #
0.52717656691825098835835206045886 1:0.066542536 2:-0.14721678 3:0.57684773 4:0.84570879 5:-0.0030649835 6:0.34259221 7:0.73625821 8:0.2808333 9:0.011886314 10:0.7472589 #
1.1074198849449041759385181649122 1:0.96658128 2:0.074850067 3:0.90948355 4:0.084139474 5:0.67433274 6:1.003394 7:0.18435986 8:0.7784161 9:0.31920433 10:0.22776149 #
-0.67409726007208059517239462365978 1:0.81797016 2:0.86962891 3:-0.32115436 4:0.46807435 5:0.95435452 6:0.72812515 7:0.33283937 8:0.57498932 9:0.2528213 10:0.59061813 #
0.86408721743053051866922942281235 1:1.1831098 2:0.48394614 3:0.37353623 4:0.93598002 5:0.66976035 6:0.24111785 7:-0.033851266 8:0.56951588 9:0.93053716 10:0.397387 #
-0.71194812743203228500021850777557 1:0.54874939 2:-0.057355553 3:1.0706083 4:0.9142487 5:0.38827413 6:0.89201343 7:0.13620816 8:0.7454043 9:0.85321218 10:0.74238735 #
0.77264645641208473669792056170991 1:0.9054724 2:0.8761676 3:0.23134783 4:-0.15148695 5:0.089531086 6:0.52390242 7:0.61978602 8:0.64981461 9:-0.096547544 10:0.43603769 #
-0.56047149360096537584752240945818 1:0.62786329 2:0.83305287 3:0.7316913 4:0.43958607 5:0.44497329 6:0.16587409 7:0.64966518 8:-0.059646662 9:0.70986813 10:0.02044915 #
-0.63142998221890367371855745659559 1:0.73982316 2:0.57397056 3:1.0341585 4:0.72565573 5:0.33621731 6:0.92852616 7:0.14748923 8:0.41346776 9:-0.051711772 10:0.48082331 #
0.86916982328171255023363528380287 1:0.22855553 2:0.095015854 3:0.24108139 4:0.84896731 5:1.135882 6:0.83863372 7:0.72013074 8:0.65442079 9:0.95458996 10:0.66923338 #
0.20812324845411014906382263234264 1:-0.2544339 2:0.7742002 3:1.1795146 4:1.4690477 5:0.36513233 6:0.18317679 7:0.95823544 8:0.61816156 9:0.57097042 10:0.82171881 #
-0.39679825618365111017382673708198 1:0.74654335 2:0.13658321 3:0.15316916 4:0.12688245 5:0.70886409 6:0.23280135 7:0.74756414 8:0.77792794 9:0.45753154 10:0.92391515 #
0.29569681579820861205831761253648 1:1.0800054 2:0.24003117 3:1.0916128 4:0.15706626 5:0.70027423 6:-0.095925778 7:0.16987225 8:0.55328363 9:0.8496024 10:0.34987012 #
-0.27063639919375159781367301548016 1:0.88733393 2:0.78762114 3:0.96977651 4:0.88926888 5:0.2808753 6:0.29157406 7:0.83492559 8:0.74814087 9:0.10288075 10:0.48553225 #
-0.45654389473863460358060706312244 1:0.032372046 2:0.28173953 3:0.16928951 4:0.642492 5:0.3215729 6:0.86636287 7:0.29956871 8:0.078253083 9:-0.085345395 10:0.33969405 #
0.63088523391539741425049214740284 1:0.99629313 2:0.15381724 3:1.0350232 4:0.081336096 5:0.56752163 6:0.44420424 7:0.20661347 8:0.069359221 9:-0.02746718 10:0.63179815 #
0.1056720816168321142036745641235 1:0.9909718 2:0.18762429 3:0.19064371 4:0.68285334 5:0.20940624 6:0.14484246 7:0.73247164 8:0.55240071 9:0.00069625606 10:0.92246932 #
0.31973385962126149584250356383563 1:0.22594996 2:0.89150518 3:0.18338737 4:0.88926482 5:0.84842759 6:0.9973954 7:0.035370164 8:0.74885726 9:0.33577302 10:0.27141476 #
-0.11318406419522571149105516497002 1:0.35534817 2:-0.075513974 3:0.9392488 4:0.16713274 5:0.30158749 6:0.52022547 7:0.30488241 8:0.3235029 9:-0.16380437 10:0.40488356 #
-1.2879182780553017906299828609917 1:0.74478829 2:0.32500559 3:0.14930674 4:0.73319501 5:0.6754151 6:0.53736526 7:0.82098454 8:0.27428052 9:-0.044494264 10:0.51968712 #
-0.67862222142055161899776294376352 1:0.84588009 2:0.39871529 3:0.25594097 4:0.19803911 5:0.98762906 6:0.90407711 7:0.015417044 8:0.14837648 9:0.64844972 10:0.1879867 #
0.48893994786754629844338637667533 1:1.207783 2:-0.1021527 3:0.11764532 4:0.29025325 5:0.51743466 6:0.21081674 7:0.21245442 8:1.0145843 9:-0.0030663717 10:0.24998753 #
0.39273915491898980789642337185796 1:0.91055924 2:0.19212957 3:0.83703578 4:0.49076626 5:-0.0081578717 6:0.73892152 7:0.081270665 8:1.0334717 9:0.6553036 10:0.94900262 #
-0.60960590021620175704697430774104 1:0.79221666 2:0.62092352 3:0.93264961 4:0.33625001 5:0.12619942 6:0.67433751 7:0.11332445 8:0.97247601 9:0.42355916 10:0.1240536 #
-0.98850696132967352802722871274455 1:0.43397382 2:0.046633851 3:0.57218057 4:0.16890626 5:-0.46301126 6:0.65809172 7:0.31603131 8:0.2321724 9:0.23080444 10:0.059301104 #
0.45422428052667995768132414013962 1:0.86117911 2:0.10617589 3:0.84780836 4:-0.41791445 5:0.32383174 6:0.37932262 7:0.53788126 8:0.40884262 9:0.58001405 10:0.57006514 #
-0.53330136013177664722206827718765 1:0.4315604 2:0.51681292 3:0.52542603 4:0.043407716 5:-0.22400722 6:0.18217805 7:0.0056032338 8:0.21384002 9:0.80559391 10:0.49179456 #
0.59952375508241440016377055144403 1:0.68840301 2:0.25258619 3:0.99252677 4:1.0921409 5:1.1273516 6:0.93374932 7:0.73841572 8:0.12283567 9:0.24007028 10:0.30925676 #
1.1906471530816624682103110899334 1:1.2192172 2:0.10994935 3:0.55003983 4:1.0717639 5:0.62011206 6:0.47255826 7:0.45912814 8:0.46385887 9:0.27057308 10:0.38218549 #
0.80441846886966417162767584159155 1:1.1674935 2:0.97511202 3:0.55166984 4:0.59766269 5:0.59166694 6:0.65282363 7:1.0803401 8:0.70172948 9:0.13858218 10:0.87749463 #
0.8165303266389307701444977283245 1:1.137987 2:-0.020217063 3:0.58490086 4:0.66373777 5:0.73076051 6:0.0042938706 7:0.21143423 8:0.90568483 9:0.71735048 10:1.0093439 #
-0.71548239662744572697761213930789 1:0.26103225 2:0.34644705 3:0.49747109 4:0.48978072 5:1.2109277 6:-0.62287176 7:1.5032881 8:0.74170196 9:0.84361315 10:0.48549268 #
-0.6763294741707880364245397686318 1:1.1835761 2:0.57978266 3:0.6772005 4:0.44383523 5:1.3569889 6:0.55658019 7:0.70858228 8:0.49365085 9:0.5375073 10:0.51942092 #
0.56929236732282140209804310870823 1:0.3265838 2:0.21930104 3:0.33231395 4:0.89713144 5:-0.088949673 6:0.63583225 7:0.11992103 8:0.30395696 9:0.83627355 10:1.0750451 #
0.34106830163455453819310037033574 1:1.140215 2:0.045560531 3:0.33053625 4:-0.027392847 5:-0.0084770545 6:0.94235915 7:0.3168793 8:-0.036105514 9:0.05198561 10:0.74148053 #
-0.3281237241702719131808407837525 1:0.38308972 2:1.1513685 3:-0.022659793 4:0.15859722 5:0.91860902 6:0.33398116 7:0.79871696 8:0.78130913 9:0.97323322 10:0.30313545 #
-0.42500171863500729729778981891286 1:0.14840327 2:0.24004222 3:0.95778471 4:0.75836855 5:0.80183691 6:0.19139533 7:0.24349631 8:1.1621606 9:0.16568245 10:1.0548258 #
0.47687179489940317855811713343428 1:1.2260097 2:0.38825127 3:0.47529784 4:-0.081961229 5:0.034003887 6:0.19383641 7:0.9636302 8:0.025597155 9:0.90713251 10:0.12992784 #
0.36428078011996195550992183598282 1:0.95798957 2:0.81638777 3:0.36348027 4:0.43480939 5:0.8894217 6:0.79029739 7:-0.14165795 8:0.41896471 9:0.13243137 10:0.88915402 #
0.49479912243590795650760583157535 1:0.98546106 2:1.2162377 3:1.2738941 4:0.48892668 5:0.27510452 6:0.74444658 7:0.063340314 8:0.51271892 9:0.21845624 10:0.86959171 #
0.58740638136622846943168951838743 1:1.1440237 2:0.8554951 3:0.2848939 4:0.81331837 5:0.4158546 6:0.56609666 7:0.51603734 8:1.1762291 9:0.67653424 10:0.03246627 #
-0.46500667194497030676458848574839 1:0.69451052 2:0.83696198 3:0.13325173 4:0.38565478 5:0.10217378 6:0.90416628 7:0.38765657 8:0.81046349 9:0.17642526 10:0.50628221 #
0.15960019373573217094097742574377 1:0.53880548 2:0.12978841 3:1.0874504 4:0.64570558 5:0.12746793 6:1.2367624 7:0.12414382 8:0.56946158 9:1.227313 10:0.30565917 #
0.54903357877622094296299337656819 1:0.93946832 2:0.94681984 3:0.12145903 4:0.28266296 5:0.34199068 6:0.45240831 7:0.43622655 8:0.84118146 9:0.9916324 10:1.0650399 #
0.2191721454062365015413860191984 1:1.1793672 2:0.96179998 3:1.1033441 4:0.42073202 5:0.94172555 6:0.1033784 7:0.80564106 8:-0.13811958 9:1.0525117 10:0.71822339 #
0.85107606472276831066636759715038 1:0.71180451 2:0.063909151 3:0.80430007 4:0.91151077 5:1.0133734 6:0.75814486 7:0.29797819 8:0.76090813 9:0.30737773 10:0.82500875 #
-0.35661747653744874098080686053436 1:0.2059398 2:0.15840596 3:0.10344546 4:1.2160562 5:0.45704415 6:0.84422648 7:0.15880473 8:0.62047195 9:0.39486408 10:0.80281019 #
0.81892599908371399575202076448477 1:1.1576819 2:1.0363992 3:0.14357737 4:1.0499963 5:0.55055457 6:0.16506161 7:0.38586712 8:0.3270174 9:0.017331444 10:0.43402973 #
-1.6045971664184528471253088355297 1:0.88365829 2:0.54690796 3:0.66516036 4:0.22767627 5:0.84917486 6:0.95868516 7:0.73708868 8:0.540546 9:0.16722077 10:0.65621895 #
0.29200075909591843847934455880022 1:0.96679038 2:0.90801203 3:0.25919279 4:0.40143254 5:0.43762374 6:0.84005982 7:1.1016734 8:0.20214237 9:0.69264382 10:0.0045478754 #
0.27942841693389081081377867121773 1:1.0549918 2:0.23225904 3:0.51261997 4:-0.058359392 5:0.49538007 6:0.27883321 7:0.28163463 8:-0.30896774 9:0.76961231 10:0.26930624 #
0.38255994252451674952908433624543 1:1.1931139 2:-0.0002325199 3:0.62478077 4:0.06867113 5:0.80417579 6:0.086502187 7:0.61104989 8:0.15459815 9:0.95181823 10:1.0138955 #
0.1500948247510459354625567129915 1:0.32452995 2:0.27070212 3:0.82485181 4:0.72923458 5:0.0014708324 6:0.9919368 7:0.64397949 8:1.1930356 9:-0.27008978 10:0.60275841 #
0.61808969386272338830679018428782 1:1.0982677 2:-0.14635441 3:-0.32419038 4:0.62876409 5:0.68545204 6:0.22722539 7:0.14330152 8:0.24494241 9:0.34367767 10:0.60568935 #
1.7978665453506423865803753869841 1:0.90044057 2:0.93624306 3:0.32809165 4:0.1338999 5:0.60607147 6:0.68942517 7:0.64060581 8:0.19972251 9:0.3356249 10:0.84618485 #
-0.44554133230046810698610215695226 1:1.5479537 2:1.3774161 3:0.12291946 4:-0.12801729 5:0.52215159 6:0.49767107 7:0.3044346 8:0.78483528 9:0.10357314 10:0.40600583 #
-0.50249501858584544322638976154849 1:0.029535903 2:0.90521342 3:0.87365943 4:0.74753141 5:0.49551064 6:0.28684098 7:0.02627166 8:0.75470448 9:0.23425643 10:0.51241636 #
-0.7278226471930412388999798167788 1:0.73303133 2:0.28021896 3:0.81727219 4:0.22786692 5:1.1430293 6:0.53670412 7:0.3447769 8:0.7781558 9:0.71315092 10:0.084009476 #
-0.77940344157014007642203523573698 1:0.92034292 2:0.58020264 3:0.23238906 4:1.1584631 5:1.2126392 6:0.21527082 7:0.55450481 8:0.65992421 9:0.61138481 10:0.4242731 #
-0.82199566556671788131183120640344 1:-0.19674574 2:0.28427213 3:-0.021475529 4:0.68688053 5:0.11421968 6:0.24119648 7:0.69575918 8:0.28275371 9:0.4524388 10:0.69683546 #
0.48354004557930740926252610734082 1:0.28051481 2:0.15246384 3:0.093353532 4:1.0151403 5:1.1365788 6:0.7727958 7:0.76427287 8:0.44056267 9:-0.052196596 10:-0.0126496 #
-0.36322080202758016964637022283569 1:0.39418802 2:-0.037901502 3:-0.20522398 4:0.76291496 5:0.34725684 6:0.22524396 7:0.290773 8:0.15607007 9:0.90372545 10:1.014992 #
-0.33359347537945011064053346672154 1:0.37791854 2:0.20420432 3:0.77634358 4:0.25639546 5:0.64929992 6:0.74248105 7:0.82348573 8:-0.29185042 9:0.23849744 10:0.70202762 #
0.5907145044194072047716304041387 1:0.68825638 2:0.73845822 3:0.19277179 4:0.64302248 5:0.74275786 6:0.14589283 7:0.84553987 8:0.8672213 9:0.20860344 10:0.48080796 #
1.5034737998182112761469397810288 1:1.0094368 2:0.82970119 3:0.22706787 4:0.64859778 5:0.68131095 6:0.36360362 7:0.047611788 8:0.60606122 9:0.30944312 10:0.43474686 #
0.3586003902278580568463439703919 1:1.0116295 2:-0.050394129 3:0.36098307 4:0.53913194 5:0.47008139 6:1.1486731 7:0.23108879 8:0.54982507 9:0.76373953 10:0.47555646 #
-0.85732448729848675927911472172127 1:0.6840775 2:0.91358626 3:0.76136136 4:0.63678873 5:0.15672556 6:0.86570972 7:0.28429306 8:0.12745559 9:0.57888627 10:0.095197618 #
0.38950661720465923343326153371891 1:1.2130939 2:0.1317015 3:0.90488476 4:0.38663065 5:0.77802867 6:0.11753514 7:0.12910844 8:1.0342673 9:-0.096442379 10:1.0774131 #
0.010270499807937804107038637368987 1:0.85991114 2:0.8028605 3:0.26634279 4:0.56275213 5:1.002859 6:0.11687971 7:0.69430625 8:0.81833696 9:0.89932948 10:0.033016186 #
-0.44790245533810651989981010956399 1:0.75760639 2:0.7622174 3:-0.23637617 4:0.13878833 5:0.60671157 6:0.62797004 7:0.5961619 8:0.17905489 9:1.028861 10:0.83335882 #
-0.29423476500373751951755707523262 1:-0.056009252 2:0.20289603 3:0.75367576 4:0.48459977 5:-0.11747511 6:0.51213175 7:0.30318242 8:0.97944343 9:-0.29913014 10:1.0809634 #
-1.8427836106915091995972488803091 1:0.78728884 2:0.70914966 3:0.50383711 4:0.67531598 5:0.23642769 6:0.63350445 7:0.66573668 8:0.50146478 9:0.10178909 10:0.60357314 #
-0.66360009659793561809237871784717 1:0.53209049 2:0.017106015 3:0.50536638 4:0.75073487 5:0.54211134 6:0.00037046248 7:0.0030737692 8:0.057001416 9:0.28861204 10:0.13193122 #
0.27829254868904279573982307738333 1:-0.91879314 2:0.52478611 3:0.93130326 4:0.70501077 5:0.28586477 6:0.43250474 7:0.70701092 8:0.53561115 9:0.28973329 10:-0.1042376 #
-0.30637630958082601173586567711027 1:0.65789109 2:0.46398732 3:-0.08876323 4:0.34697402 5:0.73522621 6:0.13224657 7:-0.1570508 8:0.60754031 9:0.82058179 10:0.60225147 #
-0.23575773015446621627688728040084 1:0.94363397 2:0.77199674 3:0.71837652 4:-0.022411594 5:1.0017083 6:0.3610574 7:0.62015468 8:0.069709904 9:0.77285033 10:0.83595407 #
1.0119730434729190537979093278409 1:0.018206803 2:0.38430634 3:0.75988901 4:0.3617591 5:1.0353597 6:0.13386035 7:0.72235727 8:0.85656899 9:0.27890024 10:0.31855091 #
0.27732898650901005588309544691583 1:1.0543406 2:0.10584196 3:0.13511878 4:0.99799919 5:1.0558453 6:0.11570489 7:0.48269343 8:-0.24475756 9:0.35907954 10:0.70200306 #
0.83079959983600271122838876181049 1:0.62248278 2:0.84237474 3:1.0267473 4:1.0137386 5:0.072523661 6:0.69741929 7:0.45532146 8:0.97482705 9:0.60826004 10:0.72158581 #
0.89762970402056263541368252845132 1:1.1600908 2:-0.063722782 3:-0.20549987 4:-0.062715642 5:-0.066184819 6:0.13029309 7:0.65249258 8:0.75611657 9:0.3382501 10:0.62920696 #
-0.58207959519654950408806826089858 1:0.80786234 2:0.59332621 3:0.87771022 4:0.78812742 5:0.43459502 6:0.48185557 7:1.296542 8:0.2216509 9:0.17604735 10:0.20303883 #
-0.34606149528462959441554858130985 1:1.7389929 2:0.53720307 3:0.28925028 4:-0.1558226 5:0.68597579 6:0.63496399 7:0.60147643 8:0.64994687 9:0.51778835 10:0.50812072 #
-0.41476618781623764142807431198889 1:0.65630335 2:0.59857434 3:0.48643795 4:1.2901156 5:0.56974471 6:0.60796136 7:0.39571923 8:-0.10571305 9:0.016286414 10:0.98421025 #
-0.67154617540112859774836806536769 1:0.68580675 2:0.74779904 3:1.0861777 4:0.10164148 5:0.47213173 6:-0.041602451 7:0.46323314 8:0.28644982 9:0.59500539 10:0.6722486 #
0.7433047275808418730136395424779 1:-0.26437005 2:-0.026366271 3:0.89018071 4:1.2917719 5:-0.99872303 6:0.37438527 7:0.45694786 8:0.57515275 9:0.50418085 10:0.42505476 #
-0.77549992178309667956170869729249 1:0.83017761 2:0.62507421 3:0.10765783 4:0.29523122 5:-0.073947951 6:0.68004316 7:0.80975872 8:0.2354733 9:0.8438251 10:0.32019216 #
-0.48634501485983183677319630078273 1:-0.37608612 2:0.6225459 3:0.56814343 4:0.85275871 5:0.32938054 6:0.096105278 7:0.6817807 8:0.38033107 9:0.80035943 10:0.38085642 #
-0.74430657827986923535945607000031 1:0.53598434 2:0.20839398 3:0.87706757 4:1.1137453 5:0.40227687 6:0.64920712 7:0.61082792 8:0.51584941 9:0.35108539 10:0.0077073947 #
-0.65067779715713081056804867330357 1:0.49052975 2:-0.24219336 3:1.0723161 4:0.21661168 5:0.63736713 6:0.059411574 7:0.53749645 8:0.81936175 9:0.74417341 10:0.28032255 #
1.0832871379471564754481960335397 1:0.17672566 2:0.65535218 3:-0.021206034 4:0.99197596 5:-0.16544972 6:0.24604927 7:0.37175179 8:0.27574018 9:0.68161833 10:0.39035162 #
-0.39941585743824259413514710104209 1:0.82051015 2:0.57576448 3:0.20862202 4:0.89644724 5:0.20259759 6:0.19977373 7:0.51955205 8:0.24399208 9:0.40452403 10:0.0074439771 #
-0.73760826484130892488622066593962 1:0.31435141 2:0.86999166 3:0.28435081 4:1.1411074 5:0.25624123 6:0.84147722 7:-0.076025143 8:0.34930477 9:0.76179641 10:0.58553261 #
-0.91873531524337515019595912235673 1:0.65410328 2:-0.022347471 3:0.39487618 4:0.33770064 5:0.044987094 6:0.62285012 7:1.0073593 8:0.33063826 9:0.19098638 10:0.96182972 #
0.44294783342464066899779595587461 1:0.51391238 2:0.58752495 3:0.35869142 4:0.88213164 5:-0.25841928 6:0.78842437 7:-0.10844231 8:0.76059526 9:0.16760699 10:0.64670092 #
0.15009541677210591625879487764905 1:0.33381012 2:-0.00097125419 3:0.078872338 4:1.1263261 5:-0.034001037 6:0.2135388 7:-0.0017844132 8:0.60597134 9:0.55549055 10:1.091864 #
-0.47862095055406400634367969360028 1:0.79705858 2:0.35583147 3:0.033082638 4:-0.001372751 5:0.9022308 6:0.22804143 7:0.52346903 8:0.54928905 9:-0.11321851 10:0.54993087 #
0.22517363803042844683233170144376 1:0.88889509 2:0.95338392 3:0.23055838 4:0.23784706 5:0.021575773 6:1.1793873 7:0.35249397 8:0.5911358 9:0.99528909 10:0.36581549 #
0.48869264537487577815255690438789 1:0.36245668 2:0.82829815 3:1.2313131 4:0.72634649 5:-0.074299067 6:0.01235443 7:0.049593419 8:0.24916664 9:0.39636195 10:0.54350561 #
-0.19073958095381535193801880723186 1:0.487537 2:0.43351465 3:0.46148878 4:0.40726727 5:0.63966084 6:1.4724069 7:0.20918147 8:0.76968062 9:0.65308952 10:0.50360453 #
0.71747994168347251076056636520661 1:-0.25182897 2:-0.039007418 3:1.0910543 4:1.5674478 5:0.52628303 6:0.35254169 7:0.1948418 8:0.45544687 9:0.36435249 10:0.6580829 #
0.28614044921156217560209711336938 1:0.86138755 2:0.15688206 3:0.35992941 4:0.68279856 5:0.038637869 6:0.4015044 7:0.68376935 8:0.079824895 9:0.042161122 10:0.034324657 #
-0.52047654241764984561768869752996 1:0.054800816 2:0.48610038 3:0.17606238 4:1.3249177 5:-0.011599596 6:1.4817338 7:0.75877512 8:0.45957366 9:0.62286729 10:0.15217534 #
-0.63103760809404674247957700572442 1:0.22412375 2:-0.0071866727 3:0.54896301 4:-0.088542588 5:0.083475865 6:-0.080861084 7:0.81865674 8:0.65731776 9:0.15496422 10:0.36774552 #
-0.24146050505533503405253270557296 1:0.83770156 2:0.52063227 3:0.3671186 4:0.30257821 5:0.72928154 6:0.50043297 7:0.063118465 8:-0.11268715 9:0.17567103 10:0.81189746 #
-0.54316379935791558875024520602892 1:0.52595824 2:0.48746616 3:0.61480838 4:1.0248075 5:0.71692467 6:0.35147822 7:1.3631862 8:1.0363955 9:0.34105068 10:0.50159371 #
1.8741660110737345945608467445709 1:1.0280226 2:0.14295167 3:0.65366793 4:-0.019060865 5:0.56493849 6:0.34979498 7:0.44725791 8:0.75331122 9:0.36716077 10:0.1918444 #
0.62938005388492190839144768688129 1:-0.034367632 2:0.73177576 3:0.079178602 4:0.87381756 5:0.016512983 6:0.9862659 7:1.1017551 8:0.26948813 9:0.23762803 10:0.9500919 #
-0.5501039708071145950540881131019 1:0.30970651 2:-0.0016900094 3:0.67073411 4:0.48355207 5:0.69895518 6:0.89392406 7:1.0869384 8:0.37981144 9:0.667301 10:0.19667038 #
0.37663787487416505728177185119421 1:1.2248738 2:-0.21457888 3:0.16423665 4:0.33846682 5:0.41539904 6:0.53920102 7:0.4564552 8:0.9868685 9:0.97213751 10:0.14116643 #
-0.42734675019075790691758243156073 1:0.59062457 2:0.044769771 3:1.2978902 4:0.12228406 5:-0.041540492 6:0.78809738 7:0.72608995 8:0.46182114 9:0.38050547 10:0.51394719 #
0.42438348190594787912033325483208 1:1.0348859 2:0.78679633 3:0.47820118 4:-0.22666396 5:0.1681845 6:0.65960193 7:0.013810886 8:0.90253222 9:0.84948611 10:0.5651474 #
1.1547033285006502723035737290047 1:1.1162667 2:0.9060995 3:0.24048188 4:0.91018057 5:0.49091423 6:0.19784878 7:0.67968887 8:0.44665971 9:0.59115618 10:1.0556875 #
0.42338743934655020950685866409913 1:-0.35815606 2:0.7697624 3:0.93307698 4:0.66395438 5:2.2192962 6:-0.095501781 7:1.0827763 8:0.46331316 9:0.48300609 10:0.50059307 #
0.77686279253078094342299664276652 1:1.0990521 2:1.3023387 3:1.0623693 4:0.52445328 5:0.54007751 6:0.22577474 7:0.57352984 8:0.82457012 9:0.69726288 10:0.14881782 #
0.56165012529815627750906514847884 1:1.0115649 2:0.99058723 3:0.23364323 4:0.036777444 5:0.099970616 6:-0.12540323 7:0.52770615 8:0.21557303 9:0.51878321 10:0.80674136 #
-0.91843428587334663415475688452716 1:0.49912241 2:-0.079949081 3:0.1674834 4:0.89720875 5:0.48674312 6:0.73951983 7:0.79707861 8:0.8219738 9:0.22271322 10:0.61466795 #
-0.4632450659191047481755276749027 1:0.095475703 2:0.29368696 3:1.0975676 4:0.73361951 5:0.41918576 6:-0.063003778 7:0.11824549 8:0.32007855 9:0.98505229 10:0.52320993 #
1.0872857248828258214246034185635 1:1.0519654 2:0.26528913 3:0.93613636 4:0.51006609 5:0.5077889 6:0.30721921 7:0.34628716 8:0.012931527 9:0.81412995 10:0.77295023 #
0.41134723306779408247280116484035 1:-0.12965724 2:-0.3825675 3:0.71774101 4:0.60302699 5:0.028606867 6:0.55519861 7:0.50502956 8:0.61883742 9:0.65290207 10:0.27876478 #
0.26546841197222720287740571620816 1:0.95967662 2:0.7306599 3:0.46237421 4:-0.078562051 5:0.47729242 6:0.25215393 7:0.54148233 8:0.55197018 9:-0.42124608 10:1.1985362 #
0.50903330531550683435426662981627 1:1.0684096 2:-0.012613696 3:0.65518916 4:1.1066055 5:0.87504363 6:0.18447411 7:0.35538647 8:1.1020751 9:0.93540132 10:0.29613715 #
-0.24708389568448427264790723256738 1:0.57487023 2:0.44425219 3:0.31812489 4:0.97150892 5:-0.80367637 6:0.2863889 7:0.028927816 8:0.0079093473 9:0.87535816 10:0.66170716 #
-0.46559197489229786626196982979309 1:0.83541358 2:0.99470466 3:0.52138788 4:1.3022674 5:-0.11349529 6:0.1487091 7:0.69113481 8:0.25770894 9:0.46208602 10:0.64915007 #
-0.49582287333308366905626485277025 1:0.5748105 2:0.62390399 3:0.91430664 4:0.24242438 5:0.38269368 6:0.36556554 7:-0.076596037 8:-0.12598878 9:0.51347011 10:0.82443374 #
0.61657392625464768620702216139762 1:0.31749257 2:0.083879955 3:0.68509191 4:0.54802477 5:0.0054280194 6:0.11999045 7:-0.052488979 8:1.0373943 9:0.39699686 10:0.19985515 #
1.6515263554374439713967603893252 1:0.48834896 2:0.55897683 3:0.59107184 4:0.65116876 5:0.07244657 6:0.14228886 7:0.58998442 8:0.85740674 9:0.57163221 10:0.64279521 #
-0.41010695521570678101497264833597 1:0.94809806 2:0.81522179 3:0.71777183 4:0.85708308 5:0.24834277 6:0.5529632 7:0.3786141 8:0.4505522 9:1.0426301 10:0.19918625 #
-0.55556458453878643233281309221638 1:0.47222435 2:0.9148078 3:-0.037810992 4:0.81293511 5:0.6732673 6:0.1995618 7:0.81175733 8:0.38976011 9:0.74761909 10:0.95436943 #
0.51047087657156564599603143506101 1:0.97919208 2:0.92999738 3:0.1309979 4:0.51339203 5:0.24674119 6:0.75680715 7:0.43362311 8:0.21454093 9:0.0020380605 10:-0.036604695 #
0.74681805895271990980432974538417 1:0.31595168 2:0.52995431 3:0.8109014 4:0.67906547 5:0.023450347 6:0.77471566 7:1.2480432 8:0.3903856 9:0.7235148 10:0.11726832 #
-0.34923515368706048445091028042953 1:1.4249913 2:0.12652752 3:0.36521712 4:-0.29979923 5:0.15591548 6:0.75622088 7:1.2144694 8:0.8938123 9:0.72326875 10:0.087264054 #
0.24109292102791105016912354130909 1:0.97799057 2:1.0573337 3:0.52133316 4:0.43374091 5:0.99234408 6:-0.015363475 7:-0.12754095 8:1.0274162 9:0.73848534 10:-0.116049 #
0.34297529882623506436445381950762 1:2.2332833 2:1.8835831 3:0.35226765 4:0.14250633 5:0.42886025 6:0.57685554 7:0.66576874 8:0.40492153 9:0.27771527 10:0.39008129 #
-0.75486792224050858202133440499892 1:0.56664646 2:-0.29617268 3:0.70573378 4:0.77642453 5:0.5626657 6:0.40658882 7:0.54430354 8:0.51815557 9:0.73497099 10:0.9369173 #
-0.53615905926169271644710079272045 1:0.38179165 2:0.44497031 3:0.069903046 4:0.55721033 5:0.28125164 6:0.15367603 7:0.96658182 8:-0.23327975 9:0.86373252 10:0.51208889 #
0.41653678061478149885488164727576 1:0.9503392 2:0.89906073 3:0.08809825 4:0.17045961 5:1.0141313 6:0.88020945 7:0.48400587 8:1.0422422 9:0.4445816 10:0.97941291 #
0.26669680019517844060672473460727 1:1.1468459 2:1.0415429 3:0.15397947 4:0.50155675 5:0.27177039 6:0.24785124 7:0.98129082 8:0.59883618 9:0.0047907406 10:-0.097667672 #
-0.21163758596554380075893675439147 1:0.87452674 2:0.32983288 3:0.87289751 4:-0.10808721 5:0.95876133 6:1.2120689 7:0.12223288 8:0.50898588 9:0.45618248 10:0.733374 #
-0.33143472464891743367587650936912 1:0.46716359 2:0.77485216 3:0.78447372 4:0.078099497 5:0.43790215 6:1.0158948 7:0.66192579 8:-0.15868223 9:0.37735078 10:0.14467376 #
1.6478329948501355683987412703573 1:1.0141857 2:0.81274825 3:0.30182838 4:0.19150081 5:0.39065218 6:0.24207105 7:0.40782622 8:0.44557235 9:0.20901042 10:0.66227496 #
-0.43676296664952490855782230028126 1:-0.56717324 2:-0.27426702 3:0.95386738 4:1.4528596 5:-1.2970636 6:0.41617289 7:0.36260012 8:0.7324121 9:0.50977576 10:0.34312144 #
-0.17239222113356678089957085830974 1:2.6678627 2:2.254874 3:0.3103632 4:0.0014630498 5:0.36971405 6:0.63572448 7:0.75671798 8:0.35424268 9:0.19142836 10:0.38671988 #
0.21036715981248493845257030443463 1:1.215853 2:0.88175565 3:0.83400732 4:0.22792256 5:-0.49679291 6:0.53469872 7:0.59500086 8:0.79160726 9:0.54736984 10:1.1100149 #
1.1371427017652264712666010382236 1:0.20886287 2:0.64963472 3:0.38617983 4:0.82652557 5:1.115697 6:0.69322485 7:0.016497614 8:0.26474091 9:0.5149045 10:0.90999842 #
0.43780777675046705921246825710114 1:-0.03717136 2:0.99794227 3:0.69705778 4:0.96722025 5:-0.10585921 6:0.53624994 7:0.19463755 8:0.17841753 9:0.76499075 10:1.052233 #
0.66499229680744764703348437251407 1:0.68824345 2:0.26923007 3:0.30748916 4:0.8071993 5:-0.042174198 6:0.72801989 7:0.035962056 8:0.34629163 9:0.45665604 10:-3.1595355e-05 #
0.59544069683834999207050486802473 1:1.1089934 2:1.0228571 3:0.83291656 4:-0.019273052 5:0.4500621 6:0.71186936 7:0.18996972 8:0.56517601 9:0.21434917 10:0.19892904 #
0.98845396926129114323344992953935 1:0.47773549 2:0.22636859 3:-0.066151336 4:0.56297624 5:1.0817297 6:0.056390781 7:0.94418353 8:0.69509447 9:0.49554974 10:-0.0082426667 #
-0.31076356037207564231295009449241 1:-0.20399541 2:0.47470385 3:0.7791127 4:0.55112964 5:0.60535967 6:0.91942167 7:0.89331818 8:0.068332039 9:0.83977675 10:0.92032135 #
-0.69679364280556466137994675591472 1:0.74127918 2:0.35676098 3:0.47051147 4:0.71838671 5:0.822366 6:0.50798392 7:0.51015848 8:0.11575262 9:0.88655168 10:-0.005985314 #
-0.5860501833463026555293140518188 1:0.8363865 2:0.61082411 3:0.018513646 4:0.5228672 5:0.50633389 6:-0.060899563 7:0.53900093 8:0.33337611 9:0.77256507 10:0.43299165 #
0.67016654654566276683169689931674 1:0.14124745 2:0.70990616 3:0.21747679 4:0.41214743 5:0.89430636 6:0.10828324 7:0.98202097 8:0.31598714 9:0.65648347 10:0.81261748 #
0.99907130763977969323264005652163 1:0.534087 2:0.53038472 3:-0.20301929 4:0.91756767 5:0.16173297 6:0.99026829 7:1.0066316 8:0.087276772 9:0.40925092 10:0.49598461 #
0.83001629127147580344825428255717 1:0.89189512 2:0.0085100457 3:0.7707023 4:0.15610664 5:0.44896996 6:0.21454167 7:0.14068238 8:0.51599377 9:0.96771383 10:0.80767161 #
3.2137056571194229093180183554068 1:1.1002632 2:0.18486944 3:0.70174497 4:0.48537135 5:0.64385593 6:0.65030217 7:0.76059008 8:0.41158804 9:0.3048304 10:0.49421445 #
-0.59054520479987593351012264974997 1:0.66611862 2:0.54608172 3:0.24201027 4:-0.015235336 5:0.77987605 6:0.60908777 7:1.0920445 8:0.84402442 9:0.79817849 10:0.63934243 #
0.68482389838800949988240063248668 1:1.0176493 2:0.8625198 3:0.29804307 4:0.0026589686 5:0.20102036 6:0.49482265 7:0.99781394 8:0.57904208 9:0.85751325 10:0.94061601 #
-0.23232037713924552635447184911754 1:0.62370867 2:0.8080349 3:0.41308776 4:0.9485895 5:0.61429513 6:0.32432002 7:1.0546646 8:0.057220262 9:0.28404611 10:0.93111765 #
0.4824300447374446076942433592194 1:1.003641 2:0.91647875 3:0.70542455 4:0.28756052 5:0.79799664 6:0.49873137 7:0.8485989 8:0.94521511 9:0.81557161 10:0.60419106 #
-0.35786467242738262406476223986829 1:-0.45401406 2:0.49117273 3:0.46227023 4:0.2762109 5:0.93388355 6:0.080285229 7:0.86427361 8:0.62217563 9:0.20317729 10:0.57527637 #
-0.47983437258098543543027858504502 1:0.53326088 2:0.29274222 3:0.11233898 4:0.58295214 5:0.66074169 6:0.8868916 7:0.66637278 8:0.85772783 9:0.50568634 10:-0.16350588 #
-0.51609278358664090191609830071684 1:1.6723843 2:-0.43031284 3:0.62155479 4:0.59669477 5:0.56896055 6:0.74011397 7:0.5035916 8:0.53181022 9:0.57395357 10:0.52470094 #
0.69718467382558391154390164956567 1:0.52907246 2:0.71178508 3:0.14888401 4:1.1464964 5:-0.013873525 6:0.81601173 7:0.66536885 8:1.0132481 9:-0.14503904 10:0.56484532 #
0.23473630747506013527470258850371 1:1.1067624 2:0.17102516 3:0.80169761 4:0.71806085 5:0.32615933 6:0.91073835 7:-0.10487658 8:0.26634702 9:-0.1600993 10:0.89762497 #
0.29541493201313223648796224551916 1:0.46461836 2:0.59743023 3:0.10437644 4:1.0786568 5:-0.20339024 6:0.20490807 7:0.50374037 8:-0.31064168 9:-0.034171224 10:0.72859871 #
-0.76808425670958846431801703147357 1:0.43562478 2:1.0407461 3:0.57420027 4:0.778723 5:0.44456178 6:0.5123232 7:0.75273776 8:1.1411639 9:0.96126753 10:0.73497838 #
0.31541032007009039972444952582009 1:0.97699201 2:0.080153756 3:-0.10616193 4:0.27297449 5:0.55578953 6:1.1585826 7:0.21621177 8:0.16160114 9:0.59927857 10:1.0834842 #
-0.4170522741184214399190466338041 1:0.76161849 2:0.37779769 3:0.79315233 4:1.1346892 5:0.22573826 6:0.094495699 7:0.2901738 8:1.0071996 9:0.48692361 10:0.90859556 #
0.14080453740126577799607332508458 1:1.0455989 2:0.53745341 3:0.070446648 4:0.017796941 5:1.3644661 6:0.88326824 7:1.0759314 8:-0.14340456 9:0.68830281 10:0.63280839 #
0.78226094415924918301641355355969 1:0.4710806 2:0.60612762 3:0.19961031 4:1.0960605 5:1.1307204 6:0.92201167 7:0.39694783 8:0.82735354 9:0.93877178 10:0.12776285 #
0.44430252591200430911655416821304 1:0.56901228 2:-0.14850973 3:0.45039344 4:-0.17989038 5:-0.79743522 6:0.68545645 7:0.43043923 8:0.26143527 9:0.17791171 10:-0.10062169 #
0.43659046976316717714183823773055 1:0.97743976 2:-0.044105176 3:0.087210216 4:0.75435311 5:0.082440928 6:0.1012589 7:0.51170272 8:0.063399374 9:1.0995715 10:0.27181232 #
0.23331474802084575803640120739146 1:1.1142809 2:0.50770158 3:0.56461048 4:0.074204676 5:0.40891811 6:0.9024502 7:0.40480798 8:0.54591519 9:1.0131752 10:0.84663874 #
-0.20886480827673986615522494503239 1:-0.72868997 2:0.89989603 3:0.96568578 4:0.61400235 5:2.5734344 6:-0.33983162 7:0.9604224 8:0.51683736 9:0.39281341 10:0.74645323 #
-0.33286235571374039876602068943612 1:0.43713069 2:0.9934873 3:-0.14721064 4:0.27206981 5:0.12105734 6:0.43282267 7:0.49264735 8:0.40835026 9:0.21186548 10:0.94093794 #
-0.24567919972151339158550342745002 1:0.77133304 2:0.59135044 3:1.2194659 4:0.53733808 5:0.38142759 6:0.49363264 7:1.2302824 8:1.1146754 9:0.7476393 10:0.62547809 #
0.66514114188359030332975407873164 1:1.1026012 2:0.082961202 3:0.76950514 4:0.85801941 5:0.582304 6:0.1200135 7:0.2582545 8:0.50491512 9:0.63384169 10:-0.13675053 #
-0.74345644641202801583546033725725 1:0.68214089 2:0.73484504 3:0.7749697 4:0.61761642 5:0.56520039 6:0.85175431 7:-0.10635845 8:0.96383542 9:0.33289823 10:0.55842084 #
0.57460869914404255620610229016165 1:0.61916965 2:0.56843871 3:0.71693903 4:0.72609639 5:1.2350179 6:-0.27185801 7:0.86504298 8:0.75037056 9:0.052729875 10:0.31306297 #
0.56443445369678679757186046117567 1:0.88520551 2:0.91967487 3:0.11572661 4:0.32686961 5:0.068540499 6:0.72714823 7:-0.070962153 8:0.31085172 9:0.43310577 10:1.1068404 #
0.43391939427055664646459831601533 1:0.54861724 2:0.34896958 3:0.81294197 4:0.32152686 5:1.2908701 6:0.12308452 7:0.984456 8:0.17597848 9:1.0192794 10:-0.072408251 #
0.27074230062786902584193171605875 1:0.95540321 2:0.1118395 3:0.011604312 4:0.67474264 5:0.037167009 6:0.42841521 7:0.077153146 8:0.85442936 9:0.271211 10:0.15773503 #
-0.47133872461204412429580656862527 1:0.78576136 2:0.0092470124 3:0.56543446 4:0.75237226 5:0.3608669 6:0.596268 7:0.0039723963 8:0.49047953 9:0.87594283 10:0.31954673 #
-0.20953823993258888225277303263283 1:0.22257945 2:0.06880822 3:1.2222145 4:0.3814868 5:0.77035767 6:0.68745422 7:0.78637671 8:0.95583928 9:0.15652968 10:0.51552445 #
0.37323831801565809929144279522006 1:0.56351495 2:0.56331265 3:0.94700557 4:0.90446192 5:0.13334014 6:0.28495571 7:0.47161615 8:-0.1272628 9:-0.045565449 10:0.47614324 #
-0.72509488995999826776994723331882 1:0.61037791 2:0.9464553 3:0.64680517 4:0.11912291 5:0.010218342 6:0.16510037 7:0.22303033 8:0.92819595 9:0.05936579 10:0.56983227 #
1.0589462412133288093940564067452 1:0.22691549 2:0.35067904 3:0.26991263 4:0.75715899 5:1.1351058 6:0.7995258 7:0.61146098 8:0.63336641 9:0.15962204 10:0.80203283 #
0.48372078337936608161129470317974 1:0.63426507 2:0.15312622 3:0.48973471 4:0.82840687 5:-0.21374905 6:0.072017916 7:1.0583262 8:0.74552149 9:1.0383614 10:0.81565052 #
0.30865172395685253059482988646778 1:0.98832363 2:-0.00091023394 3:0.61739779 4:0.87746364 5:0.35184339 6:0.21822447 7:0.054360833 8:0.88551784 9:0.10776967 10:0.88369733 #
-0.74354950983724399371510571654653 1:0.82272112 2:0.46260342 3:0.37315908 4:0.26043725 5:0.139162 6:0.44401288 7:-0.0010964032 8:0.58691233 9:0.14971198 10:0.021089736 #
0.47837875205511548593051429634215 1:0.71699524 2:1.1008224 3:0.81696528 4:1.0433117 5:1.1034918 6:1.0390298 7:0.4864091 8:0.44983158 9:0.65587765 10:0.073485635 #
-0.8408505601066618151406828474137 1:0.76841784 2:0.41460282 3:0.36436501 4:0.51747465 5:0.33104569 6:0.89179373 7:0.5996893 8:0.97245383 9:0.70148587 10:0.88787735 #
0.38569135324852604762568830665259 1:0.94886172 2:1.0453249 3:0.30133924 4:0.96857244 5:0.90967971 6:0.80822331 7:0.59258914 8:0.049230214 9:0.091887847 10:0.46814328 #
-0.40242236872389747226463896367932 1:0.52571476 2:0.24078298 3:0.20665379 4:0.89317006 5:0.49056739 6:0.68815732 7:0.76871449 8:0.73191124 9:1.0806897 10:0.28895369 #
-0.54274383122254221678559815700282 1:0.95086575 2:0.73709249 3:0.9056707 4:0.72646534 5:0.70465016 6:1.2821407 7:0.37826979 8:0.0085555073 9:0.54183781 10:0.62850571 #
0.76833284606395646498810947377933 1:0.42740503 2:0.21516277 3:0.67423558 4:0.75154263 5:-0.057696301 6:1.1607326 7:0.21536741 8:0.19782448 9:0.61071205 10:0.81364 #
2.0765144630490177668491469376022 1:0.94942868 2:0.16188778 3:0.95564675 4:0.52291405 5:0.67172259 6:0.43125448 7:0.30583757 8:0.67376029 9:0.74744469 10:0.40513676 #
-0.4203065768801919621644458402443 1:0.90019238 2:0.35615611 3:0.15583666 4:0.71354377 5:1.0198621 6:0.40408295 7:0.37989542 8:0.86811185 9:0.15146837 10:1.0750835 #
-0.45495059624197253800303997195442 1:0.29949069 2:1.1733288 3:0.34069169 4:0.52858943 5:0.51302671 6:1.0021503 7:0.53699607 8:0.38129577 9:-0.03382507 10:0.58954394 #
0.38828438772575002424503054498928 1:0.29032439 2:0.33321461 3:0.8717944 4:0.67853987 5:-0.09525007 6:0.35552508 7:-0.26464567 8:0.29905033 9:1.081623 10:0.19096977 #
0.50588984360990474353769741355791 1:0.17646599 2:0.58143193 3:0.73209083 4:1.1113951 5:1.0599258 6:1.0465945 7:1.0174443 8:0.93431574 9:0.62011003 10:0.27340543 #
0.55329533103343153666031639659195 1:0.60235775 2:0.61075741 3:0.78203601 4:1.1797717 5:0.040633589 6:0.77025127 7:1.0619745 8:0.91886377 9:0.31046009 10:0.12629455 #
0.81438604984022033850266097942949 1:0.82343537 2:-0.084866613 3:0.021032013 4:0.44163722 5:0.71139252 6:0.10789426 7:0.69874632 8:0.7712698 9:0.85711962 10:0.5737142 #
0.10897410604889011531692943890448 1:0.35176295 2:0.029078044 3:1.5181727 4:0.29300299 5:0.89927113 6:0.808348 7:0.98275286 8:1.2538637 9:0.002595511 10:0.53492051 #
0.28159561445440800531159197817033 1:1.1621267 2:-0.069487847 3:0.40919068 4:-0.059932273 5:0.19204843 6:0.44185737 7:1.1442562 8:-0.12340987 9:0.052353878 10:0.6578427 #
0.56478973007672728101624670671299 1:0.14384933 2:0.15794492 3:0.67784524 4:0.61148852 5:0.021500962 6:0.53224754 7:0.75520056 8:0.44649133 9:-0.12329821 10:-0.11391621 #
-0.53489734730311966348637042756309 1:0.51049125 2:0.5838322 3:0.35399821 4:0.34712702 5:0.18672158 6:0.17473775 7:0.65672141 8:0.60055459 9:0.75817007 10:1.3843699 #
-0.38473156815041742451199979768717 1:0.19559498 2:0.76516134 3:0.62039924 4:-0.18702999 5:0.99383312 6:-0.15514357 7:0.62961107 8:0.46475792 9:0.063335523 10:0.2169105 #
0.052242105668395842632545367223429 1:0.94393927 2:1.1336747 3:0.37013155 4:0.6501025 5:0.48293495 6:-0.3160246 7:1.8767401 8:0.49647644 9:0.41701573 10:1.5214967 #
0.19716336490255681468397597200237 1:0.48397377 2:0.38501397 3:0.88850892 4:0.78739983 5:0.28886908 6:0.84789377 7:-0.069628291 8:1.1546661 9:0.17831333 10:0.15674028 #
-0.21321234046171416709469781380903 1:0.73195732 2:0.049746044 3:0.49805197 4:0.01252645 5:0.035966273 6:-0.023081906 7:0.19368041 8:0.63945961 9:0.76667821 10:-0.11490852 #
-0.34167898055094597653535970493976 1:1.0178961 2:0.41823375 3:0.77390516 4:0.94892484 5:0.25168979 6:0.75674123 7:0.098407939 8:0.21128914 9:0.68569136 10:0.77762365 #
-0.093970042248421120634205294663843 1:0.22149554 2:0.14204185 3:0.34427765 4:0.70503765 5:0.45770493 6:0.045339715 7:0.63420182 8:1.0860541 9:0.44347438 10:0.55097282 #
-0.14140347277534029424295169974357 1:0.61577296 2:-0.47082749 3:0.35948625 4:-0.41200903 5:-1.1717247 6:0.62032104 7:0.59898978 8:0.27901137 9:0.14106695 10:-0.095322512 #
0.27291225479568398393226402731671 1:0.68682718 2:0.51752192 3:1.0605537 4:0.57718575 5:1.1891888 6:0.17392413 7:1.0734372 8:0.15037368 9:0.5153622 10:0.92220944 #
-1.357413981611093500845299786306 1:0.88436174 2:0.5360266 3:0.71571106 4:0.37645054 5:0.1664471 6:0.3288596 7:0.74171144 8:0.83604544 9:0.49429816 10:0.42523542 #
0.78321851363163552672830292067374 1:1.0001312 2:-0.081215918 3:0.77785528 4:0.52826262 5:0.78908306 6:0.38649389 7:0.16446024 8:0.22793873 9:0.062395707 10:0.28363031 #
0.374274533149223154193663276601 1:0.26921564 2:-0.30517966 3:0.42029899 4:0.9479546 5:0.074607931 6:0.63406646 7:0.20247237 8:0.89671117 9:0.85387236 10:0.50423867 #
0.30854999551842060556694491424423 1:0.098423392 2:0.53633177 3:0.20451066 4:0.7930994 5:0.012794913 6:-0.19668366 7:0.8174004 8:0.49726591 9:-0.056328326 10:1.0616684 #
-0.49239232903232676985538773806184 1:0.036002301 2:0.35417661 3:0.48350728 4:1.2209427 5:0.31307906 6:0.4544794 7:0.92532831 8:0.24556868 9:0.7508387 10:0.60742432 #
-0.54298070282673216446767128218198 1:0.71003419 2:0.72152054 3:0.9459371 4:0.77035975 5:0.79412013 6:0.054252945 7:0.16261792 8:0.32588628 9:0.038392391 10:0.89544433 #
-0.40054529099395769220492979911796 1:0.50784606 2:1.1631444 3:-0.014186721 4:0.79995984 5:0.71575564 6:0.79768872 7:0.92402744 8:1.1446075 9:0.21393196 10:0.21730417 #
0.44833469753746618691181424765091 1:1.3617625 2:0.15797789 3:0.78646529 4:-0.11609521 5:-0.40658128 6:0.90539908 7:0.31748 8:0.41759121 9:0.58067727 10:0.34667489 #
-0.40774801083186029693194996070815 1:0.97511727 2:0.56237459 3:0.71320772 4:0.47031042 5:1.0410095 6:0.5875656 7:0.1886705 8:0.19520167 9:1.0513185 10:0.62715614 #
-0.36620358598867558397316201990179 1:0.053835493 2:0.29143065 3:1.2703953 4:0.10493497 5:0.5756821 6:-0.22011104 7:1.23785 8:0.33270597 9:0.40296501 10:0.50683486 #
0.14102090992436536187604190217826 1:-0.18570872 2:0.39688393 3:0.52160299 4:1.3539903 5:1.8406788 6:1.0945998 7:0.24854784 8:0.66059667 9:0.54312813 10:0.47496304 #
0.24513854454349287559367098765506 1:-0.17103137 2:0.0074953381 3:0.50656754 4:1.6418624 5:2.2685068 6:1.3026162 7:0.28413123 8:0.63489121 9:0.70897651 10:0.51957273 #
0.62497045197217970802228137472412 1:1.0840011 2:-0.075599924 3:-0.020361945 4:0.23720968 5:0.63454467 6:0.62621331 7:0.0096425656 8:0.7784813 9:0.8071866 10:0.59652573 #
3.2505594433111304475403358082986 1:0.55404711 2:0.48774624 3:0.99144757 4:0.70653826 5:-0.13943544 6:0.29206041 7:0.34569237 8:0.48884234 9:0.56633157 10:0.45102423 #
0.62951973363330815391947226089542 1:0.55440891 2:0.25536516 3:0.56575543 4:0.71748835 5:-0.25848138 6:0.31862172 7:0.055638809 8:0.17431137 9:0.091491625 10:1.1128645 #
0.29833059167040310022400717571145 1:0.14764912 2:0.082313776 3:0.73746687 4:0.58774221 5:0.26188332 6:-0.079990111 7:0.51937288 8:0.081435487 9:0.41144863 10:0.16946298 #
-0.53349317113631811171359231593669 1:0.4768579 2:0.31482306 3:1.1304036 4:0.56420475 5:0.43116704 6:0.47066739 7:0.47235945 8:0.85887647 9:0.93363798 10:0.033039007 #
0.51094942835888412790978918565088 1:1.008462 2:-0.049122233 3:0.11857496 4:0.69128156 5:0.061736107 6:0.52845037 7:0.27339026 8:0.17150451 9:0.51445419 10:0.74894172 #
-0.49759261292918660624096105493663 1:0.30507398 2:-0.1454999 3:0.99457461 4:0.70329714 5:0.64243215 6:0.269355 7:0.11491574 8:0.62879431 9:0.14221339 10:0.50952792 #
-0.37377404042014988894138127761835 1:-0.031229425 2:0.87743866 3:0.75013983 4:0.4927834 5:1.5485709 6:1.3112327 7:0.59115016 8:0.60335648 9:0.89299458 10:1.0486528 #
-0.34410720285640694626749791495968 1:1.1481192 2:1.1897601 3:-0.20320174 4:0.46224457 5:0.80731404 6:-0.15813608 7:0.74083811 8:0.77987772 9:0.21402545 10:0.50100744 #
0.35072859031801023599328459567914 1:0.81310892 2:0.023916846 3:0.3591719 4:0.7071718 5:0.16880544 6:1.1972769 7:0.65277529 8:0.91228682 9:0.39320111 10:0.047740649 #
-0.068012268720712032443742600662517 1:-0.45972142 2:0.62478638 3:1.3909386 4:1.6933711 5:0.23580138 6:0.28482261 7:1.0945864 8:0.63332266 9:0.67978776 10:0.58239675 #
0.7989266332602168452226010231243 1:1.0810832 2:0.96569377 3:0.31317019 4:0.53876758 5:0.61196202 6:0.62778014 7:0.76174372 8:0.61119795 9:0.80256587 10:-0.13258553 #
-0.59252016321129152842672738188412 1:0.48226258 2:1.1133763 3:-0.0098379906 4:0.54903287 5:0.9121334 6:0.31165174 7:0.31523564 8:0.12184563 9:0.5676477 10:0.22216229 #
-0.74428406421402337755921507778112 1:0.47054535 2:0.097962476 3:0.34692127 4:-0.13049218 5:0.70423377 6:-0.10101467 7:0.42046869 8:0.77118337 9:0.34175086 10:0.25117016 #
