SVM-light Version V6.20
2 # kernel type
3 # kernel parameter -d 
0.4 # kernel parameter -g 
1 # kernel parameter -s 
1 # kernel parameter -r 
empty# kernel parameter -u 
16 # highest feature index 
24 # number of training documents 
1001 # number of support vectors plus 1 
0 # threshold b, each following line is a SV (starting with alpha*y)
-6.4694966699086480232949725177605 1:1.0498894 2:0.97354627 3:0.62866956 4:0.92107439 5:0.45222178 6:0.48493528 7:0.58313674 8:0.46719745 9:0.50205326 10:0.97891343 11:-0.26963529 12:0.68212003 13:0.49453947 14:0.45199573 15:0.50651979 16:0.4937872 #
-15.328960179142493203130470647011 1:0.36639026 2:0.41225594 3:0.48055905 4:0.3865374 5:0.53079784 6:0.50330889 7:0.42076719 8:0.52677524 9:0.49991807 10:0.35304037 11:0.69487369 12:0.43841487 13:0.50755137 14:0.51363105 15:0.49679789 16:0.50047743 #
7.3489422368004202468227958888747 1:0.5434913 2:0.12534304 3:0.5969044 4:0.46516851 5:0.062338065 6:0.55574197 7:0.88923097 8:0.37587005 9:0.50091022 10:0.88957441 11:0.053565498 12:0.59720099 13:0.62463355 14:0.47281367 15:0.48986226 16:0.46868244 #
9.7435628391037809592489793431014 1:0.66337246 2:1.2157192 3:0.30170399 4:0.39211872 5:0.98432815 6:0.42036429 7:0.30677852 8:0.55838042 9:0.48877519 10:0.49734604 11:0.18659449 12:0.45718914 13:0.42632031 14:0.49405861 15:0.50203973 16:0.51555848 #
5.7041458099929593927868154423777 1:0.84776092 2:-0.19598606 3:0.94125843 4:1.23711 5:-0.14587003 6:0.57262957 7:0.41521361 8:0.53513157 9:0.50275958 10:0.35695469 11:0.65351862 12:0.52999341 13:0.51599294 14:0.51213086 15:0.49946442 16:0.48949453 #
10.882559627231758625498514447827 1:1.1819916 2:0.74873477 3:0.53248763 4:0.97217751 5:0.46475503 6:0.43045077 7:0.20317248 8:0.61518139 9:0.45595866 10:-0.00010288868 11:0.42282218 12:0.2523149 13:0.33038116 14:0.5460974 15:0.49466997 16:0.55156529 #
-1.4433666650183774038396222749725 1:0.019496897 2:0.3614637 3:0.13604993 4:-0.051046669 5:0.97868669 6:0.5195331 7:0.73645031 8:0.40149802 9:0.50843728 10:0.93216556 11:0.033813026 12:0.62056148 13:0.71088451 14:0.45895064 15:0.46984088 16:0.43747202 #
1.2575194776444837962969813816017 1:0.57622659 2:1.1494094 3:1.0661722 4:0.82348126 5:0.34703305 6:0.50346285 7:0.03783362 8:0.65143931 9:0.57279545 10:0.77702296 11:1.0430826 12:0.8263852 13:0.344762 14:0.47226131 15:0.57486069 16:0.51940829 #
8.358623313555206379987794207409 1:0.40756756 2:0.62151861 3:0.6091463 4:0.51914966 5:0.56156349 6:0.61989933 7:0.27466574 8:0.56038618 9:0.59768575 10:1.1945412 11:0.31060562 12:1.1389706 13:0.64195013 14:0.4672398 15:0.62939638 16:0.49819258 #
-4.8252915306538231021704632439651 1:0.33359203 2:-0.47472453 3:0.33971819 4:0.88250345 5:0.94925058 6:0.4718906 7:0.2470372 8:0.55864996 9:0.47720328 10:0.59269863 11:0.32946533 12:0.50494224 13:0.61592382 14:0.45410827 15:0.38311732 16:0.38605911 #
2.0108026333299306998014799319208 1:0.78373653 2:0.34041145 3:0.13092138 4:0.75388664 5:0.59187561 6:0.40105343 7:-0.2101707 8:0.71591759 9:0.48245513 10:0.62944311 11:-0.074106961 12:0.65954292 13:0.46030226 14:0.47457251 15:0.49460688 16:0.48389062 #
-8.2552988376548821491951457574032 1:0.84697628 2:0.68472129 3:0.85715526 4:0.78505707 5:1.0062025 6:0.68671918 7:1.2827668 8:0.27544728 9:0.52675593 10:0.47934937 11:0.4901799 12:0.30818486 13:0.57342738 14:0.52241564 15:0.51368225 16:0.4934881 #
2.6446791463420167289655182685237 1:0.20279709 2:0.79037452 3:0.41839483 4:-0.08119981 5:-0.064921781 6:0.13681629 7:-0.22959842 8:0.67783099 9:0.44963658 10:0.58198357 11:0.12790287 12:0.62946028 13:0.36936042 14:0.46860042 15:0.50175959 16:0.57661074 #
-4.3667759589514405504928618029226 1:0.6001879 2:0.6454668 3:1.2608635 4:0.22273156 5:0.44836575 6:0.071749203 7:0.57017541 8:0.39470041 9:0.44996187 10:0.61153466 11:0.11050943 12:0.021847911 13:0.055064302 14:0.5849008 15:0.29804659 16:0.7262941 #
-0.012023810184383719457112960071754 1:0.56115401 2:0.64858902 3:-0.032479297 4:0.8905949 5:0.32363307 6:0.74371141 7:0.57125485 8:0.51332414 9:0.4514758 10:0.16055316 11:0.25380409 12:0.90536642 13:1.1201056 14:0.27763009 15:0.79108584 16:0.19170174 #
1.155660774660667966529103978246 1:0.14330254 2:0.79070908 3:0.56926423 4:1.1815755 5:0.62943357 6:0.27486151 7:0.37900651 8:0.51380044 9:0.31488103 10:0.81403679 11:0.39780888 12:0.31863403 13:0.68872905 14:0.003131028 15:0.37398791 16:-0.033336584 #
-1.185240340937316227964970494213 1:1.0995597 2:0.28310788 3:0.85163355 4:0.24992436 5:1.0402712 6:0.48948449 7:0.23624128 8:0.59632021 9:0.69879031 10:0.82748711 11:0.48333347 12:0.5548892 13:0.064382456 14:0.90819496 15:0.46636212 16:0.98117709 #
-2.7871457080655841487271118239732 1:0.5838812 2:0.49213037 3:0.024267957 4:0.012502589 5:0.70199871 6:0.21227834 7:0.82537764 8:0.097308725 9:0.31160703 10:-0.026710683 11:-0.14554203 12:0.30833486 13:0.246078 14:0.65895468 15:0.73465461 16:0.74886131 #
-2.7469214030890176658772361406591 1:0.64165318 2:0.33881733 3:-0.0092568435 4:0.94277418 5:0.45683318 6:0.21820009 7:0.63834733 8:0.025600929 9:0.20341389 10:0.72610939 11:0.43119806 12:0.2908752 13:-0.063423879 14:0.43335962 15:0.76949894 16:0.52656215 #
-5.2307364476518838358742868877016 1:0.78440589 2:0.77822417 3:0.99974459 4:-0.045026947 5:0.36844829 6:0.63131535 7:0.59661829 8:0.76962662 9:0.73097104 10:0.080667071 11:-0.014854521 12:0.67233187 13:1.0707536 14:0.62119555 15:0.43847188 16:0.59100348 #
0.045403238229880550635986224961016 1:0.037291098 2:1.1631145 3:0.31373394 4:0.50674456 5:0.17359091 6:0.80170912 7:0.81078565 8:0.15806201 9:0.33574802 10:0.7846638 11:0.45600364 12:0.69168109 13:-0.020517509 14:0.53280479 15:0.61157393 16:0.59436172 #
0.51989677521593047337944426544709 1:0.87847155 2:0.77578843 3:0.59069341 4:0.6516937 5:0.27309495 6:1.0055132 7:0.60613787 8:0.35134831 9:0.58125579 10:0.22770429 11:0.30822888 12:1.0027667 13:0.27382207 14:0.95480013 15:0.82613397 16:1.0062777 #
-1.0908173242911107791996982996352 1:0.18316837 2:0.3247675 3:0.71539992 4:1.1178064 5:0.96338803 6:0.46698406 7:0.12891585 8:0.23130183 9:0.60960948 10:0.90844303 11:0.12502608 12:0.34886348 13:1.4140188 14:1.1765724 15:1.0254835 16:1.1556871 #
-1.6401026894493782037898199632764 1:0.91545922 2:0.77046847 3:0.41441748 4:0.21211495 5:0.18614547 6:0.69987154 7:0.69249344 8:0.83517295 9:0.54576021 10:0.49801397 11:0.53044009 12:0.80759132 13:0.075740971 14:0.020554729 15:0.10645591 16:-0.0083520738 #
0.27553735759587943965343015406688 1:1.1515012 2:0.92574334 3:0.25253519 4:-0.12117577 5:-0.19868219 6:0.89505172 7:0.84225857 8:1.1061869 9:0.60163116 10:0.45431182 11:0.79424596 12:1.0293384 13:-0.24073499 14:-0.36545956 15:-0.22066595 16:-0.41619709 #
5.7555211874251321901851952134166 1:0.43504354 2:1.2310916 3:0.90905929 4:0.7451033 5:0.37366936 6:0.25658652 7:0.84913337 8:0.21360838 9:0.38324484 10:-0.19410676 11:0.92169863 12:0.73827308 13:0.72500765 14:0.35290194 15:0.67276376 16:0.40504205 #
-0.54404557808950315678231390847941 1:0.70099884 2:0.42588335 3:0.63520378 4:0.49577722 5:0.71230894 6:-0.30903974 7:0.53692031 8:0.18918122 9:0.38775104 10:0.42903724 11:0.4225052 12:1.152974 13:0.59316057 14:0.40330505 15:0.27931181 16:0.53344703 #
-0.030028423401310243984196901578798 1:1.2995383 2:0.54977405 3:0.25812048 4:0.28671327 5:0.57155925 6:0.41638151 7:0.53308767 8:0.42187315 9:0.50424731 10:0.55481011 11:0.60631675 12:0.9298135 13:0.91372764 14:0.78390938 15:0.10552059 16:0.66541642 #
-2.0584789772876681546165400504833 1:0.72424519 2:0.27398369 3:0.12471803 4:0.55838454 5:-0.034030639 6:0.35749799 7:0.87851125 8:0.013007263 9:0.17655301 10:0.24198282 11:0.73646897 12:0.2014596 13:0.80849987 14:0.68154323 15:0.31096578 16:0.51502532 #
-3.7251436436646190308863424434094 1:0.67109364 2:1.0346748 3:0.28590158 4:0.44792098 5:-0.03518106 6:0.062590286 7:0.60362178 8:0.38758761 9:0.54219836 10:0.98238558 11:0.69586736 12:0.44725522 13:0.87546098 14:0.77432126 15:0.70476598 16:0.89587969 #
-1.2027219322485820374168952184846 1:0.78100109 2:0.87476528 3:0.55409956 4:0.67322278 5:0.27934778 6:1.0846075 7:0.50922388 8:0.85544515 9:0.58530432 10:0.8965053 11:0.53103638 12:-0.20645672 13:0.63148415 14:0.87266439 15:0.14649674 16:0.60773885 #
-1.2650452913013177091983152422472 1:0.61941129 2:0.39528862 3:0.43661627 4:-0.036975909 5:0.50842106 6:0.080347091 7:0.23950966 8:0.35788649 9:0.66721445 10:0.37446052 11:0.63347834 12:0.91923285 13:0.30061859 14:0.33215797 15:1.1582077 16:0.8771106 #
0.85744466587274092983506079690414 1:0.30783981 2:0.69527596 3:0.57026041 4:0.97374976 5:0.64392787 6:0.63623786 7:0.60227984 8:0.48922944 9:0.3269619 10:0.45908085 11:0.20822157 12:0.80596095 13:0.33563644 14:0.95645988 15:-0.34232485 16:0.41831845 #
-0.99296860836442124575995649138349 1:0.094251171 2:0.42896846 3:0.15226187 4:0.69152999 5:0.10586917 6:1.0759852 7:0.20680679 8:0.75553137 9:0.6894725 10:0.24804522 11:0.035548571 12:0.2838499 13:0.23024087 14:0.84084475 15:0.56455994 16:0.57506478 #
-0.1141229430335436029197992979789 1:0.78731716 2:0.57424569 3:0.55369395 4:0.4328784 5:0.6249364 6:0.084351644 7:0.41258943 8:0.69101506 9:0.0063187839 10:0.68719184 11:0.29591805 12:0.034531597 13:1.2398919 14:0.16212952 15:0.62000537 16:0.33002442 #
0.42417324127618777351855783308565 1:0.61506313 2:0.56502736 3:0.75567883 4:0.68040329 5:0.37640181 6:0.20833319 7:0.60636556 8:1.1441432 9:-0.40799612 10:0.66134381 11:0.28056544 12:0.68361115 13:0.37744486 14:0.56853116 15:0.3881788 16:0.55949003 #
0.1363696828497578394934208745326 1:0.65824831 2:0.66416395 3:0.47976696 4:0.65348279 5:0.60071218 6:0.54820299 7:0.25751448 8:-0.22712347 9:1.3761461 10:0.53509033 11:0.42684478 12:0.34200019 13:0.78863281 14:0.4256053 15:0.33793521 16:0.39571226 #
-2.0703724851461684508535654458683 1:0.32125139 2:0.64728063 3:0.98564094 4:0.52783531 5:0.26380658 6:0.72005266 7:0.30045655 8:0.17887034 9:0.77524006 10:0.19721843 11:0.021465372 12:0.26867637 13:0.22453491 14:-0.054472927 15:1.0284212 16:0.21080166 #
-7.0821347297586738633867753378581 1:-0.16348049 2:0.78415543 3:1.0893823 4:0.32065448 5:0.49612948 6:0.66192597 7:0.75848323 8:0.31937042 9:0.35463405 10:0.75902939 11:0.18735792 12:0.48073578 13:1.0944161 14:0.6365 15:0.10300191 16:0.67944294 #
-2.1065268488872992413973861403065 1:0.93382078 2:0.51950085 3:0.36812809 4:0.38328561 5:0.59525567 6:1.0460153 7:0.51193935 8:0.87431693 9:0.34070724 10:0.87387347 11:0.63636047 12:0.30010971 13:0.53939646 14:0.39267236 15:1.3727566 16:0.44875842 #
2.2477141464559373673637310275808 1:0.48959082 2:0.65548044 3:0.70806104 4:0.49123785 5:0.96539247 6:1.3045058 7:0.16977726 8:0.64645493 9:0.13434155 10:0.61902046 11:0.13904606 12:0.30282116 13:0.057135481 14:0.033244964 15:0.59202981 16:0.32134682 #
-2.5276900043533703232867537735729 1:0.47108251 2:0.31152952 3:0.82190162 4:0.28758845 5:0.31881917 6:0.87027818 7:0.20266178 8:0.26418379 9:0.74351084 10:1.1510248 11:0.53217566 12:0.5088675 13:0.03922163 14:0.21153115 15:-0.086010814 16:0.67607677 #
0.59595987426041574508417397737503 1:0.83031803 2:0.64725411 3:0.65206635 4:0.59288895 5:0.17471047 6:0.80577391 7:0.20179611 8:0.19721203 9:0.40382391 10:0.68619907 11:0.33226803 12:0.33386278 13:0.90555376 14:-0.18404029 15:0.51906908 16:1.0624948 #
-2.4433943585749799964901285420638 1:0.45559385 2:0.52411211 3:0.057529364 4:0.86155754 5:0.49370906 6:0.10185571 7:0.63348031 8:1.1933533 9:1.0830843 10:0.61454111 11:0.66736859 12:0.74278641 13:0.32214642 14:0.80615234 15:0.58510363 16:0.2173855 #
-1.9964246411592154739622628767393 1:0.56080586 2:0.62922662 3:-0.15946543 4:0.75389743 5:0.48941422 6:0.91678363 7:0.25304461 8:0.52223402 9:-0.19311751 10:0.63923246 11:0.56177992 12:0.68734097 13:0.51632643 14:0.38567156 15:0.32563734 16:0.89205629 #
1.3104000894181966341278666732251 1:0.71285844 2:0.86600435 3:0.68411082 4:-0.24405606 5:0.86139351 6:0.52878493 7:0.22722587 8:0.35553756 9:-0.12464964 10:0.22627565 11:0.51956177 12:0.57870692 13:0.53563535 14:0.43151906 15:0.036513425 16:0.90910459 #
1.5457774583642946986117294727592 1:0.65391988 2:0.61607832 3:0.26643443 4:0.64693296 5:0.54715079 6:0.3034265 7:1.1698371 8:1.0141882 9:0.60348088 10:0.4275957 11:0.084648199 12:0.48855343 13:0.27982503 14:0.030966664 15:0.59380674 16:0.99989742 #
-6.1321475085030971996502557885833 1:0.66098034 2:0.37679043 3:1.1842455 4:0.89593667 5:1.0984892 6:0.69883364 7:0.22722626 8:1.0401539 9:0.95287609 10:0.49120751 11:0.15968548 12:0.63081205 13:0.86209697 14:0.35793042 15:0.34778339 16:0.15060952 #
1.061114235452362608569387703028 1:0.91400909 2:0.72535199 3:0.83443195 4:0.64029461 5:0.11123527 6:0.13356811 7:0.54132056 8:0.82433993 9:1.3072211 10:0.47793788 11:0.14578013 12:0.13583398 13:0.26050684 14:0.46874216 15:0.59467965 16:0.15510558 #
6.2305168524499086046830598206725 1:0.5696795 2:0.73257631 3:0.38750777 4:-0.27823272 5:1.2143985 6:0.096156463 7:0.44418511 8:1.0292716 9:0.60705823 10:0.41089711 11:0.82066113 12:0.58648163 13:0.51544964 14:0.28924283 15:0.43664452 16:0.075215839 #
2.1828671930504310871867801324697 1:0.22955364 2:1.1405268 3:0.62861544 4:0.82513553 5:0.60287762 6:0.49786338 7:-0.022970814 8:1.1423211 9:0.70554364 10:0.17619438 11:0.67954254 12:0.39741322 13:0.95749766 14:0.68924636 15:0.41376847 16:0.87165892 #
-4.6325273602254721794224678887986 1:0.014441324 2:0.64651585 3:0.81789446 4:0.8993395 5:0.70504504 6:0.056521304 7:0.91799575 8:0.62363648 9:0.56285584 10:0.47308686 11:-0.022469029 12:0.52035594 13:0.52012581 14:1.0389404 15:1.0615058 16:0.35591719 #
-0.65684809925710185840586063932278 1:0.55412573 2:0.70848918 3:0.47864816 4:0.32902065 5:0.51650906 6:0.5479719 7:0.6431275 8:0.59285074 9:-0.1226292 10:0.71058851 11:0.20634401 12:-0.066911198 13:0.16819601 14:1.0881348 15:0.88350677 16:0.92379487 #
2.8885882779483229576555913808988 1:-0.1105298 2:0.84300494 3:0.036849141 4:0.41110781 5:0.95936078 6:0.10875008 7:0.10085859 8:0.33087704 9:0.83328789 10:0.33232999 11:0.62295586 12:0.27900505 13:-0.18722267 14:0.28004095 15:0.22366956 16:0.78907132 #
-0.26821436538840554009155425774225 1:0.76013732 2:0.67213905 3:0.58931935 4:0.39783442 5:0.45720667 6:0.70082986 7:0.24552003 8:0.089429796 9:0.46108034 10:0.68381077 11:0.25575095 12:0.50216717 13:0.61890876 14:1.1491597 15:0.67669803 16:-0.31890363 #
2.6702879940632784361298490694026 1:0.40659815 2:0.71358901 3:0.69358879 4:0.89930058 5:0.33434686 6:0.45280972 7:0.68291414 8:0.65254188 9:1.0787843 10:0.47948763 11:0.32270786 12:0.96720195 13:0.68034226 14:0.080351904 15:0.023372382 16:0.93615568 #
-1.8545840530072728036259377404349 1:0.69540662 2:0.6115194 3:0.38086325 4:0.70780581 5:0.76896745 6:0.00020922461 7:0.3388274 8:0.87369585 9:0.40396842 10:0.57546735 11:0.77963477 12:0.29456282 13:0.32568172 14:0.24699284 15:0.077984877 16:1.3254927 #
-1.7855610828621286678696833405411 1:0.39930797 2:0.66462147 3:0.74351424 4:0.051937323 5:0.32604074 6:0.76570547 7:0.97623271 8:0.49129876 9:1.2707303 10:0.86650956 11:0.42367688 12:0.061315015 13:0.61894917 14:0.40245342 15:0.80905247 16:0.71205962 #
0.93716050343178036730051871927571 1:0.88345492 2:0.55154276 3:0.67136163 4:-0.0027663449 5:0.53973228 6:0.098168038 7:0.29839411 8:1.0012356 9:0.93150967 10:1.135577 11:-0.21405935 12:0.597516 13:0.74906325 14:0.42073396 15:0.53817785 16:0.8371405 #
-0.77440070218101642041119703208096 1:0.95291674 2:0.64099693 3:0.93980312 4:0.48441139 5:0.84572518 6:-0.099746764 7:0.61362648 8:0.41889635 9:0.49223325 10:0.82676083 11:0.59440225 12:0.469255 13:0.22274926 14:0.19126301 15:1.1736585 16:-0.0053788354 #
-5.5359880086529580367482594738249 1:1.0091553 2:0.4793185 3:-0.4618305 4:0.056054596 5:-0.093821168 6:0.56327593 7:0.2920118 8:0.63210303 9:0.62261772 10:0.92407066 11:0.5262028 12:0.13604529 13:0.39502588 14:0.65688318 15:0.45342764 16:0.36333162 #
0.59835934978411364770778391175554 1:0.76018041 2:0.76742631 3:0.16045822 4:0.24116985 5:0.87759477 6:1.1142064 7:0.89789385 8:0.94100827 9:0.56215179 10:0.050178818 11:0.084418751 12:0.41460612 13:0.471439 14:0.77148914 15:0.75953698 16:0.052460663 #
-1.8190932853588985818049650333705 1:0.0044430722 2:0.41013482 3:1.0177284 4:0.63415992 5:0.97056174 6:0.62394297 7:0.28308731 8:0.38714397 9:0.064120881 10:0.01124615 11:0.22300293 12:1.1267875 13:-0.089814916 14:0.56917405 15:0.64411342 16:0.48967031 #
0.20556037179152480964816618325131 1:0.70818216 2:0.51877928 3:0.72879577 4:0.15166143 5:0.56506675 6:0.75865167 7:0.66905546 8:-0.21010394 9:-0.32176995 10:0.56086671 11:0.054186847 12:1.3011845 13:0.93524909 14:-0.16640106 15:0.83387035 16:0.27801168 #
-0.9148202572583509217807318236737 1:0.53624111 2:1.0712395 3:0.43284705 4:0.14588715 5:0.5560559 6:0.030320344 7:1.1167415 8:0.38774443 9:0.8238641 10:0.65184206 11:0.30948541 12:0.53906482 13:0.37774715 14:1.1550432 15:0.12955095 16:0.24885657 #
2.0362948270823419960606770473532 1:0.59691596 2:0.49829602 3:0.67449808 4:0.76754993 5:0.40271312 6:0.37919003 7:0.085222177 8:-0.20112124 9:0.42924908 10:0.57882231 11:0.10030928 12:0.2782183 13:0.61480677 14:1.0500957 15:0.32813784 16:0.91994691 #
-2.607623514649113793950618855888 1:0.24508446 2:0.67397493 3:0.15653479 4:0.66779482 5:0.44981357 6:0.20981489 7:0.23134026 8:0.15521146 9:0.60506606 10:-0.22015426 11:-0.074622475 12:0.53189975 13:0.53614551 14:-0.14909904 15:0.10280659 16:0.60927647 #
0.88025795883813873210499423294095 1:0.30618715 2:0.69297892 3:0.17343977 4:1.0276892 5:0.58699435 6:0.60744488 7:0.68504208 8:0.47379872 9:0.83728617 10:0.90361398 11:-0.094739012 12:-0.15451117 13:0.6814974 14:0.46250236 15:0.58925432 16:0.77949899 #
1.8957588027534379992999902242445 1:1.0273868 2:0.41272771 3:0.49888805 4:0.67248887 5:0.29214787 6:0.25295237 7:0.63084102 8:0.51996297 9:0.57906967 10:0.46473867 11:-0.027105412 12:0.053459778 13:0.90288508 14:0.3499009 15:-0.48643887 16:0.41034052 #
-0.47735434300320966904962460830575 1:0.58535475 2:0.65134537 3:0.28879696 4:1.0503302 5:1.0035666 6:0.35484403 7:0.59678477 8:0.55544114 9:0.26832485 10:1.0731888 11:0.64268756 12:0.69658417 13:0.57640916 14:1.2047472 15:0.66283804 16:0.39567697 #
3.0011148084570482552635439787991 1:0.45230201 2:0.68617088 3:0.74922955 4:1.4331391 5:0.56752712 6:1.2267072 7:0.66353166 8:0.83439922 9:0.71543205 10:0.44551504 11:0.66507703 12:0.64808786 13:0.13261528 14:0.16383061 15:0.62697971 16:0.51127595 #
0.079395297282329219124008545804827 1:0.32790515 2:0.70151114 3:0.16015609 4:0.71655512 5:0.21356708 6:-0.12220269 7:0.368763 8:0.5447951 9:0.06350971 10:0.31402418 11:0.0040726094 12:0.61569566 13:0.28844321 14:0.64329606 15:0.62642974 16:-0.18266048 #
0.060973155467259808337754378726459 1:0.87871313 2:0.67668104 3:0.62364626 4:0.39010429 5:0.33267561 6:0.79178894 7:0.15303394 8:-0.39096281 9:0.46774191 10:0.79938352 11:0.14491591 12:0.63297653 13:0.73564994 14:1.8341407 15:0.78031147 16:-1.0469145 #
-3.8889684335118519520335667039035 1:0.23366071 2:0.92940456 3:0.5620147 4:0.84286755 5:-0.20135576 6:0.59626764 7:0.18995625 8:0.68883526 9:0.28151837 10:0.41240963 11:0.72624665 12:-0.010427215 13:0.5849421 14:0.34559363 15:1.1826442 16:0.41058582 #
2.932227688641061202901028082124 1:1.0473703 2:0.94644052 3:1.1438242 4:0.8649537 5:-0.0471895 6:0.28362733 7:0.67657822 8:0.19920623 9:0.17019431 10:0.65699589 11:0.72175616 12:0.24460959 13:0.71119285 14:0.43091154 15:0.18752505 16:0.28920814 #
-3.0434151741710135929963598755421 1:0.91048628 2:0.68341798 3:0.33931965 4:0.70677859 5:0.97275001 6:0.70795524 7:0.69352341 8:0.32286561 9:0.18794228 10:0.92693722 11:1.2063193 12:0.80883437 13:0.27911887 14:0.37212646 15:0.18504407 16:-0.0098523563 #
-1.4407028860956563320883105916437 1:0.015603956 2:0.23083004 3:0.95622867 4:0.63896447 5:-0.10842358 6:1.0060714 7:0.035869848 8:0.30561247 9:0.84637374 10:0.7213009 11:0.54958361 12:0.68961698 13:0.98752028 14:0.63890398 15:0.36553177 16:0.300908 #
-0.20054780040871000856839145853883 1:1.0425639 2:0.050156899 3:0.37642562 4:0.45054582 5:1.143468 6:0.40079153 7:0.6597634 8:0.39001927 9:0.99571609 10:0.68433708 11:0.23246734 12:0.37083361 13:0.67354411 14:-0.19307697 15:0.67897171 16:0.58725965 #
-0.99860653616248640229713373628329 1:1.4450107 2:1.1981201 3:0.41046157 4:0.5710023 5:-0.41964969 6:0.52474201 7:0.66287857 8:0.53347987 9:0.65456343 10:0.34094444 11:0.14992614 12:0.2930212 13:0.022964798 14:0.5041939 15:-0.38164854 16:0.68635184 #
-0.75481613712955542006000086985296 1:-0.10459355 2:0.22443476 3:0.80690181 4:0.51198196 5:0.61415255 6:0.37256518 7:0.6958223 8:0.52713764 9:1.0311503 10:0.83358371 11:0.27775216 12:0.39310002 13:-0.066135004 14:0.44503585 15:0.44094491 16:-0.23199207 #
-1.1706497075935036189520133120823 1:-0.25766131 2:0.64048856 3:0.75897396 4:1.0966083 5:0.31753135 6:0.25621036 7:0.32425451 8:0.0023256792 9:0.30799991 10:0.52783984 11:1.0406381 12:0.70483869 13:0.56621152 14:0.92594773 15:0.93674111 16:0.58157349 #
-2.7341851678018671556458230043063 1:0.67990655 2:0.94743645 3:-0.064155407 4:0.73525149 5:-0.12968546 6:0.37692493 7:0.30400002 8:0.079495043 9:1.1889092 10:0.30189082 11:0.35185927 12:1.0407368 13:0.22969492 14:0.59687388 15:0.51269299 16:0.27715585 #
2.089835777975947550544333353173 1:0.76788098 2:0.51536113 3:0.8147136 4:0.91801035 5:0.30336162 6:0.28027236 7:0.32187974 8:0.092532881 9:0.5211789 10:0.51355106 11:0.062174577 12:1.0713892 13:-0.27913365 14:0.16606027 15:0.49342039 16:0.53808045 #
-2.2183392418090206454905910504749 1:0.087848343 2:0.25208181 3:0.99899811 4:0.47687307 5:0.52659315 6:0.54765886 7:0.59906793 8:0.52771425 9:0.46619636 10:1.2565616 11:0.83258873 12:0.51820087 13:0.50864613 14:-0.042211119 15:0.97037655 16:1.0753621 #
1.8737530933106936181786750239553 1:0.62004799 2:0.63510871 3:0.88245964 4:1.0566568 5:0.44751135 6:0.20217052 7:0.10523241 8:0.929263 9:0.38423973 10:0.54513979 11:0.11012109 12:0.58421105 13:0.67780089 14:0.38077074 15:1.1575938 16:1.0342535 #
-2.573230442638838155744451796636 1:0.61747301 2:0.42522877 3:0.40648991 4:0.80086136 5:0.93895376 6:0.5206359 7:0.95748419 8:0.13572018 9:0.53137475 10:-0.078715138 11:0.0049350108 12:0.31245875 13:0.34138286 14:0.45943764 15:0.2550835 16:-0.051876266 #
0.027425555513908461691130469262134 1:0.7436586 2:0.7768625 3:0.63845944 4:1.1044822 5:0.59887666 6:1.088829 7:0.60410273 8:0.43835536 9:-0.26534697 10:0.27363697 11:0.19622312 12:0.52245623 13:1.0553558 14:0.69488722 15:0.42682284 16:0.33900085 #
-0.080214187615743476333918238196929 1:0.62754565 2:0.59978437 3:0.26689461 4:0.45489338 5:1.0435164 6:0.62575501 7:0.72257459 8:0.45415014 9:1.087891 10:0.55905294 11:-0.011762895 12:1.0983717 13:-0.11732109 14:0.51349086 15:0.8788259 16:0.22354575 #
-1.3358218861836577140422832599143 1:1.7890903 2:0.84980506 3:0.65204179 4:1.4917456 5:0.088723622 6:0.60185927 7:-0.04583054 8:0.61575246 9:0.75941473 10:-0.34687841 11:0.46269774 12:0.30697769 13:0.34048089 14:0.83159477 15:0.23567156 16:0.3613576 #
-0.33318826243668725473057179442549 1:1.1384583 2:0.88740706 3:0.52933306 4:-0.067316495 5:0.56180763 6:0.93003225 7:0.83704698 8:-0.078719929 9:0.41214192 10:0.24652518 11:0.61620361 12:-0.1181636 13:0.024595549 14:0.20684494 15:0.46047455 16:0.37926573 #
-2.1579265940343392848888015578268 1:0.4723587 2:1.1251482 3:0.37422708 4:-0.13237765 5:0.28312317 6:0.74407649 7:0.64082468 8:0.17530151 9:0.32649928 10:0.86815476 11:0.63326693 12:0.35380673 13:1.074309 14:0.31453636 15:0.24897227 16:-0.024840031 #
-2.5922484547844582003506275214022 1:0.87979198 2:0.0071110702 3:0.66674197 4:-0.037951324 5:0.11119319 6:0.66341418 7:0.47246006 8:0.7146951 9:0.085054681 10:0.19634633 11:0.41354465 12:0.84970516 13:0.052255545 14:0.95971805 15:0.40355545 16:0.26421344 #
-0.84674056761669447279672340300749 1:0.65690958 2:0.24861403 3:0.077324949 4:0.81231779 5:0.6354984 6:1.3661609 7:0.99473029 8:-0.041111391 9:0.88680798 10:0.679313 11:0.71997452 12:0.28389764 13:0.14212294 14:0.88823587 15:0.518987 16:0.51505631 #
2.1413376297435813278013938543154 1:0.7535193 2:0.30788404 3:0.33108917 4:0.29406732 5:0.90049058 6:0.57471067 7:0.48584339 8:0.79902619 9:0.40512621 10:1.0521079 11:0.012379199 12:-0.14741877 13:0.22397488 14:0.56337708 15:0.13973826 16:-0.059169643 #
4.2440298877009459133091695548501 1:-0.11535046 2:1.3477161 3:0.055597458 4:0.25202018 5:1.37455 6:0.54973048 7:0.48878866 8:-0.015143081 9:0.51021546 10:0.40812781 11:0.75718278 12:0.60045856 13:0.87500113 14:0.39464808 15:0.66323757 16:0.52781588 #
-2.7774724300066848670098806906026 1:0.34285051 2:0.60198987 3:0.63346845 4:0.27440789 5:0.20832491 6:-0.084865659 7:0.78200787 8:0.69216257 9:0.96628284 10:0.68785638 11:0.38913879 12:0.64247388 13:1.1550517 14:0.14122359 15:0.69338274 16:-0.022520585 #
1.2392279982849119246424152152031 1:0.91063625 2:0.19840094 3:0.69047326 4:0.05199407 5:0.53575641 6:0.12367851 7:-0.023667021 8:0.1305325 9:0.21080637 10:0.91008723 11:0.143233 12:0.41823927 13:0.31193364 14:-0.043430474 15:0.26846513 16:0.15907133 #
-0.057348930334050696178138650793699 1:0.87104332 2:0.84066063 3:0.4302296 4:0.170633 5:0.94592476 6:0.70844674 7:-0.15113059 8:0.55773783 9:0.56006515 10:-0.19551049 11:0.79959512 12:0.80705082 13:0.4379231 14:0.6505245 15:1.030587 16:0.082222752 #
-1.489993459267998643369423916738 1:-0.28122285 2:0.74174052 3:0.11031871 4:0.56913501 5:0.60565865 6:0.62061107 7:0.34740263 8:0.91662747 9:0.41268814 10:0.29020107 11:0.46658134 12:1.1251178 13:0.81268573 14:1.0427302 15:0.82897782 16:0.72759891 #
0.40613532469551089088000139781798 1:0.14894207 2:0.88420033 3:0.52424264 4:0.65150124 5:0.8533318 6:0.52747905 7:0.2357464 8:1.1291089 9:0.2408336 10:0.75008702 11:0.42339459 12:0.27367815 13:-0.33082458 14:0.84459686 15:0.7167604 16:0.37880629 #
0.76499332234551287168500266488991 1:0.94659817 2:1.0134137 3:0.36297676 4:0.35749733 5:0.93262446 6:0.29926851 7:-0.055495016 8:-0.063794479 9:0.3146058 10:0.7585237 11:1.1031625 12:0.00069330138 13:0.45115006 14:0.64613509 15:0.72532612 16:0.42437726 #
0.96879794839804078687706123673706 1:0.76786035 2:0.34084338 3:0.80899948 4:1.0408266 5:0.51180547 6:-0.016953984 7:1.0968645 8:0.90455908 9:0.4627859 10:0.21715117 11:1.0215253 12:-0.039843954 13:0.75392574 14:0.72134876 15:0.44205695 16:0.1349072 #
0.081092005981039605444493645336479 1:0.77070272 2:0.65119219 3:-0.169295 4:1.4551394 5:0.38260448 6:1.3175637 7:0.8152352 8:0.39917484 9:-0.36166492 10:0.068788171 11:0.068453968 12:1.009985 13:1.7483888 14:0.329294 15:0.73659623 16:-0.030344715 #
-1.4256050904366854847893364421907 1:0.39712867 2:-0.32605553 3:0.51177895 4:0.70484763 5:-0.40705088 6:-0.010432091 7:0.52808803 8:0.69971049 9:0.61578643 10:1.3067616 11:0.08057563 12:0.45745209 13:0.63892692 14:0.77912003 15:0.31504411 16:0.75392389 #
-0.50341064953395819880910266874707 1:-0.61503685 2:1.1349177 3:-0.43458584 4:0.62493014 5:1.3583671 6:-0.16603974 7:-0.14068393 8:0.12537499 9:1.0457778 10:0.22450949 11:0.52662843 12:0.050786112 13:-0.81638092 14:-0.13007881 15:0.14634983 16:1.0037189 #
1.9055113118507458480621608032379 1:0.57268161 2:1.1352524 3:1.0729162 4:0.12054435 5:1.1550925 6:0.23862606 7:0.36175239 8:0.56454909 9:0.72152013 10:0.35540861 11:0.77322263 12:-0.12542291 13:0.8607645 14:0.96554774 15:0.830446 16:0.81065869 #
3.9453441245247584667765750054969 1:1.1289326 2:0.50624537 3:0.75956577 4:1.0730889 5:0.31713882 6:0.63070458 7:0.88619441 8:0.68432266 9:0.97766465 10:0.66710258 11:1.0219398 12:0.76378334 13:1.0218745 14:0.60683918 15:0.79593134 16:0.5295434 #
-2.4369325688859286849208274361445 1:0.61839473 2:1.0554289 3:1.3789765 4:-0.038752984 5:0.037097741 6:0.44381762 7:0.56550097 8:0.58655328 9:0.28904399 10:0.74397427 11:0.12060359 12:1.0064522 13:0.28677505 14:0.87209445 15:0.75864768 16:0.20547956 #
-1.480425711674818289864674625278 1:0.87523234 2:0.71502644 3:0.39764249 4:0.82892597 5:1.0653855 6:0.011888031 7:0.29939508 8:0.66327947 9:0.56997752 10:-0.13751495 11:0.024634864 12:0.6251117 13:0.58283728 14:1.2553868 15:0.65640318 16:0.74673736 #
-0.66882799654777824738260960657499 1:0.80538952 2:1.0826538 3:0.47256994 4:0.90782142 5:0.95436072 6:0.43035424 7:0.33340615 8:0.54737133 9:1.2662828 10:0.9829331 11:0.79597265 12:0.42238668 13:0.1310156 14:0.2664876 15:0.84199393 16:1.0313723 #
2.0451847300673926532965651858831 1:0.88760805 2:0.57995224 3:0.76503062 4:0.91585118 5:0.55713695 6:1.1968082 7:-0.11025271 8:0.12086648 9:0.79372638 10:0.91967636 11:0.28058085 12:0.39961249 13:0.51826537 14:0.53582644 15:0.99565339 16:0.4499974 #
2.0010452643339151634904737875331 1:0.61887896 2:0.94687021 3:0.37985775 4:-0.13310263 5:0.39715549 6:1.0298142 7:0.15882865 8:0.82329971 9:0.82530373 10:1.0242356 11:-0.12580569 12:0.36154637 13:0.69978952 14:0.11964415 15:0.68608725 16:0.19606364 #
-0.23277229820173642171887706808775 1:-0.059278473 2:1.0620403 3:0.88877845 4:1.9233861 5:0.49336269 6:0.057545867 7:0.25604939 8:0.46404579 9:0.20638247 10:1.0467441 11:0.40028203 12:0.17256758 13:0.96104276 14:-0.33303842 15:0.53999078 16:-0.44954985 #
-2.5531552985377974351877128356136 1:0.8128038 2:1.4771631 3:-0.38972086 4:1.1581852 5:0.75624675 6:0.69071418 7:0.37852025 8:0.66015792 9:0.62037355 10:0.58785444 11:0.43554774 12:0.27809644 13:0.23602727 14:0.39525974 15:0.47518522 16:-0.021897035 #
-0.032462650372244258867304722571134 1:1.0123631 2:0.34679765 3:0.84422052 4:0.59407794 5:0.29859486 6:0.83713049 7:0.026056523 8:-0.82324654 9:0.5990234 10:0.7491706 11:-0.14985721 12:0.72201991 13:0.84325689 14:2.3504 15:1.0348237 16:-1.7301067 #
1.6505890035622239331303262588335 1:0.27177909 2:0.53605652 3:0.50395745 4:1.2530462 5:0.13016252 6:-0.019920185 7:0.20937489 8:0.34079751 9:0.73945904 10:0.83454716 11:0.18055645 12:0.74252379 13:1.0580422 14:0.84518456 15:0.29576591 16:0.33067334 #
-2.0664378728091188364146546518896 1:0.81697416 2:0.65283602 3:1.0479463 4:0.58607155 5:0.91644341 6:0.43895778 7:-0.32581198 8:0.13294408 9:0.3589614 10:0.13301188 11:0.53734285 12:0.81323445 13:0.95242363 14:0.21049802 15:0.20548856 16:0.42413878 #
0.37456563895079808546029198623728 1:0.67513919 2:1.0877905 3:0.68903482 4:0.33298978 5:0.78716451 6:0.59323764 7:1.1912522 8:0.84227288 9:0.13361108 10:0.989636 11:0.6791901 12:0.31325409 13:0.71615219 14:-0.12718053 15:0.22573698 16:0.76517266 #
1.0802061654760080067205763043603 1:0.76443297 2:-0.077060997 3:0.52908158 4:0.41980794 5:0.43217611 6:0.54745781 7:0.39579886 8:0.82896912 9:0.91132563 10:0.68193489 11:-0.042818442 12:0.11998621 13:-0.069562644 14:0.74443936 15:0.9199543 16:0.92033243 #
0.85036127873522926456928416882874 1:0.90328473 2:0.39398584 3:1.0123487 4:0.67614913 5:0.24283975 6:1.2523241 7:0.59502447 8:0.27606952 9:0.92327356 10:-0.21148267 11:0.66814405 12:0.30559382 13:0.60132897 14:0.38460457 15:0.095594794 16:0.36128607 #
-0.27004635210779337484154893900268 1:0.73724139 2:1.0504811 3:0.044204663 4:-0.54468185 5:0.34369433 6:1.3410832 7:0.090225309 8:1.0335481 9:0.74130887 10:1.6783352 11:-0.47703889 12:0.14683005 13:0.49261484 14:0.019677175 15:0.49454218 16:-0.14430448 #
-0.81918948749109310458749177996651 1:0.92038327 2:0.6635235 3:0.6712867 4:0.4231731 5:-0.017182393 6:0.49972594 7:1.040477 8:0.77696764 9:0.60740143 10:0.77453631 11:1.1435223 12:0.7688911 13:-0.083856665 14:0.6655004 15:0.30672157 16:0.77115446 #
-0.58933355429542089165551033147494 1:0.9617222 2:0.63304073 3:0.5279581 4:0.73969799 5:0.44785365 6:-0.05899027 7:1.4187635 8:0.40778083 9:1.0149149 10:0.42876485 11:0.16821569 12:-0.03889066 13:0.24057123 14:0.77082878 15:0.58829242 16:1.2606682 #
1.7771924694598901783848532431875 1:0.36770907 2:0.19031711 3:0.32384726 4:0.70056802 5:0.76601988 6:0.5981797 7:0.75325531 8:1.268977 9:0.22535464 10:0.78052455 11:0.04518136 12:1.201488 13:0.58722818 14:0.17218569 15:0.39689082 16:-0.070658103 #
-1.0504322795137566171064236186794 1:0.46246964 2:0.29715165 3:-0.0067594037 4:0.11387105 5:0.66063917 6:0.7705574 7:0.68639755 8:0.77885664 9:1.1639844 10:0.30787262 11:0.14307334 12:0.74023151 13:0.38847333 14:0.70548898 15:-0.050171364 16:0.92279583 #
-0.61905600239742064605508176100557 1:0.84372628 2:0.31890079 3:0.8198486 4:0.8095594 5:0.10156704 6:0.082286917 7:0.13148922 8:0.74408031 9:0.40853298 10:0.025230343 11:0.69187826 12:1.1267952 13:0.63965487 14:0.6198768 15:0.34888551 16:1.117215 #
1.9383482332094377209585900345701 1:0.65175247 2:0.88249004 3:0.027235974 4:0.35294193 5:0.65355241 6:0.58108515 7:1.0236982 8:0.4302336 9:0.52867955 10:0.74536699 11:0.12431927 12:0.72404337 13:1.1466273 14:1.018591 15:0.96440899 16:0.73574662 #
-0.29645651206273626598886039573699 1:0.66322786 2:0.0070056426 3:0.53351212 4:0.41984418 5:-0.10832538 6:0.2179908 7:0.30241472 8:1.1001087 9:0.72269565 10:0.39546782 11:0.97318524 12:0.64470524 13:0.27753705 14:-0.43029684 15:0.53384435 16:0.42052731 #
1.0808519759019628025953352334909 1:0.8159008 2:1.1563458 3:0.65321696 4:0.38583112 5:0.90778619 6:0.44887424 7:0.28536579 8:0.65994084 9:0.95481896 10:0.18070358 11:0.50711417 12:-0.1193634 13:0.66921234 14:-0.23748286 15:0.10051789 16:0.20972471 #
-0.96657900538789043309861881425604 1:0.40253603 2:0.63511986 3:0.5565843 4:0.22530687 5:0.48781899 6:0.33593869 7:0.096074879 8:1.1871921 9:0.034700371 10:0.55712491 11:0.39940301 12:0.39093891 13:1.0346544 14:1.1172428 15:0.025447946 16:0.035214283 #
1.6046074406235908416107349694357 1:1.3726342 2:0.15559301 3:0.83976144 4:0.66166824 5:0.36270759 6:1.1499869 7:0.25143486 8:0.89113688 9:0.25735447 10:0.55093855 11:0.066407949 12:0.65248036 13:0.68178356 14:-0.051399618 15:0.26282662 16:0.33463904 #
-1.8529323734543126089846509785275 1:0.69024724 2:-0.065384887 3:0.80000138 4:0.74601012 5:0.97018123 6:0.60590577 7:1.16396 8:0.6976583 9:0.30777684 10:0.71645981 11:0.19366242 12:0.63002473 13:1.0140834 14:0.75107211 15:0.56367248 16:1.2535824 #
1.3022759527022462755496690078871 1:0.9127751 2:1.0824175 3:1.0029546 4:0.51406586 5:0.7762993 6:0.80874455 7:1.2278557 8:0.72061372 9:0.13324033 10:0.11222439 11:1.0187173 12:0.87121856 13:0.42812693 14:1.1819708 15:0.62946874 16:0.1191472 #
1.8356128759598158151078450828209 1:0.55417699 2:0.3418673 3:0.33847818 4:0.55094719 5:1.1539365 6:0.97966665 7:0.67206645 8:-0.0085263606 9:0.15861605 10:0.75713807 11:-0.086216599 12:0.84510982 13:0.20530167 14:0.14714622 15:0.43469238 16:0.94984263 #
1.6059081861337722862970167625463 1:1.0095838 2:-0.051643096 3:1.5768151 4:-0.15544912 5:0.37052393 6:-0.069090717 7:0.78331804 8:0.47741166 9:0.28473753 10:0.97001803 11:-0.13357121 12:0.025259575 13:-0.06372001 14:0.71033233 15:0.25268754 16:0.82592869 #
-0.039125662119156801033170722803334 1:0.30896369 2:0.69376862 3:0.095684007 4:0.20944163 5:0.70867765 6:0.57874328 7:0.50953823 8:-0.25306198 9:0.27390224 10:0.4476319 11:0.36888713 12:0.88776535 13:0.29592651 14:0.33905888 15:-0.092664942 16:0.050569084 #
1.5275770614780033174184836752829 1:-0.19091021 2:0.83295071 3:0.32453352 4:0.57637948 5:0.35362527 6:0.081237309 7:0.36333141 8:0.44384459 9:0.052689973 10:1.0684606 11:-0.13572893 12:0.43984723 13:0.33136863 14:-0.077159002 15:0.6979022 16:0.83927262 #
-1.7137758547561841027118134661578 1:-0.0016033704 2:0.55519319 3:0.91088378 4:0.25062501 5:1.0556009 6:0.14728619 7:-0.27610239 8:0.17633049 9:0.46477297 10:0.82814956 11:-0.041146517 12:0.40995097 13:0.53735638 14:0.70901686 15:0.99405724 16:0.39437878 #
-8.5738735131523711174850177485496 1:0.19820601 2:0.90466255 3:1.2275705 4:0.3947762 5:0.79066628 6:0.83769429 7:0.60068023 8:1.131526 9:0.41858131 10:0.24661329 11:-0.12351208 12:0.38842767 13:0.25885886 14:0.22316752 15:0.45790818 16:0.76809436 #
1.1239323487303145565618933687801 1:0.31018013 2:0.83841193 3:-0.18029283 4:1.0674952 5:0.51659781 6:0.13760577 7:1.1680459 8:0.34431526 9:0.23950057 10:0.45744193 11:0.30190769 12:0.937949 13:0.494454 14:0.53623605 15:0.22113216 16:0.8547551 #
1.1777222742773427732743130036397 1:0.38514718 2:0.19186574 3:0.63091838 4:1.0760831 5:0.092948772 6:0.54381722 7:0.77681178 8:0.43334326 9:0.090987802 10:0.21349441 11:0.25318483 12:-0.12539335 13:-0.019692946 14:-0.03187969 15:0.018301006 16:0.83661443 #
0.51249693133294060842786166176666 1:1.0385801 2:1.1836492 3:0.99619561 4:0.078943886 5:1.0227156 6:1.2025998 7:0.64840031 8:0.47559857 9:0.67777121 10:0.68628711 11:0.43544725 12:0.92790818 13:0.72088635 14:0.55132055 15:0.23757111 16:0.48716137 #
0.010366530975964294292168688116362 1:1.2086916 2:0.027674535 3:1.2102102 4:0.75805646 5:0.066646695 6:1.0625987 7:-0.10995426 8:-1.2853673 9:0.61895418 10:0.82035381 11:-0.65668541 12:1.1576329 13:0.78190762 14:2.6476192 15:1.4622331 16:-2.1269338 #
1.0774609305502682587984963902272 1:1.1257892 2:0.19313383 3:-0.077453978 4:0.99324971 5:0.53146648 6:0.34868237 7:0.63688993 8:0.013829264 9:0.7445302 10:0.97259128 11:0.25571501 12:0.78545314 13:0.74432594 14:0.52556133 15:0.21985351 16:-0.026360497 #
1.3402247915111038523150455148425 1:0.9923501 2:0.60974193 3:0.83483499 4:1.2228072 5:0.32005975 6:0.45759243 7:0.58930427 8:-0.035309844 9:0.35839474 10:0.56145042 11:1.2041296 12:0.24513307 13:0.55995262 14:0.30581936 15:0.96673042 16:0.98709369 #
0.78285059387288902232882037424133 1:0.82927096 2:0.83192962 3:0.82236201 4:0.60177463 5:0.097705752 6:0.82727754 7:0.11828008 8:1.0259343 9:0.81219816 10:0.48987925 11:-0.010565833 12:0.80861992 13:0.076309167 14:1.0110948 15:0.1357214 16:0.59133726 #
-3.212100391995480919149485998787 1:0.53569186 2:0.47257566 3:-0.41769215 4:1.2505733 5:-0.065080479 6:0.57182723 7:0.81264925 8:1.0033778 9:0.47403529 10:1.1841722 11:0.11866564 12:0.67719209 13:0.14805996 14:0.32722884 15:0.45760036 16:0.98802716 #
1.0800633156915426802413549012272 1:0.51013076 2:0.58031553 3:1.1445379 4:0.84107029 5:0.27538103 6:0.69103998 7:0.39366281 8:0.31349683 9:0.17698154 10:0.5522424 11:0.87229753 12:0.036049385 13:0.0071501983 14:1.0653856 15:0.44261202 16:0.11523288 #
1.2894569925802459309238656715024 1:0.81518209 2:0.90446007 3:0.70867354 4:0.98955888 5:0.52424586 6:0.16245651 7:0.73894662 8:0.064398423 9:0.99376303 10:0.37663063 11:0.83615929 12:0.31200564 13:-0.1580628 14:0.47084183 15:0.33051232 16:0.25266629 #
1.353194721900967456562625557126 1:0.97017902 2:0.83980775 3:0.34814525 4:0.44290623 5:0.93125319 6:0.71079302 7:1.0250897 8:0.53158718 9:0.16794068 10:0.37827376 11:-0.043671019 12:0.27896532 13:0.30880362 14:0.72591388 15:-0.17662309 16:0.98991287 #
1.4011638481927699562135103406035 1:1.1187248 2:0.6811589 3:0.70274889 4:0.31960535 5:-0.38168156 6:0.32441813 7:0.27689904 8:0.32720301 9:0.26744613 10:0.89496404 11:-0.080221482 12:1.0936617 13:1.0029682 14:0.30489391 15:1.0056496 16:0.37075278 #
2.7791055018712764734800657606684 1:0.6047681 2:1.093673 3:0.91221553 4:1.092566 5:0.0012171797 6:0.40259102 7:1.0757406 8:1.0343475 9:0.47905022 10:0.082852356 11:0.14467666 12:0.64862829 13:0.56984842 14:0.54320532 15:0.34823442 16:0.17983834 #
-1.1744944030910029475478495442076 1:0.66810006 2:1.0898762 3:0.83797348 4:0.16669942 5:0.16903265 6:0.28205782 7:0.32565913 8:0.49157134 9:0.8065455 10:-0.1433073 11:1.159868 12:0.31572029 13:0.090438992 14:1.0813897 15:0.016156167 16:0.6934008 #
-0.10351090520103145564689839375205 1:0.57022989 2:1.3950543 3:-0.1954459 4:0.68099874 5:-0.51505464 6:0.89443266 7:0.84259915 8:0.28801367 9:1.1717982 10:0.19883949 11:0.95345384 12:1.4632252 13:-0.054093353 14:0.64750028 15:0.63846201 16:0.57496059 #
2.4027311419274295367642935161712 1:-0.21599662 2:0.054347742 3:0.39087525 4:-0.14177611 5:0.61386454 6:-0.0088322693 7:0.39801025 8:0.43383798 9:0.41914842 10:0.40276799 11:1.1234041 12:0.62698066 13:0.42660138 14:0.93772852 15:0.24422248 16:0.71752065 #
2.0269579038472445020602208387572 1:1.1181339 2:0.85544771 3:0.55446893 4:-0.25068873 5:0.84532791 6:0.19799216 7:0.34244949 8:-0.050177146 9:0.80557531 10:0.20204978 11:0.13137722 12:0.53955352 13:0.059487879 14:0.8295902 15:0.5147351 16:0.35067943 #
4.0476426953131383612571880803443 1:0.61344749 2:0.3406592 3:0.41918236 4:1.4237627 5:0.16022864 6:0.85688299 7:0.30852488 8:0.62662834 9:0.5823974 10:0.77459729 11:0.74038428 12:0.40717202 13:0.87163883 14:0.64743829 15:-0.0053421864 16:0.54504877 #
-3.2562151875506057940867776778759 1:0.87929702 2:0.17813133 3:0.6514734 4:0.39585707 5:0.99048626 6:0.83107251 7:0.18333825 8:0.47955978 9:0.29138944 10:0.018367389 11:0.094051376 12:-0.18778023 13:0.80078143 14:0.48320296 15:0.88374949 16:0.97341764 #
0.64261059824029753695384670209023 1:0.58213437 2:0.56745106 3:0.23114808 4:0.10963508 5:0.78431427 6:1.0488889 7:0.056652483 8:0.45727372 9:0.54380739 10:0.77971905 11:0.11572411 12:0.52641261 13:0.98750889 14:0.67110103 15:0.27391732 16:1.0266591 #
-5.3982567966400853975983409327455 1:0.54307908 2:0.72963464 3:0.78478175 4:1.217531 5:1.6402886 6:0.10825902 7:0.69066471 8:0.68837464 9:0.10801308 10:0.13957705 11:0.87615258 12:0.30078837 13:0.29753798 14:0.32789451 15:0.64707088 16:0.83012831 #
1.4023575383525554993724426822155 1:1.0790255 2:0.8323006 3:0.37822706 4:0.30468097 5:0.84287471 6:0.31573409 7:0.81366575 8:0.54808229 9:-0.17157646 10:0.33615467 11:0.31605607 12:0.92456222 13:0.33688074 14:0.22250143 15:1.0766808 16:0.47897553 #
-2.0118752203598506689274927339284 1:-0.048194513 2:0.31205085 3:0.016592341 4:0.17040882 5:0.11289829 6:0.8122161 7:0.93207067 8:0.50845838 9:0.53319734 10:0.32866076 11:1.2519059 12:0.44464111 13:0.51120538 14:0.11241572 15:0.63094723 16:0.62148374 #
1.216117823854905966030059971672 1:0.77050018 2:0.13049196 3:0.48395857 4:0.083323196 5:0.84788758 6:0.51452845 7:0.71036285 8:0.3207888 9:0.024193445 10:1.2543182 11:-0.0051193191 12:1.0556778 13:0.057590563 14:0.9892928 15:0.54365969 16:0.48534009 #
1.1346198525887953856283729692223 1:0.73113161 2:0.59958398 3:0.52023822 4:1.117197 5:0.47220665 6:0.70433068 7:-0.10059139 8:0.42710954 9:0.35577315 10:0.027972789 11:0.87285495 12:0.76065034 13:0.25478941 14:0.36925197 15:0.17846347 16:-0.29976681 #
-0.33874730994327262312282300626975 1:0.42710114 2:1.0219518 3:0.32696456 4:0.64520001 5:0.84651905 6:-0.12954383 7:0.51420373 8:0.50136715 9:0.27078605 10:0.94367623 11:0.078172207 12:0.50803894 13:1.0874739 14:0.54582286 15:-0.11676954 16:0.61582136 #
1.0242807798554596221407564371475 1:0.52632159 2:0.54104823 3:0.71756327 4:0.3941569 5:0.95866084 6:0.35384956 7:0.80575311 8:-0.34723446 9:0.73092532 10:0.40164858 11:0.54438174 12:0.77521074 13:0.87540269 14:0.66564941 15:0.7676425 16:1.0051776 #
0.84133767937538539438691032046336 1:0.21382557 2:0.8764562 3:0.40343285 4:0.33060291 5:0.85444325 6:0.40034378 7:-0.12880416 8:0.11925092 9:0.65165991 10:-0.11401102 11:0.56253976 12:0.26791027 13:0.85327208 14:1.1718029 15:-0.027528493 16:0.002848485 #
3.1370001042482615893902675452409 1:-0.30981541 2:0.93735981 3:-0.11221491 4:0.38817108 5:0.39793807 6:0.69754809 7:0.63700092 8:1.2212683 9:0.50138873 10:0.75949723 11:0.20719352 12:0.50573707 13:0.57461303 14:0.14571472 15:0.16279635 16:0.45810309 #
2.0877072616706087160309834871441 1:0.34156266 2:1.0016695 3:0.3859027 4:0.68572509 5:0.26725268 6:1.0675682 7:1.0795164 8:0.070799649 9:0.74980706 10:0.68600529 11:0.066378146 12:0.69993323 13:0.86720186 14:0.24221538 15:0.098075405 16:0.085819893 #
-5.2941886679270853122147855174262 1:1.1144034 2:1.196611 3:-0.0012668601 4:0.44644597 5:0.016857408 6:0.57955694 7:0.24079251 8:0.98476171 9:0.72169191 10:0.099031165 11:0.79696739 12:0.456498 13:0.80996549 14:0.070761412 15:0.60785407 16:0.84559733 #
1.793840358635299780942773395509 1:0.92240602 2:0.67331505 3:0.64760268 4:1.0085459 5:0.43356529 6:-0.14193958 7:0.12007907 8:0.87117302 9:0.68150812 10:0.92867339 11:0.53140068 12:0.48662823 13:0.41423771 14:-0.14898382 15:0.45478454 16:0.39984992 #
-1.1294058987635413604522227615234 1:-0.4955987 2:1.7845687 3:-0.13222839 4:0.12481709 5:1.9391127 6:0.67246532 7:0.50739402 8:-0.54223388 9:0.60509682 10:0.32339185 11:0.92178738 12:0.6823315 13:1.0102222 14:0.50880879 15:0.68738437 16:0.5243634 #
1.0298676811086511229120787902502 1:0.16733865 2:0.79042614 3:0.46796063 4:0.29404238 5:0.86454159 6:0.61620557 7:0.57858723 8:0.86536932 9:0.28952885 10:0.24678616 11:0.77836007 12:0.99799967 13:0.51971316 14:-0.35467887 15:1.0292786 16:0.72122246 #
-5.8850685715566246614116607815959 1:0.46200171 2:0.89106691 3:1.1567175 4:0.2329717 5:0.92714661 6:0.7720663 7:0.41109616 8:-0.063486248 9:0.11539385 10:0.61576152 11:0.36336693 12:0.64777976 13:0.5248332 14:0.72085887 15:0.91902959 16:0.45075151 #
1.7673092844719799909825042050215 1:0.26816097 2:0.95410061 3:0.9036032 4:0.95392686 5:0.54918534 6:0.9205842 7:0.70071542 8:0.59961641 9:0.33315918 10:0.35992056 11:0.69374073 12:0.15285125 13:0.49686059 14:0.66597563 15:0.4102391 16:1.2915237 #
-1.324024674596987471986153650505 1:0.90116572 2:0.11863308 3:1.0762941 4:0.61467367 5:0.51035088 6:0.14237364 7:-0.17892379 8:0.9281975 9:0.43481112 10:1.0297852 11:0.67561042 12:0.023597172 13:0.54093927 14:0.76007247 15:0.52327114 16:0.21800633 #
-1.5307650162755113143475682591088 1:0.30492568 2:1.0391426 3:0.32452247 4:0.50802839 5:1.008639 6:0.84792817 7:0.12574047 8:0.48948342 9:1.0772471 10:0.79970962 11:1.0829343 12:0.82362348 13:0.6394825 14:0.99887747 15:0.13301411 16:0.49468181 #
-0.13894725853928224790223566742497 1:0.7753033 2:0.95333475 3:0.15135469 4:0.20128217 5:0.3990255 6:0.36467481 7:1.0208437 8:-0.028068816 9:0.68871164 10:0.78864121 11:0.34795472 12:0.77615863 13:0.52630621 14:-0.32672855 15:0.71969223 16:0.73346817 #
-1.7124806812278934309290434612194 1:0.6694327 2:0.34448859 3:0.37856886 4:-0.048404258 5:0.5887664 6:-0.093120299 7:0.78034234 8:0.99073261 9:0.28913939 10:1.2161652 11:0.36448064 12:1.0176623 13:-0.10919555 14:0.14156412 15:0.52469718 16:0.61971557 #
1.9447639587702283403558567442815 1:0.18087858 2:1.0015846 3:0.24674676 4:0.4106068 5:0.48781496 6:0.08907821 7:0.74732 8:0.061708644 9:0.58926451 10:0.70403254 11:0.072534829 12:-0.2824094 13:0.17233025 14:0.43817157 15:0.59613591 16:0.13902798 #
0.0052363770881748636365493609901023 1:0.10970619 2:0.85045445 3:0.66668582 4:0.13820532 5:-0.051369701 6:1.2066246 7:0.57058525 8:0.35810024 9:0.9577868 10:1.7291898 11:1.5409571 12:0.78150046 13:-0.66184211 14:0.28464624 15:-0.22104588 16:0.83611649 #
-0.40092301316893647067374217840552 1:0.50193685 2:0.2496767 3:0.20103247 4:0.61830997 5:0.71842062 6:0.19568989 7:0.062862486 8:-0.012803079 9:-0.12731154 10:0.69129294 11:0.24626145 12:0.67049354 13:0.82857406 14:0.53801936 15:1.2172685 16:0.52519631 #
-7.0669686438540768591565210954286 1:0.021223465 2:1.083027 3:1.0551871 4:0.14117935 5:0.81022233 6:0.52529091 7:0.37822846 8:0.33655986 9:0.99905825 10:0.029234225 11:-0.36472243 12:0.99729389 13:0.41775697 14:0.53996587 15:0.43080145 16:0.28477171 #
-1.7807711608502032607503906547208 1:1.1211299 2:0.14863288 3:1.035275 4:-0.014611058 5:0.74611038 6:0.42846248 7:0.64748752 8:0.36510035 9:0.69590175 10:0.59626186 11:0.57351369 12:0.58360201 13:0.9077031 14:0.63972032 15:0.66341835 16:-0.0017098731 #
1.267013049860082007924688696221 1:0.47768155 2:1.0273809 3:0.64218038 4:0.5733155 5:-0.11637756 6:0.68723023 7:-0.081021339 8:0.493994 9:0.19452043 10:0.6162318 11:-0.31368038 12:0.39222845 13:0.72502381 14:0.43852291 15:0.024355879 16:0.27803215 #
-1.7546663583510471173809719402925 1:0.51951635 2:1.1061316 3:0.68466687 4:0.4007467 5:-0.04244227 6:0.52204543 7:0.96549284 8:0.22497232 9:-0.12919581 10:-0.0027597195 11:0.13052282 12:0.46241164 13:0.58528841 14:0.10713426 15:0.54375279 16:0.82626826 #
2.0253861155902415092100454785395 1:1.0657578 2:0.032616865 3:0.73558384 4:0.92586517 5:0.092633493 6:-0.21564558 7:0.84938699 8:0.23885924 9:0.14077711 10:0.2054759 11:-0.0030965286 12:0.24493058 13:0.72852546 14:0.28961322 15:0.99058831 16:0.63611948 #
1.5857064977668597904880698479246 1:0.12442435 2:1.0448396 3:0.2195494 4:0.91991228 5:0.84449559 6:0.93975478 7:0.65609765 8:0.21015386 9:0.40044484 10:0.1208612 11:0.32871366 12:-0.03672206 13:0.53168547 14:0.55747253 15:0.92258936 16:0.32502228 #
2.7379925970454146444410525873536 1:0.4077892 2:1.3533247 3:0.54567373 4:0.65639538 5:0.66295326 6:0.67658001 7:0.49637178 8:0.1434671 9:0.87317938 10:-0.24168132 11:0.34646133 12:0.99438137 13:0.018514114 14:0.41100734 15:0.14161018 16:0.66494566 #
-1.6071790564174219806403698385111 1:0.96220714 2:0.6122939 3:1.198071 4:1.3554827 5:1.5981513 6:1.0271748 7:1.1774094 8:0.54646766 9:0.52460772 10:-0.12714076 11:-0.2214108 12:0.83315212 13:0.46011373 14:0.45749068 15:0.62632746 16:0.48303121 #
3.0313720432553732386793399200542 1:0.42093796 2:0.5158391 3:-0.13531715 4:0.3022972 5:0.99705493 6:-0.29763508 7:0.1109625 8:0.53535724 9:0.61234087 10:0.62016582 11:0.47231522 12:0.19231583 13:0.77735013 14:0.89576352 15:0.6800341 16:0.5949254 #
3.077187801705861591727853010525 1:0.55580759 2:0.21785489 3:0.76434475 4:0.62703264 5:1.0951974 6:-0.02039553 7:0.64786118 8:0.023072762 9:0.80506498 10:1.3930216 11:-0.15080492 12:0.29836771 13:0.2570141 14:0.58307868 15:0.3091909 16:0.72375757 #
-3.2134981847441341784588075825013 1:0.71752644 2:0.18666415 3:0.65053427 4:0.099877372 5:0.6964317 6:0.46142891 7:0.17655773 8:1.0660999 9:0.30427703 10:0.1149634 11:-0.093609318 12:0.98354918 13:0.46643472 14:0.1495845 15:0.5558762 16:0.72282553 #
-0.48640480118465734271637757046847 1:1.0337325 2:0.45438296 3:0.79188019 4:1.3088926 5:0.35394433 6:0.20385386 7:0.21427789 8:-0.21290526 9:0.63025218 10:0.57484186 11:-0.089004546 12:1.6265167 13:-0.92214215 14:-0.1007238 15:0.56060308 16:0.53698111 #
7.3753746867045428814435581443831 1:0.78857285 2:0.86334693 3:0.30250344 4:-0.11308261 5:-0.25836986 6:0.5716204 7:0.56958449 8:0.36636734 9:0.72531617 10:0.70457166 11:-0.50912344 12:0.42726636 13:0.19967739 14:0.39165717 15:0.26120746 16:0.96183681 #
-3.8139463135178077735076840326656 1:1.0599108 2:0.75529373 3:0.68623787 4:0.83835942 5:1.135415 6:0.20589665 7:0.48608616 8:1.0642534 9:0.64039844 10:0.35026604 11:0.55911601 12:1.1259534 13:0.54634362 14:0.46498996 15:0.73548633 16:0.26303023 #
-0.049099236749669664114925637932174 1:0.26349294 2:0.75690144 3:1.2870501 4:-0.12233584 5:0.85414076 6:0.12977299 7:-0.064920925 8:0.7127232 9:0.87755877 10:0.039910451 11:-0.6173138 12:0.50853282 13:-0.10155164 14:0.14506935 15:1.6961738 16:-0.19003852 #
0.081946762187436447688604346240027 1:0.5556401 2:0.019291388 3:0.2464806 4:0.63850433 5:0.28815195 6:-0.0075145056 7:0.091558643 8:0.17233816 9:1.1300672 10:0.5608632 11:0.23255247 12:0.62504679 13:0.41920575 14:0.46664193 15:0.59913933 16:1.1325154 #
-0.42666154138205419910079285727988 1:0.46907389 2:1.1879424 3:-0.20803997 4:0.40495011 5:0.97577614 6:0.22673403 7:1.4649512 8:0.32636297 9:0.48961049 10:0.649553 11:-0.011305686 12:0.76301569 13:1.3564295 14:1.8206075 15:1.3092661 16:0.97704977 #
0.78130704224283897829650413768832 1:-0.27626076 2:0.26470649 3:0.31606123 4:1.1279248 5:0.23894046 6:0.91497278 7:0.52793527 8:0.2263006 9:0.20102948 10:0.87927306 11:-0.13342331 12:0.70549476 13:0.54696906 14:0.83936274 15:0.76165843 16:0.83515513 #
-0.31193094935964044145393359031004 1:-0.13165617 2:0.89669508 3:0.71058822 4:0.8717041 5:-0.1247289 6:0.23570389 7:0.26737458 8:0.1972511 9:0.74118823 10:0.78457469 11:0.35497233 12:-0.06329713 13:0.47885883 14:0.58948469 15:0.32973698 16:0.64760774 #
1.8492440369460587668015705276048 1:-0.25136119 2:0.71693766 3:0.057557695 4:0.062164072 5:0.54238272 6:0.80393511 7:-0.052731756 8:0.070048355 9:0.42754301 10:0.91395837 11:0.33647224 12:-0.02693489 13:0.21805769 14:0.72626686 15:0.54120517 16:0.38535392 #
-6.3684511434002697427558814524673 1:0.14769261 2:0.89807582 3:1.1815029 4:0.51181668 5:0.94767636 6:0.020572433 7:0.51137555 8:0.78021109 9:0.88112003 10:0.95687997 11:0.5596503 12:0.84946287 13:0.5894435 14:0.70716923 15:0.25661987 16:0.96193349 #
4.5714505392789233084727129607927 1:0.19483824 2:0.81285471 3:0.72120768 4:-0.24049185 5:1.4535155 6:0.39424089 7:0.82841367 8:0.47708166 9:0.2226146 10:-0.24560134 11:0.85200137 12:0.26734099 13:0.098344535 14:0.3979179 15:0.69420552 16:0.7542209 #
-1.9187490118198424760009856981924 1:0.87705612 2:0.9634667 3:0.26192248 4:1.1073418 5:1.0223544 6:0.91142178 7:0.32690772 8:0.44994372 9:0.832479 10:0.31096083 11:0.1086558 12:0.76234645 13:1.0250075 14:0.31832361 15:0.458372 16:0.6987505 #
-2.1052553161997522579440556000918 1:1.0633339 2:0.61235887 3:0.85815763 4:0.35674128 5:0.8802166 6:0.75677729 7:0.48815641 8:0.82790476 9:0.49571183 10:0.38877586 11:1.4807673 12:0.53545594 13:1.1185912 14:0.27375612 15:0.36309257 16:0.75967574 #
5.6229954963214439089824736583978 1:0.89570427 2:-0.13941078 3:1.1320877 4:-0.021418517 5:1.1987333 6:0.5857591 7:0.44321486 8:0.57977808 9:0.58498156 10:1.3091086 11:-0.44564438 12:0.85017365 13:0.72044981 14:0.44312891 15:0.28632158 16:0.26061851 #
1.1661966035685258358256533028907 1:1.0394971 2:0.55222833 3:-0.015587618 4:1.0240717 5:0.059634615 6:0.5143556 7:0.89980698 8:0.6158253 9:0.26858145 10:0.37360239 11:-0.079956636 12:0.29228675 13:0.37468365 14:1.1322987 15:0.42727908 16:0.33213827 #
-0.028784620681684382897946861135097 1:0.80658215 2:0.80821496 3:1.024664 4:0.2817311 5:0.21440786 6:0.655074 7:0.16905315 8:0.49766934 9:-0.10567333 10:0.80082214 11:0.67246139 12:0.83531612 13:0.91912514 14:1.1953039 15:0.57577997 16:1.0190288 #
3.5371078995508797859770311333705 1:0.68672675 2:0.40116966 3:0.51189744 4:0.95674187 5:0.1846074 6:0.41625643 7:0.85902137 8:0.17901377 9:0.57574582 10:0.33748087 11:0.31984553 12:0.796134 13:0.10585455 14:0.80850303 15:1.0535172 16:0.14382248 #
0.41055239043592295367091082880506 1:0.88796085 2:1.2103484 3:0.54939002 4:0.41967845 5:0.60558742 6:-0.48601839 7:-0.12417746 8:0.43023089 9:0.31653214 10:0.70507962 11:0.5452742 12:0.77535439 13:0.22343792 14:0.9604975 15:0.30798009 16:0.19801161 #
2.1399918364606054232979204243748 1:0.36952642 2:0.79061723 3:0.63522792 4:0.98622066 5:0.33563495 6:0.27308533 7:0.63685822 8:0.70591462 9:0.52367669 10:1.0164928 11:0.010092064 12:0.24119867 13:-0.27739573 14:0.59802127 15:0.12618697 16:0.49830148 #
-2.6536628502459969070059742080048 1:0.20803176 2:1.0779469 3:-0.23259231 4:0.34811422 5:0.55890024 6:0.22982894 7:1.1065949 8:0.77335376 9:0.37214625 10:-0.0013687711 11:0.76491147 12:-0.19322759 13:0.64788562 14:0.71943283 15:0.35072759 16:0.76014996 #
1.1363702006423503920728990124189 1:1.1755356 2:0.82974619 3:0.46800372 4:0.52028626 5:0.5068264 6:0.42258632 7:0.53482914 8:0.0043100021 9:0.63193107 10:0.45227289 11:0.15878461 12:-0.0155762 13:1.0040342 14:0.36462367 15:1.0580231 16:0.10042804 #
-0.69668351126848671039937244131579 1:0.021153048 2:1.0472521 3:-0.45585006 4:1.0163862 5:-0.040713269 6:1.079403 7:0.14656617 8:0.36123249 9:0.075141042 10:0.52083915 11:0.95508444 12:-0.0027970108 13:0.32852206 14:1.0651948 15:0.68609565 16:1.0939412 #
-1.9233163399410144744905437619309 1:0.3222256 2:0.19019054 3:1.0318534 4:0.042040184 5:0.74452758 6:0.075869329 7:1.0887724 8:0.48942006 9:0.49695724 10:0.34390131 11:0.099936761 12:0.37113646 13:0.44675171 14:-0.19113064 15:0.033247273 16:0.47840178 #
1.6223280118098268864912370190723 1:0.97376877 2:0.60793865 3:0.80147421 4:0.78853452 5:0.29269361 6:0.86885345 7:0.062199723 8:0.68064648 9:0.80161852 10:0.55097318 11:0.91881275 12:-0.037021305 13:0.91616565 14:0.15119742 15:0.60179144 16:-0.088863008 #
-0.69954107603725823594231769675389 1:0.043896388 2:1.8401786 3:1.1979138 4:0.71899194 5:-0.11027687 6:0.32966304 7:1.1806308 8:0.27168551 9:0.31164405 10:-0.49318081 11:1.3680935 12:0.8886447 13:0.86291361 14:0.39405286 15:0.76159567 16:0.42041677 #
-0.66306235500109356184594844307867 1:0.87506437 2:0.040107962 3:0.083421066 4:-0.076856814 5:0.99279565 6:0.62685174 7:0.36868832 8:0.9468658 9:0.32583112 10:1.3978432 11:-0.25926137 12:-0.61381787 13:-0.15453041 14:0.51666003 15:-0.036479529 16:-0.60003787 #
3.4008216223166307656811113702133 1:1.0042061 2:0.34527221 3:0.71721548 4:0.93554521 5:0.4465192 6:1.1656317 7:-0.0931511 8:0.56272924 9:0.070262611 10:0.57018727 11:0.75041896 12:0.96610641 13:0.14728759 14:0.90148467 15:0.58114898 16:0.57597399 #
0.96520191453760539879169755295152 1:0.53953409 2:0.66254169 3:0.34904754 4:0.63941526 5:0.41357988 6:0.65328521 7:0.482151 8:0.87586308 9:0.010743003 10:0.60709822 11:-0.15923303 12:0.38305604 13:-0.1036147 14:0.025904717 15:1.2006118 16:-0.0077039679 #
-0.38396114006665388318495502062433 1:0.98142403 2:-0.065640554 3:0.22038618 4:0.32487392 5:0.32966217 6:1.1140089 7:0.23264372 8:0.22905643 9:0.95403594 10:0.38222891 11:0.24043204 12:1.0062258 13:0.34016111 14:0.21435396 15:0.57347751 16:0.4394297 #
-2.7788607450964968315076930593932 1:0.94565606 2:0.68071669 3:-0.078483418 4:1.1547024 5:-0.44333068 6:0.34597307 7:0.75969636 8:0.48612496 9:0.25308055 10:1.4887828 11:0.021266418 12:0.083417863 13:0.54771066 14:0.62450039 15:0.5043605 16:-0.067201518 #
0.19903539633842795564255823137501 1:-0.32310337 2:0.48167378 3:0.74154931 4:1.3974854 5:0.2464775 6:0.23319675 7:0.38374838 8:0.87684673 9:0.25463846 10:0.09136878 11:0.29473859 12:1.0230118 13:0.44005984 14:0.21256636 15:0.36886483 16:-0.01539858 #
0.73132646493548247867977352143498 1:1.5023079 2:0.96383047 3:1.0806977 4:-0.14732519 5:0.21033348 6:0.76149601 7:0.26548162 8:0.7904551 9:0.34120497 10:0.53738552 11:0.34357679 12:0.013061162 13:0.51593375 14:0.20256619 15:0.86033148 16:0.75485468 #
1.0534606858294008890908344255877 1:0.73861074 2:0.12924591 3:-0.11583223 4:0.72181123 5:0.56896251 6:0.82300878 7:0.033480123 8:1.0344788 9:0.46599442 10:0.2871581 11:-0.083753787 12:0.54892087 13:-0.13429753 14:0.22669111 15:0.53942227 16:1.1370463 #
-4.2696844701264824450959167734254 1:0.066943616 2:0.15714468 3:0.22454198 4:0.45315591 5:0.28460932 6:0.068896554 7:0.44529068 8:0.85796076 9:0.32196119 10:0.67842185 11:0.042643499 12:0.16051731 13:0.80160189 14:0.75555485 15:0.075577043 16:0.86379391 #
1.1521568036514435728889793608687 1:0.22660004 2:0.63291365 3:0.39348301 4:0.99458802 5:0.60793167 6:0.22292902 7:0.41452637 8:0.10037371 9:1.0307177 10:0.71426421 11:0.16242667 12:0.93279475 13:0.55261874 14:-0.03293933 15:1.0133309 16:0.085311122 #
0.098463754416963561455489184481848 1:1.4072036 2:-0.75633931 3:0.22506559 4:0.87339014 5:0.25592202 6:1.7674787 7:-0.17126368 8:0.35472396 9:0.81601381 10:0.084228002 11:0.43067113 12:1.0353174 13:0.5797447 14:0.041831497 15:0.37912959 16:0.36916026 #
-1.9611640705752262370253902190598 1:0.23761433 2:0.85614491 3:0.75239962 4:0.58215207 5:1.1190639 6:0.71416152 7:0.44874796 8:-0.013504926 9:0.78792089 10:0.18589142 11:0.2525554 12:0.10889625 13:0.11402071 14:0.0072250874 15:0.3679629 16:1.2329254 #
-1.2291013870445026689992573665222 1:0.46576941 2:0.25495535 3:0.96244133 4:0.85974228 5:0.83128721 6:0.16199447 7:1.0166584 8:0.015559651 9:1.0469216 10:0.98137361 11:1.0324856 12:0.15927997 13:1.0532969 14:0.64766049 15:0.22007413 16:0.39293224 #
0.016385196858868519148577647115417 1:0.88367826 2:0.0059423116 3:-0.12537883 4:0.99336606 5:0.69589269 6:0.37373161 7:-0.46893001 8:0.73425418 9:0.94072515 10:0.028101794 11:-0.314731 12:0.18135706 13:-0.10155438 14:0.21708098 15:0.59203947 16:1.6023948 #
-0.25672094567840597623131770887994 1:0.73085773 2:0.68802088 3:0.76460272 4:0.64504987 5:-0.18283808 6:0.90661597 7:0.27505696 8:-0.075276934 9:0.46835691 10:0.89216989 11:0.2880649 12:0.29998866 13:0.94805992 14:-1.2630553 15:0.85839337 16:1.4934199 #
2.3240225021361302637501466961112 1:0.49687099 2:0.69386011 3:0.032323714 4:-0.13330229 5:-0.41959581 6:0.77125293 7:0.80647099 8:1.1145818 9:0.23163092 10:1.1549293 11:0.23496416 12:1.1643684 13:0.9828639 14:0.65128392 15:0.44204238 16:0.49598598 #
2.4641487291558727967810682457639 1:0.83510137 2:0.55125087 3:0.3571873 4:0.22784865 5:0.27365533 6:0.95023459 7:0.32200024 8:0.14589411 9:-0.161302 10:0.5039143 11:-0.01308335 12:0.30148596 13:0.23020861 14:0.50211358 15:0.56696886 16:0.19688244 #
1.4521840545068922523341825581156 1:0.70822829 2:0.45211658 3:0.43880424 4:0.56272256 5:0.65518862 6:0.45114589 7:0.71715015 8:1.1593759 9:0.85592628 10:0.81683046 11:0.25330928 12:0.25015 13:1.0218583 14:0.92551351 15:0.69467431 16:0.34400508 #
-0.037969581396464432976323166712973 1:0.20715594 2:0.72293413 3:1.1128954 4:2.4301517 5:0.90526396 6:1.1963756 7:0.54557782 8:1.05089 9:0.34027097 10:0.1640148 11:0.70912045 12:0.82705849 13:0.18846014 14:0.33240062 15:0.56658006 16:0.28376803 #
-5.5522913035756014110688738583121 1:0.87123644 2:0.07667689 3:1.399822 4:1.2197156 5:0.86873549 6:0.43786591 7:0.58633703 8:0.30352685 9:0.12510063 10:0.78727746 11:0.47716266 12:0.65257865 13:0.3656821 14:0.21838464 15:0.30297527 16:0.63245684 #
0.58993844339827694600586482920335 1:0.66959208 2:0.72490001 3:0.65171999 4:0.18630099 5:0.71208954 6:0.25143063 7:0.98192149 8:0.082409672 9:-0.1589036 10:0.9576543 11:0.2815558 12:0.30905306 13:0.59378028 14:0.5574643 15:0.32447544 16:0.31024879 #
-0.60366937277654753035704970898223 1:0.29365429 2:0.92136353 3:0.68576729 4:0.2189316 5:0.70839274 6:0.90774834 7:0.94257969 8:1.1758336 9:0.223166 10:0.89421135 11:0.72706831 12:0.9108268 13:0.51867622 14:0.74351454 15:0.65995961 16:0.64808083 #
-0.33630230410666017704102159768809 1:1.1271176 2:1.7937714 3:0.21093141 4:0.35457939 5:0.77393997 6:1.1120389 7:1.2862543 8:-0.0141992 9:0.34845442 10:1.1429946 11:-0.18508737 12:0.98319083 13:0.24435474 14:0.21336743 15:-0.095628433 16:0.88973528 #
-1.1283488280556805971599487747881 1:0.61032289 2:1.3915719 3:0.67660934 4:0.2485065 5:1.3208565 6:0.3489086 7:0.02970065 8:0.24417669 9:0.53360832 10:1.0850592 11:0.26023036 12:0.94856489 13:0.057009965 14:-0.1364225 15:0.3322019 16:0.23855466 #
-0.0054946691616262390706060259049082 1:1.009957 2:-0.068823501 3:-0.28449768 4:1.3907973 5:0.92778367 6:0.051631443 7:-1.0539215 8:0.84872603 9:1.2854555 10:-0.17827569 11:-0.45016226 12:-0.41516167 13:-0.25795886 14:-0.20643266 15:0.87893844 16:1.7990247 #
2.2306927844259143434157977026189 1:0.1173211 2:-0.15851475 3:0.70019025 4:0.24168754 5:1.4394175 6:0.43534851 7:0.29404873 8:1.0226684 9:0.40857694 10:1.0863429 11:-0.075674146 12:0.34570751 13:0.075147249 14:0.28181019 15:0.41907653 16:1.1140714 #
0.95106512913768681549697703303536 1:-0.035506163 2:0.84643048 3:-0.06554886 4:-0.28337771 5:1.511196 6:-0.38993564 7:-0.071410716 8:0.3848089 9:0.18157002 10:0.42454877 11:0.37619829 12:0.20337145 13:0.34067145 14:1.029505 15:0.35269672 16:0.57256538 #
-0.4287733327512837089301456217072 1:0.36702916 2:0.67732239 3:1.0318269 4:1.1583834 5:1.3098556 6:-0.50424886 7:0.0066861333 8:-0.28874809 9:0.51503807 10:0.42366987 11:-0.40551555 12:0.88063586 13:0.72394586 14:0.92524749 15:-0.44061139 16:0.44847861 #
0.070513536663344617005932946085522 1:0.40833402 2:1.3171648 3:0.2475697 4:0.17070271 5:0.053147864 6:0.90671742 7:0.44927359 8:-0.38288257 9:0.85583007 10:1.1104958 11:-0.11610525 12:0.96291852 13:0.5129438 14:2.0098472 15:0.91345727 16:-0.96852428 #
0.23044686297265956631541428123455 1:0.28785765 2:0.30254403 3:0.7262516 4:0.81956095 5:0.73056036 6:1.0216296 7:0.82050025 8:0.97458321 9:0.68518734 10:1.0095285 11:0.17765756 12:0.53153682 13:0.30921119 14:0.52623451 15:0.25458008 16:0.46267697 #
3.338234134407825681734038880677 1:0.95071125 2:0.22483808 3:0.92714131 4:0.8601054 5:0.19945657 6:0.42470291 7:0.87702918 8:0.022329703 9:0.51753664 10:0.7061168 11:0.81722313 12:0.45206663 13:0.12063977 14:0.22613168 15:0.049617428 16:0.63136148 #
-0.046891152922596650298725506900155 1:-0.12856722 2:1.0787828 3:1.2657933 4:2.557272 5:0.14167455 6:0.030486116 7:0.20297003 8:0.40589479 9:0.26371682 10:0.85883629 11:0.37004763 12:-0.26088563 13:1.5539447 14:-0.28054902 15:0.87512803 16:-0.60602576 #
-1.8142958590703566201796093082521 1:0.88742703 2:-0.050409976 3:-0.48810115 4:0.14784352 5:0.71734315 6:0.55941963 7:0.46153596 8:0.32551897 9:0.60867369 10:1.6632931 11:-0.39582586 12:0.14540169 13:0.82690376 14:0.45318171 15:0.18444127 16:0.78121799 #
-1.7394961721503467977356649498688 1:0.79113281 2:0.1563554 3:0.8893348 4:0.96190661 5:0.78267676 6:0.34449857 7:0.034913436 8:0.50928855 9:1.2197227 10:-0.018114617 11:0.83969921 12:0.45689908 13:0.22694132 14:0.60383797 15:1.234699 16:0.46733531 #
-2.0500264392770710664137823187048 1:1.083335 2:0.88841176 3:0.47933921 4:0.26382202 5:-0.2771019 6:0.37470672 7:0.16340804 8:-0.19935301 9:0.20197569 10:-0.064457327 11:0.8673299 12:0.58581161 13:0.64186078 14:0.58111125 15:0.43422753 16:-0.090873607 #
-0.93352604172382835923116317644599 1:0.41503635 2:0.56009364 3:0.56312591 4:0.69661397 5:1.0608187 6:0.19637337 7:-0.138074 8:0.63314891 9:-0.182234 10:0.17787616 11:0.10879432 12:0.027685771 13:0.18292494 14:0.83417183 15:0.029875934 16:0.66840535 #
0.77278328197126022747198703655158 1:0.4928585 2:1.3001263 3:0.59808594 4:0.85051799 5:0.57634288 6:0.096852377 7:0.14369617 8:0.096310496 9:0.59556675 10:0.34971771 11:0.30706382 12:0.43021083 13:-0.15803079 14:0.96826446 15:1.2698631 16:0.68284905 #
-3.0580135923985891643894774460932 1:0.65507948 2:1.1860679 3:-0.13423164 4:0.89627582 5:0.46812624 6:0.22548659 7:0.18961224 8:0.56478208 9:0.18170418 10:0.20825025 11:1.4317535 12:0.93341744 13:0.70168799 14:0.65876395 15:0.39357531 16:0.38047221 #
5.00799693771807596931466832757 1:0.051859591 2:0.63151455 3:0.92514557 4:0.066175714 5:0.86398232 6:0.36862904 7:0.31411892 8:0.7358501 9:1.0855556 10:-0.26460049 11:0.95528299 12:0.93374252 13:0.58177149 14:0.39155811 15:0.26924405 16:0.18537296 #
2.6450738658095094280042758327909 1:0.028403221 2:1.0031869 3:0.19175817 4:0.75383073 5:0.50250399 6:0.74406332 7:0.5715276 8:0.40749621 9:1.1826268 10:0.77179164 11:0.14970377 12:0.61758429 13:0.59139061 14:1.1144189 15:0.50054199 16:0.41892168 #
2.759196370471463932716460476513 1:1.0077696 2:0.22041699 3:0.29788652 4:0.983702 5:0.096505836 6:0.30074832 7:0.32303748 8:0.48794833 9:-0.026732352 10:0.84469914 11:1.0940504 12:0.7573263 13:1.1067847 14:0.34207475 15:0.82182902 16:0.076600805 #
1.1899216563040608818369037180673 1:0.92744964 2:1.0972836 3:0.75577343 4:0.60845447 5:0.32912025 6:0.29144651 7:0.19723453 8:0.22996253 9:0.97651482 10:0.014040866 11:0.35462949 12:0.78429991 13:1.1764158 14:0.92394406 15:0.78032541 16:0.53662056 #
0.23910507113862497496903358751297 1:0.2324907 2:-0.031208836 3:1.4256728 4:0.29020742 5:0.93461305 6:-0.76670134 7:-0.60317242 8:0.38594073 9:0.26735762 10:1.4723454 11:-0.0022429256 12:0.28408524 13:0.38746238 14:0.43858224 15:1.0159956 16:0.10900881 #
-4.1225203736157576273058111837599 1:-0.12466813 2:0.52021617 3:0.42887145 4:0.22684546 5:0.75675642 6:0.44638464 7:0.76587087 8:0.71089828 9:0.20429325 10:0.09016946 11:-0.77225363 12:0.82522923 13:1.3308768 14:0.49811891 15:0.76948446 16:0.36299068 #
-0.011963104058006834157223963188699 1:1.4128015 2:-0.35561755 3:1.1437129 4:-0.33639437 5:1.3990611 6:0.26090097 7:0.83417362 8:0.23600541 9:1.0622896 10:0.69483477 11:0.83958626 12:0.31652412 13:1.2704209 14:0.36806905 15:0.89212304 16:-0.12309176 #
-1.9247930020644521409423077784595 1:1.0096663 2:0.68619007 3:0.12763654 4:0.24856958 5:0.52537882 6:-0.2776427 7:0.5028497 8:0.97467345 9:0.39215475 10:-0.15668905 11:0.18176915 12:0.20359661 13:0.30742112 14:0.15910827 15:0.3461881 16:0.21019372 #
0.5464659703141793167802120478882 1:0.50353235 2:0.50503182 3:-0.28654423 4:1.2943187 5:0.63249069 6:-0.14431767 7:0.86189854 8:1.645198 9:1.3831532 10:1.0324482 11:0.8834874 12:0.84875494 13:0.37215596 14:1.2732819 15:0.78028131 16:0.25490457 #
-1.2904555892405220607344062955235 1:1.2375107 2:0.72477484 3:0.066165835 4:0.53989232 5:-0.18271418 6:-0.0082158111 7:0.44954228 8:0.44688717 9:-0.080578111 10:0.72590286 11:0.021670157 12:0.28130788 13:0.1742235 14:-0.012052374 15:0.6086694 16:1.339093 #
-0.47729371974154666258272072809632 1:0.15708271 2:0.67133111 3:0.99145716 4:0.65988719 5:-0.034615107 6:0.99323308 7:0.86118799 8:0.92982316 9:0.66095328 10:0.37235337 11:0.88570851 12:0.85669315 13:0.65795207 14:0.65486127 15:0.62104023 16:-0.14748012 #
0.70951368219754196164927861900651 1:0.31837723 2:1.0222565 3:0.51759034 4:0.3576383 5:0.77058518 6:0.36061373 7:0.22490788 8:0.87885708 9:-0.35075316 10:-0.16763175 11:0.9732725 12:0.18135311 13:0.53819507 14:0.27180666 15:0.5966115 16:0.40394154 #
-3.3886780130844491587538414023584 1:0.15670614 2:0.74815136 3:0.6458056 4:0.54746324 5:-0.091644868 6:0.072747715 7:0.41062295 8:0.67914742 9:0.52442712 10:0.63944638 11:0.7980274 12:0.47008565 13:0.39559114 14:0.45827359 15:-0.28008986 16:0.16358377 #
0.73454364007305283923443539606524 1:0.22318807 2:0.65348572 3:0.37019208 4:0.02824581 5:0.89793855 6:0.35583648 7:0.14220318 8:0.49591342 9:0.51944941 10:0.71115232 11:0.42768583 12:-0.16069557 13:0.48283586 14:-0.0066643939 15:0.87364703 16:0.91967309 #
-0.80110016825840035803452110485523 1:0.29490158 2:1.3560619 3:0.4513199 4:0.78741062 5:1.2103785 6:-0.15692768 7:0.30223855 8:0.84396881 9:0.8816855 10:0.008359571 11:0.18012293 12:0.13845752 13:0.30831251 14:0.15767714 15:0.90569597 16:0.22732125 #
-0.6711001411099315472341686472646 1:0.9314304 2:0.40460315 3:1.2713376 4:0.26595372 5:-0.27781713 6:0.50303507 7:1.0130416 8:0.58692157 9:0.26651421 10:0.029512785 11:0.69074559 12:0.43174616 13:0.48681208 14:0.25541466 15:0.97485781 16:0.8612082 #
-0.32963459232780445429256133138551 1:0.75822079 2:2.0701759 3:0.24786685 4:-0.026631603 5:1.5613555 6:0.59172833 7:0.37965652 8:0.54147309 9:0.60074431 10:0.45450366 11:-0.014998647 12:0.31721628 13:0.59949696 14:0.38210964 15:0.55596918 16:0.73901325 #
-1.3711268028521352846382796997204 1:0.92856365 2:0.73882324 3:-0.054193515 4:0.50862265 5:0.3787308 6:0.78282696 7:-0.30746397 8:0.55251151 9:0.10676201 10:0.96643829 11:0.68255812 12:0.93716174 13:-0.088043176 14:-0.060970441 15:1.1217903 16:0.30568647 #
-2.4152632623970191616535885259509 1:0.70442593 2:0.35085198 3:-0.19035995 4:0.62095469 5:0.78374624 6:0.85781366 7:0.78706533 8:0.73639095 9:0.30478355 10:0.48462173 11:0.37967655 12:0.13474157 13:0.92818749 14:-0.16782525 15:0.0053781085 16:0.32270905 #
1.4114199914854828055155167021439 1:0.41616762 2:0.79711884 3:1.0098075 4:1.8315406 5:2.3677685 6:-0.31186408 7:0.88708127 8:0.87984395 9:-0.26960444 10:-0.30286843 11:1.1199472 12:0.49503955 13:-0.21918291 14:0.04226182 15:0.6258207 16:1.0320359 #
-2.1128379130718837330960013787262 1:1.0773797 2:0.83302426 3:1.2457725 4:1.2211758 5:1.131433 6:0.82718885 7:0.5925765 8:0.55175155 9:-0.024676377 10:0.11104215 11:-0.3808938 12:0.069313258 13:0.083965823 14:0.35102999 15:0.098295897 16:-0.066768028 #
0.023490650150971622428519580694228 1:0.0042448426 2:0.48766413 3:0.88053089 4:-0.29577902 5:1.203986 6:0.21389858 7:-0.093760803 8:0.93597972 9:1.2782161 10:0.36164826 11:-0.78611439 12:0.97897488 13:0.051828589 14:0.36841339 15:1.8130487 16:-0.77228504 #
4.2542348722298459762214406509884 1:0.83240938 2:0.46282032 3:1.0543287 4:0.14618468 5:0.58193523 6:0.70115566 7:0.68835378 8:0.50854093 9:0.055456653 10:1.1595948 11:-0.17038551 12:0.33381042 13:0.50560373 14:0.28393939 15:0.80453169 16:1.0062602 #
3.6219700726655790212760166468797 1:1.1106782 2:1.1171501 3:0.84997654 4:0.21150529 5:0.96583462 6:0.65716696 7:0.66930264 8:0.76266068 9:0.92055953 10:-0.079820372 11:0.57223576 12:0.64984685 13:0.38262036 14:-0.0013902792 15:0.43371472 16:1.0152702 #
7.3450724637526416671562401461415 1:0.63103902 2:0.30259994 3:0.58634967 4:0.80110776 5:0.9113934 6:0.72314864 7:0.34686545 8:0.16207659 9:0.31484446 10:0.87119538 11:-0.0030172511 12:0.21649987 13:0.19145225 14:0.58504611 15:0.84764099 16:0.40697879 #
-4.2749661147384676596061581221875 1:1.1209209 2:0.91671574 3:-0.38702434 4:0.55141681 5:1.1609339 6:0.47763678 7:0.76861358 8:0.55097181 9:0.68660742 10:0.66387385 11:0.68380934 12:0.40924808 13:0.063117996 14:0.58687973 15:0.20263579 16:0.77691156 #
0.22400382052369366414623641503567 1:1.097895 2:-0.29786554 3:0.03868207 4:-0.39210135 5:0.90332031 6:0.63280213 7:0.17261024 8:1.0230656 9:0.21078518 10:1.837791 11:-0.29149422 12:-1.1453736 13:-0.24532396 14:0.51147759 15:-0.4843733 16:-1.3554397 #
1.9347328305264646086669699798222 1:-0.23645811 2:1.444881 3:-0.34794089 4:-0.24282715 5:-0.33426073 6:0.86994278 7:0.4042061 8:0.22792874 9:0.6028229 10:0.98904449 11:0.050872847 12:0.73936355 13:-0.018705415 14:0.35250622 15:0.83645326 16:0.36987552 #
-1.528817737898267914431471581338 1:0.7113207 2:0.47108099 3:0.34916776 4:0.32917339 5:0.46707916 6:0.74449742 7:-0.20909046 8:1.1305608 9:0.96570826 10:0.75090474 11:0.74613011 12:0.69526064 13:0.82900119 14:0.22893003 15:0.097951069 16:0.40594384 #
-0.28762232119888597736689916928299 1:0.52921724 2:0.21580517 3:0.66213173 4:0.11630023 5:1.376467 6:1.4929259 7:0.54230261 8:-0.095559753 9:-0.17380857 10:0.41068447 11:-0.49282712 12:0.96902233 13:-0.00045464165 14:-0.072621942 15:0.41423827 16:1.2716993 #
-0.32751352515685488997476682015986 1:1.3826437 2:1.855824 3:1.0350177 4:-0.22761926 5:1.4784061 6:1.0096332 7:0.84215623 8:0.94397098 9:0.97777319 10:-0.40497962 11:0.72957015 12:0.86543661 13:0.51131296 14:-0.28288031 15:0.30970362 16:1.2815876 #
0.78479025752529874004892462835414 1:-0.035900079 2:0.79666221 3:1.593995 4:0.57375914 5:1.5663015 6:-0.71325034 7:0.48211482 8:0.78467816 9:1.1824982 10:1.2437116 11:0.8953045 12:1.0604354 13:0.69698614 14:0.92429113 15:-0.0056470144 16:1.1955341 #
1.8324536932613055828511505751521 1:1.595583 2:0.17907342 3:-0.93338865 4:1.0147667 5:-0.44697002 6:0.36651447 7:0.45386347 8:0.72645497 9:0.49320477 10:0.99516028 11:1.3976949 12:0.400056 13:0.6874004 14:0.49247605 15:0.46672106 16:0.23146826 #
0.13007914315227087076465295467642 1:0.23579115 2:0.87338006 3:0.53307587 4:0.48892108 5:0.76323289 6:0.44011202 7:-0.012812671 8:0.64281368 9:0.76963621 10:1.3681885 11:0.69184113 12:0.076730452 13:0.70748764 14:0.54325962 15:0.74536347 16:-0.025197145 #
0.3262613008819343352051589590701 1:0.11234996 2:-0.13084422 3:0.50583243 4:1.2668978 5:0.39130732 6:0.47558716 7:0.46254423 8:0.50680363 9:0.15170231 10:-0.23648266 11:0.46887407 12:0.24500908 13:1.7153896 14:0.38647446 15:0.45397687 16:1.1588584 #
-1.3276080264720855339533045480493 1:0.26040366 2:0.25482935 3:-0.083440371 4:0.3121407 5:0.28546274 6:0.44438893 7:1.1602206 8:0.64271444 9:0.40821964 10:0.022286821 11:0.3334575 12:1.1190383 13:0.91462243 14:0.85549092 15:0.21277067 16:0.055590268 #
-1.5112450199443761000850372511195 1:0.10769827 2:0.0064264331 3:0.42437246 4:0.32701874 5:0.41494483 6:0.70668691 7:0.84850377 8:0.32399255 9:-0.071861528 10:0.69707185 11:0.67077595 12:0.42986071 13:0.23928964 14:0.18985756 15:0.82295603 16:-0.25777802 #
-3.4514201582552135327830455935327 1:0.01100691 2:-0.009334554 3:0.18436985 4:0.89133435 5:-0.33594346 6:0.51346684 7:-0.012870009 8:0.23299153 9:0.26049927 10:0.82421041 11:0.67686808 12:0.9322688 13:-0.059525188 14:0.60704094 15:0.28446984 16:0.44710803 #
0.30555521126417101163141865072248 1:0.98554742 2:1.4703441 3:0.51718384 4:0.73898345 5:1.2358891 6:0.50400728 7:-0.41426373 8:0.92025578 9:0.44038126 10:0.69947618 11:-0.075112179 12:0.20896135 13:0.39566892 14:0.8641929 15:0.54650491 16:0.64281446 #
-1.345189434808745421179310142179 1:0.57411152 2:1.2356774 3:0.78957683 4:-0.38015306 5:0.33073363 6:0.11272295 7:0.8747288 8:0.91549504 9:0.4771435 10:-0.27319717 11:0.31567463 12:-0.0077788704 13:-0.14914575 14:0.45613748 15:0.90147394 16:0.34081215 #
-0.51349355877230329348037685122108 1:0.89772624 2:0.12264678 3:0.98485035 4:0.40904808 5:0.20221269 6:0.38028985 7:0.47825643 8:0.31592378 9:1.1097257 10:0.80348438 11:0.42996937 12:0.58182806 13:0.52009279 14:1.2045274 15:0.23478797 16:0.37670711 #
0.1569518067468006483622389168886 1:1.1980422 2:0.70240897 3:0.9653061 4:0.48109743 5:1.1275586 6:-0.27612439 7:0.32672456 8:0.28388196 9:0.26299638 10:1.3059057 11:0.92490208 12:0.13768682 13:0.051054075 14:0.061170053 15:1.8842485 16:-0.31072858 #
1.1136313289365453726986743276939 1:0.94674152 2:1.1866536 3:0.69208598 4:0.42328843 5:0.71956635 6:0.00010470914 7:0.95503271 8:1.0333579 9:0.63763833 10:0.44327945 11:0.45234448 12:0.4905555 13:0.7458452 14:0.6723969 15:1.0070709 16:0.79496467 #
0.88244633634954372514158649210003 1:1.3832258 2:1.2995574 3:0.92127913 4:0.86645359 5:0.67055142 6:0.39380091 7:0.090041257 8:0.72580719 9:0.99584883 10:-0.15597509 11:0.20049942 12:1.1580145 13:0.64703101 14:1.464396 15:0.86797178 16:1.2874075 #
-0.61214489802669791451705805229722 1:0.35121349 2:0.26930898 3:0.4065364 4:0.67622566 5:0.73499101 6:0.73917753 7:0.94375223 8:2.1320012 9:-0.097600013 10:0.93847835 11:0.13696006 12:1.5903053 13:0.19738872 14:0.014647054 15:0.41066369 16:-0.16693248 #
0.87732981675440946389699092833325 1:0.5946942 2:1.1111861 3:0.47366396 4:0.49106556 5:1.0551751 6:0.67722791 7:0.67379767 8:0.97774839 9:0.16637973 10:0.078928731 11:0.48889488 12:0.93658227 13:1.0108869 14:0.21674396 15:-0.18345957 16:0.33584183 #
-0.12752493536639158966394802519062 1:0.50323337 2:0.92282265 3:-0.88376468 4:0.79363751 5:0.59028208 6:0.85825229 7:0.81069356 8:0.47841278 9:0.82100701 10:-0.14355491 11:0.2487956 12:0.92281514 13:1.6143035 14:0.60191619 15:1.062063 16:0.32741725 #
0.79231106061682732288886654714588 1:0.9836325 2:0.043492131 3:0.0092798499 4:1.2571961 5:0.38165185 6:0.045746945 7:2.0592492 8:-0.12583007 9:0.24778806 10:-0.06393867 11:0.48894784 12:-0.065729707 13:0.29195181 14:0.48635164 15:0.30024132 16:0.1444995 #
-1.2173103507750067109327574144118 1:1.3817693 2:0.81537324 3:0.48284337 4:1.209498 5:-0.54193437 6:1.2287387 7:0.80091298 8:0.47375616 9:0.62283397 10:0.84395921 11:0.040732745 12:0.7713173 13:-0.039271336 14:0.57301342 15:0.89500815 16:0.66582841 #
-2.3062261884295787162102442380274 1:1.1051921 2:0.55940247 3:1.1037091 4:0.60374689 5:0.80281699 6:0.47084272 7:0.64326519 8:0.39220342 9:0.011974175 10:-0.0013853246 11:-0.36399856 12:1.0917733 13:0.61442757 14:0.77085549 15:0.092985205 16:0.19251375 #
-1.0391982304408193815703498330549 1:0.79630297 2:0.67126369 3:1.0396247 4:-0.65742505 5:0.36931032 6:0.80453122 7:0.86404037 8:0.77378899 9:-0.30371296 10:1.2925692 11:1.0848352 12:0.82848912 13:0.52395397 14:0.38407707 15:0.30718976 16:0.5627619 #
-0.67452528510068854306069852100336 1:0.70534343 2:1.1183829 3:1.1044791 4:1.0114665 5:0.85662037 6:0.95880884 7:0.6472882 8:0.82075244 9:1.5091548 10:0.16581406 11:0.49591303 12:1.5085163 13:1.0771335 14:-0.08817365 15:-0.22846833 16:1.1336609 #
-0.58829744339497225258384105472942 1:0.25744438 2:1.117577 3:0.71728659 4:0.64884418 5:0.6381914 6:0.53229803 7:1.0651308 8:0.64669484 9:0.3930029 10:0.69163096 11:0.75943565 12:0.1451463 13:0.6146667 14:-0.020769915 15:1.0152386 16:0.1066128 #
-5.6522129092789530346863102749921 1:1.0114158 2:0.29387385 3:1.0996016 4:0.8002075 5:0.89991641 6:0.0050875302 7:0.37869191 8:0.56171948 9:0.52993083 10:0.20469253 11:0.10478891 12:0.19966504 13:0.28466681 14:0.84684676 15:0.33261627 16:0.042514503 #
1.5760923692337134305319068516837 1:0.78555423 2:1.1717212 3:0.38788176 4:1.0691051 5:0.66217601 6:0.70347571 7:0.36553845 8:-0.18383662 9:0.12745756 10:0.28651211 11:0.36094055 12:1.2336493 13:0.26273316 14:0.73252565 15:0.68917608 16:-0.082856618 #
1.8265616200489562803710441585281 1:0.49372861 2:0.99379468 3:0.4450047 4:0.52857721 5:0.57800871 6:1.1006023 7:0.23012866 8:0.71413535 9:1.1710548 10:0.32555392 11:0.23683661 12:0.38675827 13:0.22674787 14:0.42388308 15:1.1126773 16:0.86391032 #
2.6299043244835926813607329677325 1:1.1271603 2:0.79977828 3:0.19295265 4:0.4428522 5:0.55202878 6:0.16294682 7:0.53950578 8:0.37422588 9:0.72563332 10:0.24524273 11:0.069474466 12:0.90930331 13:0.80792683 14:-0.020935278 15:0.40582931 16:0.23854794 #
-4.5997160148520404021610374911688 1:0.5811283 2:0.61812383 3:1.0859925 4:0.94264239 5:0.74094081 6:0.023310363 7:0.45494223 8:0.2503697 9:0.8870492 10:0.27521005 11:0.00067048211 12:0.16780926 13:0.89118475 14:0.1147384 15:0.59084815 16:0.84325546 #
-0.67580562733738658298676682534278 1:0.59081078 2:-0.14842887 3:0.75917304 4:0.51524591 5:0.48008567 6:0.91203773 7:0.9736678 8:0.49055845 9:0.15974271 10:0.24113126 11:0.41236743 12:0.6180172 13:0.1734872 14:0.83568019 15:0.28095895 16:0.8836993 #
-0.90362877614088810140913210489089 1:0.03518245 2:0.19364543 3:0.44878119 4:0.68408751 5:0.63637739 6:0.066149294 7:0.95579767 8:-0.11173969 9:0.70243317 10:0.68268889 11:0.51043206 12:1.1949208 13:-0.49222007 14:0.72886145 15:0.6105448 16:1.0368742 #
-3.1932280947068831800095267681172 1:0.69821906 2:0.67132264 3:0.55298597 4:0.49085402 5:0.063508496 6:0.52190948 7:0.0047745099 8:0.43160063 9:0.33188835 10:1.1605787 11:0.35034579 12:0.57575023 13:0.0091090575 14:0.70465952 15:0.68346393 16:0.97161168 #
0.10802869283855562332341548881232 1:1.3489287 2:0.80785781 3:0.75996017 4:0.43665305 5:0.99387723 6:-0.23121193 7:0.96794182 8:0.2330507 9:0.090172693 10:0.2267126 11:0.32238761 12:1.6756276 13:0.24142054 14:0.0074345013 15:1.6100582 16:0.13059875 #
-2.5101569392165909988534622243606 1:0.91633868 2:-0.10743449 3:0.093529187 4:0.39721391 5:0.53761208 6:-0.067584708 7:0.9965257 8:0.816383 9:0.45427075 10:1.1686108 11:0.51472896 12:-0.11246827 13:0.8144654 14:0.39644277 15:0.77204013 16:0.57888699 #
-2.5850856415973444413225479365792 1:0.38126904 2:0.19638701 3:0.97127813 4:0.69383842 5:0.5741111 6:0.78629482 7:0.27043971 8:0.78520221 9:0.17423032 10:0.91306764 11:0.53182364 12:0.38011035 13:1.0434294 14:0.52183199 15:0.74688637 16:0.58122814 #
1.0691505531479983392983967860346 1:1.2524698 2:0.11603296 3:0.30671045 4:0.84617555 5:0.69375372 6:0.15107986 7:0.7971738 8:1.1602862 9:0.4145425 10:0.63060707 11:0.085142143 12:0.96298546 13:0.22948727 14:0.82557797 15:0.11151342 16:0.64158899 #
0.42481988390470570848833631316666 1:0.55956 2:1.2386107 3:0.24633147 4:0.011369198 5:-0.53938949 6:0.4070794 7:0.45063785 8:0.53506863 9:0.081034131 10:1.7436887 11:0.86168844 12:0.75683963 13:0.55284905 14:0.96742135 15:1.0163413 16:1.4180758 #
1.9193588936283125789827863627579 1:0.24637273 2:0.37961698 3:0.94058806 4:0.98490244 5:0.058549624 6:0.0067725577 7:0.58654749 8:0.33267838 9:0.41746327 10:-0.39647457 11:0.28803137 12:0.28427872 13:0.35622147 14:1.0255482 15:0.24588804 16:0.66153371 #
-0.013116404051946448788834587162455 1:0.90679115 2:0.27053878 3:-0.42792118 4:1.8145956 5:0.22481629 6:1.6999992 7:1.0877841 8:0.35169005 9:-0.66180807 10:-0.093275115 11:-0.11810204 12:1.2262859 13:2.1812167 14:0.40565231 15:1.0405533 16:-0.17513168 #
0.81810103353578333962303759108181 1:1.2871621 2:0.7458778 3:0.58742023 4:1.8022859 5:0.093281932 6:0.59078091 7:0.28433889 8:0.46895289 9:0.40483069 10:1.1676695 11:1.7320884 12:0.28281072 13:0.065859109 14:0.64825785 15:0.81392127 16:0.69039327 #
-5.6371479680104190634892802336253 1:0.85720384 2:0.91426629 3:-0.016611075 4:1.1373531 5:1.0809641 6:0.26800168 7:0.6181795 8:0.29651678 9:0.83569866 10:-0.047234301 11:1.1184896 12:0.26127279 13:1.0404875 14:0.48884651 15:0.42647871 16:0.45937878 #
0.66214515106385218867757203042856 1:-0.34171572 2:0.97478724 3:0.96426779 4:1.6734014 5:0.49973333 6:0.034338649 7:0.60833341 8:0.91174018 9:0.62448114 10:0.35059977 11:-0.25508881 12:0.16486478 13:0.78490788 14:1.276931 15:1.3990219 16:0.19318059 #
1.7121816157915894507368648191914 1:0.71907812 2:0.98907506 3:0.5287568 4:0.12237554 5:1.4906877 6:0.862198 7:1.9833788 8:0.35271096 9:0.7288934 10:0.52291059 11:0.2620939 12:0.45074275 13:0.8333149 14:0.37568319 15:0.46476129 16:0.37135789 #
0.98529076779728552715198475198122 1:0.18559021 2:-0.11374521 3:1.0369782 4:0.53270048 5:0.036193222 6:0.55089039 7:-0.027757788 8:0.47973761 9:0.24211714 10:0.83388525 11:-0.46574229 12:1.0207957 13:0.22172734 14:0.45544672 15:-0.1081935 16:0.1470319 #
1.3421675219873343554155553647433 1:1.2046478 2:1.072086 3:-0.13570754 4:1.6305362 5:1.5916377 6:0.39952385 7:0.72528011 8:0.17031257 9:0.97474694 10:-0.31899124 11:1.6985284 12:0.12944943 13:0.94441676 14:0.69935519 15:0.62679976 16:0.41775903 #
2.4576277875504679570894950302318 1:0.74874449 2:0.77482623 3:0.98579365 4:-0.021621734 5:0.18441778 6:0.81969184 7:1.0693357 8:0.80151707 9:0.47670081 10:0.93001145 11:-0.13339172 12:0.24054517 13:-0.11847313 14:0.62456405 15:0.58940709 16:0.12110813 #
1.744801624520748051239138476376 1:0.62002915 2:-0.14253193 3:0.14317651 4:0.13174281 5:0.5722332 6:0.30619481 7:0.37025014 8:0.87045443 9:0.56926745 10:0.93535328 11:0.20935394 12:1.3993038 13:0.87795192 14:0.62679088 15:1.2600465 16:0.20319709 #
-2.3988845456908962638920002063969 1:0.35734457 2:0.073319085 3:0.55680782 4:-0.12275006 5:-0.055958312 6:0.2752538 7:0.19264759 8:-0.031691507 9:0.85563302 10:0.38170996 11:-0.068275064 12:0.23046567 13:1.1297139 14:0.82112533 15:0.74782193 16:0.5952552 #
0.7756042969273099219051914587908 1:0.39371222 2:1.0625373 3:0.52419275 4:0.77284318 5:0.25381389 6:0.85326457 7:0.69366801 8:1.060896 9:0.43150631 10:0.46570659 11:0.044562142 12:0.049611058 13:0.95743889 14:0.10127175 15:0.75752789 16:0.76311713 #
0.70531214501559202911806778502068 1:0.83001393 2:0.50796884 3:1.1089507 4:0.36017007 5:0.40732345 6:0.50940913 7:0.93168533 8:0.68892348 9:0.65655762 10:0.6797787 11:0.19059348 12:0.99492157 13:0.14928971 14:0.16097833 15:0.79563844 16:0.64488846 #
1.7023856765723910378085292904871 1:0.65427828 2:0.85392314 3:0.91096705 4:-0.38270885 5:1.4129839 6:0.38576767 7:0.076061465 8:0.22266537 9:0.41241741 10:-0.47506976 11:0.89814156 12:0.18939433 13:1.3517902 14:0.71223265 15:0.51602858 16:0.36190864 #
0.2199123394804133047042427051565 1:1.3785056 2:1.5594617 3:1.3807522 4:-0.15417984 5:0.064069808 6:0.72487569 7:1.3518348 8:0.0635508 9:0.25631475 10:0.77247018 11:0.15718728 12:0.31614405 13:-0.19387943 14:0.47422928 15:0.98278284 16:0.50218958 #
-0.99071732591989447591629414091585 1:1.2584541 2:-0.49983618 3:1.1253735 4:0.9079501 5:1.1060456 6:0.19117714 7:0.25250974 8:0.58676136 9:0.40808871 10:-0.22136769 11:0.18146788 12:0.2354022 13:0.48563313 14:-0.12467878 15:0.97691327 16:0.79870313 #
-2.4464559044821085898036017169943 1:0.45612288 2:1.2830626 3:0.30296817 4:1.0100808 5:-0.91492885 6:0.61913639 7:0.6607089 8:0.6037209 9:0.44505724 10:0.075640179 11:0.93442845 12:0.25763571 13:0.78574967 14:0.25867948 15:0.22956355 16:0.50262237 #
1.7117798325461333064367863698862 1:0.19451256 2:0.71321213 3:0.57532406 4:0.85008681 5:0.083624654 6:0.22391135 7:0.83023965 8:0.418053 9:0.28291339 10:1.2829839 11:0.548455 12:1.2687315 13:1.1849302 14:0.58970362 15:-0.044538051 16:1.0572067 #
-0.57908042878161170019524206509232 1:1.2992094 2:-0.77655596 3:1.5488161 4:1.4761882 5:-0.39947966 6:0.62527007 7:0.87989324 8:0.75275505 9:0.3843697 10:0.4954136 11:0.31309769 12:0.81665951 13:0.39074832 14:0.60614431 15:0.50150025 16:0.47019821 #
-0.40030832518224934712947060688748 1:0.38833559 2:0.98185301 3:0.79351062 4:0.54109168 5:0.60076076 6:0.70085579 7:0.086491369 8:-0.080942586 9:0.26921397 10:0.34974757 11:0.19256088 12:-0.25180599 13:0.4153679 14:0.16220312 15:0.047803234 16:-0.017964667 #
-0.27925067169518880128009641339304 1:-1.0220232 2:0.623927 3:0.18016711 4:1.0943455 5:-0.27444166 6:0.51543486 7:0.46194792 8:-0.042734571 9:0.10958728 10:0.89444757 11:0.75258648 12:0.24607579 13:-0.085087538 14:0.7437073 15:1.2624311 16:0.38856512 #
2.1119682252642295594569077366032 1:1.3672725 2:0.14152788 3:0.77061778 4:0.31835252 5:1.1937464 6:0.20581113 7:0.15840285 8:0.6372714 9:0.014754796 10:0.87241322 11:-0.2961888 12:0.24516958 13:0.73715371 14:1.0909019 15:0.61941463 16:0.49946681 #
-4.4290345244764983689833570679184 1:1.2972893 2:1.0691493 3:-0.16195109 4:0.93638206 5:0.66290486 6:0.36950597 7:0.0050161132 8:0.43072656 9:0.044100847 10:0.75463516 11:0.35832292 12:0.15995939 13:0.52854037 14:0.32567394 15:0.62071234 16:0.48314294 #
-2.3530443723172194125936584896408 1:0.58876342 2:1.4270468 3:1.8452815 4:0.37374648 5:0.85631824 6:0.59534341 7:0.77838248 8:0.61691028 9:0.35459793 10:0.91090488 11:0.12470078 12:1.1130749 13:0.9484421 14:0.059798289 15:0.79809803 16:0.47332832 #
0.75249963587902235495619152061408 1:0.40468717 2:0.96127373 3:1.8135294 4:-0.070602164 5:1.0904644 6:0.99854863 7:0.15763851 8:-0.55555469 9:-0.16247086 10:0.5056628 11:0.44088575 12:0.94412923 13:0.51003063 14:1.0464916 15:1.1972893 16:0.35217175 #
-3.4910575841896309690071120712673 1:0.73124409 2:0.47127119 3:0.9892441 4:1.3196788 5:1.5575489 6:0.75129247 7:0.40239662 8:0.44103694 9:0.6422419 10:0.44722441 11:0.99861979 12:0.19098198 13:0.38400099 14:1.0632201 15:0.19672626 16:0.43093655 #
0.58416162058759035780042268015677 1:0.88158172 2:1.3293929 3:1.5543553 4:-0.53451777 5:-0.63353419 6:0.7552653 7:0.37760264 8:0.62911618 9:0.27557009 10:0.83045709 11:-0.2179147 12:0.99087745 13:0.50226098 14:1.2431029 15:0.39993024 16:0.094262585 #
1.416893936817272825479108178115 1:0.866041 2:-0.025616383 3:-0.57072026 4:1.4886981 5:0.09072125 6:0.44757298 7:0.71759999 8:0.4331364 9:0.64965397 10:0.13877645 11:-0.34302056 12:0.96796441 13:0.58162534 14:0.034056284 15:0.71972895 16:0.51744795 #
-2.049527189338573140986454745871 1:0.66397941 2:1.2373664 3:0.26929811 4:0.22197556 5:-0.018985795 6:0.54628241 7:-0.28562891 8:0.53010696 9:0.43681601 10:-0.33825007 11:0.17271939 12:0.20398383 13:0.44340155 14:1.0082787 15:0.76437604 16:0.84338069 #
-0.012472669137640658015842021200115 1:1.6722549 2:-0.65677392 3:1.2433671 4:-0.87165678 5:1.8591111 6:-0.018540982 7:0.97184235 8:0.10641056 9:1.3439809 10:0.69576216 11:1.1518095 12:0.15033771 13:1.552233 14:0.28163642 15:1.086061 16:-0.28978303 #
-0.16974093953665325695823185014888 1:0.69317096 2:0.069685549 3:0.31108925 4:0.89466101 5:0.28582042 6:0.87457442 7:0.78353238 8:0.79551375 9:1.0197561 10:0.027454913 11:-0.14650474 12:0.36511976 13:0.86595881 14:0.31552833 15:0.52466226 16:0.63011259 #
-1.9969700805957035782967068371363 1:0.43793637 2:-0.036076233 3:-0.066631712 4:0.63754678 5:0.16956457 6:0.74384934 7:0.21268797 8:1.0428522 9:1.1518047 10:1.1351198 11:0.077876955 12:0.44340843 13:0.86613584 14:0.7115826 15:1.0923942 16:0.77411127 #
-0.10835326854729843137903344540973 1:0.383764 2:0.41949075 3:1.036363 4:0.63597882 5:0.97836387 6:2.0351603 7:0.56645137 8:0.74566019 9:0.043240063 10:0.6753422 11:-0.21396352 12:-0.10977001 13:0.030405791 14:0.057089549 15:1.0010939 16:0.19057532 #
0.81395243392732274934076031058794 1:-0.22460853 2:-0.16623552 3:1.8357699 4:0.67069584 5:0.48753256 6:0.19838502 7:0.60374475 8:0.54764777 9:0.54723758 10:1.2464423 11:0.20150511 12:0.90962672 13:1.1554327 14:0.54153383 15:1.033494 16:1.1495552 #
-0.49000340096413935730979005711561 1:0.64857727 2:1.233719 3:1.8082241 4:0.036571246 5:1.6705688 6:0.0063472041 7:0.31546846 8:0.5790053 9:0.84507388 10:0.33952886 11:1.0602009 12:-0.36200768 13:1.0807745 14:1.1884979 15:1.0904423 16:0.945535 #
-1.828750696099897155022517836187 1:0.71114087 2:1.0639293 3:0.37013882 4:-0.27777427 5:0.57378507 6:0.60290188 7:0.64498651 8:0.23078929 9:1.0555339 10:0.69889963 11:1.2628639 12:1.1304566 13:0.37044165 14:0.38264853 15:0.58934009 16:0.4112868 #
0.85519365062885210893028897771728 1:0.50893676 2:0.58504486 3:-0.49902606 4:-0.64570725 5:-0.83725995 6:0.1294999 7:0.17616184 8:0.67532003 9:0.98902321 10:0.74068224 11:0.9323262 12:0.77604282 13:0.66669297 14:0.13388669 15:0.55986327 16:0.15468921 #
-3.8175947776647909392977453535423 1:0.074125417 2:1.0914336 3:0.88632709 4:0.85834408 5:1.0544714 6:0.39966068 7:0.15226589 8:0.5202623 9:0.068710506 10:0.60771745 11:-0.24262461 12:0.99274778 13:0.46313462 14:0.48625961 15:0.36005738 16:1.228681 #
-0.83235888068942220918700058973627 1:0.78773445 2:0.63299584 3:0.11597297 4:-0.99544722 5:1.4874678 6:-0.030465754 7:1.1831238 8:1.4176027 9:0.53585452 10:-0.40024629 11:1.0575639 12:0.40873724 13:0.46055573 14:0.18313627 15:0.49109867 16:-0.096832395 #
0.83682490062325531887665874819504 1:1.3741354 2:1.5378164 3:1.1295618 4:0.57593369 5:0.76060444 6:0.72550708 7:0.41613176 8:0.78606117 9:0.51014423 10:0.30629534 11:0.90036333 12:0.53178906 13:-0.35320657 14:0.50649059 15:0.3511582 16:0.02971169 #
-1.7303719115974360853726921050111 1:0.74748647 2:0.6774137 3:0.24879892 4:0.89306676 5:1.0282114 6:0.68205023 7:0.29551616 8:1.0382044 9:0.53430623 10:0.018000353 11:0.57627386 12:0.60657591 13:-0.085649945 14:0.59433955 15:0.141875 16:0.47382537 #
1.085114107221558210625289575546 1:0.54581928 2:1.1356412 3:1.1098558 4:0.98105484 5:0.23164444 6:0.98203081 7:-0.23293912 8:0.61194098 9:0.13179798 10:-0.056078847 11:0.61650223 12:0.93361056 13:0.32548127 14:-0.11193512 15:0.42684951 16:0.92533314 #
-0.48046780945617573177486292479443 1:0.8685773 2:1.0575114 3:0.62390035 4:-1.120543 5:1.147055 6:0.33147252 7:-0.012557717 8:0.1411774 9:-0.3939499 10:0.22335604 11:0.099221334 12:0.46192652 13:0.58346367 14:0.60416019 15:-0.21548294 16:0.48207512 #
1.5492901403514764968605277317693 1:0.8576324 2:-0.16425727 3:0.53548384 4:0.80797589 5:-0.037334636 6:0.42125759 7:0.087323815 8:0.61374611 9:0.51540977 10:-0.058499411 11:0.2784268 12:-0.5206883 13:0.7060709 14:0.68811345 15:0.50201094 16:0.16194561 #
-2.1915444402007464574921868916135 1:0.86539549 2:0.84039468 3:0.29037362 4:0.58944345 5:0.63344651 6:0.45594567 7:0.24503231 8:0.32332289 9:0.84605116 10:0.91179061 11:0.46812209 12:0.066378832 13:0.3822504 14:0.72872716 15:-0.006047999 16:0.64068037 #
1.3050590842102347544084750552429 1:0.98848665 2:0.48018157 3:0.49252912 4:1.0401862 5:0.69080186 6:0.36250308 7:1.0867275 8:0.47621146 9:-0.098898314 10:0.34158307 11:0.38858193 12:0.47015095 13:-0.025700655 14:-0.20360652 15:0.30228364 16:0.16857973 #
-0.68657128174010828569606701421435 1:0.5466665 2:0.96401787 3:-0.47175345 4:-0.13043526 5:0.7016452 6:-0.66289109 7:1.5540516 8:0.31123966 9:0.22986235 10:0.98422104 11:0.16585317 12:0.20334192 13:0.67972571 14:0.86808556 15:0.23843133 16:0.34810889 #
-1.1765973317989926183457782826736 1:-0.015752932 2:0.34688848 3:0.57983631 4:0.065080255 5:0.035490476 6:1.0144329 7:-0.19833811 8:0.85502666 9:0.37768811 10:0.080119491 11:0.95654422 12:0.54461795 13:0.42422 14:0.4195888 15:0.24006124 16:0.93768448 #
2.0982167238324520575076803652337 1:-0.018041821 2:1.1586624 3:1.6614659 4:0.54542208 5:1.0990734 6:0.88930416 7:0.56152493 8:1.210341 9:0.45581469 10:-0.7979306 11:0.49115703 12:0.91463673 13:0.50766635 14:0.55939823 15:0.66977483 16:0.53235441 #
0.021337894454103816660461845344798 1:1.0832269 2:1.0936511 3:0.28767622 4:0.72268152 5:1.5901766 6:0.1653683 7:0.57363671 8:0.2467695 9:1.8196149 10:1.0033541 11:1.0017588 12:0.087999322 13:0.10019608 14:0.14572141 15:0.44757664 16:1.4619824 #
0.12312187252869928599796622847862 1:1.3703561 2:0.44583377 3:0.64926988 4:0.39383778 5:-0.020352168 6:1.502912 7:0.4321461 8:0.33224854 9:0.60066062 10:0.23464084 11:0.27764115 12:1.4169239 13:-0.19066274 14:1.5089852 15:0.90453947 16:1.3115112 #
-2.3436662482283576736108443583362 1:0.27936432 2:0.18198012 3:-0.14453892 4:0.71814704 5:0.02753811 6:0.53508139 7:0.47282314 8:0.087395571 9:0.80362827 10:0.93573731 11:0.031822398 12:0.23567845 13:0.56051528 14:0.17694855 15:0.10747737 16:0.17917138 #
-2.8489940917227287719981632108102 1:0.39572755 2:0.99535275 3:0.25827223 4:0.59274125 5:-0.26234928 6:0.10690735 7:0.79510152 8:0.71155262 9:0.80404276 10:-0.019406101 11:0.28432688 12:0.67495149 13:0.19605644 14:0.32145491 15:1.0234345 16:0.52618742 #
0.71031640591140987606166845580447 1:-0.42248225 2:1.5182337 3:0.57137442 4:0.52583313 5:0.13485941 6:0.67950845 7:1.0131316 8:0.25227273 9:-0.21573177 10:0.52723026 11:0.13305648 12:0.37067437 13:1.4138969 14:1.0490534 15:0.35036379 16:0.63932472 #
-2.1544690679808518041227216599509 1:0.76750731 2:1.0456184 3:1.1220185 4:0.064795896 5:1.0336692 6:0.6143164 7:0.28253692 8:1.1822765 9:0.32953361 10:1.0428429 11:0.84410417 12:0.0060876599 13:0.25535288 14:0.4199205 15:0.30372319 16:0.3091515 #
-0.41442972045322062912831029279914 1:1.3591224 2:1.169035 3:-0.15142593 4:2.2270472 5:2.2197554 6:0.54108447 7:0.775258 8:0.06513375 9:1.1077201 10:-0.76097256 11:2.1802678 12:-0.031201079 13:0.86915743 14:0.82882178 15:0.5457049 16:0.42547899 #
-2.9096154333415378268057338573271 1:0.3497161 2:1.1008683 3:0.53197306 4:0.31657094 5:0.081609607 6:0.76188517 7:0.51539624 8:0.71320558 9:0.75669062 10:-0.17513472 11:0.44715339 12:-0.086066321 13:0.29028437 14:0.75896269 15:0.27411294 16:-0.13529156 #
0.57657300111617537652364262612537 1:0.74106359 2:0.31267214 3:0.90863222 4:0.82710755 5:0.24345538 6:0.46182001 7:0.57177752 8:0.018061522 9:0.34128544 10:0.37354892 11:0.30681777 12:0.85253924 13:0.8912273 14:0.34412125 15:0.22760864 16:-0.2507706 #
-0.3031306379337874723489676398458 1:0.84567142 2:1.0919325 3:0.84624988 4:0.24389611 5:1.5728667 6:1.0719384 7:2.8239572 8:0.34694073 9:0.85978007 10:0.47067606 11:0.52721018 12:0.45224065 13:0.93141454 14:0.13741562 15:0.62818694 16:0.35986924 #
1.7280394238536256334981544569018 1:1.2421283 2:0.82454026 3:0.93023711 4:1.17784 5:0.14444222 6:0.3650924 7:0.1944243 8:0.53682834 9:0.4971883 10:1.1287268 11:1.4329507 12:0.035438303 13:0.12450223 14:0.86468005 15:-0.4464857 16:0.13137187 #
1.1527905101347757366170299064834 1:0.70636839 2:0.56888449 3:0.21528025 4:0.38989449 5:1.1052175 6:0.40055528 7:0.221673 8:0.81373835 9:0.34409761 10:1.0637231 11:0.54466105 12:1.1875691 13:1.1826125 14:0.066785529 15:0.71590364 16:1.0433382 #
1.5799536959733400109939793765079 1:0.62281221 2:0.6038456 3:0.95966899 4:1.0168443 5:0.41205651 6:0.87433922 7:0.57888275 8:0.46912014 9:-0.036982682 10:-0.023032174 11:1.2801524 12:0.40116042 13:0.63803732 14:0.30140966 15:-0.12540117 16:0.51653355 #
0.12495785027163761049529000501934 1:0.49831009 2:0.6369583 3:0.89670622 4:0.61953294 5:-0.51538479 6:1.1034377 7:0.34077305 8:-0.2294604 9:0.54385561 10:1.1426868 11:0.19233999 12:0.38439295 13:1.0052387 14:-2.0393224 15:1.1305861 16:1.8181648 #
5.4527591945548943286325993540231 1:-0.28988349 2:0.534428 3:0.31410766 4:-0.086040348 5:1.0094247 6:-0.27819774 7:-0.17157716 8:0.5002892 9:0.26100099 10:0.29346439 11:0.89690393 12:0.59198302 13:0.79547131 14:0.18941924 15:0.63211906 16:0.31574747 #
2.3516292526916604543885114253499 1:-0.17947657 2:0.48768675 3:0.64463681 4:0.70128387 5:-0.0863389 6:0.458206 7:0.4180395 8:0.71804231 9:0.97662985 10:0.95724851 11:-0.18462819 12:0.81053728 13:0.10619821 14:0.078854702 15:0.850254 16:0.3987363 #
0.77483705213896170160836618379108 1:1.1680905 2:1.0746586 3:0.47958606 4:0.10676184 5:1.0519055 6:0.28662243 7:0.70408142 8:-0.12064334 9:0.66710854 10:0.67839104 11:0.2676529 12:-0.13007097 13:0.9717893 14:0.40342471 15:0.029081441 16:1.0629648 #
-2.533664925118519484215084958123 1:0.092385665 2:1.2723745 3:1.4007638 4:0.70509851 5:1.3056692 6:0.79284596 7:0.59776181 8:0.088172644 9:0.49341685 10:0.90411097 11:0.044182107 12:0.37916839 13:0.072479948 14:0.92440885 15:0.51364923 16:-0.025381904 #
-2.3032242298828151660927687771618 1:1.1163502 2:1.4124355 3:-0.21415253 4:0.82231975 5:-0.02681054 6:0.74328858 7:0.92929298 8:0.56666476 9:0.014887655 10:0.84731477 11:0.64412969 12:0.65899199 13:-0.21733491 14:0.95798147 15:0.73981291 16:0.28476888 #
1.7663951296938968926752977495198 1:-0.6645956 2:0.61037117 3:0.77498102 4:0.028361714 5:1.2473902 6:0.27755344 7:0.71619457 8:0.64448822 9:0.29472879 10:-0.4803898 11:-1.3343093 12:1.0181363 13:1.7010063 14:0.77406812 15:0.76951617 16:0.30460611 #
1.6736986700525691151852925031562 1:0.378326 2:0.82971591 3:-0.60730928 4:-0.32325664 5:-0.68618721 6:0.20860834 7:0.24838613 8:0.72408152 9:0.24018762 10:0.85067981 11:0.29701671 12:-0.14638695 13:0.029283447 14:0.74032617 15:0.42407864 16:0.7094146 #
0.18852551100540360096147196600214 1:0.85416657 2:1.0740072 3:0.38015327 4:0.81563622 5:1.1492472 6:0.84760898 7:0.20861879 8:0.51297683 9:0.44122529 10:1.3692119 11:1.7495643 12:1.5372641 13:-0.070763193 14:0.48862922 15:0.33099374 16:-0.27928874 #
1.3851898642838964548218427808024 1:-0.017985512 2:0.82748204 3:-0.12546393 4:1.1130979 5:0.61730069 6:1.1268704 7:-0.16315053 8:0.34931058 9:0.88348591 10:0.78680909 11:-0.054428365 12:0.45260984 13:0.20983945 14:0.031851646 15:0.092664778 16:0.099753216 #
-4.5873595053847697755600165692158 1:0.93544304 2:0.78552598 3:1.1293241 4:0.41348702 5:0.67104298 6:0.69264489 7:0.59869957 8:0.26647678 9:0.80946428 10:-0.32443622 11:-0.5473063 12:0.45450547 13:0.16740631 14:0.42932817 15:0.56967032 16:0.97734725 #
-4.0373519440889120701854153594468 1:-0.064117022 2:0.93770975 3:0.86392277 4:0.31742859 5:0.63070589 6:0.22913092 7:-0.066024102 8:0.8972367 9:0.44465593 10:0.57003242 11:0.18052484 12:0.88047272 13:0.57220143 14:0.15969704 15:0.43885979 16:-0.093310155 #
