SVM-light Version V6.20
2 # kernel type
3 # kernel parameter -d 
0.4 # kernel parameter -g 
1 # kernel parameter -s 
1 # kernel parameter -r 
empty# kernel parameter -u 
16 # highest feature index 
29 # number of training documents 
1001 # number of support vectors plus 1 
0 # threshold b, each following line is a SV (starting with alpha*y)
-8.0887241128875686513310938607901 1:1.061717 2:0.021073332 3:0.35974947 4:0.91743553 5:0.45058477 6:0.49695575 7:0.58252829 8:0.46124688 9:0.49716765 10:0.9653818 11:-0.26669309 12:0.68005186 13:0.50269169 14:0.44890705 15:0.50683624 16:0.49785927 #
-14.354947875303230020449518633541 1:0.35961103 2:0.58976299 3:0.52430081 4:0.38768828 5:0.53133243 6:0.49938303 7:0.421009 8:0.53141522 9:0.50012827 10:0.35979378 11:0.69256365 12:0.43875071 13:0.50471121 14:0.51616699 15:0.49713227 16:0.49998561 #
4.9583915016516906248966733983252 1:0.57289845 2:0.85557514 3:0.39887735 4:0.46006152 5:0.052092917 6:0.5544461 7:0.88883764 8:0.35640997 9:0.48259106 10:0.87464207 11:0.074483834 12:0.59536344 13:0.64825588 14:0.47640073 15:0.46695113 16:0.49635217 #
6.9390868712328055423199657525402 1:0.69836372 2:-0.21656616 3:0.64594692 4:0.47933948 5:0.93769407 6:0.41898108 7:0.28369945 8:0.57323617 9:0.50964868 10:0.45604298 11:0.21253484 12:0.43769443 13:0.40348655 14:0.51352662 15:0.51862001 16:0.49348161 #
4.1663928014187501247533873538487 1:0.82343352 2:1.2354937 3:0.086276025 4:1.2512411 5:-0.096151836 6:0.5870719 7:0.3969011 8:0.55876702 9:0.51480645 10:0.37318978 11:0.6206463 12:0.54212707 13:0.50528443 14:0.49024174 15:0.51431823 16:0.49377927 #
3.5335898885964831528383456316078 1:-0.10962103 2:0.23387676 3:0.84686476 4:-0.20774932 5:0.99459857 6:0.47420818 7:0.62079495 8:0.42644733 9:0.46296847 10:0.96761858 11:0.39163214 12:0.76179785 13:0.63718224 14:0.42401323 15:0.47191361 16:0.5225814 #
1.8141662444621902139374469697941 1:0.58612984 2:0.68609798 3:1.0448498 4:0.31353831 5:0.98506218 6:0.46716413 7:0.7096265 8:0.43469238 9:0.54469633 10:0.51960671 11:-0.30534372 12:0.47040692 13:0.45998031 14:0.49860364 15:0.53158545 16:0.46195543 #
-1.5092857803465316024471576383803 1:0.38547271 2:-0.095584467 3:-0.068697825 4:0.70659012 5:0.19391167 6:0.53053296 7:0.21099322 8:0.5693953 9:0.4239144 10:0.94975805 11:1.0110945 12:0.87625551 13:0.66997486 14:0.41505367 15:0.45385906 16:0.56170338 #
4.0930479837039328572245722170919 1:1.1515514 2:0.059956536 3:0.20952843 4:0.97585171 5:0.17539051 6:0.60276878 7:0.86213636 8:0.39397761 9:0.50545979 10:0.052155707 11:0.66190219 12:0.26423365 13:0.72343439 14:0.59722888 15:0.44679233 16:0.51314795 #
-1.4259275121364853866623434441863 1:0.23608011 2:0.9259941 3:0.54669619 4:0.19668575 5:0.42376754 6:0.33089224 7:-0.21887113 8:0.74949175 9:0.48149428 10:1.0429611 11:0.041227661 12:0.62594306 13:0.17013028 14:0.43065026 15:0.5571239 16:0.47818553 #
5.1079093509235624637199180142488 1:0.76066422 2:0.12270703 3:0.085972361 4:0.015353221 5:0.29224426 6:0.42588869 7:0.6621235 8:0.39731038 9:0.5074864 10:0.76530689 11:0.17719269 12:-0.075343125 13:0.067452997 14:0.58986652 15:0.51428181 16:0.46163467 #
5.036806012548322719624138699146 1:0.38325351 2:0.44004998 3:0.97814143 4:1.1421714 5:0.59856921 6:0.56164926 7:0.25107527 8:0.62791103 9:0.49504423 10:0.48494992 11:0.26843649 12:1.2363955 13:1.0353503 14:0.39700553 15:0.5099833 16:0.51116449 #
1.1531803979126711290348339389311 1:0.59679991 2:0.25316197 3:0.90835518 4:0.80325788 5:0.52064484 6:0.65927076 7:1.27048 8:0.186808 9:0.54497594 10:0.63530517 11:0.77509487 12:0.78211361 13:0.93691444 14:0.5411396 15:0.51256144 16:0.49249253 #
-3.0626580535582115238923961442197 1:0.74006677 2:0.39404517 3:0.11085872 4:0.4069137 5:0.20496812 6:0.47948417 7:-0.21443474 8:0.84724188 9:0.35979894 10:0.061256211 11:-0.11999317 12:0.34560677 13:0.73589271 14:0.41876116 15:0.31321737 16:0.57713687 #
-2.9146800341370759923620425979607 1:0.37443131 2:0.68718386 3:0.59754288 4:0.8488397 5:0.96166593 6:0.30151883 7:0.56890154 8:0.42314053 9:0.68366235 10:0.99134535 11:0.77923292 12:0.75123835 13:-0.24205221 14:0.56961513 15:0.82644498 16:0.37603667 #
4.3432724597726872772796014032792 1:0.38096035 2:0.25723091 3:0.2396616 4:1.1817603 5:0.46943107 6:0.90942484 7:0.66621435 8:0.37550315 9:0.62295592 10:0.65794301 11:0.22929314 12:0.53495991 13:-0.056018203 14:0.43718135 15:0.69538873 16:0.48665053 #
3.0831467644343932832384780340362 1:0.11542558 2:0.1866596 3:1.0450985 4:0.57973623 5:-0.11949394 6:1.1105032 7:0.24464539 8:0.59121913 9:0.34380969 10:0.66064948 11:0.12774873 12:0.078643963 13:0.41015545 14:0.43082324 15:0.5178299 16:0.46494097 #
-3.4666807912901704824548687611241 1:1.0934775 2:0.6339888 3:0.019636547 4:0.30543754 5:0.91707546 6:-0.21092327 7:0.54953814 8:0.50888151 9:0.60667503 10:0.55574232 11:0.49138996 12:0.93272614 13:0.73766226 14:0.56748718 15:0.43396497 16:0.52811342 #
1.1929012381966164202395930260536 1:0.89457846 2:0.36452571 3:0.42488846 4:0.48777631 5:0.49423927 6:0.75674903 7:0.55565542 8:0.53060448 9:1.1794006 10:0.38269946 11:0.2204037 12:0.91986889 13:0.75230098 14:0.019991562 15:0.21132094 16:0.99545884 #
-0.78289264480927922562614185153507 1:0.47574213 2:0.29233384 3:0.49731907 4:0.69235581 5:0.40755662 6:0.17442527 7:0.34002268 8:0.51334774 9:-0.33066073 10:0.8079614 11:0.3718451 12:0.33505976 13:0.68254834 14:0.97811562 15:0.68600923 16:0.010270288 #
-7.6339757846660845075348333921283 1:0.99956125 2:0.875974 3:0.28030267 4:0.85410374 5:0.90835834 6:0.45198464 7:0.92424721 8:0.31696025 9:0.29115489 10:0.015603021 11:0.11544289 12:0.27012989 13:0.22671868 14:0.71173239 15:0.55480784 16:0.35003474 #
2.0260613032478529405011613562237 1:0.82019413 2:0.52869278 3:0.57645714 4:0.5014782 5:0.64681476 6:1.0487103 7:0.31905445 8:0.46412495 9:-0.27544725 10:0.56078464 11:0.28275302 12:0.79225457 13:0.20402041 14:0.4163081 15:0.075549953 16:0.59170002 #
-1.7725449361401759418299661774654 1:0.25174299 2:0.31227887 3:0.43288979 4:0.69267344 5:0.35999063 6:0.038817015 7:0.56376779 8:0.5690943 9:1.4551821 10:0.45254436 11:0.27408394 12:0.30007601 13:0.55786496 14:0.48292387 15:0.94082016 16:0.45924523 #
-5.3899400079743982061586393683683 1:1.0074325 2:0.47484586 3:1.1042153 4:0.78722966 5:0.060047183 6:-0.13686749 7:0.14950654 8:0.65607208 9:0.64355594 10:0.64696187 11:0.51465034 12:0.37073594 13:0.59913188 14:0.64905363 15:0.53667754 16:0.26219779 #
-0.44655525363126474802655252460681 1:0.06718196 2:0.26083648 3:0.83434451 4:0.73775643 5:0.60090148 6:0.003362332 7:0.40947479 8:0.47701743 9:0.43223658 10:0.28060368 11:0.44039643 12:-0.12160902 13:-0.05555179 14:0.80809355 15:0.63790536 16:0.064826496 #
-0.44568608594973302405861659281072 1:0.27829394 2:0.10162765 3:0.38977057 4:0.53349322 5:0.51262367 6:0.092227198 7:0.87902194 8:0.3136014 9:0.23170097 10:0.36358958 11:0.068682194 12:0.33765814 13:0.80125624 14:0.50400013 15:-0.24139179 16:0.47021818 #
1.4420340885531468533287124955677 1:0.26681012 2:0.49785492 3:0.13109468 4:1.0374538 5:0.28719592 6:-0.073401123 7:0.48925292 8:0.47274634 9:0.53793353 10:0.70575213 11:0.31986135 12:0.64933872 13:0.14955316 14:0.41011885 15:0.010725783 16:0.60450679 #
0.24483665999873757690430409184046 1:0.94336849 2:0.29222459 3:0.38615334 4:0.20289567 5:0.65907395 6:1.1202462 7:0.40059161 8:0.5011155 9:0.74140513 10:0.84772915 11:0.3454825 12:0.30634582 13:1.1945639 14:0.66579664 15:0.91426879 16:-0.014518876 #
-7.2052211221484334657816361868754 1:0.49339059 2:0.89748156 3:0.038992658 4:0.84225392 5:1.1723788 6:0.75404209 7:0.15037373 8:0.81904101 9:0.73667866 10:0.49861813 11:0.16844328 12:0.61838257 13:0.74012738 14:0.59761792 15:1.0561992 16:0.42617023 #
-3.6204947812332815004765507183038 1:0.15218626 2:0.3383292 3:0.16525994 4:0.72215563 5:0.85974979 6:1.0292284 7:0.75473076 8:0.76497453 9:0.074369133 10:0.7983638 11:0.21762945 12:0.21760294 13:0.80851156 14:0.61783171 15:0.53638673 16:0.77294892 #
0.8639383333621595273399407233228 1:0.86122179 2:0.49602976 3:0.38182268 4:0.57708424 5:0.44182149 6:0.59282488 7:0.11198147 8:-0.020104187 9:0.79739022 10:0.60368586 11:0.37202996 12:0.67995143 13:0.30064651 14:0.40560743 15:0.12054489 16:-0.28635085 #
1.6212715009415219480359837689321 1:0.83801979 2:0.47241917 3:0.47514725 4:0.681871 5:0.35545763 6:0.3459619 7:0.53206497 8:1.1247555 9:0.23969173 10:0.62568164 11:0.38727826 12:0.44875583 13:0.30142057 14:0.55438626 15:0.94903874 16:1.3564581 #
-0.20164738287734654265115352700377 1:0.71456361 2:0.52640444 3:0.53278041 4:0.85534924 5:0.79170716 6:0.61510485 7:0.31857184 8:0.68837172 9:0.88277632 10:0.90326202 11:0.42476711 12:-0.11109703 13:0.65900373 14:0.49820483 15:-0.090174228 16:0.53407538 #
-4.6722765858646626568884130392689 1:1.2518454 2:0.48943245 3:0.83380872 4:0.34356824 5:0.36539689 6:0.74209642 7:0.35104269 8:0.75240463 9:0.32512942 10:1.0455804 11:1.0594847 12:0.66322809 13:0.468822 14:0.72895569 15:0.34832489 16:0.66282952 #
1.0051903562500712485672238472034 1:0.80975682 2:0.61902964 3:0.5921461 4:0.45440745 5:0.6619308 6:1.062259 7:0.42075413 8:0.80622143 9:0.50834626 10:0.82609397 11:0.14320737 12:0.29162458 13:0.26511106 14:1.2022649 15:0.3476271 16:0.46882823 #
-4.1465052385934333400996365526225 1:0.063915335 2:0.43955496 3:0.44912866 4:0.30892485 5:0.16707227 6:0.37342498 7:0.82470101 8:0.74861097 9:0.59193832 10:0.4526974 11:0.23017406 12:0.78974998 13:0.29918173 14:1.2044531 15:0.38123661 16:0.74359477 #
0.022346550661866321912940591687402 1:0.35140041 2:0.76271278 3:1.2043085 4:0.91458923 5:0.33617917 6:0.48276567 7:0.42916119 8:0.33764118 9:0.21595567 10:-0.060247477 11:0.2313422 12:0.75469774 13:0.070071615 14:0.31656057 15:0.61324817 16:0.96227986 #
-5.6598187213792128247291657316964 1:0.014467502 2:0.49409759 3:-0.15439199 4:0.15982679 5:0.18436247 6:0.45493075 7:0.29633936 8:0.63133878 9:0.58226699 10:0.91792077 11:0.30763772 12:0.42633089 13:1.0146419 14:0.34443557 15:0.21790965 16:0.1956529 #
-0.49328800482404816518666734737053 1:0.67425865 2:0.45791191 3:-0.028518312 4:0.58572108 5:0.54064143 6:0.23485202 7:0.78759807 8:0.55085897 9:0.85484558 10:0.67117554 11:0.48086709 12:0.15642898 13:1.0304508 14:1.2207481 15:0.53329134 16:0.61831373 #
2.4657430176980388303320523846196 1:0.62656426 2:-0.039047156 3:0.18766586 4:0.60558814 5:0.99559754 6:0.41994601 7:0.13691148 8:0.49767384 9:0.71544552 10:-0.071762644 11:1.3077826 12:0.33787525 13:0.29787707 14:0.70818728 15:0.14226429 16:0.57002759 #
2.8980249619429270246939722710522 1:0.96117139 2:0.17800611 3:0.33489928 4:1.0011932 5:0.54737902 6:0.28571081 7:0.03365732 8:0.50053972 9:0.28031993 10:0.26742283 11:0.87539411 12:0.80167568 13:0.15356681 14:-0.19135165 15:0.89084095 16:0.4232654 #
-1.4523623538823793310825749358628 1:0.88819224 2:0.39508346 3:0.62361771 4:0.3545647 5:0.32200047 6:0.74352121 7:0.42177254 8:0.71812052 9:0.33904484 10:0.10240063 11:0.28599483 12:0.87310338 13:-0.045714095 14:0.55663604 15:1.2250786 16:0.13069612 #
-1.2719475757856759656760914367624 1:0.38542727 2:1.327673 3:0.20340049 4:0.46698394 5:0.87103736 6:0.30582944 7:0.44245586 8:0.50750661 9:0.24258021 10:0.57498586 11:0.37662682 12:0.60554987 13:0.75508815 14:0.58754563 15:-0.12600991 16:1.0691037 #
-1.3726099728757146234414676655433 1:0.24311848 2:-0.12930518 3:0.31045797 4:0.17748334 5:0.55351394 6:1.0056311 7:0.53660947 8:-0.016031314 9:0.93965644 10:0.19307776 11:0.195274 12:0.75635552 13:0.491745 14:0.84918493 15:0.31313568 16:0.48455614 #
-0.31108308773845982919681318890071 1:0.55374777 2:0.33834806 3:0.4612222 4:0.70832753 5:0.70579755 6:0.24989492 7:0.84739554 8:0.44269037 9:0.39718673 10:0.81215221 11:0.43443418 12:0.17228512 13:0.59186935 14:-0.48130822 15:0.68370539 16:0.19394399 #
-10.361025699220732576577574945986 1:0.25882658 2:0.31096452 3:0.036527596 4:0.81356776 5:1.0161841 6:0.46543896 7:0.21656094 8:0.41051203 9:0.35214391 10:0.20909686 11:0.082969002 12:0.97299612 13:0.52782011 14:0.94159698 15:0.19110866 16:0.063300498 #
-2.8152976277509131897147653944558 1:0.49307805 2:0.35213947 3:0.73399448 4:-0.10570647 5:0.14314911 6:0.36246863 7:1.0884761 8:0.39011061 9:0.77037907 10:0.53151816 11:0.73417997 12:-0.016193051 13:0.84347147 14:0.3987729 15:0.99659157 16:0.94926304 #
0.882382695374103409591270974488 1:1.0085111 2:0.51425642 3:0.606089 4:-0.17007576 5:1.0657135 6:0.28255945 7:0.041722655 8:-0.050373476 9:0.23964061 10:0.51389009 11:0.45129433 12:0.3352471 13:0.31605795 14:0.67553645 15:0.64552546 16:0.68398118 #
0.35082380641840982260504233636311 1:0.59286445 2:0.35585952 3:0.55934334 4:1.0471426 5:0.06188146 6:0.78239584 7:0.54457068 8:0.8833425 9:0.37888187 10:0.42637056 11:0.38470715 12:0.20126529 13:1.3380679 14:0.20826571 15:0.29716662 16:0.76681077 #
2.2178051947405683641534324124223 1:0.63445723 2:0.16474892 3:0.54568291 4:0.69509631 5:0.55113131 6:0.48180088 7:0.91586322 8:1.3360357 9:0.83547634 10:0.68988967 11:0.45486835 12:0.82276291 13:0.38242498 14:0.521056 15:0.26513803 16:0.072774678 #
0.97114816231965817028282117462368 1:0.78746271 2:0.58310515 3:0.44394982 4:0.89447707 5:0.23303905 6:0.40185037 7:0.29988012 8:-0.26074114 9:0.37972838 10:0.32748443 11:0.41799584 12:1.0414262 13:0.64319503 14:1.1190082 15:0.84504247 16:0.67339367 #
0.97693936310324414051819985616021 1:0.89908195 2:0.33825341 3:0.67654848 4:-0.21359695 5:0.85448033 6:0.65508246 7:0.51456881 8:1.1035819 9:0.50395274 10:0.2361024 11:0.35475916 12:0.13736859 13:0.43120548 14:-0.043725256 15:0.24622251 16:0.3759062 #
1.3417814589185230733647813394782 1:0.22391389 2:0.094117448 3:0.71089476 4:0.63936794 5:0.3482016 6:0.61198938 7:-0.11906178 8:0.69922471 9:0.82311648 10:0.8968004 11:0.21157502 12:0.8480379 13:0.71401191 14:0.99721789 15:-0.11461348 16:0.77095836 #
4.7260670573785850123726959282067 1:0.76681364 2:-0.060835157 3:0.45563069 4:0.1495433 5:1.0544493 6:0.7453478 7:0.92035753 8:0.66540879 9:0.030414356 10:0.03686614 11:0.75999796 12:0.87807018 13:0.74830067 14:0.59881133 15:0.81261563 16:0.40559372 #
-0.23384113536303766101021039958141 1:1.0160811 2:0.48919907 3:1.0787756 4:0.40678212 5:0.57718235 6:1.3976471 7:0.013085545 8:0.40184212 9:0.80263978 10:-0.30700746 11:0.67240393 12:0.30213475 13:0.9570238 14:1.1419637 15:0.54497266 16:1.1841589 #
0.14582226363850311900982603674493 1:-0.12830348 2:1.092273 3:0.25704724 4:1.4505957 5:-0.20236292 6:0.36386061 7:0.42274317 8:0.42674237 9:0.89842558 10:1.1421866 11:0.39905283 12:0.55655032 13:0.30706671 14:0.95035595 15:0.48780829 16:0.1972764 #
0.34707197297711189776237006299198 1:0.32182893 2:0.2687932 3:0.61832243 4:0.37648529 5:0.83997756 6:0.20768248 7:0.28098917 8:1.1594851 9:0.38714573 10:0.57240129 11:0.35157794 12:0.019152997 13:0.71690279 14:0.38995621 15:1.3000947 16:0.38850212 #
-2.8094025136446139079282602324383 1:0.62111354 2:0.47553414 3:-0.14843124 4:0.58774722 5:0.73905963 6:0.78984982 7:0.11310802 8:-0.23347297 9:0.56676674 10:0.74020344 11:0.35011873 12:0.46792355 13:0.53348595 14:0.31303698 15:0.60804915 16:1.0722817 #
-1.9200010418150981195140047930181 1:0.66901755 2:0.3825894 3:1.0152436 4:-0.010539528 5:0.034180593 6:0.39952651 7:0.70329446 8:0.65973252 9:0.27923858 10:0.085370816 11:0.33852741 12:0.65322298 13:0.81812984 14:0.64323342 15:0.12524307 16:-0.18540879 #
-1.813959501572733223895284027094 1:0.71801466 2:-0.02210911 3:0.4077639 4:0.20027345 5:0.60205036 6:0.024143411 7:0.83084857 8:0.50081545 9:-0.12677222 10:0.76405102 11:0.50491518 12:0.87050211 13:-0.034468468 14:0.13358656 15:0.44561926 16:0.060197655 #
-3.0262091041627168230832012341125 1:0.47945744 2:0.57656431 3:-0.11455902 4:0.40855372 5:-0.065874271 6:0.88194084 7:0.13580175 8:0.31758845 9:0.32155359 10:0.37078652 11:0.90951163 12:0.35134247 13:-0.053629804 14:0.90352762 15:0.36167833 16:0.38264322 #
0.96702443879657196124099982625921 1:0.88135487 2:0.27093413 3:1.0833449 4:1.1094874 5:0.623505 6:0.47385779 7:0.36167908 8:0.041141428 9:0.74570191 10:0.3721917 11:0.12096227 12:0.14033771 13:0.50372964 14:0.97314656 15:0.35067129 16:0.79187685 #
1.6040718892693324182374681186047 1:0.62861305 2:0.023469023 3:0.88756758 4:0.028816648 5:0.53818321 6:-0.026067527 7:0.12504289 8:0.31193909 9:0.59088302 10:0.51878911 11:0.34859392 12:0.33324021 13:1.1169329 14:0.015008556 15:0.4409577 16:1.0170649 #
1.4228619379158216062819519720506 1:1.1108818 2:0.39522091 3:0.66681612 4:0.47668552 5:0.40185952 6:0.28250921 7:0.91007525 8:-0.00016119985 9:0.5558899 10:0.39433578 11:0.44946733 12:0.62202197 13:-0.097646952 14:0.33005047 15:-0.168354 16:0.85957044 #
3.0316072711516612869786513329018 1:0.6022836 2:0.31552967 3:0.82225478 4:0.024368409 5:0.95994139 6:0.10699234 7:0.24596597 8:0.77371049 9:0.98020798 10:0.10717189 11:0.64395756 12:1.1614347 13:0.21996972 14:0.52655935 15:0.7121228 16:0.53647989 #
2.8198085858371975120917340973392 1:0.98416877 2:0.22420403 3:0.082412228 4:1.0685773 5:0.28768641 6:0.66139627 7:-0.14967591 8:0.82461214 9:0.7003845 10:0.57173687 11:0.43485412 12:0.055999562 13:0.32334 14:0.53663325 15:0.90030038 16:0.069192469 #
0.51319202959996612634085977333598 1:1.0044669 2:0.32553682 3:-0.28361231 4:0.38218886 5:-0.045442283 6:0.60710526 7:-0.90953702 8:1.2860069 9:0.2089501 10:-0.22967553 11:-0.54950756 12:0.02997753 13:0.97131115 14:0.36362931 15:0.3015663 16:0.48810804 #
-1.7631611883110727134749140532222 1:0.76310474 2:1.0113529 3:1.5181543 4:-0.074948758 5:1.2409382 6:0.44733557 7:0.58561355 8:0.36751977 9:0.45141926 10:0.06363114 11:-0.8169229 12:0.51918036 13:0.65978128 14:0.68268085 15:0.43480343 16:0.55192977 #
-0.40417139966077864077220738181495 1:0.249239 2:0.11311472 3:0.45361081 4:0.5802384 5:0.70058089 6:0.14548099 7:0.76014298 8:-0.3111276 9:0.62405688 10:1.2836282 11:0.39395484 12:0.37640586 13:0.45040831 14:0.77745283 15:0.5474897 16:0.3836202 #
2.379703605221134221636702932301 1:0.60335141 2:0.49244335 3:0.49344149 4:0.82213831 5:0.63513952 6:0.12056854 7:0.48284134 8:0.64773035 9:0.73504531 10:1.4076018 11:0.14390346 12:0.60834378 13:0.98326814 14:0.41370213 15:0.96246135 16:0.84081745 #
-2.4887083857724956459378518047743 1:0.27899677 2:0.26646242 3:0.18719977 4:0.58650327 5:0.89413518 6:-0.075735673 7:0.55999309 8:0.33635768 9:-0.066291116 10:0.27750847 11:0.14418718 12:0.90678465 13:0.86835104 14:0.15079239 15:0.69659686 16:1.1237397 #
1.1290507135649279213396312115947 1:0.13396536 2:0.041534118 3:0.70595157 4:0.80856693 5:0.95901871 6:0.7806865 7:0.10843762 8:0.032316778 9:0.46198347 10:0.39049762 11:0.1778329 12:0.37553319 13:0.92933607 14:-0.055009983 15:0.5002355 16:0.023007216 #
0.65536520606241044362150205415674 1:0.011833075 2:-0.12378032 3:0.75982028 4:0.86111784 5:0.95469618 6:0.39067465 7:0.93416733 8:0.16556422 9:0.30774471 10:0.34978747 11:0.68642926 12:0.20731179 13:0.29207045 14:0.25790343 15:0.96146739 16:1.1691271 #
-0.3461574487371917308031754600961 1:0.31999862 2:0.59451586 3:0.34048921 4:0.96163487 5:0.12729961 6:0.40367672 7:0.64915484 8:0.50836575 9:0.10102423 10:0.58876461 11:0.63102508 12:1.3503772 13:0.77267081 14:0.43650472 15:0.3528893 16:-0.26533937 #
2.9690722082982348162261132529238 1:1.1683375 2:0.60617226 3:0.24245541 4:0.36016414 5:0.630247 6:0.14727424 7:0.23205523 8:0.93684894 9:0.0029275296 10:1.0169886 11:0.13521491 12:0.43297032 13:0.751248 14:0.063415416 15:0.20999892 16:0.26573148 #
0.5619189273569082931913953871117 1:1.1085895 2:0.88912582 3:0.61823809 4:0.63015038 5:0.29242289 6:0.85173261 7:0.76696217 8:0.39824799 9:1.2334962 10:0.88056171 11:0.52173835 12:0.075710312 13:0.16308101 14:0.080821984 15:0.88044304 16:0.51074886 #
2.5135591746593886064431444538059 1:1.0484755 2:0.17997973 3:0.12136818 4:0.75470901 5:0.30414292 6:0.60283083 7:0.42393002 8:0.65124446 9:0.52800477 10:0.36033902 11:0.37082553 12:1.0495075 13:0.089251772 14:1.0013101 15:0.32692412 16:0.9997406 #
-0.62021642303232626947107064552256 1:0.31453878 2:0.92519331 3:0.86407441 4:0.67076135 5:0.33703548 6:0.44005451 7:1.0861775 8:1.1415737 9:-0.15148504 10:0.78440166 11:0.48500091 12:0.17229719 13:0.24214405 14:0.22923705 15:0.45469913 16:0.25400099 #
2.0312862211706543824618620419642 1:0.63019019 2:0.50506115 3:0.56774759 4:0.95825028 5:0.22924124 6:0.56430608 7:0.52599478 8:1.0608484 9:0.55390573 10:0.041225083 11:-0.22719704 12:0.23712035 13:-0.11142214 14:0.18697974 15:0.1613086 16:0.4182722 #
-1.5939562054761657883261705137556 1:0.40532571 2:0.56810331 3:0.52569705 4:0.25835511 5:-0.15877087 6:0.48308721 7:0.47091651 8:-0.17753752 9:0.51797265 10:0.009765273 11:0.57724434 12:0.84117687 13:0.39522046 14:-0.21374704 15:0.23765075 16:0.38516247 #
-4.3004296683770322218265391711611 1:0.29645729 2:1.1693714 3:1.043949 4:0.67212659 5:0.55306339 6:0.84450686 7:0.55328023 8:0.26501206 9:0.41214716 10:0.63474995 11:0.37441418 12:0.28941265 13:0.98921084 14:0.6085012 15:0.76233 16:-0.13107988 #
2.28493975868815590857252573187 1:0.4792327 2:0.17179601 3:0.38916215 4:0.13130154 5:1.0372307 6:0.59049976 7:0.99323404 8:0.55922377 9:0.84518927 10:0.96397376 11:0.28979471 12:0.43976432 13:0.16228476 14:0.50821286 15:0.073050894 16:1.1801938 #
0.074587293372487400988646299992979 1:1.0675776 2:0.13728605 3:0.82001024 4:0.19230199 5:1.0522392 6:0.25446793 7:0.35494468 8:0.49984014 9:0.58567142 10:0.064310029 11:0.45797116 12:0.67959452 13:1.119504 14:1.0482005 15:-0.073961906 16:0.52303565 #
-2.9478791812267370886502249049954 1:0.97414058 2:0.02556923 3:0.65283519 4:1.1039594 5:1.0544509 6:0.46925089 7:0.66672468 8:0.46889919 9:0.0045313151 10:0.80850124 11:0.95603281 12:0.10323328 13:0.41071874 14:0.35423976 15:0.39048871 16:0.54941684 #
-1.3157213793881850083522522254498 1:0.27187425 2:0.30784199 3:0.3428902 4:1.1879357 5:0.78836215 6:-0.18155786 7:0.058860537 8:0.36929762 9:0.5095014 10:0.36541831 11:0.89491314 12:0.40136626 13:1.083554 14:0.56040567 15:0.63050812 16:0.63620889 #
-0.37234661173018274160639862202515 1:0.53083456 2:-0.089940362 3:0.27674091 4:-0.32720533 5:1.1816367 6:0.66512609 7:1.3199314 8:0.47272271 9:1.0422617 10:1.4330781 11:0.13821341 12:0.3120527 13:-0.045518801 14:0.52709937 15:-0.26216912 16:1.6331815 #
-5.8720374931920886751868238206953 1:0.84751737 2:0.42743164 3:-0.4830344 4:0.38749066 5:0.68302244 6:0.95881003 7:0.9707095 8:0.67289704 9:0.34917867 10:0.068792708 11:0.02652761 12:0.66678959 13:0.79505849 14:0.31700513 15:0.41240656 16:0.18293615 #
-0.83814800861538885090595840665628 1:0.51209891 2:-0.032021679 3:0.15694447 4:-0.031086132 5:0.92096573 6:0.056499843 7:0.089943267 8:1.1904173 9:0.48410633 10:0.88309067 11:0.48841178 12:0.35313642 13:0.45710543 14:0.93971896 15:0.42883849 16:0.78310651 #
0.57457457982391013651124467287445 1:0.9051289 2:0.085886829 3:0.2646305 4:0.15716007 5:0.71874475 6:0.28774673 7:0.55064243 8:-0.057846099 9:0.97993499 10:0.39380577 11:0.33239439 12:0.68562263 13:0.53582615 14:0.18014999 15:1.2582568 16:0.31877565 #
-0.33862426851796673110683855156822 1:0.018679889 2:0.60400236 3:1.5688876 4:0.51569331 5:-0.62238353 6:1.3930686 7:0.22971497 8:0.7988736 9:0.029442705 10:0.37636524 11:0.15654911 12:-0.33706197 13:0.5212236 14:0.40433797 15:0.3350479 16:0.67210871 #
-0.4468484615071257048946051781968 1:0.28356823 2:0.46041065 3:-0.18401168 4:0.71999079 5:0.1770232 6:-0.028710322 7:0.7749176 8:0.15209253 9:0.44250959 10:-0.010067421 11:0.51011336 12:-0.13527492 13:0.47117633 14:0.36647964 15:0.96582144 16:0.5267207 #
-0.0025872634700197143578503933269985 1:0.52776295 2:0.26847923 3:1.1957083 4:0.9632889 5:0.51475406 6:0.74369657 7:1.9735209 8:0.016398646 9:0.59444237 10:0.70200211 11:1.1441271 12:0.89797372 13:1.5052468 14:0.65539032 15:0.44579658 16:0.44416073 #
-0.15865138177694637633408092369791 1:0.93428814 2:-0.10951248 3:-0.10738341 4:0.46754447 5:0.25988787 6:0.85793078 7:0.47003183 8:0.61602628 9:0.66598886 10:0.78965569 11:0.62131166 12:0.10930801 13:0.45855081 14:-0.22266136 15:0.25275558 16:0.78369766 #
1.432647061558138146253327249724 1:0.5107438 2:0.26939452 3:0.54326564 4:0.95631582 5:0.12388989 6:0.33930776 7:0.85074896 8:0.82642722 9:0.39606124 10:0.11504208 11:-0.18452653 12:0.55050242 13:0.84938419 14:0.44464508 15:1.0985909 16:0.0053357673 #
1.6057540246631167857316313529736 1:0.84346211 2:0.66776115 3:0.85016 4:0.78514814 5:0.84320641 6:1.0368702 7:-0.089973323 8:0.56562144 9:0.47850052 10:0.81809306 11:0.098312736 12:0.65537411 13:0.41055834 14:-0.073521428 15:0.89352363 16:0.79545903 #
4.2701844584797798987096939526964 1:-0.19971243 2:0.052014604 3:1.0026437 4:0.67243421 5:0.41879925 6:0.15071759 7:0.22472562 8:0.30661887 9:0.93754381 10:0.80978203 11:0.038476363 12:0.64332026 13:0.14277627 14:-0.038614705 15:0.37895203 16:0.58698851 #
2.1579693883479560412297360016964 1:0.08831577 2:-0.12141862 3:0.68965304 4:0.52906013 5:0.5047757 6:0.46353176 7:1.2499135 8:0.19166912 9:0.50674617 10:0.33427072 11:0.27614549 12:0.475842 13:0.49056402 14:0.77289695 15:0.77194828 16:-0.068412952 #
-8.9214399616962651862195343710482 1:0.74831998 2:-0.17193028 3:0.97810203 4:0.39479396 5:-0.3092964 6:0.57161278 7:0.60796237 8:0.64603335 9:0.73293602 10:0.62179983 11:0.47304294 12:0.82426876 13:0.026061552 14:0.26742202 15:0.46243483 16:0.70726377 #
1.7121003630822895225094271154376 1:0.41494176 2:0.27117676 3:0.72798574 4:0.20683897 5:0.29126805 6:0.70037347 7:0.31487396 8:1.1259862 9:0.26986539 10:0.79471725 11:-0.1159107 12:1.2251813 13:0.59930384 14:-0.096578442 15:0.40309456 16:0.43765822 #
1.0878355448908301195132253269549 1:0.44698566 2:0.53942746 3:0.63906419 4:-0.0063160486 5:0.29516128 6:0.85117763 7:0.51005709 8:0.13343292 9:0.36024719 10:0.62428796 11:-0.12484476 12:0.73915631 13:0.34534478 14:0.38004595 15:1.2148787 16:1.08587 #
0.81859310684381125788888766692253 1:0.25136507 2:0.074203037 3:0.60349238 4:1.046664 5:0.51712328 6:0.90819913 7:-0.061661825 8:0.5935185 9:0.31455454 10:0.26042318 11:0.75124097 12:0.48820835 13:0.48005438 14:1.1519876 15:1.0682815 16:0.73020613 #
-2.5068397584322168469839198223781 1:0.84093446 2:0.16257179 3:0.94992262 4:0.32748955 5:0.12061057 6:0.71305496 7:0.46981144 8:-0.21123183 9:-0.19905797 10:0.55675554 11:0.45196566 12:0.20096415 13:0.65153962 14:0.31735894 15:1.0549558 16:0.30115041 #
-0.12906252250571870199280510860262 1:1.3489166 2:0.49677292 3:0.2693601 4:0.5070948 5:0.56497914 6:0.62137723 7:-0.46381211 8:-0.55178952 9:1.0218097 10:0.92772043 11:0.71120209 12:1.0679506 13:0.015745288 14:0.21621716 15:-0.28355572 16:-0.99604803 #
-4.1835964470202844367463512753602 1:0.87112796 2:-0.10564993 3:-0.34703985 4:1.1554773 5:1.4091213 6:0.20874959 7:0.50023711 8:0.3909629 9:0.96801978 10:0.4368405 11:0.33066031 12:0.72717589 13:0.57466215 14:0.41410643 15:0.43718955 16:0.56829846 #
-0.33286115392198301066173371509649 1:1.0646112 2:0.71281499 3:0.73317564 4:0.3510299 5:0.74817586 6:1.5604346 7:0.26888844 8:0.54743069 9:-1.0289487 10:0.53548139 11:0.2541813 12:0.98529512 13:0.0049475795 14:0.36094779 15:-0.29595485 16:0.75697851 #
-0.27190164762850194124510494475544 1:0.45835474 2:0.69616681 3:0.32201609 4:0.50867337 5:0.75525528 6:0.95468128 7:0.33036989 8:0.75964177 9:1.08839 10:-0.10269347 11:0.49311078 12:0.3800953 13:-0.036954209 14:0.19551639 15:0.5412879 16:0.89359891 #
-2.6814803225848646839324374013813 1:0.39604411 2:0.31313026 3:0.062796503 4:0.30574608 5:-0.13576588 6:0.30669633 7:0.26296845 8:0.49067739 9:0.68980557 10:0.34895936 11:0.44596457 12:0.97240388 13:1.1107936 14:0.62829059 15:1.2433939 16:0.3588886 #
1.5059340908605667319619669797248 1:0.78172857 2:0.59954214 3:0.067034706 4:0.079644985 5:1.0636382 6:0.84841526 7:0.92205381 8:0.33466995 9:0.56531358 10:1.1315174 11:0.25972533 12:0.78744185 13:0.23670383 14:0.71753991 15:0.27892792 16:-0.10227025 #
0.78417523221517548837056210686569 1:0.97774029 2:0.5357241 3:0.2574566 4:0.38262755 5:0.32226732 6:-0.23624827 7:0.7956633 8:1.10131 9:0.46937102 10:-0.2554993 11:0.61320919 12:0.4097904 13:0.34825644 14:0.67263573 15:0.44672474 16:0.44634762 #
-3.2792041520910641949626551649999 1:0.31125614 2:0.066243626 3:0.87748867 4:0.65553182 5:0.64547479 6:0.73912328 7:0.066758268 8:0.8385278 9:0.49651808 10:0.63627422 11:1.1352613 12:0.33889577 13:0.47589135 14:0.22183248 15:0.18006241 16:-0.23291656 #
-0.32773783479829143860939666410559 1:0.24984294 2:0.11253562 3:0.97122353 4:0.1239178 5:-0.053793311 6:0.81935209 7:0.16365527 8:1.5030532 9:0.19634512 10:1.0642704 11:-0.4552761 12:1.8528464 13:0.72518843 14:-0.38944668 15:0.3007426 16:0.39580798 #
0.080695096931373777593421436904464 1:1.7111998 2:0.40257159 3:0.232252 4:0.45485213 5:0.70352739 6:0.58576298 7:-0.76995987 8:-0.83825833 9:1.1037499 10:1.2582408 11:1.2255498 12:1.2364804 13:-0.14843611 14:0.0030232423 15:-0.39165145 16:-1.2876679 #
-0.52234057809725586984939127432881 1:0.56154501 2:0.16428471 3:0.98173475 4:1.2129174 5:0.96558869 6:0.31356061 7:0.85919887 8:0.98296362 9:0.49047473 10:0.10237075 11:0.34335154 12:0.69504565 13:0.2555137 14:0.87513775 15:0.041541275 16:0.85587758 #
0.72263651246463045385581835944322 1:0.85774219 2:0.69407243 3:0.65068817 4:0.48419729 5:0.41807413 6:0.063609585 7:0.26687399 8:0.49403 9:0.41155073 10:0.53894609 11:-0.062310785 12:-0.20268443 13:0.17613573 14:0.77087593 15:0.12750584 16:1.2881163 #
-0.14346402914891645541395348573133 1:1.6432518 2:-0.045649387 3:-0.020790111 4:1.27876 5:0.23543094 6:0.28112277 7:1.148787 8:0.1812444 9:0.049120892 10:-0.28049493 11:0.29507244 12:0.43210724 13:1.0709366 14:-0.037272505 15:0.39460617 16:0.99912184 #
-5.6053507493588474730472626106348 1:0.82800663 2:0.052102569 3:0.54711711 4:0.37634599 5:-0.19152699 6:0.46017203 7:0.31925961 8:-0.076862797 9:0.77292866 10:0.67553431 11:0.77632415 12:0.057236556 13:0.93772918 14:0.7607218 15:-0.012110269 16:0.48601755 #
1.8481836064747820813636280945502 1:0.965734 2:-0.08218161 3:0.82300919 4:0.034470744 5:0.60636318 6:0.52347642 7:0.8663131 8:0.53290111 9:0.56648546 10:0.6521256 11:0.005116682 12:0.4641889 13:0.88371748 14:1.070742 15:0.76318073 16:1.0460269 #
-2.7827905448147771672040562407346 1:0.88149482 2:0.62902415 3:0.69057125 4:0.94169217 5:1.1326755 6:0.29987314 7:-0.19810373 8:1.1961615 9:0.097432166 10:0.40187672 11:0.3268027 12:0.54648751 13:0.068425983 14:0.33805522 15:0.2796106 16:0.41702962 #
3.4711271503992300324625830398872 1:0.23381004 2:0.28772265 3:0.23821244 4:1.0891778 5:-0.074674957 6:0.51796234 7:0.52144384 8:0.029373638 9:0.76263034 10:0.36123684 11:0.028080313 12:0.51087838 13:0.86710477 14:0.64120787 15:0.51052552 16:1.141821 #
-6.0209939525377755842328042490408 1:0.042166959 2:0.25851893 3:-0.33751699 4:0.47049391 5:0.81712836 6:0.43074098 7:0.48317873 8:0.64065921 9:0.27329513 10:0.77947217 11:0.028203106 12:0.80402374 13:0.032505129 14:0.24522835 15:0.90095788 16:0.45000985 #
0.79109929645590382207842594652902 1:1.1196833 2:0.54241568 3:0.22227468 4:0.49038306 5:0.58929104 6:0.59876764 7:0.50375456 8:0.032131307 9:-0.054946944 10:0.76472044 11:0.27317151 12:0.11226671 13:1.1401346 14:0.72893971 15:0.40634441 16:0.8724339 #
1.2100856322817954424664321777527 1:0.62587643 2:0.053753641 3:0.22659837 4:0.42798933 5:0.067234829 6:-0.098627903 7:1.0950468 8:0.1229825 9:1.014292 10:0.9204368 11:0.2438639 12:1.1671989 13:0.53172255 14:0.60843217 15:0.81179881 16:0.71318996 #
0.79900786795213063484766280453186 1:0.93378675 2:-0.10206705 3:0.26246402 4:0.62798053 5:0.41167113 6:-0.083308086 7:0.87602359 8:0.48829776 9:0.74808258 10:0.69505924 11:1.2380223 12:0.23852144 13:0.16145438 14:0.70196849 15:0.86912137 16:0.66202033 #
3.8245644055921275139553472399712 1:0.37649924 2:0.83033538 3:0.28209364 4:0.80117309 5:0.58111668 6:0.33884585 7:0.089896977 8:0.17086922 9:-0.10924591 10:1.0328292 11:-0.36084539 12:0.33082318 13:-0.03323406 14:0.52890313 15:0.94340962 16:0.49627274 #
5.8379874424971447410825931001455 1:1.0842304 2:0.67770898 3:0.48288381 4:-0.11108957 5:0.27995461 6:0.49491844 7:0.1409205 8:0.50527745 9:0.84839606 10:0.87393302 11:-0.022173448 12:1.0113672 13:0.81602448 14:0.75350153 15:0.41046387 16:0.48313594 #
6.9593317177475828572141836048104 1:-0.25483197 2:0.16609573 3:0.53341055 4:-0.21750955 5:1.0186098 6:0.12864231 7:0.10448606 8:0.94716471 9:0.28830498 10:-0.10350451 11:1.1426001 12:0.57108063 13:0.43988499 14:0.37277284 15:0.39644778 16:0.64209557 #
-0.86713148085967772793480889959028 1:0.27758479 2:0.27307361 3:1.6385099 4:1.6856591 5:0.87205023 6:0.59672129 7:0.12186559 8:0.75996709 9:0.47949031 10:0.38789457 11:0.26960447 12:1.6680735 13:1.3738689 14:0.13086428 15:0.66356772 16:0.5248158 #
0.71121479998851311332686009336612 1:0.68607557 2:0.48330358 3:0.64448547 4:0.680704 5:0.5676834 6:-0.15785293 7:0.39594623 8:0.52011991 9:1.0481644 10:0.61370182 11:-0.043343738 12:0.85215682 13:0.25098369 14:1.1986822 15:0.45711786 16:0.087371089 #
0.42467842255768589732056739194377 1:0.41333458 2:0.401333 3:-0.42436275 4:0.41682768 5:-0.17967825 6:1.5818563 7:-0.19859444 8:0.24447809 9:0.31891042 10:0.26603338 11:1.2781665 12:0.19031993 13:-0.52359438 14:1.1504073 15:0.39655945 16:0.32818803 #
-1.6555641108677898731826871880912 1:0.23342934 2:0.09845227 3:0.43016452 4:0.77445143 5:0.36546978 6:0.46339968 7:0.0095094601 8:0.5780074 9:-0.14038436 10:0.33164787 11:0.75255877 12:0.011502377 13:0.2591711 14:0.028775956 15:0.11109669 16:0.94529015 #
1.5443785816386352838236462048371 1:-0.068867438 2:0.57296497 3:0.35124046 4:0.70894152 5:0.50515085 6:1.1701262 7:0.52958667 8:0.45416465 9:1.0072085 10:1.0517479 11:0.082405008 12:1.0686208 13:0.59556681 14:0.59129095 15:0.96774018 16:0.1126828 #
1.212424212707823967249964880466 1:0.061136022 2:0.12452214 3:1.1434851 4:0.42753878 5:0.93668729 6:0.61016142 7:0.59353536 8:0.87017924 9:0.6211583 10:0.98935395 11:0.13082564 12:0.67880952 13:0.315258 14:0.93568259 15:1.1656071 16:0.62619847 #
0.16600683451639738907879007001611 1:1.0869354 2:1.1369741 3:0.61745918 4:0.94598478 5:0.62195015 6:0.73856574 7:0.62732261 8:-0.11553747 9:1.0771222 10:1.1401272 11:0.10416137 12:0.82729274 13:0.37280273 14:0.93138731 15:0.29487672 16:0.33891508 #
-0.47138632651348333357788078501471 1:1.0561026 2:0.56504184 3:0.66649145 4:0.64282483 5:0.39877036 6:0.3689301 7:0.56441897 8:1.3767263 9:0.17911547 10:0.83455366 11:0.37641507 12:0.31020066 13:0.28695011 14:0.85566878 15:1.5363193 16:2.1258757 #
1.6342389702006991925031798018608 1:0.55401689 2:0.42300546 3:-0.0096615097 4:1.0369335 5:0.35694644 6:0.93132198 7:0.91471422 8:0.55843604 9:0.36480883 10:0.42556506 11:1.0738796 12:0.2945998 13:0.4806056 14:0.94974661 15:0.075531505 16:-0.028005894 #
-0.14840643665584904442589220252557 1:0.019731056 2:0.56973982 3:0.35765782 4:0.70211399 5:0.9815858 6:0.4549166 7:0.77637577 8:0.745175 9:0.75197947 10:0.20097457 11:0.51843852 12:0.85046518 13:0.53482211 14:-0.31454441 15:-0.086674027 16:0.41769493 #
-2.2208991720534450031721007690066 1:0.80990434 2:0.34006894 3:-0.062186975 4:0.34505913 5:1.2193466 6:0.48085189 7:0.23632947 8:0.474426 9:0.099666812 10:0.37664601 11:0.038468938 12:-0.38624218 13:0.55154419 14:0.40778711 15:0.6086278 16:0.28998089 #
2.9665194587995973307670283247717 1:0.6774345 2:-0.016186623 3:0.31809691 4:1.392638 5:0.22110544 6:0.73661417 7:0.0080177495 8:0.15493122 9:0.16545765 10:0.071857266 11:0.42615485 12:0.71073306 13:0.73998183 14:0.39227229 15:-0.05643075 16:0.28557804 #
-0.79998142910453551301941388373962 1:0.67477065 2:0.88291776 3:0.73374671 4:0.69349903 5:0.12795398 6:0.83341902 7:0.2395348 8:1.0112336 9:0.82721633 10:-0.11689179 11:0.79998332 12:0.82004893 13:0.67177004 14:0.54740435 15:0.15222806 16:0.43688047 #
0.8740866126955801895803688239539 1:0.80240947 2:0.085151024 3:0.76409096 4:0.80340797 5:0.68785423 6:0.041327573 7:0.30099782 8:-0.045163125 9:0.59115779 10:-0.19990718 11:-0.25477242 12:0.70902848 13:0.45539141 14:0.30035272 15:0.6778872 16:0.38488171 #
-0.13802775401888295325747435526864 1:1.0004151 2:0.45540082 3:-0.040189523 4:0.36728162 5:0.51978505 6:0.96417034 7:0.52955574 8:0.74208611 9:0.26681489 10:1.0079261 11:0.52696669 12:0.97857237 13:0.60055232 14:0.437451 15:1.0541941 16:0.61704093 #
1.6787583503787049110655971162487 1:0.4369083 2:0.011217378 3:0.96404183 4:0.55671197 5:0.50966716 6:0.61317974 7:1.0657218 8:0.45688361 9:1.1736541 10:0.55647147 11:0.31865972 12:-0.062058907 13:0.28654116 14:0.58587116 15:-0.0036147709 16:0.049325369 #
-2.1052764210299454994412826636108 1:0.68225896 2:0.4863098 3:-0.078529716 4:-0.045216229 5:0.87412918 6:0.62786812 7:1.0369105 8:0.073776543 9:0.33661667 10:0.83095616 11:1.1937407 12:0.37583619 13:0.68184847 14:0.32595861 15:0.4556441 16:0.52924603 #
1.0147342089102395767952202731976 1:0.53977132 2:0.4380095 3:0.38953963 4:0.49424279 5:0.8726114 6:0.46385327 7:0.20053186 8:0.96406507 9:-0.04009328 10:1.1663086 11:0.26131433 12:1.1603994 13:1.0425614 14:0.86266565 15:0.30009532 16:0.59621441 #
0.6958904563163424983329718997993 1:0.6500783 2:0.75614536 3:0.29855588 4:0.69463551 5:0.31205463 6:0.31706303 7:0.4278416 8:0.81737572 9:0.46330744 10:0.7815249 11:0.29558569 12:0.65960294 13:0.38145897 14:0.29735997 15:0.9294287 16:-0.23264663 #
-0.78183626776850068118562830932206 1:0.73718417 2:0.61118644 3:0.16058066 4:-0.12669179 5:0.56156957 6:0.010844364 7:0.98124164 8:1.1379811 9:0.96301997 10:0.74698716 11:0.17048728 12:0.42226115 13:0.23847298 14:0.15634447 15:1.0627861 16:0.69185579 #
-0.073984991958008339274499576276867 1:0.18929957 2:-0.03720215 3:0.97397929 4:0.62886494 5:0.67805755 6:0.4963488 7:0.17181139 8:-0.028833313 9:0.34695116 10:0.23080222 11:0.98266476 12:1.0988837 13:0.63131708 14:0.60249525 15:0.15762405 16:1.060663 #
2.311720084283841014638483102317 1:0.12665159 2:0.25758696 3:0.50601745 4:0.93635857 5:0.28572267 6:0.36793989 7:1.098974 8:0.84423321 9:0.3267574 10:0.76324141 11:0.18214406 12:0.91504294 13:0.4120689 14:0.057368234 15:0.67417294 16:0.92594403 #
6.5066215790595700596554706862662 1:0.94006795 2:0.68094766 3:0.28628537 4:1.1422909 5:0.057909429 6:0.37216163 7:0.61785841 8:0.33593348 9:0.189053 10:0.86193168 11:1.1779493 12:0.37995639 13:0.9086985 14:0.38342783 15:0.79075986 16:0.78213882 #
4.0257756534580524387934019614477 1:0.14208774 2:0.12077218 3:0.5798558 4:-0.14505523 5:1.4527533 6:0.3450878 7:0.4901785 8:0.31787387 9:0.49473885 10:0.34623423 11:0.83765596 12:0.054849643 13:0.58662206 14:0.91573125 15:0.33364099 16:-0.19094342 #
-0.44710372621331567755120772744704 1:1.0055876 2:0.45731911 3:0.775114 4:0.57817829 5:0.64832503 6:1.2107195 7:0.86416966 8:0.4348551 9:0.24256983 10:-0.072437987 11:0.024098873 12:0.3348515 13:0.79168856 14:0.15254274 15:0.6413368 16:0.93842673 #
2.3329335378818569779468816705048 1:0.7347616 2:0.63624305 3:0.085024714 4:0.64754188 5:0.39561141 6:1.3168564 7:0.32642227 8:0.51112479 9:0.32470796 10:0.13670067 11:0.89139694 12:0.57656914 13:0.85479814 14:-0.085637085 15:0.8181839 16:0.30379608 #
-1.0321229775841826992177630017977 1:0.19801104 2:-0.13531104 3:0.085402042 4:0.45754465 5:0.090526469 6:0.61847997 7:0.86234421 8:1.0736537 9:0.73623675 10:-0.0603728 11:0.41342646 12:0.32342729 13:0.41020873 14:0.08096429 15:0.61312658 16:0.50854987 #
1.3222506211672064857509667490376 1:0.75902039 2:-0.098086521 3:0.39815554 4:0.52003813 5:1.044384 6:0.77156925 7:0.22255823 8:0.67214233 9:0.93187732 10:0.48446324 11:0.6231823 12:0.56163269 13:0.96777135 14:0.54242575 15:0.78675824 16:1.3239176 #
0.074637436605870077777069582225522 1:0.5654304 2:0.47957921 3:0.65963864 4:0.15947546 5:0.713121 6:0.47470012 7:-0.32095465 8:0.14940932 9:1.1746547 10:0.59658158 11:0.36755261 12:-0.086296007 13:0.28124645 14:0.44514692 15:0.62107539 16:0.48064902 #
-1.7781029946630158011799949235865 1:0.62024939 2:1.06792 3:0.30642807 4:1.2274259 5:-0.51008314 6:0.9191885 7:0.55790085 8:0.6198709 9:0.49607924 10:1.2557032 11:0.098942876 12:1.0500817 13:0.29942358 14:0.13074215 15:0.30269119 16:0.89927894 #
0.67750634009733157192556518566562 1:0.057498969 2:0.16691034 3:0.8982681 4:0.47420385 5:0.77898586 6:0.58863515 7:0.46187273 8:-0.0015913593 9:0.0097260568 10:0.54887944 11:0.15673791 12:1.1681062 13:0.055801053 14:0.43918899 15:0.67345911 16:0.19534519 #
1.9998804327690766768910179962404 1:0.7048834 2:0.12495691 3:0.63158149 4:0.002208015 5:1.042245 6:1.1450069 7:0.95163369 8:0.51495564 9:0.51767021 10:0.92698157 11:0.14844385 12:0.60018581 13:0.52647775 14:-0.19425385 15:0.92994964 16:0.2465058 #
-3.4874499070539908274213303229772 1:1.1434071 2:0.12114882 3:1.0677103 4:0.75300258 5:0.91599739 6:0.68348473 7:0.56650496 8:0.63395792 9:0.72158855 10:-0.035860978 11:0.64071405 12:0.017931711 13:0.46196339 14:0.54963511 15:0.89138782 16:-0.052127473 #
-2.9187122313296489650724652165081 1:0.75392294 2:0.71842963 3:1.0537559 4:0.16954227 5:0.41421926 6:-0.020052716 7:0.5642184 8:0.44806218 9:0.38472095 10:1.1204629 11:0.24534447 12:0.40969566 13:-0.051740993 14:0.56061494 15:-0.25596631 16:0.25246808 #
0.59503136740063122811505991194281 1:0.79899865 2:0.17084502 3:0.34556022 4:0.21986634 5:0.73319823 6:0.45531407 7:1.1403614 8:0.1388848 9:0.062814564 10:0.34475768 11:0.39201957 12:0.45856941 13:-0.028982995 14:1.2663189 15:0.51083571 16:0.40033028 #
0.21502792690991912039066846773494 1:0.051953033 2:0.48306409 3:0.69701427 4:0.49278763 5:0.49276727 6:1.1130792 7:0.82117367 8:-0.0052751638 9:0.5168466 10:0.98708087 11:0.17477086 12:0.56251323 13:0.41935042 14:0.30479059 15:-0.21118492 16:0.69384331 #
-2.2301027517971170333055397350108 1:0.90781432 2:0.43213931 3:-0.21605563 4:0.24221787 5:0.73315513 6:0.14463511 7:0.43189773 8:0.2670764 9:1.0509075 10:0.23675622 11:0.3356058 12:0.10745848 13:-0.031933103 14:0.95232958 15:-0.054709129 16:0.23582581 #
-2.1610961249608013901024605729617 1:0.68757778 2:0.15813091 3:0.038872972 4:-0.23952809 5:0.11143187 6:0.75626934 7:0.55944413 8:0.61226016 9:0.055570383 10:0.41775364 11:0.4501901 12:0.65794927 13:0.90751082 14:0.51658452 15:-0.049314518 16:0.93012625 #
-0.50356983935712207323120992441545 1:1.1356597 2:-0.55989319 3:1.1418592 4:0.90725946 5:1.4070003 6:0.3412585 7:0.18877919 8:0.48925474 9:1.0158923 10:0.68998122 11:-0.20787546 12:-0.42386124 13:0.40282404 14:0.64339089 15:-0.00074030575 16:0.42606512 #
-1.7880441022883941659671336310566 1:0.87540501 2:0.3167797 3:0.10655899 4:-0.0048077772 5:0.82212865 6:0.62658691 7:-0.46759811 8:0.54957408 9:0.14356504 10:0.5426892 11:0.95532274 12:0.88719356 13:0.71640354 14:0.31706241 15:0.69627321 16:0.12405628 #
-0.019292522601680097554810444648865 1:0.94040507 2:0.79929769 3:0.3318097 4:0.83141518 5:0.40645278 6:0.24771906 7:1.0372567 8:1.0293272 9:0.085420221 10:0.34249559 11:0.64747769 12:0.8586852 13:1.0724741 14:0.5550496 15:0.15485612 16:0.81358182 #
-0.070169342527185790681087951270456 1:0.79924142 2:0.77112228 3:0.62648869 4:0.59427929 5:0.039653093 6:-0.013304594 7:0.35497698 8:0.26906654 9:0.30538177 10:0.53957033 11:0.0191129 12:0.070668541 13:0.47549114 14:-0.078076713 15:0.83449805 16:0.80174363 #
-1.6107118628114258651606860439642 1:0.92319238 2:0.1492849 3:0.59689051 4:0.60840803 5:0.84426415 6:0.80932659 7:0.044146456 8:0.24314472 9:1.1987855 10:1.0924811 11:0.93097746 12:0.92323381 13:0.23419841 14:0.63850623 15:0.58076864 16:0.3869344 #
3.4523739515753208983994682057528 1:0.94262218 2:1.1416149 3:0.61044222 4:0.96781874 5:0.0041823252 6:0.12115998 7:0.78959292 8:0.26666483 9:0.8542341 10:0.026215851 11:0.26370361 12:-0.12676509 13:0.67318749 14:0.8017624 15:0.24915755 16:0.30144492 #
1.5477157929178921857982231813367 1:0.75402069 2:0.666439 3:0.41542748 4:1.0142908 5:0.2298509 6:0.47006723 7:0.88219136 8:0.39583594 9:1.0876036 10:0.12072981 11:0.67182893 12:0.97400016 13:0.26629338 14:0.36712593 15:1.0379277 16:0.62670243 #
-1.0887029812741952916610443935497 1:0.88392824 2:0.23082435 3:0.55105948 4:0.61745948 5:0.094885707 6:0.86730689 7:0.96546555 8:0.67947674 9:0.13674352 10:0.92673719 11:0.27228734 12:-0.17197917 13:0.45136392 14:0.44914243 15:0.22505246 16:-0.026562536 #
1.0376950610876451985831181445974 1:0.5774222 2:0.8613016 3:0.035453741 4:0.56348956 5:0.090822011 6:1.0763724 7:0.26460153 8:1.1581315 9:0.98542839 10:0.88461119 11:0.059787665 12:0.55944288 13:0.5510363 14:0.38165063 15:0.57566589 16:0.82017934 #
4.6848577946978950947709563479293 1:0.2366617 2:-0.16619304 3:0.89090556 4:-0.43352073 5:-0.39190167 6:0.66484267 7:0.26062909 8:0.35211596 9:0.82086867 10:1.0548489 11:-0.042240132 12:0.80142468 13:0.19890791 14:0.30363184 15:0.37867919 16:0.40351263 #
-0.82915554745031727623683082128991 1:0.23374207 2:0.11891535 3:0.38520947 4:0.49568415 5:0.59495139 6:0.41879892 7:-0.20001185 8:0.091596335 9:0.093743339 10:1.0303144 11:0.19474252 12:0.23859411 13:0.38726607 14:0.91824991 15:0.31961241 16:0.84126955 #
-1.0282423540960825558698843451566 1:0.48567912 2:-0.29364628 3:0.5381012 4:0.16486126 5:0.85136652 6:0.99277848 7:0.082586974 8:0.78838581 9:-0.056128167 10:1.0685265 11:0.63420689 12:0.89542526 13:-0.239171 14:0.5040822 15:0.69629765 16:0.84767669 #
0.14604275050157147775031774017407 1:0.67321408 2:0.14469929 3:0.66616583 4:0.79861516 5:-0.044681631 6:0.35954908 7:0.76125968 8:0.7467066 9:-0.46599737 10:0.17514926 11:-0.1753702 12:0.41524336 13:0.35197294 14:0.84133595 15:0.40367994 16:0.694278 #
3.7234939861473490552157272759359 1:0.63869971 2:1.0966308 3:0.14001855 4:0.58089727 5:0.795376 6:0.71227032 7:0.22720349 8:0.11546904 9:0.52370292 10:1.0285193 11:0.1621749 12:1.2784119 13:1.0166433 14:0.018890422 15:0.24777277 16:0.32217321 #
-1.4208172265247303034385595310596 1:0.55941164 2:1.2313765 3:-0.085668348 4:1.4554509 5:1.3572516 6:0.5086329 7:0.71686602 8:0.72815675 9:0.64123428 10:0.27969119 11:0.81133837 12:0.39625072 13:0.80856752 14:0.08006452 15:0.043314073 16:0.82349932 #
3.5755127439330807170847492670873 1:0.61220294 2:0.2554543 3:0.18653145 4:1.3308972 5:0.21956612 6:0.6023041 7:0.30006742 8:0.28644428 9:1.3859121 10:0.66414821 11:1.0502727 12:0.41226259 13:0.72820085 14:0.52446032 15:0.25753045 16:0.53793347 #
0.64546607174648995552956876053941 1:1.0607287 2:0.18751973 3:0.56302655 4:0.48491675 5:0.58236772 6:0.59889871 7:1.1319444 8:0.44478402 9:0.66243243 10:0.09761662 11:-0.029676395 12:1.1292167 13:0.33651358 14:0.34330982 15:0.15046252 16:0.1486672 #
-1.8159836669254092456071703054477 1:0.9559437 2:0.9479273 3:-0.022215068 4:0.39118317 5:0.25781986 6:-0.0064359317 7:-0.045990832 8:0.55553073 9:0.93012363 10:0.73064363 11:0.96863168 12:0.63466805 13:0.30142644 14:-0.13944587 15:0.38814622 16:0.66559601 #
-4.9217050838197913265048555331305 1:0.63765973 2:0.45861381 3:1.0237358 4:0.92712736 5:0.25417426 6:0.41491672 7:0.071657747 8:0.12422998 9:0.27679285 10:1.3704536 11:0.44115159 12:0.45235476 13:0.30011702 14:0.16460221 15:0.732611 16:0.31096578 #
-0.23801400098008301808860665005341 1:1.1907091 2:0.51709777 3:0.77551758 4:0.37099358 5:0.11671363 6:0.20202236 7:1.2681965 8:-0.22931217 9:0.6501869 10:0.37784573 11:0.33903322 12:0.73194009 13:-0.62154871 14:0.32298037 15:-0.90124911 16:0.94552082 #
-1.4202868394349079661509449579171 1:-0.16708872 2:0.41236922 3:0.19820566 4:0.06772387 5:0.7720055 6:0.2421435 7:0.47034332 8:0.48539937 9:0.62341738 10:-0.070487946 11:-0.84772909 12:0.52277243 13:0.6505987 14:0.29730594 15:0.57045144 16:0.7104404 #
-0.36012259130162921350049032298557 1:0.90872884 2:0.92295647 3:0.90209258 4:0.4705089 5:0.34885639 6:0.71909297 7:-0.029971326 8:0.31290007 9:0.67941493 10:0.28312522 11:0.048741166 12:0.59105539 13:0.83506662 14:0.56863844 15:0.63175267 16:0.52350301 #
-0.31876166660191773694066341704456 1:-0.39305595 2:-0.64465708 3:0.76844937 4:1.2191013 5:1.4623089 6:0.074417591 7:0.65593952 8:0.33014619 9:0.03522817 10:0.22304411 11:1.5421467 12:-0.05206652 13:0.56481493 14:0.11101414 15:0.89221239 16:1.4523675 #
1.4044997784678490138077222582069 1:0.87898189 2:0.16821398 3:-0.0066335769 4:0.44588578 5:0.97123051 6:0.60375494 7:0.92479217 8:0.89768398 9:0.29693991 10:0.15066026 11:0.67131013 12:0.2848253 13:-0.061960034 14:0.30522704 15:0.5388124 16:0.65354133 #
1.4769528600668393458761329384288 1:0.65890408 2:0.19908382 3:0.33993256 4:0.015586208 5:1.188099 6:0.056540783 7:0.87561899 8:0.33304209 9:1.1628729 10:0.24976932 11:0.36146417 12:0.071329542 13:1.0614171 14:0.2606968 15:0.32050714 16:0.51596433 #
1.3547193389834109034097764379112 1:0.50701612 2:0.7644881 3:0.75422353 4:0.61719835 5:1.1256813 6:0.67019528 7:0.69095862 8:0.075206973 9:0.57332498 10:0.63529664 11:0.14624517 12:1.3016002 13:0.32301033 14:0.84843433 15:0.4917258 16:1.0623991 #
1.9376951223459206730126425100025 1:0.28553638 2:0.050259117 3:0.5591597 4:0.12219108 5:0.88775903 6:0.15107106 7:0.3972238 8:0.28150529 9:0.66882008 10:-0.25383502 11:0.2840378 12:0.151035 13:0.36741409 14:0.9110809 15:0.8990376 16:0.99998367 #
-0.73641709393292165142241856301553 1:1.0013344 2:0.56495446 3:1.1056707 4:0.53189927 5:0.60865128 6:0.15221997 7:0.66925699 8:0.90126383 9:1.19136 10:0.79826134 11:0.084834762 12:0.38502729 13:1.0961796 14:0.011224377 15:0.35001439 16:0.18205401 #
2.3099697880473035738191356358584 1:0.17314324 2:-0.07930591 3:0.48130944 4:0.43021482 5:0.37002936 6:0.58134466 7:0.47352165 8:0.59334207 9:0.51153052 10:1.1220889 11:-0.14309192 12:-0.20589712 13:0.81539965 14:0.18568298 15:0.82067162 16:0.70340031 #
0.68123209007482010690637252992019 1:0.30018419 2:-0.086504921 3:1.0545932 4:0.27092054 5:0.57431644 6:-0.092128128 7:0.10055585 8:0.24138127 9:0.58438659 10:0.77407426 11:0.54204851 12:1.1054045 13:1.2221502 14:0.5994432 15:0.77687436 16:-0.18222612 #
1.6231036542285335322333139629336 1:1.1595649 2:1.0102237 3:0.96914566 4:0.65970945 5:0.3761006 6:-0.063556433 7:0.66010815 8:0.75946569 9:0.19916171 10:0.48645672 11:-0.13129908 12:1.4026333 13:0.67185473 14:0.36334899 15:0.65383947 16:0.55833471 #
3.7112254894227389989680432336172 1:0.20156878 2:-0.13327129 3:0.50347084 4:0.059101682 5:0.91121131 6:0.84555858 7:0.71317679 8:-0.15139775 9:0.6126045 10:-0.20892206 11:0.87984478 12:0.5905726 13:-0.0023853052 14:0.087959006 15:0.44183072 16:0.10240452 #
2.0545560354986327489257291745162 1:1.1206828 2:0.43590659 3:0.35667726 4:1.0469438 5:0.48848036 6:0.90463227 7:0.064894728 8:-0.17290904 9:0.24134648 10:0.60884553 11:1.1416286 12:0.06231961 13:0.12122669 14:0.7412923 15:0.64742243 16:0.22879654 #
-0.049410479202249862895612864122086 1:0.24487822 2:-0.35129121 3:1.4304398 4:0.29457778 5:0.73500144 6:0.3449094 7:0.52699405 8:0.89411259 9:0.25920102 10:-0.17825665 11:0.40257639 12:0.69010395 13:0.72945744 14:0.14331339 15:0.47401467 16:0.676525 #
1.20317215418452638786561692541 1:1.0449044 2:0.10499624 3:0.14975776 4:0.73157853 5:0.80491692 6:0.91047573 7:0.1216455 8:1.2871248 9:0.5134294 10:-0.089827649 11:0.61424845 12:0.3402769 13:1.0112045 14:0.75964731 15:0.30688792 16:0.43637449 #
-0.068972399729410202584567457506637 1:0.056592613 2:0.40723124 3:0.19512856 4:1.6241843 5:1.205261 6:-0.6001789 7:-0.51819801 8:0.39849278 9:0.26561958 10:0.37006125 11:1.3523984 12:0.095694207 13:0.92820507 14:0.65095973 15:1.1204453 16:0.42249057 #
2.4684539005800218980368754273513 1:-0.15626292 2:0.34836474 3:1.0437535 4:0.89103496 5:1.2183964 6:0.05430178 7:0.46111238 8:0.73233116 9:0.13333924 10:1.0455056 11:0.30579492 12:0.44948661 13:0.5791766 14:0.63126552 15:0.086707249 16:0.22789964 #
-0.14953944305589844665504983822757 1:0.94662392 2:0.8966617 3:0.67928725 4:0.18247165 5:0.83412856 6:0.67285794 7:-0.12964723 8:-0.84413761 9:-0.35500023 10:0.99892485 11:0.38835406 12:-0.029086417 13:0.65837985 14:0.98398173 15:0.79764956 16:1.1600388 #
1.8514683376718779062031217108597 1:0.040879741 2:0.24335009 3:0.76244968 4:0.8821789 5:0.68221337 6:0.29664275 7:0.47071329 8:1.0870135 9:0.90224618 10:0.38801011 11:0.0097616529 12:0.064560547 13:0.63659954 14:0.71214396 15:0.41513386 16:0.85976499 #
-3.7281029712101614315145070577273 1:1.0723513 2:0.36021551 3:1.2564212 4:0.76739895 5:-0.042854361 6:0.52501941 7:0.31180391 8:0.91872287 9:0.33416182 10:1.5997949 11:-0.51505661 12:0.26874027 13:0.65328348 14:0.68091798 15:0.71026838 16:0.67416519 #
-1.6286672798005958906486512205447 1:1.12157 2:0.62572151 3:0.93940777 4:0.75014102 5:1.1308088 6:0.28885594 7:0.63725251 8:0.60926634 9:0.017323567 10:0.40305731 11:0.61252069 12:0.77857631 13:0.99691033 14:0.18613002 15:0.99405259 16:0.42237833 #
-1.2461480425892244028318600612693 1:0.42581326 2:-0.080117039 3:0.3757031 4:0.38201076 5:0.20533387 6:-0.2260998 7:-0.19875123 8:0.60396552 9:0.32727519 10:0.36296213 11:0.15937294 12:0.86131376 13:0.19434844 14:0.7446149 15:0.76962775 16:0.3148576 #
-7.3619357864022871851261697884183 1:0.56353527 2:-0.2003008 3:1.0661876 4:0.72472852 5:-0.1794637 6:0.32638988 7:0.6452961 8:0.45549774 9:0.40497541 10:-0.16679303 11:1.4096894 12:0.58078033 13:0.74237287 14:0.64315003 15:0.61963224 16:0.22345777 #
-1.7263792069090784231377710966626 1:-0.21199839 2:-0.66500396 3:-0.10313919 4:-0.27849898 5:1.0168579 6:0.24734282 7:1.0403625 8:0.14638755 9:0.7895323 10:0.71452123 11:-0.13805379 12:0.45002475 13:0.22019488 14:0.53810573 15:0.41813999 16:0.049297068 #
2.5130471712738833289790818525944 1:0.73904926 2:0.2438754 3:-0.14124437 4:0.90037733 5:0.20942964 6:0.11201455 7:1.0628589 8:0.060684536 9:0.12337606 10:0.35488719 11:0.81385535 12:0.83414775 13:0.34845936 14:0.45814502 15:0.60138685 16:0.13564374 #
-1.6777411920426434921438385572401 1:0.84277427 2:0.75084585 3:0.32152846 4:0.62327969 5:0.68508434 6:0.41071272 7:0.31312904 8:0.77477902 9:0.28324583 10:0.66831398 11:0.67027038 12:0.66680253 13:0.71709752 14:0.9842419 15:-0.1674182 16:0.087479457 #
-0.096375832731653621188172564870911 1:0.77688324 2:0.75640452 3:0.32753944 4:-0.064008206 5:0.9240917 6:0.48979148 7:-0.98021829 8:-0.19027902 9:1.6700418 10:0.8536939 11:0.586721 12:-0.29410157 13:0.25306672 14:0.38452402 15:0.625745 16:0.46739617 #
3.4899226883611063065870894206455 1:0.76267469 2:1.0065092 3:-0.0070339926 4:0.057527814 5:0.85296643 6:0.41405037 7:0.54103333 8:0.22752605 9:0.46155885 10:0.89455914 11:-0.18835798 12:0.62762398 13:-0.06779398 14:-0.097324982 15:0.2949656 16:0.70498794 #
-0.95611695625080450611221749568358 1:0.53055549 2:0.91431308 3:1.4465966 4:-0.32722971 5:0.46957475 6:1.0111408 7:0.12896097 8:0.25202924 9:0.69299555 10:0.47528684 11:0.10655198 12:1.0319091 13:-0.11390857 14:0.38981923 15:0.53899789 16:0.55773085 #
0.27110593405583710557849030919897 1:0.86600983 2:-0.41077429 3:0.20829611 4:0.47754243 5:0.39219326 6:0.0079249209 7:0.4863081 8:0.56931889 9:0.98501509 10:0.47328767 11:0.32524285 12:0.56448036 13:1.0045743 14:0.42998582 15:0.26539397 16:-0.10984715 #
1.1444221277005592884989937374485 1:-0.094524719 2:0.00097886601 3:0.40546936 4:0.77039921 5:-0.03675219 6:0.71445364 7:0.43974435 8:0.3807652 9:-0.11529825 10:1.1009929 11:0.11743496 12:0.74959946 13:0.5747723 14:0.44564494 15:0.66264337 16:0.071670555 #
-2.0040070521763575506213328480953 1:0.43586862 2:0.60529083 3:1.1047399 4:0.10101426 5:0.84167755 6:0.82297969 7:0.32738972 8:1.0767274 9:0.76188195 10:0.83355671 11:0.61631048 12:0.57364249 13:0.99124825 14:0.64518702 15:0.27985138 16:0.87238568 #
-1.6485847477680282135992229086696 1:0.84266382 2:0.68628347 3:0.14741538 4:0.77436972 5:0.82678604 6:-0.027538911 7:0.12158994 8:-0.055177849 9:0.040426742 10:0.38496047 11:0.39408067 12:0.39162737 13:0.15571548 14:0.25192341 15:0.47243446 16:0.22870612 #
-2.0109413584003599240190851560328 1:0.66395491 2:-0.1300187 3:0.12058455 4:0.73504061 5:0.94176894 6:1.1910093 7:0.39698505 8:-0.15515913 9:0.28752872 10:0.025739852 11:0.044969093 12:-0.12432387 13:-0.10144874 14:0.40346125 15:0.47844744 16:0.54325068 #
3.1490345882994361659257265273482 1:0.99856365 2:0.80609089 3:0.91148955 4:1.2977871 5:0.52615649 6:0.87570214 7:0.46623629 8:1.0120517 9:0.027415594 10:0.47710615 11:0.10623023 12:0.31885403 13:0.6287846 14:0.61551851 15:0.77026182 16:0.20428854 #
0.67477676032028166552834136382444 1:1.0460129 2:0.18627375 3:0.16359591 4:1.0172189 5:0.08334846 6:0.32197317 7:0.30585685 8:-0.17894188 9:0.82447284 10:0.46287274 11:-0.22013219 12:0.2414856 13:-0.42652258 14:0.67091078 15:0.84622198 16:0.31843063 #
-1.0027749696497363363079102782649 1:0.72349942 2:0.5683465 3:0.80758882 4:0.94487602 5:0.71676743 6:0.015733367 7:0.53863299 8:0.38443536 9:0.38348374 10:0.96156108 11:0.64411741 12:0.46799067 13:0.51305032 14:1.086153 15:0.55302465 16:1.2016249 #
0.91717684556522061090078068446019 1:0.67299914 2:0.75453973 3:0.49285379 4:0.70896518 5:0.23752609 6:1.0317837 7:0.31344312 8:-0.11557034 9:0.45809337 10:0.082716182 11:-0.02581651 12:-0.27564806 13:0.41682398 14:0.34959164 15:0.11898402 16:0.22041689 #
-0.33637307610661992818279486527899 1:0.49657786 2:-0.095234111 3:0.92026216 4:0.07763017 5:0.97470164 6:1.0097759 7:0.39951256 8:0.60130805 9:1.0689324 10:0.4334476 11:-0.044579301 12:0.19680296 13:-0.18353455 14:0.74017984 15:0.71515745 16:0.73435897 #
-1.6780282155859849169132758106571 1:0.45816877 2:-0.069863267 3:0.039236479 4:0.50894123 5:-0.1229027 6:0.90423554 7:0.51179367 8:0.044045102 9:0.27435961 10:0.32252976 11:0.23061955 12:0.61464822 13:0.38982397 14:0.049497481 15:0.59165043 16:0.19094902 #
-0.74126033814520964071448361210059 1:0.8816241 2:-0.1122294 3:0.81357843 4:-0.36532289 5:1.3222096 6:1.4614515 7:1.1941645 8:0.52495873 9:0.58381861 10:1.3698901 11:0.057744619 12:0.85751498 13:0.71242988 14:-0.57100189 15:1.2210084 16:0.081118703 #
-1.0133557637773835669037225670763 1:-0.78884917 2:-0.19818409 3:1.4203205 4:0.75704479 5:0.21167916 6:-0.20521463 7:-0.090058014 8:0.18483539 9:1.2669662 10:0.97505128 11:-0.23038344 12:0.61261654 13:-0.070280381 14:-0.38077033 15:0.34575835 16:0.52986288 #
-0.10988885257719940846676820456196 1:0.93945569 2:0.61471456 3:0.3333407 4:0.49784011 5:0.16460633 6:1.23955 7:1.1539242 8:0.51919162 9:0.81772012 10:0.21461509 11:0.69579303 12:0.41301233 13:0.43529058 14:1.0171195 15:0.61506754 16:0.86293226 #
-1.0307609085547497773660552411457 1:0.43966231 2:-0.3328284 3:0.59075129 4:0.42998537 5:0.80721456 6:0.17751211 7:0.95248121 8:1.1274095 9:0.27948397 10:0.68723869 11:1.1936271 12:0.38910004 13:0.67592603 14:0.9093709 15:0.22653298 16:0.65373802 #
-0.46165884333044648890620464953827 1:0.88689691 2:0.48275968 3:0.26161286 4:0.61475247 5:0.69425535 6:0.37146714 7:0.92956817 8:0.72695518 9:0.86924058 10:0.25840837 11:-0.017684989 12:0.15704459 13:0.72458309 14:0.43492734 15:0.68481767 16:0.74827278 #
-1.4329964092709877032660870099789 1:0.92595631 2:0.86297786 3:0.25198784 4:-0.19929603 5:0.19102104 6:0.17838398 7:0.84179187 8:0.20705216 9:0.86534005 10:0.18509474 11:0.35514659 12:0.57859695 13:0.3446078 14:0.73687166 15:0.54783148 16:0.060769476 #
1.493171307751830712007290458132 1:0.41098109 2:-0.018209746 3:0.40836346 4:1.137569 5:0.45298788 6:0.85803413 7:0.43854296 8:1.116396 9:0.038235791 10:1.0482131 11:0.48689282 12:0.5106644 13:0.2448383 14:0.44427615 15:-0.083154649 16:1.0152867 #
-1.0604430586482587184349313247367 1:1.0725495 2:0.053083729 3:0.48461914 4:0.79920006 5:1.0973784 6:0.87723118 7:0.60277283 8:0.37339944 9:0.4433769 10:0.61905134 11:0.48636657 12:0.79405403 13:0.8840996 14:0.00233807 15:-0.16868414 16:0.50425875 #
3.2241340705589163206923331017606 1:0.27084365 2:0.72445446 3:0.75329053 4:0.13066089 5:1.4112689 6:0.24323969 7:0.54930121 8:0.38389739 9:-0.046535231 10:0.88665301 11:0.18448757 12:0.29687095 13:0.26201734 14:0.21399403 15:1.0364028 16:0.31417805 #
0.62520319950130476271965562773403 1:0.41056862 2:0.44575676 3:0.16489816 4:0.977503 5:0.37788752 6:1.0816518 7:0.80005354 8:0.56430429 9:0.47825605 10:0.41696244 11:1.1339755 12:1.023839 13:0.05299589 14:0.25231653 15:0.15984915 16:0.81566077 #
-0.12393010664519188424037565710023 1:0.61574537 2:0.28179923 3:-0.67809075 4:0.66984785 5:0.11207484 6:2.1176209 7:-0.67936176 8:0.40938982 9:0.15383743 10:-0.089692399 11:1.2004734 12:0.21530093 13:-0.81888336 14:1.1016529 15:0.39333642 16:0.45876962 #
-1.3277425903827186903782830995624 1:0.42267442 2:0.82477766 3:0.24137644 4:1.0329796 5:1.1092091 6:0.17102657 7:0.95152116 8:-0.16216812 9:0.57005513 10:0.79890186 11:0.11996704 12:0.18485053 13:0.79792845 14:0.44564715 15:0.61339432 16:0.31775221 #
3.0874304707660980007233320066007 1:1.0575943 2:-0.49333107 3:0.43211734 4:-0.080127649 5:0.78365409 6:0.78402215 7:0.59380472 8:-0.056373507 9:0.15092573 10:0.51708072 11:0.2743955 12:0.32881278 13:0.68938822 14:0.1640121 15:0.20899232 16:0.69332963 #
4.3604195805151304554669877688866 1:1.00318 2:0.6651389 3:0.49722061 4:1.0780625 5:0.28115827 6:0.17783901 7:0.71950734 8:0.58685404 9:0.48411596 10:0.17286487 11:0.73960984 12:0.19930895 13:0.56085062 14:-0.18217619 15:0.093059205 16:0.46579805 #
-0.20388909297072518866933421577414 1:0.88023752 2:0.38488162 3:-0.11044284 4:0.44671467 5:0.95904779 6:1.9367728 7:0.38352156 8:0.86280084 9:0.76029253 10:1.1626223 11:0.40575305 12:0.28907517 13:1.6072792 14:0.93456507 15:1.2211745 16:-0.053346351 #
1.5088111823033045766351278871298 1:0.87896681 2:1.0364473 3:-0.18748176 4:-0.088700578 5:0.073673896 6:0.47979414 7:0.95131284 8:0.85058618 9:0.3671689 10:1.3123535 11:-0.64692909 12:0.62842005 13:0.57593757 14:0.75621754 15:0.83418322 16:0.44950175 #
0.17406348983190389478892257102416 1:1.3533914 2:0.6265564 3:0.81536078 4:0.59089226 5:0.29827785 6:0.41922688 7:0.3230468 8:1.4709605 9:0.027469024 10:1.0382639 11:0.42190355 12:0.070340015 13:0.36977765 14:1.1145366 15:2.1575506 16:2.8124359 #
2.656621227105006255442276597023 1:0.38892117 2:0.46397045 3:0.85622656 4:0.035609286 5:1.100129 6:-0.35533535 7:0.2056641 8:0.057469085 9:0.63977545 10:0.6518665 11:0.47553113 12:0.81236362 13:0.34173638 14:0.30220681 15:-0.036309242 16:0.35600141 #
-1.6051073005604670207446815766161 1:0.16137074 2:0.15383199 3:-0.04562337 4:0.077180386 5:0.51100248 6:0.73728925 7:0.4905279 8:0.26222327 9:0.38251042 10:1.0653619 11:0.033356428 12:0.68479747 13:0.70622319 14:1.3637167 15:1.1412599 16:0.5298574 #
0.36554153919213150381040122738341 1:0.017516924 2:0.49042729 3:0.85038298 4:0.7539801 5:1.0754789 6:1.2333046 7:0.37120819 8:0.89424276 9:0.75650811 10:0.4070248 11:0.16013758 12:0.58656192 13:0.12107069 14:0.45971042 15:0.1685627 16:-0.02190355 #
-2.4252458353322858819467455759877 1:0.77239168 2:-0.069926955 3:1.2115688 4:1.0182952 5:0.52397424 6:0.15649608 7:0.37425619 8:0.6049422 9:1.1098677 10:0.17517561 11:0.77502686 12:-0.16063572 13:0.32598945 14:0.039148428 15:0.22931473 16:1.0180148 #
-3.8682394561652748699032144941157 1:0.80706179 2:-0.30012685 3:0.66620564 4:1.2630091 5:-0.55465704 6:0.74500871 7:1.1045564 8:0.32890353 9:0.58089083 10:0.83317441 11:0.47689614 12:0.41561529 13:0.35847899 14:1.0052532 15:0.49334317 16:0.52685922 #
-0.76726684256945332229804535018047 1:0.23715173 2:0.31353697 3:-0.007119867 4:1.5523667 5:-0.53331065 6:0.40989846 7:0.53895998 8:-0.40894353 9:0.92104572 10:0.14246796 11:-0.42244548 12:0.48231772 13:1.1641824 14:0.70900673 15:0.60452348 16:1.4942865 #
-3.2637242925172116336796079849591 1:0.20338975 2:1.109773 3:0.9240908 4:0.43085447 5:0.37991062 6:-0.042202223 7:0.24810775 8:0.5157814 9:0.20464721 10:0.91378641 11:-0.14844629 12:0.066349089 13:1.2256089 14:0.84973598 15:0.54152364 16:0.54977906 #
-3.5653517838909221104870539420517 1:0.69977283 2:0.34478581 3:0.66391951 4:0.60735303 5:-0.03414866 6:0.51531208 7:0.4704369 8:0.36930275 9:0.66551536 10:0.8814441 11:0.47863227 12:0.16862296 13:0.018602544 14:1.0004611 15:1.139336 16:0.5170058 #
-0.03265430640028921943640582981061 1:2.1700566 2:0.26285312 3:0.26535067 4:0.34906816 5:0.80709207 6:0.71279246 7:-1.0081466 8:-1.17356 9:1.2863574 10:1.7965328 11:1.7984616 12:1.4193163 13:-0.05453847 14:-0.14529379 15:-0.62228417 16:-1.5852137 #
-2.5577174024924262951685705047566 1:0.00010006974 2:-0.089361973 3:-0.05444742 4:0.37125188 5:0.83025843 6:0.64248991 7:-0.081640474 8:0.80280727 9:0.98175085 10:0.75913787 11:0.32745034 12:0.42418927 13:0.11339556 14:0.20354971 15:0.16268829 16:0.37629727 #
-2.5723317392951337012618751032278 1:0.45992699 2:0.25757965 3:0.22694097 4:-0.076209821 5:0.66206759 6:0.10873106 7:1.1026061 8:1.0044551 9:-0.062483996 10:0.42829195 11:-0.13306142 12:0.66537952 13:0.87110394 14:0.89511722 15:0.91447383 16:0.11140736 #
0.12697783168231380201973479415756 1:0.57922149 2:0.44951233 3:0.44693846 4:-0.10204056 5:1.0342689 6:0.35883239 7:0.13557719 8:0.50661784 9:0.11745358 10:0.22906452 11:0.10092877 12:0.60740215 13:0.94197911 14:0.32894531 15:0.16322653 16:-0.028993655 #
-4.165435031689944445076889678603 1:1.0632764 2:-0.21415897 3:1.4758885 4:0.80583525 5:0.74486768 6:0.61854357 7:0.31891268 8:0.68915904 9:0.16743453 10:0.84961659 11:0.2731986 12:0.79853499 13:0.055816095 14:0.62735003 15:0.73619765 16:0.19083992 #
0.056290558886855288078798764672683 1:1.0976992 2:0.74213821 3:0.99982184 4:1.253059 5:0.47230846 6:0.013638337 7:1.1197348 8:0.17972521 9:-0.11410388 10:0.96147436 11:0.30468342 12:0.19885486 13:0.21382262 14:0.53836989 15:0.8324573 16:0.35710007 #
-1.4071698881393153168772869321401 1:-0.052634425 2:1.101804 3:0.76386499 4:0.39911675 5:0.32581922 6:0.49771503 7:1.062398 8:0.15000351 9:1.3150939 10:0.5983277 11:0.35772279 12:0.72016746 13:0.43853608 14:0.25704339 15:0.031568449 16:0.27477172 #
3.6999301983773889013207281095674 1:0.03177733 2:-0.069045924 3:0.29589975 4:0.60755885 5:0.90229416 6:0.61516482 7:0.64486659 8:0.60279208 9:1.0061517 10:0.11831938 11:0.78865403 12:0.65498322 13:1.1196698 14:0.31404051 15:0.79898512 16:0.33015737 #
2.5934370214850082092539196310099 1:0.42987251 2:0.81817389 3:0.15939337 4:0.55181968 5:0.78608435 6:0.020869682 7:0.44789466 8:0.85542101 9:1.0183123 10:0.99816984 11:-0.38390553 12:0.57871014 13:0.41345441 14:0.11706366 15:0.32560289 16:0.0012286175 #
-1.7502869843020625317819849442458 1:0.93527925 2:0.053221148 3:1.0221245 4:-0.083202034 5:0.81544662 6:0.27189273 7:0.2496223 8:0.67139506 9:0.35764349 10:1.0832453 11:0.79532588 12:0.36577302 13:0.3193143 14:-0.057399429 15:0.91982836 16:0.75217426 #
4.0453434681962239238828260567971 1:0.69984478 2:-0.052177805 3:-0.35756433 4:0.42587057 5:0.61239159 6:0.31555039 7:0.30955079 8:0.34050947 9:0.64847147 10:-0.48276457 11:0.87118882 12:1.0136091 13:0.54692405 14:0.41011292 15:0.23436013 16:0.25867531 #
5.0022264178493749398057843791321 1:-0.3077473 2:0.64493382 3:0.42483002 4:-0.28191572 5:1.551944 6:-0.36161375 7:0.068728484 8:0.28364596 9:0.51482391 10:0.25416565 11:0.59961855 12:0.33046362 13:0.75735331 14:0.67503554 15:0.23722963 16:0.77985305 #
3.5330721751768368044110957271187 1:1.3295617 2:0.48298159 3:1.1990606 4:1.0446031 5:0.0013562752 6:0.40821719 7:0.29198316 8:0.39478081 9:0.4378309 10:1.3892888 11:1.893777 12:0.24726979 13:0.22568792 14:0.60163784 15:0.41144726 16:0.37098807 #
0.39649479346373545096682278199296 1:0.44774267 2:0.56049085 3:-0.80540407 4:0.49411538 5:1.1000323 6:1.0842636 7:0.16397311 8:-0.71340305 9:0.55954838 10:0.79566669 11:0.083695829 12:0.74584401 13:0.388969 14:0.059757281 15:0.5375793 16:1.5038253 #
-0.028547500346851932551128783188688 1:1.314647 2:-0.099854261 3:0.08070226 4:0.049117412 5:0.55666125 6:0.85034508 7:0.31969061 8:0.63303804 9:0.72281969 10:-0.027664708 11:-0.15558609 12:1.5791363 13:0.087116592 14:-0.11729354 15:0.19518045 16:0.33751431 #
-7.1950800864424842018252093112096 1:1.1040384 2:0.28806189 3:1.2138002 4:0.93859404 5:0.43755138 6:0.87140048 7:0.79650307 8:0.56294054 9:0.27899709 10:1.3172033 11:-0.015293005 12:0.17362081 13:-0.086686671 14:0.26066142 15:0.38014433 16:0.86076003 #
0.08894405873070869439356300745203 1:0.85973537 2:0.85062331 3:-0.41103649 4:1.524273 5:1.436193 6:0.88406318 7:0.43003619 8:1.1924646 9:0.72410619 10:0.40493652 11:0.086176611 12:0.10480371 13:0.44346556 14:0.5125801 15:1.1525604 16:-0.059734855 #
1.6507026919934333353268129940261 1:1.1992742 2:0.59658647 3:0.38484919 4:0.10604781 5:-0.0016891469 6:0.4421421 7:0.7812655 8:0.18968421 9:0.16272974 10:0.59211218 11:0.070046626 12:0.8591041 13:1.0994171 14:-0.25498697 15:0.85705477 16:0.19154567 #
2.0660618430047272831018290162319 1:1.1138484 2:0.14093533 3:0.10198635 4:0.69807237 5:0.29427183 6:0.098378226 7:0.11874458 8:0.2892988 9:0.26824379 10:0.84297639 11:0.49090698 12:0.64012182 13:0.22853473 14:0.89218616 15:0.21035135 16:0.37608486 #
1.7389132063985373033432324518799 1:0.41398513 2:-0.087901741 3:0.35607645 4:1.1835304 5:0.49758646 6:0.62371457 7:0.68842715 8:0.24618594 9:0.55489707 10:0.9052828 11:0.15714169 12:0.6560846 13:0.84433669 14:1.1855937 15:0.16902667 16:0.016799366 #
-0.51681917859793713443394835849176 1:0.10074698 2:1.3841896 3:0.60962892 4:0.0019159367 5:0.13169974 6:0.73567522 7:0.28276247 8:0.61257923 9:0.28795183 10:0.54171735 11:1.124874 12:0.24709626 13:0.45225644 14:0.47543561 15:0.64159751 16:0.54520291 #
-1.602565432511928511516430262418 1:0.98602968 2:0.78230608 3:-0.027087741 4:0.13154964 5:0.16999127 6:-0.14767803 7:0.82124013 8:0.5506531 9:-0.08937411 10:1.1665573 11:0.82026726 12:0.37770295 13:0.55721909 14:0.43977535 15:0.95298326 16:0.33082628 #
-0.86990373500216566782228255760856 1:0.77782768 2:0.15930523 3:0.62966079 4:0.09623155 5:-0.025182433 6:0.93359518 7:-0.14411427 8:1.0417241 9:0.015500574 10:0.61033481 11:0.47435611 12:0.13810338 13:0.59184116 14:0.48040468 15:0.93248063 16:0.42085752 #
-2.150108619350181271556721185334 1:0.51496112 2:0.16121569 3:0.11934892 4:-0.23091392 5:0.30374458 6:-0.076099344 7:0.44156858 8:0.51897871 9:0.32048362 10:0.30770427 11:0.05463868 12:0.43356648 13:0.037775934 14:0.027825629 15:0.16198616 16:1.0100814 #
0.15795702922653648281325899915828 1:1.6001878 2:-1.0278652 3:1.5846394 4:1.188804 5:1.6033851 6:0.73336911 7:-0.13886625 8:0.72955805 9:1.3340307 10:0.62989068 11:-0.68384141 12:-1.1049973 13:0.15390766 14:0.59534943 15:-0.39329532 16:0.22370432 #
-2.5325963977841507990262925886782 1:0.95529115 2:0.43767554 3:0.056939457 4:0.37071282 5:0.49154231 6:0.39802915 7:0.07682924 8:0.66431719 9:0.72439992 10:0.076684684 11:0.10946042 12:0.21036968 13:0.39653146 14:1.0616182 15:1.0457423 16:0.91850191 #
0.45603527477484401275731329405971 1:0.58606911 2:-0.037506565 3:-0.031712666 4:0.84019881 5:1.1851612 6:1.2703334 7:-0.31546912 8:0.59952283 9:1.1455595 10:0.4126578 11:1.038967 12:1.0385786 13:-0.95218366 14:-0.050201457 15:0.42252502 16:0.69947898 #
1.9262328346722670247004316479433 1:0.77356887 2:0.66426194 3:0.68570739 4:0.89850169 5:0.48981196 6:0.61521059 7:0.64393228 8:0.59264356 9:0.67180753 10:0.77884382 11:0.82771754 12:0.92299235 13:0.942904 14:1.3313228 15:1.0278122 16:-0.13823646 #
0.085508209527802844784893920859759 1:-0.51545686 2:0.091958679 3:-0.47379079 4:0.59351182 5:0.80625975 6:0.84069955 7:0.32729411 8:0.3330974 9:-0.1451292 10:1.4154229 11:-0.03796722 12:-0.021378502 13:1.0673206 14:0.76059687 15:-0.035285849 16:1.0258144 #
1.0496203066447411522688071272569 1:0.23271461 2:0.57504463 3:0.21745683 4:1.1333551 5:0.2920655 6:0.62276256 7:-0.047331881 8:0.33255246 9:0.25122601 10:0.87895858 11:0.29383665 12:0.1535479 13:0.83491123 14:0.20426302 15:0.36968815 16:0.25651565 #
-0.22645112502905578866219116207503 1:1.2584327 2:0.26253968 3:0.42042738 4:1.2154818 5:1.7175387 6:0.52741098 7:0.53699982 8:0.16724265 9:0.1027176 10:0.51952249 11:1.8225908 12:0.36481869 13:0.51890373 14:0.54979354 15:0.32385182 16:0.29041612 #
3.9827158827034851995563258242328 1:0.5879485 2:0.5179106 3:0.6811654 4:1.0187976 5:0.1869431 6:-0.17546353 7:0.51200777 8:0.06925296 9:0.41035667 10:0.32632428 11:0.18839841 12:0.53032625 13:1.037567 14:0.41359383 15:0.34874251 16:-0.035225868 #
3.8614374324620697187526729976526 1:0.63511431 2:0.059586082 3:0.57485086 4:0.44438505 5:0.07637652 6:0.63142002 7:0.60159558 8:0.83878821 9:0.33350825 10:0.76395881 11:0.21703683 12:0.60913175 13:1.0426806 14:0.870992 15:0.19013177 16:0.61587417 #
-2.3453801506741713822634665120859 1:0.049703002 2:1.0789484 3:0.84753978 4:0.63481581 5:0.58116698 6:0.55110079 7:0.34980291 8:0.86691946 9:0.59539235 10:0.17878208 11:0.12221128 12:0.58149046 13:0.47907811 14:-0.25094694 15:1.0317026 16:0.39665374 #
1.7784220990547459084751835689531 1:1.1837879 2:0.39785689 3:0.77552944 4:1.3020552 5:0.63485742 6:0.36876866 7:0.33430949 8:0.7110365 9:0.9978953 10:0.22401847 11:0.1127933 12:0.57873368 13:0.2619186 14:0.010107209 15:0.43916839 16:0.21287642 #
-3.4375221697192568370837761904113 1:0.41067919 2:0.43896502 3:0.5837723 4:0.33953318 5:0.75075686 6:0.89650649 7:0.69223833 8:0.79846328 9:0.58670813 10:-0.10481794 11:-0.23654011 12:1.1435515 13:1.0341917 14:0.99619269 15:0.8818891 16:0.73192012 #
0.84876158116503541695152534884983 1:1.2454227 2:0.29668316 3:0.082672291 4:0.65536571 5:0.841335 6:-0.15675616 7:1.2834594 8:0.46679839 9:0.45403621 10:1.0556823 11:0.25119647 12:0.0570083 13:0.18508594 14:0.59985095 15:-0.096819595 16:0.48145634 #
0.91352994947749777132628423714777 1:1.064544 2:0.77319443 3:1.5174923 4:0.82648164 5:0.24677026 6:1.1744148 7:0.37624437 8:0.42126641 9:0.92257887 10:-0.12042026 11:-0.38234362 12:0.60608071 13:0.70290452 14:0.49765503 15:1.2706072 16:0.59460908 #
-3.3325259811172118773470174346585 1:0.7245267 2:0.19429383 3:1.5093719 4:0.35516217 5:0.82758749 6:0.885993 7:0.53360581 8:0.42298761 9:0.05054019 10:0.32902128 11:0.74956816 12:-0.1439319 13:0.65813768 14:0.76516449 15:-0.031520519 16:0.6098907 #
-0.15526541760697076810515682154801 1:-0.22221336 2:0.58030903 3:0.48948321 4:0.89034498 5:1.9706137 6:0.18142943 7:0.50625914 8:-0.47505063 9:0.33925277 10:0.47475222 11:-0.009049749 12:0.20220679 13:1.1760482 14:0.0071283705 15:0.6035279 16:-0.46164355 #
0.17558763157886880801328288725927 1:0.10794812 2:0.25866726 3:-0.11168975 4:1.7202007 5:-0.54817826 6:0.14343427 7:0.68694812 8:-0.49292657 9:0.85460925 10:-0.41083458 11:-1.4157075 12:0.38207448 13:1.5576855 14:0.70507377 15:0.79335302 16:1.6998568 #
0.099273478414255086899053992510744 1:0.19724777 2:0.68628311 3:-0.85357243 4:0.33361116 5:0.26896682 6:0.059569269 7:-0.43940353 8:0.3329837 9:0.57760596 10:1.1514238 11:0.87065285 12:0.80111825 13:-0.043182522 14:-0.32139447 15:0.47512221 16:0.17421626 #
-2.3920695352185981086279298324371 1:0.82251757 2:0.15217781 3:0.92869753 4:0.3352786 5:0.492145 6:-0.14103699 7:1.0668684 8:0.45214605 9:0.078769796 10:0.65478146 11:0.33681038 12:0.49873871 13:0.71940881 14:0.37891704 15:0.44485039 16:0.76696789 #
0.53936521422956240634505320485914 1:0.95388579 2:0.93156487 3:0.18676667 4:0.77986217 5:1.4230776 6:1.4308324 7:-0.42376468 8:0.4431034 9:0.42768312 10:1.4275765 11:-0.31322014 12:1.0497695 13:0.48582479 14:0.30047205 15:0.80093908 16:0.77864003 #
-2.494696589793675478574641601881 1:0.35831633 2:0.33743423 3:0.26741225 4:0.84186357 5:-0.26433808 6:0.4211354 7:0.41811198 8:1.081334 9:0.71618122 10:0.52515548 11:0.53661549 12:-0.048665855 13:0.27710652 14:0.81195045 15:0.2704047 16:0.26293442 #
3.0658497164179601135458597127581 1:1.1197103 2:0.78598732 3:0.19812483 4:1.2986447 5:0.060224265 6:1.0746939 7:0.22010954 8:0.78028923 9:0.47029698 10:0.33908305 11:1.2211884 12:-0.023714233 13:0.072125591 14:0.69869381 15:0.29518557 16:1.1040628 #
0.48693529540161806234976893392741 1:0.10582952 2:0.16807538 3:0.20395128 4:0.73092026 5:1.1105111 6:-0.70302463 7:0.61220247 8:0.20101862 9:-0.38780081 10:-0.026213646 11:0.026163971 12:1.0513997 13:1.2014264 14:-0.049207076 15:0.72261941 16:1.6841309 #
0.098486543725559219653042930531228 1:0.32842156 2:0.33175021 3:0.67390424 4:0.17948163 5:0.37672532 6:0.28326043 7:0.60330296 8:0.23213354 9:0.80459434 10:0.49014768 11:-0.050776165 12:0.44537666 13:0.13847792 14:0.045454733 15:0.70360196 16:-0.058762372 #
-0.88286074763987332225667614693521 1:0.24057533 2:0.64109939 3:1.0736173 4:1.0479879 5:0.91551793 6:0.068496794 7:0.73430747 8:-0.011099408 9:1.2024499 10:0.093380839 11:0.62303901 12:1.0989957 13:0.95413882 14:0.98903596 15:0.2811282 16:0.54949629 #
-0.017106343122109041177125732247077 1:0.42917654 2:0.066964418 3:0.27811399 4:0.26756907 5:0.68222368 6:0.60675716 7:0.23550962 8:0.66256332 9:0.509287 10:0.28019091 11:0.45896855 12:1.0553062 13:0.22081663 14:0.28415421 15:0.30360737 16:0.49329805 #
2.834268271429535968053414762835 1:1.205825 2:0.27984434 3:0.40652141 4:0.59640723 5:0.9823088 6:0.24181302 7:0.74555886 8:0.71524525 9:0.43178901 10:0.69414967 11:0.27272072 12:0.451482 13:0.40011239 14:0.95961589 15:1.0259913 16:0.20451631 #
2.3133467442235335909117566188797 1:0.69411284 2:-0.66650164 3:1.3980924 4:0.036840804 5:-0.87148142 6:0.52714109 7:0.8858254 8:0.78935301 9:0.7055881 10:0.76729125 11:0.59945208 12:0.98599654 13:-0.30415818 14:0.10535765 15:0.41709009 16:0.85466081 #
0.62946256445560899717150959986611 1:0.76975083 2:1.3857431 3:2.0640843 4:-0.59125596 5:1.5034304 6:0.48441499 7:0.24436024 8:0.37489554 9:0.30899218 10:-0.33211544 11:-1.0488403 12:0.56805158 13:0.41139081 14:0.96885997 15:0.29799783 16:0.51920897 #
1.0124788168208578298390420968644 1:1.2740694 2:0.059934959 3:0.6819303 4:1.1775496 5:0.43810064 6:-0.23202728 7:0.37585124 8:0.8152613 9:1.0596256 10:0.30266583 11:0.2037804 12:0.7559514 13:1.0995942 14:0.54084218 15:1.1039726 16:0.79496473 #
0.032461008857958162376888822109322 1:1.3500279 2:0.97230679 3:0.37344965 4:0.89020997 5:0.45119023 6:-0.038775444 7:1.4295256 8:1.5067798 9:-0.43240872 10:0.3172051 11:0.73505151 12:1.0049294 13:1.4028763 14:0.63284713 15:0.15011704 16:1.1465833 #
-0.99575072176114642896749273859314 1:1.6882001 2:-0.11476523 3:1.0609655 4:0.87204844 5:-0.51641142 6:0.77233726 7:0.69550437 8:0.45600533 9:-0.036727574 10:0.79212117 11:0.36593169 12:-0.32076085 13:0.85509539 14:0.69497561 15:0.21763727 16:0.25369549 #
1.5194640334755129540411644484266 1:0.57376915 2:1.4092441 3:0.27861878 4:-0.23952609 5:1.3400887 6:0.58675444 7:0.76425231 8:0.85235596 9:0.43148673 10:0.84416044 11:0.21710825 12:0.75757235 13:0.77058971 14:0.72660506 15:0.84772617 16:0.76334047 #
1.7713936309346303143996692597284 1:1.570053 2:0.44338349 3:0.14551616 4:0.13969077 5:1.8546525 6:0.20285802 7:0.85778952 8:0.36951318 9:0.63219726 10:0.73443604 11:-0.351827 12:0.26328951 13:0.71214879 14:0.51088101 15:0.73489189 16:0.41095266 #
-3.6912389010780648490595012845006 1:-0.22185078 2:0.073244959 3:0.81977838 4:1.2411367 5:-0.50630248 6:0.4672516 7:-0.095252134 8:0.35366884 9:0.73845315 10:0.23385286 11:0.74935919 12:0.69082361 13:0.40542403 14:0.27070522 15:0.55306524 16:0.52325773 #
-2.6593326174741367395881752599962 1:0.75017518 2:-0.0028151169 3:0.76394784 4:0.70450848 5:-0.061470039 6:0.72648495 7:0.11279625 8:0.36479303 9:0.91425067 10:-0.1492957 11:0.30189615 12:0.33088148 13:0.16444653 14:0.70185941 15:-0.11173512 16:0.47633961 #
1.7356026460484870188594186402042 1:0.055046223 2:0.47759613 3:0.17116594 4:0.65906793 5:0.58176917 6:0.77308398 7:0.46823958 8:0.36309221 9:0.066669866 10:-0.39780217 11:0.64753598 12:-0.077527642 13:1.1794379 14:1.0088652 15:0.60915172 16:0.48342681 #
0.68288406373164001195164019009098 1:-0.21197096 2:1.533154 3:1.7944154 4:-0.033860259 5:0.18042879 6:-0.11156565 7:-0.2450887 8:0.5499863 9:-0.011602436 10:0.99839908 11:-0.18125874 12:0.26669347 13:1.3105664 14:0.84282285 15:0.68294412 16:0.49559519 #
-3.2568521480808874102308436704334 1:0.97274292 2:0.27727291 3:0.43239418 4:0.92988193 5:1.2242405 6:0.55745691 7:0.62417591 8:0.34146467 9:0.68705666 10:0.17936336 11:1.1827663 12:1.037544 13:0.57726216 14:0.49430719 15:0.66319555 16:0.0081493268 #
0.0024682176265443250828823806841683 1:1.5971023 2:1.1815392 3:0.36737338 4:0.81589872 5:0.52405906 6:-0.24914117 7:1.7839961 8:1.9941404 9:-0.98285466 10:0.19640072 11:0.80829251 12:1.1844758 13:1.8423238 14:0.74960345 15:0.22198902 16:1.4550922 #
1.8300033534224888764896377324476 1:-0.016555211 2:0.26334155 3:0.92746246 4:0.38013759 5:0.76202971 6:0.85006404 7:0.56979316 8:0.49872866 9:0.062979415 10:1.0892184 11:-0.28284258 12:-0.36370611 13:0.019870691 14:0.44311285 15:-0.025807256 16:0.40249857 #
-4.4655218001041401265638342010789 1:0.20126556 2:0.024716247 3:0.039797485 4:0.74233502 5:1.2372792 6:0.13487086 7:0.66756445 8:0.68573242 9:0.53683019 10:1.0986333 11:0.84314024 12:0.63707405 13:0.79026687 14:0.60403883 15:0.63759851 16:0.070174523 #
0.3846447290818089115305156155955 1:0.45006314 2:0.97603118 3:0.26674244 4:1.2640052 5:1.6573687 6:-0.25679576 7:1.043738 8:-0.5707947 9:0.71482235 10:1.567901 11:0.15573192 12:0.67481345 13:0.6812309 14:0.72133052 15:0.74484628 16:0.28747773 #
0.087005792944553989043399155889347 1:1.633786 2:1.0990117 3:-0.65062082 4:0.33639866 5:0.94887918 6:-0.46082747 7:0.36924899 8:0.55474836 9:0.5564003 10:0.27513501 11:0.91035563 12:1.3614029 13:0.51466131 14:0.48937634 15:0.47974154 16:0.50919074 #
-2.6753484419292390406042159156641 1:0.98860621 2:0.83241117 3:0.99393111 4:0.6031841 5:0.023571959 6:0.62043631 7:0.93577468 8:0.76816046 9:0.74966222 10:1.48189 11:0.21851349 12:1.0546824 13:-0.3361178 14:0.5556339 15:0.70494801 16:0.24909841 #
-0.20538166525745088497600931987108 1:0.38983399 2:0.52743101 3:0.75092459 4:0.50283188 5:0.63427919 6:0.94527125 7:-0.04991537 8:1.3204069 9:0.71294975 10:1.3853865 11:0.34538496 12:0.080109507 13:0.64938885 14:1.7761042 15:-0.48471248 16:0.53721017 #
-0.93110516793714548366978078774991 1:1.6187837 2:0.046734028 3:1.4557259 4:0.50409549 5:0.38550738 6:-0.2513009 7:1.0077951 8:-0.134084 9:0.37182781 10:1.1425413 11:0.69797051 12:0.41309595 13:0.0063730702 14:0.51647556 15:0.16745141 16:0.9489243 #
0.91900575645710291805556835242896 1:0.93871552 2:0.79595572 3:1.0985425 4:0.65489578 5:0.11405165 6:0.92833573 7:0.56159228 8:0.49328378 9:0.61141044 10:0.51323384 11:-0.28216189 12:0.90417451 13:0.18172516 14:0.85455638 15:-0.1666376 16:0.75585192 #
-1.6589996537810849375205179967452 1:0.88827461 2:-0.06812194 3:0.71206695 4:0.68061447 5:0.10258257 6:0.65676826 7:0.44207272 8:0.81609911 9:-0.011843055 10:0.057296287 11:0.88448775 12:1.0874202 13:0.87905484 14:0.17764457 15:0.7101934 16:0.76765877 #
-1.8619227431528819760586657139356 1:0.45629969 2:0.41855079 3:0.29250664 4:0.54119796 5:0.16191158 6:0.40325668 7:0.69552988 8:0.43149 9:0.87825203 10:0.61766303 11:0.85060352 12:0.844046 13:1.1898093 14:-0.18422435 15:0.64562547 16:0.83608544 #
-0.49993005880161323073451740128803 1:0.45987734 2:-0.12027151 3:0.20201582 4:1.8454381 5:-0.12027037 6:0.55854565 7:0.080756687 8:0.19922881 9:2.3421516 10:0.88069302 11:1.4302113 12:0.79421836 13:1.0307783 14:0.52624643 15:0.20615599 16:0.38058639 #
2.2961499316345896914981494774111 1:0.31716257 2:0.13513179 3:0.079443827 4:1.4231695 5:0.40105936 6:-0.25029913 7:0.97589344 8:0.83472645 9:0.31913555 10:0.72514242 11:0.36093813 12:-0.13552897 13:1.0574706 14:0.68462384 15:0.60980976 16:0.53237122 #
0.25888707741358357727889938360022 1:2.6889949 2:-0.15466221 3:1.8871068 4:0.53804624 5:0.19869646 6:-0.16897646 7:1.1127114 8:-0.316264 9:0.13315779 10:1.2783555 11:0.71989417 12:0.14195742 13:-0.16304262 14:0.5775317 15:-0.034642246 16:1.0320057 #
-1.5936982911845063437539238293539 1:0.84554487 2:0.18885273 3:-0.11021743 4:0.36186424 5:0.69613755 6:0.60007578 7:0.86515117 8:-0.17401604 9:-0.022307461 10:0.25148666 11:0.045004781 12:1.1512406 13:0.61638528 14:0.64095199 15:0.37997079 16:0.77009231 #
-1.5349665128704064187559197307564 1:0.93161356 2:-0.10803311 3:0.11768397 4:0.16066077 5:0.11476739 6:0.13110468 7:0.36505318 8:0.30352363 9:0.31977242 10:0.048470594 11:0.93074441 12:-0.11333603 13:0.56064671 14:0.25368389 15:0.57908404 16:-0.13614148 #
-2.5481085519673203343415934796212 1:0.70750523 2:1.4045711 3:0.54175758 4:0.0041060755 5:0.48511562 6:0.99253559 7:0.57722276 8:0.72395325 9:0.22777902 10:1.1433443 11:0.28563175 12:-0.18882683 13:0.55347151 14:0.37986436 15:0.74097788 16:0.72822899 #
0.69492707136573572679338894886314 1:0.8460089 2:0.69379056 3:-0.069595598 4:1.2078463 5:-0.062970839 6:0.97903997 7:0.50437081 8:1.224095 9:0.47626194 10:-0.66216701 11:0.23910211 12:0.26383182 13:1.303895 14:0.39683768 15:0.83848143 16:0.72173744 #
-2.2706595952242296654333131300518 1:0.19269875 2:0.88706058 3:0.98574001 4:0.85996032 5:-0.56473744 6:0.17253868 7:1.1884199 8:0.23939872 9:0.3358109 10:1.083887 11:0.26675034 12:0.24430031 13:0.86303568 14:0.22555587 15:0.43947852 16:0.45434126 #
3.4687729083234639659849563031457 1:0.26569384 2:-0.20889719 3:0.39937091 4:1.1123855 5:0.36239034 6:0.1266118 7:0.66460156 8:0.5393309 9:0.48471636 10:-0.26445478 11:0.58624893 12:1.071902 13:0.23150276 14:0.68270147 15:0.34215418 16:0.43893924 #
1.2426574817855833288149369764142 1:0.091972992 2:1.0769992 3:0.49649441 4:0.7112534 5:0.66439945 6:0.72765332 7:0.91999155 8:0.44114983 9:0.79579049 10:0.83440924 11:-0.15053529 12:-0.20151392 13:-0.079522923 14:0.8721298 15:0.91839725 16:0.88027912 #
-0.91088412233091775593862848836579 1:-0.21483335 2:-0.12471287 3:1.3965602 4:0.3589111 5:1.7254295 6:-0.47164676 7:0.48897925 8:0.48958662 9:0.2123546 10:1.0376375 11:-0.52196109 12:0.55701405 13:0.53732234 14:0.56021297 15:0.46437868 16:0.1845153 #
1.0025521538409647437362082200707 1:0.9056105 2:0.66597253 3:0.65627187 4:-0.46008131 5:1.0959873 6:-0.21633369 7:-0.28528726 8:0.58991235 9:0.10115395 10:-0.015892411 11:0.64293879 12:0.21913226 13:0.19553277 14:0.54086608 15:0.11928885 16:-0.19899209 #
1.6828721235881580753357411595061 1:0.55073172 2:0.47590125 3:0.45718288 4:0.24274133 5:-0.27105984 6:0.15045522 7:0.083598547 8:0.15276471 9:-0.039654851 10:0.99257404 11:0.11119686 12:1.2983203 13:0.63197887 14:0.22384505 15:0.5190627 16:0.99151409 #
-4.3689488724591880597358795057517 1:0.45752773 2:0.19797949 3:-0.099121884 4:1.0890206 5:1.315882 6:-0.11100489 7:0.16687745 8:0.57783252 9:0.36884558 10:0.45752895 11:-0.11727053 12:-0.034655821 13:-0.05353573 14:0.4132666 15:0.64816749 16:0.86459601 #
-1.9500935798811631638471908445354 1:0.75629431 2:0.47588027 3:-0.48113582 4:0.93812275 5:1.1762071 6:0.74271983 7:0.76611388 8:0.394898 9:0.56698406 10:-0.29546928 11:-0.40570489 12:-0.11636744 13:-0.062892303 14:0.22012563 15:0.13147102 16:0.61227983 #
0.48848600303111339160366810574487 1:1.0640658 2:0.51401496 3:0.73840201 4:0.33004269 5:0.64641589 6:1.2513081 7:0.65005541 8:0.60864025 9:0.44575328 10:0.47085086 11:0.041517079 12:1.0881152 13:0.84138209 14:0.879601 15:0.19571967 16:-0.036837924 #
8.3036696710441191271456773392856 1:0.93378639 2:0.30906385 3:0.23854065 4:0.78004104 5:0.3464002 6:0.74687761 7:0.31817678 8:0.63046163 9:0.60319865 10:0.13862458 11:0.6017372 12:0.68910563 13:0.24157676 14:0.74534285 15:0.42339066 16:0.00081373256 #
2.7717204003642761378500836144667 1:0.63450062 2:0.22400846 3:0.88785762 4:0.47726509 5:0.57571971 6:0.42052099 7:1.0822098 8:0.76741904 9:0.28577742 10:0.44500616 11:-0.067456327 12:0.25546008 13:-0.32697123 14:0.26142704 15:0.80915743 16:0.79400474 #
0.82505301282107668114917942148168 1:0.53122187 2:0.088975094 3:0.028741911 4:1.2558228 5:0.69520909 6:0.99891818 7:-0.094346412 8:-0.30381235 9:0.46118006 10:0.50179368 11:0.38221228 12:0.42963791 13:0.35094655 14:1.1914961 15:0.11317924 16:1.2915908 #
4.2806839778796392792514780012425 1:0.29196161 2:0.44651002 3:0.75508285 4:-0.1732543 5:0.78480768 6:-0.31280911 7:0.11931707 8:0.3247492 9:0.46154806 10:0.48804718 11:1.1603903 12:0.33770585 13:0.87545919 14:0.2391198 15:0.97897798 16:0.24519767 #
0.10656802514980300011782077262978 1:1.4187821 2:0.73219293 3:0.8912847 4:0.085372932 5:-0.15195389 6:-0.062051736 7:1.6782231 8:-0.23385845 9:0.86572057 10:0.40478218 11:0.23740476 12:0.81522834 13:-1.2175587 14:0.22221828 15:-1.5584747 16:1.0904897 #
-3.8144889239905315214684833335923 1:0.94371581 2:0.4345831 3:-0.010904354 4:0.42281905 5:0.7888009 6:0.58930606 7:0.068148434 8:0.59155029 9:1.0427586 10:0.11317054 11:-0.33420673 12:1.0485195 13:0.38544145 14:0.30789849 15:0.86517996 16:0.20978479 #
0.028325153307383822004483775458539 1:0.95426357 2:0.16869284 3:0.5919919 4:0.64911562 5:0.61986214 6:0.35133111 7:-0.05244216 8:0.57140881 9:-0.072598286 10:0.034555931 11:0.75441611 12:0.12831821 13:0.81177169 14:0.93420291 15:0.43399817 16:0.9914335 #
0.48186979359547515988637655937055 1:0.65567952 2:0.60100287 3:1.6191288 4:-0.19507596 5:-1.0554507 6:0.10148125 7:0.055017702 8:-0.045881163 9:0.84950435 10:0.26464981 11:1.0652592 12:0.41110912 13:1.0290771 14:0.3232795 15:0.16972429 16:0.24873464 #
3.1432733525638791860501441988163 1:0.52489758 2:-0.23072632 3:1.5610489 4:0.92333961 5:-0.77776206 6:0.20160921 7:0.71607077 8:0.4889091 9:0.31096968 10:-0.41406766 11:2.1551416 12:0.50044411 13:0.85073048 14:0.76038128 15:0.74267703 16:-0.085534818 #
-0.34230482156981151264929508215573 1:0.58283752 2:0.25422129 3:0.08977852 4:0.83964926 5:0.6951803 6:0.38797721 7:0.53017157 8:1.1548548 9:0.069717906 10:0.095636591 11:0.35055402 12:0.36065623 13:0.02602536 14:0.30883688 15:0.10339262 16:-0.48582071 #
-2.3158002349457103008489866624586 1:0.78213751 2:-0.14298782 3:0.07874687 4:1.2111344 5:1.2475208 6:0.93109965 7:1.1782776 8:0.90643489 9:0.32106188 10:0.64529866 11:0.083762832 12:0.88201028 13:0.48990366 14:0.9100737 15:0.84702486 16:0.68771291 #
-2.2200125126351277771163950092159 1:0.40333608 2:0.69193131 3:0.49410543 4:0.0065021473 5:0.6551795 6:0.95501143 7:0.39003846 8:0.028895155 9:0.16240233 10:0.98036695 11:0.61027962 12:0.11282926 13:0.039285772 14:-0.11365448 15:0.3992804 16:0.22920205 #
0.49504626770369147825689992714615 1:0.52171189 2:0.65406108 3:0.25555497 4:0.9669466 5:-0.44511381 6:-0.2599653 7:0.17502508 8:0.86064667 9:1.0498739 10:0.18165521 11:0.047156673 12:0.65703082 13:0.95138168 14:0.40636513 15:0.10147102 16:0.67576331 #
0.03823673558961534352240718703797 1:0.30470714 2:0.77365345 3:0.85263407 4:1.0185978 5:0.16244544 6:0.41423494 7:1.1263487 8:2.3177755 9:0.35591328 10:0.38331881 11:0.66763127 12:0.40798706 13:0.091408491 14:0.13261324 15:-0.070017956 16:-0.20917481 #
1.5932445880244592295582606311655 1:0.41133612 2:0.026060378 3:0.19304809 4:1.4129208 5:0.2079127 6:0.98699319 7:1.0366203 8:0.68347502 9:0.065126732 10:0.93928468 11:1.1619422 12:0.058025889 13:0.26245376 14:0.40628058 15:0.94192797 16:0.40484843 #
-1.3005908464646041000634113515844 1:0.44022536 2:1.1492122 3:0.51777172 4:0.19601463 5:0.43453851 6:0.71488839 7:0.96167541 8:0.56599599 9:-0.2199025 10:0.42407086 11:0.55503809 12:0.99570632 13:0.31411621 14:0.60862935 15:0.97231746 16:0.58522582 #
-1.3065574515187292625739701179555 1:0.087344088 2:0.10109352 3:0.34830084 4:0.1506009 5:0.18359494 6:1.2742851 7:0.69395596 8:0.9274388 9:0.095470339 10:0.3090708 11:0.64369172 12:0.43045276 13:0.17403618 14:0.9171142 15:0.82969213 16:-0.057814918 #
2.5831634668900980145167523005512 1:0.37445459 2:0.15196656 3:0.53769189 4:-0.0064648534 5:1.2420279 6:0.94692159 7:0.58354086 8:0.31227186 9:0.50351483 10:0.4260186 11:0.40406403 12:-0.011582433 13:0.9985835 14:0.53296864 15:0.013237763 16:0.96566164 #
-0.203077384560324980533607686084 1:0.06382113 2:0.07753361 3:0.2300026 4:0.88498157 5:1.2387978 6:-1.2482669 7:0.78243208 8:-0.0056928452 9:-0.68522668 10:-0.33889583 11:0.12785326 12:1.2489963 13:1.4877429 14:-0.27383035 15:0.69264042 16:2.2461679 #
-0.44590060714571339017808782045904 1:0.67733783 2:0.45077139 3:0.26150385 4:-0.24947803 5:0.78746635 6:0.098982051 7:-0.069089755 8:1.0575517 9:0.025064392 10:0.3027291 11:-0.52790976 12:0.95626491 13:1.1031126 14:-0.50921559 15:-0.12640923 16:0.076251581 #
-1.1724392607991673820322375831893 1:0.92042142 2:-0.20994106 3:1.6163652 4:-0.53862357 5:1.1731529 6:0.29156145 7:0.87145442 8:0.574839 9:0.85161364 10:1.3239524 11:-0.095438614 12:0.44712919 13:0.56896317 14:0.75426167 15:0.88368183 16:0.86843669 #
0.22144007303818721843491346135124 1:0.023412732 2:0.23218796 3:0.50174004 4:-0.0044010547 5:1.5821836 6:0.74632436 7:1.3164881 8:0.45264989 9:0.25854897 10:0.45675358 11:0.64087427 12:0.33212385 13:1.1127198 14:0.3517572 15:-0.72865939 16:1.2113032 #
-0.28392592198018168359041624171368 1:-0.12120843 2:0.28361911 3:0.15243027 4:0.757707 5:0.72871864 6:-0.40632445 7:0.9844082 8:0.91852331 9:1.9217353 10:0.092316985 11:0.029244458 12:-0.063224979 13:1.1454082 14:0.63647419 15:0.72321308 16:0.64415419 #
0.84466526612066405999001972304541 1:1.1627437 2:0.66509491 3:0.22241418 4:0.25334173 5:0.33648318 6:0.2748695 7:0.1689174 8:0.81417602 9:0.37560171 10:0.42325658 11:0.1065982 12:-0.2503047 13:1.0957272 14:0.79808468 15:1.0297997 16:-0.28102452 #
-2.9404815813482350073115867417073 1:1.0858723 2:0.91549933 3:-0.30096912 4:0.87452143 5:1.2408729 6:0.92962867 7:0.53317142 8:0.58438694 9:0.35929117 10:0.99652797 11:0.94872248 12:0.20927206 13:0.39767116 14:0.86945635 15:0.60776359 16:0.43427229 #
-4.3315112600468328452052446664311 1:0.44202501 2:0.0023401082 3:1.2524329 4:1.1116924 5:1.4999658 6:0.50254136 7:-0.17944765 8:0.52216572 9:0.72648615 10:0.04682637 11:1.3223677 12:0.49235958 13:0.47563863 14:0.65641266 15:0.75683099 16:0.53832167 #
2.7117195381890533134594534203643 1:0.32523224 2:0.020698339 3:0.69637859 4:0.73577654 5:0.62426668 6:0.56739342 7:0.29807001 8:0.053323254 9:0.41795152 10:0.6004414 11:0.062697649 12:-0.0019269318 13:0.94943857 14:0.82341504 15:0.63655299 16:0.24039127 #
-5.5479590571654027186809798877221 1:0.5581004 2:0.48408082 3:0.96992165 4:1.0252701 5:-0.28182003 6:0.4870452 7:0.15552166 8:0.87804031 9:0.21093105 10:1.0462073 11:0.44414818 12:0.51297146 13:0.40148625 14:0.36283144 15:0.037077602 16:0.62881064 #
2.7687001249497420474199316231534 1:0.19948335 2:0.82257551 3:0.41330165 4:1.2226434 5:0.10977982 6:0.2030254 7:0.58927852 8:0.53902209 9:0.088782333 10:0.18788773 11:0.15136753 12:0.6459291 13:0.2013014 14:0.92689157 15:0.63807607 16:0.36949408 #
-2.8404974285702468961289923754521 1:0.3325038 2:0.51721078 3:0.94953436 4:0.85183084 5:-0.05970009 6:1.232165 7:0.41971946 8:0.44333678 9:0.92098337 10:0.52904826 11:0.7497102 12:0.26026967 13:0.70229471 14:0.379798 15:1.0023544 16:0.92009175 #
-1.5052707524651893766787225104054 1:0.65945458 2:0.11322566 3:1.1057118 4:-0.14563741 5:0.40529668 6:-0.093252286 7:0.81689513 8:-0.042917643 9:0.47561306 10:-0.25709608 11:-0.074912816 12:0.31728646 13:0.90477163 14:0.93394113 15:0.92420316 16:0.41995114 #
-0.42299847232084786252670483008842 1:0.56404161 2:0.1962712 3:0.91636503 4:-0.31089532 5:0.70689648 6:0.56312531 7:0.37035972 8:0.7719152 9:0.88183087 10:1.0489048 11:0.61161441 12:0.40940538 13:0.12805445 14:0.93392682 15:0.65076131 16:-0.29063511 #
1.8408379285971014915901378117269 1:-0.082005486 2:-0.23959087 3:1.6034305 4:0.38967618 5:0.15390222 6:0.73289496 7:0.82537663 8:0.19780384 9:0.44450435 10:0.83412886 11:-0.23345312 12:0.88563794 13:0.49429774 14:0.93155682 15:0.16618006 16:0.42332777 #
-0.13229125637252589497983024102723 1:1.4268094 2:0.075318731 3:0.27516639 4:0.52635747 5:-0.46974787 6:1.50027 7:0.76500648 8:-0.41283703 9:-0.25888842 10:0.2067911 11:0.32854727 12:0.76540852 13:1.1924216 14:-0.24534091 15:0.77827835 16:0.33036208 #
-1.7795727523325666208364737030934 1:0.68588424 2:1.0484844 3:0.10759453 4:0.57479882 5:0.62125862 6:0.70320684 7:0.96618873 8:0.96294951 9:0.83608383 10:0.48872223 11:0.37210271 12:0.40923974 13:0.42568365 14:0.38564745 15:0.13739982 16:0.14082947 #
0.99366483211394796004611862372258 1:0.015133305 2:1.4086596 3:-1.0710106 4:0.021581171 5:1.406875 6:0.55953968 7:0.80867875 8:0.59712994 9:0.27465457 10:0.46236551 11:0.12233965 12:0.74674153 13:0.30723813 14:0.2918309 15:0.36882776 16:0.19543128 #
0.682197867540299540678461198695 1:0.24914628 2:0.2866343 3:0.35547611 4:0.56639302 5:0.80855435 6:0.46199745 7:0.84720361 8:0.79606074 9:0.019734064 10:0.85953975 11:0.034721967 12:0.70718986 13:0.11901077 14:0.75241101 15:0.13049683 16:0.55784917 #
2.1384059764383178681157460232498 1:0.76593119 2:-0.14795855 3:0.24556027 4:0.89361262 5:0.4290708 6:-0.037206657 7:0.029373769 8:-0.01482429 9:0.84994882 10:0.72140819 11:0.49487588 12:0.13323852 13:0.067174003 14:0.085428782 15:0.47477382 16:0.98797709 #
-2.0188423724711710427470734430244 1:0.37421015 2:0.030429384 3:0.62711716 4:0.61857891 5:0.21802355 6:1.0183438 7:0.86827326 8:0.23507518 9:0.099576719 10:0.10314025 11:0.70393848 12:0.22272854 13:0.23117322 14:0.686719 15:0.13183416 16:1.0061173 #
0.89452773657123108019817436797894 1:-0.065067515 2:0.031553961 3:0.89160484 4:0.049066227 5:-0.095212482 6:-0.30751422 7:-0.37241456 8:1.0860485 9:0.54167634 10:1.240045 11:0.19037341 12:0.087526441 13:0.33623818 14:0.58288395 15:0.16400105 16:0.57283008 #
-2.9519704222399711923685572401155 1:0.63387328 2:0.22560161 3:-0.17125894 4:0.16497047 5:0.54401511 6:0.67292708 7:0.83056909 8:0.38921192 9:1.0198991 10:0.79424703 11:0.82601786 12:1.056814 13:0.68715924 14:0.89048624 15:0.17388816 16:0.56858051 #
0.46329475806979386609540938479768 1:0.46123821 2:0.60107756 3:-0.17027164 4:0.18596298 5:1.4039652 6:0.52128881 7:0.085681774 8:0.67637336 9:0.15319711 10:-0.0064240322 11:0.18160275 12:1.0511373 13:0.82539159 14:0.75748849 15:-0.58703226 16:-0.74039632 #
1.5742992186360005302248055158998 1:0.31779698 2:0.54244548 3:0.91136831 4:0.38775215 5:0.6791538 6:0.23968779 7:-0.010580197 8:0.27456945 9:0.39269546 10:0.89445472 11:0.40580469 12:0.96008533 13:0.78329343 14:0.70307022 15:1.2590764 16:0.51593053 #
-1.9594511076067469002026655289228 1:1.3723114 2:-0.21179922 3:1.7995455 4:0.8868556 5:0.24692203 6:0.57761449 7:0.20667583 8:0.25626022 9:1.0692968 10:0.91580415 11:0.63054258 12:-0.1440635 13:0.31035423 14:0.98695141 15:0.67447293 16:0.36585858 #
1.7117319998482518617066716615227 1:1.2476996 2:0.11493127 3:0.31455004 4:0.34341797 5:0.32407179 6:0.92554551 7:0.077483751 8:0.12173322 9:0.64883268 10:0.18272984 11:0.3150059 12:0.35055044 13:0.20625982 14:0.20524409 15:0.87260705 16:0.93795317 #
-1.1715484972463223733996073860908 1:0.67597526 2:0.48355621 3:0.1383958 4:1.0874022 5:0.98073447 6:0.35296437 7:0.4832198 8:-0.033461232 9:1.1975141 10:-0.075865738 11:0.66921192 12:0.10611431 13:0.56309354 14:0.44640309 15:-0.20347622 16:0.82549119 #
-1.7779252364653936879790308012161 1:0.37221351 2:-0.082127236 3:-0.035077747 4:0.37268081 5:1.0144489 6:0.63671118 7:-0.075598918 8:1.0772684 9:0.29721725 10:0.089953765 11:-0.26031438 12:0.35771209 13:0.39262286 14:0.39113462 15:-0.072520345 16:1.3500605 #
0.99114175093693179796616732346592 1:0.5025838 2:-0.084294714 3:0.53183365 4:1.0391717 5:0.27507323 6:0.69689792 7:0.8072139 8:0.66025615 9:1.3126906 10:-0.099130832 11:0.25324714 12:0.43007264 13:0.61961091 14:1.3359007 15:1.0682868 16:0.52452922 #
-0.89000291328409819602285324435798 1:1.217721 2:-0.2447373 3:-0.065672584 4:1.6529139 5:0.083955392 6:1.0381529 7:0.56209815 8:0.72403568 9:0.56713533 10:1.1972224 11:-0.54247504 12:0.34793687 13:0.29923418 14:0.018422527 15:0.85023636 16:0.33830357 #
0.98025621708454890868011943894089 1:1.1924826 2:0.51815611 3:0.98147017 4:0.74212718 5:1.1289394 6:0.61441267 7:0.13781053 8:0.22172683 9:0.3336052 10:0.47907779 11:-0.42428505 12:0.30771267 13:-0.42003825 14:0.41089782 15:-0.24917537 16:0.43152642 #
-2.4610723318863385600252513540909 1:0.87240875 2:0.5045712 3:0.53178394 4:1.3538395 5:1.4350377 6:0.40619332 7:0.70414287 8:0.82412422 9:0.42525485 10:0.0018408854 11:0.11416566 12:0.18661912 13:1.1613457 14:0.87517166 15:0.28790727 16:0.079862013 #
1.1556084331886575800041327966028 1:0.51028746 2:0.34427673 3:1.019689 4:0.85692465 5:0.89833206 6:0.37159181 7:0.33898276 8:0.4501591 9:-0.089457408 10:0.86355269 11:-0.059238363 12:0.15916263 13:0.81226254 14:-0.062463626 15:0.17463265 16:1.2059274 #
1.0576768705116694757606410348671 1:1.4189527 2:0.91218984 3:0.97538972 4:0.98907137 5:0.9236328 6:0.25003716 7:1.347502 8:0.10946031 9:-0.16076091 10:-0.04921297 11:-0.27867356 12:0.17356353 13:0.050882809 14:0.90791005 15:0.33493525 16:0.1253814 #
-2.3701460444541306848975636967225 1:-0.026001735 2:0.74462152 3:0.099681519 4:0.7438904 5:0.28685895 6:0.65554535 7:0.20720121 8:0.6865083 9:0.61838675 10:0.88152945 11:1.1099799 12:0.27689624 13:0.72382873 14:0.68909091 15:0.80927569 16:1.0509404 #
0.31255465052589198604593434538401 1:-0.40776733 2:-0.10703501 3:1.2645293 4:0.16191714 5:2.009357 6:-1.1034355 7:0.63108522 8:0.31219935 9:0.31079757 10:1.1336255 11:-1.3211882 12:0.20210606 13:0.57556927 14:0.88726324 15:0.35471392 16:0.10321773 #
1.6524884005156177391171468116227 1:0.2146717 2:0.42280006 3:0.94446784 4:-0.020417484 5:1.41361 6:-0.23946297 7:0.27511516 8:0.91943765 9:1.121192 10:0.70859706 11:0.62048453 12:0.085914269 13:0.04523984 14:0.017694458 15:0.46931338 16:0.88435996 #
