SVM-light Version V6.20
2 # kernel type
3 # kernel parameter -d 
0.5 # kernel parameter -g 
1 # kernel parameter -s 
1 # kernel parameter -r 
empty# kernel parameter -u 
12 # highest feature index 
33 # number of training documents 
1001 # number of support vectors plus 1 
0 # threshold b, each following line is a SV (starting with alpha*y)
-4.0651458321088691505451606644783 1:0.49869952 2:-0.33399427 3:0.57059854 4:0.33349305 5:0.50414985 6:0.49649769 7:0.50204974 8:-0.33501983 9:0.57424945 10:0.32454717 11:0.50593716 12:0.49436325 #
-30.538646159535328905576534452848 1:0.50136042 2:0.70004547 3:0.48356026 4:0.53939635 5:0.49755731 6:0.50049841 7:0.49892148 8:0.70129001 9:0.48093304 10:0.54255539 11:0.50055033 12:0.50050873 #
53.59013584991646439448231831193 1:0.49671119 2:0.13597548 3:0.55202693 4:0.6487965 5:0.44788685 6:0.49826822 7:0.49802679 8:0.1729131 9:0.64953893 10:0.66629004 11:0.44541496 12:0.51921099 #
-1.9418346684619782749336991400924 1:0.53183883 2:0.16154066 3:-0.14151603 4:0.64442027 5:0.60775709 6:0.49627489 7:0.4991059 8:0.0078665782 9:-0.44333035 10:0.73341537 11:0.62196863 12:0.47011024 #
20.370905565567845485475118039176 1:0.49121344 2:0.37345949 3:1.0482923 4:-0.064286739 5:0.54921919 6:0.48826462 7:0.49773476 8:0.37502721 9:1.0378939 10:-0.093093902 11:0.55611187 12:0.46029562 #
27.01159339196050979126084712334 1:0.34286004 2:0.35894021 3:0.07104291 4:0.97519779 5:0.31295711 6:0.54726559 7:0.6018976 8:0.13965337 9:1.4190884 10:-0.070047095 11:0.31077558 12:0.57721746 #
-4.2481164010250402895962906768546 1:0.43184325 2:0.22532851 3:-0.031025488 4:0.22940433 5:0.5778634 6:0.53315669 7:0.54761028 8:0.22955585 9:0.31213289 10:-0.20858547 11:0.58158106 12:0.4736546 #
-6.9646228024258300948190480994526 1:0.51846582 2:0.70108563 3:0.18915747 4:1.1618797 5:0.48780206 6:0.41169986 7:0.62309724 8:-0.29114464 9:0.41259515 10:0.21223754 11:0.61849022 12:0.48608699 #
-11.339454430113624638920555298682 1:0.36396492 2:-0.089407519 3:0.40379757 4:-0.27770817 5:0.3919377 6:0.69663787 7:0.25707346 8:0.57685649 9:0.42580712 10:0.88253838 11:0.1410481 12:0.60826159 #
-4.4993639168632348912524321349338 1:0.43192098 2:0.86761129 3:0.7762723 4:0.061122999 5:0.47369722 6:0.52874273 7:0.2603071 8:-0.17325643 9:0.078470506 10:0.39335465 11:0.39804503 12:0.5696125 #
2.5536583600568896201821189606562 1:0.43369329 2:-0.069819853 3:1.2929443 4:0.23069531 5:0.50082588 6:0.38305485 7:0.20360331 8:0.26794192 9:-0.18612288 10:0.82836843 11:0.53646678 12:0.58532989 #
-12.349857854212471508503767836373 1:0.43892598 2:0.35220572 3:-0.21295758 4:0.25096491 5:0.39582327 6:0.80378383 7:0.46832082 8:0.24896632 9:0.99551243 10:0.47627673 11:0.075745389 12:0.51368117 #
-2.4700372394903280515165988617809 1:0.3694419 2:-0.20896375 3:0.76912236 4:0.5662812 5:0.46794665 6:0.077266566 7:0.57507986 8:0.85578281 9:0.50083959 10:0.17548978 11:0.98359144 12:0.66326898 #
-6.8382370030390955406573993968777 1:0.6447823 2:0.26694483 3:0.045022395 4:0.0075758239 5:0.6451599 6:0.05895561 7:0.60248619 8:0.31938884 9:0.80205268 10:0.76784611 11:1.1184751 12:0.66689318 #
14.093252454846210142136442300398 1:1.0768383 2:0.31598631 3:0.77567303 4:0.19634064 5:0.84608531 6:0.39968491 7:0.89205617 8:-0.013361807 9:0.4677076 10:0.68917948 11:0.9052276 12:0.31728199 #
-3.9009560955726763076256702333922 1:0.74860764 2:0.19487825 3:0.87246549 4:0.74299335 5:0.42838368 6:0.98753583 7:0.88997138 8:0.28464624 9:0.26094314 10:0.15377854 11:-0.0013909745 12:0.29517606 #
-0.0061954647478908789204332663302921 1:0.52233618 2:-0.088654697 3:0.20138203 4:0.6233409 5:0.85297394 6:0.77648073 7:0.62907761 8:0.46758166 9:0.68247968 10:0.44504952 11:0.76884675 12:-0.29653847 #
6.0991723332056242412591018364765 1:1.0084769 2:0.043576576 3:0.17456686 4:0.55705714 5:0.44223267 6:0.17189966 7:1.0825626 8:0.11079251 9:0.43525612 10:0.50064284 11:0.3760581 12:1.322703 #
0.1516875809411141196036965084204 1:-0.0065382095 2:0.15366009 3:0.65918082 4:0.77574116 5:0.34156564 6:1.0363617 7:-0.11296021 8:0.037864085 9:0.23803441 10:0.26784274 11:0.2817913 12:-0.00019949529 #
5.718253050729058983847608033102 1:0.066782601 2:0.40879601 3:0.62911063 4:0.11549228 5:0.70534009 6:0.54117727 7:-0.13977775 8:0.049715068 9:0.98760802 10:0.77465606 11:0.73911124 12:0.13600349 #
-7.8902068410578918289388639095705 1:-0.064698748 2:0.41003975 3:1.0646205 4:0.89353842 5:0.71074432 6:0.18356675 7:0.5334546 8:0.2859143 9:0.5396381 10:0.1715131 11:0.47132412 12:0.77805501 #
5.6342316437413995089400486904196 1:-0.20405607 2:-0.055807635 3:0.24457112 4:0.50138652 5:0.66071814 6:0.47459024 7:-0.19148949 8:0.29603249 9:0.5703854 10:0.19128652 11:0.44660643 12:0.98194408 #
2.8312526326830611544949078961508 1:0.56520957 2:0.20693944 3:1.228205 4:0.19491901 5:0.34048402 6:0.68742174 7:0.60584611 8:0.3578867 9:0.91942143 10:0.90885371 11:0.1116379 12:-0.11230897 #
6.4255726963904296056284692895133 1:0.49397349 2:0.6584053 3:0.81600583 4:0.33180043 5:0.57871324 6:0.49464306 7:0.35731789 8:-0.14361122 9:1.0867386 10:0.74645728 11:0.46905318 12:1.2641128 #
0.5201305022540334555003482819302 1:0.85110521 2:0.43428209 3:0.77622789 4:0.29072061 5:0.19033571 6:0.0013330163 7:0.28127605 8:0.31237653 9:0.41049185 10:0.21594089 11:0.79914397 12:1.1641618 #
-2.2126213738755446946981919609243 1:0.82856536 2:-0.13718194 3:0.65674847 4:0.13212526 5:1.0590076 6:0.010953801 7:0.6438269 8:0.57989126 9:0.91455561 10:0.5487746 11:0.17787129 12:0.72963744 #
-0.10961816771151954019725138778085 1:1.1966411 2:0.014526392 3:0.45381227 4:0.060364649 5:-0.040090919 6:0.80803961 7:0.94229567 8:0.30434901 9:0.87558055 10:0.77428037 11:0.68148732 12:0.57049161 #
-0.75426899197390862017442714204662 1:0.36421883 2:0.22464561 3:0.55589986 4:0.7233572 5:1.4972823 6:0.54790807 7:0.47901183 8:0.025158757 9:0.52063608 10:0.3138136 11:0.78559661 12:0.53871274 #
1.7154819857067644672810047268285 1:0.06504266 2:0.13245027 3:0.57939804 4:0.35043848 5:-0.46006557 6:0.16538344 7:0.22103569 8:0.22450101 9:0.65794754 10:0.36948755 11:0.13737538 12:0.69636649 #
2.1045908625296179117469819175312 1:0.57352722 2:1.0075512 3:0.65327215 4:0.62754267 5:1.0121059 6:0.89880031 7:0.65943146 8:-0.13811967 9:1.0787723 10:0.16230872 11:0.29548874 12:0.13997334 #
2.2792714548082697589848066854756 1:0.018955681 2:0.038852308 3:-0.020181715 4:0.74072152 5:0.14997306 6:-0.05499747 7:0.17956464 8:0.057838243 9:0.3955479 10:0.78426743 11:0.94688952 12:0.45919567 #
2.4383217000240318128589933621697 1:1.0801302 2:0.60200137 3:0.36071452 4:0.23981474 5:0.83865517 6:0.8850109 7:0.34776554 8:-0.0013557108 9:0.47431737 10:0.74820465 11:-0.11358493 12:0.36108735 #
-1.4579140975951832004398056596983 1:-0.12017874 2:0.61669075 3:0.9348067 4:-0.28888652 5:0.8491686 6:0.68768716 7:-0.48129785 8:-0.081664711 9:1.5999511 10:0.81650645 11:0.80283129 12:-0.22066613 #
0.15374252253202491669270557395066 1:0.96062952 2:0.30419263 3:1.003961 4:0.42320675 5:-0.020709908 6:0.33750239 7:0.63714397 8:0.1172952 9:0.30918524 10:0.47489172 11:-0.25174442 12:0.81920481 #
1.0552076440868423112817708897637 1:0.81263232 2:-0.21967851 3:0.13390847 4:0.9558627 5:0.75470728 6:0.85925519 7:0.70411479 8:0.4381521 9:0.21269007 10:1.1238432 11:0.031685513 12:0.61949044 #
-3.5614357362406519058595222304575 1:0.051886052 2:0.26914966 3:0.46458292 4:0.84194249 5:0.92091447 6:0.1078857 7:0.55748987 8:0.44217429 9:0.43712389 10:1.2647227 11:0.38188669 12:0.43361351 #
-0.44959986671918583667206803511363 1:0.34487554 2:0.050499115 3:1.1851445 4:0.90617317 5:0.99032998 6:0.37634066 7:0.19687617 8:-0.083674103 9:0.65741783 10:0.70149016 11:0.0018764311 12:0.13102473 #
-6.1329542653957078712778638873715 1:0.39327383 2:0.24713373 3:0.49854407 4:0.10739421 5:0.18424803 6:1.3242638 7:0.4401207 8:0.15847965 9:0.35279292 10:0.39550796 11:0.82938892 12:0.99738514 #
-4.1921258147166780005932196218055 1:0.51178896 2:0.52405751 3:0.34038335 4:0.37144729 5:0.30356032 6:-0.2368591 7:0.6833415 8:0.35309157 9:0.52389103 10:0.35901231 11:0.085615464 12:-0.073297538 #
-4.3052273699745340351796585309785 1:0.65276271 2:0.055496611 3:0.14898188 4:0.81321782 5:0.6916191 6:1.0418384 7:0.19872904 8:0.17232485 9:0.61234325 10:0.48926976 11:1.3713561 12:0.7152071 #
5.9715437857920425912539030832704 1:0.53501678 2:-0.042452347 3:1.1268115 4:0.81064862 5:0.54750782 6:1.0950638 7:0.68060035 8:0.37172538 9:0.98845977 10:0.13424888 11:0.71174663 12:0.99783051 #
6.3297599629563752188232683693059 1:0.77639014 2:0.46879509 3:-0.11847967 4:0.26927775 5:0.41375136 6:0.50317317 7:0.82434046 8:-0.22151032 9:0.30205089 10:0.96596718 11:0.26069623 12:-0.06606254 #
-10.869427752898262795611117326189 1:0.34026217 2:0.40453029 3:0.66783363 4:0.38214132 5:-0.22499755 6:0.40945712 7:1.0286788 8:0.24228059 9:0.25334054 10:0.39167956 11:0.90822577 12:0.07864356 #
-19.895384757307816414595436071977 1:0.032758906 2:0.294076 3:0.61587012 4:0.03254053 5:0.64401001 6:0.13431296 7:0.86657697 8:0.21656619 9:0.095187165 10:0.40616548 11:0.034044527 12:0.6437 #
8.0520874948742235943655032315291 1:1.0654594 2:0.81501293 3:0.5869537 4:0.8701548 5:0.40580851 6:0.19967946 7:-0.13091719 8:0.19131872 9:0.49624386 10:0.70768976 11:0.73550552 12:0.11867888 #
4.1472579692797406636373125365935 1:0.77078545 2:0.23184137 3:0.73848695 4:0.019720986 5:0.77117568 6:0.46042797 7:0.2107894 8:0.81315196 9:-0.04083002 10:0.40612957 11:0.82621491 12:0.021265371 #
-2.8133563250841162606263878842583 1:0.89666265 2:-0.2976875 3:0.61836094 4:0.23339516 5:0.54160583 6:0.99399209 7:0.36285484 8:0.86493659 9:0.11962978 10:0.18308456 11:0.50491345 12:0.70983905 #
-5.5196976807130031517090174020268 1:0.65989834 2:0.2377242 3:1.0133722 4:1.2307034 5:0.42191756 6:0.72976798 7:0.50345761 8:0.11514122 9:0.065018088 10:0.71829969 11:0.92769665 12:0.50374579 #
-14.878298421327787792733943206258 1:1.0803201 2:0.041736428 3:0.39194641 4:0.83735663 5:0.3126784 6:0.51894879 7:-0.08243417 8:0.389166 9:0.59044433 10:-0.088512354 11:0.37068501 12:0.42289889 #
2.4550303867987079975421238486888 1:0.87299013 2:-0.018558156 3:0.49437785 4:1.061981 5:0.73822689 6:-0.16687636 7:0.76999247 8:0.1641877 9:0.21916752 10:0.1383155 11:0.53066331 12:0.16517259 #
9.2874353407070326937855497817509 1:0.36800134 2:-0.0085709887 3:-0.11745992 4:0.93864685 5:0.48567444 6:0.40039316 7:0.33443344 8:1.1802566 9:0.70038247 10:0.55144387 11:0.23465408 12:0.40163389 #
-4.6148368727713551251667922770139 1:0.44483408 2:0.039766762 3:0.041719206 4:0.38630098 5:0.96375692 6:-0.18838188 7:-0.036816765 8:0.092959292 9:0.25297284 10:0.71485382 11:-0.090105571 12:0.50772351 #
-1.5587217237991974894129043605062 1:0.25366139 2:0.13233042 3:0.74879879 4:0.87131536 5:2.3750515 6:0.31920233 7:0.49459222 8:-0.20080516 9:0.55126107 10:0.34990841 11:0.81931329 12:0.5863356 #
9.7789506735368902923255518544465 1:-0.065183304 2:0.15031418 3:0.48172808 4:0.56665629 5:-0.031370182 6:0.81998426 7:0.9106974 8:0.87269962 9:0.54162019 10:0.65526325 11:0.21673924 12:0.71551037 #
-3.0519908641645567826117257936858 1:0.36396474 2:0.36035275 3:0.1984863 4:1.0739021 5:0.66390157 6:0.40894088 7:0.25849661 8:0.1153629 9:0.12301454 10:0.21724243 11:-0.17184584 12:0.96556515 #
3.2358598686266635269248581607826 1:-0.15920928 2:-0.10792472 3:0.62843239 4:0.72885734 5:0.34714219 6:1.0718919 7:0.29067689 8:0.14222726 9:0.89208281 10:1.0864329 11:1.0675991 12:0.49228272 #
-2.3505995532020027560804464883404 1:0.27469075 2:1.077884 3:0.10474894 4:0.62367684 5:-0.16923133 6:0.87387192 7:0.23038819 8:0.20650685 9:0.70180911 10:0.8290416 11:0.51149052 12:0.32254723 #
4.6059915846984313958500933949836 1:0.54862684 2:0.44532967 3:0.51768482 4:0.42851302 5:0.84651887 6:-0.21434455 7:0.41932419 8:-0.19574115 9:1.0988333 10:-0.13111944 11:0.57097077 12:0.54835355 #
-5.5173933432294886003433020960074 1:0.29632568 2:0.2700249 3:0.25980404 4:0.92095339 5:0.68460929 6:0.74153018 7:1.5111762 8:0.25504023 9:0.67301273 10:0.041968349 11:1.0010916 12:0.44477332 #
-8.4150890236064590510522975819185 1:0.82972574 2:0.10057077 3:0.74380761 4:0.49938247 5:0.68911624 6:0.90515083 7:-0.22515792 8:0.67675304 9:0.94749695 10:0.71188861 11:0.38815406 12:0.80912018 #
-6.7476104126827012308353914704639 1:0.56600988 2:0.25285614 3:0.24928801 4:0.59187478 5:-0.14652173 6:0.87217283 7:0.60159016 8:0.86092246 9:-0.2130266 10:0.84216249 11:0.46972767 12:-0.055584602 #
-2.3665189123453198583035828050924 1:-0.067515038 2:0.40945756 3:0.34121871 4:0.55353051 5:0.66698188 6:0.32960317 7:0.14032328 8:0.75688857 9:0.7493816 10:0.074337982 11:0.2222767 12:0.020140532 #
10.214851900817917496055997617077 1:0.24926445 2:0.21953955 3:0.74021035 4:0.67249995 5:0.088040926 6:0.45349634 7:0.30748695 8:0.083641171 9:0.91497034 10:-0.060995974 11:1.143777 12:-0.056317072 #
-3.0356370120635651765894635900622 1:0.70397669 2:0.42848891 3:1.6101406 4:0.75648606 5:0.17848867 6:1.2704139 7:1.0940037 8:0.017483529 9:0.54009748 10:0.65654379 11:0.12408166 12:0.19493851 #
-5.6799092804117510269179547321983 1:0.93569314 2:0.55842847 3:-0.081552319 4:0.34714508 5:1.0492597 6:0.34508899 7:0.095620476 8:0.3301461 9:0.26037642 10:0.46375182 11:0.52908307 12:1.0661052 #
0.07281162748435868192764530704153 1:0.72412223 2:0.28425857 3:0.3227444 4:0.26220736 5:0.70895988 6:1.102165 7:1.1999182 8:-0.14590698 9:0.68773043 10:0.24669278 11:0.47322473 12:0.76166946 #
6.7472418197401449191374922520481 1:0.60924 2:0.022893542 3:1.2038372 4:0.39486951 5:0.018929373 6:-0.2397337 7:0.88834649 8:0.019800534 9:0.74708658 10:0.82599628 11:0.78000939 12:0.49370688 #
1.2206285688283007306864647034672 1:0.8183254 2:-0.15546164 3:0.2064476 4:1.1806096 5:-0.38731086 6:0.74797964 7:0.84679621 8:-0.0016489984 9:0.41322526 10:0.36551684 11:0.62636203 12:0.66715294 #
3.5661764217508027385861169022974 1:0.11997473 2:0.45679066 3:0.28892758 4:0.37989974 5:0.67675763 6:0.82595825 7:0.84757346 8:-0.088485956 9:0.087336875 10:1.1922078 11:0.76143253 12:0.93319148 #
2.1601508867241427935823594452813 1:1.0822169 2:0.15767585 3:0.42909592 4:0.26731545 5:0.33103654 6:0.60320836 7:0.985349 8:0.33286282 9:1.0492467 10:-0.074853972 11:0.50896466 12:0.015357922 #
2.6038423336598479629344637942268 1:0.04822376 2:0.16961093 3:0.27069911 4:-0.042238466 5:1.1440432 6:1.2048481 7:0.13682045 8:0.32262129 9:0.042461134 10:0.73874778 11:0.29544804 12:0.32127911 #
-1.2226796365169585456555978453252 1:0.20862657 2:0.59447283 3:0.80951446 4:0.078137502 5:0.46972451 6:0.021335931 7:-0.063836232 8:0.73263007 9:0.24605082 10:0.90046275 11:0.59736472 12:1.2718662 #
-4.4075073580953647578439813514706 1:0.69626874 2:0.86835033 3:0.83597064 4:0.48489958 5:0.24085328 6:0.092867047 7:1.1250688 8:0.08900892 9:1.154073 10:-0.027049666 11:0.7549718 12:0.83759445 #
-5.7883520531782286511202073597815 1:-0.15178895 2:1.1670779 3:0.095184922 4:0.23376077 5:0.88425344 6:0.20890917 7:0.62949693 8:-0.060060963 9:0.6593188 10:0.47016707 11:0.67491496 12:0.45610595 #
-7.941363699156842592685734416591 1:0.36175388 2:0.69350737 3:0.34225523 4:0.48924449 5:0.64802253 6:0.83954597 7:0.16206419 8:0.75057477 9:0.57452661 10:-0.049162246 11:1.1629354 12:0.4096666 #
8.1278594460527653353665300528519 1:0.89589047 2:1.04761 3:0.33559221 4:0.32339063 5:0.066517465 6:0.81073302 7:0.3271578 8:0.082639888 9:0.95055944 10:-0.03958955 11:0.59005147 12:0.78796601 #
-0.89651435515459221292644542700145 1:0.61383247 2:0.085808262 3:0.5975914 4:0.2905086 5:0.48147225 6:1.0301226 7:0.6417259 8:-0.16800107 9:-0.00430329 10:0.30084202 11:0.77634919 12:-0.2055551 #
-8.9828054463327600132060979376547 1:0.73757434 2:0.29995164 3:0.39825997 4:-0.25074846 5:0.58821857 6:0.50986409 7:-0.0060883593 8:0.23481241 9:0.4194344 10:0.0051256148 11:-0.038221251 12:0.22098178 #
-0.94330903007404265370183793493197 1:0.57283461 2:-0.062593676 3:-0.077397473 4:0.92182982 5:1.2207495 6:0.49607459 7:0.27192265 8:0.62802345 9:0.92714852 10:0.27735698 11:0.92092878 12:-0.85276854 #
-0.49585543996622155615838778430771 1:0.21168962 2:-0.10080639 3:0.31927556 4:0.21529496 5:0.63432848 6:0.44532275 7:0.72947985 8:0.68844265 9:0.98759353 10:0.75707906 11:0.22132416 12:1.25736 #
-4.9528195144435489538636829820462 1:0.71315223 2:-0.35552001 3:0.35640877 4:0.20550838 5:0.44509423 6:0.24567822 7:1.2435948 8:0.48831815 9:0.30247161 10:0.38718504 11:0.028947536 12:0.12836707 #
-3.2245283300056359898633218108444 1:-0.040722124 2:0.56669724 3:0.70257705 4:0.60012901 5:0.20123187 6:0.96406484 7:0.82771099 8:-0.34684086 9:0.59878981 10:0.77115595 11:0.11307991 12:0.51460141 #
-1.9240040892826539842275224145851 1:0.29936627 2:-0.39863214 3:0.92397553 4:0.90952861 5:0.41861704 6:0.12036281 7:0.5839113 8:0.94692993 9:-0.0085088974 10:0.71449769 11:0.32965162 12:0.11464346 #
-1.1924616621568377983209074955084 1:0.70856398 2:0.45991549 3:-0.10617244 4:-0.13217078 5:-0.026179839 6:0.31640783 7:0.56768876 8:0.18982786 9:0.021344177 10:0.68129349 11:0.42056349 12:0.84473723 #
6.5962171567464844557093783805612 1:0.65340936 2:0.43594763 3:0.71756023 4:-0.30421805 5:-0.20045918 6:0.88137543 7:0.18201667 8:0.28487223 9:0.81801236 10:0.62220901 11:0.78257835 12:0.23122033 #
-1.5813751713917767460770846810192 1:-0.29964244 2:0.29111508 3:0.78549218 4:1.0599751 5:0.00031561038 6:1.4391142 7:-0.85965061 8:-0.16648261 9:0.17350782 10:-0.00011231234 11:0.25613838 12:-0.36186904 #
-0.043284657667046221030116015526801 1:0.26261675 2:-0.081620857 3:0.32519427 4:1.0399995 5:0.84675109 6:1.6000063 7:0.23460165 8:0.16608137 9:0.58376044 10:0.56625611 11:2.1661139 12:0.66412741 #
0.43488754014444969131503171411168 1:0.28055525 2:0.051881384 3:0.77700776 4:-0.07732214 5:0.66182095 6:-0.22659153 7:0.1963211 8:0.031423878 9:0.23891041 10:0.26978457 11:0.89899641 12:0.055845924 #
-5.4614302131920897664940639515407 1:0.79102838 2:0.87336272 3:1.1129359 4:0.43285587 5:0.59494448 6:0.91705209 7:-0.16800517 8:-0.29898664 9:0.61553788 10:0.16128977 11:1.0632645 12:0.72009355 #
-2.0662537034843331262834453809774 1:0.61654943 2:-0.12591819 3:0.38077614 4:0.17306694 5:0.20825978 6:0.43654296 7:0.13592458 8:0.061671533 9:0.3030749 10:1.0050876 11:0.83847308 12:-0.0031688767 #
2.6263036552303846704603529360611 1:0.85073894 2:0.19293346 3:0.41316649 4:0.42999244 5:0.56901067 6:0.50332505 7:0.73609161 8:0.037049796 9:1.2128063 10:0.18874176 11:1.3457147 12:0.56923079 #
1.0686358052674254093261652087676 1:0.57126671 2:0.86684442 3:0.66959965 4:0.46063185 5:0.54632163 6:0.28295231 7:0.045678355 8:0.4009203 9:1.0992612 10:0.2687954 11:-0.25777072 12:0.7924099 #
-1.9579958653007669688861369650112 1:0.22015621 2:-0.01432594 3:0.85459179 4:0.48222694 5:0.50837988 6:0.57344991 7:0.3960619 8:0.096067794 9:-0.19655228 10:-0.047804978 11:1.0388594 12:0.67255372 #
-5.9165786728385674209107492060866 1:-0.13290833 2:0.23265663 3:0.57481873 4:0.51450086 5:0.77900875 6:0.46729028 7:0.25541607 8:0.35152119 9:0.0020915368 10:0.80636299 11:1.2563968 12:0.24376942 #
-1.7453044577447445195872433032491 1:0.62304193 2:-0.17117308 3:0.47674084 4:0.30133486 5:0.79102004 6:0.40650153 7:0.27268595 8:-0.091437027 9:-0.0023233905 10:0.66152698 11:0.55692255 12:1.1643425 #
-2.948528076331414560229404742131 1:0.45120588 2:0.51226604 3:0.74397403 4:0.73627776 5:0.34293735 6:0.46981341 7:0.43875518 8:0.4441579 9:-0.1650102 10:0.88847941 11:-0.17791292 12:0.092803299 #
-7.2316080355498115750378929078579 1:0.14863111 2:0.28682658 3:0.98817915 4:-0.21294707 5:0.76310563 6:0.86032194 7:1.0017883 8:0.42395988 9:0.37017947 10:0.70222896 11:0.94229454 12:0.38938206 #
-9.0989286673968372554099914850667 1:0.83949071 2:0.44866621 3:1.1359622 4:0.43385276 5:1.016703 6:0.10541597 7:0.60837358 8:0.1674546 9:0.013431776 10:-0.04003543 11:0.35235727 12:0.40798604 #
3.2519009774888933961278780770954 1:0.18334571 2:0.00024802441 3:0.026448686 4:1.0929495 5:0.70665079 6:1.2747936 7:0.44620469 8:0.27249175 9:0.69404674 10:0.19681869 11:0.33924249 12:0.53330219 #
2.2944400502255990481614844611613 1:0.46350896 2:-0.076064639 3:0.082391411 4:0.3692432 5:-0.14399275 6:0.43418443 7:0.063555703 8:0.24793103 9:-0.10235546 10:0.25314206 11:0.45915154 12:0.38414246 #
8.1548785875629459241054064477794 1:0.41159219 2:1.2977142 3:0.63721108 4:0.9538675 5:0.43935147 6:0.28667286 7:0.72241217 8:-0.22059087 9:-0.43400747 10:0.7641086 11:-0.24117583 12:0.61400187 #
-2.5418987669509727211902827548329 1:0.30944359 2:1.3612523 3:0.51238835 4:-0.48900035 5:0.25249147 6:1.356154 7:0.32121536 8:-0.35529917 9:0.051806442 10:0.37180236 11:0.73497367 12:1.0684618 #
-1.0955837692084327006369903756422 1:0.27460238 2:0.21918537 3:0.56650949 4:0.7918582 5:-0.011336018 6:0.84807777 7:-0.10996102 8:-0.0014160838 9:0.087135486 10:1.1540124 11:0.43340176 12:1.0035856 #
-15.61729718411917744447237055283 1:-0.073387526 2:-0.50070447 3:0.61600393 4:0.61628932 5:0.76266336 6:0.46427575 7:1.0316132 8:-0.43815207 9:0.3392607 10:0.58268237 11:0.62940943 12:0.4237608 #
-0.77074459414207274754460286203539 1:0.4414781 2:0.056787089 3:0.96715462 4:0.048982047 5:0.62582588 6:0.80593193 7:0.46396929 8:0.11189546 9:0.66781175 10:0.021653814 11:-0.28751183 12:1.145928 #
2.0568998316215489907676783332136 1:0.82370377 2:0.86950529 3:0.10069299 4:0.86787766 5:0.91954803 6:0.13668031 7:0.58278996 8:0.011842358 9:-0.0012331138 10:1.0600703 11:-0.043616693 12:1.2616262 #
-9.5619295530357817369804251939058 1:0.45567209 2:-0.32888365 3:0.3086606 4:0.0070507997 5:0.1378476 6:0.58713877 7:0.11697997 8:0.79270613 9:1.2880996 10:0.033710007 11:0.86566865 12:0.23429561 #
16.346878674192126368325261864811 1:0.1228143 2:0.087013155 3:1.2656367 4:0.152136 5:0.75368804 6:0.51085085 7:0.15576972 8:0.50204068 9:0.58283234 10:0.55621326 11:0.61154288 12:0.84057176 #
-1.4929741570456953603240890515735 1:0.20017114 2:0.13706335 3:0.89285749 4:0.73357975 5:0.24461925 6:0.011445408 7:0.26888829 8:-0.19613349 9:0.19786152 10:0.38984492 11:0.2770097 12:-0.13564792 #
0.3723368372674600856875315457728 1:0.39313287 2:0.91436005 3:0.1516152 4:1.1485556 5:0.1493303 6:0.29559138 7:1.1531987 8:0.31080243 9:0.10026686 10:0.54936737 11:0.16664398 12:0.69132543 #
1.9957584523220512906505064165685 1:-0.27755925 2:0.16172902 3:0.19473416 4:0.030248275 5:0.13776752 6:0.58736658 7:0.60001624 8:-0.11078747 9:0.95342183 10:0.20440871 11:0.78635979 12:0.52590162 #
-0.069917351534003899238278734173946 1:0.70480031 2:0.37847921 3:1.0203172 4:-0.12512457 5:0.14077549 6:0.36111781 7:0.5083918 8:-0.091797568 9:1.6992445 10:-0.66307265 11:0.91598791 12:-0.013562071 #
-2.7921427177781898976149932423141 1:0.36685383 2:0.11159332 3:0.58869559 4:1.3159225 5:0.99443334 6:0.33714217 7:-0.067864619 8:0.70576614 9:0.11243808 10:0.69445336 11:0.86183953 12:1.0141954 #
2.3097419124197826612032713455847 1:0.26235664 2:1.088491 3:0.20605661 4:1.7619667 5:0.6878767 6:0.50137675 7:0.1884511 8:-0.4877536 9:0.32248434 10:0.25084937 11:0.36954525 12:0.70444304 #
-5.4809553632590297667093182099052 1:0.46419987 2:0.53517544 3:1.2082126 4:-0.29491338 5:0.70826083 6:0.61437666 7:0.62294298 8:0.72943681 9:1.5549357 10:-0.65187615 11:0.44011 12:0.857162 #
-0.72311854891480931151193090045126 1:0.34707734 2:0.23272085 3:0.59127587 4:0.3844187 5:-0.17116491 6:0.7942422 7:0.58166361 8:0.16583537 9:0.68809205 10:-0.21447022 11:0.32918593 12:0.85829371 #
0.53207460726514765880779123108368 1:1.3297697 2:0.22654727 3:-0.36813396 4:0.21911721 5:0.57854921 6:0.8243863 7:1.0315237 8:-0.32056299 9:0.18467948 10:-0.070433781 11:0.46369067 12:0.61291599 #
-2.3071050125109415773749788058922 1:0.12733154 2:-0.10142443 3:-0.05529904 4:0.44444802 5:-0.066801883 6:0.86013263 7:0.65038383 8:-0.04723167 9:0.38958985 10:0.64697278 11:-0.039697733 12:0.055249523 #
4.6015100068875307570692712033633 1:0.20956689 2:0.088564634 3:1.2759339 4:0.19383217 5:0.033747315 6:0.39056647 7:0.0025828301 8:0.63809925 9:0.31339237 10:0.10509052 11:0.23554295 12:0.26707706 #
0.26259252442927322190868721918378 1:0.71618009 2:0.65322578 3:1.0895427 4:0.65313816 5:1.0429138 6:0.21808487 7:1.2482717 8:0.15348098 9:0.54553103 10:0.8409729 11:0.24138542 12:0.10377683 #
-4.6436835679360131123871724412311 1:0.35901335 2:0.33416137 3:0.16794369 4:0.62159735 5:1.1970714 6:0.51918113 7:0.66179299 8:-0.011732392 9:0.086059287 10:0.053058792 11:0.054643419 12:-0.14638004 #
4.1875069074100927934978244593367 1:0.42692533 2:0.18035266 3:0.84437275 4:0.34346774 5:0.17691582 6:1.2039301 7:0.26869923 8:0.6460368 9:0.5014562 10:0.69869781 11:0.62221146 12:0.023483256 #
-2.9689656700848430226358232175699 1:0.57724512 2:-0.065987982 3:0.75609708 4:0.10503106 5:1.2592939 6:1.1250836 7:0.3313745 8:0.31349808 9:0.67562824 10:-0.032736931 11:0.64481455 12:0.57380253 #
0.1879587820327007219312065444683 1:0.5544849 2:-0.25414711 3:-0.38180321 4:-0.26800376 5:-0.08472427 6:0.0039248304 7:-0.12711041 8:-0.41439652 9:-0.073615834 10:1.125224 11:0.63422459 12:0.14985728 #
-0.1966684219775899356008608265256 1:0.75919193 2:0.03961578 3:0.45088455 4:-0.16588433 5:0.23782293 6:0.046087835 7:0.75484109 8:-0.020745095 9:0.4223437 10:0.34829792 11:0.5678243 12:0.59840322 #
-9.195475929824896255126986943651 1:0.18295252 2:0.13318658 3:0.20489782 4:0.78986531 5:0.12537374 6:0.21765973 7:0.61397129 8:0.19098471 9:0.20937793 10:0.32332906 11:0.55929935 12:0.91505635 #
-1.4503382738446479738314565111068 1:-0.065614536 2:0.72304112 3:-0.047366716 4:-0.10055789 5:0.32913658 6:0.93405598 7:0.50556195 8:0.41326487 9:-0.071293741 10:-0.1641522 11:0.51926005 12:0.068638586 #
-18.473130762326828602226669318043 1:0.22093484 2:-0.029279651 3:0.24441348 4:0.2685993 5:0.87663424 6:0.70207542 7:0.82883799 8:0.35840407 9:0.26471069 10:0.52710277 11:0.58091229 12:0.58539301 #
0.25559775553789065849485950820963 1:-0.1593166 2:0.58369267 3:0.59541583 4:-0.86652386 5:0.51455337 6:-0.22067964 7:0.8049596 8:-0.54158181 9:0.074063778 10:0.38011861 11:0.37380031 12:0.41719922 #
-1.9167330093101873078609287404106 1:1.3399447 2:0.51173657 3:0.84389073 4:1.2798944 5:0.51630563 6:0.60703844 7:0.64656788 8:0.15516123 9:1.1717178 10:0.58236766 11:0.44758406 12:0.6343987 #
6.8512184953939847531501072808169 1:0.83611953 2:0.05494101 3:1.1143681 4:0.13239802 5:0.41626251 6:0.73071319 7:0.56938517 8:0.51805449 9:0.70196837 10:1.2223724 11:1.155602 12:0.85820478 #
-9.5670919703565591163396675256081 1:0.79130638 2:1.0238447 3:1.2978505 4:0.039249372 5:0.12858371 6:0.19278872 7:0.12425672 8:-0.26176998 9:0.56711608 10:0.22151396 11:0.21699248 12:0.092503063 #
-4.1334037336790689920462682493962 1:0.57400435 2:0.198807 3:0.12813641 4:-0.28301111 5:1.0408334 6:0.68332142 7:0.60040718 8:0.066519961 9:0.91375852 10:0.58606881 11:0.59247184 12:0.057847574 #
-4.9059542291385671575199012295343 1:0.98873752 2:0.02693964 3:0.22163424 4:0.92725044 5:0.16767794 6:-0.011287672 7:0.94100606 8:0.30634195 9:1.0518823 10:1.2061342 11:0.7146374 12:0.18721755 #
-0.73285189694680219485434236048604 1:1.0904409 2:0.63204724 3:0.059358865 4:0.28313103 5:0.61145544 6:0.89269024 7:0.85469645 8:0.34690467 9:-0.047851045 10:0.3711541 11:1.0726974 12:0.40664801 #
15.792457103131907203419359575491 1:0.72861087 2:0.78007686 3:0.56136024 4:0.74693781 5:0.067836709 6:0.12806986 7:0.14436704 8:-0.033752933 9:-0.36386377 10:0.21838118 11:0.83609974 12:0.43682083 #
-8.4515311867179931937243964057416 1:0.50367755 2:0.88408214 3:0.071836151 4:0.82351524 5:0.81006742 6:0.80349618 7:0.1302357 8:0.25964209 9:0.17766306 10:0.34554815 11:0.59638613 12:0.15196759 #
-7.214008264441748252693287213333 1:0.55430961 2:-0.22436723 3:0.77821565 4:0.53739578 5:0.82300776 6:1.0400866 7:1.0220574 8:0.77940714 9:1.2721543 10:0.70088321 11:0.07006976 12:0.42802998 #
-3.4442688172366393573042842035647 1:0.75486797 2:0.56952614 3:1.10014 4:0.012499798 5:0.94551677 6:0.8479563 7:0.99020129 8:0.38562331 9:0.040162262 10:0.084759966 11:0.52590919 12:1.2364709 #
-18.498202453775327569474029587582 1:1.021091 2:0.30633461 3:0.25538298 4:0.59882212 5:0.25897321 6:-0.082283415 7:0.30301911 8:0.19466826 9:0.41411269 10:0.98035389 11:0.2494316 12:0.56617671 #
-0.8088174245788036786919406040397 1:0.77460051 2:-0.14990248 3:-0.24795201 4:0.51776016 5:0.12801903 6:0.59858614 7:0.79030699 8:0.66113466 9:0.32366395 10:0.9442876 11:1.0006579 12:0.75884438 #
-4.0777740175149803647514090698678 1:0.77817714 2:-0.08356031 3:0.24013959 4:0.59861803 5:0.39838427 6:0.091418713 7:0.91584975 8:0.0033495764 9:0.92926139 10:0.22874856 11:-0.35723007 12:0.63004035 #
-5.495646365878339878463521017693 1:0.27883247 2:0.22562838 3:0.25479189 4:0.17792413 5:0.26551601 6:0.56479192 7:-0.010413621 8:0.048597254 9:0.79648185 10:0.22198486 11:1.1219471 12:0.96406555 #
-2.9471173003854809202550768532092 1:0.6685425 2:-0.26356512 3:-0.16980927 4:-0.051749427 5:0.030617615 6:0.63885534 7:0.89062113 8:0.59707224 9:0.27041173 10:-0.40043023 11:1.1065997 12:0.43226719 #
-2.5623136908984838200353806314524 1:-0.0082075186 2:0.19462621 3:0.63914579 4:0.1551654 5:0.82964677 6:0.75719523 7:0.52819157 8:0.0043206322 9:0.96036786 10:0.21428302 11:-0.10139613 12:0.33553591 #
4.0049046937916363830822774616536 1:0.54838121 2:0.078549445 3:0.034588184 4:0.34666401 5:0.99313068 6:-0.10653106 7:0.99586117 8:-0.20484991 9:0.74944985 10:1.009989 11:0.16128425 12:0.94650078 #
4.8357760675390037974352708260994 1:0.69994605 2:0.010440921 3:0.60599875 4:0.83832294 5:0.87991357 6:0.91392183 7:0.4975211 8:-0.091351144 9:-0.061742965 10:0.13665965 11:0.25743175 12:1.0052831 #
5.126432870055014134891280264128 1:0.76982355 2:0.36419001 3:0.45214623 4:0.69885373 5:-0.034963142 6:1.0728836 7:0.4288784 8:-0.12565418 9:1.011516 10:0.34460798 11:0.34850022 12:-0.033608101 #
15.974984394866845960336831922177 1:0.99496174 2:0.2754159 3:1.1073129 4:-0.15568629 5:0.36039755 6:0.78347898 7:0.99182236 8:0.46147472 9:0.3695403 10:0.68601453 11:0.18962382 12:0.76397341 #
-0.92242259963613559836659305801732 1:0.25048554 2:1.1383696 3:0.55772179 4:0.40232617 5:0.57626808 6:0.48610464 7:0.85351127 8:0.76543379 9:0.67970663 10:-0.098903038 11:-0.36116183 12:-0.1050163 #
0.68430920547246354423975844838424 1:0.69072086 2:0.086511679 3:0.4921636 4:0.77557069 5:0.83756334 6:0.13323987 7:1.0314609 8:-0.088015042 9:-0.03612246 10:0.84223676 11:0.34674722 12:0.40280887 #
7.0197880276482118588887715304736 1:0.68153292 2:0.36181188 3:0.51540738 4:0.049966987 5:0.6478669 6:0.57708079 7:0.43786049 8:0.38148895 9:0.68390876 10:0.2932674 11:0.20412497 12:0.91664374 #
-6.7160928092311689141524766455404 1:-0.2094631 2:0.49447945 3:0.58870476 4:0.98034024 5:0.16834021 6:0.50460005 7:0.17288011 8:0.78470618 9:1.0267603 10:0.59686816 11:0.78490674 12:0.72955519 #
0.21347744513470032212687499395543 1:0.15274565 2:-0.25539124 3:0.55183238 4:1.0337805 5:0.19001137 6:0.39394644 7:0.041850518 8:-0.14634752 9:1.0597817 10:0.91895425 11:-0.0873193 12:1.0216178 #
0.31842390480136756325535429823503 1:0.80597001 2:0.83871895 3:0.52312595 4:0.55719447 5:0.1113703 6:0.88797265 7:1.1905434 8:-0.23875618 9:-0.38734016 10:0.85567456 11:1.5305878 12:0.58148044 #
-2.9843535485037278043307651387295 1:0.47356156 2:-0.0037067984 3:-0.13472646 4:0.4322018 5:0.28855044 6:0.90097374 7:0.20390318 8:-0.046595298 9:0.39963302 10:0.63475889 11:0.019177061 12:1.0471251 #
0.31597546850624758096870436929748 1:-0.094865672 2:0.0039668554 3:1.6650002 4:0.9927814 5:0.64413774 6:0.35119462 7:-0.030405194 8:-0.3129853 9:0.11747661 10:0.7675463 11:-0.38726801 12:-0.066505589 #
-0.68425919390759126770262810168788 1:0.075207263 2:0.30466259 3:0.19351666 4:1.1994469 5:1.1200323 6:0.29348648 7:0.3356885 8:0.15611391 9:1.2062939 10:0.76085889 11:0.5515514 12:0.031082496 #
0.60093535244611451240359656367218 1:-0.24738577 2:0.082261875 3:0.31914014 4:-0.086517438 5:0.91907167 6:0.93844104 7:0.70825177 8:0.78708249 9:0.11382987 10:-0.22343937 11:0.39912152 12:1.0038224 #
-1.4689097225161913407021074817749 1:0.92706871 2:-0.30002943 3:0.32154781 4:0.29049069 5:-0.10559535 6:0.14012408 7:-0.071966231 8:-0.35154784 9:0.67893362 10:0.93754876 11:1.4104686 12:0.23617975 #
-1.4862551679995494868791183762369 1:-0.59862882 2:-0.16167016 3:0.54414421 4:0.61862433 5:-0.79902649 6:0.19086212 7:-0.19877476 8:0.21476117 9:1.0934365 10:0.67943031 11:-0.26330566 12:1.1303291 #
-2.4203126152297174122907108539948 1:0.71596974 2:0.22277716 3:-0.068492435 4:0.44436541 5:1.371642 6:0.5786224 7:0.71073115 8:1.1466049 9:0.22017428 10:-0.030561291 11:0.28067163 12:0.37945777 #
8.9640296539723021140844139154069 1:-0.10168093 2:0.16523322 3:-0.035220481 4:0.6898998 5:0.76997966 6:0.73560786 7:0.087853082 8:-0.24371563 9:0.19407952 10:0.80622101 11:0.63135135 12:0.17118871 #
-0.14741363525690931446376907842932 1:0.73627716 2:0.18429564 3:-0.13876323 4:1.0270414 5:1.1206473 6:0.1717805 7:1.0122917 8:0.49642283 9:0.72763306 10:0.57016414 11:0.84130335 12:0.78029191 #
-1.1503384156729403731134198096697 1:-0.21678695 2:0.37582424 3:0.47584438 4:0.54407102 5:-1.2065153 6:1.1512457 7:0.7124384 8:0.18477696 9:0.55705595 10:0.2236166 11:0.52596307 12:0.39136896 #
2.2022042386949114423089213232743 1:0.56878346 2:0.41432023 3:1.1216493 4:0.2791259 5:1.0423782 6:1.1462251 7:0.31390923 8:0.1212096 9:0.11217736 10:1.2599127 11:0.57366198 12:0.26014602 #
-2.5428543670612140381592780613573 1:0.040775221 2:1.1417247 3:1.181088 4:0.49335375 5:0.1021532 6:0.43929112 7:0.40241078 8:0.22679406 9:0.59056759 10:0.7327643 11:0.70949578 12:0.43023944 #
4.7423326060209731735994864720851 1:-0.18378884 2:0.50227398 3:0.2910119 4:0.32926169 5:0.49234647 6:1.1697931 7:-0.15320264 8:0.4241423 9:1.5095338 10:-0.11795175 11:0.37226325 12:0.40975609 #
-7.0161745990312471832339724642225 1:0.26078144 2:0.4933157 3:-0.11902038 4:0.51051497 5:0.37772161 6:-0.33498946 7:0.41716495 8:0.6390546 9:0.13595699 10:-0.046187382 11:0.74163538 12:0.27911198 #
1.1413452685516316531533220768324 1:1.3931897 2:-0.19300973 3:0.92895824 4:0.73355442 5:0.28277868 6:0.22807297 7:0.99408305 8:0.38176891 9:0.27170074 10:0.57717872 11:0.77872568 12:0.49379778 #
-0.69254450439735182332157137352624 1:-0.15530363 2:0.19775504 3:0.61537129 4:-0.22314173 5:0.46150878 6:0.081787206 7:-0.077157617 8:0.046390392 9:0.38213694 10:0.91796046 11:-0.031625077 12:0.10774083 #
-3.0512897408581052260956312238704 1:0.74385488 2:0.92091656 3:0.85662359 4:-0.12836663 5:0.54161215 6:0.51701015 7:1.5269707 8:-0.57980287 9:0.40403795 10:0.56948596 11:0.87098932 12:0.28274119 #
-0.07158064767854159515803047497684 1:0.73067075 2:0.8518942 3:0.33711758 4:0.5048061 5:0.46164805 6:-0.9547537 7:0.87375134 8:0.091969743 9:0.2103363 10:0.29069948 11:-0.11796907 12:-0.19230478 #
-0.10256412258711911089648083361681 1:0.55888605 2:0.5631091 3:0.23454562 4:-0.83341241 5:0.56891006 6:0.79885262 7:0.37630323 8:0.72895837 9:0.55855662 10:0.24765921 11:-0.10934494 12:1.3576785 #
0.10849958446079999152544814933208 1:0.70208794 2:-0.22826719 3:-0.098590985 4:1.07178 5:0.87767911 6:0.40898615 7:0.50067604 8:-0.17299932 9:0.79136336 10:0.78307682 11:0.57699281 12:0.82074672 #
10.459987012783619420019931567367 1:1.0655671 2:-0.10248667 3:-0.53597587 4:0.062819093 5:0.43003058 6:1.1869874 7:0.082859084 8:0.70319474 9:0.56530726 10:0.36650002 11:0.38709477 12:0.20958808 #
-1.9366048955051728963638879577047 1:0.69119698 2:0.11578701 3:1.1613375 4:0.010854673 5:0.42448518 6:0.048923474 7:0.82054561 8:1.2897329 9:0.49784905 10:0.4694424 11:0.33113647 12:0.21646097 #
5.2138200685538063083868109970354 1:0.29425386 2:0.25287428 3:0.60261059 4:0.10971408 5:0.36475742 6:-0.035671122 7:0.42338428 8:-0.093942568 9:0.39274251 10:1.2183212 11:0.58316123 12:0.82698256 #
-3.5466415168351250741807234589942 1:0.32394105 2:0.98941696 3:1.0801148 4:0.76886082 5:0.61230326 6:-0.18675934 7:0.48448774 8:-0.19982293 9:0.31552958 10:0.3882561 11:1.2130347 12:0.72807038 #
0.64820865077048972491269296369865 1:1.7721872 2:0.42501903 3:1.0949085 4:0.076924652 5:0.58669418 6:0.79238725 7:1.1199192 8:-0.094291091 9:0.58003038 10:0.028266698 11:0.80773836 12:0.094727725 #
0.61611055695398930787121116736671 1:0.3262448 2:-0.35980165 3:-0.37874889 4:0.53417045 5:0.10399456 6:0.58518565 7:0.067122154 8:-0.0013294409 9:0.2835885 10:-0.94523644 11:0.69025284 12:0.61408567 #
-0.22675516580093385554661722380843 1:0.61617082 2:-0.08798942 3:0.49394956 4:0.18670587 5:0.47857249 6:0.55985427 7:0.5588128 8:0.04443739 9:-0.28888568 10:0.19524045 11:-0.073341139 12:0.42620447 #
3.764471268718105445572064127191 1:0.59251553 2:0.28391853 3:0.3033697 4:0.0067580403 5:0.057232201 6:0.0016394441 7:0.49018326 8:-0.1148592 9:1.3905013 10:0.68478835 11:0.3898125 12:0.2052362 #
3.781714643215969839928902729298 1:1.5289422 2:1.5645782 3:0.50955266 4:0.83844775 5:0.32674801 6:0.23779307 7:-0.17413177 8:-0.099780805 9:0.32845902 10:0.74281448 11:0.83736777 12:0.33916935 #
-0.16062583869399671421263064985396 1:1.1820889 2:0.55667484 3:0.46860945 4:-0.20816201 5:0.91842639 6:0.37335178 7:1.0064682 8:0.61269343 9:0.095814936 10:1.2943799 11:0.88658351 12:0.5169608 #
0.52135676082736570613462845358299 1:0.051072888 2:-0.24581476 3:0.36296335 4:0.55755037 5:1.0293156 6:-0.19922246 7:0.18981656 8:0.14394172 9:0.97727823 10:0.70090646 11:1.0973506 12:0.62588561 #
-2.2606490203952027684408676577732 1:0.52460396 2:1.2339282 3:0.26718959 4:0.93154293 5:1.3627795 6:0.87342596 7:0.81182337 8:-0.75553864 9:1.3471801 10:0.45861185 11:0.041397505 12:0.22964464 #
-1.29660752897354836221666118945 1:0.87413478 2:-0.65887725 3:0.91937852 4:-0.041058499 5:1.2378205 6:-0.40493566 7:0.93781608 8:0.82996833 9:1.3425001 10:0.43946815 11:-0.024459867 12:0.92321199 #
-1.074476352072771367929249208828 1:0.14216144 2:0.21978624 3:0.49480829 4:0.41553208 5:0.63569033 6:0.23253754 7:1.2239527 8:0.5481987 9:0.95985705 10:0.16865845 11:0.50454134 12:0.75467461 #
-3.6795855178584426781185356958304 1:0.27800792 2:0.31014338 3:-0.04674346 4:0.84420538 5:0.20904429 6:0.79967678 7:0.70042753 8:-0.14982541 9:2.2205617 10:-0.33942685 11:-0.061564922 12:0.62494856 #
15.236048177514120993691904004663 1:0.39087328 2:0.20220548 3:0.62285894 4:0.9308058 5:0.62906748 6:0.80533928 7:0.71386564 8:0.67610729 9:0.49628565 10:0.26038954 11:0.78154081 12:0.60565633 #
1.058180493173559888475665502483 1:0.73390383 2:0.79760766 3:0.67057866 4:0.43900862 5:-0.098259509 6:0.54328239 7:1.0263205 8:0.28104639 9:0.73753184 10:0.90549332 11:0.6111964 12:0.79602724 #
-0.45671581781979259107018265240185 1:1.0726991 2:0.36060834 3:0.25316954 4:0.56808579 5:-0.37120557 6:1.4243119 7:0.31729829 8:-0.35298023 9:1.4680325 10:-0.072685339 11:0.38022032 12:-0.32539502 #
-1.4530313886283097168927724851528 1:0.69895208 2:0.43010768 3:0.53834534 4:0.44180676 5:0.91626364 6:-0.83691639 7:0.20056251 8:-0.75012022 9:1.3907356 10:-0.44519588 11:0.77899855 12:0.55022001 #
1.4801416567913141530965503989137 1:-0.040878762 2:-0.032041878 3:-0.20373993 4:1.431597 5:0.8664155 6:0.52831984 7:-0.28159997 8:-0.053288564 9:0.22527911 10:-0.10262787 11:-0.53226227 12:1.2384685 #
0.28606047887606428359319465926092 1:0.47464019 2:0.082631454 3:0.98445922 4:1.1760458 5:0.75250494 6:0.026008781 7:0.22712833 8:0.42021924 9:1.1161654 10:0.20595853 11:0.90846467 12:0.39464545 #
4.2368306643415030166011092660483 1:0.36117923 2:0.69161147 3:0.12037371 4:0.097308733 5:0.67357576 6:0.22247545 7:0.77056086 8:0.060786989 9:0.1795589 10:0.52300709 11:1.0276018 12:-0.1368515 #
1.2305373891008424269699617070728 1:0.83404762 2:0.50602967 3:1.2382758 4:0.80090225 5:0.52038157 6:1.3112181 7:1.0902073 8:0.32285655 9:-0.22451173 10:-0.26501623 11:-0.53056461 12:0.5463053 #
1.1648570874261492402723661143682 1:-0.27534878 2:-0.4345839 3:0.76870364 4:0.45489615 5:1.2745733 6:0.27389401 7:0.17789067 8:0.42309937 9:0.61275017 10:0.10554784 11:0.34791338 12:-0.056468595 #
-1.7464659326578197973134365383885 1:0.51223969 2:-0.023949873 3:1.0120395 4:0.82987845 5:0.37179834 6:0.55586213 7:0.94795799 8:0.5303421 9:0.15946139 10:1.0864425 11:0.35383159 12:1.0252938 #
-5.1461873282472190282987867249176 1:1.3237257 2:0.63589257 3:0.71629369 4:0.60830081 5:-0.045095239 6:0.56738383 7:1.0156794 8:0.27052629 9:-0.23189723 10:0.63913685 11:0.83647674 12:0.88806742 #
2.3206312648716771462886754306965 1:-0.039103474 2:0.50928539 3:0.58028793 4:1.1001456 5:0.79009968 6:0.75978279 7:-0.047366023 8:-0.17111421 9:0.95179957 10:0.24294397 11:0.7352286 12:0.91429788 #
-1.6184243077769500107621070128516 1:0.67004907 2:0.29902935 3:-0.30838659 4:0.037566628 5:0.99130005 6:0.64568001 7:0.6569277 8:0.2685298 9:0.32710752 10:-0.9354068 11:0.4795337 12:0.74757111 #
-6.2303178807014516493723021994811 1:0.35816896 2:0.12861751 3:-0.25230414 4:0.61700022 5:0.64990103 6:0.13024572 7:0.0067030843 8:-0.11126576 9:1.0071579 10:0.058790896 11:0.21767186 12:-0.15255097 #
2.0779631575733126247484960913425 1:0.16516154 2:0.5159815 3:0.88716596 4:0.12716304 5:0.15997416 6:-0.18536928 7:-0.041206986 8:0.62801462 9:1.1404562 10:0.33989558 11:0.59883475 12:0.46070182 #
-0.27825541617785037873389342166774 1:0.60350966 2:-0.57692981 3:0.32146949 4:1.0392499 5:0.60511881 6:0.39473891 7:0.13500823 8:1.2971851 9:0.042213023 10:-0.20186444 11:1.1375533 12:0.38903692 #
0.67864202419305696967199992286623 1:0.10630047 2:0.15213226 3:-0.087657228 4:0.94349009 5:0.88656908 6:-0.10302799 7:0.51943713 8:0.2458526 9:0.69722641 10:0.086093307 11:0.8585791 12:0.48194683 #
0.68608808454029923673544999473961 1:0.05477671 2:-0.20022245 3:0.26083907 4:-0.19666541 5:1.197952 6:0.83289075 7:1.4449496 8:0.40469453 9:-0.10876302 10:0.99341059 11:0.25424114 12:0.92419714 #
1.0090606914972928276341690434492 1:0.1121213 2:-0.083740018 3:-0.056188393 4:-0.0095874146 5:0.79580712 6:0.02974407 7:0.41014934 8:0.46917981 9:1.0076563 10:-0.087272882 11:0.0095047439 12:0.62184036 #
10.729972834703035644565716211218 1:0.91424316 2:0.065464728 3:0.82721692 4:0.30715194 5:0.065188468 6:0.70408225 7:0.91356659 8:-0.0094072605 9:0.15896223 10:0.15167391 11:1.0013034 12:0.89070171 #
3.1613528279146705379787363199284 1:1.3453095 2:0.082181945 3:0.72075731 4:0.114403 5:0.11360555 6:0.29408374 7:0.68566626 8:0.2210646 9:0.17415379 10:0.59248877 11:0.17991267 12:-0.25272945 #
24.701656980046927003513701492921 1:-0.13039967 2:0.86249602 3:0.52420723 4:0.8266837 5:0.7042076 6:0.72250074 7:0.86413485 8:-0.010826991 9:-0.24389723 10:0.21951824 11:0.59936053 12:0.20317274 #
-0.98773996995509061314066912018461 1:0.51706791 2:0.1071286 3:0.057895631 4:-0.24413988 5:0.76746696 6:0.55767375 7:0.10198437 8:0.2086889 9:1.3099328 10:0.24140772 11:1.8719041 12:1.2029469 #
1.9019953920819343551329438923858 1:0.050389569 2:-0.35037327 3:0.29743487 4:0.31796065 5:-0.95503366 6:0.12672941 7:0.29680333 8:-0.17264701 9:0.17598455 10:0.042706124 11:0.14008646 12:1.0184188 #
-1.5167532229586702108292683988111 1:0.38913107 2:0.29593015 3:0.56839889 4:-0.27566436 5:0.013770653 6:1.0102127 7:0.61395353 8:0.20747806 9:0.35758725 10:0.19599813 11:0.13471286 12:-0.03353253 #
3.6785605793599680524152972793672 1:0.95462734 2:0.091855153 3:0.12094989 4:0.85354066 5:0.32721758 6:1.2699903 7:1.0710813 8:-0.12042546 9:0.21838433 10:0.8127808 11:0.60697997 12:0.14099269 #
8.8065125208223609121205299743451 1:0.15305051 2:0.28633568 3:1.2637719 4:-0.07415697 5:0.14762056 6:0.23008221 7:1.042365 8:1.1227787 9:0.10101859 10:-0.065012269 11:0.75634861 12:1.0286722 #
-0.14498429940855611652850143400428 1:0.82598758 2:0.025581874 3:0.51799738 4:0.52304268 5:0.37039801 6:-0.18904744 7:0.66935658 8:0.37734401 9:-0.23993395 10:0.9275015 11:1.2786707 12:0.53099453 #
-1.7063705936337290047788428637432 1:1.5854791 2:0.42885518 3:1.0418555 4:0.17230554 5:1.2595757 6:0.2090669 7:1.1310565 8:-0.42329586 9:0.44021955 10:1.0453645 11:1.1442013 12:0.71647036 #
10.857636311980362719964432471897 1:-0.16522029 2:0.34587607 3:0.69586992 4:0.076705121 5:0.7869013 6:0.34182143 7:1.3804955 8:1.3224006 9:-0.067347176 10:0.47579202 11:0.31785238 12:0.14528327 #
-1.7295110443611296791033282715944 1:1.6204704 2:0.11025397 3:0.75672358 4:-0.36944214 5:-0.14511934 6:0.8030746 7:1.5168132 8:0.54205883 9:0.72872859 10:0.7912848 11:0.039891176 12:0.65955222 #
-0.8837886421079197418748663039878 1:0.68963468 2:-0.28092268 3:0.058727674 4:0.67726672 5:0.68456185 6:1.2989006 7:0.88488686 8:0.89179564 9:0.96859235 10:-0.07377106 11:0.007188898 12:-0.25943401 #
-0.62091565177732266356258605810581 1:1.0491357 2:0.48851675 3:0.81010336 4:-0.2652714 5:1.1346109 6:0.47529066 7:0.15259847 8:-0.0086023537 9:-0.047301408 10:0.46483842 11:1.271363 12:1.0440528 #
26.25053002299048188206143095158 1:1.0648764 2:-0.2719821 3:-0.23672141 4:0.39897147 5:0.54977673 6:0.040761691 7:-0.04482339 8:1.0445364 9:0.42968002 10:0.78857285 11:0.65293473 12:0.37264949 #
9.9420750741839363229246373521164 1:1.0733407 2:0.13617003 3:-0.2296104 4:0.63657641 5:0.26136789 6:0.069902673 7:1.0404829 8:0.13797881 9:-0.087323777 10:0.062817611 11:0.2953096 12:0.37973535 #
3.2854318921691314514532678003889 1:0.58610475 2:-0.18500905 3:0.15969218 4:0.17026375 5:0.41589543 6:0.50665271 7:1.2548723 8:-0.18487771 9:0.58116555 10:1.0536152 11:1.3392107 12:0.20330167 #
-4.1944889876137114725906940293498 1:0.86299086 2:0.21738942 3:1.1121455 4:0.49267918 5:0.23269738 6:1.0019566 7:0.016858028 8:0.14808854 9:0.24155448 10:0.32889989 11:0.4616462 12:0.50491792 #
1.6902212058553227613799663231475 1:0.53149843 2:0.32230863 3:-0.042601537 4:0.039374359 5:1.1584252 6:-0.081596151 7:0.96988404 8:0.096927188 9:-0.27474475 10:0.0046515283 11:0.58371121 12:1.0135562 #
3.9397857015869885977110698149772 1:1.0651501 2:-0.059820157 3:0.065867767 4:1.0985241 5:0.7148875 6:0.56006777 7:0.45998877 8:0.067200534 9:0.075436972 10:0.53888547 11:0.99537212 12:0.087550119 #
-1.0412774920689831237297084953752 1:0.12772316 2:-0.22046702 3:0.11191798 4:0.46277267 5:1.5921394 6:0.47296023 7:-0.51173824 8:0.58766246 9:0.64602494 10:0.18913159 11:1.0691396 12:0.65534383 #
0.82285483901765099634673106265836 1:0.37202361 2:0.081588618 3:0.058156203 4:-0.0074497093 5:0.96140337 6:0.22216533 7:0.13859199 8:0.58925968 9:-0.10175628 10:0.076807886 11:0.77838653 12:0.47338185 #
-1.0409763852303617337469177073217 1:0.64916891 2:-0.93546104 3:-0.75512558 4:0.71313906 5:0.4949705 6:0.80191737 7:0.42886132 8:1.2891192 9:0.58437473 10:0.92845023 11:0.4746139 12:0.58182371 #
1.4469810122582915656863633557805 1:0.76863396 2:-0.056764267 3:0.46413326 4:0.14788118 5:0.47435936 6:1.0812708 7:0.58884406 8:-0.18468969 9:1.1110214 10:1.3569837 11:0.11587856 12:0.72326589 #
-9.0125700120546134996857290389016 1:0.23963733 2:0.092812747 3:0.54751307 4:0.047123864 5:0.77484846 6:0.30502805 7:0.49547231 8:1.1704577 9:1.1572104 10:0.98858148 11:0.80405188 12:0.013032287 #
-2.4159871179855261225100093724905 1:0.094353594 2:-0.0036116294 3:0.94899285 4:0.73744804 5:0.14506927 6:0.95116955 7:0.73553026 8:0.77738845 9:2.010232 10:0.15880346 11:-0.089434937 12:0.047365919 #
-1.7331830074679033248941095735063 1:0.88578093 2:0.18324429 3:0.63524038 4:0.7721445 5:-0.29670987 6:0.30858836 7:0.44327757 8:1.0224786 9:0.88525569 10:0.42776293 11:0.50469571 12:0.34162492 #
3.1176363628066132704930168983992 1:0.97335052 2:0.53255767 3:1.2766759 4:-0.11145152 5:0.67851031 6:-0.07507059 7:0.64721638 8:0.24316868 9:0.90439647 10:0.44599468 11:-0.042322975 12:0.10399494 #
-11.664400347872106777913359110244 1:0.31604931 2:0.34157237 3:-0.075143002 4:0.45762613 5:0.13130569 6:0.65215182 7:-0.19744644 8:0.32497454 9:0.51413721 10:0.67857039 11:0.38410744 12:0.2561709 #
-0.5122979475043686337087933679868 1:0.97277677 2:1.2190505 3:0.87939227 4:-0.42936718 5:0.28623152 6:0.25003096 7:0.41066968 8:-0.095931426 9:-0.28385332 10:0.036337256 11:0.18317445 12:0.8665452 #
-17.982289142027983785965261631645 1:-0.18259284 2:0.02731159 3:1.0364995 4:0.40682101 5:0.44425467 6:0.12031303 7:1.1804566 8:0.20949775 9:1.0900497 10:0.41861469 11:0.40952051 12:-0.0087013477 #
0.20332428393556203904957158101752 1:0.81195503 2:-0.079344168 3:0.45993847 4:0.77716589 5:0.9562214 6:0.38881668 7:0.89951265 8:0.15654311 9:0.49482328 10:-0.32448515 11:0.55700213 12:1.003539 #
-2.882672888826009138796280240058 1:0.449294 2:-0.18851139 3:0.99761403 4:0.27572545 5:0.48497328 6:0.10375658 7:0.44526204 8:0.73602426 9:0.55045259 10:0.17509402 11:-0.16281044 12:0.69223905 #
0.66585361640019147255742382185417 1:1.0318351 2:-0.21175048 3:0.70537078 4:-0.32365924 5:0.70694596 6:0.51524848 7:1.1826557 8:-0.16139936 9:0.74018437 10:0.54445374 11:0.85955828 12:-0.77453625 #
6.1426831633118608166910235013347 1:0.12541519 2:-0.097956859 3:-0.091650628 4:0.029527536 5:-0.002041494 6:0.26682514 7:0.65974069 8:0.48293751 9:0.85654926 10:0.39772844 11:0.78085262 12:0.10289758 #
1.3843178491337368996028089895844 1:0.66712368 2:0.35166657 3:1.1311913 4:1.740203 5:0.47055712 6:1.1488349 7:0.62337887 8:0.4431079 9:-0.11959472 10:1.3372133 11:1.2382051 12:0.63580692 #
3.9034177772114495574840020708507 1:0.27168453 2:0.6100384 3:0.67645609 4:0.62778604 5:0.19541478 6:0.3764227 7:0.8267445 8:-0.023295464 9:0.91309488 10:-0.13403347 11:0.20650753 12:0.013563441 #
0.77532063845670917690000578659237 1:-0.1060029 2:-0.62439018 3:0.55371523 4:-0.60971862 5:0.26012859 6:0.69089079 7:0.15471549 8:0.88402212 9:-0.11053875 10:0.77630162 11:0.3276414 12:0.5525834 #
6.8096128289553918833121315401513 1:0.071443506 2:0.13095811 3:0.88294178 4:0.43429798 5:0.40460965 6:0.064112097 7:0.047161989 8:0.25716355 9:0.48504671 10:0.72552615 11:0.39525908 12:0.28741121 #
3.7257528227305938273161700635683 1:0.42206028 2:0.029455822 3:1.2448378 4:0.18943077 5:1.0131079 6:0.27145377 7:1.0550252 8:0.53686649 9:0.2444056 10:-0.21090819 11:0.72366619 12:-0.22850309 #
12.646310466142583806004040525295 1:0.77913547 2:0.2539334 3:1.4670718 4:-0.60440183 5:0.57973588 6:0.21559335 7:0.17516619 8:0.68045074 9:0.39168143 10:1.2061888 11:0.58085597 12:0.29897541 #
5.3497784264215413330134651914705 1:0.33335811 2:0.071948268 3:0.068511941 4:-0.0023273695 5:0.63593209 6:1.0239336 7:0.16783789 8:-0.066419117 9:0.43603462 10:0.56815344 11:0.84936464 12:0.46325815 #
3.9419069960370536342963987408439 1:1.7185576 2:-0.75907058 3:0.43208757 4:0.44153643 5:0.044091199 6:0.5400973 7:1.4548485 8:-0.21886195 9:0.41021985 10:0.34112743 11:0.82342893 12:0.60525507 #
2.8752669849003233970563542243326 1:0.26275674 2:0.081708908 3:0.9090569 4:1.2017545 5:0.48808193 6:0.24781071 7:0.48737457 8:0.88323683 9:-0.52688974 10:1.8075911 11:-0.32427874 12:-0.12357105 #
0.74944511724022366827568930602865 1:0.66106015 2:0.5566774 3:-0.15271789 4:-0.23115987 5:0.26030529 6:0.18573514 7:1.1410351 8:-0.15913178 9:-0.26685697 10:0.54301667 11:1.426834 12:-0.42892677 #
2.1622107095602749460283575899666 1:-0.26421446 2:0.68830591 3:0.83415037 4:0.74567389 5:0.27225375 6:1.1994936 7:0.13604397 8:0.49158573 9:0.5214653 10:0.3844333 11:-0.27261299 12:0.96849132 #
-0.90830284855154796996856703117373 1:0.58437747 2:0.2884298 3:0.094967157 4:1.4464577 5:0.59142625 6:0.53706497 7:0.45033091 8:-0.01705364 9:-0.45301667 10:0.25038385 11:-0.66440189 12:1.4723334 #
0.97552976279264025372128799062921 1:0.78832775 2:0.24044172 3:0.021693798 4:-0.80234629 5:0.43486127 6:-0.77640748 7:0.73300958 8:0.10790302 9:0.76115704 10:0.87131196 11:1.2850201 12:0.57523584 #
-1.3118817909790332354447173202061 1:0.9836129 2:0.16743673 3:0.34350839 4:1.2513651 5:1.1222545 6:0.77663201 7:0.76935709 8:0.25275007 9:1.0703866 10:0.22365466 11:0.14045726 12:0.04469962 #
0.60463128901874430010110472721863 1:0.50101638 2:0.14182381 3:0.64550859 4:1.0457008 5:0.2805067 6:0.085884869 7:0.63784558 8:-0.20117363 9:0.79775381 10:0.69846064 11:1.2070638 12:1.0200177 #
-0.61493864547135079767770093894796 1:0.38181472 2:0.40124315 3:0.081976973 4:1.1659638 5:0.22407971 6:-0.4051421 7:0.66047204 8:-0.20195639 9:0.21840985 10:0.004080127 11:0.34823704 12:1.3515586 #
0.35902853143498258958743463153951 1:0.53732175 2:0.25370628 3:1.5201772 4:0.47675836 5:-0.22600348 6:-0.79934156 7:0.28563651 8:0.37002832 9:0.67922425 10:0.48299944 11:0.53546119 12:-0.093006775 #
-1.0036621946590182918868094930076 1:0.74819338 2:-0.46597847 3:0.570728 4:0.38495147 5:0.98660421 6:0.382247 7:0.54305899 8:2.1220407 9:-0.17583543 10:-0.017499305 11:-0.26324525 12:0.29331648 #
4.3115079279645485144101257901639 1:0.83160919 2:0.90261406 3:0.17044297 4:0.26965714 5:0.41918597 6:0.12163565 7:0.53367615 8:0.29713339 9:0.70070142 10:0.11815622 11:0.81825829 12:0.38209611 #
-2.2165779084219514594167321774876 1:0.23171778 2:0.54166037 3:-0.33312491 4:-0.058641527 5:0.035302624 6:0.93832541 7:0.25105345 8:0.13836831 9:0.81423807 10:-0.35520348 11:1.1302063 12:1.2047462 #
-9.2199667580359001561873810715042 1:-0.28887829 2:0.65019274 3:0.51925892 4:0.69812071 5:0.87308848 6:0.50678718 7:-0.34773204 8:0.18445516 9:-0.11807297 10:-0.05706175 11:0.39895925 12:0.73249972 #
1.5677845117641591166091075137956 1:-0.18400282 2:0.460399 3:0.32227814 4:-0.16632898 5:-0.10411071 6:0.23874173 7:0.50133246 8:0.10091943 9:-0.022225318 10:0.47013924 11:0.76967913 12:1.1528795 #
-16.395350819609319614755804650486 1:0.90986794 2:0.2683599 3:0.1637041 4:0.3229723 5:0.71147782 6:0.75789571 7:1.0530666 8:0.87154841 9:0.38570583 10:0.93410486 11:0.19053715 12:0.24110593 #
0.46365002468075006136771776255046 1:-0.42503139 2:0.30257836 3:0.32354003 4:0.78316075 5:-2.0131521 6:1.5590028 7:0.74231738 8:-0.02050524 9:0.59434336 10:0.28604725 11:0.57299781 12:0.43884596 #
3.3536915030689291583598787838127 1:-0.013596408 2:0.12273453 3:0.223846 4:0.76943403 5:0.9434765 6:1.1898717 7:0.26327658 8:0.8059352 9:-0.34338519 10:0.79945844 11:1.0605145 12:0.56483388 #
-3.0638320675691046446331711194944 1:0.40200722 2:0.42939362 3:0.19123261 4:0.47789738 5:0.064964138 6:1.1038656 7:1.0066916 8:0.61767286 9:1.1506032 10:0.36520427 11:1.049695 12:0.69679761 #
0.4546864393017691075016273316578 1:0.80059558 2:0.57880521 3:-0.1036103 4:0.029576959 5:1.1035728 6:1.4377252 7:0.20624612 8:-0.013128942 9:0.32483891 10:0.97078776 11:-0.77123779 12:0.1734782 #
-7.0305258841358932997422925836872 1:1.0504485 2:0.55855167 3:0.078173317 4:1.0086008 5:0.42157176 6:1.0033901 7:0.74299902 8:0.43408898 9:0.59654498 10:0.4656505 11:0.41672421 12:1.1071851 #
-6.1654152739993355325509583053645 1:0.30262274 2:0.56197387 3:1.1770973 4:0.75022006 5:0.59487087 6:0.95271665 7:0.76049966 8:0.015260763 9:0.73898566 10:-0.0047038193 11:1.0051253 12:-0.065151468 #
0.78735759781635328291571340741939 1:0.65347368 2:0.24953307 3:1.0941912 4:0.5774551 5:1.2871224 6:-0.0079849074 7:0.45516798 8:0.17969938 9:0.36599982 10:1.1385682 11:0.71140987 12:1.0168862 #
-2.245161468619047973049873689888 1:0.83288771 2:0.55758393 3:-0.62855434 4:0.06346187 5:0.20579816 6:0.84394085 7:0.95455682 8:-0.15569687 9:0.44231418 10:0.95294225 11:0.23282944 12:-0.83934295 #
-0.99350382199763842550055414903909 1:-0.19230667 2:0.33984593 3:0.68908221 4:-0.1802181 5:0.31021714 6:0.37689009 7:-0.040564783 8:-0.22015092 9:0.5628534 10:0.078108832 11:-0.063686579 12:0.92167705 #
2.6797779296049757391529055894352 1:0.36235139 2:0.064847194 3:0.0076753586 4:0.64220142 5:1.0841933 6:0.21925731 7:1.0359546 8:0.1152181 9:0.99115908 10:0.42461517 11:0.065864809 12:0.014797132 #
-0.5265608689133138842208836649661 1:1.4207019 2:0.21629164 3:0.34979603 4:0.00052307209 5:-0.57160288 6:1.0553675 7:1.2392188 8:0.55176812 9:1.2510653 10:1.1067125 11:1.1865307 12:0.6107899 #
1.0135869471474752145923048374243 1:0.13868397 2:0.097398981 3:-0.02316674 4:1.0918242 5:0.043874342 6:1.0190551 7:0.32900178 8:0.23543717 9:0.056534164 10:0.098224483 11:0.97942024 12:0.14824821 #
1.0507843847704672057830066478346 1:0.26856908 2:0.72912973 3:0.46920133 4:0.54899597 5:0.68180132 6:-0.19867021 7:0.7684682 8:0.51368433 9:1.3006594 10:-0.21078402 11:1.012804 12:-0.068836577 #
6.7029400593513059902761597186327 1:0.098520271 2:-0.069085889 3:-0.053295806 4:0.8936128 5:0.53978181 6:0.26724547 7:0.49596217 8:0.50095922 9:0.050372023 10:0.18022308 11:0.14051214 12:0.088026568 #
0.94322249535514390839097131902236 1:1.5039809 2:-0.0746525 3:0.32325977 4:0.082232744 5:0.19356683 6:0.72497845 7:1.5077672 8:0.20388763 9:1.3739867 10:-0.46783218 11:0.36599272 12:-0.38527998 #
-0.0083125572701270595415978803544022 1:0.83818978 2:-0.34429851 3:-5.7241847e-05 4:1.7089131 5:-0.79374039 6:1.0750937 7:1.0605911 8:-0.18248284 9:0.44279948 10:0.19694881 11:0.99699998 12:0.77340013 #
-23.94455430759144576313701691106 1:1.3465405 2:0.071458541 3:0.95859718 4:0.34451711 5:0.67041194 6:0.051612671 7:-0.19302803 8:-0.075482182 9:0.88963348 10:0.37941778 11:0.58036131 12:0.32709703 #
3.6500957809697505140889006725047 1:0.91396141 2:1.362548 3:0.58746374 4:0.54191494 5:0.91389334 6:0.16125859 7:0.60782248 8:-0.027093537 9:0.05891715 10:0.90604722 11:0.58817279 12:0.30744666 #
-7.8881102156685587445394958194811 1:0.08194875 2:0.095519125 3:0.32892421 4:0.37269175 5:0.23551612 6:0.71833044 7:0.10881703 8:1.1136498 9:0.0081740627 10:0.4669466 11:0.4370997 12:0.83651519 #
1.7284585996660855045092830550857 1:1.4214385 2:-0.47086003 3:0.70969975 4:0.95051092 5:0.21301727 6:0.55112964 7:-0.12988366 8:0.52117956 9:1.0835239 10:-0.16109879 11:0.092698261 12:-0.098471276 #
-1.9563887323816202545856413053116 1:0.38400486 2:0.73028588 3:0.68469006 4:-0.13499865 5:-0.21340775 6:0.79161769 7:-0.041363128 8:0.28888226 9:0.27090216 10:-0.75027102 11:0.8138392 12:0.77143919 #
3.7413324971323613787888007209403 1:0.77847809 2:0.069513015 3:0.93908042 4:0.10149831 5:1.1416223 6:0.3925564 7:0.016781414 8:0.51116675 9:0.23057044 10:0.98244125 11:0.11853068 12:0.47887409 #
-0.16097408264648191411616551249608 1:1.1450876 2:0.23695104 3:0.40045625 4:0.15828435 5:-0.52425438 6:0.15086034 7:0.87804729 8:0.26654062 9:0.26017731 10:-0.15559873 11:1.0052613 12:1.5640516 #
-1.3440647701221213328182102486608 1:0.065119773 2:-0.25031668 3:2.0594015 4:0.35644588 5:0.79197443 6:0.057461295 7:0.078953721 8:0.82411331 9:0.30072507 10:0.53568339 11:0.92994195 12:0.75168622 #
4.1186473250419295411006714857649 1:-0.2762042 2:0.74042237 3:0.056840215 4:0.56037247 5:0.34416732 6:0.88619399 7:1.1881495 8:0.96889049 9:0.12721144 10:0.74198061 11:0.84973395 12:0.81852835 #
0.090404507255386706843225397278729 1:1.0930878 2:-0.27122104 3:0.34427947 4:0.29495797 5:0.9093771 6:-0.1506023 7:0.34279206 8:0.61883998 9:0.81724989 10:0.25333685 11:0.2212415 12:-0.31157991 #
3.8028636723360560445428291131975 1:0.61298734 2:0.32987741 3:0.81817734 4:0.81188774 5:1.1050709 6:0.37520254 7:0.97168934 8:0.059334163 9:0.98593801 10:0.34417403 11:0.26999459 12:1.02132 #
0.60798590250284878511166652970132 1:0.75183105 2:-0.024204731 3:1.3321356 4:0.05504179 5:0.068224564 6:0.81989878 7:0.365125 8:0.33849993 9:0.62925535 10:2.0352235 11:1.3439294 12:0.95629537 #
-2.9412338095197783083278864069143 1:1.2799486 2:-0.038015306 3:1.3179423 4:-0.074495271 5:0.36938012 6:0.28897712 7:0.74058366 8:0.37033808 9:1.2195948 10:0.40967089 11:0.61363655 12:1.0346714 #
0.91261118418464493018404937174637 1:0.20420416 2:-0.19886607 3:1.4557852 4:0.42506692 5:0.41316438 6:0.40999559 7:0.33151621 8:-0.18828192 9:-0.97421193 10:-0.16381253 11:1.1409383 12:0.77506709 #
-1.4464663880014931862660887418315 1:1.0192523 2:0.21034388 3:0.34727553 4:0.23067687 5:1.2964324 6:1.2074517 7:0.7918008 8:0.40289322 9:0.94757646 10:1.1698294 11:0.79811132 12:1.1120533 #
17.603398314419138159792055375874 1:0.96745503 2:0.80302584 3:0.38692841 4:0.69239438 5:0.2162296 6:1.1341227 7:0.15970977 8:-0.15919989 9:-0.22398129 10:0.83070469 11:0.72202408 12:0.67081261 #
0.20330531034857407535199058656872 1:-0.018869758 2:-0.081749558 3:0.35941324 4:0.7633751 5:1.2797219 6:0.87184769 7:-0.071953535 8:0.17923099 9:0.43756726 10:0.85731089 11:-0.27965602 12:0.70874351 #
7.4571822499869355738155718427151 1:0.11724728 2:0.013293189 3:-0.30794969 4:0.4314805 5:1.0126319 6:0.75488764 7:0.62195778 8:0.3651593 9:0.96950775 10:1.2098651 11:0.70486826 12:0.33215091 #
0.39675558826788054345158229807566 1:-0.044492796 2:0.062177703 3:1.2718685 4:0.92579585 5:1.3231943 6:0.45729998 7:0.41801956 8:0.63522732 9:1.4506389 10:0.42633501 11:1.1088356 12:1.0173314 #
6.4055128131006497937960375566036 1:0.82373148 2:0.063535087 3:1.063009 4:-0.05815642 5:1.2174875 6:-0.028955745 7:0.18306565 8:0.48786476 9:0.85097098 10:0.2937389 11:1.3000215 12:0.44996375 #
0.60288259632262353182596825718065 1:0.072515175 2:-0.031868558 3:0.71557218 4:0.31032076 5:1.0810201 6:-0.3385126 7:0.46668801 8:1.2841699 9:0.390558 10:-0.1951057 11:1.6685492 12:0.3417277 #
-23.487360253090500350481306668371 1:0.54366004 2:0.87296772 3:0.74853188 4:0.38803852 5:0.42727795 6:0.64703941 7:0.9212358 8:0.27527663 9:0.13596661 10:0.11696211 11:0.49781671 12:0.54041469 #
2.5694697627195983713477289711591 1:0.11956163 2:0.19943888 3:0.95112491 4:0.5733726 5:0.4471918 6:0.62154144 7:0.14663401 8:-0.17555621 9:0.29391208 10:0.86140537 11:1.165081 12:0.85918635 #
-6.9671516663238648447986633982509 1:-0.18136084 2:-0.034088317 3:-0.004527634 4:1.0637399 5:0.62144303 6:0.68382603 7:1.1630821 8:0.15097204 9:0.73063219 10:0.76843899 11:0.97400868 12:0.60970557 #
-0.1636766432580898655846368683342 1:1.3059683 2:0.3980056 3:1.5104665 4:-0.19510411 5:-0.016151452 6:0.42804298 7:0.65390915 8:-0.051906593 9:2.1647034 10:-1.1786875 11:1.0366114 12:-0.4489089 #
1.4516822629904702068870392395183 1:0.33505335 2:0.025110135 3:0.87574619 4:0.44064239 5:0.65217841 6:-0.14141597 7:-0.12436473 8:0.051320162 9:-0.088420585 10:0.084122702 11:0.23454344 12:0.84300721 #
12.456839292295684984424042340834 1:1.0846348 2:0.7475574 3:0.34943932 4:0.74397898 5:1.0152593 6:0.33145756 7:-0.19983223 8:-0.48674697 9:-0.49046111 10:0.10392106 11:0.47943318 12:0.19286841 #
3.3464602693448939341180903284112 1:0.22794656 2:-0.18914826 3:0.50699651 4:0.79742098 5:1.0037214 6:0.47653729 7:0.40547392 8:0.7715534 9:0.97395951 10:0.45363545 11:0.11926785 12:0.72431201 #
4.6213185199300559347079797589686 1:-0.22653177 2:-0.17634873 3:0.30568334 4:0.89258671 5:0.63653666 6:0.26042181 7:-0.16565071 8:0.095613316 9:-0.26114309 10:0.54706669 11:-0.1016724 12:0.47575992 #
3.4973753952728872107513780065347 1:1.0824031 2:-0.31235275 3:1.1644399 4:0.51673603 5:1.0928774 6:0.94575304 7:0.82212478 8:0.13049722 9:0.57472342 10:0.69490498 11:0.31699693 12:0.038858168 #
0.83724928864675551842822187609272 1:0.24962643 2:0.45244014 3:0.62823617 4:0.27653936 5:-0.93674517 6:0.50186515 7:1.5847185 8:0.30451334 9:0.017515486 10:0.29138669 11:1.1867627 12:-0.29480001 #
0.30494377172217029814405009346956 1:-0.65079147 2:1.8345307 3:-0.15552522 4:0.26725718 5:0.8748129 6:-0.036972865 7:0.53582293 8:-0.15279554 9:0.655936 10:0.67249203 11:0.65735841 12:0.18186486 #
-0.52556205719767656869834127064678 1:-0.32007998 2:-0.17489204 3:-0.90199965 4:1.8062488 5:0.89852035 6:0.55183083 7:-0.69744205 8:-0.012629632 9:0.2214672 10:-0.46552947 11:-1.0431656 12:1.5327512 #
0.22863998801070237187893496866309 1:0.62039262 2:-0.66653174 3:0.19953083 4:0.86398041 5:1.5259408 6:0.2307626 7:1.620313 8:-0.13372025 9:0.4344129 10:0.57973212 11:0.36850911 12:-0.25317347 #
0.68190558893657371442031944752671 1:-0.42410228 2:0.35916907 3:0.28429022 4:0.38785857 5:-0.1478316 6:1.3603667 7:0.78630096 8:-0.89128625 9:0.7436707 10:0.78910464 11:-0.26749322 12:0.37890568 #
2.9235903886075029767255273327464 1:0.66266209 2:-0.090975471 3:-0.22571816 4:0.14992788 5:0.82884002 6:0.21220233 7:0.78828037 8:0.51158524 9:-0.031942483 10:0.62599945 11:-0.4056544 12:0.77300906 #
-5.9189911613986136984522090642713 1:0.060423765 2:0.69400787 3:0.92954868 4:0.20602372 5:0.64902693 6:0.067684121 7:0.71460748 8:0.13740441 9:1.2865095 10:1.2341744 11:-0.058160614 12:0.80895162 #
0.89307157616397614408043637013179 1:0.66858417 2:0.14401267 3:0.32802695 4:0.67855006 5:0.12291332 6:0.65814757 7:-0.22841653 8:1.3834636 9:-0.12833528 10:0.38698632 11:-0.11794132 12:1.0164757 #
0.012486538055374810790576489694104 1:0.45907867 2:0.077606365 3:0.085342929 4:0.038749319 5:0.06701763 6:1.7670909 7:0.16713656 8:0.3275612 9:0.83292818 10:1.3393013 11:1.34279 12:0.53012645 #
-1.4162826029965005503186148416717 1:0.27243531 2:1.0587164 3:0.33065864 4:0.64785832 5:0.55820936 6:0.70133662 7:0.611606 8:0.054420087 9:0.71349663 10:-0.012721691 11:0.29398152 12:1.4764266 #
5.948376398658239416761261963984 1:0.12198882 2:0.62279493 3:-0.0015709167 4:0.42474526 5:1.2052157 6:0.88898784 7:0.69801074 8:0.12036496 9:1.1244584 10:-0.035455387 11:0.9025014 12:0.87016988 #
1.0262981316560351174871357216034 1:0.48487976 2:-0.49968091 3:0.64057469 4:-0.10512249 5:1.8765363 6:1.6116138 7:0.18765935 8:0.02759021 9:0.91728967 10:-0.12328433 11:0.67869604 12:0.73155409 #
0.86635846595202414821557113100425 1:0.43246365 2:0.020011159 3:0.8542906 4:-0.36642897 5:0.73901284 6:1.0817454 7:0.2129674 8:1.3366145 9:0.43136656 10:1.247465 11:0.58172369 12:0.95723313 #
-1.1250898296347522364868609656696 1:0.56374836 2:0.19233352 3:-0.014584108 4:0.59566069 5:1.1689699 6:0.78850359 7:0.55996323 8:0.10844804 9:0.6008417 10:0.33061892 11:0.018841572 12:0.66080958 #
-0.49704707115825352836679940082831 1:0.36447388 2:0.076681264 3:0.94556093 4:0.1818704 5:-0.0045968392 6:1.100747 7:0.52690434 8:0.093296751 9:-0.088150516 10:0.97627157 11:-0.014299476 12:0.44361758 #
-10.959396812315462810261124104727 1:-0.027437337 2:-0.27150366 3:0.95197099 4:0.074747108 5:-0.166371 6:0.66992474 7:0.84758598 8:0.036246751 9:0.81657076 10:0.58545369 11:0.65829164 12:0.5066604 #
-7.2935884966085655634060458396561 1:0.82352847 2:0.33628005 3:0.07282158 4:0.12672263 5:0.15236433 6:0.26762262 7:0.78270257 8:1.1637617 9:0.52709591 10:-0.0010551494 11:0.037603043 12:1.0038731 #
10.129710330771684922979147813749 1:0.066021919 2:1.1341019 3:0.44584218 4:-0.12905358 5:0.69237411 6:0.52310467 7:0.80826473 8:-0.41327181 9:-0.45167756 10:0.19674298 11:-0.059154164 12:0.50656402 #
-0.89685884352526157314855481672566 1:1.2729462 2:-0.61515474 3:0.70700985 4:0.26016054 5:0.65946639 6:-0.36584035 7:1.729394 8:0.50530541 9:0.068591662 10:0.51564682 11:0.66917318 12:1.0687848 #
1.0495639314441509437614286071039 1:0.73012799 2:0.20607586 3:0.97453463 4:0.041403137 5:-0.097820818 6:0.27937302 7:0.49387699 8:0.70548481 9:0.052767262 10:0.95980334 11:0.5843696 12:0.35264495 #
-1.1494601939994129047306614666013 1:0.45720968 2:-0.019302364 3:-0.68275297 4:1.0770323 5:-0.043418285 6:0.52867818 7:0.47633505 8:-0.0060778367 9:1.047682 10:0.69226027 11:0.30184409 12:0.32735267 #
-2.6269405009731849887089083495084 1:0.88852161 2:0.51104099 3:0.60974818 4:1.0473803 5:-0.18632598 6:0.030556619 7:0.29977947 8:-0.19686471 9:0.62237316 10:-0.18627909 11:0.076638006 12:0.77252662 #
3.3858385162258266554147212445969 1:0.97305495 2:0.030584713 3:0.5291034 4:0.017441951 5:1.1791128 6:0.76779956 7:0.82516527 8:0.15081568 9:0.10852671 10:0.39225647 11:0.17875525 12:0.19158792 #
1.6616213632382239584472927163006 1:0.67863166 2:0.14644964 3:0.28369147 4:0.95262772 5:-0.22162305 6:-0.27643886 7:0.81599844 8:0.18998498 9:0.99883109 10:0.15308242 11:0.54446244 12:0.44332403 #
1.2143188382795075952458319079597 1:-0.057223406 2:-0.70088989 3:0.29008609 4:1.1956898 5:0.19370283 6:0.99081695 7:0.35623682 8:-0.47804791 9:1.2881181 10:1.7083025 11:0.70768982 12:1.0021753 #
10.31498461329456084456523967674 1:0.90810895 2:0.20183633 3:0.98758858 4:0.37984365 5:0.5204004 6:0.14995255 7:1.126776 8:0.25858185 9:0.55829829 10:-0.065537252 11:0.11968706 12:0.75840414 #
-1.6705386470129162113096299435711 1:1.3264825 2:-0.17444868 3:1.5196691 4:-0.014209431 5:0.52290899 6:0.86358917 7:0.88172519 8:0.63525736 9:0.85041863 10:1.4277906 11:1.7101412 12:0.92275333 #
-4.805310376869502242414000647841 1:0.44891766 2:0.45710015 3:-0.052246213 4:0.37263 5:-0.053534612 6:0.24048713 7:0.97664303 8:-0.19123578 9:0.92748994 10:0.61859679 11:0.27776179 12:0.90765882 #
-8.2889067810706489325411894242279 1:-0.0031329736 2:1.2410632 3:0.64465779 4:0.31419218 5:0.35548043 6:0.29862994 7:0.38963598 8:0.072026536 9:0.54789788 10:-0.57438618 11:0.5962534 12:0.64911264 #
-15.355070724043537566672057437245 1:1.25818 2:-0.046306357 3:0.67075121 4:0.46378711 5:0.15796451 6:0.73237342 7:0.1677666 8:-0.1024011 9:0.48679996 10:0.9863165 11:0.82996583 12:0.83944952 #
4.5862999182322230495856274501421 1:1.059106 2:1.168254 3:0.41350651 4:-0.10734644 5:1.0277717 6:0.71256965 7:-0.075441658 8:0.20661317 9:0.80878574 10:0.83395058 11:0.81703639 12:0.77767557 #
0.96725703026595399869336233678041 1:1.0305095 2:1.1155647 3:0.37948334 4:1.0922467 5:0.58468324 6:0.58540958 7:0.6274305 8:0.28331831 9:0.63364118 10:-0.44993469 11:0.52417052 12:0.42569101 #
-3.3921947500965066168987505079713 1:0.068015285 2:-0.025577299 3:0.80869734 4:0.12573028 5:0.43349624 6:1.1387042 7:0.70156187 8:0.64781749 9:0.74151778 10:-0.024425494 11:1.0282755 12:0.13061142 #
0.48666002248677492358908125424932 1:1.1623156 2:0.0045984285 3:0.11021872 4:0.48466852 5:0.80461389 6:0.44524747 7:0.83405131 8:0.24084727 9:0.4570756 10:0.30108464 11:0.7249102 12:0.66475141 #
5.7685033538618668558228819165379 1:0.8025378 2:-0.1994562 3:-0.25034639 4:0.81357777 5:0.75758827 6:0.66271007 7:-0.28978553 8:1.0551479 9:0.40994948 10:0.34797099 11:0.87157267 12:1.3942842 #
-0.78733863959954020206311042784364 1:0.78596926 2:0.21873178 3:1.1065602 4:0.58942491 5:0.69141656 6:0.95810449 7:0.81549793 8:-0.15885247 9:0.41483015 10:0.89794809 11:0.38243744 12:1.0839249 #
-1.0231761024813594840310315703391 1:-0.37570021 2:0.43906835 3:1.2504846 4:1.4199585 5:0.94171101 6:0.40551469 7:0.57169002 8:0.45042881 9:0.25745389 10:-0.14303198 11:0.97145492 12:1.2567651 #
1.2798282797084798989573073413339 1:0.70886856 2:0.010304836 3:1.06708 4:0.74309129 5:0.6866402 6:0.55248064 7:0.95281112 8:0.30374843 9:0.54615098 10:0.51045638 11:0.82292646 12:-0.028236512 #
-6.2922737245484698931363709561992 1:-0.26267368 2:-0.098302431 3:0.93099606 4:0.28327334 5:0.78604591 6:0.67598993 7:1.3663239 8:0.065366454 9:1.1011987 10:1.0029709 11:0.69025642 12:1.4052944 #
-0.19491553657206592276018852771813 1:-0.23740327 2:-0.32864368 3:2.0854731 4:1.455707 5:0.4060764 6:0.45689484 7:0.1127886 8:-0.24195214 9:-0.20777874 10:0.87896502 11:-0.74475354 12:0.18144734 #
5.2249919827089126300734278629534 1:0.43114606 2:0.25937808 3:0.97360963 4:1.5591501 5:0.30114973 6:0.49913171 7:0.56000471 8:-0.13644254 9:-0.20079668 10:0.064421423 11:0.84379917 12:1.1363298 #
-3.1823028729092865951599833351793 1:0.73685837 2:0.95809662 3:0.58825576 4:0.40477937 5:0.32395062 6:0.87228626 7:0.47519994 8:-0.13604698 9:1.000491 10:1.0165601 11:1.1738269 12:0.21461068 #
1.2555068539014873074677325348603 1:1.8214318 2:0.5551309 3:-0.43480873 4:0.24400587 5:0.75539076 6:0.87944156 7:1.1148771 8:0.60113811 9:-0.31362808 10:0.2826049 11:1.2509763 12:0.72548193 #
-1.3761746961964966828873002668843 1:0.88750577 2:0.50836021 3:0.94343835 4:0.32799557 5:0.76628327 6:0.55311066 7:0.46118355 8:0.10529093 9:1.1209711 10:0.95719653 11:0.36535203 12:2.2125461 #
-0.27807838259085099208434144202329 1:0.94119549 2:0.37465897 3:0.41800773 4:1.1140401 5:1.0431229 6:0.72610331 7:0.88757354 8:0.073426947 9:-0.010189353 10:0.63543802 11:1.2930499 12:1.195914 #
2.6870363852529313142269984382438 1:1.1186728 2:0.31488425 3:1.0335165 4:0.29731122 5:0.16778366 6:0.47282103 7:0.42793214 8:0.49323273 9:0.68827999 10:0.14655966 11:1.0042101 12:0.0036163512 #
0.37470902669750277835802876325033 1:0.8510558 2:0.10227604 3:0.57203263 4:0.75424159 5:0.15711297 6:0.23334992 7:0.73805159 8:0.26979402 9:-0.12199831 10:0.26998436 11:0.29829991 12:0.80627608 #
-0.99274523619211574310128298748168 1:0.55664992 2:1.3073293 3:0.53171444 4:-0.31919506 5:0.61042327 6:0.18332945 7:0.54792893 8:0.096119054 9:0.33425227 10:0.28715166 11:1.4652206 12:-0.29856762 #
1.752161375004142485067859524861 1:0.82179707 2:0.03950445 3:1.3170426 4:-0.12240375 5:-0.084838919 6:0.44251454 7:0.73274714 8:0.18348393 9:0.17158467 10:-0.3017312 11:0.24419481 12:0.044897482 #
-9.1593637372766636417509289458394 1:0.26422074 2:0.92918128 3:0.8326441 4:0.99969566 5:0.31731364 6:0.43013722 7:0.072538689 8:0.01590891 9:0.67916012 10:0.1104382 11:0.16783001 12:0.44568467 #
4.223544964260909750919381622225 1:1.1741817 2:0.82160491 3:0.49826282 4:0.18217903 5:0.35696086 6:-0.09761887 7:0.44673485 8:-0.12983496 9:0.034307793 10:0.37240037 11:0.052857634 12:0.29319072 #
1.8990229234188338303113141591894 1:0.11790849 2:0.33811888 3:-0.29075739 4:1.1504666 5:0.062031906 6:-0.41982147 7:-0.11408988 8:0.15293762 9:0.80236405 10:0.95170271 11:1.0295415 12:1.0686921 #
-6.4613077194545409653869683097582 1:0.62801611 2:-0.24545893 3:0.55433369 4:0.4070206 5:0.28871492 6:0.442974 7:-0.14093061 8:0.51468331 9:1.2642137 10:-0.11790754 11:0.13995226 12:1.1901278 #
1.1718517988936509865993684798013 1:-0.63273126 2:0.55559373 3:1.0046345 4:1.0943849 5:1.1122266 6:0.082463413 7:0.91176891 8:0.79485512 9:0.59752834 10:0.12933551 11:0.10928065 12:0.75026876 #
1.5226159457509420569465419248445 1:0.75905162 2:0.60476559 3:0.69063312 4:0.30535987 5:0.9149797 6:0.55828238 7:0.92283839 8:0.50561774 9:0.8617996 10:0.20239879 11:1.2116076 12:1.1412654 #
-0.78334600722399572170218107203254 1:0.7046814 2:-0.12116885 3:0.10924357 4:-0.08521799 5:1.1541053 6:-0.62253875 7:-0.48059428 8:0.42933181 9:0.11869116 10:0.60729289 11:-0.69990599 12:0.44267067 #
3.3399772276611847665606092050439 1:0.24756399 2:0.16205597 3:0.56046778 4:0.67179406 5:0.029945588 6:0.12553018 7:0.3301326 8:0.42663869 9:1.1425892 10:0.30034339 11:0.58571559 12:1.4310975 #
-0.93197157980335576521468965438544 1:0.48539507 2:0.094137624 3:1.7977489 4:-0.11745875 5:0.11650255 6:0.89770758 7:0.74265307 8:0.59769922 9:1.2974316 10:1.0976229 11:-0.23641296 12:-0.3303085 #
2.8646491073122692938568434328772 1:0.38439319 2:-0.30027023 3:0.97855651 4:1.2930839 5:-0.33914411 6:0.63010252 7:0.25026816 8:0.21131347 9:0.36731735 10:0.59283209 11:0.5774315 12:0.09194129 #
4.1412919687501892340719678031746 1:-0.11818742 2:1.0952591 3:0.36016142 4:0.94553041 5:0.35397768 6:0.34612739 7:1.5702006 8:-0.84063673 9:0.3633354 10:0.76803064 11:0.66801566 12:0.90664279 #
3.9442815664601416081325169216143 1:0.65467018 2:-0.050658882 3:0.12465142 4:0.50185108 5:0.28028974 6:0.65368646 7:0.72846103 8:0.077699862 9:0.9767018 10:1.149002 11:-0.079713069 12:-0.091867223 #
-0.43736146907326428623363767655974 1:0.29004082 2:0.016831087 3:0.08924602 4:-0.0018790235 5:0.103227 6:0.28893763 7:0.55687225 8:-0.97836 9:2.1496942 10:-0.053522866 11:0.14840655 12:0.41856688 #
-1.7439532384557563382543321495177 1:-0.1187427 2:0.83468676 3:0.2158768 4:0.037144609 5:0.37383291 6:0.16560274 7:-0.35096848 8:0.35120332 9:0.37874067 10:0.92545539 11:0.86677736 12:0.40311533 #
0.25890197221687077933083287462068 1:0.15209509 2:-0.03622745 3:0.83685553 4:0.069350168 5:-0.19016004 6:0.8167339 7:-0.35930166 8:0.16639383 9:0.48247787 10:0.52370059 11:0.59210372 12:1.7879931 #
-0.29790978477252655354234889273357 1:0.90105307 2:0.30082247 3:-0.04308179 4:1.0262142 5:0.19470009 6:0.70069247 7:0.94230604 8:0.4769057 9:0.57841724 10:0.31109324 11:-0.023273073 12:-0.01263609 #
-1.9258958864822814938122519379249 1:1.2788423 2:0.23716308 3:0.20579736 4:0.78172827 5:-0.024768466 6:0.72839594 7:0.68066078 8:-0.037676718 9:0.63982081 10:-0.54958588 11:0.93634099 12:-0.1197231 #
0.18636783181247337792818541402085 1:0.51681548 2:0.089163668 3:0.87084919 4:0.65704322 5:0.75154203 6:0.13431507 7:0.34002694 8:-0.030558141 9:0.72893572 10:1.1308155 11:1.1710986 12:-0.44152495 #
-0.42545290326702056571406274088076 1:0.77825588 2:-0.39820826 3:0.16187374 4:0.50427455 5:1.7884685 6:0.76906461 7:0.58965576 8:0.26827347 9:0.91171277 10:0.40559313 11:-0.76487511 12:0.59739691 #
2.6626281605708044253333355300128 1:0.3194834 2:-0.18967673 3:-0.41450909 4:0.444406 5:-0.20775083 6:-0.11761209 7:1.0203966 8:1.039191 9:0.3792372 10:0.0047852835 11:-0.10857973 12:1.4402059 #
-2.6182917554431530682279571919935 1:0.45540544 2:0.029831171 3:-0.33878538 4:0.99253446 5:0.21257895 6:-0.038982976 7:1.0626234 8:-0.32678255 9:-0.35409465 10:1.2727838 11:0.047188111 12:0.26844072 #
8.063389109549008892940946680028 1:0.037676729 2:0.8995173 3:-0.036648948 4:0.62596184 5:0.5077154 6:0.18207212 7:-0.079801552 8:-0.16228922 9:0.13963899 10:0.74763244 11:0.23776837 12:0.90189463 #
18.381491118686724917097308207303 1:0.33030894 2:-0.35827383 3:0.13305448 4:0.57017505 5:0.19811876 6:0.63451576 7:0.34504899 8:0.70553285 9:0.43255469 10:0.30559531 11:1.1000162 12:0.68747669 #
-4.2782883514230984900450494023971 1:0.46988928 2:0.40132865 3:0.50453514 4:0.47886139 5:0.89599812 6:-0.0087877903 7:0.44230738 8:0.22467683 9:0.098071024 10:0.47389147 11:0.85475194 12:0.80862641 #
-1.1992093394895906310892996771145 1:1.0267968 2:-0.12040888 3:1.4537772 4:0.46485135 5:1.8048506 6:0.82917672 7:-0.24900921 8:0.33132699 9:0.20670035 10:1.1026193 11:-0.2490304 12:0.45969585 #
-1.0655976705528857895188821203192 1:0.57226181 2:0.31212625 3:1.2444351 4:0.1031229 5:-0.49289694 6:0.26348522 7:0.44800931 8:-0.33342403 9:0.10283569 10:0.69063878 11:1.0223738 12:0.42411473 #
-1.1161172130275924807563114882214 1:1.1743063 2:-0.5971666 3:0.062797248 4:0.84418762 5:0.64538354 6:1.111912 7:1.1608468 8:1.0308557 9:0.75824279 10:1.0598763 11:0.49996799 12:0.34057179 #
-1.3772103386607474906355719213025 1:-0.64472437 2:0.0034812593 3:-0.023969742 4:0.24641052 5:1.31313 6:0.94167876 7:1.2443703 8:0.099620536 9:0.12566233 10:0.50832766 11:0.79373586 12:0.36695489 #
2.2365275145280034685413284023525 1:0.66908205 2:0.042046275 3:0.4664081 4:1.2179782 5:-0.2785871 6:0.15137804 7:0.68880737 8:-0.01283773 9:0.18880926 10:1.0830165 11:0.20604365 12:-0.035343725 #
0.90086646772255007942220572658698 1:0.3806327 2:-0.0099369166 3:0.13991497 4:1.1712066 5:-0.29290852 6:0.35607499 7:-0.088651225 8:0.61505163 9:0.98811609 10:0.86814874 11:0.28455865 12:-0.20925812 #
1.3413841968799464776651575448341 1:0.65292972 2:0.087756097 3:0.12941858 4:0.57932639 5:0.85536122 6:0.47914347 7:0.13437213 8:0.25686958 9:1.2310302 10:0.89626223 11:0.46391863 12:0.59170187 #
0.086014475029111400750103655354906 1:0.59084427 2:0.059212722 3:-0.28595287 4:1.4310002 5:1.5731411 6:0.11489772 7:0.16454363 8:0.67138791 9:1.3891865 10:0.1722241 11:1.3312895 12:-1.1692948 #
-3.3071719917425532742072391556576 1:0.52535099 2:0.037245791 3:0.45398429 4:0.45537564 5:0.56478518 6:0.60320354 7:0.08956822 8:0.57334423 9:0.14042117 10:1.029189 11:0.80510765 12:0.67112082 #
-0.20412149141665636431497432567994 1:0.23756492 2:1.3817276 3:0.58459485 4:0.34704193 5:-0.65354514 6:1.0706882 7:0.050267443 8:0.65461653 9:1.2639167 10:0.92811 11:0.97360945 12:0.0096812099 #
0.070521501172781747568407695325732 1:0.37475491 2:1.1955268 3:0.57409734 4:1.0253867 5:0.33036807 6:-0.15997583 7:0.52675849 8:1.2244644 9:-0.050491523 10:0.58249795 11:-0.23905085 12:0.12600979 #
1.4329121836404183909507992211729 1:1.04698 2:0.76232672 3:1.2340909 4:0.50000179 5:1.7439113 6:-0.3166925 7:0.44308874 8:0.17921337 9:-0.40001094 10:-0.38088828 11:0.56649458 12:0.25170225 #
-0.97201074964299549741042483219644 1:0.49360889 2:-0.12687969 3:1.029098 4:0.460666 5:0.58599645 6:0.27018106 7:0.30127227 8:0.35216171 9:1.3293767 10:1.0724219 11:0.4246563 12:0.4427627 #
-0.34356408575055868981351636648469 1:0.086165339 2:0.097772576 3:0.16775282 4:-0.77792335 5:-0.02928775 6:1.3740544 7:0.44027334 8:0.19741608 9:-0.26970828 10:-0.16540366 11:0.078822918 12:-0.40222266 #
0.79483837258486267351997867081081 1:0.52261102 2:0.73157364 3:0.98615021 4:-0.40147653 5:0.20623012 6:0.96961486 7:0.085422896 8:0.22127418 9:1.0885561 10:0.52611774 11:-0.36217627 12:0.42613921 #
7.1894577097801439791169286763761 1:0.22778496 2:0.1145472 3:0.36541715 4:0.32258326 5:-0.27296171 6:0.8363564 7:0.065912493 8:0.033460908 9:0.92124915 10:0.99043959 11:0.68622637 12:0.73476619 #
2.3060382766469804671771726134466 1:0.40434718 2:0.20426953 3:-0.12315348 4:1.1518162 5:0.23336446 6:0.71139127 7:0.3548992 8:0.60316527 9:0.89347351 10:0.91411102 11:1.1653097 12:0.038839296 #
0.48984175392017681449630117640481 1:-0.033883356 2:0.079444624 3:0.82892984 4:1.3239068 5:3.3069806 6:0.38637853 7:0.43895304 8:-0.74932009 9:0.47052455 10:0.63960695 11:0.82882541 12:0.61859947 #
-5.3487185623735298278802474669646 1:0.47849315 2:0.81940788 3:1.7788002 4:0.04967504 5:1.1684366 6:0.35755149 7:0.19645457 8:0.48560292 9:1.1414602 10:0.43164065 11:0.40204936 12:0.73010999 #
1.9881737605191025508588609227445 1:1.1636181 2:0.16638485 3:0.17130831 4:0.33769852 5:0.082677193 6:0.77128679 7:0.41604081 8:0.57810324 9:1.1633208 10:0.52252811 11:-0.30936101 12:0.77408707 #
0.72564550244547987301046987340669 1:0.88910413 2:0.13207971 3:0.99964368 4:-0.059782863 5:0.39433718 6:1.0877926 7:0.70509887 8:-0.17800479 9:0.87827879 10:-0.4589681 11:-0.69589496 12:1.3960814 #
-1.3312755838257905871557795762783 1:0.1520171 2:0.68866277 3:0.65170074 4:0.98019773 5:-0.11072037 6:0.82800317 7:0.65871519 8:-0.03751808 9:0.79542667 10:0.075354867 11:0.98838967 12:0.90618253 #
3.1026491841818053529777898802422 1:0.95598572 2:1.3580494 3:-0.16905296 4:0.65340948 5:0.83419383 6:0.65757942 7:-0.53258264 8:0.37781453 9:1.1758454 10:0.085322261 11:0.40908465 12:-0.10820068 #
0.29512069783245342691202495188918 1:0.85020047 2:0.56333756 3:0.84506577 4:-0.10543088 5:0.55866885 6:0.50089407 7:-0.26309362 8:0.73568797 9:0.14526959 10:0.23308617 11:-0.13523895 12:1.0433116 #
0.46185262625754502918695720836695 1:0.67420906 2:0.90794802 3:0.59945822 4:0.36114651 5:1.1781156 6:0.29846978 7:-0.29695681 8:0.39958668 9:1.0536084 10:-0.14158556 11:0.61750853 12:1.1425573 #
3.1811398037967650864743518468458 1:0.41759488 2:0.54846919 3:1.2408183 4:0.17186436 5:1.2549981 6:1.1023337 7:0.22188888 8:0.46750805 9:0.70880246 10:0.51828724 11:0.093147777 12:0.10357129 #
2.3541581467944339145503818144789 1:0.28847727 2:-0.24278817 3:0.68043143 4:0.78285939 5:0.35052386 6:0.34801909 7:0.17283063 8:0.23046649 9:0.55040276 10:-0.22310489 11:0.21892779 12:0.29708326 #
-0.69782690172751615786950196707039 1:0.34140572 2:0.43513766 3:0.99719274 4:-0.068686716 5:0.97650456 6:1.3284023 7:0.40996382 8:0.080050886 9:1.4743203 10:0.49482563 11:0.70704454 12:0.80350107 #
0.76070823824824318482029639199027 1:0.15647082 2:0.63767236 3:0.91526365 4:0.45059177 5:-0.013209333 6:1.272965 7:1.0891389 8:-0.60733181 9:0.59024471 10:1.6934416 11:0.087219402 12:1.1032608 #
-2.2682977171244216307854912884068 1:-0.4032172 2:-0.52658242 3:0.86947793 4:0.90987855 5:0.41164684 6:-0.16724779 7:-0.19188674 8:0.56840569 9:0.80257016 10:0.51503408 11:-0.15350802 12:0.12384338 #
-5.6699870079580554360632049792912 1:0.8728143 2:0.10009555 3:0.0012097755 4:0.69772094 5:0.088182263 6:0.10626861 7:0.90849143 8:-0.025910761 9:0.6797033 10:0.37893513 11:1.0325418 12:0.09903986 #
10.046180775951706110049599374179 1:0.056611206 2:0.25028872 3:0.2665424 4:0.46374515 5:0.086802885 6:0.4511227 7:0.075960964 8:0.062604249 9:0.88544744 10:0.19386648 11:-0.18537545 12:0.37658659 #
-10.062724309082783591406951018143 1:0.78249782 2:0.52617902 3:0.15608728 4:0.55034274 5:1.0046953 6:0.11185309 7:0.72979826 8:0.059900798 9:0.80859655 10:0.49261042 11:0.47587216 12:0.25122193 #
2.2811311230758346546565462631406 1:0.80314022 2:0.22709058 3:0.36115032 4:0.52440995 5:0.21705458 6:0.25741833 7:0.73541522 8:0.18128835 9:1.0263035 10:0.56728882 11:0.85710192 12:0.86805344 #
2.8897037196255457303095681709237 1:0.10706361 2:0.23910473 3:0.48413876 4:0.14025918 5:0.38625664 6:1.1875346 7:-0.046129905 8:0.22112937 9:0.083083145 10:-0.048047457 11:0.20647055 12:0.94854617 #
-5.1559328466724858586189839115832 1:-0.075203806 2:0.011677859 3:0.74077523 4:1.1998342 5:0.79879111 6:0.93021691 7:0.99876899 8:0.38255346 9:0.15467815 10:0.65269762 11:0.062603652 12:0.37110776 #
6.3082191794810489327005598170217 1:-0.032026656 2:-0.26295257 3:-0.25840262 4:0.2161745 5:0.40803543 6:0.034183413 7:0.80496067 8:0.74309689 9:0.27282816 10:1.1725912 11:0.24049078 12:0.59408611 #
-6.9110797103225252158154034987092 1:0.57698405 2:0.62798923 3:0.24206725 4:0.69279313 5:-0.013419055 6:0.035447121 7:0.31557155 8:0.25980484 9:-1.3720211 10:0.27502501 11:0.40035486 12:0.43333539 #
-4.4197287249806436193466652184725 1:1.3714305 2:0.42644122 3:1.0175799 4:1.1256611 5:0.73703384 6:0.20904385 7:0.71146357 8:0.45871833 9:0.12948759 10:0.57581443 11:-0.18440698 12:0.9089275 #
-1.8308026683151317204334418420331 1:1.8390262 2:0.43021032 3:0.73448509 4:1.3946116 5:0.45136863 6:0.71745205 7:0.16303818 8:-0.082244806 9:1.1763288 10:1.1093715 11:0.073447287 12:0.4871254 #
0.26996747345656446626094293606002 1:-0.64149654 2:-1.027519 3:0.59521079 4:-1.0802563 5:0.027448272 6:0.64318532 7:0.097799212 8:1.0371554 9:-0.68778032 10:0.73597014 11:0.27828494 12:0.65573025 #
3.2062868356406264425118024519179 1:0.35320082 2:0.58385664 3:0.17552941 4:0.59289306 5:-0.12543297 6:-0.30138764 7:1.2031411 8:0.21567298 9:1.095993 10:0.21476756 11:0.10062325 12:-0.74106377 #
-2.0674538573449248168856229312951 1:0.63186216 2:0.83356625 3:-0.4422546 4:0.44138375 5:0.45232838 6:0.44104505 7:1.3323931 8:-0.084516004 9:1.1952993 10:0.39131075 11:1.1646725 12:0.96415126 #
3.7534580386328939560769413219532 1:1.4414259 2:0.33424032 3:-0.038130917 4:0.58167267 5:0.25021321 6:-0.57731259 7:0.14140411 8:0.30755275 9:0.32936898 10:1.6651659 11:-0.012624062 12:0.48110482 #
-2.4895667669658663179177437996259 1:0.75420696 2:0.99821293 3:0.46384057 4:0.98682117 5:0.52463275 6:0.96030509 7:1.2778835 8:0.90307218 9:-0.43128258 10:-0.1439285 11:0.74345404 12:0.52342314 #
-0.87550539182275310956526936934097 1:0.44934952 2:-0.092623278 3:1.4868796 4:0.67889404 5:-0.27955982 6:1.0388098 7:-0.17927037 8:0.78131765 9:-0.42651585 10:0.84197074 11:-0.064572118 12:0.015432268 #
-2.2052058584439131472265671618516 1:0.32368276 2:-0.4129343 3:1.1244313 4:1.1695036 5:0.30751583 6:0.68318462 7:0.67750305 8:1.4504406 9:0.84138775 10:0.008827785 11:1.2308664 12:0.85523307 #
0.54936967311978757155799257816398 1:0.52962619 2:-0.10199502 3:0.82772911 4:0.19640355 5:0.85295355 6:0.20386089 7:1.3185838 8:1.1061579 9:0.52200305 10:0.87952828 11:0.93601233 12:0.82367533 #
2.2314463709636567223526526504429 1:0.27645758 2:0.42910048 3:0.5923447 4:0.95073313 5:0.34871414 6:0.32405198 7:0.80359399 8:0.20006515 9:1.1477801 10:0.46769667 11:0.70428056 12:-0.0073545626 #
0.3741276577688953386413572843594 1:0.27556577 2:0.57954943 3:0.98464257 4:0.44830406 5:1.1372454 6:0.35477909 7:0.59886348 8:0.094693974 9:1.093498 10:0.84095353 11:0.79352689 12:0.50183785 #
1.4821564771201716226300959533546 1:-0.33152175 2:1.441851 3:0.7562924 4:0.0429556 5:-0.030422609 6:0.29575479 7:0.78495985 8:0.097711183 9:1.1721127 10:-1.3075453 11:0.42122963 12:0.26364142 #
1.1659593775684851113538798017544 1:0.76088148 2:-0.012167421 3:0.91521245 4:1.0250248 5:0.5031727 6:0.056125518 7:0.69840986 8:0.013278527 9:0.68796921 10:0.80420959 11:-0.10475435 12:0.52417535 #
0.47937429634706441028413337335223 1:-0.77145386 2:-0.9416725 3:1.1103973 4:1.2893267 5:0.23740429 6:-0.28888497 7:-0.4337239 8:0.44573087 9:1.2160788 10:0.79638135 11:-0.41059679 12:-0.026136365 #
7.2939446155955325323816396121401 1:0.28530473 2:0.26637691 3:0.26871586 4:0.77112716 5:0.8692897 6:0.8990339 7:0.67394847 8:-0.19429812 9:1.1172191 10:-0.064891607 11:0.8743825 12:0.024698781 #
-9.346820067183379876496474025771 1:-0.10859239 2:-0.084032774 3:0.59179139 4:0.038689256 5:0.61925197 6:0.86987251 7:0.04064317 8:1.2345936 9:0.87680918 10:-0.073427215 11:0.24691126 12:0.64823794 #
-4.0577039503274630050100313383155 1:0.81498325 2:1.395859 3:0.72489339 4:1.0135005 5:0.7508356 6:0.15661505 7:1.0390127 8:-0.19905621 9:-0.99528611 10:0.79290903 11:-0.46560544 12:0.40391997 #
-0.7743834597599155156188999171718 1:0.060557947 2:0.25454634 3:0.88327128 4:1.3923304 5:0.31917921 6:0.16247346 7:0.87388003 8:0.13568142 9:1.6524559 10:0.29406032 11:1.4497361 12:-0.66988343 #
3.1450245633705837811078254162567 1:0.99702674 2:0.73036641 3:0.89820927 4:0.072928481 5:0.54717422 6:1.346081 7:0.76834685 8:0.36990505 9:0.67115241 10:0.30415499 11:0.8829909 12:0.22966619 #
-7.1346500166565709477595191856381 1:-0.35870886 2:0.32526374 3:0.25958765 4:0.85297406 5:-0.028821474 6:0.7371341 7:0.63174683 8:-0.085005157 9:0.38019842 10:-0.16657297 11:0.28354353 12:0.32992601 #
-0.028939823475694129856217173824007 1:-0.0020467481 2:0.38032183 3:0.21310371 4:0.9311235 5:-0.78213638 6:1.0125245 7:-0.35401762 8:-0.3900775 9:0.3858076 10:1.4179707 11:0.54346836 12:1.1594324 #
-2.5812770139468965702178593346616 1:-0.091916449 2:0.18310507 3:-0.573816 4:1.4013568 5:0.39828914 6:0.1858266 7:0.24208903 8:1.5478846 9:0.9279471 10:0.74021327 11:-0.091237053 12:0.48409972 #
9.4634621431207008868113916832954 1:0.33295143 2:0.20539208 3:0.59585148 4:0.41607568 5:-0.026644103 6:0.30367559 7:0.55488241 8:-0.26173419 9:-0.017884487 10:0.70110488 11:0.10959081 12:0.48969391 #
-0.52014813810577009700608641651343 1:1.0183361 2:0.18283333 3:1.8349904 4:-0.12706076 5:0.00032589753 6:1.0048116 7:0.14516988 8:0.58333057 9:1.0782545 10:2.2337127 11:1.6264679 12:0.77050942 #
-8.0469328924752172582657294697128 1:-0.1000069 2:0.16495614 3:0.51497501 4:0.057513025 5:0.79070342 6:0.38498026 7:0.75794333 8:0.19482592 9:0.024447592 10:1.0343901 11:0.37035167 12:-0.18843532 #
17.423862512953061099096885300241 1:0.25964433 2:0.38770187 3:0.50031394 4:0.33277711 5:0.92877156 6:0.0087444987 7:0.26104668 8:0.0077147014 9:0.66660494 10:0.48414961 11:0.34259731 12:-0.0084400866 #
7.7378121231861758388959060539491 1:0.13103876 2:0.36017048 3:1.0192792 4:0.51963359 5:0.86932361 6:0.9244678 7:0.32708693 8:0.52351153 9:0.49598217 10:-0.080951653 11:0.34512976 12:0.60089362 #
-0.98223048930534673228720521365176 1:0.52399588 2:0.19775006 3:1.1216868 4:0.34085965 5:0.29020855 6:1.7715098 7:0.19666858 8:0.85835189 9:0.81281394 10:0.63872021 11:0.80757678 12:-0.66624308 #
-3.3749493929228129296404858905589 1:0.37568501 2:0.74454731 3:0.79362702 4:-0.046723656 5:1.0145867 6:0.71398258 7:0.49916488 8:-0.86936051 9:0.66263932 10:-0.29807872 11:0.49856561 12:0.31262723 #
-1.6551246158949151077166561663034 1:1.7592288 2:0.28285742 3:-0.37794515 4:0.37128007 5:0.16976738 6:-0.98423648 7:-0.10954778 8:0.52084011 9:0.050900847 10:2.1973538 11:-0.23515694 12:0.28743795 #
3.2628647869729605623945190018276 1:0.07704664 2:-0.21860528 3:1.2773473 4:0.88642448 5:0.45583594 6:0.89873219 7:0.2630648 8:0.27423424 9:0.17955041 10:0.58455682 11:-0.044190105 12:0.87392086 #
-3.4517192787121810937378540984355 1:0.56337285 2:0.70181942 3:0.34066314 4:-0.21692438 5:0.75207675 6:0.47343683 7:0.8778286 8:-0.27072453 9:0.70317221 10:0.12886934 11:0.7753852 12:0.98961049 #
-1.4635070839430610600828686074237 1:-0.4537901 2:0.12117579 3:0.050402008 4:-0.3606241 5:1.4086149 6:0.72561336 7:2.0364196 8:0.5467748 9:-0.48886845 10:0.72163016 11:-0.0095755747 12:0.59672356 #
11.699766832239809843940747668967 1:-0.081824727 2:1.0339439 3:0.6624617 4:0.80723906 5:0.66777736 6:-0.33646473 7:0.98239726 8:-0.24765387 9:-0.26638025 10:0.90284693 11:1.0001564 12:0.61452913 #
-1.467273244605908688598105982237 1:-0.22879425 2:0.093900777 3:0.4929727 4:0.66122359 5:0.78634942 6:0.088280916 7:1.9833788 8:0.74844831 9:1.5227876 10:-0.12786043 11:0.58975017 12:1.090336 #
-1.5286460702128361610618867416633 1:0.5633291 2:0.98366982 3:-0.15278971 4:0.32353133 5:0.36848727 6:0.413194 7:0.18787415 8:-0.42580009 9:0.77519029 10:-0.19199027 11:0.81285512 12:-0.12830588 #
4.4052379703209245676021055260208 1:0.18627861 2:1.0191112 3:0.42887366 4:0.39949271 5:0.29456377 6:0.76549333 7:0.32043403 8:-1.1022201 9:-0.33547226 10:0.16480109 11:0.74483013 12:0.7136516 #
-2.3512861378926794841959235782269 1:0.56015104 2:0.38149998 3:-0.059352644 4:1.1741831 5:0.83913666 6:0.6341486 7:0.3421737 8:0.45373803 9:2.222497 10:0.56688172 11:0.66041678 12:0.87353772 #
-0.073556763693702204021107604603458 1:0.66699392 2:0.37392351 3:0.035575032 4:-0.066337906 5:0.35189384 6:0.65845841 7:1.0468862 8:0.11550994 9:0.78736329 10:0.52579623 11:-0.35679096 12:0.75084043 #
-5.1416818412945666239011188736185 1:-0.10127127 2:0.097518817 3:0.90940565 4:-0.14648414 5:0.65929157 6:0.024222884 7:0.68856061 8:0.25656146 9:0.50638908 10:0.35078385 11:1.2485511 12:1.0812103 #
0.25692667430508631110086525950464 1:0.47470352 2:0.34037817 3:0.28753689 4:0.073113039 5:0.19740112 6:0.50775707 7:0.51688504 8:-0.093969308 9:0.70971459 10:0.27508387 11:0.42274788 12:0.046886347 #
-7.8282168261736471137623993854504 1:0.83084428 2:0.22152433 3:0.47296417 4:-0.00045610801 5:0.36367831 6:0.89935583 7:0.22623117 8:0.21376467 9:0.3876206 10:-0.020672198 11:0.80404395 12:0.32978204 #
1.6387930418803384746695428475505 1:0.47935414 2:0.24228179 3:-0.20984989 4:-0.02195349 5:-0.094171382 6:0.90878457 7:0.74967355 8:0.25329006 9:1.0708123 10:0.63012904 11:1.2924137 12:-0.47100365 #
3.1326054652175399084512719127815 1:0.47483182 2:0.2897833 3:0.58550024 4:1.0504415 5:0.46057001 6:1.353608 7:0.65762991 8:0.30912 9:1.188399 10:0.10390829 11:-0.15979615 12:1.2229809 #
-1.5680909193430065950991547651938 1:0.60795426 2:0.14495264 3:0.60325539 4:1.0022184 5:0.9400965 6:1.1798053 7:0.69598699 8:0.040110555 9:1.0127295 10:1.1091764 11:0.59234327 12:0.3532922 #
-3.6324784370638441011180930217961 1:1.2210487 2:0.99889237 3:0.62012494 4:-0.34143779 5:0.45428807 6:0.45705095 7:1.1045544 8:0.87835097 9:0.93179512 10:0.51690215 11:0.22399446 12:0.77381331 #
28.326035817148870421533501939848 1:0.19538131 2:0.40741017 3:0.8491531 4:0.3936916 5:0.51503783 6:0.57688546 7:0.3314063 8:0.12749389 9:0.67406934 10:0.19484174 11:0.97827983 12:0.56177318 #
-1.1529230114666546569424099288881 1:-0.65294987 2:0.2340104 3:0.055357724 4:0.25681177 5:1.1116357 6:0.59982777 7:0.4748604 8:0.019440075 9:0.47580504 10:1.2656898 11:0.39564019 12:1.0244421 #
-14.032249699863291070300874707755 1:1.3342787 2:-0.3441917 3:0.28378952 4:0.37187096 5:0.88181776 6:0.91363764 7:-0.25761962 8:0.16475792 9:0.14995705 10:0.62398028 11:0.44868624 12:0.19635065 #
-2.7543558088779853676442144205794 1:0.67883795 2:0.43419108 3:-0.027042093 4:0.55038941 5:0.22852269 6:1.1527549 7:0.79903871 8:0.18777995 9:-0.13856368 10:-0.013363461 11:-0.037766106 12:0.73120898 #
-3.2020654287894121381441436824389 1:-0.020296009 2:0.19923109 3:1.1422356 4:0.024513952 5:0.027626898 6:0.67879909 7:0.91723901 8:1.1398489 9:1.0193487 10:0.32181308 11:0.23843227 12:1.1635299 #
3.0706263444898702630325715290383 1:0.25654525 2:0.14579973 3:0.47456399 4:0.11493758 5:0.48635101 6:0.19172373 7:0.50710917 8:0.59133375 9:0.52358937 10:0.14922653 11:0.50629842 12:0.17352423 #
-1.9528454165828934563364782661665 1:0.22524217 2:0.084107876 3:1.1946967 4:0.31299499 5:0.54498637 6:0.61051917 7:0.67445111 8:0.54609138 9:0.37734798 10:0.38606179 11:-0.066591322 12:0.0060444488 #
2.9431632388927413401802368753124 1:0.068681531 2:0.84127897 3:0.79033333 4:-0.12868169 5:0.46324998 6:1.0095619 7:0.20951729 8:0.2860865 9:0.93074048 10:0.05179584 11:0.54185915 12:-0.21932019 #
-0.23243898534767354346897150207951 1:-1.0345255 2:2.6406193 3:-0.17896859 4:0.6018737 5:0.66665131 6:-0.48426577 7:0.69000697 8:-0.40651074 9:0.53600806 10:1.0233034 11:0.74950105 12:0.16253839 #
-8.4205784201353655049615554162301 1:0.48845792 2:1.0721983 3:1.1146153 4:-0.12344451 5:0.65521896 6:0.47631177 7:-0.22415437 8:-0.62399971 9:-0.18826665 10:0.73542476 11:0.017973889 12:0.8721956 #
-0.46531556247827865480104492235114 1:-0.90369654 2:0.096342087 3:-0.094840281 4:0.7235058 5:0.77970976 6:0.65003687 7:-0.085541956 8:-0.54922247 9:-0.18244866 10:0.94624567 11:1.2028165 12:-0.047710232 #
2.2329491434264978622081798675936 1:0.49494338 2:-0.11908179 3:-0.02967708 4:0.20168619 5:0.58921623 6:-0.0090380162 7:0.83032739 8:-0.17540786 9:0.05971013 10:0.14322855 11:1.3820883 12:0.63788599 #
-0.1633498622772493469312848901609 1:0.012035134 2:0.20389983 3:1.3511178 4:0.19485681 5:0.56735063 6:1.6790045 7:0.19165927 8:0.27179399 9:-0.52551752 10:0.84472424 11:1.0745001 12:0.28252396 #
-7.9583549949264531520043419732247 1:0.077594183 2:0.2295083 3:0.21279019 4:0.40187213 5:0.063257776 6:0.73329633 7:0.52949178 8:0.1860134 9:0.24554409 10:0.82623696 11:0.89661789 12:0.23874342 #
13.303380875115383474849295453168 1:1.384406 2:0.047825485 3:0.0074946629 4:0.77604842 5:0.71836066 6:0.66060913 7:-0.58007902 8:1.3085459 9:0.57550597 10:0.37151122 11:0.0083059035 12:0.31785244 #
6.4991975708579596826552915445063 1:0.52201825 2:0.79599774 3:0.34419453 4:0.84911478 5:-0.025382007 6:0.70516205 7:0.3551794 8:-0.03664704 9:0.13272294 10:0.59599113 11:0.63787943 12:1.2549272 #
1.0839995006371083707819025221397 1:0.53562909 2:-0.043855645 3:0.78397799 4:0.48256665 5:0.90278393 6:0.6362952 7:-0.18894909 8:0.19840367 9:0.24070607 10:0.28610998 11:0.91613585 12:0.025637437 #
-0.00097434858898563618534449659591701 1:-0.256675 2:0.44339404 3:0.67667598 4:1.0048693 5:0.029802458 6:0.85943627 7:1.2197622 8:1.5643581 9:0.66248882 10:1.0003762 11:0.32243833 12:0.73126513 #
-17.08580077666286456405941862613 1:0.73965788 2:0.067730203 3:0.88147473 4:0.19993381 5:0.036739152 6:0.17150767 7:0.055235751 8:0.25727439 9:0.47734818 10:0.44242221 11:0.78996146 12:0.55576646 #
2.0816388224609121415653589792782 1:-0.54168719 2:-0.5342266 3:0.95908439 4:0.72820443 5:0.14069416 6:1.0273991 7:0.58564538 8:1.3469886 9:0.44862366 10:-0.044277951 11:0.31732711 12:1.1869389 #
8.5033071776172501898827249533497 1:0.70731908 2:0.03755023 3:0.068898797 4:0.13244891 5:0.92099309 6:0.7340036 7:0.27959442 8:0.93391746 9:0.99348301 10:0.34804082 11:0.77174413 12:0.48750132 #
-2.3792630932350151695686690800358 1:0.34724554 2:0.52804095 3:0.083892167 4:0.66238433 5:0.21466954 6:0.15845944 7:0.50326699 8:0.11532012 9:0.015739774 10:0.75303298 11:0.43857947 12:0.10742674 #
-0.57170035838530963712145194222103 1:0.16505341 2:0.0026395221 3:-0.34570783 4:1.3172587 5:0.547189 6:0.27995673 7:0.57728624 8:0.89924622 9:1.1795477 10:1.5821888 11:1.3155012 12:-0.18760744 #
-8.1411166909928898149928500060923 1:1.1153669 2:-0.19884321 3:0.69850338 4:0.40914705 5:0.19397393 6:0.6481325 7:1.1820258 8:1.3132912 9:1.1607094 10:-0.21183895 11:0.78248972 12:0.51298624 #
14.50679930880065526821454113815 1:-0.11434998 2:-0.27119675 3:-0.37355727 4:0.59125936 5:0.52278042 6:0.86373061 7:1.465404 8:1.1910595 9:0.44838113 10:0.70378846 11:0.19873373 12:0.30438963 #
9.1087047329033374865048244828358 1:-0.038769256 2:1.1357328 3:0.66323143 4:0.31723768 5:-0.0075704413 6:0.65974528 7:1.0813286 8:-0.094274342 9:-0.040164266 10:1.1918164 11:0.66637868 12:-0.25195861 #
-0.60612083375971192999998038430931 1:0.074286252 2:0.25333437 3:0.64245141 4:1.0161488 5:-0.90653586 6:0.40543336 7:1.1091441 8:1.7254974 9:0.24427389 10:1.1779215 11:0.64025426 12:0.80445951 #
-2.1276900341605071709238927724073 1:0.15410294 2:-0.1519254 3:0.49625114 4:-0.75648153 5:0.08650957 6:-0.051999424 7:0.81684226 8:0.81630558 9:0.46444148 10:0.16571191 11:0.70949209 12:0.73253828 #
7.5146975993574711694122925109696 1:0.41962072 2:-0.74328607 3:-0.058090422 4:0.35174173 5:1.464165 6:0.82580531 7:0.69185525 8:0.20276043 9:-0.049169388 10:0.50390804 11:0.82756323 12:0.45471406 #
0.23570915512204271280438661051448 1:0.96567923 2:0.34615713 3:0.98633319 4:0.43482894 5:1.3812994 6:0.45323798 7:1.2419618 8:0.99799228 9:1.0661455 10:0.04968895 11:0.52605242 12:0.34613404 #
0.49849500971606336419128524539701 1:1.4144439 2:-0.87542409 3:0.48027232 4:0.60679394 5:0.80255228 6:1.2657531 7:1.3382087 8:1.8069546 9:1.3744785 10:0.35251123 11:0.31060442 12:0.25890043 #
0.1609936568189816730178876014179 1:0.59858888 2:-0.6924631 3:-0.18591344 4:0.53281897 5:-0.27870765 6:0.44270694 7:-0.027674897 8:0.64741004 9:-0.16159876 10:1.2179612 11:1.249507 12:0.80970669 #
7.7334876327840831322646408807486 1:0.64180231 2:0.10570534 3:0.60128367 4:0.4739069 5:0.91710472 6:0.65618813 7:0.59651017 8:0.55487925 9:0.95606905 10:0.099787913 11:0.16817676 12:0.31878212 #
0.37798659191558525716203575939289 1:0.8051095 2:0.11618715 3:1.0267619 4:0.14861134 5:-0.39302948 6:1.305823 7:1.0780746 8:0.75657785 9:0.91043681 10:0.22031654 11:0.32909453 12:0.58569032 #
-1.1861010296689125098623662779573 1:1.002054 2:-0.24004476 3:1.0016786 4:0.56053799 5:0.034503963 6:0.012798772 7:-0.72705096 8:0.74160373 9:0.47307891 10:0.56570482 11:0.64340395 12:0.077552855 #
0.38555051930211342581245048677374 1:2.3107409 2:0.28282058 3:-0.87651479 4:0.57865673 5:-0.047264494 6:-1.3711193 7:-0.23164612 8:0.82564479 9:0.15815289 10:2.6963227 11:-1.0671878 12:0.066239424 #
